{"LayerWraps":[{"LayerType":5,"Dense":null,"Dropout":null,"Flatten":null,"Lstm":null,"MaxPool":null,"Conv":{"Shape":{"Height":30,"Width":30,"Depth":1},"Kernel":{"Count":16,"Dim":3},"Activation":1,"Stride":1,"Filters":[{"ElementsOneD":null,"ElementsTwoD":null,"ElementsThreeD":[[[0.080910966],[0.04955528],[-0.024723941]],[[0.069840044],[0.010113785],[-0.069288455]],[[-0.03845322],[-0.105037436],[-0.093206935]]],"_shape":{"Height":3,"Width":3,"Depth":1},"Shape":{"Height":3,"Width":3,"Depth":1}},{"ElementsOneD":null,"ElementsTwoD":null,"ElementsThreeD":[[[0.057102248],[0.059067518],[0.04370134]],[[0.040856566],[0.08464494],[0.05285017]],[[0.023690557],[0.05380463],[-0.0066171237]]],"_shape":{"Height":3,"Width":3,"Depth":1},"Shape":{"Height":3,"Width":3,"Depth":1}},{"ElementsOneD":null,"ElementsTwoD":null,"ElementsThreeD":[[[0.07554922],[0.10419604],[0.07667485]],[[0.023430608],[0.050051525],[0.053587828]],[[-0.08673628],[-0.14083688],[-0.020856384]]],"_shape":{"Height":3,"Width":3,"Depth":1},"Shape":{"Height":3,"Width":3,"Depth":1}},{"ElementsOneD":null,"ElementsTwoD":null,"ElementsThreeD":[[[-0.0057748067],[0.049700446],[0.07077009]],[[0.023536451],[0.060321897],[-0.014025122]],[[0.041384764],[-0.023156978],[0.024931867]]],"_shape":{"Height":3,"Width":3,"Depth":1},"Shape":{"Height":3,"Width":3,"Depth":1}},{"ElementsOneD":null,"ElementsTwoD":null,"ElementsThreeD":[[[0.0725025],[-0.012900922],[-0.039776456]],[[0.021763751],[-0.011995863],[-0.032403283]],[[-0.017202958],[0.01899162],[-0.06864012]]],"_shape":{"Height":3,"Width":3,"Depth":1},"Shape":{"Height":3,"Width":3,"Depth":1}},{"ElementsOneD":null,"ElementsTwoD":null,"ElementsThreeD":[[[0.023258157],[-0.07095843],[-0.036349807]],[[0.015069392],[-0.02065804],[-0.04226822]],[[0.090526894],[0.050804056],[0.020238098]]],"_shape":{"Height":3,"Width":3,"Depth":1},"Shape":{"Height":3,"Width":3,"Depth":1}},{"ElementsOneD":null,"ElementsTwoD":null,"ElementsThreeD":[[[0.014121771],[-0.06830417],[0.056537516]],[[0.0031456638],[-0.049817003],[0.013963811]],[[0.038291086],[-0.09193277],[0.006760096]]],"_shape":{"Height":3,"Width":3,"Depth":1},"Shape":{"Height":3,"Width":3,"Depth":1}},{"ElementsOneD":null,"ElementsTwoD":null,"ElementsThreeD":[[[-0.0051128264],[0.09079636],[0.05747698]],[[-0.0072768815],[0.0890112],[0.06447945]],[[-0.02906665],[-0.008926561],[0.0074033216]]],"_shape":{"Height":3,"Width":3,"Depth":1},"Shape":{"Height":3,"Width":3,"Depth":1}},{"ElementsOneD":null,"ElementsTwoD":null,"ElementsThreeD":[[[0.07227254],[0.08743035],[0.060034573]],[[0.05602942],[0.056233007],[-0.0014689799]],[[0.054161448],[-0.014174871],[0.02752989]]],"_shape":{"Height":3,"Width":3,"Depth":1},"Shape":{"Height":3,"Width":3,"Depth":1}},{"ElementsOneD":null,"ElementsTwoD":null,"ElementsThreeD":[[[-0.07694305],[0.0022911457],[0.060670666]],[[-0.018659404],[0.046046548],[0.07393098]],[[0.019107021],[0.0860547],[0.09553145]]],"_shape":{"Height":3,"Width":3,"Depth":1},"Shape":{"Height":3,"Width":3,"Depth":1}},{"ElementsOneD":null,"ElementsTwoD":null,"ElementsThreeD":[[[0.11203357],[0.0830631],[0.018762682]],[[0.114379026],[0.039241478],[-0.009491622]],[[0.06970485],[0.019665338],[-0.026613392]]],"_shape":{"Height":3,"Width":3,"Depth":1},"Shape":{"Height":3,"Width":3,"Depth":1}},{"ElementsOneD":null,"ElementsTwoD":null,"ElementsThreeD":[[[0.08659252],[0.06435221],[0.10956358]],[[0.06588685],[0.061184928],[-0.03992345]],[[-0.006053995],[-0.017685547],[-0.11844007]]],"_shape":{"Height":3,"Width":3,"Depth":1},"Shape":{"Height":3,"Width":3,"Depth":1}},{"ElementsOneD":null,"ElementsTwoD":null,"ElementsThreeD":[[[0.04802796],[0.10626448],[0.09714896]],[[0.06193416],[0.060557306],[0.09158085]],[[0.06945787],[0.05562818],[0.083932355]]],"_shape":{"Height":3,"Width":3,"Depth":1},"Shape":{"Height":3,"Width":3,"Depth":1}},{"ElementsOneD":null,"ElementsTwoD":null,"ElementsThreeD":[[[-0.058962528],[-0.042657934],[-0.058366798]],[[-0.044785205],[-0.032010827],[-5.0730887E-05]],[[0.10356],[0.081392296],[0.10855301]]],"_shape":{"Height":3,"Width":3,"Depth":1},"Shape":{"Height":3,"Width":3,"Depth":1}},{"ElementsOneD":null,"ElementsTwoD":null,"ElementsThreeD":[[[0.12019087],[0.044810157],[0.079096]],[[0.1267209],[0.02158382],[-0.062045388]],[[0.07428596],[-0.021832764],[-0.046355993]]],"_shape":{"Height":3,"Width":3,"Depth":1},"Shape":{"Height":3,"Width":3,"Depth":1}},{"ElementsOneD":null,"ElementsTwoD":null,"ElementsThreeD":[[[-0.01088142],[0.032088097],[0.018626064]],[[-0.03430347],[-0.023025963],[0.027509958]],[[-0.003640737],[-0.009941677],[0.068515405]]],"_shape":{"Height":3,"Width":3,"Depth":1},"Shape":{"Height":3,"Width":3,"Depth":1}}],"FilterGradients":[{"ElementsOneD":null,"ElementsTwoD":null,"ElementsThreeD":[[[0.0],[0.0],[0.0]],[[0.0],[0.0],[0.0]],[[0.0],[0.0],[0.0]]],"_shape":{"Height":3,"Width":3,"Depth":1},"Shape":{"Height":3,"Width":3,"Depth":1}},{"ElementsOneD":null,"ElementsTwoD":null,"ElementsThreeD":[[[0.0],[0.0],[0.0]],[[0.0],[0.0],[0.0]],[[0.0],[0.0],[0.0]]],"_shape":{"Height":3,"Width":3,"Depth":1},"Shape":{"Height":3,"Width":3,"Depth":1}},{"ElementsOneD":null,"ElementsTwoD":null,"ElementsThreeD":[[[0.0],[0.0],[0.0]],[[0.0],[0.0],[0.0]],[[0.0],[0.0],[0.0]]],"_shape":{"Height":3,"Width":3,"Depth":1},"Shape":{"Height":3,"Width":3,"Depth":1}},{"ElementsOneD":null,"ElementsTwoD":null,"ElementsThreeD":[[[0.0],[0.0],[0.0]],[[0.0],[0.0],[0.0]],[[0.0],[0.0],[0.0]]],"_shape":{"Height":3,"Width":3,"Depth":1},"Shape":{"Height":3,"Width":3,"Depth":1}},{"ElementsOneD":null,"ElementsTwoD":null,"ElementsThreeD":[[[0.0],[0.0],[0.0]],[[0.0],[0.0],[0.0]],[[0.0],[0.0],[0.0]]],"_shape":{"Height":3,"Width":3,"Depth":1},"Shape":{"Height":3,"Width":3,"Depth":1}},{"ElementsOneD":null,"ElementsTwoD":null,"ElementsThreeD":[[[0.0],[0.0],[0.0]],[[0.0],[0.0],[0.0]],[[0.0],[0.0],[0.0]]],"_shape":{"Height":3,"Width":3,"Depth":1},"Shape":{"Height":3,"Width":3,"Depth":1}},{"ElementsOneD":null,"ElementsTwoD":null,"ElementsThreeD":[[[0.0],[0.0],[0.0]],[[0.0],[0.0],[0.0]],[[0.0],[0.0],[0.0]]],"_shape":{"Height":3,"Width":3,"Depth":1},"Shape":{"Height":3,"Width":3,"Depth":1}},{"ElementsOneD":null,"ElementsTwoD":null,"ElementsThreeD":[[[0.0],[0.0],[0.0]],[[0.0],[0.0],[0.0]],[[0.0],[0.0],[0.0]]],"_shape":{"Height":3,"Width":3,"Depth":1},"Shape":{"Height":3,"Width":3,"Depth":1}},{"ElementsOneD":null,"ElementsTwoD":null,"ElementsThreeD":[[[0.0],[0.0],[0.0]],[[0.0],[0.0],[0.0]],[[0.0],[0.0],[0.0]]],"_shape":{"Height":3,"Width":3,"Depth":1},"Shape":{"Height":3,"Width":3,"Depth":1}},{"ElementsOneD":null,"ElementsTwoD":null,"ElementsThreeD":[[[0.0],[0.0],[0.0]],[[0.0],[0.0],[0.0]],[[0.0],[0.0],[0.0]]],"_shape":{"Height":3,"Width":3,"Depth":1},"Shape":{"Height":3,"Width":3,"Depth":1}},{"ElementsOneD":null,"ElementsTwoD":null,"ElementsThreeD":[[[0.0],[0.0],[0.0]],[[0.0],[0.0],[0.0]],[[0.0],[0.0],[0.0]]],"_shape":{"Height":3,"Width":3,"Depth":1},"Shape":{"Height":3,"Width":3,"Depth":1}},{"ElementsOneD":null,"ElementsTwoD":null,"ElementsThreeD":[[[0.0],[0.0],[0.0]],[[0.0],[0.0],[0.0]],[[0.0],[0.0],[0.0]]],"_shape":{"Height":3,"Width":3,"Depth":1},"Shape":{"Height":3,"Width":3,"Depth":1}},{"ElementsOneD":null,"ElementsTwoD":null,"ElementsThreeD":[[[0.0],[0.0],[0.0]],[[0.0],[0.0],[0.0]],[[0.0],[0.0],[0.0]]],"_shape":{"Height":3,"Width":3,"Depth":1},"Shape":{"Height":3,"Width":3,"Depth":1}},{"ElementsOneD":null,"ElementsTwoD":null,"ElementsThreeD":[[[0.0],[0.0],[0.0]],[[0.0],[0.0],[0.0]],[[0.0],[0.0],[0.0]]],"_shape":{"Height":3,"Width":3,"Depth":1},"Shape":{"Height":3,"Width":3,"Depth":1}},{"ElementsOneD":null,"ElementsTwoD":null,"ElementsThreeD":[[[0.0],[0.0],[0.0]],[[0.0],[0.0],[0.0]],[[0.0],[0.0],[0.0]]],"_shape":{"Height":3,"Width":3,"Depth":1},"Shape":{"Height":3,"Width":3,"Depth":1}},{"ElementsOneD":null,"ElementsTwoD":null,"ElementsThreeD":[[[0.0],[0.0],[0.0]],[[0.0],[0.0],[0.0]],[[0.0],[0.0],[0.0]]],"_shape":{"Height":3,"Width":3,"Depth":1},"Shape":{"Height":3,"Width":3,"Depth":1}}],"Bias":{"ElementsOneD":[0.0012904701,-0.0012904704,-0.0012904702,0.0012904702,0.0012904702,-0.0012904704,-0.0012904701,-0.0012904704,0.0012904702,0.0012904702,0.0012904702,0.0012904702,0.0012904702,0.0012904702,0.0012904704,0.0012904702],"ElementsTwoD":null,"ElementsThreeD":null,"_shape":{"Height":16,"Width":0,"Depth":0},"Shape":{"Height":16,"Width":0,"Depth":0}},"BiasGradients":{"ElementsOneD":[0.0,0.0,0.0,0.0,0.0,0.0,0.0,0.0,0.0,0.0,0.0,0.0,0.0,0.0,0.0,0.0],"ElementsTwoD":null,"ElementsThreeD":null,"_shape":{"Height":16,"Width":0,"Depth":0},"Shape":{"Height":16,"Width":0,"Depth":0}}}},{"LayerType":4,"Dense":null,"Dropout":null,"Flatten":null,"Lstm":null,"MaxPool":{"Shape":{"Height":30,"Width":30,"Depth":16},"Kernel":{"Count":16,"Dim":3},"Stride":2},"Conv":null},{"LayerType":2,"Dense":null,"Dropout":null,"Flatten":{"Shape":{"Height":14,"Width":14,"Depth":16}},"Lstm":null,"MaxPool":null,"Conv":null},{"LayerType":0,"Dense":{"Activation":0,"Shape":{"Height":3136,"Width":64,"Depth":0},"Weights":{"ElementsOneD":null,"ElementsTwoD":[[0.9213602,-0.2281843,-0.34128442,-0.46433693,-0.9506299,-0.4843956,-0.4658592,-0.727666,-0.51396644,0.051001772,-0.5596574,-0.14075159,-0.73133975,-0.56454426,0.736847,-0.46629998,-0.037479725,0.55266416,-0.11081642,0.4721759,0.6765221,0.020478034,0.09681176,-0.44218388,-0.86705446,-0.1960188,0.90578836,-0.45772526,0.6859142,0.38163406,0.36449206,-0.4098436,1.0182301,0.5704247,-0.43888855,-0.42522225,-0.65079385,-0.3032454,0.5766431,0.3104623,-0.8970329,0.21315806,0.40963596,0.18916692,0.91272634,0.7105401,0.6310995,-0.8217242,0.3596414,0.039164323,0.297859,-0.5151694,0.21437071,-0.17313391,0.9297437,-0.2637476,0.55706894,-0.4182772,0.13484299,0.2529767,0.63308233,-0.5498628,-0.053845584,-0.5821672,-0.047085587,-0.2914215,0.09481218,0.15258606,0.8536459,-0.048972532,-0.6612642,-0.4149272,0.5787558,0.9067796,0.7382398,0.28666115,-0.9389517,-0.055084366,-0.5124203,-0.06397005,-0.23813081,-0.244689,-0.49673197,1.0575855,-0.07952019,-0.020677503,-0.4358296,0.15679884,0.5949101,0.6120282,0.012957252,1.0140519,-0.41313103,0.21164863,0.03312894,-0.81553125,-0.4499133,0.7947276,0.10366361,0.6356482,-0.9174173,-0.1285444,-0.93041605,0.932405,0.57372373,0.23783436,0.8413144,-0.83030576,-0.025720073,1.0018504,0.61026907,-0.57010764,0.8274538,0.4364725,-0.4817593,0.7924264,-0.2665323,0.4658456,-0.112848245,0.8315983,-0.4092505,0.9210439,-0.8672687,0.992252,0.4334241,0.09968861,-0.40817574,0.75210047,-0.8767909,0.90634304,0.02026081,0.5425487,0.93223244,0.8938127,0.77109605,-0.6066034,0.76701623,0.82557666,0.7977703,0.5109576,0.23540129,0.020387761,0.82364833,0.9924184,-0.2850334,0.60998684,-0.8550657,0.82143664,0.7429349,0.37231106,-0.8483962,0.9812113,0.0051025194,-0.06482137,0.39248073,1.0618285,0.8968692,0.9865405,0.99008507,0.2043566,0.9697836,0.33842945,0.8194643,-0.45377177,-0.803591,0.55954665,-0.3182738,0.9057463,-0.3228397,-0.7686477,-0.7198379,0.90488565,-0.43889385,0.6563106,-0.24436146,0.07482117,0.9649233,0.22082463,-0.81527364,-0.03359075,-0.56409305,-0.5222207,0.036148094,-0.3859369,-0.6941552,0.74360126,-0.48006064,0.6185297,-0.49239138,0.29612285,-0.93575853,0.028870983,0.09117617,-0.22837296,-0.8639535,-0.43720523,0.14967942,-0.36972815,0.32433945,-0.9295939,-0.008187002,-0.88429815,-0.46609002,-0.5552629,0.2806425,0.7311786,0.97143173,0.98296624,-0.062194206,-0.88863236,-0.25673613,0.959195,0.16090132,0.279461,-0.29445732,-0.036695078,-0.4981445,0.36591455,-0.6359174,0.9799168,-0.015431589,0.03914682,-0.5367233,-0.029393217,0.620917,-0.97133386,-0.1901856,-0.12494534,-0.3842172,0.6930537,0.31429747,0.9277611,-0.45690623,0.6351608,-0.26077154,-0.19183867,-0.14399256,0.77073735,0.7877998,0.031987034,0.4424151,-0.23343098,-0.294113,0.640057,0.6491472,-0.9215416,-0.89833546,-0.22610016,-0.4194204,-0.06313219,-0.92295235,-0.009319993,-0.60552526,-0.2517173,0.36380693,0.6717257,0.8562121,-0.3659315,0.5009714,0.3408564,0.39228708,0.22051421,-0.7420618,0.8643784,-0.5705643,-0.38747126,-0.19035286,0.34844148,0.36688468,0.42635572,0.6937309,-0.053455893,0.6831132,0.8050409,0.15590303,0.6421177,0.77790457,-0.37120458,0.11707248,-0.40911713,-0.28667808,-0.90339065,0.8211502,-0.9137678,-0.38408512,0.04518269,-0.029129947,0.17637469,-0.120989874,0.77473277,0.5683062,-0.40980604,-0.73062456,0.33997753,0.6555454,-0.19734265,-0.05515831,-0.5190423,-0.6140784,-0.283625,0.99871653,-0.064865194,0.8452538,0.8849992,0.22146004,-0.36172676,-0.76830876,-0.28036863,0.19603376,-0.112060785,0.026709737,0.2820638,0.23285998,-0.08668675,-0.43370914,0.053878527,0.7640151,-0.1465888,0.7148331,-0.9002992,0.11745191,-0.6207949,0.014266978,0.17540969,0.32380027,0.8062161,-0.036407277,-0.7061885,0.6823044,0.3645126,-0.61269003,0.8146651,-0.5641202,0.9094982,0.79688525,0.21946448,0.65928113,0.5555557,0.5799571,0.4128906,1.0069749,-0.35756198,0.32522476,0.36859033,0.01860347,-0.5412914,0.8816743,-0.25534284,0.572985,-0.90900254,-0.909501,-0.97451824,0.6312053,-0.6859966,0.028121926,-0.7335868,0.26810113,-0.69211686,-0.22552985,0.80422366,0.103901505,-0.7110043,0.095506445,-0.77245337,-0.3614216,-0.4532012,-0.5003191,0.11131641,-0.83516747,0.77602243,0.17813772,-0.3205982,-0.6831949,0.3478496,0.47496203,-0.64012766,0.022809442,-0.41619927,-0.73282033,0.5633434,-0.75318563,0.35649896,-1.0267552,0.77126056,-0.003243341,-1.0285864,-0.05000406,0.537689,0.1794287,0.049884293,0.4643266,0.89135367,-0.7341519,-0.49926108,0.7700737,0.5604534,-0.08104314,-0.9707423,-0.66111827,0.84360045,-0.6634905,-0.52672887,0.8254519,-0.10880064,0.066067785,0.40539876,-0.76502883,-0.6917394,0.7455184,0.6972467,-0.29719067,-0.4495389,-0.52458876,-0.83451754,-0.8185192,0.7740126,-0.03450768,0.0641473,0.90950835,0.9358961,0.37080333,-0.12623553,0.6255889,-0.21618308,-0.8459216,0.22030473,-0.6462147,-0.4613482,-0.29954752,0.59512746,-0.72797525,-0.4478343,0.9860694,0.29889455,-0.33641878,0.32728636,0.95949215,-0.4015094,0.039656587,0.7551346,0.035255674,0.78823483,-0.6994976,-0.6289439,-0.5778999,-0.2837191,0.6657784,-0.6344255,0.63354784,-0.1535259,-0.17310296,0.87296027,-0.15893136,0.049537938,-0.25138596,0.7532207,0.4688758,0.32944342,0.9281219,0.9740703,0.92599255,0.49033237,0.3026934,-0.06553946,-0.3748336,0.612012,0.8926523,0.52484447,-0.46684664,-0.6628802,0.7103471,0.15478778,-0.2999536,-0.74461675,0.50308114,-0.6819382,-0.6374161,0.5127408,0.9463014,0.9534744,0.48966047,0.95333534,0.4989314,-0.33275694,0.2860272,0.7548169,-0.7723437,-0.8901219,-0.6687579,0.99097264,0.79453135,-0.89531195,0.9091453,-0.15361501,-0.18099365,0.13063045,0.36731023,0.25224924,-0.7273792,0.7768345,-0.40656996,0.34740275,0.5233923,0.48493984,-0.9325808,0.22618209,0.14839779,0.22436383,-0.77486056,-0.66222936,0.13293438,-0.5925169,0.99901474,0.16786686,1.0127273,-0.89857954,-0.07534532,0.16894259,-0.060799528,-0.28323877,0.69172835,0.66117513,0.8358008,-0.92266375,-0.779908,-0.86527747,0.22728007,0.72072065,0.0034023363,-0.52903026,0.9357282,0.98321,-0.32712567,0.825336,0.6139512,0.72542876,0.16918278,0.06848466,-0.46403724,0.64521,0.3533265,0.13432975,-0.4390772,0.99990994,-0.4795212,-0.2784346,-0.46638894,0.78139365,-0.17815146,-0.14163971,-1.0903924,-0.44412482,-0.335737,-0.040484477,-0.33695507,0.6384125,-0.25406188,-0.31236705,0.5121761,0.030552039,0.41814202,0.99125993,-0.1173133,-0.48862356,0.73144627,0.067658804,-0.0070242225,-0.044865403,0.6083074,-0.6498191,0.2789504,0.07190871,-0.44880357,1.0099244,-0.049767952,0.33247152,0.88084507,-0.06473516,0.4982077,0.97293556,0.16733234,-0.252442,-0.09789509,0.5910693,-0.34260526,-0.05804289,0.43136376,0.6678389,-0.38672736,-0.45771456,0.32926887,-0.79039127,0.8094784,-0.35170332,0.7461839,0.34078252,0.7818554,-0.32545596,-0.3250123,-0.36747068,-0.43380114,-0.34729803,-0.89333147,-0.21616814,-0.21742177,-0.612364,0.284101,0.073202565,-0.5371134,0.608934,0.7273677,-0.35683888,-0.78031933,0.7411824,0.42799062,0.594297,0.6493351,-0.12429035,-0.7581259,-1.0742186,0.48780954,-0.6520872,-0.018113116,-0.048718814,0.61109024,-0.08239155,0.73150855,-0.7721641,0.9816297,-0.9839436,0.015056595,-0.9689839,-0.13546363,0.36523566,-0.6123583,0.87614995,-0.21504526,0.7332498,-0.86897033,-0.22461651,-0.07645109,0.19450374,0.5268094,-1.0206507,-0.38421202,-0.053897496,0.5402391,0.015528062,0.21065871,-0.5859902,-0.47676793,-0.38907853,0.0804851,0.60432184,-1.0632336,-0.75484186,-0.75386924,-0.6501061,-0.44740683,-0.68121,0.39154056,-0.58667904,0.3244947,0.31055096,-0.9562173,0.34170952,-0.18056957,0.6362053,0.51117694,0.36434674,0.39068064,0.32569432,0.002069248,0.69653183,0.9876681,-0.34150755,-0.82463235,-0.628341,-0.71136445,-0.83506286,0.2444337,-0.8415331,-0.3858704,0.41486183,-0.2818039,-0.8224725,-0.69959986,-0.36053604,-0.3674779,0.8828377,-0.8570426,0.51921576,-0.4570936,0.19627486,0.22971529,-0.6797892,-0.013161598,-0.21423785,1.0024011,0.47624207,-0.6952973,-0.60552627,0.02448875,0.31125644,0.46506867,-0.49983028,0.43715233,-0.42691046,-0.5484123,0.8105292,0.5866682,0.6976345,0.7305965,0.4398964,0.33147445,0.22516945,-0.2586513,-0.8079985,1.0741844,-0.49858463,-0.86519194,-0.50913763,0.60515153,0.9719228,-0.025910592,0.6814469,-0.0577197,0.8974767,-0.07422303,-0.053043243,0.5203139,0.97201055,0.43923634,-0.3658404,0.63449657,0.2750677,-0.39596146,0.9042112,0.92056394,0.7969678,0.7630082,-0.17325261,-0.29809123,0.76351815,-0.2316391,-0.76690054,0.6087944,0.4916523,0.057293173,-0.32558057,0.07535106,0.93781203,-0.7119998,0.24399675,0.6959863,-0.57890826,-0.86262584,-0.4329443,0.6007899,0.93371797,-0.71549356,0.77846766,0.33728993,-0.25459763,-0.0417734,0.89235854,-0.24310754,-0.2130312,-0.4957164,0.89311105,0.53258157,0.868034,-0.40020984,0.30363464,0.058614247,-0.5393722,0.64119726,0.9674807,-0.109016396,0.999894,-0.32233515,0.9490158,-0.61906666,-0.5739248,0.8075877,0.0012651366,-0.41015297,0.5589754,-0.80774397,0.92382056,-0.42813098,1.0092983,0.334306,0.29098523,-0.89128727,-0.22789688,0.82211304,-0.11649522,-0.16088828,-0.27138245,-0.16733725,0.34480163,0.792758,0.14290363,-0.036415536,0.99077094,-0.4791762,-0.6639851,0.5660386,-0.038343597,0.3136189,0.8463904,-0.5590964,-0.17519712,-0.38884118,0.76362616,0.2927223,0.561706,0.57798356,-0.3104245,-0.6167339,0.490362,0.9996005,0.48169965,0.7793021,0.12645403,0.995193,-0.58445776,-0.9121361,0.83295745,-0.007037851,0.7138583,-0.42014676,0.16683961,-1.1203841,0.37390608,-0.38330996,-0.35225487,-0.8459537,-0.9509761,0.04845926,-0.7439445,-0.08133035,0.33219105,0.4725434,-0.8023991,0.9215688,-0.26509058,-0.8582508,0.2090364,0.06054472,0.06300037,0.18549038,-0.87133354,-0.49888107,-0.5697798,-0.010077162,0.6615491,-0.3383793,0.30248514,0.8951566,-0.10944302,-0.26660514,0.7229947,0.22061893,0.62446195,-0.19343036,-0.8795085,-0.9409069,0.074406944,-0.13050297,-0.31832546,0.069780625,-0.8454702,-0.55102205,0.08515335,-1.1252793,0.4852719,-0.9571777,0.637602,-0.9592658,0.38296834,0.17955199,0.35536775,-0.4978357,-0.84115934,-0.75524527,-0.857242,-0.6690767,0.81913155,-0.62000173,-0.5285696,-1.0160084,-0.5620212,-0.30256692,0.0034292839,-0.35264692,-0.5400084,-0.72111374,-0.26252076,0.006838505,-0.009222199,-0.72874635,-0.631438,-0.02770396,-0.06736813,0.16381414,-0.48694888,-0.7234163,-0.720572,0.5436621,-0.06589655,0.33177966,0.219034,0.3059451,-0.358954,0.7240399,0.74489146,0.5279777,0.8726151,0.3040177,0.3292113,0.30014554,-0.41761965,0.14769518,-0.5830788,0.5105775,0.35000935,-0.86415,0.87624,0.3578058,0.8782334,0.03163916,0.59957343,-0.042151175,0.18396491,-0.57885027,0.5675464,-0.6619523,-0.69748616,0.6118806,-0.86066055,0.17840542,-0.38879988,-0.44797367,0.66819495,0.18449461,-0.90493107,0.19099192,0.22033404,-0.30854228,0.034901526,0.036484778,0.3011105,0.81153613,-0.29541245,0.85910505,-0.0015276028,0.08115116,0.97196084,0.028513653,-0.083322704,1.0562191,0.4006143,-0.396478,-0.5469761,-0.050056472,-0.52326906,0.2770839,0.20888826,0.23047872,-0.30577946,-0.434699,-0.69251853,-0.33344442,0.13602266,0.67088073,-0.38277724,0.28107017,-0.15318069,-0.53276134,-0.28057534,0.29392588,0.5641292,0.051148016,0.75456697,-0.50745755,0.020896856,0.95722884,0.6136169,-0.79209334,-0.5011872,0.21337183,-0.29851854,-0.8092906,0.8347765,0.15027864,-0.9223664,0.1772527,-0.25926167,0.09886341,-0.6555662,0.35244682,-0.9008861,-0.47566134,-0.58876026,-0.59879875,0.6197861,-0.4049318,0.7013849,0.60455793,0.38240412,0.25115323,0.30546948,0.18409376,-0.5631896,0.17893426,-0.8351421,0.3470565,0.39561912,0.5234824,-0.06870491,-0.87186897,0.81970984,-0.44510314,-0.38772294,-0.1422126,-0.21680395,0.7891105,0.098578505,0.08967406,-0.77064705,-0.8209959,0.7486494,-0.27712983,0.5712396,-0.51682246,-0.5758321,-0.39292908,0.730316,0.70881796,-0.7028778,0.7323603,0.4805579,-0.2846228,0.2937264,-0.3463205,-0.21647394,-0.03834816,-0.81646925,0.7005584,0.8347907,1.0379819,0.42822668,0.6364156,0.16646329,-0.04416633,-1.0269088,0.84375316,-0.044824854,0.13780786,-0.46237728,-0.7461311,0.43058956,-0.10201375,-0.8167609,-0.47504148,-0.050020315,-0.7873962,0.92265236,-0.3810982,0.3921423,0.21414083,-1.0866686,0.40934226,-0.59294015,0.5718527,0.39806166,0.92625433,0.5565421,-0.46566072,-0.3957148,-0.47345498,0.8577126,0.6082108,-0.7515648,-0.010779878,-0.2953999,-1.0038393,0.7035897,-0.5810692,-0.91310704,-0.55149853,-0.09058817,-0.77272475,0.8658576,-0.35719767,-0.19366771,0.34376335,0.7992963,-0.66317195,-0.37740862,0.24665491,0.48097232,-0.27941343,0.73219913,0.0838395,0.5075267,0.25415722,0.70499444,0.67986095,-0.82710123,0.43147108,0.39267424,-0.4868268,-0.8891921,-0.06332053,-0.05227984,0.24112295,-0.8788758,-0.4762688,0.31439602,-0.72036064,0.89439577,-0.9447868,0.3180502,-0.22669964,0.5927813,0.71106213,0.8831628,0.34065524,0.46339497,1.062367,0.8292431,0.23120928,0.3693823,0.36838686,-0.34030744,-0.35383257,0.048273433,0.8931547,0.5543836,0.10967985,0.2077927,0.37719822,0.8291603,-0.8785112,0.96997905,0.13026953,0.27398023,-0.6573933,0.5600129,-0.37882096,-0.113199726,-0.9942245,-0.23498435,1.0308778,1.0077395,-0.72775525,0.78532374,0.2122125,-0.18932405,-0.6574067,0.009098791,0.27339727,0.32776365,-0.45899245,-0.66494876,0.3625903,0.5806221,-0.33483097,0.6989145,0.40349534,0.29272094,0.1402449,-0.67935306,-0.0035783951,0.03852427,0.9658059,-0.27263466,0.30631706,0.415492,-0.6560239,-0.6276424,0.2033941,0.36475703,0.12785035,0.15816765,0.6780776,-0.4098338,0.8351596,-0.38387477,-0.6904102,-0.54408467,0.12029398,0.5370202,0.6305705,0.6846152,0.06614192,0.6724494,0.5852162,0.6682867,-0.18085718,0.85803205,-0.32092965,0.52614385,0.3165151,0.38981548,0.5217049,0.40247628,0.9814633,-0.2892505,-0.3348282,0.3215195,-0.18712018,0.85479736,0.015214718,0.39227715,-0.9441289,-0.083630815,0.43337834,-0.7560382,0.81208366,-0.41035697,-0.61052924,-0.176577,0.51289207,0.9723752,-0.9653601,0.84789336,-0.15589398,-0.8259257,0.42242244,-0.17752312,0.20501786,0.25741968,0.7664163,0.8220007,0.44490254,-0.7192173,-0.92517114,0.6225468,0.5441491,-0.73932326,0.92778206,0.87924075,0.20598409,0.27914876,0.031213885,0.50276566,0.29583257,0.48730174,0.58206564,0.7086376,0.7831774,-0.73709804,-0.881752,-0.8474839,0.72008103,0.9265707,0.2903104,-0.057359368,0.8587696,-0.1693758,-0.2728657,-0.48024815,0.6733306,-0.9903572,-0.53168786,0.24832335,0.66002053,-0.20927513,0.5904507,0.88301814,0.9527525,0.30445865,-0.6705001,-0.82207304,0.045799255,0.2226783,-0.80151194,0.014813351,0.56897473,0.07164175,-0.48717806,0.243868,-0.65005565,0.71218663,-0.40928692,0.5583039,0.87131554,-0.22028439,-0.1930169,-0.8336111,-0.30826953,-0.14070311,-0.58813256,-0.92035896,-0.57373416,0.3250101,-0.9282547,-0.07483883,-0.9236545,0.5637897,0.8910118,0.0468644,-0.54311895,-0.42963794,0.27847567,-0.009318112,0.13360849,-0.9192274,-0.15010475,-0.41045102,0.5011903,0.94951254,-0.66785187,0.34009203,0.8436412,0.3944617,-0.092767626,0.34117773,0.07579906,0.9108071,0.3705201,0.19732186,0.16702391,-0.65318793,0.7557803,0.8074788,0.7281313,-0.76664174,0.21210937,-0.69527423,-0.9335106,0.05902479,-0.024435263,0.9353089,-0.97728944,-0.34639832,0.24227019,-0.2999944,0.8559378,0.5101037,0.08579374,-0.054491796,-0.13263734,-0.61393243,0.20207103,0.86858803,0.8481403,0.30156767,0.69492817,0.061306816,-0.689288,0.826889,0.026080813,0.77498,0.19830154,-0.86044115,-0.6970926,0.17578281,-0.913178,0.08052421,-0.6948736,-0.7486476,-0.3289262,0.19860762,0.5033542,0.371976,0.7417145,-0.60099465,0.6036698,0.23590976,0.7168845,0.6819442,-0.74092644,0.29547256,-1.0040209,0.2063675,-0.6755742,-0.95560116,-1.0258276,0.7125413,-0.62193906,-0.62372535,-0.6826727,-0.56874233,-0.250597,0.6161384,0.72285014,0.2641878,-0.3033521,0.33825207,0.47085848,0.14777301,-0.62941587,-0.93330234,-0.80011237,0.7526677,-0.9626318,-0.5202668,0.04046971,0.48709965,0.43305492,0.013308854,-0.4794292,-0.50291336,-0.21338733,-0.05824601,-0.9823232,0.6011211,-0.5372389,-0.95703745,0.8354201,-0.7679947,0.14895496,0.7607881,-0.36071432,0.13251114,0.109047644,0.44982994,0.4945523,-0.019888641,0.7976246,0.6869204,0.2524551,0.69162166,1.0855612,-0.24288905,0.41671345,-0.7035796,-0.81682086,0.5083621,-0.15398778,-0.33840796,0.97176856,0.3310926,-0.041071765,-0.30852023,-0.33576146,0.6671615,0.5455329,0.3654346,0.68308765,-0.35387972,0.6361082,0.09759043,0.50623983,-0.2788761,-0.18521072,0.92788595,-0.64359564,-0.5455237,-0.021704169,0.1440858,0.26567876,0.20378835,-0.54569095,0.4115538,0.89845926,-0.44868872,0.43644845,-0.4442275,-0.0049195895,-0.26469904,0.07440604,-0.55108076,-0.6732814,0.908557,0.26654646,0.89616644,-0.26527897,0.57841265,0.8529249,0.6725154,-0.27068657,-1.0039821,-0.12532103,-0.75888157,0.39432877,-0.1545804,0.4100216,0.9550217,-0.6527354,0.81640524,-0.63625515,0.11533283,-0.8661587,0.100341804,-0.8052592,-0.9187653,0.87911576,-0.2558562,-0.26408032,-0.4425096,0.54594976,0.5900436,0.10528444,-0.31831008,0.74086946,-0.53735566,-0.389892,1.0487618,0.09200325,-0.2270798,-0.72997195,-0.19346063,0.89943445,-0.42095116,1.0104847,-0.23972858,0.86785704,-0.15476403,-0.9465068,0.16247135,-0.3306735,-0.8251978,-0.8328104,-0.4871084,-0.23440354,0.48963404,0.49380845,-0.15605113,0.88147086,0.6744395,-0.665867,0.1634784,0.69326544,-0.009737359,0.9078288,-0.33861288,-0.5713377,0.018963983,-0.518344,0.30194896,0.09104901,0.20574951,0.028291333,-0.12977262,-0.84641516,-0.91379774,-0.54282695,0.22739516,0.1614384,0.54276353,0.09779514,0.103951864,-0.8016343,-0.9724696,0.5009643,0.7960196,-0.98652124,-0.22279772,-0.15473177,-0.02726277,-0.6296914,-0.46002534,-0.72207,0.72619385,0.44208404,-0.21075822,-0.9605841,0.6311884,-0.121635936,0.9113706,0.15282409,0.15357909,-0.44458556,-0.023238815,0.5012634,0.42014095,0.9438005,-0.4068219,-0.45415354,0.2084317,-0.1551678,-0.34774742,0.28627342,-0.7600069,0.8338993,-0.32659045,-0.051695142,0.24040382,-0.7755053,0.6991433,0.7524529,0.61651796,-0.544423,-0.30227527,0.5817662,-0.82696885,0.21931015,-0.55989176,0.22920738,-0.41971874,0.58798105,0.5342055,-0.20947756,-0.78613377,0.689265,0.48415804,0.33475375,0.9055982,-0.9441722,-0.660795,-0.46154132,-0.47454935,-0.13280363,0.09937935,-0.83506787,0.4204874,-0.20321594,0.8991538,0.42103314,0.118004516,0.9814401,-0.045852773,-0.67756724,0.21009623,-0.6052995,0.72781485,-0.9314445,-0.9684618,-0.5266717,-0.8901856,0.45383993,0.06991275,0.2183457,0.1475093,-0.63647145,-0.20349458,-0.5779323,0.3109786,0.30450135,-0.9089629,-0.7251119,-0.4968748,-0.89506394,-0.24860255,-0.78517795,1.0473249,-0.18701304,0.78513634,-0.7914847,-0.8551353,0.01416862,-0.2373269,-0.8225122,-0.35412538,0.042574655,-0.7289992,0.2081944,-0.20139061,-0.3703501,0.8727299,0.07395352,0.9697188,-0.16090295,-0.97868013,-0.8526721,0.48282003,0.8863831,-0.7252782,-0.47675902,-0.46097764,0.20406541,0.8085743,-0.9224209,0.7255386,-0.4079988,0.12152588,-0.68958694,-0.898913,-0.590891,0.86116445,-0.6869277,1.0451673,-0.14729774,0.72491753,0.7336327,0.9569225,0.2954167,-0.18935989,-0.005747888,0.09630921,-0.24594547,0.4474391,-0.5815017,0.50197333,0.14572513,0.24851929,-0.14954111,0.50432026,0.16750424,0.22305512,-0.16574188,-0.5695813,0.581605,0.68182707,0.8097117,0.053719845,0.20526153,-0.5189119,-0.17320885,-0.42857727,-0.69944507,-0.33197913,0.80987716,0.6338039,-0.63996905,0.8473531,-0.5534217,0.07444828,0.11412997,0.2480226,0.8530175,-0.5282621,0.22220549,-0.92577827,0.89554113,0.9313559,1.0056183,1.0283285,1.0590678,-0.19790637,0.99692386,-0.8878382,0.5023395,-0.5224417,-0.9436185,0.99146545,0.49978885,-0.110195465,-0.45421937,-0.61978126,-0.5901186,0.28116065,0.0493278,0.84285223,-0.52502525,0.5630219,-0.43323818,0.48090526,0.92343044,-0.4243296,-0.5565089,0.90263027,0.27112317,-0.7025117,-0.6173223,0.5686523,-0.060963307,0.50886685,-0.9133059,0.4670268,0.96717787,-0.12357497,0.093578786,0.40711224,-0.9133718,-0.35925967,-0.6693703,0.26298738,-0.20638305,0.16019526,0.94016564,0.55169576,0.81513375,-0.16245075,-0.17422333,0.92659444,0.16743912,0.21489845,0.033297885,0.5831193,0.3025931,0.33902705,-0.13826105,-0.53122216,0.58687776,-0.6958842,-0.70371234,0.3472277,-0.8984074,0.9276344,0.27396446,0.012574431,-0.27084097,-0.67486185,0.98418397,0.9734318,-0.70083684,-0.6858998,-0.59061676,0.14180695,0.03468258,0.12877746,0.8622711,-0.94785374,-0.34174442,-0.6467279,-0.008438063,0.4078173,-0.08074447,-0.35703516,0.9367056,-0.90827596,-0.45759186,-0.5505481,0.85041034,-0.4162746,0.5996306,0.87237585,0.18807407,-0.00049663254,0.14692868,-0.9193046,0.07878468,0.67845875,0.3233972,-0.11645551,0.10684678,-0.061542604,0.12625994,0.587384,-0.40956903,-0.7565594,-0.1928668,-0.6338999,0.49145484,-0.770869,-0.119709596,0.29940632,-0.12511498,0.38673854,-1.0137879,-0.87400275,0.24313425,-0.029232008,-0.30248362,-0.3836923,-0.9363651,0.5661146,0.6561321,0.6272005,0.2045977,0.6679315,0.15073964,0.17184779,-0.032080922,0.98374957,-0.052201305,-0.91071624,-0.3671042,0.5351101,0.3894267,1.0111915,0.24637674,-0.63351965,0.66503215,-0.22535174,0.7353548,-0.5047681,0.5748261,0.694444,-0.17944254,0.5261325,-0.047741946,0.75781,-0.67677146,-0.72572756,-0.6949868,-0.062545635,-0.93721724,0.972832,-0.024942879,-0.37182736,-0.25330472,-0.26042306,-0.75722927,0.27254066,-0.62884337,0.2956947,-0.5913706,0.03831016,-0.39896297,-0.28696176,-0.11175053,0.6403437,-0.800933,-0.61407757,-0.88857156,0.258192,-0.64146465,-0.5179706,0.9046743,0.41130686,-0.08302728,-0.62985295,0.71842134,-0.545642,-0.784103,-0.037977036,0.5131629,-0.8480234,-0.65120906,-0.054500926,0.25746655,0.9016626,-0.16219375,0.57108647,-0.04750482,-0.74953485,0.8923514,0.5041379,-0.59932446,0.65726054,-0.68015695,-0.41266316,0.50191844,0.77922374,0.5357152,0.10511269,-0.06401408,-0.94934046,-0.75252765,1.0267845,-0.6104316,-0.41339943,-0.31145102,-0.14539458,-0.7096604,0.0029202257,-0.84667265,0.39617077,-0.4839484,0.14999814,-0.38336128,0.75392,-0.90192217,0.14053932,-0.57884103,-0.5633096,-0.16973607,0.822954,0.7574426,0.7574812,1.0286187,0.2904814,0.9325324,0.402514,0.44549364,-0.8958344,0.6239815,-0.43226764,0.51395476,0.23927367,0.20677292,-0.2612504,1.0457305,0.45667097,0.5618453,-0.07890846,-0.47911727,-0.44352415,-0.28873056,0.034897268,0.40727475,0.6791954,0.30203247,-0.29448706,-0.812888,0.41924536,0.5600369,0.96971726,0.7733901,-0.6385671,-0.45199493,-0.13781634,-0.20804603,0.6715288,-0.5593507,0.41014358,-0.10313701,0.6995313,-0.82185537,0.13299291,-0.13514924,0.23260333,0.57842636,0.5074322,0.83301204,-0.46631372,-0.34694862,-0.5764706,-0.73534185,-0.92067164,0.94272953,0.6601455,0.6737316,-0.8884739,0.77621585,-0.24362601,-0.519238,0.5821051,-0.71396196,-0.116317496,0.12046242,0.4633181,-0.8103803,-0.018343827,-0.44769517,0.08818553,0.46160853,-0.19422314,-0.52174,-0.5139543,-0.76674706,0.8690098,0.91530496,0.1246554,0.8263251,-0.9385783,-0.45024672,-0.4030697,-0.9380256,-0.053688917,0.5990261,0.14458655,0.013024315,-0.56479573,-0.48804235,0.2990145,-0.9592595,-0.44213584,0.22658148,-0.42536744,-0.29863945,-0.87690985,-0.56563044,-0.7655858,0.6004195,-0.028966837,0.5164774,0.32563984,0.026319439,-0.43542123,-0.9554207,0.7202331,0.06966671,-0.38245806,-0.008947275,-0.53662294,0.571769,-0.75975674,0.72371036,-0.3879438,0.99426055,-0.68902117,0.25449374,0.84861827,-0.6948118,0.34003556,-0.010562606,-0.17360993,0.16751252,0.92746043,0.5171925,-0.41418937,-0.5446646,-0.8388881,-0.019262493,0.07452335,0.033462737,-0.029411033,0.30143014,-0.03702039,-0.5750717,0.055445533,-0.37499434,0.30503824,-0.27085912,0.3226519,-0.8500069,-0.25929075,-0.16419674,0.43142354,-0.70467293,-0.09598158,0.63410604,-0.38744837,-0.32383925,-0.750091,0.48240158,0.1487597,-1.0202885,0.23798586,-0.5128158,0.43668464,0.7602767,-0.4781241,0.29915327,-0.49015176,-0.8235191,0.8651994,0.019855663,0.1455958,-0.94470704,1.0410814,0.72172415,0.2362248,0.7878197,0.2220588,-0.07326701,-0.3643337,-0.68461174,0.09084057,0.8767222,-0.3101169,0.2508494,0.76378196,-0.89793617,0.06495937,0.6079366,0.0072624604,-0.21877714,0.65972835,-0.14511222,0.104867384,0.18534772,-0.2954524,-0.64557874,0.59531265,0.9269724,-0.070189804,0.76270676,-0.8607125,-0.42134345,-0.028218,-0.8390061,-0.12963389,-0.6587314,0.5391276,0.3788261,-0.37911195,0.5083036,-0.40645224,0.50641567,0.25500485,0.30857056,-0.4404447,-0.68710315,0.2082265,-0.37761983,-0.15581647,-0.20105311,0.5685929,0.891606,0.6044839,-0.07384911,-0.38006565,0.26337788,0.45363337,-0.5799044,0.93769914,0.079093374,-0.4916003,-0.57588995,0.34769645,-0.19937876,0.46358183,0.38245255,-0.57323676,0.5691092,-0.8777798,-0.48547193,-0.35072815,-0.3055998,-0.7527659,0.6866804,-0.63505906,0.7529598,0.7529567,0.3375343,-0.8487882,-0.74172336,0.8024431,-0.9011031,0.04974626,0.13365316,-0.48910818,-0.2860913,0.030506218,0.20227921,0.97327423,-0.5628064,-0.31062588,0.27011454,-0.40499678,-0.69042885,0.26963696,0.08983122,-0.3850415,-0.49577197,0.5222369,0.95803005,-0.4715167,-0.6699769,0.07124755,0.85620296,-0.6104793,-0.4453505,-0.12825997,-0.8497108,-0.4611748,1.0439548,0.86791,0.62646973,-0.4393346,0.7292424,-0.12555544,-0.8978684,-0.60071397,-0.36978522,0.808339,-0.5911886,-0.0050532217,-0.63225275,-0.5531882,0.3134936,-0.674213,0.32210904,0.04581426,0.17633939,0.45210102,-0.3924233,0.5961433,-0.081502244,0.6919679,-0.81128544,-0.109395176,0.02480442,0.76623374,-0.5661947,0.07964556,-0.8519933,0.036061436,0.64904517,-0.16716126,0.5439149,-0.34748694,-0.54240644,0.9734264,-0.9254607,-0.9052797,-0.4747659,-0.53702855,-0.3070713,0.16500781,0.4303585,0.07397165,-0.6293029,0.6862747,0.7387661,-1.0164677,-0.33259156,0.04399587,0.7821143,0.8832223,0.62657577,0.76772076,0.23752885,0.32086334,0.34892857,0.31230313,-0.94365937,-0.20542617,0.08508544,-0.54985344,0.8811843,-0.7451428,-0.7710918,-0.43028697,0.93509346,-0.9949562,-0.7724769,0.0637339,0.3715183,-0.3590135,-0.76781064,0.66651595,-0.4928238,-0.56490827,1.0031695,0.7688021,0.4557663,0.3876741,0.7405725,0.259793,0.8472279,0.26635897,0.87574375,-0.08574415,-0.20609866,-0.49161807,0.5284775,0.5105117,0.82720083,0.17466524,0.7401764,0.86195385,0.37874165,0.60664594,0.83037686,-0.1552978,0.71992654,0.011980279,-0.78902894,-0.6389871,0.07198932,0.61076504,0.91420496,0.4343394,0.46248883,-0.88102245,0.28222555,0.3775512,0.6274894,0.4464213,0.20621812,-0.25337243,0.8166685,-0.3189428,0.9238077,0.8346672,0.347328,0.13271667,-0.8923299,-0.44962946,-1.0185215,-0.40990314,-0.31090426,-0.48068005,0.08525967,-0.9216591,-0.30726683,0.43437114,-0.6260385,0.8180643,0.33128068,-0.7809784,-0.037504148,-0.66992867,0.9818404,0.4980969,-0.16013408,-0.48513305,-0.04065082,-0.13269953,-0.09029928,-0.64294976,1.0162904,-0.18957469,3.1981734E-05,-0.7449662,-0.1541027,-0.6616071,0.011962068,0.60851324,0.7797784,0.7979435,0.8548934,0.23193102,-0.7208203,0.5201093,-0.037246212,-0.95630544,0.69297725,0.43802848,0.6349033,0.122572035,-0.26974624,-0.10148081,0.226876,0.4010275,-0.14764675,0.1450598,0.371518,0.92967266,-0.6874224,0.7854919,0.26180178,0.30871797,-0.48288065,-0.38429305,0.52672017,0.5136535,-0.94617826,-0.9724839,0.041160874,-0.33675173,-0.08797474,-0.62016886,-0.31558958,-0.04509804,-0.605234,-0.065028496,0.31425384,0.8490028,0.25536278,0.86295915,0.9039901,0.84563637,-0.121500894,0.2141801,0.4287819,-0.8677709,-0.21419516,-0.6523488,-0.10840704,0.14815392,-0.69111687,-0.42743182,-0.3230397,-0.742201,0.7892939,-0.07012446,0.3502037,0.29893544,-0.09305791,0.5738738,1.0466578,-0.84496236,0.6488296,-0.8013879,0.4662149,0.696099,0.05370981,0.1703157,0.8461939,0.7416477,-0.61928254,-0.2159692,-0.52266353,-0.15289634,-0.48056492,0.6582998,-0.5415137,0.21122397,-0.88454485,-0.5982268,0.4668633,0.6112533,-0.60431814,0.9061104,0.9742297,-0.5990641,0.48619875,0.13152641,-0.62965137,-0.9784351,-0.6829079,0.7063839,-0.5341601,0.77498174,-0.13511741,-0.20348024,-0.09480665,-0.69308424,0.521335,0.39250696,0.0383716,-0.6887643,0.3407702,0.5891876,0.32009032,0.46363342,-0.47701448,-0.038363177,-0.5818383,-0.16252868,0.08180824,-0.58916754,0.15714225,-0.18090165,-0.963428,0.8611608,-0.48476672,-0.03843914,0.36404544,0.69905627,0.63108736,-0.5310412,-0.22053632,0.16006531,0.75109994,0.5617155,0.7169456,-0.69369435,-0.21751817,0.34683284,0.48300123,0.42705998,-0.84633744,0.8053607,-0.77881736,0.37756607,-0.6472642,0.38336048,-0.7546107,0.5069481,-0.30643442,0.7904455,0.04627462,-0.4863308,-0.2640109,-0.56877285,-1.0418398,0.097322404,0.88206464,-0.81179345,0.42426243,0.29583323,-0.90677357,0.022595504,0.9215834,0.5672265,-0.462017,-0.819322,0.15509522,0.5800173,0.13410497,-0.6768172,-0.16237596,0.32530507,0.7512817,0.9169161,0.75969654,0.094413415,0.9559491,0.9764907,-0.7652969,0.0886688,0.62364244,-0.14264531,0.7609525,-0.42047894,0.2515805,-0.48906213,-1.0332738,-0.21613015,-0.38144732,-0.83290815,0.7355436,0.91980046,-0.2500122,0.71539843,0.64860755,0.54216915,-0.59510297,-0.3230592,0.48144183,-0.45367196,-0.16637005,0.8206732,0.12964389,0.7796594,-0.5678943,-0.7646697,-0.24613293,-0.051369835,-0.55989116,0.62109745,0.43021566,-0.8811634,0.1864543,-0.8171788,-0.44236124,0.6247761,0.34015077,0.4921528,0.023056407,-0.7880997,-0.079062715,-0.4145383,0.8549026,0.1587208,-0.20058072,0.53286994,-0.8431279,0.7300572,-0.89479846,0.51297516,0.6913383,-0.0043915417,-0.28312805,-0.021559194,-0.665156,0.2734203,-0.6193899,0.82331455,-0.43046874,-0.9011405,-0.6586353,-0.094663486,-0.79887784,-0.6431519,-0.742232,0.64759964,0.50613683,0.6579977,0.255705,-0.73911506,0.919089,-0.8147499,0.57855713,0.5938597,-0.6660964,-0.8630594,-0.5631085,0.62864226,-1.0184937,-0.19509017,-0.89443535,-0.039308943,0.49128506,-0.10462701,-0.3423114,-0.9241235,-0.9593166,0.032974247,0.017028656,0.7012912,-0.88131106,0.41215172,-0.27563873,-0.3685673,-1.0579145,-0.7282417,0.7450913,0.06253158,0.7573389,0.5035117,0.010861988,-0.10365736,0.9515305,-0.8649857,-0.48995936,0.80807465,0.28847325,-0.7658937,0.9274688,0.25040624,-0.6839531,-0.20177293,-0.7855856,0.30385,-0.3096989,0.12755577,0.8372603,0.7246742,-0.135,0.8445934,0.49033317,-0.4786616,0.36534917,0.7893428,-0.909111,-0.16629247,-0.09899773,0.49591783,0.7368933,-0.30032647,-0.05933253,-0.731964,0.23314236,-0.122375526,-0.78236884,-0.62198246,0.10675892,0.045112707,0.41947898,1.0189492,-0.084503375,-0.60806143,0.9101892,-0.125479,0.67906576,1.0068903,-0.78095347,-0.79222244,0.516802,-0.45403156,0.97282606,-0.3959033,-0.7467435,0.74389607,-0.5294071,0.6014756,-0.51152515,0.4179869,0.8405205,-0.81788707,0.226422,-0.450943,0.30418634,-0.11331306,-0.18339528,0.789152,0.32433245,0.3768904,0.03324503,-0.38174698,0.54754364,-0.89843893,0.7196101,0.2817997,-0.5222783,0.2899533,0.7934775,-0.66960245,-0.14432643,-0.12894042,0.16272213,-0.19580702,-0.95529455,-0.6639837,-0.29895455,0.7933154,-0.60726166,0.17145266,0.9209802,0.74123853,-0.45719463,0.72081023,0.5397909,0.21235196,0.40368578,-0.09396144,0.27400872,0.14423439,-0.43508357,0.28128847,-0.47079474,0.6807443,-0.028391795,-0.024039678,-0.26940212,-0.18311729,0.17709066,0.39625236,0.7780959,0.1684983,-0.3824688,0.33786353,0.5394031,-0.919068,-0.54353863,-0.43915015,0.4426965,0.73563623,-0.9187521,0.49544948,0.18117954,-0.8442228,0.9776866,0.16208258,-0.7163454,0.31343544,0.7168768,-0.21011871,0.092794776,-0.12599677,-0.42621917,0.9364869,0.6946438,-0.53179276,-0.58467114,-0.9095297,-0.41704077,0.40183935,0.17302355,-0.114143096,-0.58294326,0.38520235,-0.7891683,0.24405852,1.0512631,0.654061,0.45655632,-0.18357396,-0.11304492,0.55727214,0.059800904,-0.93335056,-0.86423385,-0.7670483,-0.32061595,0.8534831,0.69341236,0.68231475,-0.025055643,0.95262176,-0.2584651,0.062611386,-0.047775883,0.052581754,0.39919612,-0.4202625,0.65110445,-0.9540695,-0.16354638,0.14061648,0.059955176,0.68108684,0.4803963,0.3679591,0.8324499,0.12541713,-0.7504345,-0.5491844,0.3420644,-0.7206657,0.3904469,0.35286677,0.555643,0.5726191,0.89286864,-0.7574013,0.13780352,0.79234403,0.48378977,-0.8291556,-0.8891234,-0.9354358,-0.850406,0.7576351,0.22835061,-0.4287029,-0.21689683,-0.404895,0.035938483,-1.0277674,0.33845618,-0.66684157,-0.2523692,-0.8462688,0.516451,-0.30066836,-0.057767596,0.03425245,-0.8042921,0.9192684,0.62659335,0.3807849,-0.46269503,-0.08300377,0.23492907,0.9144238,0.27368543,0.84526855,-0.16222905,0.67610973,-0.87313515,-0.6256968,-0.9533067,-0.79183835,-0.15036035,0.6701026,-0.045160845,-0.32144713,0.3500552,-0.0023569951,-0.1303246,0.5914167,-0.8355302,0.29352334,-0.7088423,-0.27267888,0.023505757,0.512831,-0.2890754,0.037193757,0.58748275,-0.6850301,-0.806906,0.75837654,-0.41667783,0.9581142,0.58504564,-0.42513934,-0.33748928,-0.1393311,-0.8530622,0.43417153,-0.19971342,-0.30636603,-0.6746524,-0.011321981,0.25080866,0.7904368,-0.7654356,-0.7105489,-0.44519103,-0.5488261,-0.5824676,-0.31996056,0.3782012,-0.05044057,0.09672073,-0.5927743,-0.6963846,-0.7406218,0.30810967,-0.01602819,0.29345858,-0.34013546,-0.6170724,0.095894106,-0.83104634,0.83109784,-0.85361725,-0.6275388,-0.2433736,0.5359151,0.68586606,-0.30766782,-0.4143056,0.6317133,-0.065298416,0.84846437,0.13124238,-0.47150967,-0.40865085,-0.051896494,-0.42462158,-0.52538913,-0.61203736,-0.31367826,0.019836113,0.3003631,-0.00051692314,-0.06477058,0.014871388,-0.8923968,0.37949628,-0.64784986,0.16641642,0.5508423,-0.07271754,-0.866822,-0.36346266,0.81129974,-0.88925505,-0.07320325,0.12511817,0.42515865,0.5801416,1.0004101,0.47601822,-0.8042822,-0.69336694,-0.3441851,-0.91511685,0.88716537,0.45278388,-0.18176162,0.6550798,0.66860616,0.39122885,1.0960938,0.3374056,-0.9897439,-0.62745064,-0.63816786,-0.6260915,0.30276155,-0.046762913,0.7897296,-0.8846398,0.5336027,0.5440396,0.94438386,-0.089205116,0.02936201,-0.60556334,-0.35041046,-0.74234164,0.39502835,-0.11977143,0.75796777,0.14107923,-0.74858576,-0.56940925,0.5449313,0.108726844,0.32261482,0.09232146,-0.23614211,-0.6681275,0.27334696,-0.06865552,-0.59477603,0.21590729,0.7392206,0.94485265,0.42801863,-0.73986167,-0.26419064,0.8747531,0.5281164,0.24054918,-0.5438604,-0.28541225,0.81754476,0.7596933,0.15106963,-0.30809462,0.69267076,0.361701,-0.54673594,-0.6626469,0.42502213,-0.44476193,-0.5880695,0.97855496,-0.0015796194,0.7901104,-0.39024276,0.97611374,-0.47230855,0.855153,0.91811746,0.898284,0.12816872,0.21643367,0.7630456,-0.33257976,-0.24619378,-0.44490138,-0.45356467,1.0505672,0.047098048,0.7032791,0.039277874,0.557525,0.07740404,0.62118995,-0.40142933,0.093671635,1.0159982,-0.002760212,-0.30313164,0.34222347,-0.15059768,-0.6709081,-0.3952153,-0.17458564,-0.49747008,0.63107485,0.4300809,-0.26746583,1.0961611,0.19053985,0.63442814,0.862622,0.6983795,-0.14968696,-0.654061,0.4165597,0.8144262,-0.158717,-0.19411205,-0.8524068,-0.14369723,0.7583266,0.031278893,0.41573313,0.7151258,0.6533963,0.7628099,-0.19378169,0.50166816,0.3938908,0.3438682,-0.37289828,0.35785592,-0.44246826,-0.47363994,-0.2004711,0.08463548,-0.1551571,-0.10254549,0.85298735,0.44114158,-0.07442047,0.6793508,0.70480746,0.22236109,0.56045026,0.031982314,-0.8522439,-0.13504274,-0.2769738,0.93856174,0.18557115,0.6382704,-0.46871525,0.7049451,-0.9230317,0.47144133,0.55104685,0.90948427,-0.67806214,0.029698104,-0.88512677,-0.98269385,0.40641,-0.18731429,0.9244624,-0.6982492,0.9990155,0.8820487,0.79632264,-0.082307324,0.043674774,-0.38279217,0.022695106,0.35796428,0.18476205,-0.955058,0.9003039,0.05314302,0.31030285,0.32806274],[0.4936566,-0.7830086,-0.89101076,-0.5292409,-0.34244946,0.1699432,-0.050295472,0.33097985,-0.0008588955,-0.04284721,0.40988708,-0.26123554,-0.5352254,0.7086739,0.4326944,0.7322584,-0.92865837,0.59989685,0.7602442,-0.8255219,0.7458191,0.8036799,0.020492261,-0.4521229,0.22164178,0.92573935,-0.16208845,0.023198973,-0.7398607,0.33443773,-0.21015559,0.8724033,-0.043133568,0.36973944,0.7262001,-0.2689019,-0.34820583,0.92600924,0.6077681,0.3918497,0.86112124,0.65275747,-0.50500786,0.13233456,0.5081223,0.94213736,0.47439566,0.19717947,-0.41236627,-0.42778745,0.952611,-0.96361387,0.08434191,-0.86456305,-0.41503894,0.087311104,-0.1222566,-0.0310202,-0.4150833,-0.2860823,-0.5672738,0.68829906,-0.6438499,0.9666545,0.22721452,-0.50914985,0.6603137,0.29449075,-0.29929477,0.42045963,-0.24352258,0.27974254,-0.09227571,0.43233725,-1.0444809,0.24565564,0.49417847,-0.8792168,-0.13065413,0.7045452,0.617443,-0.71964806,0.526832,0.4508337,-0.7709697,-0.8880404,0.23662764,-0.93468845,0.43450215,-0.61472905,0.36904967,-0.24799989,0.36043623,0.0028769271,0.09401865,-0.7200382,-0.15189832,0.64870876,-0.44734213,-0.38496634,0.93041646,0.59719,0.6409225,0.66669405,-0.9585681,0.5157115,-0.7079041,0.41071483,-0.8740952,0.5629463,0.3084106,0.9448211,-0.9790365,0.10806598,0.71813625,-0.02593274,-0.45277098,-0.94551045,0.4916295,-0.47647014,-0.9718751,-0.5491799,0.3738298,0.56198245,-0.31538367,-0.63590324,-0.7949215,-0.41802722,0.79495025,0.50785637,-0.27649337,-0.5730801,-0.12391691,0.5783012,-0.8076274,-1.0206627,-0.3905792,0.22994636,0.4897692,-0.3872202,0.59255934,0.24060453,0.9126014,0.052069113,0.6306476,0.5599366,-0.73754054,-1.0137596,0.8114881,0.27958968,0.65289307,0.30999288,0.43970123,0.15788484,-0.9018984,-0.8774729,0.5400922,0.8582479,-0.77924967,0.9042379,0.62425524,-0.1578601,0.11350861,-1.0371839,0.17354736,0.5316916,0.01714786,0.74567187,0.14908922,-0.12002892,0.16243795,-0.9366817,-0.5278418,-0.66636795,-0.4408499,0.828262,-0.3828922,-0.6735951,-0.84358734,-0.69650465,-0.086789824,0.57557714,-0.07408219,-0.33204252,0.031275973,-0.40261504,-0.28998992,0.42488146,-1.0326937,-0.75425345,0.65630996,0.38037816,0.046302114,0.9243578,-0.5428762,-0.6698504,0.76656264,0.8281396,0.96743727,-0.6250982,0.19532758,0.018337106,-0.09989728,-0.91841674,-0.39341184,-0.50157464,-0.37844667,0.1537619,0.9717768,0.42572972,0.8886789,-0.44450134,-0.8020853,0.8919249,0.20496961,0.49310282,0.6312626,0.8916001,-1.0257336,-0.09800822,-0.22011301,0.42947635,0.041574854,0.614392,-0.43118545,0.6536405,0.66840786,-0.63334996,-0.27513012,-0.6864089,-0.86344284,-0.5949402,-0.3602679,0.89685476,0.13219827,-0.17119947,-0.97020525,0.79041684,0.50277007,0.9077793,0.0755368,0.76459485,0.96094,-0.28365487,0.66035694,0.6322431,-0.022442458,0.76767486,0.8398547,-0.2031108,-0.019156057,-0.84468216,0.8308736,0.8353332,-0.87748384,-0.44458246,-0.7296486,0.4593145,-0.88865995,-0.49685082,0.5843295,0.32077435,0.81978357,0.9880247,0.4643796,-0.6926324,0.25135654,-0.49931717,0.16764264,0.91242766,0.2598501,0.54474545,-0.49675247,-0.9586162,0.9195028,-0.5238144,-0.0011107948,-0.31517112,-0.91985905,0.05647368,-0.09067315,0.15060288,0.74814117,0.36746383,-0.4735211,-0.05736047,-0.531117,0.051403493,-0.3109597,0.44117302,0.8249161,0.661475,-0.8819242,0.840034,-0.02523244,-0.10726347,0.7248566,0.9173868,0.7774386,0.21048902,-0.4325277,0.1794417,-0.56246823,0.92472106,-0.5451206,-0.2592528,0.8226067,-0.6855892,-0.565116,0.1025113,-0.1470342,0.59930104,-0.642184,0.9794526,0.6912407,-0.5543924,0.3973316,-0.3157417,-0.25185695,0.81083,-0.89808244,0.62920403,0.2240794,0.55059355,0.87138796,-0.28435138,0.5297306,-0.057668637,-0.777642,-0.26215017,-0.7736427,-0.6575704,-0.45347464,0.7393217,-0.11927925,-0.32561982,0.3579783,-0.48032537,0.11040209,0.07729569,-0.08419652,-0.5089706,0.10325076,0.8936913,-0.7429717,-0.14996153,0.5005084,0.51322275,0.3965841,0.04145277,-0.8094251,0.12004956,-0.19424875,-0.64780277,0.44520363,-0.27794415,0.6084234,-0.82683694,0.64316756,0.8904163,0.11834971,0.30961785,0.83494145,0.8633513,0.22825472,0.5374819,0.90072674,-0.7327864,-0.00051387097,-0.85438186,-0.93275005,0.21980827,-0.04054409,1.129059,-0.16787179,0.6872922,-0.7410199,-0.35457337,0.17995596,-0.40282977,0.5853332,0.49105048,0.4271398,-0.0594408,0.3836104,-0.7825971,-0.97649586,0.329811,0.2783772,0.4091009,-0.65483904,0.517298,0.55743855,0.9210498,0.037792496,0.97439015,0.36739317,-0.58601296,-0.18428521,-0.85238403,0.14076912,0.0903096,-0.10736353,0.6709504,-0.89485687,0.24957983,-0.073894046,-0.25843775,-0.95803094,0.63729066,-0.22753859,0.90623945,0.3090541,0.67754686,-0.076126575,-0.009946893,0.24109387,-0.18174441,-0.30111676,0.20117806,0.86170924,0.5786359,-0.35001728,0.47933218,-0.78364736,0.79602516,-0.07413742,-0.56627274,0.66165215,-0.940626,0.65519977,-0.6177342,0.07638753,0.30216587,0.1388945,0.07370919,0.4961828,-0.39852408,-0.028398095,0.94971305,0.46605834,0.8035276,-0.26171753,-0.9162968,-0.6377182,-0.029073097,-0.5619764,0.23299986,0.91404754,-0.76070774,-0.7015272,0.76960385,-0.60458803,0.11514011,-0.25835055,-0.91030914,-0.7449363,-0.34665057,-0.9919938,0.11129185,-0.18838575,0.4817298,0.6892928,0.12592736,0.5737829,0.2850038,-0.8018596,-0.86043215,0.42132205,0.3404881,-0.9024831,0.76535696,-0.20620489,-0.63700795,-0.0014021856,0.8706814,0.6501688,0.17265898,0.57385486,0.65740454,0.7920388,-0.9726755,0.5454645,-1.0514213,-0.8659525,0.22224802,0.18553105,-0.859702,0.21964012,0.03744088,0.8991971,0.43228763,0.6448992,-0.29407534,-0.91815364,0.8238628,0.09955276,0.7740835,0.3679306,0.42762658,-0.73377603,-0.692626,-0.017677497,-0.5676605,-0.273049,-0.8320121,0.0387297,0.5305423,-0.1967614,0.71824384,-0.29894924,0.77175057,0.2801956,0.7273632,-0.72423047,-0.9166931,0.34833044,-0.7884538,0.5559238,-0.23486704,0.46282795,0.033665318,0.6415542,-0.8440541,0.6077379,0.6540963,-0.17451592,-0.17097051,0.38036013,0.0012912239,-0.40732986,-0.45899996,-0.5773049,-0.8724988,0.59641546,-0.3422401,-0.69252014,0.41392708,-0.92142004,-0.12653278,0.6075995,0.40798825,0.28668377,0.5362747,-0.6482032,-0.55078727,-0.8205404,0.753944,0.92656773,0.81876886,-0.57983744,-0.49922487,0.03427405,0.3313122,-0.8173189,0.48538032,0.43087867,0.70305324,-0.5920985,0.0014272418,0.35779956,0.2813449,-0.08855277,0.14603008,0.20239815,-0.9696112,-0.43646684,-0.30108643,0.96963495,-0.8268247,0.41535947,0.8083774,0.24621059,0.13885732,-0.63189846,-0.7514957,-0.7276234,0.5377635,0.17123894,-0.48468962,-0.7608495,-0.6156378,1.0546592,0.07726306,0.25144774,0.28960055,-0.5456997,0.9823942,0.69714534,-0.5707309,-0.54230344,-0.6134196,0.54414636,0.7708731,0.28203666,-0.79526466,0.5154167,0.11885462,-0.3087473,-0.084338576,0.87089616,-0.7121393,-0.64203465,0.09146638,-0.42269832,0.42727143,0.13908602,-0.2952069,-0.47953165,0.17862672,-0.2696267,0.38325498,-0.48337287,-0.28574163,0.0772889,0.6165847,0.25554627,-0.8603508,0.33010387,-0.34865665,-0.6144031,0.419242,-0.40126345,0.63539684,0.64927965,0.27846622,-0.56228894,-0.06815731,-0.55052525,-0.33478224,0.5207626,-0.56147736,-0.78295326,0.2223408,-0.31770456,0.9745443,-0.04341429,0.14973958,-0.88746786,-0.14060622,-0.100586586,-0.5450477,0.22372173,-0.7922076,-0.18710333,0.74918234,-0.80829257,-0.87039244,-0.39265037,0.13005342,-0.11987312,0.9679978,-0.260245,0.74337935,-0.12715296,-0.5623222,0.052067425,0.7967112,0.5051834,0.74355626,-0.81922835,0.20870318,-0.07525247,-0.18329215,1.0296015,0.28498504,-0.63843715,-0.080700055,-0.8241206,-0.3488927,0.87839335,0.4370562,-0.16647696,0.8523171,-0.6058259,-0.26391467,0.0066341585,-0.44441143,-0.0019569409,-0.90073466,-0.30080464,0.7449425,-0.939649,-0.8118978,-0.6071145,-1.0055939,0.7028709,-0.8674883,0.790512,0.19896092,0.6111738,-1.0592583,0.9604583,0.13678926,0.72729635,-0.1684749,0.06753868,-0.5812175,-0.5624683,0.72279567,0.2445679,-0.32249844,-0.94347537,-0.49225783,-0.82525164,0.7817871,-0.48708516,0.23240562,-0.14849375,-0.5705203,0.87870234,-0.82642746,-0.65215236,-0.9056512,-0.7999524,0.20249812,-0.44614825,0.51896936,-0.7098517,0.2505567,0.28277943,-0.38764408,0.24641167,0.88872105,-0.54069626,-0.41108978,0.78847057,0.0598237,0.48740214,-0.091817215,-0.5139897,0.29425833,-0.20298935,-0.7053395,-0.89608836,0.39678982,0.2306616,0.39460972,-0.48639715,0.21524237,-0.96571195,-0.9625667,0.4635203,-0.12460323,0.72503865,-0.3365341,-0.7388854,0.91194695,0.029042155,0.78486955,0.50508636,-0.8088727,-0.995623,-0.028875755,0.025042577,0.60724384,0.07810992,0.65076095,-0.733549,-0.16440953,0.054978177,0.8898542,-0.38513044,-0.14469461,0.9227569,0.60684305,0.61071295,0.7523456,-0.999382,0.8701866,0.0018687614,0.42627305,0.67642397,-0.7390379,-0.4611495,0.13615152,0.57926893,0.33595902,0.28976235,-0.6300684,-0.75477266,0.7372649,0.7138102,0.6153534,-0.80000687,-0.0013905648,-0.6728095,0.69354194,-0.48275146,0.21313943,0.61939687,-0.37824497,0.18368125,-0.97252166,0.6569724,-0.5287589,0.89997834,0.4855096,-0.9664737,-0.48474082,0.958801,0.774464,0.470877,-0.680029,-0.10345514,-0.7564393,-0.12300375,-0.54722655,-0.1441915,0.9666285,-0.43143523,0.9795042,-0.91516036,0.027847584,-0.4285494,-0.26562023,0.043445077,0.5665173,0.71736497,-0.93527514,-0.6322004,-0.32082912,0.00721128,0.18178725,0.86072075,-0.34285685,-0.9362194,0.5996485,-0.6429992,0.34994653,-0.45496547,0.60245186,0.42923912,0.28542382,0.8597934,-0.5321269,0.55973506,0.8140454,-0.38204283,0.25568494,-0.45817915,0.14460082,0.6716888,-0.80299747,0.07975707,0.6501814,-0.36520788,0.04125733,0.31771737,-0.7744276,-0.6829618,0.46474582,0.7875974,-0.8766622,-0.33353302,0.9159755,0.5826959,0.39936304,-0.5590364,-0.5449517,1.0821325,-0.20875506,0.43663788,-0.88264066,0.33322385,0.008395639,-0.09234043,-0.7417671,0.47942,-0.69347644,0.8473006,-0.2371223,0.83608437,0.46298486,0.56067395,1.0968133,-0.16697599,-0.64563954,0.47203007,-0.66175795,0.7476411,-0.36682618,-0.66861755,0.4652482,0.58741456,0.75701135,0.77909535,0.4318609,0.82791734,-0.8044095,0.77862096,1.0537413,-0.31922606,-0.24086797,0.8630345,0.512606,-0.15567967,0.7060728,0.24610351,-1.0007296,-0.5898501,-0.9677043,0.28815392,-0.6742608,-0.7258021,-1.0232048,-0.29620734,-0.6189338,0.24052903,0.2722929,-0.15784968,0.031311616,-0.18510802,0.62560153,-0.53403527,0.14757851,-0.23060553,-0.21682887,-0.72017294,-0.31265154,0.36796236,0.36643356,0.46606138,0.28877586,-0.1680448,-0.33961064,0.4233532,-0.93215847,-0.54133743,-0.4787893,0.55489403,0.31388682,0.50244,0.76601297,0.76042163,0.043837324,0.29670775,0.7076892,0.03521911,0.85884786,-0.8979767,0.149026,-0.3132023,-0.20585045,-0.48852682,0.2299995,0.38471437,-0.43581495,0.6824671,0.49545434,0.5327247,0.8108174,-0.19147289,-0.4706945,0.09714037,0.23113152,0.8339052,0.6685572,0.6763806,-0.535735,0.8124706,0.077990025,-0.731383,0.0144785205,-0.40216252,-0.93227684,0.7612111,0.20700328,0.514185,-0.50471336,-0.20158707,0.19095172,-0.64571553,-0.65518695,0.4861102,0.27042037,0.8632075,0.5308199,-0.5021812,-0.6430879,0.8560463,-0.67318,-0.4776688,0.38325655,-0.5736576,-0.8198078,0.044555753,-0.32676855,-0.0878024,0.21452484,0.3897647,-0.14692897,0.48726818,-0.22382185,0.29073632,-0.2836243,0.42565498,0.49953955,-0.33006048,-0.6276186,0.05581811,-0.007059527,-0.41867813,-0.056186974,-0.40559447,0.5212086,-0.9265065,0.84726477,-0.31188464,-1.010418,0.5158155,0.68603176,0.8061305,-0.59402335,0.16706732,-0.35623395,-0.8504861,0.1728114,0.8113231,-0.5796198,-0.28480753,0.84100246,-0.7397622,0.7958087,0.24618246,-0.26536444,-0.42708662,0.4945134,0.64967394,-0.1098632,0.67879575,-0.7717953,-0.6794606,0.07670387,0.96430427,-0.46390083,-0.7951836,-0.7594781,-0.6287642,0.06501507,0.66190994,0.31551898,0.2388022,0.9038519,-0.78260255,-0.47727895,-0.92337567,-0.9775167,-0.5784794,0.93569684,-0.8618756,0.33454788,-0.95073074,0.8265932,-0.95399356,-0.9840897,0.50771195,-0.32908115,-0.61184734,0.3659946,0.5531499,-0.85471123,0.14705405,-0.7066673,0.720266,-0.042610582,0.23463625,0.96255064,0.44572023,-0.92829335,0.45198387,0.16364034,0.85016346,-0.041093946,-0.13106267,0.9112988,-0.7499759,-0.15174074,-0.9782495,-0.12102925,-0.67139095,-0.6349341,-0.39088723,0.59200996,-0.6247789,-0.035697788,-0.61133575,0.039208554,-0.19210356,0.5268585,-0.48295027,-0.035288278,0.86704135,-0.9645739,0.42451504,0.71704704,0.625324,-0.53542894,-0.19583996,0.7758043,0.684052,-0.41999018,-0.28283203,-0.06854741,0.8951386,-0.7594015,0.80853736,1.0982021,0.17155077,-0.64442074,-0.22644123,-0.5734853,-0.39409512,0.6799076,1.0458518,0.12674235,-0.7085976,-0.12968722,0.9695916,-0.00088822655,0.057853952,-0.8554793,0.5874091,-0.22910057,0.21156405,-0.4312997,-0.9416529,0.63493735,-0.3009752,-0.8568745,0.204391,-0.59860224,-0.7215799,0.70234144,0.16120638,0.5936609,-0.3476849,-1.0211555,0.6975059,0.56936055,-0.83409655,-1.0127434,-0.41505677,-0.9662396,0.46655834,0.61906064,-0.35874575,0.7951662,-0.73701894,0.1872884,-0.08155146,0.29374155,-0.24555667,0.13705601,-0.10700405,-0.009363892,0.672501,-0.18813021,-0.7554591,-0.40509266,0.70148206,-0.60050106,0.96677834,-0.67346734,-0.15915363,0.47314662,0.4873106,0.8654236,-0.5790514,-0.49517876,0.69926685,-0.28319946,0.43958595,0.6042365,-0.73178005,-0.004795493,0.33828196,0.12837473,0.46628729,-0.42517015,-0.703151,0.47284266,-0.739743,0.50246125,-0.2216903,-0.10233283,0.32472682,-0.6886184,0.66177857,0.6653928,0.011378355,-0.052489113,-0.14366975,-0.91698134,-0.11812838,0.91964716,0.26198345,0.9216319,0.5743903,0.4692348,-0.0062604537,-0.59611624,-0.33055654,0.1348502,0.31868804,0.5794135,0.5341736,0.42948064,0.31349182,0.43763855,-0.29157797,0.93862784,-0.3878677,0.7307821,0.18527319,-0.9282098,0.050902262,-0.59185386,0.77585536,0.12653282,-0.779756,-0.22365162,0.4297423,0.6900523,-0.5134139,0.67679805,0.55661285,0.6604879,0.7316738,0.80467594,-1.015287,-0.24021111,0.6980872,-0.49772304,0.031339087,0.08953489,-0.6739106,-0.5187268,-0.72308725,-0.4925188,0.53870976,-0.02443462,0.42204633,-0.6621904,-0.1824211,0.31213954,0.20225084,-0.7701255,0.4578621,0.8878705,0.4117268,0.37636352,0.03750365,-0.88944817,-0.7608213,0.210995,0.50161034,-0.002099975,-0.6216919,0.29601127,-0.10632791,0.51114154,-0.7450002,0.12604703,-0.86464316,0.049734715,0.614218,0.5637037,-1.0190676,0.5971269,0.16665356,-0.36834908,-0.8568948,-0.5782598,-0.7355514,0.36979905,-0.8194641,0.014612579,-0.8503699,0.4336577,-0.9155638,0.055566497,-0.7083155,-0.14380096,-0.090621136,-0.41584775,-0.48240525,-0.8572228,0.049100284,-0.4679439,0.70938635,0.4534691,0.16543955,0.75774777,-0.76892614,0.7182666,0.2808312,0.31086543,-0.6046717,-0.44116923,-0.47341013,-0.008777849,0.15045287,0.059350498,-0.7009707,-0.5523298,0.62133217,-0.011329832,0.6436172,-0.45244876,-0.2660974,0.0430447,0.22314733,-0.75886893,-0.6855295,-0.7568346,-0.83364254,-0.48653346,-0.67917657,-0.43271104,0.31228074,-0.9231631,-0.26066768,-0.19545773,0.955005,0.25055206,-0.030936219,0.852,0.9086922,-0.04624886,-0.08748169,-0.071136594,-0.7343663,0.8889103,0.5054045,0.29421797,0.45388934,-0.8486139,-0.30796722,0.4935262,-0.07407832,0.5776945,0.84950495,0.90687525,0.62073195,-0.68483317,-0.99627244,0.92667556,0.7790075,0.7578034,0.38389277,-0.81107336,0.46484137,0.28713158,-0.19402689,0.98115677,0.9633126,-0.05967112,-0.17876916,-0.53269565,-0.32809767,0.34680307,-0.90715235,-0.21013871,0.6159988,-0.71375924,0.27702978,0.89034003,0.04370014,0.23190051,-0.28952286,-0.9518981,-0.010730774,0.19534557,-0.3847214,0.017689357,0.6468107,-0.15248676,-0.24088459,0.73702025,0.36392927,0.012646146,-0.067929395,0.28792807,-0.13087511,-0.9802092,0.46799073,0.8133898,-0.34587514,0.8845321,0.5188757,0.52395374,0.062411323,-0.8353722,0.0828868,0.9281969,-0.6033968,0.10338579,-0.20964494,0.100520834,0.17459482,-0.58996564,-0.4946374,0.4280006,-0.88983804,0.91864187,-0.07558911,0.9457851,-0.82878643,0.16241008,0.8048799,-0.6341642,-0.727518,-0.35554573,-0.5295612,-0.1782241,0.5331876,0.9185646,-0.69051695,-0.71586937,0.16571683,0.10723811,-0.03737551,-0.10567949,0.7715302,-0.82590216,0.40341112,0.9343493,0.375047,-0.6617558,-0.33341137,0.75974494,-0.9946451,-0.7915766,0.7377494,-0.055185217,-0.91322577,0.23762906,-0.64963275,0.6783341,0.17718136,0.049018417,0.57035387,0.68039703,0.848833,-0.43465364,0.34082657,-0.20136619,-0.05602119,0.35143048,0.1478155,-0.41558424,0.109475836,0.772609,-0.6437999,-0.56273615,0.95799714,0.2958697,-0.47732726,0.28124005,0.7873011,-0.20911592,-0.7325429,-0.2647815,-0.012702533,0.55427355,0.0037224651,0.08126137,0.3259293,0.46387303,-0.11879479,0.4430386,0.19125308,0.5816703,-0.13162102,-0.48214242,-0.47317043,0.63885564,0.91113013,-0.6404073,-0.4326676,-0.6354929,0.88300705,-0.97305644,0.86153406,0.53011227,-0.61316925,-0.12682469,-0.38097906,0.952102,0.16795644,0.65768456,0.030787975,-0.46854594,-0.613246,-0.49222133,0.6190364,-0.927292,-0.13351423,0.42318264,0.41895014,-0.438804,0.37418374,-0.23682554,-1.0109735,0.4009329,0.7059542,0.053239666,0.48543787,-0.73568106,0.58336955,-0.9885484,0.66373605,0.5375598,0.104907684,0.579294,-0.7406572,0.4030455,0.3377982,0.58244425,0.045940056,-0.43225437,-0.1300333,-0.54526114,-0.44173932,0.34480333,-0.62970144,-0.6408452,0.8687674,-0.8299744,0.7838574,-0.04282082,0.1263679,-0.27248657,-0.6060708,0.029892266,0.5816772,0.5321874,-1.0171237,0.8647743,-0.74691325,-0.35235634,-0.80574715,-0.9179794,-0.21430783,-0.15773515,0.38709268,-1.0556318,-0.21928826,0.24058989,-0.6179086,-0.6509399,0.5568912,0.24271046,-0.95825803,-0.20756856,0.87100154,0.33925387,-0.11557599,0.54083544,-0.9004101,0.5771651,-0.9686092,0.72484344,0.40776366,-0.13117799,0.47494102,0.3136171,-0.06424625,-0.21691506,-0.105799645,-0.23891944,-0.9704205,0.3616683,-0.8949478,0.30617535,-0.8719764,0.6018815,-0.314855,-0.76160055,-0.05275746,-0.09897279,-0.7735528,0.5456254,-1.0064533,-0.06710197,0.90744007,-0.29823312,-0.154871,-0.6663328,0.057904102,-0.37660265,0.07339685,0.03863062,0.53298396,-0.7697591,-0.3607655,-0.894719,-0.8116439,-0.038899817,-0.1266795,0.5182066,0.22266482,-0.5536789,0.711131,0.94331986,-0.033812065,0.6991947,0.11198426,0.31354818,-0.8194374,0.95174605,0.04653895,0.54438376,0.102929324,-0.76510024,-0.033903055,0.17280641,-0.48386806,-0.76644325,-0.32167456,-0.33192664,0.49205416,-0.31260973,0.45858407,0.75210536,0.8345221,-0.96554816,-0.6984722,-0.20458789,0.586289,-0.011106638,0.9456478,-0.7148601,0.17725247,-0.46969506,-0.81024903,0.18846633,0.0720513,0.13126841,-0.89098084,0.50542796,0.7255227,0.89143586,0.84680784,-0.69960624,-0.2083403,-0.8200615,0.8532433,-0.6731731,0.09353835,0.7210988,0.8905887,-0.38068867,0.93657446,-0.8278425,-0.09618228,0.34619343,-0.77869177,0.60948604,0.99902904,0.8676376,0.3079287,-0.35312122,0.39083156,-0.81990695,0.40779117,-0.23241499,0.6923318,-0.9816911,0.7631121,0.3046056,0.8537279,0.49951875,0.30179736,0.25642514,-0.9030534,0.84007084,0.07718604,0.61707693,0.68875843,0.99409246,-0.09404626,1.0160699,0.16489427,-0.5914997,-0.6259117,-0.8754237,0.7736683,0.29632217,-0.44182426,0.96889746,-0.6868765,0.66478086,0.3860142,0.918143,-0.33056757,0.68886137,-0.95938444,-0.69792366,0.07555093,0.90345454,-0.31625405,0.84950083,0.03229823,0.087319784,-0.48072544,-0.75173056,-0.35659632,0.013322975,-0.57883596,-0.75785834,0.008519884,-0.026982581,-1.0339322,-0.9228963,0.02299266,0.3606494,0.96111596,0.43821728,-0.6210786,-0.73336864,-0.87502176,0.019815149,0.7264782,0.0002653629,0.6456218,0.980143,0.540716,0.051899824,0.08402111,0.10767177,-0.09419603,0.5895993,0.46859226,0.6788393,0.83838046,0.38380918,0.8817008,0.6153415,0.50351685,-0.34647012,0.5539705,0.3892135,-0.86782664,-1.010026,-0.101029694,-0.72602844,-0.82000136,0.91600853,0.7802898,0.2621752,-0.13872497,-0.5432142,0.61219007,-0.92825866,0.13408153,-0.63769084,0.7774154,-0.1904914,-0.40686938,0.21136495,-0.23293805,-1.0167351,0.8584849,0.27192226,-0.8764101,-0.49951825,0.26238793,-0.09309791,0.70696145,-0.2037235,-1.0285459,0.5493047,0.023026127,-0.40080056,0.18183443,0.38676044,0.1582959,-0.70225924,-0.9553229,-0.82815695,0.6912363,0.18090144,-0.1538598,-0.4864167,0.4260723,0.3371743,-0.86037004,0.38174686,-0.10741671,-0.5995521,-0.071931586,-0.0713676,0.19227761,0.5919753,-0.23996796,0.68937445,-0.40287945,-0.060616143,-0.3764489,0.3549866,-0.32694918,-0.6398613,-0.046441942,0.92728,-0.08334728,-0.043168113,0.6942127,0.9054242,0.3480016,0.67237455,-0.75747436,0.16441528,-0.35070005,-0.29288512,0.36029068,0.70976293,-0.24435604,-0.19643866,0.20609207,-0.8971619,-0.7280133,-0.69600856,0.73411554,-0.19372916,0.58590966,-0.081985064,0.33874828,0.44780165,0.57709765,-0.3156056,-0.16080214,0.97690296,-0.70406866,-0.29428095,-0.26297903,0.18220663,0.3402372,-0.05650677,-0.66805786,-0.2818885,-0.5504809,0.55347586,-0.96846086,0.74383193,-0.0024360404,0.8584374,-0.036677305,0.8066788,-0.942247,0.39471236,-0.9467683,-0.015348239,0.029286286,-0.3845335,-0.10352123,-0.8470309,0.54616565,-0.17379992,-0.23491418,0.5031897,0.8476487,-0.05182195,0.14441362,-0.51495385,0.8397419,-0.7176984,-0.41949838,0.2863011,0.73107827,0.047454186,0.38221145,-0.08430182,-0.0798355,0.43643025,0.15325668,0.58465445,0.23763306,0.97888607,0.15946758,0.3060417,0.85903686,-0.21174927,0.2955049,-0.011922962,-0.8744335,0.2526584,0.6288384,0.08204385,0.33399278,-0.6848453,-0.7508979,-0.527167,-0.82652324,-0.1935508,-0.53753763,-0.87550384,-0.6947761,0.44705242,-0.11019673,-0.99665785,1.0312192,0.67343503,-0.8977937,0.48223758,-0.62193245,0.5971845,0.1236323,-0.8041854,-0.7425907,0.21838695,-0.2510112,0.2729701,0.81549937,-0.29382592,0.08996999,-0.9851767,-0.0032219337,0.8972394,0.21955137,-1.0284127,-0.017463392,0.86721027,-0.56342757,-0.5562617,0.03159909,-0.7020312,0.27222648,0.8850257,-0.7380813,-0.6017004,-0.3813983,-0.5217313,-0.7644211,-0.6493209,-1.0169579,-0.3134023,0.83115476,-0.9086549,0.01619338,0.44877157,0.59173405,-0.2727057,-0.5023704,-0.22619745,0.28996807,-0.8264277,0.18492518,-0.8126099,-0.5709172,0.5507457,0.21215029,0.2307625,-0.73545784,-0.8062684,0.31061104,0.948458,-0.09204136,0.1154395,-0.6858907,0.67314196,-0.15107721,-0.06884033,-0.7237633,0.42618328,0.8366784,-0.67971885,-0.17249216,0.12531611,-0.19506368,-0.95241374,-0.072718546,0.14491299,-0.47368965,0.03254615,-0.033169787,0.69254684,0.0017409697,-0.821188,-0.87726104,0.98618764,-1.0025293,0.96228135,-0.9888026,0.55849385,0.83270663,-0.2652581,-0.056325607,0.33812293,-0.12439679,0.22933613,0.2162743,0.15630382,-0.9395348,0.69758785,-0.02505226,0.36885226,0.5843015,0.42826757,-0.13810456,-0.01382758,-0.86207944,-0.9131174,0.71160513,0.3838982,1.0186064,-0.76646096,-0.544548,-0.9306521,0.6635065,0.07137782,0.21440803,0.63143337,0.97355,0.7347071,-0.6547504,-0.057151917,-0.24658713,0.18845771,-0.46874037,0.9626407,0.15671398,-0.7656632,0.17357746,-0.9367969,-0.55964893,0.29255754,-0.23246488,-0.75827926,0.48068336,-0.93677735,0.9244264,0.4729905,-0.99173343,0.9686874,-0.57384247,-0.87545353,0.6319443,0.16549501,-0.53246653,-0.8330878,0.49896246,0.36578196,0.15712425,0.39803433,0.80881286,-0.12966259,0.9451739,0.5220863,-0.11599031,0.97300303,0.6951045,0.08467276,-0.7641231,-0.45782995,-0.4274837,-0.43322757,-0.7920992,0.6190049,0.011297149,0.83073765,-0.5517141,-0.6194583,0.88279825,0.77415144,0.20740424,0.56593186,0.5633612,0.32965538,-0.99173826,0.7269835,-0.70097274,0.61827993,0.6636971,-0.16934194,0.70441276,0.9213611,0.8223358,-0.38650703,0.66577595,-0.46767834,-0.6546521,1.0310857,0.9694229,0.48886093,-0.58573115,-0.6859544,-0.11643726,0.2840047,-0.46994498,0.3831024,0.30365723,0.5217575,-0.4222827,0.39955547,-0.77567935,0.51795304,0.6106257,-0.41095886,-0.23783313,-0.29242578,-0.49468228,-0.27081344,1.0287474,0.5046234,0.20494108,0.44955856,0.24782938,0.5960957,0.74724627,0.15718447,-0.49510968,0.7004084,0.033857062,0.56012267,-0.91774625,-0.77663326,0.5663884,0.80909985,-0.7386054,-0.50531304,-0.9125003,0.69726986,-0.59848106,-0.8029222,-0.86384225,-0.07988183,-0.63348144,0.44901717,0.5438428,-0.60648066,0.24966517,-0.8244866,-0.9886292,0.4546042,-0.20073566,-0.90998137,-0.40262306,0.2879213,0.61696774,0.8525969,-0.7876813,0.81473106,-0.19235514,0.8058785,-0.40682998,0.49593672,-0.13605879,-0.87689453,1.006869,-0.47008875,0.6269055,0.18206325,-0.54418033,-0.33577767,-0.75361884,-0.7162414,-0.97759235,0.40317976,0.45438784,-0.65716934,0.16395645,0.41115335,-0.6022729,0.9396567,0.97586775,-0.20334171,-0.28719753,-0.55005187,0.0050938926,0.8260487,0.1420475,0.61255455,-0.9380252,-0.25871268,0.91569847,0.63938314,-0.5458376,-0.50846314,0.44206077,-0.46817395,-0.33875147,1.0427724,0.6840635,0.9063623,0.45983014,0.40025517,0.48422262,-0.4329593,0.30714113,0.55509543,-0.69131005,0.22996984,0.32084656,-0.8574789,-0.80204546,-0.6564391,1.0078148,-0.9234866,0.09879924,0.48329502,-0.62656534,0.029325917,0.47557732,1.0322411,0.3992501,0.023802068,-0.72970146,0.12388562,0.32365596,0.8236403,0.9671182,-0.053593908,-0.5014143,-0.081421025,0.23778407,-0.078678496,-0.67840225,-0.5188771,-0.6897653,-0.37261605,-0.5171177,0.35238343,-0.82056904,-0.74258333,-0.1679024,-0.67613304,0.5352499,0.785106,-0.17745852,-0.24188787,-0.2790435,-0.7462915,-0.113312155,-0.023034729,-0.4598662,-0.67240506,0.0896995,-0.59854096,0.9223365,-0.46033615,0.6985141,0.35773444,0.7084285,0.9747785,-0.28656054,-0.67662895,0.12681347,-0.85625434,-0.9814162,0.735845,-0.55351335,0.49515575,0.29724273,-0.9818094,0.2576956,-0.7222577,0.5945842,0.88938165,-0.8811989,0.18964113,-0.88991755,0.8505639,0.89119303,-0.41394028,-0.3387499,-0.56883883,0.9393574,-0.14193934,-0.7679624,0.16281275,-0.19576429,-0.8369112,0.022884993,0.40781054,0.9382604,-0.44568557,0.99877405,0.43693838,0.7819681,-0.2811602,0.42813793,0.32216167,0.7793929,0.6988573,0.8412805,0.6486562,0.88012743,0.25951645,-0.6034313,-0.66791326,1.0560228,0.1906093,0.86907536,0.98312384,1.0181926,-0.111254066,-0.80399734,0.80144626,-0.7726275,0.9637783,-0.16420904,0.24503914,0.9100322,0.024539147,0.7919355,-0.95420295,-0.79825413,0.36826292,-0.5650311,-0.77574944,-0.75987923,-0.6905852,-0.4177715,0.0075265155,0.9938666,-0.21560392,-0.38700944,-0.7715867,-0.12649846,-0.55026007,0.61356,0.0015980885,-0.34450662,-0.08083493,0.97655666,0.8481802,0.8779191,-0.8098251,-0.8197384,0.4621437,-0.8666172,0.8758084,0.7705356,-0.058609664,0.4069953,0.9910609,0.35236496,-0.33390266,0.9533746,0.41723895,0.07209983,0.3736083,-0.58095616,-0.16283442,-0.62126166,0.46320534,0.21541922,0.68468016,0.8253977,-0.28522202,0.3464872,0.54338217,-0.52501893,-0.8092866,0.4034062,-0.88281155,-0.6986073,-0.25735933,-0.12484802,0.39872128,-0.31188565,0.43381533,-0.17170756,-0.007998106,-0.686373,-0.5502768,0.51223266,0.29137653,-0.8513402,-0.65369624,-0.18654296,0.58559865,-0.020234995,-0.15375963,-0.96399397,0.118085675,-0.5562408,-0.24521178,-0.8760939,-0.673879,-0.59191716,0.68406886,-0.4431945,-0.18037574,-0.8652603,-0.19796017,-0.2194939,-0.7454817,0.5199435,0.7619481,0.34852728,-0.72983384,0.8829812,0.94421566,0.102986775,0.42541805,0.5420943,-0.277009,0.7917906,0.763013,-0.90429944,0.41231725,-0.22740419,-0.5886286,-0.7571505,-0.86055195,0.5601647,-0.7115804,-0.860548,0.26950172,-0.61241806,0.27954236,-0.54353654,0.24784288,0.1902706,0.7343927,0.64301395,0.27962306,-0.9257576,0.4479425,0.7661237,-0.6181026,0.52267444,-0.36176574,0.12963326,-0.2841752,1.0380087,-0.2475658,-0.1798404,0.7994216,-0.6303494,-0.78099537,0.8927738,-0.7255135,0.6739403,0.75590813,-0.7992003,-0.0654826,-0.04107611,0.369671,0.21046658,0.88960564,-0.75918156,1.0207182,-0.87198937,0.6388162,0.6082545,0.007180665,-0.7617254,-0.74300355,-0.075981945,0.7595322,0.5762973,-0.6014658,-0.088301435,0.22338624,-0.10713705,0.5258099,-0.26254374,-0.19755322,0.9124746,-0.77304703,-0.87860435,0.31355813,-0.4669888,0.46007365,-0.86012757,-0.14593707,0.37819698,0.65022004,-0.52709734,0.9703127,-0.72475666,0.17081591,0.040202655,0.50302714,0.22996573,0.120277494,0.3081104,-0.79248816,0.23652036,0.90214014,-0.9413961,0.541184,-0.11100432,0.33485836,0.5450254,0.43124056,-0.40109265,0.40647084,-0.55194277,0.17070428,-0.38366508,0.37584305,-0.8641801,-0.39973027,-0.8159183,0.6867972,-0.7247634,-0.12014644,-0.04442696,-0.3591809,-0.78109086,-0.5153639,-0.48105168,-0.5891813,0.09949829,0.24020426,0.23826593,-0.7973489,0.69841313,-0.9551228,-0.23270214,0.96426064,-0.77455765,-0.27054513,0.6686329,0.90393925,0.797247,0.2458311,0.20044424,-0.6822001,0.9187587,-0.038633272,0.2484829,0.75748044,-0.3291333,-0.34896857,-0.13485402,-0.82046056,-0.56395006,-0.37561873,-0.26568478,0.62232935,0.3292188,-0.8923408,-0.3943642,-0.6245483,-0.12808505,0.004420191,0.25201476,0.010783936,-0.5588492,0.23107572,-0.5708054,-0.38284993,-0.8041121,-0.21203876,0.1321722,0.5102131,0.8222286,0.17780693,0.49658862,-0.6897498,0.63413876,0.05444205,0.66205704,0.6009853,-0.5314998,-0.07639358,0.5916009,-0.49507657,-0.48531604,-0.28227583,-0.61409193,-0.47406572,-0.4679963,0.93457675,-0.85434896,-0.27947006,-0.8743249,0.73937553,-0.8926591,-0.3165804,0.66205585,-0.04769088,0.43023854,0.9321991,-0.19900581,0.4497359,0.40420038,0.47085923,0.78730685,0.29676613,0.18672481,-0.07379,0.40386564,-0.21863276,0.5382977,0.7824538,-0.5162707,0.92811865,-0.05232286,0.7660576,-0.09281977,-0.33028153,0.5343305,-0.57267183,-0.96127325,0.8202284,-0.2062969,-0.7903845,-0.8748576,0.4181355,-0.84371716,-0.28507033,-0.25784796,-0.69266915,0.22164068,0.94983816,0.6830389,0.51831144,-0.8514098,0.77352124,-0.37545753,-0.025822489,-0.7954248,-0.16992666,-0.19468845,-0.7783981,0.9067266,-0.46797413,-0.6618068,0.7305301,0.6973793,-0.12085834,0.25029904,-0.09683205,0.7832672,0.24520023,-0.075549446,-0.3278993,-0.6826153,-0.8470476,-0.28051263,0.9588914,-0.2925303,-0.6794504,0.6447857,-0.81435925,-0.7858616,-0.14930907,0.63741523,0.054016527,-0.53075117,0.1589886,-0.02734307,0.60360986,-0.1870531,0.16722822,0.86189574,0.74280226,-0.75799114,-0.7436741,-0.2521617,0.6560072,-0.32864124,0.5279717,0.25948822,-0.9274949,0.5558112,-0.10209369,0.4931356,0.5643432,-0.47793123,-0.21452087,0.6717275,-0.40321586,-0.37211663,-0.5668916,0.2252051,-0.81382966,-0.91525763,-0.68634355,-0.89342105,-0.6691534,0.9647567,-0.3204448,0.16897887,-0.2819144,-0.9556413,-0.38307425,-0.95651156,0.7950127,-0.8036853,0.053990792,0.2591586,0.2134377,0.23738638,-0.72906846,-0.33155957,0.6042226,-0.41052547,0.6113469,0.1994971,0.6109036,-0.02364653,0.9194646,0.9728314,-0.32140192,-0.19147535,-0.0059227054,0.39726835,-0.49194735,-0.6917583,0.858258,0.094215155,-0.67071134,-0.5560263,0.860955,0.78338647,-0.25024155,-0.4986195,-0.7217948,0.82369864,-0.25305247,-0.29786664,0.064069144,0.82640064,-0.8559366,-0.6272351,0.6473809,0.6196617,0.64850575,-0.17966059,-0.058465365,0.71981394,0.20900801,-0.76672834,0.27747214,-0.87328565,-0.5927423,-0.88361824,-0.8165753,-0.54125947,0.74086654,0.13640249,-0.12196909,-0.7929606,0.819207,-0.62285626,-0.26993817,0.42430112,-0.47156283,-0.9653092,-0.66806984,-0.72741437,-0.33806163,-0.84174573,0.4420815,0.24876015,-0.56520635,0.7706153,0.6049971,-0.17165406,-0.09895031,-0.89723974,-0.42322743,0.60836357,-0.5410362,-0.7468255,0.5033928,0.26487026,-0.034910094,0.06369265,-0.43796313,-0.09199586,-0.36544275,-0.44410896,-0.61960673,0.9363032,0.41306785,0.1135892,-0.6899418,0.6772185,0.66552454,-0.54709876,0.8552621,-0.25047112,0.9598619,0.4047847,-0.55889887,-0.20865853,-0.3046357,0.8846808,-0.12328165,-0.016136214,0.49589136,-0.89151365,-0.33876613,0.31646666,-0.900757,-0.7785736,-0.6029272,0.372166,-0.25037038,0.8626375,0.30202138,-0.14209495,-0.50931954,0.2857534,-0.5712592,-0.15840253,-0.36805853,0.27238432,0.30347255,-0.15850767,0.019126888,-0.70747197,0.077893965,-0.4567298,0.0146293165,0.63509405,-0.4180042,-0.53209895,-0.81180346,-0.5302276,0.67443144,0.6075449,-0.7914213,-0.6047384,-0.57409424,-0.0058122156,-0.60586196,-0.27150157,-0.12385138,-0.7038965,0.37651923,-0.19211057,-0.08376034,0.3542842,0.14999741,-0.3445038,-0.60476965,-0.36839166,-0.23517668,-0.8132152,-0.7559875,-0.10571473,0.6752783,0.20748448,0.6323524,-0.13042898,0.8297008,0.5339803,0.8130818,1.0494199,0.9962282,0.22400583,0.27985677,-0.49112317,0.7351493,-0.6219257,-0.48992833,-0.7941635,-0.31211922,-0.71958196,0.8674836,-0.71918803,-0.09584796,0.44394955,0.5992158,-0.5074599,-0.8062967,-0.3314322,0.48073012,0.6390351,-0.7737797,0.903061,-0.73267716,0.62674373,0.26605052,0.055802472,0.63812315,-0.44663432,0.07648687,-0.63234603,-0.5146215,-0.8017375,0.026053047,0.8635458,0.7167348,-0.6558137,0.21464957,0.06963688,0.5976489,0.67671174,0.4329381,0.7587755,0.39668489,0.31662372,-0.029165853,-0.6897475,0.15163258,0.9448321,0.46382743,0.895333,-0.75498676,-0.86938304,-0.15739654,-0.2528882,0.81219035,-0.34560618,0.34596556,-0.94113445,0.21580416,0.10321523,0.72652596,0.5972975,0.19355121,0.3694876,-0.5224682,-0.8836241,0.52490234,0.3337305,-0.8484723,-0.6124629,0.4183264,-0.4116934,-0.52904516,0.40306985,0.2287496,-0.8547638,-0.67691505,-0.95320606,-0.9060264,0.9811553,-0.19435076,-0.36390567,0.14570615,-0.04031653,0.20086734,-0.79845953,-0.5049852,0.15032798,0.72571164,0.54816365,-0.24269122,0.22747049,-0.58964163,-0.53575486,-0.43305063,0.5025005,0.58359796,0.2152721,0.90639627,0.26411226,-0.87613785,-0.043418933,-0.4768336,-0.259529,-0.94547087,-0.49755734,-0.9015506,-0.412737,-0.9382021,-0.93722445,0.6601311,-0.5227298,-0.8643374,-0.29316935,0.25276756,-0.5496623,-0.9518471,-0.32933834,-0.43087164,0.68137974,-0.057689488,-0.83761895,-0.73303443,0.39644656,-0.7736198,0.37259975,-0.9241862,0.35530943,-1.0962145,0.65839744,0.33690527,-0.9059416,-0.3401368,0.554436,-0.37724063,0.45665243,-0.24486613,-0.41542965,-0.64057386,-0.63656205,0.8031132,-0.032776035,0.038004793,0.6850515,-0.17379397,-0.22583026,-0.6220272,0.63596576,-0.81286615,0.032963723,-0.70712173,-0.8155109,0.46348253,0.7976609,0.035640143,-1.0357454,-0.20499298,-0.7182318,-0.7939285,-0.02310072,0.274552,0.29758433,-0.753317,-0.42541933,-1.0442623,-0.9740985,-0.7585956,-1.0858915,-0.79492694,-0.8097362,-0.44733724,-0.031832606,0.86545426,0.40748832,0.52169514,-0.9297655,-0.49594405,0.64319664,-0.115063086,-0.80327857,-0.6921364,-0.029591404,-0.746055,-0.5368691,-0.3147593,-0.6478666,0.09548905,0.8797861,-0.44750413,-0.7454851,0.6123389,0.57735467,-0.12611425,0.347729,0.7895237,-1.0264139,-0.9259595,-0.9700664,0.62321407,-0.76511836,-0.7801192,0.71138656,0.89065975,-0.107094646,0.25800648,0.23198783,0.24104534,0.5362733,-0.6244468,-0.6664907,-0.05652232,-0.247267,0.71584976,0.8582254,0.19405387,0.69914573,-0.07125654,-0.3545221,-0.8292193,0.34280407,-0.8306979,-0.11331678,0.6702455,-0.36431894,-0.03827105,0.1711503,-0.74210364,-0.32136714,-0.7241293,0.6229792,-0.65415084,-0.18858902,0.4859392,0.43472153,-0.5357553,-0.059890885,0.4731915,0.18126787,-0.6746459,-0.6411023,0.78185415,0.0806568,-0.85773057,-0.34674406,-0.45767385,0.1619558,0.91248596,-0.86450547,0.18400665,0.39877662,-0.5356023,0.9200415,0.18972448,0.85144603,0.797072,-0.41174585,-0.90761673,0.85053664,0.92531085,0.61735773,0.870176,-0.9706026,-0.9747266,-0.43015397,0.5412598,-0.029082999,0.54931766,-0.3711368,0.9211262,-0.735808,-0.7798316,0.45099637,-0.8191182,0.9943707,0.37804517,-0.4150152,0.7409712,0.15633576,-0.6108925,-0.47943854,-0.58143646,-0.13915807,-0.15760532,-0.93413323,0.15803564,0.2792475,-0.42991942],[-0.032325495,0.28698695,0.572583,0.35734594,0.4068861,-0.5383633,-0.3802724,0.7952297,0.8903065,-0.14190647,0.681493,0.8501031,0.4386062,-0.7887018,-0.62776905,0.9674959,0.58787686,-0.39340132,0.80472606,0.13512574,-0.19997083,-0.05370341,0.009408224,-0.051725965,0.50035465,-0.9503538,0.69633216,-0.65961486,-0.75341564,0.4798205,-0.39260685,0.2001508,-0.81883556,-0.5141425,-0.078736626,-0.72758085,-0.33343703,0.7220467,-0.80585665,-0.68395084,-0.0124071725,0.759919,-0.07201092,-0.50114536,-0.60876846,-0.58330035,0.39094517,-0.36765686,0.97981787,0.07467112,0.4478755,0.08729671,-0.0701352,0.008420777,-0.70265436,0.451527,0.27205628,0.4642144,-0.55172324,0.9307248,-0.21984659,0.56220555,0.80372804,-0.4341544,0.011462021,0.8880045,-0.1133955,-0.41780072,-0.87521654,0.30315426,0.90167814,0.25324306,-0.50848687,-0.84251535,0.91239125,-1.0169078,-1.0325526,0.6182447,-0.44465232,0.1804474,0.44827268,-0.087976456,0.784672,-1.0226959,-0.45618477,-0.41479236,0.8289912,0.19428056,0.09395452,-0.9972676,0.11131739,-0.32638213,0.89383525,0.5414071,0.29050604,-0.50904155,0.6594967,-0.31334478,0.33638263,0.79566634,0.26615453,-1.037569,-0.17087984,-0.9897996,-0.25365326,-0.09187878,-0.744623,-1.0248818,-1.0496236,-0.3834809,0.026649686,-1.0583986,-0.8879584,-0.061169047,-0.84461856,0.5078134,0.6609549,-1.0074393,-0.21193226,-0.12135395,-0.47551715,0.30699003,-0.78709304,0.7049091,0.4541218,-0.7354568,-0.057626404,-0.37603566,-0.37812442,0.66004556,-0.5564469,0.3102653,-0.38167056,-0.79162323,-0.13827828,-0.54645324,-0.9809821,-0.36307433,-0.5037389,-0.43342188,-0.42044115,0.24072868,0.5518472,-0.99564666,-0.08923735,-0.5341516,0.26674354,0.6331353,0.9070007,0.5439956,-0.6757642,-0.954366,-0.9017803,0.8742862,0.42528698,0.62569594,0.15954953,-0.7220002,-0.47852135,-0.9238649,-0.12565957,-0.41152176,0.8659755,0.5442279,-0.9972276,0.78725153,-0.74523705,0.95879084,0.065811224,0.63158935,-0.108722396,0.4555523,0.023509495,0.49364725,0.65983975,0.71186227,-0.26125547,-0.107547946,0.4284301,-0.025211507,-0.46558666,-0.5585507,0.3061269,-0.355662,-0.24097832,0.72305745,-0.3175523,0.7279505,-0.20832062,0.80983776,-0.5044523,-0.30218288,0.8510495,0.32591006,-0.05272689,0.86200094,-0.23950152,0.10001229,0.29324865,0.6754657,-0.35576925,0.6859268,0.10712715,0.021830466,-0.9953954,-0.859918,-0.68604046,-0.779902,-0.7443861,-0.8978578,0.12362192,-0.57203656,-0.94496226,0.21629523,0.37299934,0.43867043,-0.24657135,-0.45881873,-0.8055292,-0.60358506,0.28178996,0.94378424,0.25568762,-0.74611425,-0.88959736,0.8558284,-0.30559814,0.20294215,-0.622126,0.048835512,1.006152,0.021881845,0.64652,0.5104346,-0.60224116,-0.9479751,0.58687526,0.9955249,0.5583468,0.42063248,-0.85898244,-0.49633047,-0.42682928,-0.16895838,0.34268913,-0.04984297,0.6068838,-0.1635712,-0.92808336,-0.8273874,0.23399377,0.10330832,-0.62886745,0.98717594,0.23837978,0.47995716,-0.8770144,0.29724592,-0.34137774,-0.25397828,-0.7799314,-0.44107693,-0.78076607,-0.854048,0.7456223,0.46288142,0.9722244,0.6087418,-0.7382675,0.18091582,0.425367,0.692628,0.34578648,-0.91464573,0.21029669,0.91243076,-0.19351965,0.096943475,-0.41019678,0.25674045,-0.17545567,0.5721825,0.3875534,0.1359407,0.5956142,0.69185853,-0.3776319,0.18965523,0.60480136,-0.51646465,-0.24430738,0.1439926,-0.35015965,0.7428416,-0.91872936,-0.6130201,-0.18317941,0.85846585,-0.2522676,0.2743533,0.74607825,-0.95781386,-0.43701133,0.756079,0.831052,-0.8498257,0.6570731,0.0840475,-0.51625377,0.89818454,0.7412136,-0.24291877,0.51231194,-0.29431474,-0.90361017,-0.45456693,0.08662442,0.28093967,0.2034782,0.83089745,0.39752474,-0.22184837,-0.27285895,-0.87592447,-0.1926579,-0.7667878,0.044941816,-0.80590695,0.34666115,-0.9591262,0.5275186,-0.7148942,0.74696773,-0.51004565,-0.8454,-1.0531582,-0.8352022,0.28649467,-0.44600275,0.6816618,-0.7826633,-0.6746543,-0.79813606,-0.52409637,-0.71261495,0.68370056,0.68521297,-0.021319887,0.33762833,0.41860786,-0.53238404,0.22462304,-0.6902897,-0.61509085,0.64392537,-0.31173125,-0.21150757,-1.0623206,-0.8216597,-0.65003955,0.2310509,-0.80249333,-0.53353524,0.27384523,0.6423126,0.2913315,-0.61591613,-0.6381213,0.5366376,-0.9595799,0.76772743,-0.67719316,0.62582934,0.37704688,-0.8926099,-0.12466945,0.67424744,0.24270609,0.44066215,-0.1963395,-0.19600543,-0.2871,-0.6454955,-0.77767545,-0.69755244,0.9145844,-0.17094731,0.22988077,-0.13039152,-0.974213,0.7670086,-0.15711021,-0.45063078,0.009522424,-0.85502386,-0.58426875,0.42812136,-1.0121967,-0.029401695,0.626925,-0.8040276,0.4532581,0.4738639,-0.70706165,-0.7718737,-0.5187429,-0.6643938,-0.3432358,0.18883635,0.5456037,-0.11215075,-0.5052412,-0.42430222,-0.54625803,0.9730642,0.014087902,0.5687129,0.22072543,0.252085,-0.93278587,-0.2908202,-0.8379185,0.35043055,0.94288266,0.106976956,0.46164548,0.007399515,0.09854933,0.33750412,-0.26203147,0.28052452,-0.8120581,0.8486045,-0.9797481,-0.5057834,0.10809442,0.8432214,0.12388454,-0.48745486,0.49486095,-0.50104934,-0.63174635,-0.19983633,0.31766883,-0.99810076,0.40789646,-0.72601354,0.6228759,0.14822578,0.025196288,0.4822668,0.7658243,-0.07701617,0.88502526,-0.54853487,-0.6490373,0.14458829,0.63416076,-0.78314227,0.30594134,0.1689108,0.41684934,-0.37981123,-0.008033065,-0.26426244,0.692784,0.6745719,-0.6323337,0.7003983,0.4619002,-0.13309827,-0.7270404,0.09996398,-0.3688856,0.6675027,1.0010269,0.9961864,-0.4650609,0.45327082,-0.6955055,0.7136947,-0.1049538,-0.49208793,-0.4078295,-0.58518416,-0.6218792,-0.18425755,-0.17904527,-0.07658246,0.9273485,-0.7721103,-0.23334998,0.4813923,0.5110162,-0.4557257,-0.3697928,0.6136395,-0.7539747,0.59484947,-0.0913646,-0.7499409,0.67521954,-0.69478667,0.046708386,0.4058757,0.9142332,-0.29661667,0.92659533,0.01623073,0.5866604,-0.6100545,-0.9035564,0.78563225,0.7284124,-0.35560802,0.29071477,0.85892004,0.8164767,0.90375096,-0.046303734,-0.69965863,-0.2558924,0.5700394,-0.6991847,-0.61502206,-0.22068666,-0.56124294,0.5203824,-0.360446,-0.5526536,0.06940415,0.29316828,0.57045287,0.87867665,0.97222716,0.83782655,-1.0477349,-1.0402604,-0.4835946,0.37100527,0.31190997,0.36449042,-0.98746324,-0.69923544,0.23983015,-0.20507291,-0.048885297,0.88970596,-0.8697919,0.20076205,0.36948794,0.1036563,-0.3878848,-0.939538,-0.7328618,-0.27673945,-0.035329204,0.3392122,0.6168302,-0.06265341,0.7399702,-0.005640834,0.47506982,0.87131965,0.6925986,0.3074616,0.8480337,0.2041061,0.7392667,0.27018374,-0.62141436,-0.997462,-0.9005577,-0.5054263,0.8826669,0.027625876,-0.9687379,0.48412374,-0.2641345,0.13546096,0.5660708,-0.6727801,0.35547554,0.07203506,-0.6681175,-0.55334634,-0.94629997,0.7082411,0.8251232,0.57642394,0.27689606,-0.3666286,-0.41459548,-0.4601835,-0.67278165,0.720632,-0.2257418,-0.045366082,-0.88750464,-0.25280872,-0.803247,0.68026835,-0.8167362,0.08795938,-0.7223648,-0.38593388,-0.3104499,0.09070905,-0.5974159,0.08661898,-0.8842349,-0.516285,-0.5739607,-0.7597931,-0.33130544,-0.9128739,0.22332668,-0.7259219,-0.72151804,-0.5423089,-0.7575627,0.9286152,-0.6311756,-0.74726576,-0.19078092,0.20003016,-0.07400145,-0.68725026,0.9063756,0.41584352,-0.3973015,-0.53107804,-0.2206671,0.43182915,-0.6215494,-0.53649354,-0.7334368,0.40870348,0.6717445,-0.90804845,0.44522947,-1.0199647,-0.060679805,0.20194852,-0.20036529,0.6726859,0.51244974,-0.16004947,-0.7737,-0.023719355,-0.40830097,-0.66567355,-1.0034782,-1.0146993,0.45853245,-0.55436015,0.35855165,0.9610139,-0.95466363,-0.43639308,-0.32203442,0.4892346,-0.397852,-0.10317969,0.5928184,0.3080446,0.8993824,-0.67365164,0.5450545,-0.43729794,0.44993803,0.09663789,-0.5053131,0.119020954,0.632029,-0.111171395,-0.6044626,-0.17659558,-0.65218043,-0.6811281,-0.6703798,-0.8084934,0.9498462,0.29282576,0.37518972,0.66194093,0.38331574,0.3939938,0.6025349,0.35409153,-0.121690184,-0.78060645,0.9236914,-0.6820125,-0.787617,-0.416769,0.36213508,-0.28659993,-0.8966142,-0.028533615,0.7637766,-0.06067054,0.8776656,-0.8276284,1.0217296,0.33680493,0.2987952,0.75197107,0.2607622,-0.42856818,-0.76089036,-0.8703598,0.4020695,-0.91578907,-0.055388283,0.8639629,-0.53293914,0.76451975,0.3980267,-0.21587232,-0.20576566,-0.23196732,1.0066578,0.22213867,-0.19351654,-0.6655255,-0.8693092,-0.61593306,0.22476126,-0.88651454,0.5039868,0.51712304,0.5736615,-0.30346683,0.85333675,0.27082354,0.77328575,-0.9544271,-0.18373418,-0.28475946,0.25812772,0.19435813,0.46553808,0.8228501,-0.21855365,-0.83540374,0.56943107,0.27657297,0.9421099,-0.48306936,0.7045167,0.6448366,-0.60602504,-0.2804274,0.59598583,0.8983889,-0.12920052,0.414272,-0.27811238,0.98936254,0.44906077,0.43064353,-0.42513436,-0.24781424,0.63326746,-0.06693895,0.8072002,0.31833237,-0.36911207,-0.43126142,-0.9406769,0.72985786,-0.6531278,0.20387267,-0.25762117,0.027369713,-0.24393487,-0.7829926,-0.931059,-1.0160949,-0.9795515,1.0663586,0.16356397,-0.14870715,-0.37332907,0.6328877,0.34905702,-0.61798227,0.24797411,0.69906205,-0.9256118,-0.78241843,0.22074221,0.6062818,0.9231678,-0.995742,0.82523805,0.12639438,0.06661931,-0.4516195,-0.29717276,0.81708413,0.65378886,-0.952755,-0.4843729,0.741385,0.15818518,0.5601393,-0.94735444,-0.45959947,-0.45030385,0.7852677,0.16610639,0.96945935,-0.6507702,0.580613,0.8744976,-0.024687342,-0.27839333,0.08509046,-0.8148631,-0.2077527,-0.65904206,0.34929824,-0.42337036,0.09137202,0.31810367,0.4427796,-0.06496155,0.74428886,0.60745573,-0.16058406,-0.3321756,0.8705901,-0.5281613,-0.30135605,0.18936548,0.87729764,-0.15747201,0.16022512,-0.9462004,0.22230814,-0.6130767,-0.5707274,-0.53770673,0.63354176,1.0281781,0.11077849,-0.34860215,-0.40858412,-0.7741041,0.85357696,-0.40370736,-0.2586244,-0.14680012,-0.49221858,-0.9950707,0.6826941,-0.1383961,0.7154726,-0.6191255,-0.72311884,0.85176253,-0.3684055,-0.20845146,-0.13783693,-0.3043044,-0.93420494,0.5645158,0.10860699,0.74552464,-0.5860097,-1.0140634,0.5798581,0.032876972,-0.3296494,-0.42050284,0.6916467,0.5292696,-0.08025898,0.78027797,-0.35741106,-0.44233578,-0.6903156,0.12103502,0.039131414,0.58718926,-0.38823855,0.8447279,-0.08622851,-0.38924527,0.8225384,-0.53324056,-0.91017526,-0.7647678,0.9972735,0.7834383,0.08846445,-0.25521538,0.7973149,0.71223116,-0.1831627,0.5813928,0.9848725,0.13750145,0.9656377,1.0219405,-0.027761871,-0.06588553,0.7997096,0.1990071,0.45256752,0.31826156,0.41253084,-0.36111298,0.0069689928,0.20889679,-0.70007694,0.5010003,-0.7211203,0.78833055,0.046120413,0.45842922,0.13172494,-0.3390737,0.6063857,0.8766749,0.91489434,0.61862326,0.07438371,-0.1614064,-0.5616346,0.13236117,-0.2066163,0.90580463,-0.43688643,0.2940868,-0.82084835,0.76893216,-0.70413417,-0.4652497,-0.536382,0.8714747,-0.22340867,-0.42839068,-0.5989131,-0.17877603,-0.34869343,0.08832938,0.8063479,-0.8873366,-0.23541443,-0.31434584,0.8843479,-0.45812604,0.31760606,0.27282143,0.40284505,-0.9139723,-0.759577,0.27108154,0.44951975,0.18248735,0.7696351,-0.40311685,-0.5265582,-0.13889651,0.74015725,1.0184718,-0.25096336,0.2076219,-0.79626614,0.9000081,0.33908564,0.035972495,0.7043312,-0.2802233,-0.30551153,-0.65972316,0.81550354,-0.6772814,0.7465205,-0.58969295,0.005211184,0.320503,-0.63601625,-0.825655,0.801885,0.6607568,0.8820144,-0.094244994,0.5254537,0.2738024,-0.63146156,0.64559126,-0.21402948,0.6197063,0.48935407,-0.69627494,0.8295928,-0.7805763,-0.13012229,-0.6511279,0.9449269,-0.63388133,0.5057166,0.70707744,-0.44316813,0.68806523,-0.81637937,-0.76212484,0.35527563,-0.9739998,0.5099073,0.11402215,1.0014873,0.09443356,0.34587467,-0.7980626,0.5096317,0.6044189,0.1373514,-0.3732145,1.0337466,0.6706518,-0.25335035,0.036805145,0.340912,0.124516025,-0.95321065,-0.22219487,-0.70344216,0.43731076,0.6656437,-0.89662135,-0.8367436,0.12523824,-0.9120188,0.23550622,-0.53388464,0.68515784,0.58353114,0.0104938485,-0.4803297,0.3549499,0.8376161,0.24063793,0.68814516,0.33973503,-0.2981433,-0.6772779,-0.8025954,0.8268962,-1.003484,-0.7225778,-0.032804124,-0.41697,-0.42532486,0.0047027473,-0.20620191,0.9379287,-0.8490107,-0.17063323,-0.34380493,0.16639625,-0.63553333,0.6132635,0.62971354,-0.5059805,-1.042468,-0.1528352,0.41949034,0.3963816,0.48015213,-0.15191233,0.3597484,0.9112535,-0.7975164,-0.30691355,-0.2034234,-0.83380944,-1.0932065,0.31525776,-0.599174,-0.43889377,-0.781867,-0.027637774,0.75260437,0.50245017,0.4622544,0.086653,-0.29371247,-0.67427576,-0.81990415,-0.82398885,0.14692073,-0.65259963,0.58232874,0.22357798,0.18793614,-0.2335512,-0.5159642,0.05412881,-0.9119945,0.7634188,-0.8299899,0.6764313,-0.033810213,0.46781978,0.46458036,0.63267684,-0.82145196,0.7310794,0.029499361,0.7927166,-0.5524231,0.23081094,0.44823,0.1642163,-0.75953513,0.52632433,0.8996376,0.88528174,-0.0511289,-0.9227857,-0.23961994,0.85116464,0.33575746,-0.6755496,-0.06963308,0.30151823,0.15662095,0.38282216,0.5108656,0.69739157,-0.37917855,-0.5676905,0.06212429,-0.8920575,0.5113408,0.41848958,-0.37726054,-0.06907843,0.21593744,-0.4759397,0.8602448,-0.33618942,0.067943715,0.011939997,-0.6694424,0.67234856,-0.40672952,-0.4746786,-0.7839552,-0.5855795,-0.16719545,0.08203562,-0.8093295,-0.9907437,0.25901735,-0.33801094,-0.07401876,0.55981046,-0.121286854,-0.46124932,-0.5250256,0.080290884,-0.17585225,0.12344726,0.9723107,-0.5279465,0.09614833,0.9201559,0.9216808,-0.74307245,0.5799939,0.6052291,0.72941077,0.68517,-0.8450404,0.38508242,0.20130166,-0.97046745,-0.57845885,0.9225255,1.0139751,-0.75926745,-0.81135267,0.3990885,0.9078147,0.09856187,0.55854523,-0.94759387,0.53070736,-0.4636315,0.001531288,0.30226314,-0.5538495,-0.94435096,-0.35643157,0.86234295,-0.055108976,0.35057136,0.9285737,0.25177523,-0.08000461,-0.517097,-0.9994216,-0.6447265,0.72237635,-0.9372486,-0.8642858,0.20982248,-0.4443583,0.73505104,-0.6837786,-0.7121323,0.18362525,-0.272224,-0.11404783,0.42764273,-0.1721824,-0.42807612,0.1538201,-0.70598435,0.3296095,-0.012999483,0.5151322,0.30228058,-0.043344148,0.44829708,-0.22848283,0.022309754,0.21929558,0.87851536,-0.4277646,-1.0057176,0.7077882,-0.95247734,-0.48494515,0.55548745,1.0598736,-0.988095,-0.19506904,0.62997097,0.8135947,0.26019228,0.4940648,0.3601307,-0.45983428,0.4634864,-0.16714434,0.6808873,0.68612,-0.2063558,0.2888803,0.16708675,-0.10795626,0.9454585,0.21819834,0.35605884,0.8583107,0.39088875,0.01933173,-0.5480503,0.4932534,0.87278575,0.67021984,0.12321793,0.8432492,0.78317857,0.10506592,0.5953795,0.6564868,-0.32171372,0.22607595,-0.6432514,-0.72822195,0.87458074,0.6178556,-0.25806445,0.6106165,0.6913598,0.16413686,-0.10508468,0.15404375,0.38188148,-0.55134416,0.36301714,-1.0365338,0.663321,-0.47308576,-0.23566383,0.7400824,0.42976168,0.23000287,-0.5468745,-0.039422687,0.4546129,0.6840029,0.21275757,0.22505328,0.7086104,-1.026412,-0.16402747,0.20124674,-0.15160872,0.13883857,0.0149683375,-0.66034085,-0.83584857,-0.28421792,0.7902099,0.17188759,-1.0391448,-1.0817665,-0.75733846,0.79088044,0.72508776,0.18807168,0.26476413,0.48616356,-0.45923102,-0.8743137,-0.76138324,-0.7703033,-0.49827772,-0.04720741,-0.60834134,0.93976027,-0.23898683,-0.76772505,0.18733616,-0.26848897,-0.4786878,-0.60832953,-0.7375277,-0.7921613,0.8698163,-0.5079472,-0.72847104,0.5331983,-0.8431949,-0.9357835,0.39772385,0.54222965,-0.4882412,0.9789738,-0.5054339,0.33696565,0.3388239,-0.02579423,0.7237472,-0.73917884,-0.42744917,0.9922594,-0.33610165,-0.18602292,1.0153648,-0.61570233,-0.48928988,0.5009204,-0.26367548,0.1829932,-0.1560487,-0.13023862,0.38785112,-0.2521014,0.6949404,0.9957869,-0.47685757,0.09036416,-0.1541694,-0.7641618,-0.70232636,0.7812584,-0.45015618,0.5610571,0.50236386,0.38964355,-0.7165547,-0.4610472,0.124595806,0.0062901466,-0.5992958,0.6237589,-0.3552544,0.9426387,0.35747308,0.6230396,0.9185786,0.68770856,0.20339158,-0.3951133,0.35238302,-0.6341459,0.084265135,1.0519344,-0.29842225,0.00478092,-0.3016862,0.32615745,-0.52653307,-0.6511521,-0.84015375,-0.11898294,-0.42859176,-0.626803,1.0451971,0.6251019,0.7234115,-0.5315215,0.7463037,0.60040486,0.29606384,1.028945,0.3493201,-0.22984424,0.1344691,-0.6246261,0.54080486,-0.7521266,-0.18953253,0.16548702,-0.7306208,-0.9522525,-0.55648625,0.8255322,0.06770525,0.90489215,-0.5933754,-0.16591077,-0.52780485,-0.017356047,0.56367093,0.6158842,-0.84190995,0.48396063,-0.29084927,0.3481682,-0.8688219,-0.9701529,0.45459142,0.057415105,0.79220337,1.046413,-0.8306028,0.39204872,-0.5597323,-0.50496626,0.59040827,-0.5576264,-0.36405468,0.71149033,-0.16063654,0.26456022,0.14173278,-0.54086804,0.18855391,-0.018538933,-0.8597388,-0.46889675,-0.14084181,-0.5221159,0.9499385,0.9866031,-0.22719963,-0.021875702,-0.8111067,0.5810694,0.56531435,0.40467557,0.60149086,-0.64951026,-0.6333133,0.7005185,-0.8052149,0.869286,-1.0309943,0.5678493,0.65924025,-0.017706592,-0.3473348,-0.023675092,0.4823888,0.02478899,0.03478744,0.82161105,0.20994753,0.650684,0.5508792,-0.024563422,0.84742486,-0.76853895,-0.20435598,0.21466303,0.47185108,0.45675337,-0.62945104,0.9694607,0.553088,-0.5988558,-0.7453874,-0.9608467,-0.6970013,0.24177763,0.38321227,-0.51694006,0.99419975,0.9173726,0.15759897,-0.5204247,0.09455593,0.2755309,0.6578887,0.76879185,-0.007544225,-0.6898678,-0.92884785,-0.7686216,0.17077674,0.46346295,0.36440006,-0.14140265,0.10877094,-0.6431693,0.35733655,0.7992878,-0.7314566,-0.92620707,-0.8930827,0.22115715,-0.1381063,-0.67152077,0.20210887,-0.4485301,0.72904193,-0.64713466,0.51012284,-0.25000498,-0.52238667,-0.70429176,0.6475908,0.6013649,0.5186654,-0.60729575,0.2045746,0.812045,-0.9928088,-0.564174,-0.42017803,0.81204736,-0.99078566,0.90160775,-0.20862734,0.517348,0.5208789,-0.29540494,0.25180137,-0.9731731,-0.11677354,0.7710195,0.947929,-0.99833286,0.9110139,0.7595184,-0.71354717,0.56402403,-0.38643458,0.67627823,0.28663749,-0.56089175,0.5733553,0.7765049,0.5617078,1.0502539,-0.81776655,-0.5109358,0.42932245,0.44801417,0.3990447,-0.8805862,1.0291432,0.58766955,0.32891056,0.88814074,0.30071637,-0.24164778,-0.19251285,-0.8129438,0.6548737,-0.637526,-0.55038446,-0.18322799,-0.39162213,-0.32391617,-0.75998724,0.029848889,-0.5597094,0.5159873,0.6123902,-0.53484887,0.27242333,-0.4516812,-0.9076818,-0.022512564,-0.25338098,-0.41998014,-0.58231616,-0.501728,0.5702825,0.028892403,-0.13905942,-0.69873166,0.43639243,0.09791463,-0.22141388,0.9323991,-0.06598961,0.9776052,-0.4354594,0.09417164,0.24233192,-0.3659057,0.37381527,0.054335576,-0.03976897,0.023100657,0.52850145,-0.17421986,0.17994213,0.19895333,-0.03552355,-0.24743858,-0.119140476,-0.2317739,0.2977708,-0.43560567,-0.32864052,0.2607476,0.01829284,-0.18914911,0.5746419,-0.4877855,-0.6993235,0.9345381,-0.69642425,-0.11442759,0.3115143,0.02755682,0.039781086,-0.28253528,0.09132011,0.49635503,0.29709607,-0.30849442,-0.92634594,-0.2635765,-0.5746618,0.59006846,0.3851157,-0.67388886,0.8675276,0.417151,-0.86872244,0.92007595,0.8329235,-0.6137586,-0.5021078,-0.13277997,-0.27685422,0.063630715,-0.25736326,0.5340062,-0.12099764,0.089550175,-0.24014764,-0.45883605,0.40542418,0.9739492,-0.3604306,0.15694621,0.56122315,0.47065064,-0.57159513,-0.81328046,-0.25488833,-0.42990935,-0.06355651,0.30478543,0.7163577,0.52320313,-0.18778239,1.0753744,-0.8546494,0.5511854,0.438631,-0.8422046,-0.74119157,0.20011373,0.6264576,-0.48704818,0.03858011,0.18834104,-0.15483241,0.76748765,0.7452155,0.55367255,-0.3784171,0.9978902,0.20374429,-0.12533161,1.1207362,-0.3652628,-0.6237825,-0.60009205,-0.49262065,0.15369175,0.8443754,-0.933495,0.7331434,0.23308647,0.4236174,0.16571364,-0.680686,0.6846927,-0.84896094,0.8358711,-0.90654534,-0.06967098,-0.45389274,-0.51472473,0.5153181,-0.30719057,0.96287227,-0.14596713,0.72555554,-0.34430385,-0.68602717,-0.49348152,-0.8494299,0.75104487,-0.41937187,-0.5397859,0.9573859,-0.1273116,-0.73200667,0.9504796,-0.67510587,0.91701776,-0.3881937,-0.5656649,0.48214677,0.2687294,-0.9062495,0.17582235,0.7794193,-0.71655536,0.6994746,-0.76836705,0.4755995,-0.09342486,0.39787096,0.8366434,-0.89585525,-1.0010436,0.31693885,0.110767,-0.21207114,-0.39158976,0.87635446,0.023598779,-0.86731976,0.9139219,-0.6475726,-0.8826637,0.2930593,0.7113095,-0.73343694,-0.06272296,-0.7646381,-0.55817205,0.027714603,-0.2127603,0.74562204,-0.8747022,0.5052956,-0.120374374,0.24564375,-0.01788107,0.77897197,-0.036171604,0.080633774,-0.4192688,0.035233285,0.5870676,-0.40368122,-0.61002433,-0.31230494,-0.23236495,-0.059503604,0.38339135,0.43957147,0.679231,0.24248654,-0.6119688,-0.25634953,0.8835035,0.31340384,-0.10219884,-0.33198452,-0.56810176,0.6971005,0.7128848,-0.86244017,-0.53683627,0.95609975,-0.9691977,-0.7764675,-0.0791497,0.88562703,-0.35121697,-0.008983017,-0.5038701,0.750248,0.11736015,0.60025066,0.46924946,-0.33463696,-0.34342265,0.36404124,1.0825013,0.61400205,-0.700197,-0.07339329,0.9800513,-0.36062813,-0.25564018,0.6865525,-0.6910484,1.0400314,-0.42999855,-0.13420445,0.63903236,0.41962418,0.197952,-0.828815,-0.5416638,-0.5477752,0.66382056,0.25107288,0.8305774,0.3704576,0.18699206,-0.286291,0.8657513,-0.47580728,0.68165165,0.27950582,0.8893222,-0.6612777,-0.0958851,0.6580618,0.6234743,0.21798508,-0.65690595,0.7709075,-0.7259792,-0.61279106,-0.28799188,0.08736445,-0.7686087,0.09235779,-0.36001676,-0.45764014,-0.055712234,-0.2581891,-0.49261582,0.18297458,-0.8648835,0.01070238,-0.54844624,-0.9581387,-0.65635043,-0.6315858,-0.922516,-0.7613857,-0.54440236,0.14963171,-0.24298355,0.34233087,0.20195243,-0.9652736,0.19194503,-0.6374429,-0.55798876,-0.4038934,-0.93329984,-0.4183783,-0.29340178,-0.7139709,0.61450595,-0.5707611,0.99558705,0.7011024,0.45910898,-0.42094162,-0.91857165,0.18752238,0.7942239,0.059738737,-0.32060724,0.7545697,0.26560766,0.86109823,0.98738533,0.4911957,0.6845167,-0.6735585,-0.80389196,0.3385946,0.93208957,