{"LayerWraps":[{"LayerType":5,"Dense":null,"Dropout":null,"Flatten":null,"Lstm":null,"MaxPool":null,"Conv":{"Shape":{"Height":28,"Width":28,"Depth":1},"Kernel":{"Count":16,"Dim":3},"Activation":1,"Stride":1,"Filters":[{"ElementsOneD":null,"ElementsTwoD":null,"ElementsThreeD":[[[0.035526656],[0.09713357],[0.02947477]],[[-0.055307962],[0.01443921],[0.025300507]],[[-0.04693834],[0.026527835],[-0.00055372226]]],"_shape":{"Height":3,"Width":3,"Depth":1},"Shape":{"Height":3,"Width":3,"Depth":1}},{"ElementsOneD":null,"ElementsTwoD":null,"ElementsThreeD":[[[-0.0071851686],[-0.043024216],[0.11961591]],[[-0.03261674],[0.06244209],[-0.007786095]],[[0.00539825],[0.0968642],[-0.10674676]]],"_shape":{"Height":3,"Width":3,"Depth":1},"Shape":{"Height":3,"Width":3,"Depth":1}},{"ElementsOneD":null,"ElementsTwoD":null,"ElementsThreeD":[[[0.065235965],[0.11545548],[0.21233888]],[[0.104981236],[0.12993833],[0.13432086]],[[-0.24314894],[-0.2817743],[-0.18976003]]],"_shape":{"Height":3,"Width":3,"Depth":1},"Shape":{"Height":3,"Width":3,"Depth":1}},{"ElementsOneD":null,"ElementsTwoD":null,"ElementsThreeD":[[[0.03049336],[-0.040490907],[-0.12773089]],[[0.10896436],[-0.022856303],[-0.1586208]],[[0.11736253],[0.04340291],[-0.11406793]]],"_shape":{"Height":3,"Width":3,"Depth":1},"Shape":{"Height":3,"Width":3,"Depth":1}},{"ElementsOneD":null,"ElementsTwoD":null,"ElementsThreeD":[[[0.05694657],[0.029381936],[-0.15614554]],[[0.015996631],[0.11419937],[-0.121746816]],[[0.06247155],[0.046795525],[-0.21662946]]],"_shape":{"Height":3,"Width":3,"Depth":1},"Shape":{"Height":3,"Width":3,"Depth":1}},{"ElementsOneD":null,"ElementsTwoD":null,"ElementsThreeD":[[[0.1913867],[0.21647476],[0.21822548]],[[0.061539523],[-0.052830186],[-0.062140938]],[[-0.055034243],[-0.22552253],[-0.114888236]]],"_shape":{"Height":3,"Width":3,"Depth":1},"Shape":{"Height":3,"Width":3,"Depth":1}},{"ElementsOneD":null,"ElementsTwoD":null,"ElementsThreeD":[[[0.037064396],[0.07838261],[0.053537704]],[[0.022545159],[0.068433106],[0.021429552]],[[-0.03832554],[-0.01448231],[-0.020418398]]],"_shape":{"Height":3,"Width":3,"Depth":1},"Shape":{"Height":3,"Width":3,"Depth":1}},{"ElementsOneD":null,"ElementsTwoD":null,"ElementsThreeD":[[[-0.006145822],[0.14195545],[0.21617639]],[[-0.17593135],[-0.057898417],[0.12171103]],[[-0.20963418],[-0.1712303],[-0.03706613]]],"_shape":{"Height":3,"Width":3,"Depth":1},"Shape":{"Height":3,"Width":3,"Depth":1}},{"ElementsOneD":null,"ElementsTwoD":null,"ElementsThreeD":[[[0.10745076],[0.14680482],[0.018082574]],[[0.15583982],[0.034078583],[0.01263481]],[[0.07608584],[0.0021250886],[0.009137165]]],"_shape":{"Height":3,"Width":3,"Depth":1},"Shape":{"Height":3,"Width":3,"Depth":1}},{"ElementsOneD":null,"ElementsTwoD":null,"ElementsThreeD":[[[0.03447654],[0.072459705],[-0.12461766]],[[0.008825421],[0.039565936],[0.007430912]],[[-0.06338741],[0.05505674],[0.006081906]]],"_shape":{"Height":3,"Width":3,"Depth":1},"Shape":{"Height":3,"Width":3,"Depth":1}},{"ElementsOneD":null,"ElementsTwoD":null,"ElementsThreeD":[[[-0.039975792],[0.0067293253],[0.010533411]],[[-0.07352765],[-0.008756215],[0.053967614]],[[-0.02211444],[-0.051434644],[0.006966181]]],"_shape":{"Height":3,"Width":3,"Depth":1},"Shape":{"Height":3,"Width":3,"Depth":1}},{"ElementsOneD":null,"ElementsTwoD":null,"ElementsThreeD":[[[0.045383506],[0.005197294],[0.043985017]],[[0.023405896],[0.015765686],[0.038885016]],[[-0.0345847],[0.043437663],[-0.02579219]]],"_shape":{"Height":3,"Width":3,"Depth":1},"Shape":{"Height":3,"Width":3,"Depth":1}},{"ElementsOneD":null,"ElementsTwoD":null,"ElementsThreeD":[[[0.013409544],[0.024267137],[0.036036268]],[[0.10835225],[0.05792151],[0.007098985]],[[-0.018535463],[-0.09457958],[-0.002268545]]],"_shape":{"Height":3,"Width":3,"Depth":1},"Shape":{"Height":3,"Width":3,"Depth":1}},{"ElementsOneD":null,"ElementsTwoD":null,"ElementsThreeD":[[[0.12859692],[0.122813486],[0.053112116]],[[0.07686953],[0.079806305],[0.06183296]],[[0.023170123],[0.00034521119],[0.07291871]]],"_shape":{"Height":3,"Width":3,"Depth":1},"Shape":{"Height":3,"Width":3,"Depth":1}},{"ElementsOneD":null,"ElementsTwoD":null,"ElementsThreeD":[[[0.11434843],[0.11355208],[0.09692646]],[[-0.0054762876],[0.035715416],[0.02315758]],[[-0.0003311119],[-0.002363577],[0.08946999]]],"_shape":{"Height":3,"Width":3,"Depth":1},"Shape":{"Height":3,"Width":3,"Depth":1}},{"ElementsOneD":null,"ElementsTwoD":null,"ElementsThreeD":[[[-0.004657995],[0.06284578],[0.053245634]],[[0.00261033],[0.030187808],[0.010463139]],[[0.070460096],[0.022503287],[0.058140792]]],"_shape":{"Height":3,"Width":3,"Depth":1},"Shape":{"Height":3,"Width":3,"Depth":1}}],"FilterGradients":[{"ElementsOneD":null,"ElementsTwoD":null,"ElementsThreeD":[[[0.0],[0.0],[0.0]],[[0.0],[0.0],[0.0]],[[0.0],[0.0],[0.0]]],"_shape":{"Height":3,"Width":3,"Depth":1},"Shape":{"Height":3,"Width":3,"Depth":1}},{"ElementsOneD":null,"ElementsTwoD":null,"ElementsThreeD":[[[0.0],[0.0],[0.0]],[[0.0],[0.0],[0.0]],[[0.0],[0.0],[0.0]]],"_shape":{"Height":3,"Width":3,"Depth":1},"Shape":{"Height":3,"Width":3,"Depth":1}},{"ElementsOneD":null,"ElementsTwoD":null,"ElementsThreeD":[[[0.0],[0.0],[0.0]],[[0.0],[0.0],[0.0]],[[0.0],[0.0],[0.0]]],"_shape":{"Height":3,"Width":3,"Depth":1},"Shape":{"Height":3,"Width":3,"Depth":1}},{"ElementsOneD":null,"ElementsTwoD":null,"ElementsThreeD":[[[0.0],[0.0],[0.0]],[[0.0],[0.0],[0.0]],[[0.0],[0.0],[0.0]]],"_shape":{"Height":3,"Width":3,"Depth":1},"Shape":{"Height":3,"Width":3,"Depth":1}},{"ElementsOneD":null,"ElementsTwoD":null,"ElementsThreeD":[[[0.0],[0.0],[0.0]],[[0.0],[0.0],[0.0]],[[0.0],[0.0],[0.0]]],"_shape":{"Height":3,"Width":3,"Depth":1},"Shape":{"Height":3,"Width":3,"Depth":1}},{"ElementsOneD":null,"ElementsTwoD":null,"ElementsThreeD":[[[0.0],[0.0],[0.0]],[[0.0],[0.0],[0.0]],[[0.0],[0.0],[0.0]]],"_shape":{"Height":3,"Width":3,"Depth":1},"Shape":{"Height":3,"Width":3,"Depth":1}},{"ElementsOneD":null,"ElementsTwoD":null,"ElementsThreeD":[[[0.0],[0.0],[0.0]],[[0.0],[0.0],[0.0]],[[0.0],[0.0],[0.0]]],"_shape":{"Height":3,"Width":3,"Depth":1},"Shape":{"Height":3,"Width":3,"Depth":1}},{"ElementsOneD":null,"ElementsTwoD":null,"ElementsThreeD":[[[0.0],[0.0],[0.0]],[[0.0],[0.0],[0.0]],[[0.0],[0.0],[0.0]]],"_shape":{"Height":3,"Width":3,"Depth":1},"Shape":{"Height":3,"Width":3,"Depth":1}},{"ElementsOneD":null,"ElementsTwoD":null,"ElementsThreeD":[[[0.0],[0.0],[0.0]],[[0.0],[0.0],[0.0]],[[0.0],[0.0],[0.0]]],"_shape":{"Height":3,"Width":3,"Depth":1},"Shape":{"Height":3,"Width":3,"Depth":1}},{"ElementsOneD":null,"ElementsTwoD":null,"ElementsThreeD":[[[0.0],[0.0],[0.0]],[[0.0],[0.0],[0.0]],[[0.0],[0.0],[0.0]]],"_shape":{"Height":3,"Width":3,"Depth":1},"Shape":{"Height":3,"Width":3,"Depth":1}},{"ElementsOneD":null,"ElementsTwoD":null,"ElementsThreeD":[[[0.0],[0.0],[0.0]],[[0.0],[0.0],[0.0]],[[0.0],[0.0],[0.0]]],"_shape":{"Height":3,"Width":3,"Depth":1},"Shape":{"Height":3,"Width":3,"Depth":1}},{"ElementsOneD":null,"ElementsTwoD":null,"ElementsThreeD":[[[0.0],[0.0],[0.0]],[[0.0],[0.0],[0.0]],[[0.0],[0.0],[0.0]]],"_shape":{"Height":3,"Width":3,"Depth":1},"Shape":{"Height":3,"Width":3,"Depth":1}},{"ElementsOneD":null,"ElementsTwoD":null,"ElementsThreeD":[[[0.0],[0.0],[0.0]],[[0.0],[0.0],[0.0]],[[0.0],[0.0],[0.0]]],"_shape":{"Height":3,"Width":3,"Depth":1},"Shape":{"Height":3,"Width":3,"Depth":1}},{"ElementsOneD":null,"ElementsTwoD":null,"ElementsThreeD":[[[0.0],[0.0],[0.0]],[[0.0],[0.0],[0.0]],[[0.0],[0.0],[0.0]]],"_shape":{"Height":3,"Width":3,"Depth":1},"Shape":{"Height":3,"Width":3,"Depth":1}},{"ElementsOneD":null,"ElementsTwoD":null,"ElementsThreeD":[[[0.0],[0.0],[0.0]],[[0.0],[0.0],[0.0]],[[0.0],[0.0],[0.0]]],"_shape":{"Height":3,"Width":3,"Depth":1},"Shape":{"Height":3,"Width":3,"Depth":1}},{"ElementsOneD":null,"ElementsTwoD":null,"ElementsThreeD":[[[0.0],[0.0],[0.0]],[[0.0],[0.0],[0.0]],[[0.0],[0.0],[0.0]]],"_shape":{"Height":3,"Width":3,"Depth":1},"Shape":{"Height":3,"Width":3,"Depth":1}}],"Bias":{"ElementsOneD":[-0.00074208324,0.00074208324,0.0007420832,-0.00074208324,-0.0007420833,0.0007420833,0.00074208324,-0.00074208324,0.00074208324,0.0007420833,-0.00074208324,0.0007420832,-0.0007420832,0.0007420832,0.0007420832,0.0007420832],"ElementsTwoD":null,"ElementsThreeD":null,"_shape":{"Height":16,"Width":0,"Depth":0},"Shape":{"Height":16,"Width":0,"Depth":0}},"BiasGradients":{"ElementsOneD":[0.0,0.0,0.0,0.0,0.0,0.0,0.0,0.0,0.0,0.0,0.0,0.0,0.0,0.0,0.0,0.0],"ElementsTwoD":null,"ElementsThreeD":null,"_shape":{"Height":16,"Width":0,"Depth":0},"Shape":{"Height":16,"Width":0,"Depth":0}}}},{"LayerType":4,"Dense":null,"Dropout":null,"Flatten":null,"Lstm":null,"MaxPool":{"Shape":{"Height":28,"Width":28,"Depth":16},"Kernel":{"Count":16,"Dim":3},"Stride":2},"Conv":null},{"LayerType":2,"Dense":null,"Dropout":null,"Flatten":{"Shape":{"Height":13,"Width":13,"Depth":16}},"Lstm":null,"MaxPool":null,"Conv":null},{"LayerType":0,"Dense":{"Activation":0,"Shape":{"Height":2704,"Width":64,"Depth":0},"Weights":{"ElementsOneD":null,"ElementsTwoD":[[-0.5429207,0.23543209,-0.8410331,0.34314105,-0.9383262,-0.23297273,0.3090476,-0.34973255,0.1497647,-0.24417485,-0.84663886,0.6336584,-0.72149515,-0.46853167,0.5930074,0.4434579,0.6050499,0.5180418,-0.71274096,-0.3174624,0.6133511,0.9188679,0.2331775,-0.18189383,-0.9300093,0.45535946,0.67768264,0.1880842,-0.12579776,-0.041441616,0.20270224,-0.9387233,1.097148,-0.791012,0.49909627,0.7018215,-0.17007206,-0.9675381,0.45115337,1.0030985,0.53386724,-0.41650948,-0.6380295,-0.53329164,-0.4229166,0.8279876,0.7870491,0.73392636,-0.24231556,0.5548312,-0.1987165,0.4047326,0.6733118,-0.49010324,-0.6067021,0.7611036,0.69288135,-0.21743746,0.8151166,0.6285062,-0.6836531,0.8273974,0.93845826,1.1457559,0.42242172,0.562384,0.5924133,-0.62684214,-0.051749915,-0.24870777,-0.33463868,0.91273576,0.53299206,0.064536884,0.9542333,1.0938386,-0.8531643,-0.8333088,-0.5423321,-0.49507236,-0.3846568,-0.13783592,0.31843555,-0.7254998,-0.8225426,0.9922104,0.5189343,0.5511924,0.1013951,-0.6625276,-0.6554255,0.25479522,0.42760837,-0.15701559,-0.036645547,0.37793484,0.98839414,-0.45471865,1.1138419,-0.7417111,-0.7071199,0.71319383,0.5148508,1.0536419,-0.61193043,-0.28282103,0.43672284,-0.5998845,-0.06811745,0.5982057,-0.49756077,0.950434,0.048148673,0.9693631,-0.26806623,0.35887483,-0.34066832,1.0856568,-0.57069594,0.7759484,0.42856166,-0.09869305,0.28651616,-0.025232784,0.7640066,0.16146411,0.68601894,0.17778303,0.4993899,0.24005403,-0.37947965,0.5902758,-1.070439,1.1171467,-0.347234,0.5139032,-0.038856387,-0.535092,-0.48856553,-0.9433143,-0.27003467,-0.25636926,-0.68086016,0.031748034,0.5732,0.89639604,0.30198824,0.5222721,0.667338,0.33448684,-0.1865198,0.86427593,-0.058842298,-0.11671846,0.40209785,-0.57764447,-0.7800263,0.16803186,0.8524656,-0.28794768,0.13498601,-0.3640423,0.24919608,0.26060238,-0.20043468,-0.6802697,0.6284586,-0.38316086,0.20486915,0.5144697,0.039009023,-0.85416466,0.35494304,0.6169566,-0.8562209,-0.7916385,0.29369086,0.59542406,-0.19394185,0.46472284,-0.1672378,-0.4908042,-0.38766974,0.28853372,0.23241162,-0.3606303,0.79135245,-0.56616116,-0.5175424,0.04276185,0.7815978,0.02705205,-0.595318,-0.5805483,-0.03485953,-0.87908584,0.035470083,0.9404167,-0.6730737,0.16666661,-0.87819034,0.3615836,-0.9249269,0.49735805,0.16000214,-0.122897,0.3003751,0.6134546,-0.848074,-0.7904321,-0.22216542,0.4368568,-0.24789117,-1.0079398,0.98099256,0.8352767,-0.8966012,-0.059936766,0.63826233,0.20386326,-0.87619466,0.505743,-0.23608108,-0.40548107,-0.92198974,-0.04738097,0.3135243,-0.7749066,0.08794377,0.2776169,-0.3178716,0.70705,0.016123148,-0.4577188,-0.20307454,1.0415567,0.039668098,-0.94537365,0.58402985,0.08560948,0.38658077,-0.017896596,0.05372326,-0.92811894,-0.7741926,0.24564049,-0.32736263,0.46150124,-0.13746315,-0.024558317,-0.8310846,-0.6435102,-0.91420233,0.25419596,-0.0044537033,0.17409444,0.4112545,-0.39725876,-0.42470187,-0.2886782,0.6347796,0.39335147,-0.87271047,-0.53499657,0.46919525,-0.5596365,0.30554864,-0.8758388,-0.44801265,0.1964412,0.7269946,-0.49818623,0.5050271,0.89809525,-0.39567962,-0.22205888,0.53583276,0.65639484,0.9527673,0.63349336,-0.75320774,0.879687,0.2548239,-0.8159795,-0.055938486,0.18463816,0.82269317,0.9333926,-0.74670756,-0.65530664,0.06320509,0.69452703,0.1965472,0.787468,-0.10284076,-0.66023654,-0.932572,-0.11108329,-0.7926372,0.6679835,0.54923135,-0.24118993,0.6220545,1.0000347,0.8090493,-0.8283188,0.24561106,0.10217332,0.12525682,0.047614153,-0.57092535,-1.1014519,-0.5308512,-0.011496508,-1.1180822,-0.22517821,-0.3132948,0.39205474,-0.12953907,0.8322126,0.89437985,0.5135585,-0.96209425,0.18633167,0.23435014,0.80749923,0.048729204,-0.56275725,1.0224788,0.21266672,0.5888398,-0.2547368,-0.8226408,0.116711274,0.27449912,0.32455647,0.26608714,-0.8825575,0.34667534,0.16607405,-0.6632108,-0.4265167,-0.8256684,0.08533857,-0.77867186,-1.0455394,-0.16708924,0.13957582,-0.5449775,-0.26485547,-0.5178111,-0.5854598,0.17320536,0.30321977,-0.6223561,0.80273885,0.7554226,0.5791245,-0.31853464,-1.0356909,-1.0637983,-0.26343116,-0.90119076,-0.272035,-0.534002,-0.21904437,-1.1511275,0.41608703,-1.0563505,0.109757334,0.7947563,-0.120678514,0.6816449,0.6780951,0.19733971,-0.91942126,0.50132525,0.50818163,0.6021625,-1.1531552,-0.728741,-0.31689334,0.45817363,-0.0007455133,0.6048629,-1.1315875,-0.2705936,-0.4177875,-0.67034674,0.74487793,-1.1393675,0.9136293,-1.1553798,-0.18247518,-0.7342527,-0.8022772,-1.1793174,-0.7192445,-0.9831767,-0.8545233,-0.546134,-0.8391573,-0.08179058,0.50600713,0.4425852,0.28320155,-0.24674633,-0.034625098,-0.45567086,-0.52490914,-0.8877936,0.22482517,-0.030156562,-0.67414325,-1.0769458,0.21629131,-0.59210587,0.87506396,-0.700352,0.560437,0.15458642,0.54968345,0.5129166,0.8043935,-0.5585047,-1.0110918,-0.15301359,0.09172902,-0.7633419,-0.72975624,-0.009290862,-0.10175817,0.36060056,-0.54674834,0.84456474,-0.57012606,0.4608675,0.7346535,0.5787409,-0.3237241,0.13412313,-1.0117593,0.669374,-0.24272008,0.3044779,-0.90169936,-0.23323014,0.6834305,-0.9466265,0.33505204,0.2741234,-1.1865054,0.3101094,0.13354145,-0.19021772,-0.9426048,0.8942872,-0.9459862,0.7168348,0.71324545,-0.3296379,-0.7428788,0.23084643,-1.0015149,0.47963724,0.31135598,-0.48242456,-0.09009588,-1.0198164,-0.11519709,-0.057400066,0.34770295,0.12625651,-0.29174027,-0.99061984,-0.66025513,-0.72031975,0.7676812,-0.159417,-0.41288906,0.60683316,-0.4063226,-0.061577767,-0.65037143,-0.33751464,0.5713421,0.86791056,-0.24574485,0.40120426,0.03187533,-1.079911,-0.8706652,0.027109358,0.68012875,-0.2774963,-0.97524726,-0.9572966,0.8780622,0.18953745,0.44614574,0.03618854,0.7377313,0.9471489,-0.75638944,0.23458675,-0.30975887,-0.4614456,-0.80053,0.51671547,-0.69551367,0.17797177,-0.69613904,0.8890196,0.28620043,-0.72166276,0.63084143,-0.38736033,0.4086878,1.0239328,-0.037980746,0.30883053,0.14348158,0.9763597,0.16641909,-0.208634,-0.61993814,-0.45614374,-0.44144517,-0.44732332,-0.0544282,-0.84653956,-0.80964816,-0.11041266,-0.15104635,0.8207264,-0.25956237,0.38226077,-0.6842378,0.36933059,-0.51769376,0.30288932,-0.58743995,0.76564753,-0.13431862,-0.25773552,0.22483653,-0.40016106,-0.08656807,0.17254668,0.91598725,-0.68547755,-1.0379999,0.71069294,-0.77210826,0.7055928,-0.38207567,-0.8591899,-0.43395594,0.20491344,0.5677573,-0.864151,-0.2747191,-0.35734436,-0.39158604,0.8458462,0.7125723,0.18933764,0.28785336,-0.9876339,-0.084697835,-1.1078241,-0.3943058,0.8779418,-0.73073715,0.03663546,-0.9490719,-0.40587193,-0.21979353,0.08145213,0.09092199,-0.91112226,0.023065755,-0.37108636,0.009834868,0.5499999,0.22930232,0.54602855,0.6782465,-0.75324506,0.09601353,-0.38584027,0.6223958,-1.0481813,-0.4941417,-0.8652671,0.24895833,-0.89603305,-0.041997336,0.65588486,0.6922569,-0.09966678,-0.89204186,-0.16883409,0.26761425,-1.2647555,-0.29757705,0.4554214,-0.07638318,0.5033868,0.20170157,-0.905408,-0.34922782,-0.8362904,-0.26846486,0.6531585,0.1324814,-0.51616454,-0.20189683,-0.74708945,-0.4346925,0.17972268,0.2446707,-0.17999679,0.19391686,0.6981114,-0.04516933,-0.9140035,0.39188224,0.9993327,0.89429075,0.84162176,0.25735354,-0.33472928,-0.4557159,-1.0068616,-0.10143937,-0.16822131,0.6511705,-0.18464026,-0.7371681,0.7239813,-0.6376008,-0.0067071253,0.66662663,0.4018687,-0.77920073,0.9080273,0.24602672,0.73944724,-0.5978733,-0.56951964,-0.12811893,-0.7739867,0.24888548,-0.706034,0.17574348,-0.017061317,-0.7891964,0.1379917,-1.0465577,-0.69511783,-0.18720396,-0.113575704,0.36317676,-0.07446932,-0.31850144,-1.0367974,0.3479293,0.29787254,0.45813435,0.74928695,-0.6496397,-0.9965589,-0.525346,0.53679144,-1.1081434,0.8440144,0.6059018,-1.1136214,-1.263834,-0.38929304,0.659829,0.30036774,-0.5026404,-0.9909978,0.6112985,0.4464709,0.43207917,-0.9378943,-0.20955339,0.5757562,-1.0783265,-0.8583528,0.34117028,0.7393906,0.16762003,0.20342673,-0.47875822,0.32594943,-0.3969379,0.7120314,-0.84582025,0.8272751,0.1894888,1.0537246,1.0927784,-0.29750225,0.53974396,-0.90423965,-0.37812707,0.5157244,-0.08999676,-0.008283942,-0.53940934,-0.15022418,0.4329987,0.821887,-0.3131927,1.0267813,0.58001626,0.7765133,-0.077839546,0.93159527,-0.5990129,-0.324381,0.6546377,0.06639214,-0.79964685,0.97153616,0.28279692,0.6212296,0.7445789,1.0781378,0.94076777,-0.8725103,0.54039556,-0.14878036,0.28002015,-0.25582266,-0.31244293,0.48985022,0.55349296,0.17363468,0.65339637,-0.45032707,0.6744524,-0.07752288,-0.23951133,-0.78002375,-0.16894716,-0.55673444,0.58883554,0.04607451,0.0016540597,0.43605664,0.764432,-0.9052211,-0.9640066,-0.82183766,-0.09204515,0.21044877,0.38475177,-0.65663886,-0.06322506,0.24053508,-0.75383836,0.85459137,0.8573796,0.6997481,0.8469674,0.7075628,-0.29257077,-0.036735203,0.67108804,-0.4396244,0.341086,-0.09068561,-0.7424286,0.016434683,-1.0064822,-0.20880145,-0.14303015,-0.67712593,0.595516,-1.1356132,0.49752593,-0.8468469,0.850625,0.2583551,-0.68927234,-0.19108702,0.40515,0.82169265,0.1290776,0.17277922,0.5238115,-0.101481445,0.719116,0.4474058,-0.5107106,0.035022624,0.6704411,-0.21713789,-0.13884085,-0.8262794,-1.1863664,-0.09587,-0.36177456,-0.16829166,0.0063196965,0.13360767,0.20549126,0.04086303,-0.5110135,-0.61574316,-0.84541595,0.15846132,0.40620872,-1.0541611,0.21841446,-0.15773593,0.4078338,0.3373247,-0.22224438,-0.8373386,-0.8132889,-0.4831616,-0.9123569,0.0961929,-0.95668215,-0.8067543,0.45348707,-1.0196071,0.16043377,0.5047915,0.91010493,-0.91125745,0.29949108,-0.09076118,-0.7068412,0.6344682,0.58308077,0.59988886,-0.57123756,0.86310524,0.11725467,-0.28325793,0.4052563,-0.60105246,0.24172033,-0.97043216,0.8063708,-0.26225033,-0.16228402,0.14642692,-0.54331124,0.14505573,0.8812966,0.6330297,0.7513102,0.76345587,-0.67630124,0.72766787,0.8452702,0.5361635,0.5976604,-1.1175197,-0.26106295,-0.75900424,0.9165412,-0.16260447,-0.3066697,0.28153914,-0.95564365,0.5592098,0.42653474,-0.58529574,0.8352725,0.8779703,-0.529674,0.6218809,-0.8733221,-0.32720676,0.67312515,0.14367501,0.86160535,-0.1352774,0.216554,0.15909888,-0.71946657,0.36875036,0.35610223,0.2892907,0.19799423,0.6196739,-0.23835579,-0.5015676,0.697225,-0.7620743,0.4821902,-0.5878284,0.16460061,0.47990435,0.44398516,0.5533154,-0.8927508,0.22777449,0.36684954,-0.3571762,-0.072154574,-0.67632264,-0.6297637,0.95817286,0.6096547,0.92330027,-0.67128587,-0.14643343,0.17908537,-0.8057957,-0.55558956,0.41144568,-0.35385957,-0.866117,0.65689236,0.20521511,0.60280776,-0.23658134,0.13577363,-0.9025957,-0.14990681,0.071507536,0.3258618,-0.8575628,0.5567066,0.2608792,-0.35019317,0.68332434,-0.58345574,-0.36231315,-0.41471636,-0.6851516,0.64137673,0.98099536,0.4245655,-0.4645253,-0.19036143,-0.7490152,0.67131996,0.14415321,0.19611183,0.9180127,-0.8996793,-0.7960295,0.1802784,-0.49134594,0.61981034,-0.49045014,-0.5706571,-0.956705,0.6303744,-0.64185315,-0.25187832,-0.115651354,-0.38391435,0.8301329,0.38298675,0.8909061,-0.72421825,0.8364824,0.7523771,-0.07288387,-0.80090064,-0.20178558,0.796529,0.6626516,-0.68050677,-0.085000694,-0.58813584,-0.9819964,-0.7308942,0.7712137,-0.68508196,-0.48012006,0.78588855,-0.0028380144,-0.3680349,-0.5175924,-0.7903888,0.58457947,-0.73822,0.0024604644,-0.45245573,0.24850863,-0.9908701,0.4324619,1.0343335,-0.114745244,0.024154667,0.7156245,0.44813937,-0.27544147,-0.13143945,0.85604256,0.3816221,-0.69362515,-0.032685272,-0.38272363,-0.3995305,-0.5964433,-0.1755799,-0.4637648,-0.8190465,0.038262654,-1.1212149,-0.5589289,-0.9934939,0.55934274,0.8139755,-1.0696875,0.042875588,-0.67047954,-0.112950295,-0.29611593,-1.0119734,0.07282355,0.59546256,0.060684897,0.54350954,0.35320982,0.59079164,-1.0526966,-0.80389297,0.75503755,-1.2395728,-0.4689438,0.038170863,0.41475686,-0.815282,-0.6068125,0.07464122,0.55409336,-1.0636686,-0.8338964,-0.079095796,-0.28836682,0.29361662,0.27359393,-0.7264018,-1.0478618,-0.53955615,0.5445577,-0.8656343,-0.8997868,-0.8208592,-0.855616,0.03204951,0.11370253,0.19566889,0.3461174,-0.9256485,-0.99869484,-0.85389113,0.2638834,-0.75756294,-0.32949957,-0.7219621,-0.39120167,-0.33097777,0.1507589,-0.5226538,0.426275,0.72876006,-0.42331263,0.77637196,-0.89475,-0.19846614,0.68740106,-0.11711414,0.29716218,-0.028375095,-0.21706496,0.6499487,-0.46277073,-0.9457147,0.47238222,0.5790289,-0.43285775,-0.7681267,-0.9546514,-0.5208245,-0.7772105,-0.31990513,0.060515136,-0.5850338,-0.23220792,-0.08825188,-0.8807098,-0.31202322,0.27300727,-0.6088162,-0.6395872,-0.31324586,0.5485477,0.13051316,-0.34252444,-0.78695303,-0.48444468,0.41024902,0.69448817,0.17702463,-0.8820727,-0.58944404,0.8880889,0.5673324,0.1338813,-0.06067313,-0.21259427,-0.62800264,0.24202621,0.87046194,-0.68057704,0.8060918,0.12662642,-0.6828641,0.27424225,0.34058383,-0.15797591,-0.86429256,0.5716451,0.40024322,-0.37231603,0.50090307,-0.009607028,-0.5960107,-0.8264962,0.48863277,-0.33559966,-0.5032489,-0.3109602,0.80445707,-0.24043022,-0.23065916,-0.7778983,0.31457376,-0.01506849,0.5064547,0.24330533,0.031032836,-0.50517833,0.6115765,0.77142906,-0.28241906,0.7854963,-0.92685497,0.6850377,-0.053509455,-0.26206762,0.15456413,-0.70276815,-0.8494061,-0.83610326,0.4808858,0.22915255,0.9026761,-0.65911555,-0.5609531,-0.45024398,0.40595233,-0.75580525,0.76634216,0.28040755,-0.76484245,0.6375616,-0.3602904,0.18648943,-0.5475652,0.6558496,-0.024080947,0.8204855,-0.03137633,0.8770238,0.16545558,-0.9641857,-0.6919552,-0.008447227,-0.8927076,0.87117314,-0.022655154,0.41022316,0.7997163,0.76310635,0.39811155,-0.3704065,-0.39936218,-0.23215863,0.60436946,0.17506804,0.3215267,-0.71135855,-0.5372682,0.8901195,0.34944806,0.9402462,-0.42856395,0.66297275,-0.08869575,0.63943255,0.9483726,-0.06173914,-0.8753012,-0.021203771,-0.6367848,0.0654945,0.84262705,-0.32453752,0.37775728,0.14526027,0.86961645,-0.41687426,1.0348577,-0.63429934,0.32687482,-0.024191745,0.7539651,-0.81939346,0.5200095,-0.7721196,-0.7052916,0.9488052,1.0206558,-0.32612374,-0.56713694,0.177501,1.1080654,-0.5499038,-0.06436431,0.59564286,0.010741873,1.0339503,0.6384927,-0.021058163,0.743853,-0.757596,0.45610312,0.890262,-0.50189614,0.09114749,0.8912375,-0.23179829,-0.83613867,0.95755565,0.7341594,0.35209635,-0.5710913,0.65026736,0.39344338,0.2815925,-0.16441254,0.34256238,-0.7526373,-1.0592117,-1.1253822,-0.056147438,-0.76735157,-0.30350596,-0.36604658,0.69164973,-0.62289274,-0.6334728,-0.69862014,0.92264026,-0.20311359,0.110156305,-0.42198807,-0.2643371,-0.8592099,0.49716264,0.82225686,-0.07446036,0.88517284,-0.3182427,0.9043999,0.5979365,1.1355906,0.99103683,-0.46081612,0.7097016,0.15126306,0.7812157,0.29771942,0.37821048,-0.7185738,-0.8904658,-0.087015405,0.040562987,0.42671153,0.115952134,-0.3619122,-0.43516263,-0.76910967,0.8024608,-0.0125431605,-0.6448108,-0.012088572,-0.38795313,0.055615,-0.82879853,-0.8229253,0.14085367,-1.0178876,0.752126,-0.9222495,0.83157235,-0.61924803,-0.44149327,-0.20342153,0.34666523,-0.27632946,0.22259665,-0.21480604,0.6202344,-0.10061713,-0.69669634,0.65034556,0.20245062,0.05984345,0.63477135,-0.9551705,0.086565144,-0.13491061,0.80382115,0.7296414,0.37253374,-0.5770194,0.988146,-0.22058272,-0.12245531,-0.6648563,0.4376924,-0.2901956,-0.63927335,-0.6205315,0.5746557,1.0425696,-0.5307019,-0.8480259,-0.613277,0.80474514,-0.45840758,0.54904485,0.21479495,0.670141,-0.5138529,-0.5752421,-0.6232075,0.059465982,0.9439298,0.54231673,1.0496395,0.90979946,-0.12026765,-0.7448297,0.3510565,0.40615252,-0.20910361,-0.03586692,0.31427458,-1.0426376,-0.96084833,0.27782553,0.78658354,-0.2826737,1.0401958,-0.40691134,0.8257234,-0.37724116,0.890571,0.15770957,-0.2505069,0.81973237,-0.60461956,0.9639901,0.4841086,-0.29105726,0.4983468,-0.46680886,-0.33459443,0.5195934,-0.22484751,0.6623885,-0.70500475,0.38318628,0.36683497,0.16034535,-0.014288923,-0.7602205,-0.41797808,-0.87961954,-0.8787528,0.3131595,0.88916826,-0.18236984,-0.13334356,0.9312143,-0.5937359,0.14441046,0.9925722,-0.3248895,-0.5751592,-0.7530193,0.8380027,-0.06296879,0.5717023,0.2010996,-0.4060446,1.0384475,-0.14654629,0.8551802,-0.46952838,-0.523767,-0.059608605,-0.37275442,-0.75701374,0.4564612,0.92939925,-0.12190268,0.5624623,0.72774893,0.16593468,-0.46177524,-0.55464137,0.4432917,0.38441792,0.3598064,0.6478097,0.065320976,0.87550646,0.11167325,-0.4540532,0.6258174,0.71260154,1.0021832,-0.5017981,0.83901775,0.7014644,0.101627804,0.29258588,0.8307682,0.025975388,0.75980747,0.973905,-0.44083816,0.343526,-0.09744957,-0.65226,0.23957294,-0.44550532,-0.58901024,0.41129506,0.77606267,-0.5395319,-0.015625274,-0.93324643,-0.32130226,0.7031413,-0.4526723,-0.8675301,0.7384205,0.63287526,-0.88994986,0.90854555,0.3744883,0.63845074,-0.5508763,-0.58234584,-0.624858,-0.068345554,-1.0882523,-0.0059447526,0.23602495,0.601141,0.31513506,-0.83646244,-0.25069278,-0.50376654,0.0838359,-0.038103987,0.6542036,0.18235865,-0.06624306,-0.633827,-0.7924332,0.6897606,-0.17034248,-1.021907,0.73466027,-0.23715843,0.5608348,0.12950508,-0.92991656,0.10575609,0.44662672,0.41743144,-0.89401114,-0.9450496,0.26514968,-0.7329172,-0.6136153,-0.7791833,0.31633598,-1.0690207,0.5714201,-0.9811574,0.18291563,-0.1282768,-0.03020826,-0.5223493,0.54210067,0.37783426,0.6789125,0.6087118,0.8099097,0.80633795,0.62855357,0.8232229,-0.06449451,-0.35202837,0.11977885,0.60641843,-0.48797348,0.7728132,0.36302787,0.5260825,-0.3199525,-0.65579915,-0.6856364,0.2314936,0.4959339,0.94018996,0.0016871151,0.38313842,-0.8319301,-0.6759492,0.08656457,0.27403936,-0.83173287,0.78789544,-0.102308184,0.9827571,-1.0331784,-0.1072833,-0.23644105,0.13844414,-0.62475353,0.99506366,0.57707155,0.2633357,0.3674822,0.015356455,0.48623565,-0.27403182,-0.1344342,-0.83226347,-0.8368575,-0.86333305,0.00520854,0.094215125,-0.80874187,0.4623646,-0.09891583,-0.41158566,0.2728841,-0.13137375,-0.6633589,-0.22911923,-0.07696486,-0.053001408,0.055812575,-0.05565094,-0.06517211,-0.8882986,0.0072821216,-0.21768048,-0.9162534,0.15710834,0.6418463,-1.0294293,-0.27843016,-0.03980676,0.2254286,-0.26126865,0.86726636,0.6370468,-0.7713616,-0.45682395,-0.89538676,0.72552973,0.9903421,-0.24192852,0.9176285,0.7422434,0.23785622,-0.40486354,0.61253065,-0.9560501,0.73060465,-0.97246,-0.57313234,-0.8494375,0.15739278,-0.9859433,0.0054646027,-0.8411352,0.18811974,-0.66129935,-0.13985033,-0.22684866,0.28312433,-0.6481097,0.5290262,0.83514345,-0.17182568,0.68295866,0.057743378,0.5194909,-0.33453962,0.76192254,-0.73942125,-0.034183413,-0.1087578,-0.20972806,-0.30815965,0.44212863,-0.0029485256,-0.64083654,-0.6664559,0.634012,-0.25784138,0.9783822,-0.93938595,-0.5186699,-0.18749124,-0.16578642,-0.31815287,0.0484477,-0.35214165,-0.034013584,0.60095173,-0.1378642,0.20060383,0.062356763,-0.96921283,-0.14017032,0.80140156,-0.13342994,0.40421093,-0.35264182,0.35160166,0.6863463,1.1120086,0.47132,0.4407571,-0.32559875,-0.6032291,-0.12466475,-0.47161782,0.76620466,-0.02675667,-0.36849526,-1.0966568,-0.2493816,-0.105451226,0.16053948,0.3760474,0.5478266,-1.0241798,-0.6696072,0.39659843,-0.59647,0.024750529,-0.48306215,0.6240365,-0.33924434,-0.16700006,-0.8836384,0.43483922,0.40906712,-0.8225094,0.61229074,-0.5108914,0.41699117,0.8023102,-1.128609,-1.0053179,-0.39516172,0.31793407,-0.90383387,-0.7157222,-0.63079923,0.49749377,-0.2398641,0.3279922,-0.08764892,0.28753436,0.2504686,0.481024,-0.6950408,0.4663431,-0.43686068,0.84625083,-0.03891954,-0.9616458,-0.6512963,-0.63095653,0.9063359,-0.8034763,0.3379344,-0.6039825,-0.8489636,0.060822826,0.250172,-0.5930579,0.22999914,0.85266054,-0.44860893,0.8612852,-0.7438241,0.22817709,-0.8503968,-0.5504344,-0.09427453,-0.27305698,-0.9441604,0.3708375,-0.7576212,-0.14771351,0.038904324,-0.44835022,-0.6217317,0.8747587,0.88825685,-0.746851,0.39733014,-0.11757959,-0.23535083,0.8518014,0.28147656,-0.8746106,0.91357017,-0.2261481,0.26999742,0.4391193,0.5160949,0.12146099,-1.1022391,0.6747064,-0.4799956,0.13123423,-0.66625845,-0.47583953,0.42884406,-0.889072,0.5136776,-0.6157412,-0.8944757,-0.4101653,0.7489147,-0.18564084,0.2697169,-0.3537327,-0.8011377,-0.37162697,0.46004146,-0.012041403,0.18428662,0.29709202,0.6418761,-0.8765574,-0.62737155,0.7098984,-0.087304726,-0.68417454,0.5042562,-0.55608904,0.47053525,-0.8820206,0.22832662,0.8631129,-0.42982635,-0.05884773,0.44546917,-0.047983218,-0.33662,0.1285055,-0.7102257,0.4271619,-0.32437235,0.60902065,-0.49404037,-0.018950991,0.78768283,0.4734278,0.98488724,0.05227805,0.18248966,0.2672311,0.13475546,-0.8175312,-0.009780754,-0.9553866,-0.9713529,0.7304262,0.6598586,-0.45308572,-0.12907773,0.55700254,-0.51535845,-0.38969228,-0.61431897,-0.8102364,-0.917787,0.7498472,-0.9583878,-0.42813492,-0.11280313,-0.75047547,0.23023099,-0.86945087,-0.35124347,0.8737529,0.6832602,-0.62366337,-0.5875354,0.65019023,-0.7082513,-0.84567714,0.85735565,0.4037636,0.39857468,-0.5194616,-0.57587415,-0.9293299,-0.042389672,-0.9425629,-0.7128577,0.94676125,-0.75325376,0.19768716,-0.43807736,-0.7886448,0.95550305,0.54253733,0.8934647,0.7876566,-0.39754435,-0.1584601,0.3487266,-0.72592956,-0.7844216,-0.43247887,0.82990646,0.5224836,0.7900778,0.4952372,-0.5342765,0.22967184,0.37695387,0.9586364,-0.8128516,0.574044,-0.77889425,-0.71220154,-0.90868735,0.72999984,0.31200594,-0.25449204,0.9114095,0.6547023,-0.52789533,0.09231781,-0.47902232,0.6771951,0.58316994,0.55891037,-0.5082788,0.48078558,-0.23865862,-0.22042549,-0.18876646,-0.7417155,0.8820789,0.7834467,0.59608775,-0.97532666,0.9775594,0.1113838,0.4663168,-0.7337997,0.44266063,-0.919266,-0.3872745,0.70446855,-0.23350665,0.09051581,-0.8256376,-0.50535166,-0.091997616,-0.8490001,0.08763435,0.21934448,0.23827566,-0.61555845,0.2896323,0.44741467,0.37681124,0.76384187,0.31676245,0.9158858,-0.7338406,-0.6475411,1.0571077,-0.81529874,1.0012989,-0.80178386,-0.123321354,0.75474185,0.95564413,0.35820225,0.747071,0.036990415,0.7330307,0.3248833,-0.4545497,0.3430709,0.4546016,0.79477054,0.29000655,-0.96541655,-0.90133,-0.5577233,-0.060181912,0.9642576,0.7093702,-0.6100611,0.8837852,-0.74838614,0.3532199,0.87580246,0.0488656,0.38374957,0.73486084,0.9310567,-0.8680233,0.31770784,-0.31793284,0.7569564,-0.9941595,-0.6294998,-0.026595041,-0.69268876,-0.12106939,0.6629278,-0.2761118,0.85744274,0.20578566,-0.51810277,1.0071039,-0.4250466,-0.028751733,-0.66380936,0.28716433,-0.15879394,-0.4226442,0.20153727,-0.46650484,0.2332271,0.69250774,0.62420344,-0.7985826,-0.608121,-0.660331,0.6224705,0.1277674,0.82918847,-0.7740732,0.37167057,0.41205555,-0.30644915,-1.0154355,-0.20094676,0.91205126,0.868945,0.62690264,-0.15808362,-0.8003506,0.8293089,-0.8682557,-0.6160631,0.8749809,0.97145164,-0.3600029,-0.25400326,-0.33756012,-0.0036830716,-0.6138871,0.79722285,-0.107830636,-0.5083682,-0.4022699,-0.3205726,-0.10707725,-0.2370985,-0.89339817,-0.31066027,-0.09525582,-0.5241105,-0.4275599,0.43200108,0.6247535,-0.10655598,-0.8428064,0.05350647,-0.99859226,0.6455693,0.007630571,-0.54724437,0.91443115,0.294499,-0.3216127,-0.088016085,-0.18879683,0.2782874,-0.19061825,0.43917498,-0.24568148,-0.12790608,0.20228466,0.010683917,-0.6421309,-1.0711985,-0.27935052,0.16534886,0.5735368,-0.6051029,-0.906365,0.25580364,0.33547157,-1.0512705,-0.48192686,-0.5651536,-0.18882208,-0.21115984,0.66046894,0.020785803,-0.66962624,0.4021588,0.102518566,0.6356184,-0.027071418,-0.5847657,0.9450218,-0.9437845,-0.24686208,0.40571997,0.23705365,0.807081,-0.15749805,-0.74052864,-0.8274083,-0.25612834,0.30834705,-0.111462,0.23493591,0.15005918,-0.05723496,0.020898275,-0.90754694,-1.0484271,-0.607588,-0.33408415,0.4326564,-0.76004696,0.672263,0.80355996,0.09148648,0.7194173,-0.7419548,0.3975207,-0.41721767,-0.7434009,0.16197011,-0.24640703,-0.5036356,0.58242327,-0.41788188,0.29538548,-0.11894919,1.0432181,-0.8231983,-0.015502883,-0.619166,0.07277504,0.6794469,0.018389903,-0.92893195,0.49423566,-0.7323037,-0.71113664,1.0195596,0.22941297,-0.29688716,0.3056271,-0.2944778,0.69689816,-0.9305482,-0.54680085,-0.5943159,-0.04926392,0.7923503,-0.8024179,-0.75272137,-0.9041651,1.0372975,-0.06606868,-0.37996504,0.52878785,0.63599366,0.7509747,-0.66460025,0.2094303,0.6147061,-0.6682232,-0.08616565,0.43103918,0.2202834,0.2510608,1.0199084,-0.4765818,-0.3101549,-0.36870888,-0.172226,0.8232779,1.0643631,1.0025747,-0.7257285,-0.93323565,-0.039434068,0.61942416,-0.31381506,-0.53515947,-0.08785884,-0.028157048,-0.6559057,-0.7267058,-0.16853559,-0.23698899,0.55176824,0.6175282,0.13488851,0.085947245,-0.12882496,0.23812737,1.021487,-0.1613437,-0.42660674,-0.067175224,-0.13617589,-0.057847153,-0.44835445,-0.7738198,0.24491167,0.22956797,-0.7916287,1.0475239,-0.88034993,0.12757823,-0.0030705528,0.46089417,-0.5252487,-0.6219628,-0.80801964,-0.1891394,0.37678197,0.6954659,-0.47203156,0.35538617,0.6848668,0.7497964,-0.8088878,0.6575541,-0.07799717,0.25072214,0.88546187,-0.24021393,0.38412428,-0.073363215,0.67564774,0.8747223,-0.08446397,-0.38075987,-0.72870344,-0.8088922,0.41168073,-0.6367976,0.87305635,0.32757556,0.4996044,-0.5146207,0.6457245,0.1605375,-0.57252854,-0.14493895,0.2962944,-0.12639888,-0.004112182,-0.27231273,-0.7364908,0.7022419,0.5312023,-0.71745044,-0.1546182,-0.37763408,-0.11178024,0.57849944,0.85158664,0.96655524,0.5044557,0.51725376,0.055520657,0.105814636,0.017323833,-0.9008782,0.6840571,-0.9080581,-0.4373831,-0.07740189,0.16011749,-0.8242594,0.14062268,-0.6623689,-0.27471313,0.202496,0.46784738,0.05071333,-0.03543804,-0.48056394,-0.6342845,0.8035155,0.84554064,0.583028,0.1125218,0.595518,-1.0042818,0.6854674,0.2067662,0.3761442,-0.9316722,-0.903451,-0.86556244,0.08713362,0.83085316,0.72015095,-0.25435245,0.7675176,-0.87929684,0.76668066,-0.6791177,-0.12784603,-0.014714047,0.5580945,0.6281367,-0.20307025,-0.15937597,0.8199931,0.451824,-0.061540287,-1.0272932,-0.012676895,-0.22029158,-0.44139674,-0.023667555,-0.9054463,-0.7535193,-0.8160813,0.6856544,-0.74681836,0.36933014,-0.29724655,0.9599441,-0.35712212,-0.27043608,0.7436459,-0.27767527,1.0008177,0.26852596,-0.17220466,0.48668978,-0.1247535,0.08489894,0.50902957,-0.74173266,-0.24059242,0.5999807,0.43911186,0.24510708,-0.7798065,-0.8658234,-0.5666783,-0.5416558,0.40587723,-0.33574766,-0.6847518,-0.034477495,-0.666553,-0.20064794,0.7009528,-0.32539433,-0.7720978,0.33694816,-0.8888244,-0.13888244,-0.2004478,-0.6597352,-0.0067458246,0.8813556,-0.45346427,-0.5776346,0.38911036,0.29861394,0.5986395,0.007595642,0.7988743,-0.09580446,-0.70315844,-0.120386794,0.8491279,-0.5301767,-0.38635647,-0.5698416,0.52323514,-0.5850512,-0.40173116,0.8200734,-0.050663948,0.07881459,0.1955239,0.18326911,0.20071688,0.33759305,-0.12680125,-0.35898754,0.20943762,0.29160663,0.51358587,0.47313654,0.4470094,-1.2979496,0.22275625,-0.040988885,0.43535462,0.71368265,0.54646105,0.67410296,-0.0871331,-0.5082041,-0.21496788,-0.40959117,0.21192046,0.598007,-0.09588675,-0.041332737,-0.7976585,-0.3996404,-0.14948717,-0.5703969,-0.33086172,-0.74368685,-0.0037834318,0.6856246,0.69748473,0.67165065,0.09477807,-0.5800357,-0.049218345,-0.21879381,-0.21707669,-0.6905036,0.6628185,0.58211607,0.20557307,0.3116326,0.14386688,-0.53705764,-0.21916011,-0.58108,-0.21489276,0.43080273,-0.4198722,-0.51491314,0.97532874,-0.5204435,-0.66286325,0.76875407,-1.0899203,-0.33251834,0.4751354,-0.06036844,-0.48456407,-0.5751278,-0.3333919,0.6712232,-0.6518139,0.11664688,-0.94520646,0.009464677,-0.92719233,-0.18593776,0.7465965,-0.7188272,0.7781,0.49484277,-0.58268654,0.049931567,0.8011861,0.43871704,0.2587607,-0.5064392,0.89247113,0.19491817,0.93534416,-0.70897084,-0.31246623,-0.16600597,0.32831836,-0.7305901,-0.41743016,-0.50661856,-0.38199517,0.3523645,-0.93598896,-0.6925749,-0.099508144,-0.9695611,0.3108658,0.7838843,0.49618876,0.24256647,-0.9048873,0.8000912,0.31816745,-0.09928255,-0.48694912,-0.6269245,0.44059947,0.88040984,-0.1598317,-0.42440546,0.2550706,-0.19622748,-0.29346892,-0.619194,-0.23662503,-0.075228065,-0.06522213,-0.7865927,-0.68139344,-0.84247786,-0.26731327,0.9064878,0.76299,-0.6617735,-0.44114769,-0.19017617,0.2103709,0.23004907,0.2155352,0.667494,0.09813039,-0.15574683,-0.15139394,0.65084606,0.34498948,-0.79886246,0.09186495,-0.08676191,0.06357436,-0.42882907,-0.8825432,0.62183625,-0.16882475,0.28872496,0.7871975,-0.39111376,-0.23806426,0.8775907,-0.8286186,-0.16301496,-0.60228336,-0.34340146,0.14785846,-0.14629716,-0.81741154,-0.6088941,0.5930301,0.6076961,-0.15700409,0.5364966,0.96954995,-0.6118198,-0.8835668,0.7626398,-0.43832055,-0.792845,-0.2275374,0.07669293,0.86460215,0.5834159,0.06460541,0.6945889,-0.3701214,0.85309726,0.6850184,-0.32798004,-0.80237603,0.33327654,0.10680432,0.5994949,-0.9742546,-0.13260025,-0.81003326,0.4366566,0.50724787,-0.24444847,-0.24767402,-0.63306814,0.29649422,0.75841224,-0.5018978,-0.123740934,0.80154884,-0.5020965,0.18113165,-0.017038254,-0.7638973,0.046632413,0.7294848,0.03395429,-0.06726997,-0.05109591,-0.30527657,0.77887833,0.27018777,-0.069906436,-0.44646567,0.34176272,-0.3452663,-0.3431881,-0.9416384,0.45135635,-1.1026968,-0.17440972,-0.41733924,-0.098511115,-1.0514939,0.10849916,-0.53207356,-0.8104043,-0.792608,-0.8228597,-0.83339065,-0.026496049,-1.0208625,-0.9817165,-0.91103584,-0.07246531,-0.94171304,0.34102,-0.1116248,0.3045687,-0.4123933,-0.3678643,-0.12908481,0.8060119,0.62330747,0.37553105,-0.10265448,-0.1434504,-0.22188304,0.545467,0.69555837,-0.021914754,-0.45756617,-1.0802634,-0.21117887,-0.35804242,-0.15534902,-0.7990046,0.39755312,0.42063606,0.09962728,0.13729441,-0.022848045,0.77545065,-0.52688926,-0.65962315,-0.833095,-0.055505186,-0.44078445,-0.9588675,-0.28004587,0.7749149,-0.12398499,0.23261149,-0.38538948,-0.2575453,0.7998105,0.66610485,0.6407105,0.5881266,0.53876084,0.6071075,0.52598,-0.14671504,-0.7155593,0.33263332,0.06928578,-0.1298726,-0.8559114,-0.27183992,-0.63783646,-0.73201036,0.06602333,-0.7747006,0.03902418,1.0010817,0.41317046,0.012004024,-0.9904457,-0.048053686,-0.9684737,-0.43441027,-0.7714443,0.55017793,0.4340249,0.89658976,0.8743547,-0.7476112,0.5232337,-0.45855755,0.10228234,-0.12706168,0.10604242,0.2098785,1.0042143,0.422522,-0.2609393,-0.64552075,0.6990557,0.10945617,0.7470759,0.37264812,-0.6309668,-0.78455997,-0.70491683,0.7562978,0.7696727,-0.898029,-0.87474257,-0.8887811,-0.007003797,0.8347592,-0.4467458,-0.8514434,0.11400395,-0.39899397,0.5972951,0.33053526,-0.2641508,0.06506962,-0.25096363,-0.9119208,0.30026996,-0.21437775,-0.6729446,0.7551085,0.95105296,1.0599085,-0.074067205,0.22164635,0.7118509,-0.49849313,-0.28221926,1.005462,-0.61862713,-0.20525621,-0.69323516,0.25439304,-0.68286824,-0.7646631,0.4874066,0.39681113,0.9876493,0.38986266,0.24762148],[0.5246343,0.60212445,0.71101207,-0.8969579,-0.94544894,0.28431445,0.48337433,-0.23420006,0.3328893,0.962271,0.07415916,-0.32187322,0.8238615,0.8845154,-0.46788883,0.5172595,0.2772349,0.45050973,0.8310932,0.330685,0.071146905,0.8338084,-0.5813197,-0.43546104,0.8960936,0.8048871,0.40122804,-0.12957071,0.70667744,-0.85413045,0.034890007,0.6002312,0.04472849,-0.34757513,0.36111143,-0.7275819,-0.09066664,-0.095323265,-0.70365405,0.7225421,-0.83005697,-0.13464025,-0.059392065,-0.6590018,0.6012261,0.65598285,-0.46760455,-0.51903087,0.91261226,-0.04451867,-0.4627414,0.6225253,-0.7234152,0.82396245,0.24064521,0.9309136,-0.5330067,-0.006373537,-0.2188453,0.051278386,0.41282034,-0.5531044,-0.08571185,0.44818926,0.54808044,0.60766506,1.0439214,-0.2990416,-0.19707738,0.5742826,-0.46865967,0.21481103,-0.27225173,0.84574705,0.38362285,-0.24851255,-0.5055316,0.44254512,-0.12823087,0.31924438,0.89588964,-0.2180407,0.93455154,0.21699691,0.027908815,-0.063816756,0.79431987,0.9575652,-0.65136445,0.12058856,-0.71027195,0.7226415,1.1628795,0.98378944,-0.887669,-0.117876746,0.28372642,-0.45674452,-0.075998545,0.8843065,0.21603903,-0.55438083,0.47004977,0.18846911,-0.008219424,0.09967605,-0.69216573,0.051578645,0.50271195,-0.72005624,0.56953615,-0.6784624,1.0103157,0.19911422,0.5950705,-0.6160124,-0.19899932,1.1582688,0.93809485,1.1838559,0.08579096,0.20143297,0.071605675,0.73913157,-0.13518755,0.679235,-0.53603035,0.010447318,1.0395668,-0.43024874,0.82497555,0.99855196,-0.03665152,-0.26340708,-0.07841472,0.50878775,-0.8410761,0.19833234,0.5537439,0.45164928,0.4272901,0.01475765,-0.60760933,-0.15740664,-0.20573704,0.50207406,-0.06058686,-0.46263754,0.28618854,0.8475021,0.35945466,-0.6963849,-0.3704613,-0.23975568,-0.8684793,0.58633554,0.5623658,0.36390913,0.16261458,0.20637229,-0.13827544,0.7850742,-0.54325414,1.0051364,1.1003665,0.48457187,-0.034740705,0.8688267,0.5302875,0.30153343,-0.85478777,0.52534115,0.4680121,0.34409955,-0.2768689,0.68829185,0.15712123,0.8269801,-0.8739532,-0.65589285,0.3729453,0.64271814,0.6609704,0.80340683,0.53725755,1.0364306,0.29154748,-0.28073654,-0.19322614,0.6539891,1.00268,0.35252178,-0.28938302,-0.68568367,0.38655448,-0.24011108,0.67314875,0.8788173,0.41611776,0.15362468,-0.4991579,-0.13504976,-0.6164742,-0.35256803,-0.05427824,0.9560453,-0.7609603,-0.7345662,-0.93364537,0.7652089,0.70083195,0.10295555,-0.3863677,-0.2663382,-0.8255544,0.49502337,0.7201154,-0.87288886,-0.2327128,0.5570866,-0.9851084,-0.27767166,0.51105726,0.094895996,0.60641295,-0.97637534,0.40991703,0.14626634,0.38459307,0.854051,-0.45546827,0.64524615,0.12898675,0.044614293,-1.0833862,0.033661626,-0.9253214,-0.37028116,-0.07534748,-0.6775487,-0.64596736,-0.80446607,0.22649361,-0.13257091,-0.7824071,0.29519317,0.49672103,-0.6035457,0.32483903,-0.8035768,0.03962138,0.094651766,-0.5946259,-0.4251307,-0.55562925,-0.7158331,-0.88614184,-0.30466908,0.8458676,0.5917539,-0.58597636,0.3319834,-0.5430718,0.8702234,-0.6530332,0.4642149,0.9543864,0.49579275,-0.5205657,-0.44356298,-0.8878503,-0.1680425,-0.17679259,-0.39036375,-0.46917772,-0.82170594,0.48448458,-0.9240889,0.8942398,-0.94042003,0.03185535,-1.0651965,-0.001650561,-0.7295209,0.39505175,0.1639319,0.802779,0.3422125,0.7559014,-1.0325518,-0.18750665,-0.42268413,0.69004947,-0.26588535,-0.8392328,-1.0114901,0.062025897,-1.0745826,-0.31277913,0.08729545,-1.0827411,0.1612647,-0.656573,0.7215472,-0.53690535,-0.7331761,0.6449297,-0.45019218,-0.9661174,0.46545807,0.22937141,0.33421302,0.7878058,-0.7611603,-0.14407378,0.4160761,-0.632108,-0.92666286,-0.9640379,0.4522468,-0.34121332,0.53790003,0.45684704,0.21876223,-0.8992318,0.4804632,0.52174044,0.7376966,-0.5671275,0.06809373,0.30931154,0.46410462,0.7505365,-0.7154655,0.7607629,-0.8948312,-0.41199428,-0.23553135,1.0724608,0.21628925,0.5107322,0.4628302,-0.2924077,0.01906615,0.40961257,1.0115243,0.43324047,-0.4157824,0.5050149,-0.14054272,-0.41088906,-0.5387689,-0.71066236,0.81843245,0.21332087,-0.8036529,0.077841744,-0.23136939,0.75363165,-0.84478354,0.2588813,0.3220496,-0.050789874,0.89869934,-0.9123526,1.1739873,1.0986999,0.37246507,0.9996227,-0.122403175,-0.1403218,-0.7053445,1.0008237,0.85669416,-0.64635783,0.17928967,0.96189976,-0.8119546,-0.37681714,-0.08371718,0.86759406,1.0606083,-0.2724729,0.42154136,-0.7248295,0.7993805,0.31140625,0.12167052,-0.77076155,0.028470166,-0.82023805,-0.06587484,0.89400226,0.826492,0.0890738,-0.5979559,0.47170705,-0.20047991,0.12728515,-0.57645905,-0.33856168,-0.2801379,-0.8699321,0.0030575295,-0.17182513,-0.47073174,0.24042636,-0.007989227,0.6480584,-0.78825355,1.1234751,-0.64657,0.73620206,-0.48801973,0.3017082,0.5950407,0.085410506,0.20620738,0.56966895,-0.7258151,0.37057838,-0.6777369,-0.29420522,0.5637978,0.41521162,0.23834476,-0.17316106,0.16022778,-0.939762,0.3976038,-0.49505904,0.6658089,-0.07157358,-1.0402157,0.0310288,0.6005481,0.50813085,-1.0207134,-0.60816675,-1.2063375,-1.0915948,-1.140909,-1.1289667,-0.65308845,-0.889667,-1.0048325,-0.4227496,-0.8874478,-0.37379175,0.25691327,-0.6951757,0.51449114,0.7240137,-0.0792778,-0.8782623,0.2312104,0.079622194,0.12303698,0.79379934,-0.86865044,0.275475,-0.76004463,0.5223026,0.052732743,-1.0392053,0.11149651,0.28347737,0.004856724,-0.0017354217,0.38554934,0.13744244,-0.57635117,-0.78970635,-0.49690485,-0.5989711,-0.09744771,0.04473066,-0.09318667,-0.20010276,-0.0544433,-0.4655578,0.13107388,0.5234245,0.25937834,-0.35381645,0.6974138,0.74536735,-0.38706213,-0.24593407,0.5873593,-0.19988172,0.5208083,0.72525907,0.5302686,-0.5987662,-0.77925277,0.79944557,-0.39984587,-0.05007432,0.7657602,0.11723812,0.5821377,0.06001864,-0.4391115,-0.40208924,0.7562595,-0.5285159,-0.28225994,-0.14363243,-0.13026293,-0.4424782,0.25853196,-0.001709624,0.22785811,-0.0130563425,0.69577897,-0.23918217,0.045131836,0.6218514,-0.8117134,-0.17346336,0.828699,0.15894993,-1.0319672,-0.6380123,0.38603202,-0.78447115,0.4003516,-0.74887806,0.03753355,0.88680416,-0.1359164,0.027839871,-0.12536293,0.4946602,0.78525037,0.89243037,0.118556365,0.40331244,0.79371965,0.59676695,-0.17399915,-0.19000827,-0.51758325,0.010250604,-0.41377565,0.28893164,-1.0125949,-0.15182284,0.50752807,0.3622569,-0.62993556,-0.3197402,0.39265054,-0.18096733,0.9590518,-0.9485875,0.19264702,0.7638662,0.17768314,0.8117291,-0.27485156,-0.28903058,-0.564129,-0.39775404,0.5698141,-0.21073389,0.9540434,0.80938226,1.0411447,-0.050756805,0.53381115,0.42121482,0.33774248,0.21705547,1.0770812,-0.14737448,0.75060445,0.9997661,-0.6314453,0.6446361,0.01419509,-0.6499023,-0.6177763,0.47308475,-0.24550578,0.058563538,-0.8075246,-0.47369015,-0.04297881,0.73409134,-0.7316348,0.9365547,-0.27209577,0.7127767,0.12589005,0.06381933,0.25433508,0.39023232,-0.55539894,0.54505014,0.6642347,1.2005596,-0.2618502,0.30349267,-0.27397642,0.08692416,0.50237453,0.80797845,0.8144396,0.19616626,-0.19640422,0.48690355,1.1099662,0.8580501,0.61820275,-0.18516497,-0.12392075,0.06147371,0.25911883,-0.59726596,-0.21692519,-0.18104328,0.8591068,0.2398722,-0.7029233,-0.81252974,0.74383795,0.011964586,-0.599668,-0.15887439,0.07887791,0.091104984,-0.46132565,0.7264174,0.5060128,0.32139662,0.14066757,-0.14036892,0.12074504,-0.43196926,-0.98282266,0.60648006,-1.0613065,0.72537184,-0.5268342,0.47621346,0.112477355,0.492368,-0.008902861,0.004277271,-0.6200209,-1.0364822,0.4779864,-1.0322729,0.3973313,-0.8132492,0.8019503,0.5233557,-0.9878023,0.4125758,0.5387369,0.8799744,-0.67126715,0.2972844,0.575516,0.65638465,0.9207456,0.7291873,0.51206166,0.6260557,0.74953187,0.87372243,-0.49218348,0.2994596,-0.43268093,0.009764884,0.021304585,0.35075736,-0.62901145,-0.3606645,-0.20923571,-0.6252627,-0.07197966,-0.51352555,0.121056736,-0.29244205,-0.27982676,-0.35870215,-0.6499142,0.20790875,0.29031122,-0.36443877,0.45108262,-0.5217698,0.8127236,-0.094677225,0.46700013,-0.1441529,-0.0957747,0.5076865,-0.61643547,0.023962839,0.35131085,-0.27941656,0.6878855,-0.49975634,1.1032444,-0.11887991,0.27419153,0.63715315,-0.36829677,0.22976731,0.28517804,0.25024816,-0.2142309,-0.5561236,0.7783597,0.30818892,-0.87415713,-0.33210212,-0.5845349,0.80160016,0.6954971,-0.3964855,-0.14138582,0.7939074,0.010187051,-0.22485545,0.22259948,-0.90606576,-0.2851245,-0.36370483,0.62103057,-0.8295378,0.29162407,0.4010665,-0.26969543,0.72936034,-0.2427768,-0.5594345,-0.615671,0.31627482,0.43284252,0.3657906,0.26419824,-0.8507994,-0.26593706,-0.75077254,-0.24189223,-0.53880507,0.3598369,-0.47724947,0.009002604,-0.6939301,-0.72341824,-0.58609843,0.071216054,-0.50638443,-0.02969158,0.52172655,-0.54135084,0.76830536,0.6594457,0.35025215,-0.6137599,-0.9734853,0.45575437,-0.35858324,-0.45801294,0.9192604,-0.15978065,-0.52899027,-0.043391686,0.41522253,0.3465773,0.13258268,-0.8839502,-0.9097589,0.43823004,0.7528786,-0.85004115,0.16532232,-0.24642825,-0.5822086,-0.63023764,1.1755786,-0.29726434,0.1023439,-0.5481874,-0.3951037,-0.45010495,0.11850921,0.9828967,0.48394218,0.026701719,0.4634907,0.46106747,-0.512876,0.83880377,0.5382705,0.8853702,1.0330274,0.35717508,0.039973732,-0.553205,-0.4224319,0.8180245,0.74041843,-0.2370362,-0.4459847,-0.7579258,-0.4306548,0.1934631,0.2916473,1.108785,-0.4043858,-0.26461422,1.1690203,-0.15710011,-0.3066111,-0.16878086,0.34523308,0.023752468,0.20547765,0.6897708,-0.42951062,-0.261426,1.131567,-0.16664785,0.43286982,1.0967404,0.0986568,-0.6218576,0.06546993,-0.11019979,-0.7472685,-1.087233,-0.26882023,-0.23667595,0.06626281,-0.47554705,-1.1000726,-0.8931743,0.603246,-0.28939265,-0.9968794,0.27365133,0.2925144,0.25183165,0.44511867,-0.6480278,0.6380886,-1.0055937,0.63970095,-0.7514025,0.4375723,-0.85743254,-0.5137731,-0.22741576,-0.22722772,-0.92900443,-0.81007266,-0.61236876,-0.5760369,-0.26287815,0.4930081,-0.075675905,-0.79095423,0.8889778,0.18069486,0.23672266,0.94471294,-0.3411382,-0.59944004,0.121199325,-0.68398786,-0.7784901,-0.8459177,0.17047681,0.39420933,0.2157559,-0.632788,-0.30081093,0.29627356,0.32397074,-0.8067415,-0.59021634,-0.5686301,-0.07239376,0.28809085,0.76453406,1.0665147,-0.5395952,-0.74448097,0.552318,0.96905565,-0.6121477,-0.8602332,0.7366325,-0.23681384,-0.7126276,-0.24280918,-0.6561628,1.023809,0.91394305,0.0073826443,0.34390405,0.6116047,-0.26226714,-0.0290651,-0.31455562,0.86294574,-0.17626722,-0.6772436,0.54381686,0.19093429,0.048269678,-0.35743877,0.7928972,-0.4661525,0.75379705,0.3245102,0.8561129,-0.5722936,0.6585235,0.3562236,0.71095425,0.34609333,0.13417424,-0.32578954,0.50616574,-0.31191874,0.46714446,-0.8641871,0.1999513,0.51860327,-0.37317267,0.35052556,0.49349767,0.09201258,-0.40777835,-0.64413476,-0.4238945,0.7680646,-0.1308377,0.2590866,-0.06748316,-1.2584108,-0.09391726,-0.818414,-0.19169667,0.1467477,0.7901735,0.39705524,0.5937172,-0.73299795,-1.0151087,0.53868353,-0.14699662,-0.67654955,-0.44404554,-0.7445107,-0.49705687,0.66218114,-0.22753054,-0.80969536,-0.78333247,0.24927539,-0.72714686,-0.36581588,-0.15672493,-0.49747863,-0.1562229,0.049479906,0.6868704,0.41929686,0.013353374,-0.8011169,-0.8338488,-1.015599,0.8935938,-0.76916,0.47867447,-0.6467755,-0.3059107,-0.33777174,-0.19173467,-0.5824684,-0.46295843,0.79630625,-0.54499006,0.65864,0.2305024,0.01604513,0.45133582,0.54497564,0.087076485,-0.22769289,0.1512621,0.4090566,-0.08597784,0.04790616,-0.8331137,0.10877237,-0.5301226,0.25501278,-0.64584446,1.1002318,-0.028554203,0.37734553,-0.26187813,-0.1904522,-0.2913994,0.3397388,0.5797345,-0.50455576,-0.47987133,0.39754483,0.54737604,0.74844116,0.039154325,0.81710505,0.58366793,0.69166005,1.033756,-0.52587116,-0.2766839,-0.7627675,-0.34674364,0.6104775,0.96149796,0.4626007,0.1823054,-0.49749765,-0.76212007,0.83955765,-0.7025777,-0.3644378,0.17759225,-0.9166339,-0.71933895,-1.0023266,-0.58283925,0.4304325,-1.0552759,0.088606045,-1.1648227,-0.58169407,-0.09197559,-0.107346065,-0.60482305,-0.24123186,-0.9169992,-0.47682518,0.27503628,-0.583758,-0.59066015,0.3648698,0.0103299655,-0.70827216,0.13460577,0.9671617,0.43638238,-0.7723215,0.25457138,0.1314065,-0.38992596,0.88069874,-0.16256826,0.5112492,0.91735727,0.11766303,-0.106276035,-0.28740004,0.36100903,-0.28497362,0.21397127,-0.6244428,-0.46001348,0.16329603,0.7564856,-0.18320803,0.6512714,0.18652208,0.46126044,0.2641562,0.22244948,-0.12839894,0.67658824,0.1527347,1.010287,-0.9842434,-0.46664792,0.7607724,0.8421128,-0.37596032,0.04480703,-0.41602287,-0.10911569,-0.8917958,0.7725246,0.5711671,-0.91233385,-0.47160032,0.38469622,0.9355405,-0.8515513,-0.3747971,0.8839523,0.2235768,-0.08962659,-0.7409275,-0.14522924,0.9706234,-0.5421525,-0.079257526,-0.59148175,-0.29299602,-0.74578786,0.17304376,0.35288835,0.030748785,0.9588473,-0.8353114,0.10840646,0.14554091,1.0643156,0.95815456,-0.5467741,0.85928136,0.69209194,0.8910633,-0.9422742,0.5495808,-0.056475263,0.09280061,-0.027941637,-0.8863178,0.5311893,0.3296338,-0.36778903,0.10338016,-0.86502665,0.6038118,0.07690208,-0.3805556,0.2540895,-0.50830585,0.40846834,-0.33681756,0.496661,0.33377185,0.72750986,-0.751589,0.80261296,0.6669158,0.27734837,-0.9485844,-0.17944342,-0.66865987,-0.36175516,0.5404108,-0.25304455,-0.5696054,0.30010408,0.41364616,0.5782665,0.0636389,0.857839,0.9637522,0.7662396,0.4724505,-0.38134497,0.12166497,-0.7534014,0.022088042,0.1545344,0.11073804,-0.3040683,0.0833286,-0.008165972,-0.81241006,-0.19774999,0.05777475,0.32400474,-0.27483937,-0.39897025,-0.96357995,0.7308717,0.8377831,0.59219754,-0.5393104,0.9818657,-0.022951981,-0.60448533,-0.78186804,-0.48107302,0.29481685,-0.82567585,-0.014176271,-0.5096167,-0.7629575,0.28929937,-0.7233845,-0.38966277,0.45025468,0.58916426,-0.9513412,-0.32849067,-0.2242837,-0.3545296,-0.6969916,0.59091526,0.557111,-0.52892876,0.602456,0.042897325,-0.7106433,0.88746995,0.6663038,-0.33012393,0.55632657,0.17215125,-0.121810175,-0.6106623,0.82081395,0.8174506,1.0011744,-0.04521439,0.33804324,-0.6545896,0.19250338,-0.45911634,0.64749175,-0.44918054,-0.10756666,0.45685655,-0.5056399,0.27116093,0.71170425,1.1116784,-0.32861838,-0.7449224,0.44074857,-0.72565806,-0.6263755,0.1831565,-0.4842837,0.26783955,0.2788193,-0.29203334,-0.53004766,-0.62390715,-0.51352173,0.20754097,0.55841374,0.014510766,-0.24416637,-0.26877582,-0.20537676,-0.063355856,-0.38599256,0.5266469,0.32596266,-0.83035797,0.59778416,-0.91583693,-0.48559248,-0.22190683,-0.91892165,0.72380394,0.07012781,-0.91634506,-0.025004774,-0.93665564,0.6438145,-0.23710309,0.76755583,-0.53332084,0.7243605,0.6064782,0.9518896,-0.89188576,0.4550898,-0.7087465,0.31234175,-0.36595818,0.87959915,0.9157822,1.0880206,-0.7584712,-0.62148094,-0.9436054,-0.5492291,-0.08947782,-0.59937817,0.0075261625,0.39886966,-0.17911111,-0.8079225,0.4652041,-0.7255463,0.08385846,-0.35520753,-0.1529902,0.5745911,0.3692342,-0.30430317,0.25056675,0.0864956,0.88197386,0.18019344,-0.5833288,-0.04134123,0.159687,-0.9928106,0.025632372,-0.9407351,0.52739036,0.9351391,0.7027433,0.77376616,0.10836858,0.8419088,0.6853216,-0.3679906,-0.28463393,0.38532233,0.28830728,-0.68789476,0.11042101,0.6064755,0.1134674,-0.58304924,0.82823074,0.13182744,0.03400001,-0.07526917,-0.40352887,0.6639204,-1.0079004,-0.90796787,0.34184793,0.62837493,-0.83187,0.55029076,-0.8264383,0.06347987,0.49826056,-0.7636336,-0.31934515,-0.3563434,-0.9687752,-0.30371943,0.72926104,-0.62611395,-0.9116132,0.35112146,-0.6924169,0.07412001,-0.835848,0.53871787,0.656869,0.38378382,-0.0034605057,-0.20533347,-0.5682619,0.39717665,-0.5456796,-0.24960385,0.6361342,0.5614545,0.7565477,-0.041004308,0.6400122,0.897928,0.3578621,-0.46529713,0.6320823,0.15776685,-0.4230563,-0.6281615,0.48275316,-0.44272846,0.7872026,0.7605039,-0.9187926,0.8479105,-0.13650076,0.5309578,0.01101843,0.94597876,-0.97520757,-0.35170627,-0.1275382,0.1480919,-0.480614,0.93184006,0.722408,0.24649815,-1.0052018,-1.0285176,0.7578233,-0.21646388,-0.03259717,-0.054115035,-0.9472818,0.6627125,-0.3581725,0.7341026,0.86511564,-0.8589292,-0.8530863,0.1254833,-0.69727343,-0.60008186,-0.19395925,-0.8093801,0.13920166,-0.6152224,-0.45064497,-0.26345566,0.55771273,-0.934834,0.043240517,0.041111983,-0.28494227,-0.1626098,0.76013756,0.4710855,1.0286784,0.34888485,-1.042744,0.54420865,-0.33610046,0.008524552,0.13526686,-0.36819738,-0.27268642,0.6355014,-0.7720294,0.35154107,0.28793213,0.3699086,0.6930668,0.2181077,-0.4904246,0.38373128,0.095311895,0.1090488,0.79808617,0.28821287,1.0422474,-0.74801314,0.29697436,-1.1150495,-0.08907205,0.00034228485,-0.9189423,0.8471294,-0.32904986,0.610518,0.463493,-0.24332847,-0.9018269,0.19959447,-0.13740958,0.45543954,0.28763774,0.35362262,0.852088,-0.2823005,0.5942642,-0.7426855,-0.8686835,-0.08402624,-0.4006136,0.21169119,-0.2821444,0.20292209,-0.6159511,-0.35043886,0.24863106,-0.19908756,0.963015,0.39095983,-0.5065572,0.43034843,0.8723966,0.54433465,-0.5027314,0.3345593,0.616577,-0.9439799,0.2699286,-0.4237133,-0.8008143,0.7937464,-0.33415243,-0.06966019,-0.351824,0.15410393,-0.8878686,-0.1626831,-0.9786128,0.6605483,0.7104375,0.33484334,0.0024692956,-0.14666577,-0.7241121,-1.0283747,-0.3162591,-0.22501206,-0.90595925,-0.72189116,-0.017638646,-0.75567615,-0.6635106,-0.83634037,0.5548471,0.282339,-0.4667919,-0.29023135,0.1318991,0.8291732,-0.7856057,0.3393938,-0.40914032,-0.623567,-0.3063166,0.16271366,0.93442136,0.731369,0.6216499,-0.19938406,0.015385653,0.17298338,0.12810469,0.10464747,-0.8712774,0.15476932,0.08009735,0.10341478,-1.0440496,0.8760469,-0.21327208,-0.3307217,-0.9749696,-0.11564845,0.9391465,0.9637826,0.71979433,0.8021133,0.68528664,0.24004945,-0.51210785,-0.022031099,0.83724046,-0.7313698,-0.53618914,-1.048036,-0.15052333,0.05213308,0.20169447,0.88087654,-0.55785584,0.09026632,0.6649722,-0.48566267,0.87856674,0.2104656,0.12375132,0.43391472,-0.7812441,-0.8089327,0.88591075,0.42651892,-0.48567966,-0.5897923,-0.77212,-0.53864306,0.2428352,-0.2441988,-0.5856139,-0.22769108,0.35920405,0.26634628,0.7451964,-0.3058276,0.2607653,-0.9750449,-0.9256921,0.09756503,-0.30254135,-0.9854591,-0.40091985,-0.2533837,-0.82508814,0.91931325,-0.27641034,-0.82087046,0.85995144,0.1590439,-0.47561944,0.20856899,0.10760628,0.47540736,0.92420304,0.37950367,0.7880312,0.5081522,-0.942309,0.15712143,0.898523,0.3955627,-0.6617337,-0.13097395,0.15706746,0.23871653,-0.3665128,-0.45708138,0.5658357,-0.110398,-0.799345,-0.54709417,1.0066938,0.75676113,-0.6752007,-0.6374357,0.37444326,0.74093574,0.63012964,0.44034192,-0.73350376,0.10543365,0.29626673,-1.0488816,0.1537763,0.18504243,0.38824335,0.95322716,-1.0632138,-0.12364545,-0.505361,-0.27188396,-0.9608915,0.377707,0.8376918,0.8884215,0.88457906,-0.047967453,-1.030763,0.8924218,-0.7990574,-0.47010902,0.7499782,0.351803,1.0282218,0.83484554,0.45963943,1.0402893,-0.39059716,-0.29425076,-0.42086202,-0.19128105,-0.2982472,-0.87614715,0.1610421,0.7587835,0.3511868,-0.41888303,-0.4170378,0.71808124,-0.2162266,0.525751,0.872964,-0.9658509,0.66699576,0.41501516,0.5375994,-0.13636163,0.4272446,-0.39476088,-0.6916485,0.8896926,0.43332794,-0.082304426,0.720322,0.226266,-0.7172266,-0.92013407,0.059659872,0.17343166,-0.7884461,0.48074728,-0.095109075,-0.63965154,-1.0839496,-0.37546024,0.51738334,0.80166054,-0.6278324,-0.035666432,-0.5535784,0.9656077,-0.7684507,-0.25906378,-0.5240764,0.76957107,0.6569223,0.40717408,0.2296605,0.67042404,-0.68511266,-0.5784938,0.9660516,-0.17137945,0.7569447,-0.36533317,0.14066765,0.7756194,0.5181762,-0.079713054,0.709163,-0.426487,-0.53726155,-0.017966688,-0.5207506,-0.27360952,0.935427,1.0359755,-0.6254073,0.20088999,0.59231263,0.3364616,0.34298772,1.0050211,0.57398546,0.581522,-0.26207176,0.9075293,-0.007440195,-0.79121864,0.4863677,0.6901895,0.07279382,0.23313737,-0.72622687,0.31559026,-0.8216978,0.2657271,0.40170693,-0.9748993,-0.20008443,0.8783828,0.5448519,0.28959507,0.21785821,0.7455119,0.9670794,0.6004284,-0.36032245,0.16753446,0.020644614,-0.8032192,-0.80802524,-0.47842526,-0.9158985,-0.07519679,0.8176809,0.6771186,0.5247243,-0.48742202,-0.4453378,0.81668115,0.8671721,0.057137243,-0.34884322,-0.4537812,-0.92062867,0.49635223,-0.8839063,-0.101377375,0.5083033,0.3686149,-0.23404284,-0.1182812,-0.06501913,0.18316564,-0.49978483,-0.75721234,-0.8523049,0.1547203,0.11062599,-0.48069707,0.002806075,0.7336525,0.896252,-0.7633155,0.33604938,-0.6544509,0.5871308,-0.8602329,0.46624818,-0.282023,0.70322716,0.52320457,0.8424474,-0.14299059,-0.34246156,-0.9070253,-0.6163561,0.47264805,0.8770181,0.023779774,-0.7628783,0.0639429,-0.708543,-0.1256568,0.58022416,0.5798378,-0.8944972,-0.74639815,0.5995164,0.14726767,-0.18165772,0.35740027,-0.81086683,0.0650005,0.77143544,-0.35359365,-0.07479412,-0.69426656,0.29347715,0.85465264,-0.08316055,0.35570297,0.72737956,0.042900138,0.5621092,-0.5086194,1.0214688,0.87576425,0.9912851,0.3671603,-0.775968,-0.8277765,0.7702807,0.85217714,0.08246952,-0.81723714,-0.005889847,-0.43667322,-0.37687466,0.5663919,0.98043364,-0.38426587,0.61609817,0.300388,0.42389476,-0.0064774784,-0.6883402,1.0202985,1.2026912,0.43675676,-0.1348463,-0.36087123,0.791618,-0.68307525,0.9863795,-1.0474905,-0.3867388,-0.58752006,0.047088467,-0.0829012,0.1471675,-0.3021934,0.70733464,0.104334496,-0.686932,-1.0007012,-0.44871232,-0.95856744,0.76666534,0.32006168,-0.41116217,-1.0336559,-1.0984782,0.56688774,0.7174119,-0.24544966,-1.0620381,-0.1496088,0.14431234,0.37805358,-0.9767167,0.31463006,0.050843414,0.000435872,0.3266667,0.35731325,0.43034953,-0.3529995,0.69762456,0.817407,-0.44745812,0.36280456,-0.6679473,0.37959978,0.15951332,-0.1293874,-0.35520658,-0.50619483,0.9710046,-0.54360217,0.7414902,-0.6848589,-0.6886601,-0.5894342,-0.5132504,0.9581865,-0.341715,0.9960842,-0.4438842,0.0598099,-0.7396439,-0.40681356,0.36434212,-0.37067947,-0.90000874,0.62385416,0.40693095,0.53715664,-0.5142912,-0.8451823,-0.41641748,0.19407281,-0.29652002,0.07195202,0.5577699,0.9606065,-0.3992769,0.026624722,0.4335017,-0.8466229,0.15864569,-0.1667086,-0.48162413,0.56436604,0.012569119,-0.8341375,0.3816429,0.26365742,-0.26040667,-0.773109,0.7961827,0.5756262,0.8036915,0.09415036,-0.088073276,-0.42339885,0.35986686,0.4283017,0.82051045,0.053650342,0.46482852,0.59456044,0.28542474,-0.17916743,-0.57810575,0.96240526,-0.22117859,0.67259616,0.3155501,-0.8541976,0.26420859,-0.38330293,-0.7588347,-0.33062324,0.82758236,-0.79987097,-0.45731843,0.6631394,-0.9291198,-0.013710003,-0.07210244,-0.65801543,0.16865134,0.5870449,-0.3062057,0.4210525,-0.46429405,-0.80452687,-0.13523482,0.56943446,-0.33338457,-0.30824,0.02385753,0.8428318,0.057148837,0.3355682,-0.7534016,0.2876662,-0.32838625,0.7070695,0.03320379,-0.50790185,-0.36968184,0.7831457,0.3403277,-0.6094579,-0.49402592,0.49577957,0.8076639,-0.10617528,0.7175409,0.81242377,0.8036331,-0.21800736,0.7485012,1.0186067,0.14897066,-0.88546944,0.28203037,0.5384253,0.6726798,1.0488546,0.6612153,-0.7431988,-0.44688705,-0.75289226,-0.6243129,1.1186016,0.50780123,0.5021849,0.3980659,-0.5728228,0.75339067,1.1199306,-0.67846924,-0.66406286,0.80071133,0.33521163,0.8319829,-0.4539713,0.3401431,-0.06947254,0.048151832,0.926955,0.7009874,0.010679292,-0.20182385,-0.07034833,0.9893508,-0.014280622,-0.4259273,0.63984954,1.057338,-0.08157655,-0.6635183,-0.38603583,0.80867517,0.34243006,0.65881896,0.69765925,1.112724,0.22384407,0.059298046,-0.39820066,0.5968715,1.320653,-0.1549521,-0.054016232,1.2548873,0.26536247,0.97475016,0.28707373,0.82942647,0.83296436,-0.3092021,-0.06647096,0.6922375,0.15738785,0.12717289,-0.020935725,0.03748499,-0.36415106,0.6087624,-0.8349006,-0.8474918,-0.6455312,0.8294917,-0.5569979,0.639497,-0.3608962,-0.59612525,-0.98836905,0.1419125,0.81617975,0.5167824,0.42035168,-0.36036137,0.38426495,-0.06250848,-0.49378273,-0.7432599,0.042540845,-0.83465064,0.3847452,-0.058308758,0.10390815,0.73287493,-0.6634386,-0.58252394,-0.570146,0.4351958,0.13012803,0.357985,-0.60733694,-0.9066242,0.43887928,0.4364374,0.5848585,-0.5719294,0.923527,-0.05614552,-0.3673367,0.5316578,0.9000495,0.05504552,0.9933434,0.4125003,-0.35441533,-0.38352764,0.06876463,0.68880683,-0.47277918,0.384949,0.1490156,0.6342022,0.9965255,-0.9323683,-0.5102208,-0.7725527,0.38087365,-0.06876965,0.4548557,0.6591047,-0.9174849,0.07041778,-0.20783313,-0.7001521,-0.24791078,-0.18319592,0.70079124,0.13119492,0.12884264,-0.5978185,0.8436725,0.24283555,0.9209439,0.3993616,-0.7150962,-0.55568105,-0.20408434,-0.35232925,0.6765418,0.597546,0.76857084,0.5892397,0.13274384,-0.93066686,-0.33380455,1.0021644,-0.031141166,0.63172656,-0.21690123,0.1343744,-0.4102555,0.3008901,0.2870556,0.31181374,-0.42434222,-0.52419883,0.2390825,0.31549597,0.22290066,0.03176085,-0.91383046,-0.630214,0.7695153,-0.012144778,0.9938683,0.62177837,-0.34473634,0.83172315,-0.87034905,0.85853136,-0.17558822,-0.16735664,-0.26107544,0.78421664,-0.43759534,0.64566785,-0.9893374,-0.78880334,-0.29248276,0.7293378,-0.25198454,0.8939578,-0.3564825,-0.60143423,0.48685718,-0.5374087,0.6112627,-0.24596885,0.46544346,0.04927719,-0.20986113,-0.110096134,-0.80828327,0.8599941,0.18269114,0.7628564,0.554787,0.11857526,-0.3821722,-0.89453804,-0.3143783,0.6437555,0.7414893,-0.0856649,0.52863014,0.43874815,0.076783106,0.40716887,0.23569871,-0.30340636,0.7397672,0.02921019,-0.2655875,1.0359497,0.49080446,-0.55963725,0.70358646,0.23952687,0.06973788,-0.36717895,0.8234676,0.7962683,0.22366887,0.35006458,0.2851309,0.41573724,0.559424,0.8299864,-0.58952737,0.18366383,0.451007,-0.48608053,0.17599902,0.68653446,-0.16694988,-0.22567603,0.60606724,0.609475,-0.4611995,0.8818614,-0.34424996,0.7404328,0.70480734,0.028747074,0.33223522,1.1669748,0.94890547,1.0360686,1.0415369,-0.62445265,0.7872155,1.2387826,-0.28966662,0.6101608,0.5917286,0.034534793,0.69119585,-0.11017408,0.6308924,-0.45629117,-0.09487192,0.21091332,0.5843664,-0.97759277,0.563206,0.73262763,-0.116730325,-0.6983973,-0.27941984,0.8292624,-0.8666491,-0.78831077,0.5859628,0.36641762,-0.17631918,-0.9188229,-0.23378037,0.011369161,0.03744669,0.677512,0.27194214,0.5476194,-0.6953719,-0.15274672,-0.76000047,-0.19563903,0.005541591,0.27328157,-0.117393985,0.38743907,-0.19072662,-0.34728703,0.60200536,-0.5659619,0.162123,0.07636536,0.6426229,-0.9194871,0.67427915,0.3932259,0.4434944,-0.8781516,0.011692043,0.69299877,-1.0896478,0.14399232,0.1689406,0.6695632,-0.15999284,0.70631534,0.269996,0.37821507,0.29103753,-0.31935722,-0.38160893,0.74559045,0.0008941158,-0.520678,-0.16429101,-1.0925103,-0.5705527,-0.65834904,-0.12916465,0.47094044,-0.3929118,0.66488564,0.10322985,0.08606041,-0.4780997,0.94538665,0.7224834,0.6053872,-0.07530578,-0.9934099,-0.795241,-0.41999257,0.09255268,-0.3252769,0.40721324,0.13212195,0.17949286,-0.30479315,-0.64131504,-0.035610907,-0.099321276,-0.07293674,-0.79210335,0.3123453,0.86657625,-0.078936145,0.15219201,0.552598,0.36596215,0.5545139,-0.7184141,0.08482766,0.5374624,-0.2960216,-0.47729263,0.58893543,0.65659463,0.61044705,-0.6965293,-0.82630587,0.60139245,0.46300662,-0.6855522,0.10626933,-0.9115282,0.30350643,0.21379103,-0.78374106,-0.070655294,-0.097670496,-0.9185033,0.5587194,-0.9305681,-0.86257935,0.6128273,0.8285632,0.7781514,0.5453865,-0.05196634,0.3030664,-0.90230995,-0.2737992,-0.38900274,-0.0050040344,-0.4994796,0.6366482,-0.40755665,-0.96359164,-0.7786022,0.754693,-0.8792419,-0.008270316,-0.2885331,0.22609113,-0.2614754,0.82340455,-0.1858815,-0.21278569,-0.60188985,-0.071516246,0.6836598,-0.009729628,0.0677429,0.5948644,1.0324051,0.40429503,-0.25597146,0.5465317,0.3145253,-0.3198631,1.0210881,1.0345601,-0.092972584,0.25906795,-0.69258463,-0.24368468,1.0800442,0.6085126,0.48961574,0.042210855,-0.035392728,1.0693072,0.7191636,-0.34743127,0.24460283,-0.8794504,0.60772675,-0.43346134,0.26791403,0.48999572,-0.62978184,-0.086409405,-0.7688604,1.22147,1.0275884,0.5211079,0.83846474,1.0161433,1.0458256,1.2488016,1.0318035,1.1120764,0.34031418,-0.45479503,0.36116967,-0.49658522,-0.3984189,-0.548134,-0.23683938,-0.21109384,0.073761195,-0.6486217,-0.76327145,-0.40224996,0.51445353,0.9220219,-0.4585474,0.77113926,-0.48133588,-0.799792,-0.06303542,-0.7059377,0.52722794,0.61860496,-0.28789988,-0.46931112,-0.7642799,0.42480895,0.04342476,-0.7657641,-0.63526636,-0.68879795,0.44712347,-0.51525235,-0.043080218,-0.12251654,-0.38777053,-0.17401634,-0.99152887,0.20924574,-1.0187106,-0.57223755,-0.55121833,-0.9593601,-0.6302696,-1.1461264,0.62663335,0.64550567,0.20302032,-0.18192255,-0.87261844,0.25580823,0.54423547,0.41913506,0.45333353,-0.9322917,0.019686822,-0.35044912,-0.8444938,0.6160632,-1.0631217,-0.7657163,0.7138787,-0.36232498,0.0721294,-0.92515045,-0.30674732,0.8011714,0.7327504,-0.65413785,0.72807056,0.4850634,-0.4826622,-0.3709277,-0.3381187,-0.8730438,-0.12206845,-0.54949856,-0.98134667,-0.5804481,-0.864665,-0.8290382,0.1913145,-0.16456966,-0.8970387,0.2921588,-0.56008,-0.8122897,-0.49171022,0.32337514,0.21087992,0.36771473,0.6489952,0.2426202,-1.0438681,-0.027858391,0.44918892,0.16319683,-0.46942148,-0.8995544,-0.2783481,0.17880265,0.3817096,0.06583163,0.47958496,-0.9033942,0.52375424,-0.34256393,0.6638768,0.973187,-0.94612116,-0.7822069,-0.7001574,0.13723604,0.10470847,-0.3346816,-0.42154792,0.77934134,0.105339885,0.86328447,-0.8795793,-0.5612771,-0.89431804,0.8611793,0.29735336,-0.8482978,-0.22306657,-0.3796176,-0.37002873,0.5079618,-0.19735621,-0.3449045,0.052353296,0.45193914,-0.5181991,-0.9243209,-0.27667797,0.20289247,-0.62392426,0.2698231,-0.33516327,-0.99684316,0.9188955,0.84380627,-0.87566775,-0.688711,0.035902653,0.6406976,-0.75100136,0.25607118,-0.37029973,0.68663806,-0.8049264,-0.22154109,-0.8862741,0.3230906,-0.53645384,-0.2240093,0.7270643,0.2084841,-0.46980911,0.64678603,-0.33585146,0.88128895,-0.8051751,-0.96894056,-0.08938084,0.6489238,-0.10149906,0.51123416,0.4628211,0.25067404,-0.6984983,-0.40658313,0.42766032,0.35079405,-0.7419362,-0.0072283135,-0.37208587,0.9390199,-0.34553784,-0.081299335,-0.7960297,0.5024474,-0.52026016,0.13521676,0.06014735,-0.022313504,0.73521745,0.58017856,-0.81500864,-0.69326377,-0.69048876,0.938472,0.38429272,0.0849581,-0.84131366,0.56453574,0.021323958,-0.82100385,0.38459662,-0.315738,0.37056738,-0.6755397,-0.37840363,0.052463826,-0.4458593,0.8740085,0.7779373,0.8533498,-0.4097895,-0.531377,0.118527174,-0.30241233,0.20095025,-0.8638269,0.63778424,-0.3445986,0.21853793,0.35110998,0.47994575,-0.4829485,0.18814386,0.29304036,-0.07826066,0.36310548,0.30371928,0.4374233,-0.7708667,0.30899128],[0.09353795,0.830757,-0.31046534,-0.34081036,-0.78463763,-0.9810382,0.9252333,0.83299947,-0.116809525,0.3954904,-0.942138,-0.9054297,0.7222043,0.2325051,0.15657367,-0.029426156,-0.70759404,-0.55915046,0.25071618,-0.40326032,-0.17660774,0.29348677,0.35985655,-0.26901436,-0.63856775,0.24640931,0.1577944,-0.595617,0.32498756,0.3267178,0.005766764,0.20222063,-0.105219744,-0.16769959,-0.13526095,-0.3433339,-0.87552416,-0.63967216,0.19270338,-0.7282762,-0.29964656,0.71041393,-0.7653378,0.85215527,0.39513853,0.052499708,-0.13595659,-0.78806573,-0.21613209,0.6978767,-0.9294184,-0.2753046,-0.9707283,-1.0211372,0.55017036,0.019540766,0.20786993,-0.22163905,-0.08460787,-0.46699417,0.16372482,-0.58274895,-0.3095817,-0.29391095,0.14545035,-0.89777344,-0.39089736,-0.15197632,0.22067225,-0.56260055,-0.66688037,-0.5015041,0.85838044,-0.496498,-0.7640409,-0.60282314,-0.26884228,0.8355359,0.5560146,-0.48522413,0.3453151,-0.651736,-0.12267747,0.00017361023,0.8129902,0.7443269,-0.3145344,0.6201391,-0.655744,0.8488672,0.5288575,-0.13231564,0.7991469,-0.21669102,0.17910029,0.16807541,0.5149592,0.68289304,0.18092014,-0.22122976,-0.26933455,0.80231893,0.3229641,0.098582886,-0.122993186,-0.22420955,-0.2270471,0.6146554,-0.33817962,0.8729553,-0.57260305,-1.0646956,-0.95949036,0.121197894,-0.7964571,-0.29583645,-0.9636279,-0.42641586,-0.97062445,-0.0508112,-1.0420188,0.48399207,-0.008019188,0.24201927,0.810214,-0.5519018,-0.30254102,-0.3987805,0.8416272,0.6866125,1.0338799,-0.8760346,-0.27288705,0.9811959,0.18181822,0.37916595,0.9234779,-1.0321904,0.052635953,-1.0445722,-0.98790157,-0.15002942,0.37455174,0.99622375,0.9615602,0.3641153,0.9033722,0.68633014,0.7599588,-0.8751398,0.8604497,-0.4887596,-0.7370738,-0.6151301,0.42195135,-0.08864549,-0.04893793,-0.24779722,0.8213426,-0.50728744,0.17702664,0.9805329,-0.009385545,0.0967686,0.5036964,-0.4274171,-0.6060885,0.550207,-0.86765665,0.64567477,0.52270955,0.3307908,0.21563265,-0.49526897,0.7124315,0.4112214,0.59749687,0.8539092,-0.12085039,-0.06751567,0.8056268,0.17597264,0.02580337,0.8259261,0.17731966,0.7821804,-0.572574,0.77717716,0.88256764,-0.480028,0.54413515,-0.91833264,-0.84214616,-0.4169051,0.38062763,0.46812204,-0.45700055,0.65924907,-0.29408312,-0.2890148,-0.6318,0.14903241,0.4125002,-0.95121706,0.8323577,-0.6662953,-0.24980198,-0.20824254,-0.89418423,-0.7873014,0.4951294,0.78925586,-0.11111957,-0.4496108,-0.37057275,-0.9297404,-0.3337798,0.2896,-0.65968394,0.49812555,-0.101557426,-0.94671977,0.17165034,-1.0612683,0.32047078,-0.23492602,-0.48528203,-0.11403161,-0.0033594915,-0.99198854,0.20623115,-0.76963985,-0.33228287,-0.78776515,-0.011707595,-0.19581711,-0.91688526,-0.48898476,-0.6599332,-0.07269785,-0.11402629,0.10708129,-1.1503934,0.60724497,-0.7808613,-0.28945482,0.46649948,-0.2752454,-0.41049096,0.6463075,-0.4972143,0.56374454,0.11338782,-0.87175596,-0.92179847,-0.9275465,0.70857054,-0.9134256,-0.9645388,-0.9474882,-0.8561545,-0.28767052,-0.118507996,-0.23496182,-0.3489829,0.1491653,-0.09021137,0.5836477,-0.48834485,-0.78461766,-0.95785517,-0.25361165,0.021747839,0.2907139,0.8567573,-0.9358986,-0.6241702,-0.17254137,0.7507751,0.46615356,0.67632663,-0.7507421,0.16654941,0.11814206,-0.38180673,0.0059064245,0.3479635,-0.23428176,0.86252373,0.08767934,0.83787346,-0.7212623,0.3823769,0.40838066,-0.059089966,-0.73055685,-0.8097878,-0.58513767,0.5903386,-0.816562,-0.31397155,-0.6121201,0.90546894,0.768928,-0.51380986,-0.9959032,0.34964904,-0.8476166,-0.8655805,0.5078629,0.9719486,0.25970966,0.5549258,0.27794415,-0.9363339,0.49110478,0.34692124,-0.4547262,1.0338792,0.28762788,-0.42060804,0.36308473,0.29869053,-0.10425473,0.7507155,-0.8934423,0.7455998,-0.9105801,0.5676396,-0.043812744,-1.0220217,-0.05066325,-0.66820586,0.21911553,0.23344795,0.77657175,0.5743054,-0.66074634,-0.84536797,-0.07241552,0.89169294,-0.47729304,0.77657497,0.29244462,-0.16174388,-0.37695026,0.54235685,0.52562153,0.81641495,-0.84906626,-0.28688037,0.9675609,-0.92997247,0.28513467,-0.13826635,0.24313067,-0.96820796,-0.6559559,-0.8815241,-0.35568616,-0.3528796,-0.2614157,-0.5150235,0.32620403,0.86694187,-0.85288525,0.10074785,0.8789903,-0.44393045,-0.3467697,-0.38147232,-0.48023275,-0.28645608,-0.13628556,-0.33905828,-0.6962283,-0.24485686,0.97113824,-0.41003603,-0.7314666,0.48500654,0.3865562,-0.10541834,0.07274212,1.0471319,-0.25924078,0.8670132,0.74531966,-0.2984405,0.9655705,0.8232797,0.8364248,0.4602543,0.24036638,-0.8076873,0.74968934,0.50554496,-0.13608022,0.6179723,0.49630046,-0.58674574,-0.45475915,-0.07920828,-0.04948191,-0.5115647,-0.04575553,0.31661823,-0.025131468,-0.554278,0.7820891,0.5729486,0.3936134,-0.49168006,-0.4802443,-0.6967491,-0.47643927,0.57828987,0.67989373,-1.1229613,-0.62368405,0.1923911,-0.6919076,-0.39536226,0.5154021,-1.1232784,-0.59525496,-0.9151693,0.23189947,0.105217576,-0.39852577,-1.0058191,0.7227297,-1.157479,-0.12067894,-0.44352233,-0.7116302,-0.76051587,0.73760116,0.0823386,-0.9603111,0.70019585,-1.262123,-1.1170222,-0.9858385,-0.7162139,-0.28928456,0.08135703,-0.7270921,-1.0319138,0.60499346,0.5411085,0.34331444,-0.34591445,0.33601132,0.5445514,0.24516608,0.0593439,-0.099544235,0.11656388,-1.0064807,0.3010187,-0.61157626,0.46312335,-0.01796578,-0.67364174,-0.70597106,-0.1310859,-1.2185328,0.56682277,0.023390543,-1.1587414,-0.44847342,-0.19147526,-0.25200334,-0.031406034,-0.94385266,-0.05303918,0.16295047,0.26416716,0.27339053,0.3852062,0.0022518043,-0.0053043664,0.58038664,0.16214192,-0.65502656,-0.065811306,-1.1004844,-0.21112695,-1.0080317,0.08989714,-0.5939952,-0.011726063,-0.7806574,-0.13461667,0.7369191,0.98086464,0.083085686,0.85852295,-0.6511233,-0.32185027,-0.2615498,-0.2096227,-0.41964504,0.0641841,-0.45964727,-0.5376619,-0.02709185,-0.89693654,0.6172468,-0.41080198,0.91098326,0.79189825,0.6698159,0.3897799,0.69600296,-0.7104695,0.19363382,0.6445803,0.23395994,0.64688325,-0.43797514,-0.30425885,0.16485032,0.13420676,-0.5916222,-0.83639127,0.15701197,0.18867896,-0.8304143,0.9800669,-0.33520097,-0.8351362,0.3530612,0.9429872,0.7554069,0.74361396,-0.15282346,-0.8961213,0.31059042,0.5075744,0.32721993,-0.56411225,0.33952582,0.8841401,0.6257304,1.0849882,-0.8025473,0.34751832,-0.5975596,0.295219,-0.650259,-0.33234268,-0.14924926,-0.09141963,0.8120758,-0.8334973,-0.24527124,-0.46445474,-0.5757677,0.464934,-0.3516003,0.41325343,-0.5709731,-0.89609724,-0.8945549,0.4956838,0.6560072,-0.35366997,-0.8577937,0.06977621,-0.50293005,0.30654234,0.50606614,-0.06722563,0.70928365,0.61047137,0.89757,0.056991007,0.04550331,0.45485705,0.44836012,0.62917405,0.22191377,-0.70246583,-0.8839028,-0.45944622,-0.8280723,0.6805179,0.33528614,0.35326934,-0.8117806,-0.15300603,0.61997944,0.58727884,0.5175357,-0.9464615,-0.39724195,-0.63807404,-0.3688358,0.77823,-0.82629937,-0.19999671,0.9214163,-0.44165647,0.5865279,0.90158373,-0.69096744,0.13703868,-0.7078795,0.13508415,0.34129727,0.1362722,0.49445507,-0.79328847,-0.7637262,0.58834016,0.64854854,0.4519675,0.00092710607,1.056738,-0.1369309,0.46284965,-0.5194789,0.65644175,0.326798,0.6470666,0.22567451,-0.48010018,0.30714795,-0.7704228,0.36771497,-0.0054831835,-0.22557701,-0.37637877,0.68283635,-0.08491218,0.72159874,0.063905135,-1.1185123,0.14248985,0.5383413,0.5010798,0.16599387,-0.53101313,-0.5159021,0.77775234,0.48745263,-0.06482144,0.56140816,-0.16036265,-0.8911276,-1.1027496,-0.66527516,-0.18676099,0.13263054,-0.5792667,0.8591246,-0.47307372,-0.2595748,-0.24877629,-0.5793723,0.37186074,-0.7443411,0.6250516,-0.3262671,0.6451864,0.8048068,0.5450487,-0.866803,0.8955197,-0.06419883,-0.26912874,-0.42673397,-1.1666336,-0.25118658,0.010184293,-0.8266704,-0.67659855,0.23478168,0.07564672,0.32585722,-0.5744873,0.39808992,0.13458784,-0.30355895,-0.3332184,-0.5045945,-0.035147738,0.9648759,0.086646646,-0.34102878,-0.97838986,-0.6077167,-0.011689415,-0.39624837,0.5075268,-0.4749673,0.5516804,-0.23559652,0.04898141,0.9295009,0.070034735,-0.6595691,-0.45511377,-0.6401406,-0.058235068,0.9087061,-0.8259133,0.26999414,0.56468123,0.6722844,-0.08911762,0.16681167,0.6245398,0.84967697,-0.036968205,0.82704437,0.74171615,-0.059907228,0.830221,-0.21115519,1.013617,-0.21924765,0.56908923,-0.6018788,-0.040182985,-0.4473497,0.90170944,-0.44478196,-0.4936526,-0.5277964,0.6345886,0.63209385,-0.6567119,0.7977768,0.037712693,0.9932036,1.2119533,-0.40969416,0.93247306,-0.2212818,0.08459392,-0.71715826,-0.8142308,0.42083228,-0.77581835,-0.8149599,-0.516284,0.63752794,-0.28956664,0.21236596,0.6436349,0.37230268,-0.756301,-0.79121286,-0.48699328,0.27540982,-0.58554393,-0.2988999,-0.28723487,-0.21389379,0.2093427,-0.4183032,-0.54817355,-0.78276545,0.07569185,-0.86843383,0.7698935,-0.12819788,0.25170422,-0.09121867,-0.24433656,-0.72775894,-0.6141126,0.48685497,0.978889,0.91068166,0.9635591,0.10579133,0.7205315,0.0813843,0.7086211,0.68695974,0.3813414,-0.954448,-0.0104097,0.4949083,0.35098985,0.30130368,-0.38817862,0.43061304,-0.31055585,-0.46493033,0.70250404,-0.018803516,-0.30696473,-0.11826996,0.90080404,-0.7545979,0.18277784,-0.44414628,-0.35581282,0.5059869,0.61960375,0.09519152,1.0429953,0.2863977,0.7896708,-0.90444165,0.9175492,0.61230946,-0.7289496,0.8873221,-0.8371522,-0.5042633,-0.31579968,0.7434168,-0.8566736,-0.6547271,-0.7706109,0.3574101,-0.1408247,-0.9208203,-0.7178136,-0.43205264,-0.08932046,0.14958952,0.921884,0.81079227,0.7200109,-0.53527814,0.026885467,-0.13865831,-1.0327337,0.004839764,0.45781118,-0.30078924,-0.99345505,-0.38526306,0.5987059,0.5668872,0.14549465,0.1058107,-1.0331345,-0.60682255,-0.7716837,0.5304024,-0.47521487,-0.8606573,0.6758847,-0.9570593,-0.15919414,-0.30673972,-0.58291316,-0.31942102,0.8845586,0.44481844,-0.55261064,-0.8410345,-0.56830513,0.73326993,-0.9074914,0.5877479,-0.934102,-0.07091559,0.14551099,-0.8375946,0.8959459,-0.09264807,-0.04652072,0.35309508,0.26230842,0.23324522,0.7264845,0.6130528,-0.34536618,-0.03940976,-0.62179494,0.06046062,0.9421192,-0.8564715,-0.041234475,0.5336571,0.06410358,0.5351287,-0.00024796702,0.42881003,0.60359347,0.2761228,0.078741096,0.267235,0.9895912,0.40663618,-0.9536939,-0.83957875,0.6552845,-0.98222446,-0.8155851,-0.8688305,-0.038993154,-0.91001534,0.014820789,0.31804666,0.88104653,-0.27877557,-0.32526186,0.90922064,0.29437694,-0.0862872,0.51659536,0.24774276,-0.98526114,-0.6345743,0.43043587,0.868417,0.32278407,0.76994145,0.48820618,0.92708355,0.2502431,0.61614436,0.42216086,0.03037631,0.19149932,-0.5493842,0.7893955,-0.54553294,-0.17525093,-0.37747863,-0.91578794,-0.36324888,0.7855475,-0.09544692,-0.38377482,0.8896809,-0.19806731,-0.5313024,0.3258431,-0.2799463,-0.78023225,0.9114687,0.7114468,-0.5076106,-0.19545923,-0.88973206,-0.88242054,0.68440884,0.62642807,-0.14465249,-1.0363117,0.8139501,0.62242454,-0.3679623,-0.25046343,-0.8773173,0.80280167,-0.15908831,0.4821732,0.43904102,-0.2045912,0.61038655,-0.09543899,-0.28860527,0.48169705,-0.4721727,0.7788122,-0.09664176,-0.35468647,-0.33604145,-0.22667247,-0.64034027,-0.21570054,-0.9036366,0.8053644,-0.4977187,-0.9460503,-0.3162887,-0.32932454,-0.15854922,0.32500497,-0.5761944,0.07840267,-0.64491284,-0.08197118,-0.41279608,-0.61641896,0.676618,0.035351872,0.09958448,0.63510776,-0.59229314,0.7389725,-0.30296183,-0.21965122,-0.26760703,-0.48454222,-0.19221336,-0.22882584,1.0617257,-0.8936616,0.8980309,0.39855027,-0.44602576,0.41123983,-0.5502964,-0.12828597,0.07856758,-0.93471384,-0.8539599,0.09804958,0.21876968,0.7371695,-0.57850057,-0.4356678,-0.79469246,0.40269712,-0.2779028,0.54244787,-0.46275246,-0.83209944,0.6775565,-0.41248512,0.8657936,0.19619037,-0.63601595,-0.88390625,-0.7371888,-0.7213569,-0.39584213,-0.45524105,-0.49415523,-0.6090848,-0.21651068,0.8873586,-0.19805135,0.40476584,0.32333958,-0.086737886,0.7463543,0.44935942,0.13283716,0.18448873,-0.19377321,0.5340393,-0.20271423,-1.0595887,-0.23691529,-0.26953796,-0.341747,0.8891559,-0.1312013,0.1047052,0.4166916,0.11359557,-1.0272814,0.92673665,-0.2588426,-0.5067094,-1.0301292,-0.8911884,-1.0101895,-1.0080132,0.4707011,0.726004,-1.00787,-0.9455317,0.038353883,0.7417786,-0.7174365,0.17136915,0.2944117,0.41747984,-0.0037863755,0.3523191,0.43864238,0.78319746,0.5352949,0.8535246,0.39583328,-0.41583413,0.27417463,-0.86404806,0.81557596,-0.6163772,-1.0468915,0.18907252,-0.7223307,0.064881966,-0.6552518,0.5290236,0.05327563,0.30934075,-0.78086805,-0.27818286,0.59018034,-0.24294813,0.27352995,0.37080005,0.01197727,0.5561779,0.55861515,0.5938386,-0.0024913242,0.3555014,-0.31154862,0.6328868,0.13812673,0.27944455,-0.70308685,-0.014658294,-0.096756406,0.85014457,-0.7478462,-0.5091607,0.38552576,1.0157946,0.24774109,-0.26924738,-0.896883,0.328792,0.8143923,0.43693942,-0.24183965,-0.8457309,-0.72284174,0.438699,0.7946063,0.66090894,-0.78636545,-0.058930174,0.17534941,-0.22872351,-0.79315364,0.95195407,-0.58460516,0.3426386,-0.28132573,-0.20180579,0.5679103,0.46853778,0.35444674,-0.327125,0.34151635,0.5619004,1.0343677,0.42453513,0.7754133,0.28394634,-0.80365187,-0.9452942,0.45563668,-0.098817416,0.4765996,0.36316264,0.7705978,0.46329537,-0.49533436,-0.83016294,0.035117496,0.27609423,0.4189742,0.32281858,-0.985824,-0.57509965,-0.3795435,-0.37577823,-0.2653058,-0.1568299,-1.0034636,0.24739894,-0.14201695,0.33597463,-0.58497953,0.3526364,-0.2194581,-0.8339583,0.06510316,-0.6924003,0.9169309,-0.12166295,0.19312227,-0.5910218,0.9098132,0.4546687,0.41603243,-0.8068894,0.59936947,-0.6979372,0.22710983,-0.6884537,0.17345613,1.0512381,0.786866,1.1676812,-0.048225407,0.13376777,0.41224185,-0.08738638,-0.52035934,-0.9283013,0.9462422,0.47157973,0.5635161,-0.810063,0.068899035,0.398085,1.1518978,0.7365521,0.8489147,-0.7268598,0.5340026,-0.41868633,-0.14561304,0.6932166,0.29336277,0.79978865,-0.23113424,-0.7913574,-0.6924016,0.5368918,-0.6933957,1.0242548,-0.41355473,0.09238577,-0.7842721,0.8997818,-0.50008696,-0.5793617,-0.89436775,0.8002722,-0.711725,0.79937476,0.49235356,-0.16273235,0.53362906,-0.75137657,0.79225504,-0.24677414,0.13321573,-0.60726565,1.0057563,-0.0453933,0.8611915,1.1661968,-0.048647754,1.0188664,-0.2548151,0.926473,-0.19458131,-0.08282092,-0.6682896,0.69220847,0.081022166,0.9573323,0.8840948,0.40032542,-0.07548256,0.30162606,0.3065517,-0.985801,-0.8357156,-0.64456546,-0.81776446,0.067248635,0.15923926,-0.76203823,-0.7768812,0.29305682,-0.6108896,-0.09064386,-0.37369728,-0.17274754,0.6272125,-0.5288596,0.2823723,-0.29892424,0.2845497,-0.27696675,-0.03670641,-0.265685,0.13114175,-0.22115019,-0.15453625,0.13486397,-1.1534579,-0.13023168,-0.42255726,0.63432306,0.634782,0.5948265,-0.47963858,-0.34596363,0.48194695,-0.40721095,-0.012270223,-1.0020546,-0.8421973,0.9843356,-0.3294669,0.8538171,0.6159817,-0.07893742,0.7853556,0.81758696,-0.021183927,0.6174993,0.638358,0.81235576,-0.36361527,0.8848502,-0.68300587,0.8534795,0.24891555,-0.76905906,-0.6999942,-1.0312039,-0.60881644,0.29559934,-0.1114195,0.87877405,0.61543554,0.8449856,-0.84929943,0.86919117,-0.49148738,-0.13351056,0.37694648,-0.080725774,0.08772049,0.28915003,-0.11125129,-0.29558274,0.51817536,0.23274724,0.034325756,-0.5272366,0.11402855,0.49748006,0.7734749,0.93077016,-0.35236484,-0.47689456,-0.31398472,0.9992701,-0.94389886,-0.5528202,0.8664349,-0.7942222,-0.6659724,-0.9010916,0.018794706,-0.29521564,0.3445093,-1.0733871,0.69556135,0.26163357,0.62177587,-0.5811971,-0.19808328,-0.014542604,-0.08377409,0.5797002,-0.8577102,-0.61154586,0.07765772,0.17023687,-0.23691311,-0.6524525,0.4919508,-0.68172437,-0.2959646,-0.8586445,-0.75926447,-0.4185456,0.2844851,-0.3003218,0.67690873,0.052513633,0.20446706,-0.83534306,-0.5541756,-0.48079735,-0.88153577,0.519805,-0.21693684,-0.2435871,1.0017487,0.054881178,0.09816843,0.9921874,1.0135608,-0.31937903,0.46369362,-0.7059047,0.7784549,-0.62874824,0.47371492,-0.425833,-0.6644552,0.4047195,0.4286107,0.0071619754,0.75441945,-0.3507708,-0.43757793,-0.44723907,-0.48053458,0.25590533,0.83974737,0.21493883,-0.32072496,0.017846424,-0.6819708,-0.3711597,0.32661882,1.0084915,-0.63657534,0.7010047,-0.87343544,-0.7764751,0.92389596,-0.18858153,0.36758482,-0.3246985,-0.572149,-0.1787736,0.36365664,0.737837,-0.553316,-0.60192025,0.701023,-0.6341312,0.43118414,-0.3927435,0.54880005,0.7304377,-0.7175683,-0.24034512,-0.8444985,0.40707308,0.307393,-0.5972454,-0.67781174,1.0822928,0.6513869,-0.7006242,-0.70026886,0.6275964,-0.68934035,-0.31238192,0.58142155,0.3428718,0.82781947,0.4629018,0.5147536,0.7907617,-0.012773675,0.24506539,-0.22604577,0.26548687,0.33670637,-0.7215857,-0.17909048,-0.27689114,0.7369683,-0.74162555,0.7872234,-0.3852546,0.5347188,0.5828841,0.9051699,-0.20408499,-0.95663595,0.4987431,0.43510696,-0.11257103,0.38684013,-0.4707325,0.70864415,-0.18917646,-0.17491986,-0.2966847,0.35030642,-0.17255706,0.045013055,0.7284511,-0.7178532,-0.4876611,-1.1256391,-0.6705545,-0.36066023,0.354874,-0.575797,-0.28133813,0.3548724,-0.33388343,0.6672764,-0.64053833,-0.8340184,-0.09201577,-0.2965657,0.45366558,-1.0330439,0.18490276,0.1801716,0.14480035,-0.24479082,0.7770297,0.3422979,-0.390777,0.1857914,0.1720116,-0.17659235,0.46722186,-0.5929043,0.3132792,0.70573616,-0.86355877,0.30878404,-0.37387767,-0.7225404,0.7086024,0.13648462,0.029305786,-0.7870956,0.46650693,0.20753218,0.07969383,-0.49066827,-0.7816078,0.07925192,-0.35639393,0.04051281,0.7783941,-0.48520187,0.74638706,0.84491026,0.5663622,0.27025586,0.0538307,0.059196293,-0.50660056,-0.3112568,0.8557406,-0.023307828,0.6789995,0.6285096,0.31005934,-0.6048929,0.3185275,-0.49072987,0.79331636,-0.8997517,0.32750717,0.8178586,-0.23651129,-0.16167535,-0.96783864,0.7894677,0.9304738,-1.0513439,0.32811823,0.7814814,0.5048177,-0.3357219,-0.4854073,0.74059385,0.32233566,-0.32177475,0.046007615,0.13377701,0.38421196,0.30575353,0.65289575,-0.4140885,-0.43010437,0.18443437,0.36241096,-0.25640187,-0.2575617,-0.09747939,-0.95378983,-0.42082664,0.4060233,0.37871063,0.2679272,-0.27951065,-0.26278508,-0.41263315,0.51396954,0.540751,0.037364177,0.89256394,-0.047048215,-0.3096223,0.26797035,-0.89590436,-0.087350465,-0.7965486,0.13878499,-0.49155024,0.1273195,-0.71879524,-0.061004132,0.28073445,-0.9660462,0.23651461,-0.086536676,-0.70581734,0.70713544,-0.16062403,-0.35190234,-0.013365353,0.731895,0.6645404,0.90958285,-1.0662713,-0.30193156,0.34123415,-0.64267457,0.37038884,0.6552533,0.9438488,-0.85452986,0.45364997,1.0573943,0.18206055,0.40100878,-0.77980876,-0.9733676,0.6195799,-0.13747449,-0.7885125,0.6592774,0.7504194,-0.9528654,-0.7725803,-0.36027476,0.19521067,-0.21541108,-0.27397448,-0.5207117,0.38307178,-0.25126678,-0.08700888,0.18011226,-0.12324923,-0.3615378,-0.7187866,0.5946696,-0.2289722,0.6126431,0.33259195,-0.48694584,-0.32799637,1.0251349,0.35907534,0.46881187,0.06421932,0.6272703,-0.2639309,-0.72815275,-0.06768194,0.08056604,0.5198547,0.26134437,-0.3033736,0.061963756,0.6101447,-0.21709283,-0.31177852,0.6776218,-0.14450656,-0.13148344,0.1996936,-0.23274422,-0.19618815,-0.8286732,0.033547107,-0.22467783,0.07829296,-0.7271947,-0.805195,0.13825798,0.11466374,-0.6935254,0.5932708,0.29755697,-0.1754032,0.2502966,0.24338394,-0.27277693,0.9021,0.89729327,-0.37222388,-0.3778363,0.042623322,0.2971603,0.5886699,0.89864683,-0.1842589,0.3527565,0.46927586,0.44121775,0.83654433,-0.17014346,-0.058592837,-0.91610026,-0.88308805,0.84973586,-0.57746536,0.2631787,0.49053553,-0.22458102,0.7244421,0.006510432,0.7337756,0.3950998,0.0603915,0.5466704,-0.47352636,0.7087226,-0.75421476,0.54084265,0.679603,0.57122576,-0.7976731,-1.0635067,0.3127005,0.16368285,-0.09727603,0.83778644,0.08375124,0.1651752,0.21853563,-0.44557074,-0.29891557,0.15302588,-0.08872698,0.06766376,0.6217721,0.1437891,0.2602576,-0.23122652,-0.66777635,0.2565228,0.44968173,-0.37305546,0.36716494,0.81097776,0.62153983,-0.85263556,-0.025551407,-0.7644663,0.82645476,0.5440545,0.84198993,-0.7661299,-0.24463676,-0.7973426,0.25592506,0.6861206,0.007891129,0.41479152,0.47761378,0.25691018,-0.6099273,-0.780267,-0.17119627,-0.32246146,0.37978137,0.07177722,0.40559804,-0.9227687,0.13994889,-0.07727945,0.6751817,-0.80096906,0.54122967,-0.8230864,0.18886489,-0.36811233,0.0013621398,-0.98988765,0.84264666,-0.8355432,-0.1119906,0.76818496,-0.99151707,-0.6588556,-0.8017911,0.6977049,-0.10035486,-0.8941623,0.72367346,0.7177359,-0.5328858,0.8270393,-0.19779025,0.76751125,0.5562498,1.0543594,-0.64629984,0.51581514,-0.60659933,0.037567515,0.7542916,-0.6505536,-0.4662104,-0.47077283,-0.93030435,-0.2454812,0.30341,0.69900334,-0.17411299,0.49799255,-0.49077606,0.4519451,-0.93705,0.00090862036,-0.34677365,-0.81092215,-0.82148,-0.6366458,-0.97568274,0.2950102,0.104195975,-0.86158526,0.45270115,0.019584827,-0.26553187,-0.7995947,0.3103536,0.92706877,0.558412,-0.93618,-0.2917453,0.69255334,0.44081843,-0.46347263,-0.23488899,0.7409233,0.25043097,0.98925084,-1.0527321,0.6442891,-0.4997972,0.25455123,-0.0384092,-0.21443695,0.3357642,0.45295754,0.016973905,-0.49380234,-0.83440346,-0.80404973,-0.48813123,0.06997561,-0.8723916,-0.5202461,0.06827176,-0.44097558,-0.23664229,0.53531635,0.1620425,-0.8543206,0.3483665,-0.9251292,-0.784893,0.095334746,-0.7418966,-0.8041115,0.7428226,-0.1781621,-0.22408088,-0.074644744,-0.15041417,0.8032266,-1.0493351,-0.1713679,0.68558574,0.19211398,0.048241477,-0.9075644,-0.031810302,-0.035003126,0.38280988,0.2903675,-0.09916181,-0.14664266,0.44513842,-0.6656056,-0.2249333,0.7169298,0.77197593,0.5618607,-0.10771602,0.986585,0.7480835,0.24009351,-0.83431196,-0.09273101,-0.37607187,0.8478125,-0.79160136,0.9249756,-0.08069527,-0.9441085,-0.030612076,-0.41203052,-0.2531396,0.6805303,0.64169437,-0.426709,0.33031017,-0.3682929,-0.75361556,-0.72817904,1.0631835,0.68683064,0.96573263,-0.41754153,0.48373735,-0.37956372,0.23482297,0.5691547,-0.7511859,0.7835486,0.55418503,0.75083685,-0.7886968,-0.7835949,0.042048883,0.10837197,0.604835,0.54454094,-0.98864454,0.8236047,-0.30916876,0.6354482,-0.12143582,-0.837807,-0.17332204,0.73260826,0.062110487,0.06977989,0.4724648,0.031770002,-0.55096287,-0.18916261,0.5734759,-0.8531435,-0.5045753,-0.9872736,-0.6571204,0.96893185,0.6002354,0.16472189,-0.4017328,-0.14290076,0.03508733,-0.8939364,-0.5064883,0.98012507,-0.3666337,0.5610668,0.7205778,0.34022406,0.13604495,-0.81746477,-0.7823214,0.9686541,0.52960443,0.58032197,0.7530625,-0.9402084,0.31551558,-0.8150077,-0.2597978,0.8512299,-0.22747388,-0.86335087,-0.19104119,-0.60070986,-0.8820155,0.71055853,-0.8061226,0.36674467,-0.12441312,0.33854097,-0.72544986,0.8099457,-0.22734095,0.27022532,0.74547243,-0.81441855,0.46535686,0.13140069,0.73489475,0.75003004,0.61870915,0.48350632,-0.8140675,1.0040317,-0.17888907,-0.32224542,0.5897239,-1.0330065,-0.33911195,-0.052631505,0.45848733,0.46867853,-0.6960043,-0.9626324,-0.7448135,-0.38468856,-0.677825,0.8395214,-0.71774685,-0.5359571,-0.01871877,-0.2519462,-0.36434805,-0.59842056,0.24324934,0.31216827,-0.063059725,0.87980384,-0.44472775,0.16665693,-0.026506314,-0.6971294,-0.5658493,0.7408233,0.122264855,-0.5577629,0.6619916,0.6796616,-1.087461,-0.25825572,-0.4740303,-0.7828158,-0.24265769,0.62850106,-0.2916492,0.44445756,0.68581444,0.68020576,0.91005033,-0.85583156,0.17292903,-0.46924865,0.14553608,0.9133977,-0.1982333,-0.27655238,-0.19302692,0.284071,-0.4526397,0.24039672,-0.11904932,0.06245669,0.8882313,-0.60157937,-0.819118,-0.4850448,-1.0885062,0.1798239,-0.041458946,0.1660921,-0.3433252,-0.5581322,-0.430624,0.536039,0.41420168,-0.15574622,0.60599154,-0.040086333,-0.6778158,-0.57825935,-0.84563,0.7610248,-0.3673868,-0.98464036,-0.32847685,0.701705,0.60283446,-0.5228208,-0.622141,0.5218267,0.21653505,-0.20079367,0.23098071,0.4074042,0.76278627,0.80938816,-0.2953642,-0.27600423,0.01517853,0.6982881,0.68257284,0.529793,0.6265354,0.6665208,-0.26476485,-0.015981887,0.040268157,0.5366179,0.71855867,-0.58764195,-0.9624382,-0.69384736,-0.16784847,-0.50538164,-0.8820233,0.24546926,0.8773868,-0.64400023,-0.044108227,-0.034567602,-0.46595797,0.88262856,0.7686983,-0.8934833,0.43758684,-0.655788,-0.843511,-0.48497382,0.20320216,-0.36733004,0.5498134,-0.82723194,0.67879874,0.21957242,-0.12285675,-0.30604702,-0.59807426,0.81834275,-0.6881431,-0.6145429,0.36186406,-0.71450377,0.7836375,0.8282083,-0.6836144,0.5486859,-0.672607,0.33191797,0.9579249,0.76598406,0.94201976,0.7463563,0.6341656,0.6459209,0.5852041,0.18205394,-0.8070215,-0.6379124,-0.20820011,0.72945994,0.4152674,-0.82215244,-0.88051265,-0.30669367,-0.5766442,0.40617782,-0.8044565,0.367541,0.54349196,-0.73288196,-0.28384537,0.9997312,0.48371306,0.54426944,0.5864674,-0.7945682,-0.820302,0.006268739,-0.7070507,0.42542684,-0.5776349,-0.29161257,-0.015899053,-0.5517416,-0.10483074,-0.88056356,0.33898622,0.7391497,0.91153574,-0.074354604,0.084869675,0.35806486,-0.032259244,0.3196173,0.95627075,1.0930325,0.13240556,0.6736591,0.08373115,0.61132085,0.13204555,-0.36319345,0.28502455,-0.40666008,0.3641079,-0.7262666,-0.6025198,0.05034555,0.40838256,0.20176266,-0.6330475,0.782526,0.4882749,-0.47232744,-0.107332505,-0.20072679,0.8224279,-1.029072,0.24503763,0.5465371,-0.7542094,-0.7263491,-0.7003066,-0.0805359,0.80434465,0.40814295,-0.12663819,0.21628447,-0.18053588,0.06056312,-0.03450019,-0.7171499,-0.9047605,0.5851369,-0.77875715,0.81712157,-0.39078012,0.7450956,-0.5775435,0.9765458,0.84273845,0.649348,-0.50604266,0.3150515,-0.82950765,-0.37193155,0.34634197,0.78683984,0.9458304,-0.6180298,0.13636191,-0.34742177,0.97308266,0.07141751,-0.6736288,-0.75789326,0.31639722,-0.42273742,0.69956607,0.5544869,0.7181538,-0.7263552,0.7479397,0.7038103,0.6058768,-0.9371722,-0.8466543,-0.1366152,0.44850606,-0.90784013,-0.86314785,-0.8480765,0.10251799,-0.61689943,0.2907197,0.5923942,0.17885454,0.7490003,0.7245602,0.05103893,-0.32523814,-0.32762995,-0.41406205,-0.97039217,0.054274984,0.726727,-0.13059357,0.18490301,-0.004208575,-0.27325314,-0.29423618,-0.18418641,-0.22286932,0.24264944,-0.85770464,0.76600456,0.88829416,-0.08993568,-0.7551856,0.27966535,-0.42376772,-0.8416441,0.1763791,0.30932534,-1.0553534,-0.052590005,0.15442502,0.08122699,-0.62943274,0.7731343,0.48072523,-0.64092565,-0.05593008,0.8043504,0.5852486,0.16993608,-0.42235234,0.46925926,-0.12405739,-0.80509615,-0.7106643,0.8328395,-0.454595,-0.15334985,-0.8964441,1.016829,-0.67533135,-0.037691195,0.030130692,0.5830705,-0.37202048,-0.9211638,-0.846401,0.32566404,-0.13478908,-0.59340173,-0.8729235,0.35090566,-1.1957065,-0.35796562,-0.7091725,-0.71465504,0.51324975,-0.79146135,0.059689526,-0.6433355,0.31399062,0.87622917,0.8526041,-0.1479922,0.44605228,0.8567906,-0.5259909,-0.7931896,0.625187,-0.72036403,-0.86983925,0.86300707,0.64827275,0.47944084,-0.5834577,0.7344726,-0.14653155,1.0477263,0.226067,0.7040121,-0.5696151,0.7624975,-0.62100166,0.32386667,-1.2003435,0.050536133,0.32835898,-0.74007994,0.6654685,-0.26092333,1.1355661,0.59615606,-0.3222083,0.12401889,0.2677257,-0.15548876,-0.5977159,-0.32986814,0.016477069,-0.8426979,-0.54759145,0.42041874,-0.43890586,0.32962275,0.99552834,-0.16820037,-0.44423947,-0.9655393,-0.5930101,0.73617333,0.66980195,-0.8307985,0.9726575,0.27818322,0.30334872,-0.6924647,-0.7006166,0.15003301,-0.50076365,-0.71425927,-0.6176154,0.9192697,0.42448103,-0.6300027,-0.26271203,-0.472817,-0.0006988746,0.9032302,0.43196315,-0.91499656,0.8594001,0.87712604,-0.76593834,0.9304734,-0.75413394,-0.39598036,0.93360305,0.63392615,0.8276028,-0.9044908,-0.333302,0.5739168,-1.0050812,0.36486286,-0.7939096,0.09636652,-0.27074015,0.4521711,-0.59881765,-0.61641306,-0.27308643,0.49390942,0.7645072,0.6246543,-0.71482116,-0.05930057,-0.08171053,-0.56032145,0.8503795,0.807625,-0.07607823,-0.16914098,0.08872933,-0.15633352,-0.65254956,-0.4806633,0.20232496,-0.02820048,0.5200481,0.036492296,0.12826476,0.21261214,-0.7373857,-0.6901058,-0.4954718,0.49083027,0.26952916,-0.7594694,0.91845685,-0.38802537,-1.1221137,-0.785335,0.30243933,0.17176211,0.023180941,-0.82340556,0.031689707,-0.86276835,-0.76900715,0.31778288,0.6215661,-0.4813629,0.81818956,0.4927227,0.8913366,0.91456246,-0.67999005,-0.323983,0.52422327,-0.14873743,0.95224047,0.51056045,-0.84139085,0.90155375,0.07927176,-0.9469808,0.5886184,0.50353193,0.8542263,0.35782728,-0.3602627,0.23001517,-0.28148484,-0.75469655,-0.47939667,-0.6819398,-0.51526225,-0.67130256,0.31474772,0.45331362,-0.9032502,-0.264014,0.5006585,0.23912714,-0.040374897,0.28831673,0.643501,0.6125066,0.61687875,-0.37367305,-0.49243778,0.37669212,-0.70118856,0.6627676,-0.65396154,0.23979416,-0.39738357,0.27809036,-0.594657,-0.71535206,-0.64299107,0.03553864,-0.25122845,-0.78334576,-0.074686944,-0.6734696,-0.80467385,0.47082704,0.28096145,0.18244909,-1.0838829,-0.04356999,-0.0052166926,-0.73562175,-0.30134812,0.9043326,-0.051563367,-0.8658558,-0.18455869,0.9290012,-0.16055161,-1.1893668,-0.7021658,0.16260795,-0.47038722,-0.6946268,0.0040141535,0.59331954,-0.49492654,0.14486136,0.8561895,0.47041896,-0.4357983,-0.4551814,0.3374326,-0.14080629,-0.5900538,-0.57325876,-0.5157657,0.6008357,0.34924212,0.28632507,0.77144694,0.83134395,-0.6257818,0.81482893,-0.004892692,-1.0286589,-0.5052237,-0.10960768,-0.13926671,-0.7560371,-1.2028296,-1.0197066,0.24357371,-0.082200274,0.8146434,0.8349535,0.49360046,1.0229574,-0.9490951,-0.57008916,-0.45348468,0.37134957,0.31040508,0.40238342,0.6241623,-0.43239787,0.2911968,-0.033297095,0.3785877,0.7692973,0.557193,0.55956244,-0.65780026,-0.20815597,1.0490793,0.8124483,-0.14108744,0.5607427,0.64948505,-0.6820461,-0.18014708,0.645644,-0.36885858,-0.7486017,-0.70615727,-0.61650735,0.45859328,-0.17286678,-0.8849759,-0.21714772,0.6694001,0.61933476,0.6115198,0.8890363,0.14595339,0.7890015,0.85245746,0.67842597,-0.5824719,0.124653056,0.8422414,-0.5808181,-0.63261604,0.75931454,0.87890434,0.8319367,-0.80896205,0.44807658,-0.5966399,-0.03442053,-0.2185166,-0.84993273,0.6213743,0.55068594,0.69486433,0.024108253,0.4667221,-0.3232237,-0.9776051,0.8797216,0.4046089,-0.34373248,-0.43687883,-0.5807179,0.2165065,-0.768861,0.6833525,0.22796792,-0.3799659,-0.64244825,0.45032763,-0.094117396,0.99510616,0.9778554,-0.9183966,-0.16153626,0.9112813,0.9169906,-0.4595557,-0.28907192,0.11442433,0.3880523,0.57781756,-0.4077357,0.84832823,-0.62019277,0.7785876,-0.8593545,0.78605586,-0.6286893,0.21332462,0.6220617,-0.7619718,0.27654627,-0.67136765,0.33695537,0.8008316,0.896873,0.2626222,0.56812525,0.6351257,0.235005,0.43327042,-0.129604,0.89799196,0.44186336,0.86856574,-0.18621351,0.5940058,-0.7127607,-0.6312295,0.036968768,0.48610914,0.63449967,-0.8953583],[0.58513147,-0.8136564,-0.91796863,0.8063834,-0.7769037,-0.16173334,0.57454365,-0.078419946,-0.7634169,-0.09507217,-0.23236379,0.79715186,0.37015152,0.18532236,-0.85366994,-0.65213186,-0.97107303,0.76902956,-0.8272742,0.35566854,0.93439364,0.60859585,0.40929174,0.7221058,-0.07486341,-0.29851514,-0.7717948,0.87753975,0.31926328,-0.7053031,-0.10657823,-0.2636515,-0.030341273,-0.32683197,-0.34208524,0.04180499,0.0695144,-0.8779506,0.54169285,0.070753604,-0.7364763,-0.3707468,-0.48148713,-0.6641627,0.0068813944,0.84360677,-0.66254365,-0.44434336,0.9201934,-0.18241933,-0.24732195,0.7137611,0.24366707,0.14744878,0.008655777,-0.27093,0.8827286,-0.7330094,0.65045863,0.761364,0.21681848,0.8757688,-0.32724196,0.9448936,-0.84327614,-0.3605631,0.9064997,-0.74590766,0.14266519,0.034035113,-0.3961664,0.8231484,-0.055817124,0.74883336,0.6386505,0.72749394,0.7999737,-0.010944465,0.852393,0.9617818,-0.6915415,0.38021553,0.59130436,0.22521444,0.23147099,0.1760506,-0.17737985,