{"LayerWraps":[{"LayerType":5,"Dense":null,"Dropout":null,"Flatten":null,"Lstm":null,"MaxPool":null,"Conv":{"Shape":{"Height":30,"Width":30,"Depth":1},"Kernel":{"Count":16,"Dim":3},"Activation":1,"Stride":1,"Filters":[{"ElementsOneD":null,"ElementsTwoD":null,"ElementsThreeD":[[[-0.09265266],[0.039890338],[0.053869322]],[[-0.08986688],[0.043638073],[0.06900152]],[[-0.11446537],[-0.049673937],[0.06305541]]],"_shape":{"Height":3,"Width":3,"Depth":1},"Shape":{"Height":3,"Width":3,"Depth":1}},{"ElementsOneD":null,"ElementsTwoD":null,"ElementsThreeD":[[[-0.107949205],[-0.03287462],[0.09311449]],[[-0.07518748],[0.00027304364],[0.05563598]],[[-0.049917877],[0.033736385],[0.090422764]]],"_shape":{"Height":3,"Width":3,"Depth":1},"Shape":{"Height":3,"Width":3,"Depth":1}},{"ElementsOneD":null,"ElementsTwoD":null,"ElementsThreeD":[[[0.068452716],[0.05408969],[0.018556613]],[[0.07375762],[0.052141055],[-0.0062258337]],[[0.06628978],[0.0122225],[0.013620086]]],"_shape":{"Height":3,"Width":3,"Depth":1},"Shape":{"Height":3,"Width":3,"Depth":1}},{"ElementsOneD":null,"ElementsTwoD":null,"ElementsThreeD":[[[0.082303025],[0.08781271],[0.13978636]],[[-0.009173535],[0.018889302],[0.020855084]],[[-0.13967617],[-0.12278704],[-0.08874024]]],"_shape":{"Height":3,"Width":3,"Depth":1},"Shape":{"Height":3,"Width":3,"Depth":1}},{"ElementsOneD":null,"ElementsTwoD":null,"ElementsThreeD":[[[-0.047398727],[0.029138181],[0.02611439]],[[-0.054107286],[0.011091005],[0.037795637]],[[0.07657783],[0.023120929],[0.0048130145]]],"_shape":{"Height":3,"Width":3,"Depth":1},"Shape":{"Height":3,"Width":3,"Depth":1}},{"ElementsOneD":null,"ElementsTwoD":null,"ElementsThreeD":[[[-0.067547575],[-0.0019301503],[0.06572555]],[[0.021974139],[0.06641204],[0.069326654]],[[0.03565382],[0.064135276],[0.083004035]]],"_shape":{"Height":3,"Width":3,"Depth":1},"Shape":{"Height":3,"Width":3,"Depth":1}},{"ElementsOneD":null,"ElementsTwoD":null,"ElementsThreeD":[[[0.04471916],[-0.058676824],[-0.029716678]],[[0.093923576],[0.083668254],[0.094669074]],[[0.05237137],[0.03986486],[0.10073929]]],"_shape":{"Height":3,"Width":3,"Depth":1},"Shape":{"Height":3,"Width":3,"Depth":1}},{"ElementsOneD":null,"ElementsTwoD":null,"ElementsThreeD":[[[-0.039777264],[-0.015580847],[0.05547349]],[[-0.05318025],[-0.019635042],[0.08126011]],[[-0.053153794],[0.0048605017],[0.06783799]]],"_shape":{"Height":3,"Width":3,"Depth":1},"Shape":{"Height":3,"Width":3,"Depth":1}},{"ElementsOneD":null,"ElementsTwoD":null,"ElementsThreeD":[[[0.006836489],[0.043123282],[0.09583311]],[[0.06491485],[0.037723534],[0.09887295]],[[0.09120225],[0.06903643],[0.031526346]]],"_shape":{"Height":3,"Width":3,"Depth":1},"Shape":{"Height":3,"Width":3,"Depth":1}},{"ElementsOneD":null,"ElementsTwoD":null,"ElementsThreeD":[[[0.030458074],[0.0009847133],[-0.026972592]],[[0.085586116],[0.03964974],[0.011183584]],[[0.09576093],[0.018194543],[-0.04564491]]],"_shape":{"Height":3,"Width":3,"Depth":1},"Shape":{"Height":3,"Width":3,"Depth":1}},{"ElementsOneD":null,"ElementsTwoD":null,"ElementsThreeD":[[[0.02047072],[0.037597217],[0.08987932]],[[-0.024857093],[-0.0015772134],[0.08724574]],[[-0.08275309],[-0.04933026],[-0.03046757]]],"_shape":{"Height":3,"Width":3,"Depth":1},"Shape":{"Height":3,"Width":3,"Depth":1}},{"ElementsOneD":null,"ElementsTwoD":null,"ElementsThreeD":[[[0.022040911],[-0.041211665],[-0.018093375]],[[0.039614554],[0.002187402],[0.06894067]],[[0.044954464],[0.09820934],[0.07501427]]],"_shape":{"Height":3,"Width":3,"Depth":1},"Shape":{"Height":3,"Width":3,"Depth":1}},{"ElementsOneD":null,"ElementsTwoD":null,"ElementsThreeD":[[[0.044383015],[-0.03928631],[-0.0803984]],[[0.0976593],[0.043425478],[0.021560965]],[[0.09060745],[0.057265818],[0.013253145]]],"_shape":{"Height":3,"Width":3,"Depth":1},"Shape":{"Height":3,"Width":3,"Depth":1}},{"ElementsOneD":null,"ElementsTwoD":null,"ElementsThreeD":[[[0.14210413],[0.04880189],[0.028232858]],[[0.056527674],[0.07663373],[0.09252845]],[[0.10903102],[0.076713964],[0.08679606]]],"_shape":{"Height":3,"Width":3,"Depth":1},"Shape":{"Height":3,"Width":3,"Depth":1}},{"ElementsOneD":null,"ElementsTwoD":null,"ElementsThreeD":[[[0.041390285],[0.09352713],[0.08526928]],[[0.11928868],[0.04432563],[0.025067663]],[[0.1347489],[0.051179834],[0.059205413]]],"_shape":{"Height":3,"Width":3,"Depth":1},"Shape":{"Height":3,"Width":3,"Depth":1}},{"ElementsOneD":null,"ElementsTwoD":null,"ElementsThreeD":[[[0.044122063],[0.09750067],[0.04556032]],[[0.018420119],[0.07883883],[0.053384397]],[[-0.076052554],[-0.028230622],[0.01429613]]],"_shape":{"Height":3,"Width":3,"Depth":1},"Shape":{"Height":3,"Width":3,"Depth":1}}],"FilterGradients":[{"ElementsOneD":null,"ElementsTwoD":null,"ElementsThreeD":[[[0.0],[0.0],[0.0]],[[0.0],[0.0],[0.0]],[[0.0],[0.0],[0.0]]],"_shape":{"Height":3,"Width":3,"Depth":1},"Shape":{"Height":3,"Width":3,"Depth":1}},{"ElementsOneD":null,"ElementsTwoD":null,"ElementsThreeD":[[[0.0],[0.0],[0.0]],[[0.0],[0.0],[0.0]],[[0.0],[0.0],[0.0]]],"_shape":{"Height":3,"Width":3,"Depth":1},"Shape":{"Height":3,"Width":3,"Depth":1}},{"ElementsOneD":null,"ElementsTwoD":null,"ElementsThreeD":[[[0.0],[0.0],[0.0]],[[0.0],[0.0],[0.0]],[[0.0],[0.0],[0.0]]],"_shape":{"Height":3,"Width":3,"Depth":1},"Shape":{"Height":3,"Width":3,"Depth":1}},{"ElementsOneD":null,"ElementsTwoD":null,"ElementsThreeD":[[[0.0],[0.0],[0.0]],[[0.0],[0.0],[0.0]],[[0.0],[0.0],[0.0]]],"_shape":{"Height":3,"Width":3,"Depth":1},"Shape":{"Height":3,"Width":3,"Depth":1}},{"ElementsOneD":null,"ElementsTwoD":null,"ElementsThreeD":[[[0.0],[0.0],[0.0]],[[0.0],[0.0],[0.0]],[[0.0],[0.0],[0.0]]],"_shape":{"Height":3,"Width":3,"Depth":1},"Shape":{"Height":3,"Width":3,"Depth":1}},{"ElementsOneD":null,"ElementsTwoD":null,"ElementsThreeD":[[[0.0],[0.0],[0.0]],[[0.0],[0.0],[0.0]],[[0.0],[0.0],[0.0]]],"_shape":{"Height":3,"Width":3,"Depth":1},"Shape":{"Height":3,"Width":3,"Depth":1}},{"ElementsOneD":null,"ElementsTwoD":null,"ElementsThreeD":[[[0.0],[0.0],[0.0]],[[0.0],[0.0],[0.0]],[[0.0],[0.0],[0.0]]],"_shape":{"Height":3,"Width":3,"Depth":1},"Shape":{"Height":3,"Width":3,"Depth":1}},{"ElementsOneD":null,"ElementsTwoD":null,"ElementsThreeD":[[[0.0],[0.0],[0.0]],[[0.0],[0.0],[0.0]],[[0.0],[0.0],[0.0]]],"_shape":{"Height":3,"Width":3,"Depth":1},"Shape":{"Height":3,"Width":3,"Depth":1}},{"ElementsOneD":null,"ElementsTwoD":null,"ElementsThreeD":[[[0.0],[0.0],[0.0]],[[0.0],[0.0],[0.0]],[[0.0],[0.0],[0.0]]],"_shape":{"Height":3,"Width":3,"Depth":1},"Shape":{"Height":3,"Width":3,"Depth":1}},{"ElementsOneD":null,"ElementsTwoD":null,"ElementsThreeD":[[[0.0],[0.0],[0.0]],[[0.0],[0.0],[0.0]],[[0.0],[0.0],[0.0]]],"_shape":{"Height":3,"Width":3,"Depth":1},"Shape":{"Height":3,"Width":3,"Depth":1}},{"ElementsOneD":null,"ElementsTwoD":null,"ElementsThreeD":[[[0.0],[0.0],[0.0]],[[0.0],[0.0],[0.0]],[[0.0],[0.0],[0.0]]],"_shape":{"Height":3,"Width":3,"Depth":1},"Shape":{"Height":3,"Width":3,"Depth":1}},{"ElementsOneD":null,"ElementsTwoD":null,"ElementsThreeD":[[[0.0],[0.0],[0.0]],[[0.0],[0.0],[0.0]],[[0.0],[0.0],[0.0]]],"_shape":{"Height":3,"Width":3,"Depth":1},"Shape":{"Height":3,"Width":3,"Depth":1}},{"ElementsOneD":null,"ElementsTwoD":null,"ElementsThreeD":[[[0.0],[0.0],[0.0]],[[0.0],[0.0],[0.0]],[[0.0],[0.0],[0.0]]],"_shape":{"Height":3,"Width":3,"Depth":1},"Shape":{"Height":3,"Width":3,"Depth":1}},{"ElementsOneD":null,"ElementsTwoD":null,"ElementsThreeD":[[[0.0],[0.0],[0.0]],[[0.0],[0.0],[0.0]],[[0.0],[0.0],[0.0]]],"_shape":{"Height":3,"Width":3,"Depth":1},"Shape":{"Height":3,"Width":3,"Depth":1}},{"ElementsOneD":null,"ElementsTwoD":null,"ElementsThreeD":[[[0.0],[0.0],[0.0]],[[0.0],[0.0],[0.0]],[[0.0],[0.0],[0.0]]],"_shape":{"Height":3,"Width":3,"Depth":1},"Shape":{"Height":3,"Width":3,"Depth":1}},{"ElementsOneD":null,"ElementsTwoD":null,"ElementsThreeD":[[[0.0],[0.0],[0.0]],[[0.0],[0.0],[0.0]],[[0.0],[0.0],[0.0]]],"_shape":{"Height":3,"Width":3,"Depth":1},"Shape":{"Height":3,"Width":3,"Depth":1}}],"Bias":{"ElementsOneD":[0.0012904704,0.0012904702,-0.0012904702,0.0012904702,-0.0012904702,0.0012904704,-0.0012904702,-0.0012904702,0.0012904704,0.0012904704,0.0012904701,0.0012904704,0.0012904704,-0.0012904704,0.0012904702,0.0012904702],"ElementsTwoD":null,"ElementsThreeD":null,"_shape":{"Height":16,"Width":0,"Depth":0},"Shape":{"Height":16,"Width":0,"Depth":0}},"BiasGradients":{"ElementsOneD":[0.0,0.0,0.0,0.0,0.0,0.0,0.0,0.0,0.0,0.0,0.0,0.0,0.0,0.0,0.0,0.0],"ElementsTwoD":null,"ElementsThreeD":null,"_shape":{"Height":16,"Width":0,"Depth":0},"Shape":{"Height":16,"Width":0,"Depth":0}}}},{"LayerType":4,"Dense":null,"Dropout":null,"Flatten":null,"Lstm":null,"MaxPool":{"Shape":{"Height":30,"Width":30,"Depth":16},"Kernel":{"Count":16,"Dim":3},"Stride":2},"Conv":null},{"LayerType":2,"Dense":null,"Dropout":null,"Flatten":{"Shape":{"Height":14,"Width":14,"Depth":16}},"Lstm":null,"MaxPool":null,"Conv":null},{"LayerType":0,"Dense":{"Activation":0,"Shape":{"Height":3136,"Width":64,"Depth":0},"Weights":{"ElementsOneD":null,"ElementsTwoD":[[-0.9237962,0.41697028,0.2383268,-0.5544853,-0.44555357,-0.38526073,0.513221,0.8324964,-0.6468929,0.08578181,0.29832137,-0.31898326,0.46709952,-0.3012203,-0.85136527,-0.4035274,-0.037691068,0.6995498,0.17283379,0.6047456,0.4327707,0.013212957,0.36471647,-0.9613024,-0.8553374,-0.6503569,-0.20478384,0.42240012,0.5920346,0.3930814,0.4959225,0.8428689,-0.5676569,0.8613904,0.049077317,0.27568686,0.17318265,0.47993454,-0.09238482,-0.6708811,-0.39011252,0.4425165,-0.76112825,-0.8689877,-0.5564604,0.808456,-0.25397038,0.6381871,0.69501996,0.90136987,-0.6175575,0.44093847,-0.73870206,0.6291787,0.55736256,-0.540029,-0.6229607,-0.82438093,-0.02019771,-0.5052933,0.40996882,0.7493285,-0.2647368,0.90410256,0.5262245,1.0320708,1.0238727,0.85139775,0.740518,0.8624681,-0.18738793,0.29381937,0.38490462,0.24083258,0.5332429,0.4727361,-0.3824025,1.0003211,0.16544357,-0.027068172,-0.45342147,-0.66584486,-0.023541141,-0.6606637,0.8996464,-0.5819835,-0.7215061,-0.119904056,0.7409813,0.8523026,-0.64314175,0.44501173,0.6197262,-0.7550883,0.21524517,-0.4733401,-0.75398564,0.76649135,-0.786128,-0.41322494,-0.47996625,-0.16473086,0.64854586,-0.29263753,1.1321094,0.68043226,0.8137234,-0.0411135,-0.43544665,0.08816625,-0.5820171,-0.8151457,0.2183564,-0.580534,0.52350307,-0.82948816,-0.65382844,0.14268738,1.1142876,0.9139681,-0.638723,-0.58425283,0.40066242,0.423993,0.4338649,-0.14648297,-0.6602957,0.82723725,-0.77236134,-0.04267489,-0.73310727,-0.35306773,-0.34283575,-0.21458338,1.0378608,0.4910908,-0.3131591,-0.09944764,0.6587522,0.6809264,0.29404566,0.24330369,-0.67376673,-0.1363753,0.351673,-0.3614775,-0.07435662,-0.93594694,1.069326,0.76774895,0.092981555,-0.39310315,0.02045393,-0.09147437,0.74679464,-0.44050375,0.7464779,1.0339724,0.8401712,0.008441243,0.561929,-0.36927924,-0.6782196,0.42796528,0.85094273,0.8358098,0.27126542,0.64418983,-0.10883686,0.68959355,-0.9829943,-0.10688073,-0.6972126,-0.1829257,0.85029805,0.75876504,-0.41292623,-0.68248296,0.7391542,-0.20499428,0.10066983,0.89165235,0.3674242,-0.41717017,-0.6726818,0.7071765,0.24732322,0.984148,-0.9018841,-0.64966464,-0.46028343,0.081630014,0.3682879,-0.49029577,0.94541293,0.70596623,-0.71481997,-0.9366238,0.033720687,0.09774445,-0.18346319,0.043406606,-0.08848812,-0.3844853,-0.02757923,0.8690233,-0.96700853,0.63556844,-0.20737928,0.81468,-0.47571528,0.82849896,-0.5338696,0.09716996,0.60945284,0.9064418,-0.27648842,-0.61284804,0.9462321,0.07367849,0.106886625,0.3906292,0.5755016,0.72578627,-0.04953349,0.38763073,-0.9922691,-1.0218112,0.17301036,0.67830175,-0.21618235,0.52626234,0.0343934,0.36585683,-0.2543112,0.5316821,-0.5279004,-0.29991132,-0.86742055,-0.905524,0.5090358,0.9459116,-0.9948814,0.15378824,-0.20359671,-0.34444818,0.54045254,-0.924165,0.45176023,0.5263904,-0.25339663,0.26935032,-0.12756172,-0.8438748,-0.97367954,-0.718538,-0.85478485,-0.7871889,0.37141034,-0.88816166,0.72779226,-0.5569509,0.019129787,0.3717672,0.8240387,0.15775734,0.38409138,-0.7152419,0.49709108,-0.08826539,-0.36378452,0.048344538,-0.43070263,0.58440804,-0.547014,0.7308919,-0.24822117,-0.3944169,-0.43714407,1.0038399,0.0064208214,0.50871533,0.05283245,-0.13040917,0.769846,0.91958064,0.84426266,0.1741054,-0.23120752,-0.81487393,0.6916122,-0.36247253,-0.25298795,0.39802408,1.105038,0.02468101,0.8708567,0.31497028,0.27801797,-0.87878144,0.6892201,0.20242928,0.29638332,0.8077193,0.9647767,-0.44581422,-0.5253855,0.31276625,-0.55356187,-0.542526,0.93941694,-0.71476614,0.36740917,0.2951767,-0.07431079,-0.9070477,0.48194894,-0.73010105,-0.56472653,0.49172556,-0.076037906,0.5918596,-0.5339635,1.0383956,0.83732796,0.1341705,-0.60563225,-0.81263494,-0.6575879,0.36492968,0.63332254,0.8842844,-0.337393,0.24783927,-0.71963215,0.33116636,-0.4143931,0.6219124,-0.023395775,0.54250747,0.04976923,0.80270904,0.9989752,-0.41716912,-0.7297516,0.9790705,0.87658644,-0.36968872,0.84958845,0.5815416,-0.6945819,0.331913,0.50412524,0.17816357,-0.5438935,-0.3216376,-0.55371356,0.17955884,0.5941497,0.901418,-0.5538866,-0.8591415,-0.6215777,-0.5707489,0.028435536,-0.20032196,-0.37484592,0.2184744,0.7117369,0.4275239,0.46815553,0.83835834,-0.67140085,-0.890144,0.38626695,0.2605393,-0.5337245,0.30113614,0.51815796,-0.8091891,0.10557357,-0.5228723,-0.4367598,1.078798,-0.2666207,0.17631851,1.0223669,-0.915415,0.30585158,-0.24857382,0.65845937,-0.5499592,0.6824237,-0.8912723,0.38906166,0.1733108,0.59840256,-0.40992394,0.05364148,0.40915176,0.2929107,1.0344995,0.71408755,0.25973752,0.043139987,0.7353008,-0.38184467,-0.91563255,-0.369196,-0.8771643,-0.25497854,-0.8116064,-0.83629924,-0.30017376,0.1740494,0.4713871,0.5646653,-0.7607338,0.4718495,0.8426342,-0.750325,-0.27161413,0.12476271,0.28618792,0.5988754,0.9257485,0.54665995,-0.47142652,-0.2363823,-0.1373832,-0.23934403,-0.4518813,-0.7868748,0.100477025,-0.16222496,-0.45140436,-0.38058072,-0.1428365,-0.5293635,-0.100929104,-0.87071145,0.66329104,-0.60475093,0.91395485,-0.63092667,-0.35979992,-0.3760809,-0.5240689,-0.6912897,0.015474966,0.3876898,-0.42221734,0.762362,-0.4897338,0.7163051,-0.33667737,-0.53656685,-0.48758116,-0.31145215,-0.81850284,-0.90006167,-0.2636194,0.35663372,0.9932864,0.2299747,0.8986044,0.5601713,-0.9214423,0.4480285,-0.9271859,-0.66868126,-0.87383646,-0.9312672,0.18312652,0.5132463,1.0179343,-0.7991474,0.2662135,0.09708007,0.33759883,-0.40477878,0.15805896,-0.6669291,-0.081855685,0.8859552,-0.05138543,0.11240077,-0.36084515,0.47370267,-0.7143933,0.5547553,-0.71978724,1.0026872,0.15099233,-0.26365244,0.8041879,-0.5991511,-0.64078206,0.32430983,-0.89046913,-0.044377476,-0.8419666,0.03703487,0.8910977,-0.7766891,0.14322054,0.7577343,0.75901085,-0.91303915,-0.28277162,0.2158078,0.95901483,0.52280605,0.36282617,-0.22207299,0.27575365,-0.5276323,0.71480614,0.8909962,0.79877657,-0.36907408,-0.7213581,0.45416412,-0.62327623,-0.21856861,-0.9263408,0.5182093,0.027848339,-0.4085324,0.5845595,0.6190632,-0.34411287,-0.3238917,-0.45826858,0.5274199,-0.14312097,0.74820805,0.7818944,0.8650474,0.91101265,0.0014951779,0.57652164,-0.59198946,0.7945056,0.8956253,-0.70436263,-0.8209027,-0.5995517,-0.77017826,-0.042732723,0.48783115,-0.983077,-0.45021144,-0.7896068,0.08630027,0.24805072,0.6604529,0.909521,-0.34674206,0.69918,0.49302554,0.6931996,0.68683064,-0.87676585,-0.78559333,0.48192042,0.38025886,-0.5985446,-0.19923548,-0.95552844,0.4000335,-0.9502587,-0.6159435,0.10572001,0.17115322,-0.36578998,-0.06758104,0.7242484,0.68379354,-0.90376467,0.34761524,-0.072997935,-0.6589252,0.6156023,-0.7106992,0.18382429,-0.626796,-0.85926896,-0.9599635,0.24953446,0.050770257,-0.9329058,-0.4768049,0.07073367,-0.8215223,-0.0335441,0.20200033,-0.21211636,-0.9696439,-0.0017328197,0.36281052,0.048861157,-0.5484382,0.39756665,-0.6225335,-0.83213896,-0.055281628,1.2454693E-05,0.8123395,0.3781447,-0.7549918,0.66068214,-0.21778205,0.4345122,0.738344,-0.33476412,-0.4773989,0.1452947,0.57306975,0.02382525,0.9753837,0.8842865,0.040872183,0.2206301,-0.6484045,-0.54245394,-0.8740288,-0.5924435,-0.23672742,0.037364136,0.8664081,-0.16310634,0.23567477,-0.34948358,0.64754933,0.112346895,-0.5823531,-0.28928646,0.6994909,0.6109236,-0.6838376,-0.5232372,0.20075233,0.6972972,0.9559443,0.91008747,0.6491261,0.8282347,0.5785403,-0.8103797,0.57501924,0.5112489,0.37021863,0.87433445,0.37099645,0.50373864,0.18625504,-0.11867178,0.5106653,-0.42101827,-0.74320304,0.89488447,-0.4386402,0.6682845,-0.7758095,0.17237885,-0.99111587,-0.21200138,0.95913905,0.80424404,0.21594457,0.3367242,0.20485383,-0.63792354,0.5316233,-0.9756348,0.0042278813,-0.041604523,0.0902016,-0.052715674,0.60180527,0.66716975,-0.94882035,0.45104253,0.034312688,0.93025243,-0.38373053,-0.3130904,0.37079984,0.56297433,-0.91620487,0.60496545,0.41036475,0.411753,-0.051926147,0.07764683,0.8205304,0.568956,0.32785574,0.073398985,0.5255034,0.7761944,-0.41606236,-0.4709334,0.23711066,-0.7665336,0.11046946,-0.811302,-0.54259735,0.3365131,0.19203894,-0.00090678374,-0.015880749,0.7298552,0.72434735,-0.019705372,0.62674844,-0.063056126,-0.123574235,0.89334035,0.36658722,-0.897646,0.43401036,-0.6249765,-0.018951565,-0.024060166,0.88168216,-0.08391859,-0.9394062,-0.23689918,0.40149832,0.8389217,-0.5088915,0.25335976,-0.05055441,-0.1728721,0.2316099,0.121994585,-0.43273616,-0.026837436,-0.07513636,-0.75506616,0.73494864,-0.21723245,-0.6618433,0.9191007,-0.4738213,0.112790145,-0.54475594,-0.38953075,-0.8670679,0.95775604,-0.2930334,0.7771712,0.35667858,-0.9748869,-0.36714616,-0.06747668,0.94938767,0.40932056,-0.32385015,0.36397323,0.5450685,-0.15087734,0.37638924,-0.056725785,0.85663015,0.21179904,-0.14722037,0.58509475,0.48266247,-0.59084,-0.27814585,0.05295963,-0.5761616,-0.8751575,-0.51378703,0.6771992,0.48858437,-0.5825975,0.85454607,-0.37250644,0.3858851,0.8053994,-0.48896658,-0.34139618,-0.1637336,-0.13745604,-0.026558252,-0.37318406,0.13637155,-0.1554552,0.5471196,-0.8634208,-0.31980687,0.38835722,-0.8108474,-0.11210637,0.24900575,0.8025742,-0.21088225,-0.1544964,0.024584124,0.25837103,0.006135116,-0.11650241,-0.25490075,-0.10995516,0.38436532,-0.25220212,0.055682003,0.22671553,-0.65419513,0.364948,-0.015179314,0.14340691,0.5660097,0.47786802,-0.00053008844,0.1562922,-0.55029863,0.047986466,0.89998084,0.3292717,0.4103661,0.6386134,-0.55472094,-0.40179652,-0.24372032,0.19032687,-0.007312014,0.5306559,-0.17410484,0.13932924,0.42970282,0.61552423,-0.09157877,0.29898396,0.5437827,-0.08459237,0.6922135,0.72931033,1.0085652,-0.5241659,-0.5084713,-0.6101391,0.8560133,0.49585056,-0.026200254,0.2513235,0.97663987,0.25943187,-0.73498666,0.17131124,-0.9426658,0.1646556,-0.7875833,-0.37080494,0.75957483,-0.7782409,0.879797,0.4677446,-0.006952801,-0.68885297,-0.4191117,-0.42126974,-0.40523618,-0.8042971,-0.06819242,0.16298907,-0.5442297,0.5829157,0.5270942,0.2059565,0.54335713,-0.3752648,-0.30823606,0.576533,-0.22764975,-0.8441926,0.8759003,0.34487793,0.81117785,-0.12992024,0.5502683,-0.64561015,-0.4888715,-0.054253157,0.65750384,0.3735763,0.7621456,0.4860028,0.024590636,0.16662021,-0.59711283,0.9726007,-0.23075901,-0.53893226,-0.5041845,0.9962866,0.5666999,-0.59188855,1.0019082,0.7393284,-0.9024468,-0.19021545,-0.54074055,0.18039441,0.19545811,0.7778336,-0.13558896,0.6757452,-0.11765432,-0.9482893,-0.8490112,0.19057038,-0.45329627,-0.6830575,0.1401834,-0.54005873,-0.8979372,-0.4157093,-0.22685294,-0.60232496,-0.9360239,-0.038211063,-0.8949976,0.5377074,0.60901886,-0.68641245,0.7131686,-0.27841893,-0.9901942,0.6735438,0.88750577,0.9338136,-0.68147653,-0.02154714,0.67254424,0.83921087,0.43387446,0.98030055,0.45844004,-0.65548104,-0.33337325,-0.6175805,0.43632442,-0.8345848,-0.1964634,0.7340232,-0.3381585,-0.7734465,-0.48776725,-0.53478074,0.31160036,-0.6746774,-0.37998024,0.35062093,-0.56862724,-0.951249,-0.025758762,0.79777205,0.6823079,0.12783828,-0.25567812,0.38081753,0.17500931,0.35759285,0.6768723,-0.58246315,-0.953108,-1.0191654,0.9316163,-0.7185781,-0.8682071,0.005985462,0.77644634,0.47860077,-0.49294132,-0.11474421,-0.5912461,-0.15977274,-0.8462372,-0.25027615,-0.35299605,-0.92458713,0.07514464,-0.5863544,-0.11149959,-0.035472255,-0.84339714,-0.01457141,-0.15318033,0.112201825,-0.04169648,-0.1268271,0.5740195,-0.5246117,-0.37087867,-0.7137312,-0.77065957,-0.9367844,-0.8514428,0.7757723,-0.40857655,0.7329186,0.80014133,-0.3601891,-0.15113126,0.6488291,-1.0831869,-0.93707013,-1.0506182,0.46808305,0.8355454,0.8501452,-0.27012035,-0.2089808,0.6561702,0.111185424,-0.066295035,0.91226417,-0.8428142,0.066084355,0.46517614,0.74115944,-0.9468869,0.65770537,0.6614132,-0.62044,0.77787185,-0.91285706,-0.17594665,0.01606614,-0.5154205,0.17872488,0.00920319,0.33640972,0.8274235,-0.4096895,0.35129705,-0.30967596,-0.82965267,-1.0425332,0.68828446,0.5992637,-0.55469024,-1.0116165,-0.031801835,0.5845648,0.518441,-0.22533046,-0.45662883,0.458648,0.39268443,-0.75586355,-0.3477417,-0.60815483,-0.9534126,-0.072628245,0.0053088297,0.38255996,0.89896667,-0.84120023,-0.87811583,0.01185528,0.9075047,-0.18721896,-0.7452965,-0.6304047,-0.77193266,-0.5005722,-0.24159007,-0.1236017,0.48253036,-0.3690644,0.61544657,-1.0398103,-0.20194708,0.74861556,-0.50897294,0.26048625,-0.8907955,0.08172633,0.04486519,0.44099614,-0.6091764,-0.5873118,-0.78778154,-0.9331553,-0.38399255,0.2002953,-0.28374863,-0.83906245,-0.8747764,0.68314344,0.20490469,0.23660888,-0.18690121,-0.93053085,0.6494103,-0.64545935,0.60372573,0.3606919,0.8548249,0.021092935,0.7783131,0.96283644,-0.9242927,0.056678142,0.94825596,-0.025004264,-0.1740928,0.1693438,-0.20144808,0.76019603,-0.88045985,-0.5382302,-0.812257,0.50321496,0.22521362,0.2331803,0.35817006,0.93116015,0.48529717,0.685176,-0.80738336,-0.20195132,-0.4777589,0.9842719,-0.12280515,0.9892995,-0.13919394,0.3774027,-0.9459252,0.5720601,0.647312,-0.9817069,-0.88143,0.8508884,0.4022234,0.32485065,0.97398853,0.8377361,-0.6993079,0.61095005,0.016495537,-0.84062153,0.6758781,-0.27413923,0.4730058,0.9879913,0.30420858,0.7302801,0.68876433,0.98699224,-0.20847104,0.53263813,0.2190447,0.7531988,-0.44602463,0.8525483,0.41335952,-0.61591005,-0.081014,0.25929946,-0.69186425,0.3684788,0.9656937,0.10949844,-0.31313813,0.9799539,0.41180775,-0.10345968,-0.70654833,0.6299723,-0.5518346,0.67157,-0.6829176,0.7412017,0.78857374,-0.105304964,-0.37343365,-0.78740823,0.2269706,-0.29040515,-0.5788277,0.49740976,0.27457824,-0.17883503,-0.2974278,0.13899408,0.5821549,-0.15482831,-0.55022776,-0.8302211,0.1996223,0.08511322,0.5647827,-0.3930536,0.28974715,-0.49821842,-0.046691824,-0.41770604,0.78808194,0.9581328,-0.7453379,0.80506694,-0.63218176,0.24797791,-0.48545697,0.31803966,-0.023664143,-1.0263423,-0.047865894,-1.0281452,-0.40714756,0.287993,-0.09904913,0.9028959,-0.93010575,-0.2084905,0.45254502,0.7210767,0.04272629,-0.5345114,0.47965312,0.2519175,-0.13406254,-0.84127116,0.16416124,0.6017829,0.47222775,-0.8665805,-0.28446627,0.84814954,-0.6685016,0.3677806,-0.54679203,0.4421272,0.36089525,0.8135056,-0.4015689,-0.1617884,-0.25799578,0.5020045,-0.95287263,-0.36443666,-0.273712,0.95290786,0.9421708,-0.65416217,-0.94341236,0.90198874,-0.5721805,0.82354474,0.4097684,0.7217483,-0.14523993,0.7217167,0.72703415,0.6525724,0.7857254,0.32981598,0.6972938,-0.5258891,-0.21053174,0.27713934,-0.17652118,0.63574326,-0.4900891,0.8588036,0.3204722,-0.84967685,0.62320644,-0.7880133,-0.26845643,-0.7373621,-0.6200147,0.43508032,-0.21614209,-1.0068412,-0.69819075,-0.60310197,0.3375444,-0.9090497,0.6483298,0.7485586,-0.97959554,-0.8638253,0.80968106,-0.6041733,0.5658906,0.42855656,-1.0279349,-0.81108475,-0.16989426,0.8826064,0.19475776,-0.7610298,-1.0121694,-0.8917589,0.81991476,-1.0026789,0.6117225,-0.14950444,-0.39761245,0.225032,0.9003326,-0.3570767,-0.89241123,0.39144194,-0.519493,-0.10448107,-0.17372149,0.3995306,-0.98603874,0.12773135,-0.6560023,0.110480785,0.28543112,-0.0029350831,-0.2613806,-0.5933319,0.3791321,-0.9108425,-0.7647208,0.36901358,-0.47886312,0.83370596,-0.33619574,0.5642526,-0.36015663,-0.56366277,0.7419984,0.7648824,0.894103,-0.584425,0.28252217,0.5293612,0.9831303,1.0211205,-0.5308336,0.08871043,-0.15473771,-0.22375068,0.41982922,0.96529746,0.54849917,0.6960903,-0.26899767,1.0074147,0.36452854,-0.15698583,0.6450207,-0.23829673,0.045500096,-0.26412356,0.60240614,0.5386668,-0.10333776,0.21812424,0.9526518,0.21234897,0.78323495,-0.011723917,0.9308051,-0.85256463,-0.5435963,0.27124292,0.681716,-0.6337935,-0.27918768,0.16984676,0.93955714,-0.29444873,0.5272048,-0.8438571,0.8999671,-0.88324624,-1.0278671,0.89089084,-0.30429277,-0.07454993,0.13574024,0.44001484,-0.15831925,0.92810124,-0.14391212,0.024673363,-0.964167,-0.3914307,0.36000243,-0.13188747,0.115211576,-0.7415502,0.81358516,-0.22017334,0.024407446,-0.92327493,-0.22144341,0.49157408,-0.39670026,-0.66104823,0.8515836,-0.3741121,-0.97202677,-0.79582345,-0.6285194,-0.6574952,0.81834096,-0.3307404,0.21812212,-0.17916727,0.00086595037,0.04985743,0.6049562,-0.8298425,-0.5072415,0.5520877,-0.12852435,-0.301137,0.18821861,0.48175308,-0.12663169,0.035156764,0.30140275,0.6788269,-0.95922506,-0.60285884,-0.79131436,-0.61969745,-0.48676747,-0.21788813,-0.080157384,-0.12549967,-0.3206513,0.26422083,-0.77365005,-0.106003016,0.2563776,0.7220511,-0.42634496,-0.85572714,0.8722574,0.67849416,-0.24394366,-0.44558808,0.5672606,0.76349556,-0.897185,-0.53623694,-0.24955207,-0.032965295,-0.871392,-0.6972819,-0.79674226,0.85409063,0.61836916,0.1058704,-0.7662754,0.27738935,-0.31217924,0.27305934,0.3968391,-0.8891344,-0.6486748,-0.27293167,-0.4703494,-0.31824052,-0.57451546,-0.9182111,-0.9416297,0.20562717,-0.33942243,0.65030974,0.127883,0.12225865,-0.68864095,0.78861,0.08947129,0.7943868,0.12520213,-0.5287374,-0.55576193,-0.3919009,-0.28690535,-0.52149117,0.011110591,-0.8790185,0.058781244,-0.92327046,-0.34250045,0.3702209,-0.110089436,-0.26323545,0.08736299,-0.20218676,0.44339636,0.96951085,0.03068525,0.79936904,-0.5987287,0.25154644,0.86440456,0.5557251,-0.66423005,0.5370304,0.8835435,-0.13610972,0.79128855,-0.5531014,0.4432252,-0.2145077,-0.5617038,0.95581305,-0.0101006115,0.8812301,0.9059707,-0.020547591,0.929677,0.41081467,0.09442502,-0.24665476,0.08485177,0.89968073,0.12194154,-0.4277672,0.8327718,0.5254432,0.6212899,-0.89954054,-0.10064025,-0.59107596,-0.5432218,0.2782298,-0.77889764,0.018123567,0.8519667,0.814889,-0.30116233,0.5991287,0.17743294,0.083105266,0.26759562,-0.3234751,-0.85751545,0.93455124,-0.77492285,0.73621196,0.16014767,0.34866756,0.5888684,0.6878871,-0.17476292,-0.30229846,0.30112457,-0.27388543,-0.7813667,0.27875212,-0.5752087,0.5182195,0.91233104,0.6724125,0.74555767,-0.4973492,0.7737241,-0.2517341,-0.6464263,0.8170201,-0.26421994,0.05172879,-0.50724566,-0.014790659,0.28619832,0.061093044,0.26156247,0.034719758,-0.42779484,0.13012193,-0.69129544,0.6226464,0.2496689,-0.76032674,0.568437,-0.4737038,0.4692708,0.62428385,0.48722008,-0.29028678,-0.6739454,0.74349177,-0.61821514,0.6628181,0.75567496,-0.4770404,-0.87071085,0.42102626,-0.6368478,0.036356013,0.5169204,-0.6000254,-0.30465126,0.037559133,0.3477284,0.35196394,-0.41460934,0.84538984,-0.70791346,-0.035838626,-0.9890159,-0.89064485,0.1566804,-0.1575905,-0.67763084,0.7789476,-0.9150968,0.61992025,-0.16567038,0.35179636,-0.6327174,0.030915957,0.5757821,-0.73341674,0.9103208,0.24035147,-0.7538699,0.2386199,-0.61278343,-0.8665807,0.6486767,-0.8397746,-0.937652,-0.31470785,-0.19426556,-0.09578296,-0.19727533,0.25510037,-0.19351214,0.4346346,0.571709,0.83817625,-0.7019598,0.0040061846,-0.13700326,-0.6355388,-0.13133632,0.6760569,-0.66139984,0.48897368,0.7579607,0.7857573,0.05442464,0.7991049,0.55501294,-0.4845036,0.2778713,0.8585182,-0.41319248,0.07645044,0.7040767,-0.5180546,-0.4178194,0.70531535,0.35898834,0.4017649,0.8347921,0.038063068,0.0017957683,0.7431518,0.08987121,0.16980426,0.47557294,-0.15069453,0.6630406,0.9502329,0.09809837,0.36614376,0.8445374,-0.8681643,0.9639288,-0.18259725,0.9052583,0.345349,0.75565434,-0.14876202,0.6465583,-0.8367889,-0.80028415,0.4481373,-0.37227958,0.5655757,-0.59847134,0.34500104,0.48957074,0.6973357,0.02298727,0.2246292,0.81625974,-0.90405506,0.62292635,-0.41139618,-0.850096,0.42609456,0.7894518,-0.93497366,0.8439441,0.44610003,-0.8748798,0.20399654,-0.19718403,0.3012929,-0.57380843,0.29581288,-0.7190758,0.37902015,-0.36557853,0.4708178,0.44322798,-0.21034944,-0.22953537,0.8264712,-0.7573338,-0.28999782,-0.24990354,-0.23689936,0.89085615,-0.78555703,-0.8600401,0.514339,-0.19397703,-0.015628064,-0.65512586,-0.8096612,0.29198813,-0.59560114,0.6949798,0.18218961,-0.8824921,0.8736643,-0.030720716,0.32011342,0.9209164,-0.083803184,-0.6803965,0.54428554,0.25096723,-0.3196466,0.116523154,-0.1980428,-0.7468817,-0.9262427,-0.90197736,0.8609546,-0.320821,0.9769033,0.6993946,-0.47453055,-0.15828924,-0.34122342,0.26889697,-0.7723372,-0.03551428,0.24203609,-0.22877815,0.7911106,0.71460515,-0.2699609,0.014781055,0.5657065,-1.0167439,0.9205701,-0.25450122,-0.40034804,0.9517446,-0.5049178,-0.48133904,0.2334592,-0.3606695,0.48349974,-0.6988124,-0.33551043,0.7524218,-0.42189103,-0.20236573,-0.62241256,-0.4155397,-0.45659643,-0.23168026,-0.030723488,0.9223627,0.9156892,0.8495562,-0.39277676,-0.7522414,-0.5650175,-0.081252396,-0.19348934,-0.09626555,0.038551558,0.13483031,-0.6268949,0.7293843,-0.09048004,0.80316186,0.44703636,-0.54379183,0.7813977,-0.86446345,0.03288518,0.7895641,-0.6800307,-0.031993985,0.28636393,-0.28613803,-0.34948602,-1.0014459,-0.8652363,0.91854787,0.65936875,0.6618051,0.48646393,-0.0632872,-0.20182116,-0.7752116,0.8035526,0.17561348,0.78814054,-0.7202527,0.8077674,0.048915587,-0.41727367,-0.42825407,-0.08820645,0.6044914,0.46160412,-0.22598502,-0.22649646,0.20838858,0.0901082,0.100799404,0.20819512,-0.35399902,-0.3139374,0.013279246,-0.5886543,0.86968017,0.4869191,0.05283179,0.62309664,0.90634376,0.21832551,-0.7031082,-0.29258397,0.09591951,0.044013858,0.51066023,0.69896567,0.43881103,-0.43264118,-0.49432996,0.5671056,0.88532674,0.5809078,0.35897464,0.48640442,-0.9526545,-0.30938363,-0.8899958,-0.26473755,0.29757676,-0.13825478,1.0010607,0.23655067,-0.08059849,-0.27829304,-0.45251068,-0.84374756,-0.55256766,0.82983166,-0.48094422,-0.73872143,0.5274289,0.3254812,-0.8860807,0.43998477,0.1346812,0.408719,-0.49981925,-0.011089375,-0.71874285,-0.22273664,-0.7623848,1.0306134,-0.9014089,-0.73357743,-0.25775322,-0.7507442,0.12795646,-0.8044179,-0.5533867,-0.22541755,0.50926435,0.56235904,-0.27919075,0.46801153,0.5504858,0.75195223,-0.042254444,0.14640112,-0.629266,0.8149607,0.8593956,-0.18378118,0.06557445,-0.47733852,0.9661447,0.86059076,0.08304832,0.6540681,0.76532644,0.4366315,-0.8170196,-0.09182792,0.69140935,0.30191287,-0.11227473,-0.08068937,1.0174156,0.19029726,0.8648266,0.18372867,0.8158591,0.48466507,0.30349055,-0.18316004,0.39687297,-0.07040642,-0.030347299,-0.5744179,0.90850407,0.95171595,-0.27004924,0.55412346,-0.6098208,-0.14925613,-0.15256958,-0.41986108,-0.23814337,-0.20553923,0.3189866,-0.761662,0.010698812,0.07736786,0.7265021,0.9252923,-0.04125419,-0.25314048,-0.5683206,0.29003578,-0.091688246,0.8981006,0.6844811,-0.0045297774,0.4170479,0.21474023,-0.49687788,0.66624284,0.32395035,0.52631384,-0.725314,0.64951456,0.03112874,0.36190978,-0.52048147,0.61380523,-0.0956941,0.58890927,-0.9860974,-0.8834343,0.3261094,0.057513844,0.5890023,-0.56697464,-0.47342336,0.94765717,-0.075322814,-0.61435026,0.59304065,0.2569873,0.29997066,-0.9743997,-0.42510194,0.5909495,-0.4893257,0.7502551,-0.3207636,-0.044484403,0.55803764,0.5901968,-0.74811745,1.0116706,-0.25715062,0.06946385,-0.25852928,-0.12857477,-0.7518514,0.702503,0.5838359,-0.86290985,-1.0281126,-0.16256471,-0.8907933,0.3458273,-0.7995773,-0.13394734,0.9572832,-0.5237716,0.084329985,-0.024487441,-0.047128968,-0.32442144,-0.9939812,-0.6265936,-0.59180164,0.25198773,0.10751378,-0.9198047,0.50329876,0.66384685,-0.7310034,0.17583147,0.24148096,-0.19593796,0.7761881,0.4003802,0.2866402,-0.11316844,0.59344435,-0.11181694,0.1678964,0.16106078,0.19930167,0.7194053,0.071942866,-0.8908599,-0.8813636,-0.7024075,0.8231238,-0.22448355,0.7684549,0.23904909,0.29189914,0.26151854,-0.2131808,0.54025906,-0.9913787,0.9128798,0.4706644,-0.09301615,0.24758378,0.5040453,0.70658535,-0.8550398,0.7269581,-0.8099491,0.27442876,0.069199204,0.6080384,-0.42710927,-0.846104,-0.816179,-0.8475368,-0.27569708,-0.026710983,-0.2461128,0.5286267,-0.5656022,-0.97992885,0.3224364,0.32132056,-0.775771,-0.5177514,0.60720307,-0.2682062,0.28757507,-0.25381544,-0.7186479,0.8174222,0.12039324,0.60924214,0.65979284,0.16370593,-0.05618228,0.8026909,0.9287014,-0.41378886,-0.1404906,0.51011026,-0.103696644,0.32731187,-0.7218743,0.15511519,0.39825013,0.33137527,0.65128434,-0.930585,0.24478893,0.69398403,0.72426945,0.918918,-0.91952443,-0.85270846,-0.8415862,-0.4178146,0.05117983,-0.8529501,0.17669028,-0.2507264,0.23408628,0.3094262,0.09887534,-0.243965,-0.3326002,-0.073372126,0.75882024,-0.39860168,-0.15956746,-0.4716039,0.8700912,-0.032848258,0.7589,-0.39058816,-0.34372702,0.5477223,0.7551975,-0.90175116,0.8634801,0.45701012,0.6674896,0.27448776,-0.32445157,-0.4885653,-0.5543017,0.39830127,0.85695726,-0.28223455,0.9586156,0.15150395,0.87650186,0.5055792,-0.5340319,-0.84883624,0.06079662,-0.28940123,-0.48775935,-0.32245505,-0.4456039,-0.8127345,0.9167943,-0.49330574,0.872615,-0.031650286,1.0448976,0.07163041,-0.70580786,-0.067496926,0.938423,0.44146022,0.5117915,-0.5870915,0.26383805,0.08531645,0.5722273,0.20501778,0.9202461,-0.34688744,-0.11336265,0.5627081,0.57571846,0.50400776,-0.62353444,-0.7645944,-0.981361,0.52690643,-0.08040393,0.98409337,0.49198717,-0.48180106,-0.8016288,-0.3681804,-0.25125554,0.6282229,-0.27986774,-0.5796659,-0.24484158,0.78916293,-0.23487833,0.5781542,-0.19921245,-0.09524183,0.38116482,0.3118049,0.6776276,0.123008594,-0.94960535,0.11267281,0.80218905,-0.5050395,-0.45667958,0.09286111,0.57717377,0.5139941,-0.7365286,0.3142368,-0.49131438,0.30593535,0.3165378,-0.90544355,-0.5164233,-0.7479896,-0.79476804,0.5912198,0.4142924,-0.20740925,0.39585876,-0.9317234,0.6142436,0.2571393,0.11500339,-0.009673053,-0.72578675,0.49584544,0.823721,0.17026846,0.13704082,0.09823934,0.34802562,-0.19341178,0.63305324,0.5919933,-0.7861518,0.26796445,-0.4948472,-0.16446897,0.3895332,0.22390819,-0.7444423,0.7866418,-0.42532468,-0.3356676,0.7122491,0.2075641,0.003238349,0.07946131,-0.17819123,0.6978361,0.45794183,-0.2456728,-1.0053829,-0.15414365,0.92881674,0.78551435,-0.80677855,-0.97317713,-0.15693717,-0.73439705,-0.049469046,-0.18700436,0.8708941,-0.7691033,-0.84120876,-0.088706896,0.24841116,-0.2437109,0.35182524,0.91115505,0.5468165,-0.6630982,0.37028345,0.59502715,0.9216529,-0.22088993,0.094224475,-0.84448785,-0.2899185,0.5922336,-0.12475747,0.12570176,-0.13385211,-0.35478154,-0.95766896,-1.0264523,-0.6958288,0.15525171,-0.43395177,-0.24358311,0.65134335,0.40827665,0.49340403,0.7713045,0.8246415,-0.014208176,0.6397688,0.06054653,-0.85705054,-0.038652115,0.32967559,-0.95816326,0.46880376,0.4190779,0.56145865,0.56115305,-1.0674142,0.2731398,-0.42386335,0.48811632,-0.46531734,0.83451915,0.46432966,-0.46323243,0.573894,-0.07640572,-0.2824512,-0.9087389,-0.24893719,0.74291885,0.4416025,-0.4253772,-0.078647934,-0.85784453,-0.95167744,-0.75423187,-0.37213656,-0.047923774,0.84415084,-0.14359084,0.565244,-0.27101693,-0.44863132,-0.3364483,0.6927124,-0.7726757,-0.94763917,-0.6406889,0.9157233,-0.23655543,-0.8916924,-0.38881668,0.7334733,0.86129177,-0.82826096,0.52709734,0.5263119,-0.45661616,1.0461648,-0.35522774,0.4435233,0.15141037,0.15201062,0.19414084,0.9652722,0.6345664,-0.07571873,-0.9437273,-0.4034842,-0.47542107,0.33772492,-0.50202984,-0.7245943,1.0067489,0.13275802,0.5111996,-0.6670658,-0.96072966,-0.9329821,-0.8915431,-0.6836102,0.58582985,0.0062941215,0.81538886,0.4378028,-0.16939595,0.5866128,0.6763838,-0.74260736,-0.63710165,0.31947663,-0.03304909,0.64346224,-0.22310609,-0.66995156,0.080283985,-0.12117986,-0.47754025,0.89826757,-0.72912586,0.43621755,-0.7921078,0.15566437,0.4747937,0.07082743,0.9183856,0.09890499,0.80202043,-0.23330946,0.8212132,0.80618167,0.3734934,0.006701813,0.60437524,-0.44988078,0.0971157,-0.3834691,0.87929326,-0.53003293,-0.24514973,0.61188835,0.5971186,-0.599196,-0.89354134,-0.15118162,0.51458037,0.0015759193,0.96392155,-0.5712092,-0.44875687,-0.08033339,0.40159896,0.77144426,-0.013031591,-0.8617999,0.41541457,0.85791075,0.29360604,-0.77483445,0.83354187,0.1693948,-0.73892087,-0.9706947,0.0973707,0.25642115,0.21939811,0.054914843,0.95706624,0.03521727,-0.17475364,0.30351248,-0.7072795,0.83618104,-0.45577458,-0.38850826,0.5824455,0.3015877,0.2634932,-0.5163543,-0.78197163,-0.29231718,0.11401122,0.58437324,0.48188272,-0.93095905,-0.16416481,-0.91070884,0.69189215,-0.76985174,-0.79496294,-0.44842568,-0.6639616,-0.3964481,0.1836712,-0.44558567,0.042602513,0.03451444,0.7419631,0.29675192,0.78616923,-0.105789766,0.15009134,-0.39341354,-0.16433412,-0.69416994,0.23219419,-0.37404576,-0.4572361,0.19210781,-0.14413215,-0.2734074,-0.07458512,0.052377183,0.6641806,-0.89425,0.9774257,-0.6677535,-0.014769789,0.75320256,0.455697,0.811059,0.7984524,0.32113528,-0.418641,-0.30464572,0.18775786,-0.30264428,-0.371705,-0.14019872,0.92781496,0.73098224,-0.6960411,-0.39501798,0.41422403,-0.26596686,0.45720544,-0.79766226,0.89743114,-0.9683966,0.06549935,-0.7960994,-0.052156553,-0.5162362,0.7304053,-0.1696181,-0.18646234,0.7402476,0.22090198,0.14612094,0.75390047,-0.87840956,-0.9694281,0.43979865,0.17948882,-0.08319481,-0.8747904,0.24988115,0.5694179,-0.22175336,-0.76333255,-0.66352415,-0.36571726,0.06943998,0.5858354,0.6694232,-0.8782024,0.83660877,0.4620991,0.42405695,-0.69826895,0.27653602,-0.78802544,0.5841115,-0.059011888,-0.55885,0.7870444,0.7773838,0.83798236,0.52244246,-0.07401616,0.21951973,-0.8989053,0.12984052,-0.27711228,-0.06160696,0.10035062,0.9611577,-0.8795794,-0.79510224,0.48829758,1.0141109,0.8324331,0.4676705,0.08097034,-0.30132496,0.8328348,-0.41886336,0.28764656,-0.9999505,-0.061305832,0.9228355,-0.8942318,0.8293394,-0.7454968,-0.977257,-0.16599669,-0.3675592,0.31339657,0.9068609,0.29985216,-0.9208284,0.29893115,0.3393664,-0.76229435,-0.66697735,-0.35994923,0.36624283,0.69444466,-0.1913358,0.41611934,-0.8121526,-1.0263865,0.36762744,-0.6101302,0.5903287,0.38987285,0.59133565,-0.048228752,-0.9243418,0.15310474,0.5840055,0.6620106,0.16574058,0.95868593,0.01135454,-0.7916386,-0.58478916,-0.35901853,-0.5319489,-0.90075344,-0.021043144,-0.82230544,0.43994886,0.78217053,0.92579365,-0.9768632,-0.37847066,0.0011693502,0.014446958,0.77404386,0.5558805,-0.54698855,-0.012844913,-0.6606753,0.85579985,0.57705265,0.12420771,0.35282993,0.03473338,-0.7081229,0.39091,-0.5519775,1.0134482,-0.399471,0.8538409,-0.11856383,-0.21013056,-0.9459561,-0.1782432,-1.0017246,0.38414738,0.6896976,0.28341284,0.09223819,0.16594931,-0.21023257,-0.70571214,0.93157023,0.015589492,-0.3620625,-0.6921819,0.4414886,0.57929623,0.03295015,0.2933893,-0.75102854,-0.8810254,-0.47496927,0.6291401,0.27385917,1.022402,-0.0028675497,-0.15761639,1.0059683,-0.027167924,0.6169451,-0.57728875,-0.27345797,0.25058573,0.13830715,-0.10830954,0.3451695,-0.24271265,-0.6653288,0.13102405,0.1961204,-0.54020804,0.2642411,-0.117769025,-0.47270113,-0.6592912,-0.93843526,-0.16287261,-0.9915984,-0.715553,0.5822812,-0.1613964,-0.8990931,-0.0759474,0.5772334,0.35227662,0.9036647,-0.4606275,-0.5239712,0.9391304,0.74153715,-0.46173498,0.75516057,0.008238526,-0.97408754,0.10286685,0.84333056,0.3524791,0.3625754,-0.43027183,0.47674102,-0.5112385,-0.7420004,0.21051085,-0.83500385,-0.58289915,-0.20963173,-0.22075021,-0.6959708,-0.9384091,-0.6784332,-0.8768794,-0.068231255,0.28214917,0.3659697,0.044404697,0.06099533,0.70267475,0.3427857,-0.54094285,0.7528388,0.14353102,-0.85315967,-0.39795786,0.15689123,0.2306214,0.7054509,-0.82013905,0.17270203,0.010758966,-0.261538,-0.7926346,-0.6641706,-0.58057106,0.81865215,0.5017882,-0.79802,0.06080909,-0.08843818,-0.61376053,0.64912045,0.4892124,-0.88415813,-0.12513478,-0.80075526,-0.62778455,-0.4473877,-0.4637397,-0.58767056,-0.36376008,0.72795904,0.20812052,0.1544997,0.116623424,0.06447297,0.8553375,-0.7836704,0.941122,-0.23942582,-0.646227,0.67497486,-0.28237808,0.8651518,-1.0080801,0.3696982,-0.99667037,-0.5963639,-0.73089683,0.44125542,-0.93773293,0.36727306,-0.61316663,-0.08737767,-0.23314767,0.2658779,-0.85517234,-0.82519346,0.16072588,-0.5991674,0.2729227,-0.97487926,-0.1718217,-0.9554859,0.3214674,0.5097203,-0.38842824,0.10486071,-0.7305584,-1.0160668,-0.08590676,0.25246072,0.82582235,0.8591148,-0.9546154,0.10709544,-0.06757199,-0.30370286,-0.79118806,0.7435206,-0.56886613,0.6539696,0.52204853,0.7848918,-0.019220365,-0.6557459,-0.006611168,-0.9401153,0.6438286,-0.8374761,-0.96305084,0.039923184,0.047004998,0.11086698,-0.37575042,-0.27351648,-0.76715916,0.5191647,-0.64270175,-0.42663756,0.2069037,-0.23997235,-0.63333994,0.39286265,0.18587115,0.63096994,0.4364377,-0.60290504,0.28267774,0.264784,0.31603345,-0.14355037,0.4599821,0.43663213,-0.24157773,0.15075865,-0.86619985,0.064726956,0.7151911,0.09067879,-0.6946607,0.46189392,-0.46131086,-0.5943151,-0.0714176,0.91547114,-0.71650594,0.68314666,0.7798414,0.6693391,0.10351017,-0.6675594,0.8576041,-0.24162005,-0.9669319,0.35756364,-0.016524386,0.7035555,-0.63433444,-0.1168528,0.25078887,-0.87301064,-0.9144511,-0.883037,-0.38649648,0.6407953,0.7921018,-0.92918706,0.23583418,0.4890217,-0.3492202,-0.80164415,0.9434407,-0.7142845,-0.5508473,-0.5791296,-0.429157,-0.022804935,-0.41805556,-0.3989537,0.34935722,-0.1972438,0.5443777,-0.97355086,-0.29876372,-0.27422914,0.43512753,-0.76336384,0.3166678,0.19729634,0.6323682,-0.096781336,-0.8648492,-0.25871626,-0.40414143,-0.86037934,0.5399004,-0.9402683,-0.14156614,0.6039615,0.9180117,0.051022667,-0.057294875,-0.6058688,0.45991802,0.29622397,0.14122294,0.48076314,-0.6747383,-0.5751357,-0.09348881,-0.7889769,0.43080944,-0.23073421,-0.8006144,-0.8437689,-0.52491015,-0.41788128,1.021602,-0.024883231,-0.10048665,0.49801788,-0.29150468,0.8608075,-0.32397333,-0.20340466,-1.0012437,-0.987568,-0.13209099,0.5728609,-0.93846345,0.18267725,-0.7323265,-0.051556736,-0.76802945,-0.72384536,-0.3538161,-0.5071264,-0.6734908,-0.6831067,-0.1701885,0.25516948,0.08454065,-0.7726852,-0.45632455,0.35752225,-0.46502498,0.077136345,0.2506521,-0.53867245,-0.7645145,-0.030913867,0.5245838,0.83092606,-0.22048001,-0.02842497,-0.20588623,0.3919029,0.013501585,-0.48766688,-0.2507866,-0.2141945,-0.9053046,-0.066948056,0.2456795,0.086659275,-0.5889343,0.87252015,0.27066612,-0.7923939,0.33518443,0.31985945,-0.8202852,0.06315916,1.037565,0.61844456,0.9071879,0.2073394,0.2843129,-0.46338758,-0.59983826,0.71645755,-0.09574663,0.5201354,0.30469894,0.62946284,-0.14660423,0.66520387,-0.45561767,0.50138927,1.0454059,0.8681533,0.06414081,-0.36309704,-0.70692825,0.91961753,-0.3790464,-0.81427675,-0.70613074,-0.15036036,-0.78027874,0.72539175,-0.5238074,0.9360226,0.82917583,0.7960458,-0.3997728,-0.06021873,0.5752158,-0.32322797,-0.7219707,-0.19563739,0.86365044,-0.83716315,0.2935111,-0.28275016,0.77375203,0.12648636,-0.7622708,0.16315253,-0.62173843,-0.89429057,-0.21806438,0.2480931,0.28451818,-0.7653317,-0.8523287,-0.02672526,0.059525304,-0.1544586,0.13155384,-0.2740287,0.46724564,0.026827255,0.5636363,0.73223835,-0.04413603,-0.05595008,-0.17136912,0.3173102,-0.9964981,0.6715943,-0.98936886,-0.11609338,-0.67984825,-0.8634811,-0.6918698,-0.38380143,-0.0569059,-0.57530844,0.34962395,-0.36556673,0.9140296,-0.81923795,-0.35154602,-0.67507505,-0.8962827,0.71737134,0.46666443,-0.7875418,0.43557066,-0.57043093,-0.29495856,-0.4184477,-1.0497429,0.10756237,0.44672406,0.08315504,0.69999385,-0.08497267,0.74535096,0.6163325,0.61722183,0.5295234,0.5403878,0.78852403,-0.5019554,0.24315232,0.27423397,0.82306594,0.8994878,0.26955983,0.58869284,-0.48936024,0.545591,-0.5642677,0.25040147,0.4652867,-0.99808776,-0.24290828,-0.18321589,0.4472827,-1.0019734,0.71032274,0.3689138,-0.4343026,-0.5215541,-0.26332656,0.23459202,0.5250262,-0.10769059,0.17719743,0.63098997,0.5402462,-0.3344251,-0.54050636,-0.05522429,0.5304,0.28524417,0.3135464,0.7791083,-0.9926646,-0.14532584,-0.025592985,-0.028258778,0.32778054,-0.6492373,0.7701405,-0.59726787,-0.45448852,-0.97896796,-0.8819238,0.8664811,-0.54526955,-0.9523936],[0.105667375,0.33574748,-0.18543433,-0.6560788,-0.37715873,0.6063594,0.7305541,0.45167482,0.10293259,-0.73776746,-0.78149664,0.42984745,-0.7308478,0.66800004,-0.70691466,-0.2160546,-0.088046394,0.85675406,0.8680382,0.84391975,-0.7316018,-0.9687159,-0.32480595,-0.7136853,0.959612,-0.7665486,-0.10568649,0.39145085,0.97734016,-0.19486839,0.90890586,0.15541276,-0.84511316,0.5723008,0.100174055,0.44951817,-0.40144667,0.21667238,-0.83428925,0.7736883,0.14799038,-0.262865,-0.41430256,-0.5378302,0.51965904,0.7150873,0.10051185,0.60566264,0.69236016,-0.12245585,-0.29073304,0.73195636,0.8309935,0.039249893,-0.71098363,-0.0696006,1.003434,0.6011509,-0.8550293,-0.52228135,0.7064935,0.42654335,0.05132464,-0.2845954,0.069423586,-0.113257,0.68775976,-0.785176,0.5284614,-0.46408704,0.9640101,0.94208,-0.7813647,-0.36069325,-0.38450408,0.9658648,0.7091713,-0.41816342,0.9924287,-0.17472467,0.24620831,0.7721796,-0.8720945,0.011806006,-0.2665637,-0.29779515,0.09133058,0.72073007,0.75598013,1.0277508,0.46950218,0.9183462,-0.26446894,-0.46823832,0.36238346,0.36704868,0.8497941,-0.33679518,-0.744031,-0.46365234,-0.5679601,0.5786037,0.12505823,-0.6419376,0.8874367,-0.6230825,-0.2970611,0.3915565,-0.5035122,0.17175168,-0.96955234,0.028111534,0.5741217,0.044110704,-0.9316113,-0.50226885,-0.2505133,0.1980917,0.70519894,-0.4521021,0.5674646,0.11043759,0.27742654,0.3393764,0.07674451,-1.041368,-0.922178,0.41563278,0.98492,0.3957845,-0.6813728,-0.41468576,0.6032103,-0.7911221,0.0070085987,-0.07935594,-0.7742427,0.15769021,-0.52884686,-0.5620899,-0.6520298,0.3852838,-0.19640186,-0.05712675,-0.7315262,1.0516587,0.22271667,-0.19988984,0.16010544,-0.7359447,0.64433646,-0.13588291,-0.67801553,0.5302599,0.0018443479,-0.5470619,-0.35026646,0.7025127,-0.39330623,0.40355304,-0.1847521,-0.34052348,0.06407801,-0.8717332,0.31623554,0.7395408,-0.6131598,-0.01421576,0.4775164,0.48764843,0.4140561,0.15873425,-0.26905274,-0.6965605,0.1502366,-0.23561367,-0.9926967,-0.29000834,0.10540967,0.90347314,-0.30297586,0.7473254,0.24040015,-0.8005842,0.66653,0.8096478,0.37674615,-0.78261244,0.093210846,-0.529293,0.9826713,-0.25871575,0.33855277,0.4015542,0.7381591,0.5875155,0.29592282,-0.32093614,-0.59515786,-0.9704375,-0.6200713,-0.10110708,0.7940147,0.7076062,0.45205328,0.9945244,0.60670286,0.79188037,0.94015557,0.25699914,-0.13639663,-0.10893202,-0.82843226,0.5516712,0.5278596,0.8290761,-0.6736553,0.7550924,-0.85308754,-0.08994006,-0.38983116,-0.546566,-0.08150581,0.9043253,-0.115958534,-0.46336356,-0.90060073,-0.49394378,0.65355384,-0.570869,0.3277425,0.36701688,0.97735006,0.50683415,0.5430426,0.123425715,0.4845921,-0.3947077,0.46573845,-0.9113962,0.65800196,-0.071284585,-0.12410363,-0.9687556,0.2818196,0.13442825,0.96641755,0.97128236,0.7658491,-0.5424592,-0.97425663,0.6695942,0.5344738,-0.81054604,-0.76866657,-0.44413173,0.21861205,0.02008124,-0.29515153,-0.21890375,-0.81868976,-0.18884183,-0.15697885,-1.0064195,0.31873927,-0.5726556,-0.57597864,-0.4761754,0.04264762,0.26050848,-0.38195795,-0.1788093,-0.6769816,0.14048357,-0.95408696,0.19873315,0.539767,-0.046350896,-0.62488234,0.453848,-0.07292051,0.8200549,0.26932907,0.7168495,0.6649517,-0.4991379,-0.6336702,-0.57969385,-0.4989079,0.7092898,0.33996493,-0.22537118,-0.20082062,-0.028077487,-0.5873847,-0.33482143,0.72989964,-0.8251865,-0.17977121,0.5629768,-0.83637965,0.62268573,0.8363082,0.6823971,-0.9137262,-0.6737442,-0.92624277,0.21653554,0.016718317,0.573748,-0.32878608,0.4177956,-0.08506899,-0.084595025,0.37875345,0.04888574,-0.2680363,-0.17227036,-0.9729346,0.1604985,0.8825371,-0.6549942,-0.69917923,0.05666022,-0.7798154,-0.7594554,0.76162934,-0.24702273,-0.51161873,0.5229474,-0.3521371,-0.21863544,0.6683981,-0.5451589,-0.9919751,-0.67054534,-0.69699425,0.47702983,-0.35189676,0.33476228,0.7267374,0.30556208,-0.11756222,-0.5245423,0.5680738,-0.7704773,0.061965533,0.65059185,0.2756195,-0.011707751,-0.47556764,-0.7379151,0.19043379,-0.12896292,-0.74182206,-0.057160523,0.08544223,0.8011337,0.43365577,0.3865269,0.13311258,-0.9111922,0.8334242,-0.20897685,0.27821347,0.88057613,-0.5829769,0.88604766,-0.36143,0.742046,-0.38087273,0.7678719,-0.6138486,0.115337506,0.9444954,-0.4521761,0.57026786,-0.45940647,0.53000927,-0.13725394,-0.41207922,0.5706409,0.57558393,-0.42186064,0.92341816,-0.040140852,0.45636293,-0.06342018,0.18015957,0.421867,-0.45604923,-0.7865089,-0.19666333,0.2852403,-0.64110565,0.072206214,0.43502593,0.888614,-0.92997247,1.059582,-0.61655855,0.99586827,-0.10596285,0.036905408,0.84962535,0.28256664,-0.50929457,0.9848687,0.03236373,0.40328267,0.059686825,0.46290672,0.43074763,-0.51624805,-0.63505435,-0.079597116,-0.06048502,-0.009699938,1.0194073,0.13062312,0.080645725,-0.21835011,-0.36147645,-0.38788006,-0.32307732,-0.8656246,0.13045815,-0.4810297,0.9351968,0.24442117,-0.24214227,-0.60189795,-0.75102764,-0.73828316,-0.5606483,-0.16432789,-0.9742488,-0.060154833,-1.0033181,-0.41306424,0.12841533,0.38092786,-0.28164813,-0.4585942,0.5417646,0.6361734,0.076456785,-0.24582364,-0.26778635,0.83847994,-0.7030675,-0.68333054,0.56404823,-0.434235,0.9712554,0.8072747,0.028551556,-0.49614275,-0.3697329,0.87542033,-0.9927412,0.11252852,-0.4326724,-0.23021778,0.7765762,-0.44576886,-0.0816343,0.5757723,-0.40036336,-0.24101645,0.9534624,-0.37125364,-0.116593,0.29834306,0.26993236,-0.1401679,-0.083342746,-0.5811042,-0.6884779,-0.6254521,-0.69834,-0.13287063,0.34838217,0.52449435,0.32155523,-0.70868605,-0.70061773,0.67320335,0.46580562,0.27791232,0.075985655,-0.9027637,0.2624607,-0.46270826,0.8703098,0.97298443,-0.18361042,-0.19621128,0.79307437,-0.6698299,0.6831196,-0.2685358,-0.18132374,0.5380761,-0.27588508,0.54692495,0.58772373,-0.7533228,-0.33798933,-0.06328962,-0.32873064,0.91394717,0.2645959,-0.50542957,0.54398304,-0.90833884,-0.5069021,0.47327724,0.76976687,0.91531926,-0.43524268,0.67128277,0.10334635,-0.48282003,-0.11618975,0.38363826,-0.441878,0.65330327,0.18523507,0.61185163,-0.73395985,0.8921456,-0.91388476,0.04971908,0.30953744,0.5756571,-0.41892648,-0.25679138,0.5488675,-0.87943864,0.5235356,0.19452864,-0.39995778,-0.48046014,0.43564612,-0.45836082,-0.40293115,-0.18566598,-0.59994715,0.7675588,-0.35573828,0.1197182,-0.924881,0.40957767,-0.5571965,0.693962,0.2999073,-0.16223674,-0.96008277,0.4214521,0.98691785,0.55893785,-0.1596893,-0.034775313,-0.79184645,0.8455624,-0.6083465,0.7398981,0.4622441,-0.84669584,-0.40826252,0.47307882,0.7807934,0.80932355,-0.6138557,-0.23222299,0.104445435,0.09407924,-0.99807507,0.6793386,-0.90941405,0.40799293,-0.17932376,0.513133,-0.213901,0.4295756,0.59772366,-1.02657,-0.52387625,0.8255497,-0.21837172,-1.0125128,0.76267445,0.15804051,0.77333057,0.7167196,0.45781896,-0.8527185,-0.16026498,-0.5601243,-0.013508133,-0.8768954,-0.08372535,0.42202067,-0.982096,-1.0071721,-0.33210436,-0.26825145,0.17364986,-0.51089394,-0.036769673,0.3643287,-0.64596343,0.17147866,-0.040544596,0.0004752786,-0.9575077,0.7926262,-0.79865426,0.18863492,-0.10347157,-0.28864834,0.07973088,0.64436036,0.08786316,0.26374844,0.28495058,0.6793449,0.30979648,0.86190945,-0.80885905,0.1726789,0.7464538,-0.074991375,-0.12075174,0.20707564,0.04970407,0.90082455,0.290046,0.6220428,0.62012565,0.009020614,-0.47079915,0.77169603,0.1752165,1.0365963,0.9128819,0.7747739,-0.7116103,-0.12053372,-0.74082977,-0.5036889,0.9788962,0.4231222,0.25036076,0.07707073,0.86837214,-0.6492458,-0.28780064,-0.6095758,-0.4351436,-0.6350117,0.06990836,-0.49737355,-0.345829,-0.11489878,0.30270657,0.5229633,-0.8158679,1.0836794,0.8057137,0.16626087,-0.8145653,-0.213648,0.64627945,0.6115801,0.4412113,0.061245676,-0.51325065,-0.53266144,-0.7846086,0.62796086,0.11268195,0.25001895,0.26043624,-0.6444012,0.20961416,0.015215416,-0.04231018,-0.059920337,-0.5704509,0.45963132,0.54739076,-0.007409954,1.0210388,0.9175786,-0.26399088,-0.86921537,-0.09532716,0.7195854,0.6510097,-0.43096262,-0.6795425,0.3882544,0.2328551,0.28645173,-0.40022716,-0.078834295,-0.3885491,0.5080166,0.00023845024,-0.7228958,0.953065,0.82875973,-0.37934577,-0.21112767,0.67261463,0.41967958,-0.44735762,-0.40845427,0.807574,0.90955025,0.60554415,-0.64596564,0.28017306,-0.2974599,-0.1340773,0.90094745,-0.035388637,-0.85076606,0.6382704,0.63198936,0.029258445,0.1127233,-0.036673702,0.27339217,-0.87339497,-0.3688858,0.9355238,-0.5403243,0.2709536,0.6848177,0.30341682,0.8032175,0.57442796,-0.098354235,0.1556517,0.25238287,-0.36669347,-0.67243606,-0.31034583,-0.11512126,0.41915363,-0.22729026,-0.424262,0.47700775,0.500078,-0.7271338,0.47797936,0.2954115,0.1883732,0.48993328,0.8024951,-0.002082983,0.47216564,-0.21587697,0.50191057,0.26066118,-0.11743089,0.32654354,0.4174905,-0.19367872,-0.31845665,0.3376986,-0.9101733,-0.0425459,-0.2689712,0.14508644,-0.8057538,-0.5484118,-0.83216053,-0.30196923,-0.7169148,-0.12718572,-0.48957193,-0.28850228,-0.64808553,-0.56773865,-0.34849074,0.43088916,-0.38874885,0.399288,-0.563288,0.38910845,-0.79274756,-0.4988389,0.044875246,-0.209964,-1.028981,0.8609331,0.111110955,0.7896101,-0.0994779,-0.38557938,-0.45903233,-1.0128305,-0.5943553,-0.9623084,-0.71602964,0.8975406,0.41402808,-0.023566727,0.2010496,0.70738035,-0.5868604,-1.0025867,0.48801845,0.32998258,-0.33020794,-0.20913957,-0.261957,-0.13146952,0.45709306,-0.0006811813,0.0055370014,0.780815,-1.0085306,-0.18485239,-0.7686624,-1.0276749,0.82069004,-0.87297785,-0.5752164,1.0150144,-0.9377108,-0.9088437,-0.14236768,-0.08708581,-0.9723735,0.33333692,-0.9598246,-0.8233953,-0.32120746,-0.5833361,-0.57479566,-0.81694627,-0.46161807,0.80487686,-0.41017732,0.19506666,-0.66473275,0.7277164,0.4873784,-0.87445444,0.8412777,0.171712,0.30058557,0.5670961,0.25831723,-0.93734145,-0.8667127,-0.22814788,0.48664206,0.36709735,-0.29299638,0.93297637,-0.6327545,0.33282357,-0.41873163,-0.24008454,0.78249484,-0.3268943,-0.8803844,-0.834746,-0.5227331,0.74367416,-0.081557505,0.80914795,-0.38125157,0.66662127,-0.6597396,0.8864692,0.26094136,0.97790235,-0.11326846,-0.6824617,-0.4296224,-0.008679508,0.1161126,-0.49493217,0.7788383,0.66650397,0.22177595,0.5383252,0.7211936,0.21846597,0.850903,0.21781228,1.0145915,-0.944701,0.98451984,0.25569847,0.11414459,-0.68105227,0.4012593,-0.3591591,0.55691737,0.636292,-0.7233364,-0.55156624,0.33831543,0.9557696,0.08586812,-0.6323738,-0.9080534,-0.34517425,0.25037235,-0.83571637,0.6018942,-0.46978313,-0.098511264,-0.1619991,0.9878284,-0.4884999,-0.119999394,0.9532676,-0.1750238,0.2547971,0.111066476,0.15309964,0.9592016,0.99272764,0.5378576,-0.23282799,0.36597237,-0.6846825,-0.32801032,-0.5022543,-0.8748172,-0.62384665,-0.102944866,-0.7550141,0.6247556,0.19367488,0.32102177,-0.0968919,0.6809127,-0.843697,0.9846776,-0.505795,0.59848833,0.16787031,-0.79982173,-0.25501728,0.6601003,0.07711415,0.20175047,-0.66947675,-0.42961797,-0.3057673,0.8394715,0.3597873,0.6137277,0.377578,-0.77074265,-0.13548225,0.7967422,-0.3572072,0.6090309,0.18902996,0.8106971,-0.42820966,-0.49189913,-0.5402378,-0.14154603,-0.80966425,-0.65262365,0.52972716,0.84378004,-0.92162,-0.19064209,0.19837867,-0.060284022,-0.25622937,0.515183,-0.64781946,-0.061894692,0.41155714,0.5834872,0.5929214,-0.9122541,-0.91620046,-0.004535963,-0.4604893,0.13613768,0.20619383,-0.21138543,0.15730739,0.080707945,-0.062288504,-0.63269943,0.6333705,0.050346646,0.5372209,0.8199446,0.65852094,-1.0420369,-0.5522613,-0.8765863,0.87763417,-0.14967649,0.3125581,0.6309524,0.55963856,-0.42614278,-0.20113313,0.6986882,0.8172209,-0.3798177,0.11076469,0.062396802,0.66107124,-0.60222936,-1.0650438,0.7650663,-0.8527114,-0.46384284,-0.9376212,-0.39812273,-0.22260423,0.74500793,0.15037322,0.77217776,-0.7132766,-0.47251976,-0.60654885,0.24063137,-0.37380412,0.86313355,-0.13862416,0.43606013,0.938768,0.6191661,-0.740666,-0.24060284,0.27878538,-0.117359094,-0.708768,0.28658262,-0.4639715,-0.5591252,0.5133919,-0.90677166,0.029176416,-0.49578595,0.54448503,0.62397546,-0.78516996,-0.9852551,0.34022346,0.94248825,0.42732626,-0.93194944,0.25221714,0.7804699,-0.71697325,-0.01861451,-0.968209,-0.9697501,-0.012766192,0.42826834,-0.024999745,0.4878744,-0.07402883,-0.58198696,0.71489894,-0.8037726,0.055362623,0.81712997,0.24339953,-0.37418193,-0.951342,-0.52141756,0.054703455,-0.48487368,0.7355778,-0.9019368,-0.33981216,-0.14415765,0.22390532,0.69058204,-0.6801503,0.55584437,-0.6279987,0.3355355,-0.13304213,0.2424203,0.23275718,0.35009557,0.2722136,-0.7285643,-0.14102472,-0.8108321,1.023454,-0.98083454,0.95045894,0.57013255,0.87201554,0.27502346,-0.13234527,0.36779237,0.40344968,1.0603496,-0.86605644,-0.35460925,0.39474252,0.24767746,-0.3303681,0.80759406,-0.5816781,-0.7995864,0.98273396,-0.015526318,-0.7879247,0.5690188,0.09625813,0.90771383,0.1352909,0.7009114,-0.91510373,-0.20478481,0.7863474,0.094886035,0.07624929,0.09922672,0.772568,-0.034521442,0.08787309,-0.32090634,0.72085935,-0.18500766,0.0017625393,-0.32226494,0.9964947,-0.0666031,0.72199106,-0.06814446,-0.36134848,-0.8675228,-0.9012178,-0.12982349,0.6863793,-0.6179876,-0.8491161,1.0200484,0.9944789,-0.4015024,0.7094797,0.036221858,-0.69165117,0.86351746,0.41631415,-0.58655846,-0.8473051,0.4230405,0.6131496,0.3133093,-0.57189244,-0.2543599,0.42568916,0.50740796,-0.43312377,-0.7949056,0.16698751,-0.4990373,0.48158053,-0.64336205,0.08071607,0.6316442,-0.5350651,-0.65346545,0.33326653,0.25419942,-0.4431464,-0.42106238,-0.25392213,0.569195,-0.49205083,0.739529,-0.96288186,-0.3371445,-0.39449292,0.25898442,-0.624923,-0.026698606,-0.6276308,-0.8944364,-0.4938297,0.66320926,-0.48667538,-0.7874197,-0.11984868,-0.80763644,-0.6780392,-0.6930197,-0.96405804,0.37005156,-0.36486515,-0.030961948,0.35076386,0.1808676,0.455984,-0.88759154,0.13473994,0.33562598,-0.018899532,-0.14962491,-0.843554,0.33056858,0.90115213,0.53264785,-0.60253155,0.5058117,-0.66825616,-0.28437722,-0.8685667,0.34435058,-0.24715324,-0.04193719,-0.20281625,0.58234936,-0.22108093,-0.89344746,-0.5761245,0.5835037,-0.14245538,-0.1744089,0.6214636,0.76376796,-0.836536,0.2788889,0.44404525,0.3059465,-0.66410387,0.011366918,0.09390355,0.29943627,0.71748126,-0.9014558,0.61377734,-0.007565189,0.6387035,-0.14156199,-0.56916934,0.6401348,0.6974861,0.8375014,-0.32590252,-0.95338595,0.8423441,0.14906868,-0.4440972,-0.46116024,0.6182656,-0.56296647,0.5050184,0.59955186,0.19123022,0.17562243,0.42007196,-0.87639916,-0.34131318,-0.4704599,0.1840494,0.43004647,-0.1750321,-0.24626791,0.005017088,-0.4043869,0.40760443,0.2404521,0.79453635,-0.7474376,0.09252846,-0.6446425,-0.55736494,-0.49988034,0.6717356,0.7237644,0.13736987,-0.47504085,0.56548506,0.02189266,0.075860016,0.27525592,0.2381591,0.57204527,0.47537553,0.77077967,0.05193466,0.05850106,-0.51917565,0.7765103,0.07563692,0.64350444,-0.068034895,0.015312654,0.9354458,-0.0066491812,0.9143538,1.0095757,-0.95111513,0.5725216,-0.84039307,-0.7318038,0.82470924,0.9502628,0.6189899,0.5256291,-0.3787544,0.7037065,0.79556674,-0.16477737,-0.8546704,-0.40001544,0.37896588,-0.2705695,0.17956729,0.6435804,-0.86656356,-0.685838,-0.5109023,0.026200876,0.8116188,-0.4474867,-0.77077776,0.4239088,0.62301064,-0.7059039,0.30591303,-0.42269334,-0.83313525,0.2150497,-0.22830765,-0.29269087,-0.9229299,0.11477914,0.04675843,-0.9225898,-0.98973644,-0.49162915,0.200632,-0.52639675,0.40315232,-0.79497826,-0.524739,0.7854026,0.8244709,-0.02560129,0.8193637,-0.1386377,-0.50503415,0.24761663,1.0032274,0.46906435,-0.8265007,-0.9403537,0.9097809,0.6346469,0.4888169,0.4922578,-0.7231387,0.13339832,0.60482794,-0.87870467,0.3540342,0.6840857,0.39742416,0.627073,-0.13132505,0.044452626,-1.010091,-0.10505958,0.0438987,0.7401192,-0.14649636,0.109351754,-0.11571871,0.17969103,-0.5186753,0.46547145,0.7877034,0.957308,-0.5739129,-0.44680253,-0.05574819,-0.12924755,-0.45301744,-0.39501518,0.7343543,-0.89146906,0.43015933,0.3061489,0.33221108,0.026455013,-0.68533474,-0.3106704,0.15085582,0.24331056,0.58797944,-0.6864589,0.34838572,0.5459448,0.2678142,0.31491685,-0.5205032,0.47273445,-0.04700375,0.45495015,0.0043896153,-0.017125683,0.72568274,0.84827304,0.8707473,0.44671538,0.43570742,0.59153295,0.08064814,-0.44147658,0.38215464,0.9988369,-0.1674094,0.5703202,-0.7531271,0.56981844,-0.9292199,-0.6107101,-0.82614356,0.72367626,0.3869828,-0.5114285,-0.60689,-0.83250767,0.25349575,-0.12379203,-0.043848272,0.75332135,-0.11650545,0.78625214,0.94071275,0.395296,-0.093852386,0.35525396,-0.6266475,0.73425615,0.020701766,0.7647673,0.22428565,0.7786886,0.22558829,-0.7920027,-0.5648446,0.8721521,-0.2902764,0.8616053,0.8650171,-0.16171136,1.031329,-0.881893,0.688426,0.4241526,-0.07823925,-0.33757612,0.56658393,-0.49277008,0.5130916,0.7941266,0.35230592,0.77857095,-1.0454011,0.89275455,0.81998575,0.6655016,-0.76093775,-0.41443187,0.9372611,0.44927,0.71817946,-0.56980246,-0.9168492,-0.071126044,-0.16669764,0.20017709,0.78549945,0.28637773,0.8048054,-0.35761073,0.18436469,0.3451338,0.75052774,0.54634094,-0.21691239,-0.2861552,0.3574812,0.2865041,-0.48188043,0.22042412,-0.22631572,-0.11532294,0.44859573,-0.66858363,-0.47041762,0.30635262,0.89706326,-0.26046285,0.85513085,0.601684,0.6906155,-0.90488243,0.42484018,0.3367522,-0.32391217,-0.94856584,-0.049251765,-0.3163322,-0.7219746,-0.4124572,0.060412627,-0.161534,0.13467701,-0.6688346,-0.79047567,-0.7416527,-0.10675856,0.4540019,-0.13626705,-0.80660564,-0.23066299,-0.146683,0.74015677,0.7098479,0.6961585,0.19956651,-0.54141754,-0.7471709,0.78562593,0.89647985,0.41878155,0.20920262,-0.6486974,-0.16764352,0.140269,-1.0056561,-0.031267717,0.5768197,-0.2949431,-0.6076266,-0.36456275,0.8239524,0.27149713,0.04978209,-0.20953567,0.8438197,-0.1350104,-0.16170582,0.104268014,0.056191884,0.13127683,0.5390643,-0.66870666,0.20396718,-0.52064764,-0.16614479,-0.19984633,0.44809604,0.8390301,-0.47075543,0.4374061,0.3992821,-0.90000665,-0.8362196,-0.24017695,0.9448373,-0.6453583,-0.43859965,-0.16580737,0.23758884,-0.24075131,0.08293715,-0.39848197,-0.31062207,0.5535449,-0.6639081,-0.71748394,-0.07629342,-0.18961212,0.73607314,0.030369122,0.5673132,-0.11943569,-0.39561182,0.47299224,-0.6604489,0.81184614,-0.6888286,0.5044851,0.20371388,-0.613909,0.7448623,0.047163606,-0.09876007,-0.2886146,-0.6824305,-0.8451284,0.52656215,-0.3869278,0.118945,0.33093524,-0.067724295,-0.64406943,0.83181995,0.3374865,-0.5836547,-0.27297184,0.76451176,0.3022335,-0.39312336,0.19839624,0.6114478,-0.30382457,0.5906106,0.5953622,0.4262782,-0.18702346,0.54447836,-0.812973,-0.19938494,-0.34303975,0.05787369,-0.7606004,0.6230094,-0.04295411,-0.3506609,0.34958968,0.3990523,0.56166226,0.7861423,-0.54572725,-0.608995,-0.57460284,0.28124404,-0.08133805,0.74809897,-0.419908,-0.4042915,0.74782413,0.24532388,-0.21162151,0.80482167,0.92085034,-0.26539755,-0.089667894,0.32047153,-0.28733253,-0.7304757,0.57855326,-0.0027400195,-0.31545636,0.5378798,-0.83755094,-0.1228917,0.08731776,0.58807987,-0.83520806,0.6351092,-0.46059662,-0.0937271,-0.99711025,-0.13851382,0.19594294,-0.13017103,-0.96640253,-0.15907224,0.9432309,0.5682921,0.48840588,0.7781598,-0.12754866,-0.5472162,0.8478642,-0.64643955,0.13016604,-0.5106793,-0.74405086,0.33944145,-0.6545246,-0.20722067,-0.88817155,-0.11374424,0.4965872,-0.13677642,0.82947063,-0.46902984,0.54436743,-0.106117636,0.81436926,-0.80695343,0.23959973,-0.7837165,0.4889059,-0.30634898,0.6091414,-0.49715635,-0.31828755,0.7879257,-0.5627269,0.6555275,-1.0096709,0.26610878,-0.25682577,0.4232942,0.5793564,0.75309736,-0.3917268,0.06859089,0.8428953,0.91789174,0.778626,0.20451707,-0.7688458,0.7083299,0.21354273,-0.9436857,0.9698808,-0.6702225,0.9091746,-0.3247724,-0.069650695,-0.0035857102,-0.44587135,0.6909052,-0.59079117,0.19591255,0.24491829,0.13060711,0.05583478,-0.6417268,-0.7193216,-0.2637884,-0.38981426,-0.79514515,-0.13135542,-0.12574302,0.48038867,-0.6681553,0.19964403,0.12018003,0.15712957,0.8740503,0.25792298,-0.8829838,-0.042644914,-0.50671524,0.04419937,0.029794637,-0.38891473,-0.89921564,0.5143448,0.3877961,0.8067383,0.47086412,-0.87465787,-0.4039062,0.6618695,-0.46058854,0.5163225,-0.57797176,-0.12352011,0.73740345,-0.67755705,0.21276872,0.46595514,-0.07091682,-0.81976986,0.7333217,-0.14349985,0.052372534,-0.5599027,-0.5612864,0.48054183,-0.6218926,-0.4622083,-0.14031254,0.5209565,-0.7058267,0.13361086,-0.346897,0.93006045,0.77240986,-0.69049674,-0.008246964,-0.6382148,0.57044816,0.47764888,0.8913371,-0.55471927,-0.44902122,0.94032204,0.66465664,-0.98307353,-0.41213468,0.15642194,0.7845327,0.012518137,-0.12008987,-0.63728285,0.5030999,-0.66573006,0.79298043,0.8753297,0.8122559,0.56910115,0.89332354,0.7400454,0.5528016,-0.17231515,0.5254554,-0.17343512,0.7264123,-0.032828797,0.15104201,0.30726457,0.010599185,-0.26436323,0.87295973,0.66125244,0.9005946,-0.53190017,0.4089841,-0.27868515,-0.1539597,-0.18019748,0.61441016,0.00071438495,-0.5681462,0.100071035,-0.99584717,-0.22646256,0.45150506,-0.94384843,-0.70803386,-0.07068403,0.645819,-0.7492241,0.07143766,-0.9133941,-0.49318132,-0.53619945,-0.83042955,0.68023443,0.66844076,-1.0519103,-0.9600948,0.86915284,-0.41442734,0.3363097,-0.95715773,0.034586616,-0.764821,-0.95721793,-0.7946557,0.082076706,0.26505136,-0.45272893,-0.60101974,0.985746,-0.068768844,-1.0661275,-1.006715,-0.5593833,0.23727232,-0.32842278,0.33738336,0.45259434,0.80824435,0.6194204,-0.061744086,0.7088395,-0.36727136,-0.9188905,-0.8164089,-0.11954054,0.49923292,0.49969026,-0.6205649,0.7227857,-0.96805686,-0.8355203,-0.6228717,0.69916135,-0.802039,0.6846366,0.29096264,0.31826288,-0.82314444,0.5156428,0.585465,-0.20060113,0.93845093,0.796021,0.5482582,-0.6328957,-0.18129641,0.17010719,-0.87565064,0.111177415,-0.2865869,0.73549175,0.38934872,0.7518976,0.28992364,-0.91413254,0.6942462,0.95659053,0.34317845,-0.8537031,-0.372755,0.26048693,0.8857429,0.072502606,0.19338132,-0.60427004,0.5268884,0.9240812,0.22327672,-0.06853232,0.9933779,0.1374358,-0.35449648,-0.03886046,0.9315791,-0.6282393,0.44122702,-0.0518485,-0.3407787,0.2811975,0.9005621,0.6014184,0.8318796,-0.36905554,0.844311,-0.47974625,-0.6983757,0.14378001,0.46582267,-0.99607503,0.39010227,0.55204093,0.10581642,-0.20329134,0.61452633,-0.65765196,-0.22844654,-0.525781,-0.43600827,0.20572336,0.61317194,-0.83530205,0.078927174,0.42166716,0.35332125,-0.6221561,-0.6729607,-0.8333036,-0.9422544,0.4758043,-0.048046608,0.21424288,0.108710445,0.8250981,0.19891049,0.7064438,0.45498005,-0.075313844,0.61827457,0.31996542,0.059820905,0.7758721,-0.48495102,0.75354373,0.41678253,-0.8563841,-0.23159215,-0.047658492,-0.80156446,-0.5401628,-0.69976026,-0.7565362,-0.5548729,-0.36649898,0.80605483,0.8957463,0.89762634,-0.43352422,0.87835085,-0.44657028,0.5044171,0.6458283,0.6566937,-0.91816545,-0.58044314,-0.6523796,-0.17789608,-0.6687677,-0.120344296,-0.8249679,0.9414781,-0.40873218,0.92310137,-0.84630185,-0.10138224,0.09516962,0.05589978,0.3673491,0.08396029,0.78964937,-1.0207268,-0.3441162,-1.0010769,-0.5214409,0.3875886,-0.6044381,-0.25763074,-0.7509439,0.45147154,0.35995698,-0.4665077,0.28071395,0.39106598,-0.72835803,-0.34061208,-0.603328,-1.0203516,0.10127508,0.4038314,-0.1357664,0.38648966,0.2306541,0.3441803,-0.99305624,0.04938151,-0.7358399,-0.49970627,0.6931515,-0.22652148,-0.13151512,-0.3889453,-0.71795815,0.1714609,-0.12161593,-0.16668336,0.5704058,0.50014985,-1.0152097,0.71068513,-0.83587885,-0.53865826,0.66821676,-0.55848986,0.8791991,0.7307433,-0.1568231,-0.33097222,-0.118022256,-0.6876129,0.6365993,0.19837101,-0.52788925,0.8910662,0.7396218,0.06047256,-0.49966756,0.759876,0.0060288906,-0.5568444,0.85088223,-0.754625,-0.8858778,-0.48517638,-0.54475456,0.0071913283,-0.40730456,0.69686186,-0.9931021,0.8563868,0.4843449,0.7000672,0.32671738,-0.46247384,0.21744514,-0.4033166,-0.3563154,0.57804024,0.7476605,-0.71843493,0.43643722,0.38877726,-1.0480446,0.2819083,-0.8033909,0.25656632,-0.15237795,-0.071896724,0.12289627,0.35855758,-0.8801786,-0.33573312,0.62145686,-0.7266775,-0.91567934,-0.79266655,0.57541573,0.6996079,-1.0416684,0.13758326,-0.5183426,-0.66412795,-0.87820333,-0.09754285,0.15318516,0.04357144,-0.6841819,0.06651744,0.44269148,0.58356583,0.60901,-0.45174143,0.49927095,-0.5273886,0.91993284,0.6970524,-0.22462754,-0.7586739,-0.69437766,0.79742837,-0.08581462,-0.06043395,-0.21928859,-0.7605132,-0.07031213,0.04791615,-0.72407687,0.16432233,-0.59928215,0.29452282,-0.6347512,-0.26982087,0.17565584,0.4558082,-0.7766812,-0.47728002,-0.6727323,-0.17298664,0.42572445,0.22647166,0.33426517,0.9376459,-0.48634812,0.38475022,-0.696911,0.4151863,-0.11965706,-0.19860592,-0.51186925,-0.77223897,0.7943525,-0.5084083,0.6243923,-0.21141297,0.44301647,0.01577622,0.28090435,0.34271663,0.33165464,0.40420675,0.4942863,-0.8867914,-0.8137361,-0.81942916,0.060304195,0.397531,0.3046243,-0.05985669,0.032805037,-0.9633489,0.24791938,0.04165341,0.8854877,-0.78626466,0.4579899,0.3202922,-0.9969325,-0.24294889,-0.61532456,0.21674757,-0.6249525,-0.41177368,-0.6695163,-0.68470895,0.69382685,-0.12825571,-0.28146118,-0.941685,0.40234888,-0.02099639,0.3570222,-0.88155454,0.7153613,0.15502012,-0.5490363,0.7041342,-0.6358093,-0.29975438,-0.78831303,-0.780359,-0.78044647,-0.6218972,-0.34957102,-0.6942506,-0.63839287,0.029737946,0.08863558,0.30093014,0.4759748,0.5605718,0.89563835,-0.7629285,-0.433914,-0.31439534,-0.5389132,-0.86249304,0.21877404,-0.13019054,0.3578602,0.82593304,-0.056053836,0.76765054,-0.44101143,0.4790069,0.5132074,-0.37643722,0.23438452,-0.7216369,-0.40085843,-0.8679036,0.48955908,-0.047513396,-0.95201963,0.81586987,0.32038486,0.20246445,-0.7736512,0.6358632,0.10014259,-1.0598704,0.58151156,0.19250166,0.5922691,0.58698696,-0.11240757,0.5639026,-0.4195839,-0.71326476,-0.41691017,-0.9456658,-0.6903599,0.21048963,0.67397314,-0.8727701,0.67629576,-1.0374504,-0.8976057,-0.15849921,-0.20905311,0.35226429,0.42423636,-0.057371955,0.32290587,0.18863462,-0.48881292,-0.120366655,-0.82125205,0.70015883,-0.3206944,0.15385793,-0.06475704,0.46511793,0.45282474,-0.1958728,-0.89407045,0.0037837918,-0.61192715,0.56194043,0.78150654,0.54073834,0.9057187,-0.541927,0.84303856,-0.49423993,-0.83208025,0.07325659,0.6029,-1.0462929,0.6396973,0.6620791,-0.15034904,-0.5320726,-0.07536433,0.3830377,-0.30298632,0.69685125,0.023116745,0.8577558,-0.862197,-0.021815872,0.45795915,0.20770124,0.29130128,0.15498163,0.88656527,-0.68731165,0.34432346,0.9348847,0.79229176,0.66257435,0.1071587,0.117090926,-0.01774293,-0.5532321,-0.19566248,0.39558783,-0.0063022655,0.016225092,-0.7901646,-0.43876186,-0.524129,-0.31727955,0.6238749,-0.110822685,-0.5533539,-0.08240318,-0.943273,0.33221346,-0.079388686,0.8763526,0.60742456,-0.3635555,-0.6346946,-0.45858774,-0.7309024,0.47684628,-0.4318474,-0.4207498,0.7865054,0.8068523,0.9316677,-0.32142302,-0.46320042,-0.46555358,-0.019173143,-0.31933057,0.118477724,-0.8533089,-0.7386857,0.8168081,0.20085035,0.54720324,0.010771458,0.9105968,-0.54457337,-0.6604002,0.58031684,0.40239486,-1.0400424,0.715753,0.09036963,0.8545897,-0.71092695,0.24229671,-0.37758943,0.57314533,0.30866116,0.6090955,-0.52854663,0.31168753,0.55442095,-1.0053952,-0.46584696,0.6946606,0.48913652,0.33936244,-0.18109107,-0.6607566,0.7059683,0.4473543,0.32296076,-0.98068035,-0.37679026,0.3622195,0.09994856,-0.5630533,0.27446726,0.38909927,0.61788726,0.88845336,-0.2375076,-0.5650142,-0.26069462,-0.14977182,-0.7844112,-1.0447738,0.01147027,-0.9668748,-0.7040063,-0.922623,-0.8112527,-0.3499071,-0.59276944,-0.43657434,-0.38657546,-0.26823676,0.85093236,-0.3764679,-0.36099717,-0.17356913,-0.25278547,-0.026446972,0.18252105,-0.90550625,0.5585774,-0.3542233,-0.18307611,-0.8760991,-0.9993076,-0.7946975,-0.9171805,-0.41463724,-0.117879756,0.3925358,-0.8904535,-1.0271062,0.8447901,0.63901544,-0.08793587,0.8358841,-0.027215594,0.7962553,0.15449986,0.9208499,-0.52033955,-0.07163362,-0.47962564,-0.596979,-0.14770809,-0.54638475,-0.52285004,-0.630153,-0.7364624,0.40683997,0.62761843,-0.2722334,-0.9835215,0.5945576,0.23970105,0.6096213,0.5359197,-0.9089747,-0.12497019,0.09248505,-0.10277704,-0.6418148,0.7605323,-0.6487346,-1.0079237,-0.8183721,0.28063148,0.41560522,-0.061938014,-0.2608413,-0.12699555,-0.8243434,0.80650514,-0.15189871,0.61467826,0.79642427,-0.11600148,0.055710122,-0.92916065,0.2852037,-0.9930864,0.4128819,0.6089907,-0.61792207,-0.5638423,-0.3794672,0.55333793,0.29877722,-0.1379801,0.356755,0.87549496,-0.7284627,-0.24740525,0.74451345,-0.79699016,0.85867256,0.7768978,-1.0098444,-0.012599829,0.42849702,0.27604502,0.44774538,0.85253316,0.7024671,-0.3039923,-0.0058409823,0.69086397,-0.5773387,-0.85193527,0.81540674,0.99793124,0.3200411,0.46287966,-0.61836606,-0.80734986,-0.76627755,0.19393718,0.21049076,0.74481666,-0.43056044,0.04842637,0.725498,0.02105436,0.754822,-0.42426014,-0.85743624,-0.8595699,0.26358032,0.24368066,0.6103026,-0.43371353,-0.41450003,-0.07050621,0.062155925,0.45601267,0.66226476,0.08673234,-0.6134093,-0.16124101,-0.6401626,-0.19481173,0.36712655,-0.36512437,0.042732,-0.18827127,-0.9256569,-0.8939288,0.016235186,0.49133912,-0.56296384,0.763939,0.06583012,0.6617286,-0.14759378,0.42356077,0.24069013,-0.6355975,-0.95269716,0.48868737,0.66551554,0.69694954,0.660449,-0.047077607,0.19841026,0.77344453,-0.12522064,0.5326362,-0.6336683,-0.86066926,-0.40629515,0.15338077,-0.32484213,0.31230104,-0.9069409,-0.31123197,0.5555146,-0.84403425,0.45748925,0.92886704,-0.44546717,0.35599786,0.9414757,-0.21910904,0.21508804,-0.34944865,-0.3731309,-0.12520139,-0.04281265,0.7477872,0.87589663,0.6916473,-0.15491782,-0.8991319,0.5662378,0.50394434,0.87225205,-0.4089689,-0.40013903,-0.5732396,0.6151824,-0.083153985,-0.9615371,0.80345523,0.64711654,0.6979243,0.5174235,-0.5231446,0.18533249,-0.5615536,0.4530314,-0.35821253,-0.037395597,0.38792583,0.53822887,0.6135776,-0.022233332,-0.44749686,0.35464683,-0.8483779,0.62162465,0.5616545,0.39103708,-0.9416708,-0.93314594,-0.74769855,0.017813848,-0.38207734,0.15360443,-0.8897242,0.53199774,0.71195674,0.13368891,-0.20264769,-0.16410232,0.7706988,-0.014593806,0.8684677,0.019381037,0.077157244,0.8214407,-0.9259359,0.55613047,-0.20075074,0.37319937,0.0153457485,0.4538026,0.7580883,-0.5919924,0.768309,0.1097784,-0.572454,0.71249753,0.6566383,0.056340884,-0.059398737,0.95209366,-0.54678184,-0.59235424,-0.53955597,-0.2898463,0.11254671,-0.5880707,-0.56060827,0.72603834,0.93208104,0.47598076,-0.82068974,-0.11007406,0.26173416,0.9811125,0.8438522,0.21033059,0.16342077,0.07096721,-0.34419325,0.2688339,-0.8908208,-0.20223077,-0.6955442,0.11713209,-0.7458503,-0.3787827,0.96057415,0.8831988,0.41169715,-0.64546657,-0.01473697,0.50201446,0.6463435,-0.83416605,0.18558621,-0.6048839,0.948188,-0.88529086,0.2340103,0.07086353,-0.20280139,0.45688954,0.7463314,0.053606845,0.7638051,0.3258725,0.8858378,0.41957203,0.70311034,-0.27931947,-0.13850118,-0.8068883,0.36584216,0.5937277,0.7917809,-0.034637105,0.053202536,0.69015884,-0.11821531,0.30064458,-0.6861545,-0.7044937,0.04527026,-0.40293226,0.40690747,-0.5071717,-0.6189009,1.0173439,-0.19442272,-0.10031718,1.0068628,-0.095724106,1.0485494,-0.7081713,-0.015360219,0.1543721,0.8492903,-0.79583067,0.93995655,-0.056590617,-0.3059986,0.81355006,-0.41206774,-0.8227853,-0.2508195,0.48358157,-0.6003772,0.5638762,0.99586123,-0.524465,0.17410007,-0.5684058,-0.22320284,-0.08798553,-0.8734013,1.008224,-0.8625384,-0.805555,-0.8554609,0.91834074,0.23958074,-0.9018121,1.0770836,-0.47282282,0.5162616,-0.68912804,0.991075,-0.95306146,0.37302133,-0.5676835,-0.59116906,-0.081978224,0.67213434,-0.09558366,-0.22008184,0.38448337,0.32449088,-0.9060699,-0.28713277,0.78147763,-0.9284295,0.47490832,-0.2737911,-0.59592855,-0.04987658,-0.47777134,0.015031252,-0.4256609,0.33705857,-0.3544329,-0.9028805,0.8460435,0.20462921,-0.5182187,-0.89635384,-0.5783869,-0.94075733,-0.28728,0.88696504,0.73524016,-0.91118854,0.89634687,0.34857628,-0.6191951,-0.34213552,-0.372356,0.597779,-0.52319664,0.26557893,0.40702137,0.5046767,-0.7987118,-0.18197054,0.7347456,-0.7855405,-0.17518683,0.45884478,-0.6093305,0.32308772,-0.58473456,0.6654478,-0.41828293,-1.0385182,0.82952666,0.11403234,0.7509378,-0.4857321,0.82594174,0.8196796,0.40792596,-0.62982833,-0.3114909,0.20021805,0.14565781,0.4367959,0.32271436,0.3062533,-0.5216776,0.0984483,-0.7087179,-0.22561696,-0.9559844,-0.6969947,-0.49884978,0.2425502,-0.89420635,-0.14346525,0.85191166,0.5307908,0.3412153,-0.635791,0.1971915,-0.501485,-0.32470056,0.92771345,-0.42364874,-0.56637293,0.18904084,-0.6631294,-1.0111625,0.87698245,0.50656927,-0.3356042,-0.7823626,0.18808633,-0.9380226,-0.091090515,-0.36703745,-1.0733378,-0.089440726,-0.7169341,0.47622332,0.5468403,0.7285414,0.12999351,0.0796167,0.61731446,0.15827808,0.39362806,0.09397553,-0.6639833,-0.8779573,0.90464306,-0.3782938,-0.81200385,0.19185539,0.39712265,0.89802545,-0.13904084,0.65652055,-0.4981475,-0.8751271,0.43825027,0.97179896,0.9221158,-0.2161497,-0.2772778,-0.19411889,-0.70477533,-0.38846958,0.11427273,-0.20792465,-0.9947228,0.7445327,0.5061893,0.29807463,0.76415753,-0.9904141,0.39852366,-0.7845692,0.17088552,0.44305116,0.86867255,0.46429017,0.04688906,0.96291274,-0.32148182,0.32850656,0.42214236,-0.935129,-0.4330871,0.98524636,0.69477206,0.52362996,-0.53175074,0.8727878,-0.1779946,-0.6625363,0.3342374,0.7832592,0.20202312,0.9960751,0.22382411,0.7670226,0.07494016,0.5554494,-0.9793376,0.7625042,-0.3158768,0.5883211,-0.19640832,-0.996568,0.27722242,0.3226588,0.6108637,0.045181226,0.63829994,-0.5742474,-0.70464504,1.0000917,0.55478555,0.005642865,0.5782071,-0.8215931,0.28173652,-0.4043525,0.15569626,0.08741895,0.9564579,-0.653269,-0.4800967,0.5999903,0.74492306,1.0006709,0.34225953,-0.46550003,-0.084540464,-0.42783973,-0.53592545,0.73967576,-0.11924706,0.2079692,0.3705273,-0.74309653,-0.5760274,0.79013854,0.38144976,0.40007538,0.12538669,0.3790559,0.3754898,0.010079457,0.8407562,-0.57035536,-0.21076891,-0.795813,-0.30490574,0.26014933,-0.14315204,1.0015047,0.36678958,-0.3622725,-0.7148997,0.78568894,0.3145013,-0.8875784,-0.1689149,0.83125263,0.59537435,0.5858316,-0.037903577,0.293076,-0.5881819,-0.9964471,0.54576755,0.47928315,1.0106348,-0.5076294,-0.91457766,0.7284045,-0.01962535,-0.18731461,-0.66425943,0.8817055,-0.7269107,0.7918968,-0.7011794,0.33815217,-0.14804368,0.15090363,-0.8463595,-0.72228587,0.4485038,0.5800005,-0.54215807,0.5898474,0.5831697,-0.98326445,0.72567827,0.24481677,-1.0620564,0.4526228,-0.90982115,0.7177216,-0.3369454,-0.85108477,-0.26291078,0.35668978,0.6248003,-1.0344839,0.28252763,0.8455116,-1.01596,0.17225784,0.000995658,0.7177637,0.5941733,-0.523423,0.12776893,-0.8202043,-0.17436771,0.002971849,0.33277425,-0.11708247,-0.754427,-0.6560543,-0.48828405,0.92809397,0.18523586,0.55100083,0.76776403,-0.9858689,-0.5982285,-1.1107783,-0.47587994,-0.23790504,0.77980787,-0.09445035,0.81701106,-0.49701825,-0.108768865,0.79424495,0.39421818,0.69735384,-0.13805763,-0.07564067,-0.025808351,-0.92047125,0.17820616,-0.38903636,-0.99229854,-0.8032344,-0.95286655,-0.12684974,0.26581636,0.599216,-0.62438875,-0.27543515,-0.21820684,-0.4928301,0.17992617,-0.8746268,0.32081085,0.45971635,0.4776086,-0.18700695,0.6569776,0.64329994,-0.6060865,-0.39128828,-0.45302078,-0.7697253,0.7126833,-0.50738174,0.3149108,0.97548944,-0.67736375,-0.14811315,0.19659433,-0.4858409,0.16086014,-0.369576,-0.09754352,0.21565804,-0.19467863,-0.4979712,0.21723138,-0.2666211,-0.5344464,0.467555,-0.52989286],[-0.5978498,0.23742469,0.56009865,0.2153625,0.6751386,0.5082785,-0.47585446,0.12652908,-1.0175027,0.7151421,-0.48856235,-0.04986152,0.07866983,0.05858226,-0.8584757,0.54581964,-0.095882036,0.40817618,-0.20712791,0.051099546,-0.44129482,-0.7324327,0.25499624,-0.6251685,-0.19581005,0.35914198,-0.25862315,-0.77953124,0.71858937,-0.7734792,-0.87284714,-0.32447925,-0.87330705,-0.29159546,0.27081266,-0.37768596,0.2461186,0.11937321,-0.461959,0.41763043,0.90076554,0.25322926,0.38722122,0.82654023,-0.11807639,0.87021005,-0.21416774,-0.42144412,-0.4545188,0.391899,-0.6750541,0.2820528,-0.5145131,-0.21703973,-0.005981086,-1.020544,0.43730617,-0.027353555,0.13023874,-0.21332249,-0.703454,0.27156535,-1.0102962,0.27575058,-0.6432995,-0.60922205,0.4245906,-0.41032937,-0.39840668,-0.40422958,0.551919,0.35507503,-0.21960747,0.70336545,-0.85710263,-0.9741407,-0.79719895,0.2144261,-0.05212666,-0.46111202,-0.6257893,0.2315944,-0.7086717,0.6693562,0.8766761,-0.7239604,-0.51208156,-0.94871676,0.90154034,0.2708554,-0.9808476,-0.22163591,0.02641938,-0.8324178,-0.26133564,0.072972946,0.09097296,0.17792894,-0.7893107,0.3264358,-0.33269972,-0.39761108,-0.9345011,0.46680975,-0.85027885,-0.77397156,-0.23528716,-0.94386643,-0.20190121,0.5484455,-0.5221737,-0.3708212,0.86673295,0.11266421,-0.4839821,-0.3901804,-0.5802268,0.80631346,0.07112834,-0.7798901,0.5347432,-0.2910473,-0.42919636,-0.79205585,0.32862765,-0.10861635,-0.16192341,0.2897143,-0.636912,0.2987481,0.7494025,0.7414588,0.8876038,-0.04539659,0.4147532,0.13786556,0.38657537,0.031012671,-0.6152024,-0.3012817,-0.11049173,0.5255224,0.2685919,0.02678935,0.14788829,-0.119905576,-0.11128164,-0.32067642,-0.13182391,-0.4465014,-0.28994375,0.25022617,-0.21403183,0.7400954,0.39229706,0.83999884,-0.36770192,-0.12810653,0.53173727,-0.37239477,0.06858026,0.6272484,-0.29639795,-0.014452703,-1.0320969,0.7650908,0.52935976,0.43782932,-0.21833217,0.8817854,-0.81479734,0.70287025,-0.37131396,-0.6836159,-0.5458284,-0.8966376,-0.7693713,-0.4050645,0.3314991,-0.33122778,-0.4434578,0.5136648,-0.83907604,0.03694353,0.57115537,-0.08788095,-0.21775937,-0.91350293,-0.27484173,0.5247109,0.90356666,-0.6966069,0.32353154,0.8475067,-0.3565294,-0.3172294,-0.18667547,0.45496884,-0.040414564,0.90572435,-1.0442814,-0.59672695,0.23517942,0.045175936,0.83513105,-0.95394266,0.28244078,-0.75920343,-0.2985544,0.29192114,-0.833002,-0.33632076,0.70444816,0.70125914,-0.9474327,0.046872653,-1.0142945,-0.2718856,-0.19141676,0.4297586,-0.8359626,-0.115328975,0.4207851,0.37102315,0.5308321,0.8006052,-0.57260907,0.683457,-0.67024064,-0.2440871,-0.27925822,0.43007663,0.6573701,-0.21237552,0.2510798,0.29892877,-0.22706833,-0.6931658,0.21868998,-0.2203597,0.06302161,0.30251047,0.39664692,-0.9865329,-0.51115096,0.24777228,0.62443435,0.03529597,-0.37686086,0.8122565,-0.4414287,-0.74968815,-0.1490218,0.5352267,0.11228335,-0.2538038,0.10263205,0.16091281,-0.94206315,-0.052310385,0.28611818,0.102892235,-0.40772003,-0.25143725,-0.5774743,-0.7754855,0.6347186,-0.3741311,-0.16665438,0.61682165,0.013635588,0.89865386,0.06829312,-0.5005939,0.4559683,0.76473516,-0.29295385,0.93104345,0.39164394,-0.84335136,0.00970974,-0.042633835,0.87925637,-0.04517522,0.313371,-0.098712265,-0.5149014,0.7815214,0.43729344,-0.34098387,-0.56682163,-0.282227,0.12876031,0.54143286,-0.5051001,-0.71064,0.11744871,-0.7527915,-0.46689633,-0.10902032,-0.62583476,0.2892347,0.91836333,0.9163158,0.15486138,0.7147177,0.47193882,0.958323,-0.12629393,0.2515264,-0.3490076,-0.8752495,0.70394987,-0.32572407,0.2874716,1.0417085,-0.06502771,0.47570878,-0.44748625,-0.21766149,-0.2250773,-0.7872796,-0.57644963,0.7015765,-0.7665728,0.30522686,0.03838919,-0.04724849,-0.7337199,0.9954437,0.62553465,0.7092771,0.010712081,-0.4700053,-0.34847525,0.2657585,-0.81959116,-0.94712734,0.9482829,0.7838706,0.35675317,-0.63068414,0.11700495,-0.20818582,0.6281236,0.05350893,0.4297528,0.6513019,0.8575503,0.9650903,0.7767149,-0.13453151,-0.8581685,0.26822048,0.6962204,-0.56680715,0.6208713,0.4235611,0.08754182,-0.299064,-0.90156597,0.51532394,-0.24228433,0.40375844,0.6717848,0.77388334,-0.4076247,0.25355324,0.08261534,0.7199114,0.37703842,-0.28507823,0.33929524,0.9427761,-0.5703701,0.16164096,-0.010726434,0.1848748,-0.36082026,-0.7097209,-0.5353363,-0.8149519,-0.77159655,-1.0897136,-0.41374826,-0.348616,-0.5907127,-0.74861705,0.89409643,0.4729254,0.044572968,-0.40785888,0.06473246,-0.27267757,0.75799143,-0.27702463,0.648821,0.31172514,0.22015391,-0.12578131,-0.6054985,0.564727,-0.0985004,0.5021045,0.5628776,-0.36851394,0.573249,0.7049123,-0.838415,0.229053,-0.63440686,-0.9922518,-0.61738974,-0.50921804,-0.6318302,-0.9975747,0.88079566,-0.3659698,-0.6140137,0.9628148,-0.42475304,-0.07976474,0.25846955,-0.15550603,0.26287106,0.49444786,0.32795036,0.5890687,0.38319036,-0.13535674,0.872847,-1.0138174,-0.6891,0.02319159,-0.5932924,0.4422499,-0.13221629,-0.719234,0.9381819,0.30373454,-0.0907089,-0.5845283,0.03189374,-0.8876006,0.054729115,-0.6165498,0.53589624,0.5362514,0.69938517,0.9667862,0.5905864,-0.9993056,-0.26812422,-0.46238872,0.91805243,-0.15351875,0.7240639,0.9275699,-0.40448835,0.5536343,-0.7721741,-0.38834774,0.14687936,0.8676561,-0.94342685,0.2674784,-0.89696187,0.06356877,0.036840264,0.41650748,0.2133351,0.5170372,-0.3631517,0.81140274,-0.7086175,-0.05272731,-0.0065610595,0.935742,0.085851885,0.15776712,0.91182643,-0.6898662,-0.16952284,0.98252314,-0.16303182,-0.80685264,-0.34497225,-0.38509533,0.2167535,0.16777693,0.10292164,0.94424593,0.66202366,0.3118427,0.62988776,-0.6874832,-0.41746193,-0.59632415,0.93486243,-0.81967413,-0.35939983,-0.38348982,0.28169507,-0.35233426,-0.8306747,0.6568013,-0.44372377,-0.680674,0.85703456,0.9278608,-0.6940373,-0.25063524,0.48087692,-0.23519626,0.32024625,-0.46451646,0.018278886,-0.46804944,-0.88187146,0.6698576,0.033759236,-0.22844324,-0.1075531,0.49725264,0.94628656,0.3232178,-0.17101993,0.9664326,-0.3246904,0.8828467,1.044389,0.17662433,0.54741293,-0.2996296,0.35291725,-0.88988614,-0.08214053,1.0213223,0.8841281,-0.025841385,-0.1392746,-0.72682625,-0.5102225,0.51647276,0.101638004,-0.94928086,0.33104482,0.5925708,-0.6805177,-0.48123002,-0.78764874,-0.11426921,0.8066721,0.747078,-0.3049629,0.75232065,1.0347703,-0.41282418,-0.1798176,-0.5326473,0.024898207,0.39815217,0.37620798,0.38966888,0.053996697,1.012747,1.0042996,0.17337179,-0.65287125,0.26134396,0.15713316,-0.7232787,0.71672565,0.49002713,-0.13464418,0.25645304,0.398917,-0.22367668,0.07252295,-0.72699124,0.7161164,-0.63875526,0.95094055,-0.37371245,-0.46838528,-0.7613786,0.13378167,-0.6847682,1.0640663,0.82523775,-0.4156402,-0.941868,-0.8987826,-0.332186,0.941805,-0.15102756,-0.67716616,-0.86191523,0.24779631,0.47169152,0.55709195,0.36350814,0.8228947,0.082242616,-0.83224416,0.5524623,-0.52593076,0.5377021,0.70259386,-0.20165843,0.6609734,-0.65355664,-0.89490944,0.43357417,0.36214995,-0.6399631,0.09617445,-0.84809595,-0.9592792,-0.88151765,0.48976138,0.30158696,0.8450616,-0.40037838,-0.5293341,0.39551023,0.7806484,-0.08157014,0.39237142,0.19309792,0.01757969,-0.40106612,-0.2827806,-0.11912485,-0.6744663,0.3850236,1.0207683,-0.56992906,0.8338073,0.68039274,0.9598488,0.75016195,0.16268682,-0.50658643,-0.4428367,0.5460225,-0.47641593,-0.39292824,0.47871718,-0.47946408,-0.7702582,-0.9483848,-0.6550496,-0.24429768,0.054055545,-0.7399527,0.78453237,-0.38443774,0.376396,-0.78214914,0.27963609,-0.34872165,-0.93310165,-0.29044905,0.7522233,-0.4064263,-0.84912515,0.6926144,-0.5769486,0.74539113,0.6075579,-0.048701253,0.496421,0.20617945,-0.97123253,0.44859907,0.55546725,-0.5012524,-0.9863744,-0.68469036,0.77072585,-0.94863915,-0.9141653,-0.23777051,0.93899584,0.79490167,-0.34606552,-0.8965039,0.20141254,-0.023684813,0.88557374,0.5096598,-0.7653498,-0.8629874,-0.12952067,0.56533074,0.44467187,-0.5196336,-0.84845525,0.43058082,-0.28854117,0.47851855,-0.40634394,-0.8006338,0.38703912,0.67138577,0.050223287,0.59184074,0.7816435,0.49445203,0.027977863,0.041124173,-0.76223236,-0.1363472,-0.8147715,-0.45711383,0.041361198,-0.25246426,-0.7629236,0.35589543,0.5163965,-0.029344162,0.48758262,-0.5937747,-0.12429715,0.039342616,-0.8584743,-0.9425822,-0.43289983,-0.79042274,-0.70051754,-0.89890903,-0.34010231,0.21771011,0.4896317,-0.8819473,0.050645802,0.3479674,1.0043287,0.27110422,-0.001617259,-0.28475675,-0.88908494,-0.030229606,-0.59123003,0.10777034,0.50029844,-0.33845317,-0.8489869,0.045993112,-0.46205413,-0.28121936,0.10089214,0.5817269,0.69137084,0.8027226,0.81906915,-0.48615602,-0.94536275,0.42371967,-0.3935227,-0.5493997,0.58958256,-0.8403677,0.915358,-0.6412225,0.6827841,-0.8166744,0.78445214,-0.08605747,0.06667999,-0.12546863,-0.06613358,-0.13261792,-0.27731833,-0.62486184,-0.58846086,-0.44749686,0.6048333,0.60957795,-0.6466704,-0.08931732,-0.26391652,1.1093875,-0.06376671,0.06767279,-0.640508,0.772278,-0.55610526,-0.6476975,0.043002523,0.66815835,-0.52557033,0.27076986,0.75499135,0.5667451,0.010825777,0.02662731,0.049464572,-0.41443247,0.10319326,-0.98631096,-0.4888285,0.89175564,0.89743274,0.059222452,0.58861285,-0.14579728,-0.91234636,-0.8109427,-0.37787002,0.13728987,0.49557403,-0.05262335,0.33749884,0.37714648,0.69230413,-0.23849691,-0.28806496,0.51598,-0.22876914,-0.6458165,0.79038334,0.17966042,0.017384358,-0.75260055,-0.08117616,0.22593236,0.87543315,0.02940281,0.15116757,0.5319433,-0.33365464,0.46740407,0.8330773,0.97725344,-0.46441087,-0.50765306,-0.3471122,0.43533528,0.30824435,-0.5439771,0.793895,-0.06370332,1.0427604,0.0068914406,0.43496406,-0.26771283,-0.71073884,0.68095654,0.5524066,0.1020591,0.8964439,-0.4395937,-0.7967774,0.3085809,0.8083279,-0.0043894826,-0.383465,-0.4329034,-0.320746,1.0540687,0.824372,0.53777355,-0.4994138,0.49912742,0.41889048,-0.15970577,-0.8352975,-0.6119344,0.85292745,0.80567163,0.098213114,0.016853906,-0.7548999,-0.08787651,0.41153538,0.6680049,0.7377598,0.2874971,-0.094618335,-0.20128162,-0.2590821,-0.19658136,0.3763451,0.8320899,-0.16664146,-0.89820004,0.64096606,0.45578995,-0.4135399,-0.45678204,-0.75210005,0.44674438,0.5553522,-0.40840563,0.9162664,-0.805065,-0.8243712,-0.9264543,0.45831665,0.47198683,-0.7935238,0.16455808,-0.29160586,0.07131006,0.580363,-0.980346,-0.73626566,-0.5749307,-0.4219451,0.6549672,-0.821265,-0.9240568,0.8448752,0.79981166,-0.0022471303,0.8790404,0.9146405,-0.79225475,0.9045265,0.33955416,-0.7401331,-0.2591549,0.14096063,0.1920269,0.77334845,-0.7684769,-0.16960925,0.12490145,0.70556974,0.6681133,-0.5120454,0.67556286,0.6412913,-0.4291255,-0.48058188,-0.242186,0.9607755,0.52932537,0.40140602,-0.22232787,0.7719919,0.4307347,-0.6432214,-0.65397215,0.2349538,0.68856746,-0.5769793,-0.66476077,-0.8608483,0.18179525,0.7410868,-0.56807566,-0.3452109,-0.56144,-1.0087281,0.16951385,0.30052543,-0.78261405,-0.066984065,-0.6847189,-0.5314931,-0.16911572,0.021077795,0.6743851,-0.24470428,-0.82504475,-0.8456533,0.031554844,-0.6315987,-0.0052846586,-0.49490976,0.10181409,0.5429242,-0.7784848,0.46513802,0.19853455,0.9323841,0.34985912,0.48947927,0.13452297,0.07678046,0.9107862,-0.3377166,0.95477235,0.8005974,0.29064715,-0.90989834,-0.4732001,-0.32756492,0.2602275,-0.26067963,0.3896704,-0.24713483,-0.2585739,-0.12151561,0.074289024,-0.12464761,0.011538727,-0.32281363,0.47005272,-0.19300285,-0.7645414,-0.31989497,-0.056247745,0.16348869,-0.51409876,0.6416569,-0.19438493,-0.5928747,-0.7916862,-0.77872986,0.6299975,0.46648088,-0.49899825,-0.6131518,0.45906806,0.9530006,0.5626251,-0.9846892,0.9500256,-0.59082425,0.21933395,-0.8751218,0.069322914,-0.03883498,1.1062177,0.07871396,-0.5858214,0.7137702,0.6050614,-0.81125176,-0.8270186,0.78512985,-0.8143083,-0.00019553944,0.47098634,0.24168606,-0.50454754,-0.8738915,0.515359,0.83515155,0.07713024,-0.83950937,0.051239036,0.7731697,-0.68762743,0.54525524,1.0258055,-0.7987259,0.2730703,-0.90101075,0.72667384,0.46493486,0.83793557,0.90973616,-0.47037372,-0.14957444,0.97866267,0.9538423,-0.012823662,-0.057978015,-0.56492156,-0.6805,1.0189168,0.028934684,-0.81543034,-0.8490859,0.18766262,0.35197797,-0.5449246,-0.28998506,0.4431114,0.5600302,-0.55939704,0.96935385,0.6590449,-0.41873938,0.34116948,-0.06412454,0.53111756,-0.86901283,0.37042922,0.80716974,-0.35197484,-0.77478415,0.33793658,-0.3251913,-0.70518166,0.17837788,-0.29500815,0.6609044,0.04635372,-0.33428216,-0.094136454,0.82205355,0.348312,0.6233496,-0.8894561,0.38537806,-0.21987584,-0.03423697,0.26696643,0.8231077,-0.88162106,0.8838843,-0.67273605,-0.13846233,0.5099667,-0.038329963,0.5871541,-0.35117444,-0.36771366,0.65176576,-0.6425215,-0.32438472,-0.7696283,0.076032124,0.86555505,0.13295408,0.6108684,-0.06057098,0.09363402,-0.60093486,0.73522323,-0.6408615,0.09102858,-0.43602788,0.06520959,-0.35704368,-1.0048965,-0.96706563,0.48823884,0.39446616,-0.24911116,-0.23626068,-0.89924943,0.53699404,-0.72496885,-0.23973423,-0.1254587,-1.0070232,-0.5899886,-0.7775728,0.6574047,0.5618365,0.5290486,0.25269547,0.6095184,-0.92383593,-0.14671898,0.5730721,0.40550375,-0.44363058,0.8292562,-0.5297838,0.82853776,0.39521515,0.33461732,-0.2628879,0.8920783,0.11892811,0.13330743,-0.6601857,0.9218093,-0.049366463,0.31692302,0.066220924,-0.43017098,-0.7156523,-0.082405485,0.7784077,-0.25633228,-0.26202992,0.8286186,0.55866426,0.40912127,0.49921706,0.46911022,-0.16270216,0.53902644,-0.21867171,0.30739173,-0.8473151,0.26868552,-0.66502494,0.06818502,-1.0109229,0.7940192,0.67205477,-0.88932455,0.44617325,0.28760782,0.5349769,0.2570213,0.06672579,0.7514302,0.05744368,-0.6961929,0.4269453,0.55590814,0.07880763,-0.38675702,-0.035800193,-0.39408818,0.9980699,0.6425442,-0.2735255,0.2351175,-0.4542174,-0.40004635,-0.365973,-0.6594183,0.6999693,0.43460137,-0.60859114,-0.39909792,0.62679046,0.4877705,0.6490278,-0.61763203,-0.87758356,0.010570041,-0.5676934,-0.3597424,0.04115205,0.5985285,0.47519183,0.9634526,-0.043889903,-0.08422182,-0.7836767,0.89824975,-0.26142317,0.7595528,0.3863253,-0.2484856,-0.5790115,-0.67869824,-0.67048013,0.7831346,-0.6286399,-0.3727584,-0.92767763,-0.54298514,0.93991625,-0.23722641,0.4669323,0.7389473,-0.60059303,0.22322264,-0.085638665,0.73018724,0.47730726,-0.053795025,0.0013837231,0.9167037,0.5149635,-0.60034716,0.54847634,-0.26134592,0.9469083,0.6161933,0.108472586,-0.48443332,-0.0048677525,-0.03439342,-0.85806096,0.6081665,-0.2737991,-0.17272593,-0.46081486,-0.83337975,0.9795766,-0.38749513,-0.01596188,0.7960105,0.41164848,-0.13553385,-0.6371012,0.21975678,0.41671112,0.31949544,-0.9360129,-0.4631668,-0.5277028,-0.7199754,0.47266448,0.7033117,-0.66660297,-0.08001303,-0.7434844,-0.7396453,0.5009861,-0.38441706,0.33740196,-0.43056363,-0.47795942,0.788082,0.4438537,0.75590336,1.0046957,0.28007498,-0.10018575,0.9395331,0.68643564,-0.20916222,-1.0016195,-0.9282742,-0.987582,0.61747605,-0.11900131,0.024549995,0.45236886,0.19037278,0.16071565,-0.43978268,-0.84473807,0.41610116,0.68417126,0.39935768,-0.36483577,0.48539478,-0.12404721,-0.663454,0.8691965,-0.921957,0.29898366,0.17952354,0.6350846,0.035174835,0.85998,-0.47397366,0.042731073,-0.63182306,-0.650797,0.99723196,-0.7596972,-0.91777307,0.97836584,0.09886324,-0.65069276,-0.6156948,-0.6444758,-0.9544422,-0.9610993,0.7208551,-0.61342263,-0.8294255,-1.013546,-0.96828145,-1.0399106,0.8233964,0.9570136,0.4371962,0.24837847,0.48032552,0.08052188,-0.028437972,0.8323956,0.120881535,-0.5498458,0.57132155,0.6462021,0.16894719,-0.9755966,0.4793197,0.7363958,0.14094904,0.5080893,-0.53744066,0.16330029,-0.10788884,-0.84183925,-0.29924893,0.36807132,-0.08413403,0.3641862,-0.42653686,-0.43390206,0.87506425,0.8772846,-1.0380473,0.12362996,-0.49009904,-0.87680906,0.62262905,-0.029121215,-0.6876848,-0.7464668,0.8624718,-0.8737952,-0.34201583,-0.8779167,0.51208067,0.87617433,0.9576023,-0.77189046,-0.6639632,-0.30036148,0.4147346,0.66420865,-0.27674943,0.80664366,0.5743088,-0.8866411,-0.51830906,-0.6209523,-0.73088604,-0.24678531,0.85184973,0.04165414,0.65424556,0.78154093,0.14882702,-0.27174366,-0.40950274,-0.55496377,0.9381262,0.22750272,-0.8313743,-0.6488979,0.41728818,-0.076359786,-0.9408318,0.8555087,0.520555,-0.008239644,1.0438493,-0.5369612,1.0263864,0.37374687,-0.42151126,-0.22669515,-0.8244059,-0.46142733,0.741482,0.36134055,0.49892542,-0.32136807,0.91323864,0.73997384,0.95166206,0.32295412,0.68511176,0.603467,-0.19370028,-0.5830371,-0.25948042,0.81563836,-0.07152556,-0.5860682,-0.4611218,-0.6421723,0.95718694,-0.55215013,-0.72498703,-0.22534123,0.27965003,0.39501798,-0.44360745,-0.70109653,-0.005391163,0.3601163,0.030021772,-0.43879786,0.26117158,-0.69169295,-0.8833952,0.04687609,-0.06814939,-0.5437044,0.70003057,-0.28423682,0.90946627,0.38832995,0.26351586,0.10350288,0.6282492,0.901161,-0.775447,-0.017510315,-0.5236555,0.2202526,-0.113473326,0.7013979,0.54539204,0.59853655,-0.083605945,-0.8258409,0.84223914,-0.15613624,-0.8612762,-0.05731156,0.1470511,-0.94569963,-0.6274894,0.81666327,-0.48627165,-0.8702758,-0.59482586,0.59304285,0.3839144,-0.19186592,-0.2778837,0.91580784,0.693241,-0.4735465,-0.17141333,0.45329815,-0.051927906,0.6091941,0.534579,0.45716196,-0.11344078,0.069699995,0.5508206,-0.36422622,0.83968276,0.6656274,-0.39384422,-0.4910716,-0.21182175,-0.30534437,0.37138015,0.6806454,0.8143822,0.14607114,-0.32951486,-0.620216,0.00903365,-0.53522766,-0.8395948,-0.94417596,0.045661524,0.14938816,-0.7546552,-0.16644976,-0.37942708,-0.20357251,-0.83820736,0.42715895,-0.95032495,0.37081242,0.27710742,-0.22029747,0.45585835,-0.7073361,0.3524433,-0.24875583,-0.38250998,-0.895857,0.6731608,0.35390607,-0.75572735,-0.34834918,-0.64226305,0.027736837,-0.78206015,-0.7933748,-0.20344931,1.0172522,-0.22516933,0.43713582,0.014945634,-0.01686829,-0.6731406,0.037689146,0.87627465,0.63847125,0.29769886,0.07501686,-0.24040067,0.76778454,-0.39910892,-0.17090726,0.23789659,0.62197715,0.35927424,-0.8909399,-0.5852648,0.29162258,0.3989105,-0.24069871,-0.8700544,0.76270527,0.03071103,-0.124472685,-0.66647035,-0.3822993,-0.79887897,0.45670602,-0.5983106,-0.10682952,-0.884348,-0.16014239,-0.71651655,-0.4853561,0.77933764,0.53188926,-0.534278,0.0099019315,-0.41007745,-0.37407017,0.66098434,0.011497334,-0.7409997,-0.19949824,0.91062075,-0.93055403,0.14484875,-0.3200962,-0.73001254,0.030948075,0.38119093,-0.93041813,0.7071834,0.4065875,0.8517462,0.6400674,0.33832756,0.48635504,0.5161679,0.21971853,0.84180474,0.1341692,-0.1044298,-0.45290712,0.072991334,-0.85731375,-0.32847077,-0.70569426,-0.032622945,-0.88436055,0.20566547,0.54465145,0.3595922,0.7346125,0.900135,-0.33671978,0.1641745,-0.73096025,-0.31386504,0.16490561,-0.17839402,-0.62529176,-0.41138208,0.5113651,0.26882347,0.44142586,0.26888707,-0.18110743,0.21890964,0.18993394,-0.772084,-0.29095566,-0.4916896,-0.80374277,-0.47287032,-0.33386928,-0.42954895,-0.86758995,-0.07741529,0.1960568,-0.470007,-0.5470627,-0.2243828,0.58798987,-0.8467249,0.013588177,0.35078704,-0.31754595,-0.80441236,0.5897686,-0.13505872,-0.28106025,0.617515,0.62107676,-0.61860645,-0.4228095,-1.074014,0.3169974,-0.402169,-0.9531882,-0.6388567,-0.84738797,0.42028216,0.18895353,0.1546566,-0.41098186,-0.055827968,0.18736762,0.14543113,0.57495075,0.9683068,-0.34909672,-0.50253576,0.9119346,-0.29595685,-0.3864183,0.00667856,0.43645683,0.7687842,0.8153686,0.7993422,-0.10238338,0.27464938,-0.58504134,-0.90545213,-0.22693077,-0.60623723,-0.9809888,-0.20726648,0.503997,-0.39779,-0.18073584,-0.36226085,-0.68746406,0.5270109,-0.1605572,0.598612,0.054423265,0.27641332,1.0153652,0.97098726,-0.27600703,0.4115098,-0.9032508,0.20728576,-0.40278393,0.72232807,0.7087182,-0.520487,0.19624768,0.59503675,-0.96799254,0.59769976,0.29413128,0.19784965,0.9219429,0.77783924,0.41713658,0.281424,-0.621331,-0.29512984,0.604551,0.32775468,0.8974298,-0.7968373,-0.82469565,-0.45150918,-0.0035359843,-0.8462903,-0.012633633,-0.13176091,0.049139626,0.9049135,-0.006838396,-0.73073846,0.19426085,-0.18993542,-0.88783675,-0.5631023,-0.5245194,0.33980608,0.39604318,0.7971243,0.43666625,0.45579973,0.75368315,-0.44336888,0.107425906,0.6442961,-0.33111414,0.9133607,-0.4037568,-0.4304832,-0.7457623,-0.22345531,0.27897942,0.1711272,0.27320874,-0.14894386,0.7585828,-0.581142,0.76669335,-0.71205676,0.8631114,-0.72767323,0.3628071,0.82795525,-0.98123616,-0.4485416,0.35355648,0.77629364,0.37809572,-0.7589268,-0.15358093,0.7875109,0.7341263,-0.9489286,0.80259675,-0.36368102,0.5941341,-0.9758476,-0.36435178,-0.5071061,-0.38241243,0.18019584,-0.8104002,-0.5523574,0.2792888,-0.23260495,-0.9181429,0.51257807,0.6842669,-0.9816933,-0.64082664,0.08128563,-0.69584256,0.35345286,0.9508012,0.96471226,-0.7800367,0.74087906,0.57484466,-0.8621911,0.053369842,-0.15874426,-0.6214773,0.22746062,0.10417229,0.5161675,-0.6346093,0.07269446,0.37946713,-0.9211907,-0.44331214,0.46900892,-0.70304334,-0.6078111,-0.9972214,-0.507546,-0.69254416,0.6082227,0.38481006,-0.9622045,-0.9097646,-0.21613435,0.61698306,0.23613669,-0.25024918,0.11282495,-0.7742475,-0.34990022,-0.032195944,-0.52846766,0.74476594,0.76252127,-0.28765482,0.58590996,0.36797956,0.55886716,0.40596917,0.37570843,0.95164835,0.66117287,-0.5106869,-0.7986844,-0.55777663,0.4286173,-0.7829776,0.26709494,-0.6851397,0.10289149,-0.8342784,0.43317872,-0.2154311,-0.90435517,-0.62280643,-0.15821591,0.36240578,-0.8260841,-0.70302176,-0.7360844,0.52155155,-0.6977504,-0.13654628,0.032819524,0.6460832,0.6297985,-0.9199538,0.5720094,-0.37565377,0.72518635,-0.032419242,-0.97424144,-0.09059506,-0.639314,-0.17150298,-0.87768805,-0.8130633,-0.7698295,0.29913658,0.14587528,0.8956197,0.5367088,-0.3428538,-0.072197706,-0.40913537,-0.74109876,