{"SupervisedType":0,"MultiLayerPerceptronWrap":{"LayerWraps":[{"LayerType":5,"Dense":null,"Dropout":null,"Flatten":null,"Lstm":null,"MaxPool":null,"Conv":{"Shape":{"Height":30,"Width":30,"Depth":1},"Kernel":{"Count":16,"Dim":3},"Activation":1,"Stride":1,"Filters":[{"ElementsOneD":null,"ElementsTwoD":null,"ElementsThreeD":[[[-0.10538337],[-0.1226196],[0.05767898]],[[-0.08007997],[-0.0031616571],[0.098483674]],[[0.07398035],[0.1240555],[0.18430676]]],"_shape":{"Height":3,"Width":3,"Depth":1},"Shape":{"Height":3,"Width":3,"Depth":1}},{"ElementsOneD":null,"ElementsTwoD":null,"ElementsThreeD":[[[-0.09207454],[-0.2064621],[-0.029561995]],[[0.11491743],[-0.053973053],[-0.12358084]],[[0.148755],[0.14741823],[0.03128039]]],"_shape":{"Height":3,"Width":3,"Depth":1},"Shape":{"Height":3,"Width":3,"Depth":1}},{"ElementsOneD":null,"ElementsTwoD":null,"ElementsThreeD":[[[0.09674181],[0.081895515],[0.026539765]],[[-0.035083532],[0.028555548],[0.0734739]],[[0.009736551],[-0.031814784],[0.07744479]]],"_shape":{"Height":3,"Width":3,"Depth":1},"Shape":{"Height":3,"Width":3,"Depth":1}},{"ElementsOneD":null,"ElementsTwoD":null,"ElementsThreeD":[[[0.09094053],[0.12908919],[0.083388634]],[[0.15336941],[0.12252203],[0.14305069]],[[0.07065129],[0.031148283],[0.042104565]]],"_shape":{"Height":3,"Width":3,"Depth":1},"Shape":{"Height":3,"Width":3,"Depth":1}},{"ElementsOneD":null,"ElementsTwoD":null,"ElementsThreeD":[[[0.08717996],[0.1360696],[0.17006494]],[[0.047927592],[0.11592694],[0.1483731]],[[-0.0060467636],[0.047828626],[0.078913085]]],"_shape":{"Height":3,"Width":3,"Depth":1},"Shape":{"Height":3,"Width":3,"Depth":1}},{"ElementsOneD":null,"ElementsTwoD":null,"ElementsThreeD":[[[-0.04348241],[0.07391928],[0.092199035]],[[0.059945337],[0.048198123],[0.027047569]],[[0.09440784],[0.0018776334],[-0.078729846]]],"_shape":{"Height":3,"Width":3,"Depth":1},"Shape":{"Height":3,"Width":3,"Depth":1}},{"ElementsOneD":null,"ElementsTwoD":null,"ElementsThreeD":[[[0.09920171],[0.09192229],[0.0013587466]],[[0.15515871],[0.08493744],[0.087489665]],[[0.13171485],[0.065213084],[0.11283622]]],"_shape":{"Height":3,"Width":3,"Depth":1},"Shape":{"Height":3,"Width":3,"Depth":1}},{"ElementsOneD":null,"ElementsTwoD":null,"ElementsThreeD":[[[-0.100594215],[0.043276083],[0.07293738]],[[-0.15768792],[0.030178698],[0.11994483]],[[-0.18753734],[-0.026512654],[0.15811114]]],"_shape":{"Height":3,"Width":3,"Depth":1},"Shape":{"Height":3,"Width":3,"Depth":1}},{"ElementsOneD":null,"ElementsTwoD":null,"ElementsThreeD":[[[0.053157456],[0.05092428],[0.06810157]],[[0.039590355],[-0.032814484],[-0.021371342]],[[-0.025782442],[0.0047694943],[-0.049060673]]],"_shape":{"Height":3,"Width":3,"Depth":1},"Shape":{"Height":3,"Width":3,"Depth":1}},{"ElementsOneD":null,"ElementsTwoD":null,"ElementsThreeD":[[[0.10649951],[0.1625532],[0.16403058]],[[0.07510864],[0.09032363],[0.16718347]],[[0.025814526],[-0.017812515],[-0.0068371953]]],"_shape":{"Height":3,"Width":3,"Depth":1},"Shape":{"Height":3,"Width":3,"Depth":1}},{"ElementsOneD":null,"ElementsTwoD":null,"ElementsThreeD":[[[0.036094498],[0.082381524],[0.13063298]],[[-0.055632707],[-0.08981345],[-0.016275264]],[[-0.03696213],[-0.043571442],[-0.029758487]]],"_shape":{"Height":3,"Width":3,"Depth":1},"Shape":{"Height":3,"Width":3,"Depth":1}},{"ElementsOneD":null,"ElementsTwoD":null,"ElementsThreeD":[[[0.07251828],[0.116104044],[0.108259276]],[[-0.0030253346],[0.110215604],[0.1635719]],[[0.06964328],[0.09752166],[0.15128255]]],"_shape":{"Height":3,"Width":3,"Depth":1},"Shape":{"Height":3,"Width":3,"Depth":1}},{"ElementsOneD":null,"ElementsTwoD":null,"ElementsThreeD":[[[0.12647603],[0.11721996],[0.019945024]],[[0.09190923],[0.019193798],[-0.087604225]],[[0.0050362675],[-0.030278433],[-0.16374703]]],"_shape":{"Height":3,"Width":3,"Depth":1},"Shape":{"Height":3,"Width":3,"Depth":1}},{"ElementsOneD":null,"ElementsTwoD":null,"ElementsThreeD":[[[0.1398956],[0.051859286],[0.008383736]],[[0.022253972],[0.047987353],[0.05116353]],[[-0.102053516],[-0.016651632],[0.01900412]]],"_shape":{"Height":3,"Width":3,"Depth":1},"Shape":{"Height":3,"Width":3,"Depth":1}},{"ElementsOneD":null,"ElementsTwoD":null,"ElementsThreeD":[[[0.06691508],[0.064208016],[0.14008139]],[[0.044653047],[0.11993162],[0.11506458]],[[0.055506833],[0.104886785],[0.15375718]]],"_shape":{"Height":3,"Width":3,"Depth":1},"Shape":{"Height":3,"Width":3,"Depth":1}},{"ElementsOneD":null,"ElementsTwoD":null,"ElementsThreeD":[[[0.14435607],[0.12981328],[0.074846275]],[[0.060820036],[0.07931203],[0.03198772]],[[0.014643684],[0.002117817],[-0.042827245]]],"_shape":{"Height":3,"Width":3,"Depth":1},"Shape":{"Height":3,"Width":3,"Depth":1}}],"FilterGradients":[{"ElementsOneD":null,"ElementsTwoD":null,"ElementsThreeD":[[[0.0],[0.0],[0.0]],[[0.0],[0.0],[0.0]],[[0.0],[0.0],[0.0]]],"_shape":{"Height":3,"Width":3,"Depth":1},"Shape":{"Height":3,"Width":3,"Depth":1}},{"ElementsOneD":null,"ElementsTwoD":null,"ElementsThreeD":[[[0.0],[0.0],[0.0]],[[0.0],[0.0],[0.0]],[[0.0],[0.0],[0.0]]],"_shape":{"Height":3,"Width":3,"Depth":1},"Shape":{"Height":3,"Width":3,"Depth":1}},{"ElementsOneD":null,"ElementsTwoD":null,"ElementsThreeD":[[[0.0],[0.0],[0.0]],[[0.0],[0.0],[0.0]],[[0.0],[0.0],[0.0]]],"_shape":{"Height":3,"Width":3,"Depth":1},"Shape":{"Height":3,"Width":3,"Depth":1}},{"ElementsOneD":null,"ElementsTwoD":null,"ElementsThreeD":[[[0.0],[0.0],[0.0]],[[0.0],[0.0],[0.0]],[[0.0],[0.0],[0.0]]],"_shape":{"Height":3,"Width":3,"Depth":1},"Shape":{"Height":3,"Width":3,"Depth":1}},{"ElementsOneD":null,"ElementsTwoD":null,"ElementsThreeD":[[[0.0],[0.0],[0.0]],[[0.0],[0.0],[0.0]],[[0.0],[0.0],[0.0]]],"_shape":{"Height":3,"Width":3,"Depth":1},"Shape":{"Height":3,"Width":3,"Depth":1}},{"ElementsOneD":null,"ElementsTwoD":null,"ElementsThreeD":[[[0.0],[0.0],[0.0]],[[0.0],[0.0],[0.0]],[[0.0],[0.0],[0.0]]],"_shape":{"Height":3,"Width":3,"Depth":1},"Shape":{"Height":3,"Width":3,"Depth":1}},{"ElementsOneD":null,"ElementsTwoD":null,"ElementsThreeD":[[[0.0],[0.0],[0.0]],[[0.0],[0.0],[0.0]],[[0.0],[0.0],[0.0]]],"_shape":{"Height":3,"Width":3,"Depth":1},"Shape":{"Height":3,"Width":3,"Depth":1}},{"ElementsOneD":null,"ElementsTwoD":null,"ElementsThreeD":[[[0.0],[0.0],[0.0]],[[0.0],[0.0],[0.0]],[[0.0],[0.0],[0.0]]],"_shape":{"Height":3,"Width":3,"Depth":1},"Shape":{"Height":3,"Width":3,"Depth":1}},{"ElementsOneD":null,"ElementsTwoD":null,"ElementsThreeD":[[[0.0],[0.0],[0.0]],[[0.0],[0.0],[0.0]],[[0.0],[0.0],[0.0]]],"_shape":{"Height":3,"Width":3,"Depth":1},"Shape":{"Height":3,"Width":3,"Depth":1}},{"ElementsOneD":null,"ElementsTwoD":null,"ElementsThreeD":[[[0.0],[0.0],[0.0]],[[0.0],[0.0],[0.0]],[[0.0],[0.0],[0.0]]],"_shape":{"Height":3,"Width":3,"Depth":1},"Shape":{"Height":3,"Width":3,"Depth":1}},{"ElementsOneD":null,"ElementsTwoD":null,"ElementsThreeD":[[[0.0],[0.0],[0.0]],[[0.0],[0.0],[0.0]],[[0.0],[0.0],[0.0]]],"_shape":{"Height":3,"Width":3,"Depth":1},"Shape":{"Height":3,"Width":3,"Depth":1}},{"ElementsOneD":null,"ElementsTwoD":null,"ElementsThreeD":[[[0.0],[0.0],[0.0]],[[0.0],[0.0],[0.0]],[[0.0],[0.0],[0.0]]],"_shape":{"Height":3,"Width":3,"Depth":1},"Shape":{"Height":3,"Width":3,"Depth":1}},{"ElementsOneD":null,"ElementsTwoD":null,"ElementsThreeD":[[[0.0],[0.0],[0.0]],[[0.0],[0.0],[0.0]],[[0.0],[0.0],[0.0]]],"_shape":{"Height":3,"Width":3,"Depth":1},"Shape":{"Height":3,"Width":3,"Depth":1}},{"ElementsOneD":null,"ElementsTwoD":null,"ElementsThreeD":[[[0.0],[0.0],[0.0]],[[0.0],[0.0],[0.0]],[[0.0],[0.0],[0.0]]],"_shape":{"Height":3,"Width":3,"Depth":1},"Shape":{"Height":3,"Width":3,"Depth":1}},{"ElementsOneD":null,"ElementsTwoD":null,"ElementsThreeD":[[[0.0],[0.0],[0.0]],[[0.0],[0.0],[0.0]],[[0.0],[0.0],[0.0]]],"_shape":{"Height":3,"Width":3,"Depth":1},"Shape":{"Height":3,"Width":3,"Depth":1}},{"ElementsOneD":null,"ElementsTwoD":null,"ElementsThreeD":[[[0.0],[0.0],[0.0]],[[0.0],[0.0],[0.0]],[[0.0],[0.0],[0.0]]],"_shape":{"Height":3,"Width":3,"Depth":1},"Shape":{"Height":3,"Width":3,"Depth":1}}],"Bias":{"ElementsOneD":[0.00075660524,0.00075660535,0.0007566051,0.0007566054,-0.00075660547,0.0007566052,-0.00075660343,-0.00075660547,0.0007566054,0.0007566052,0.00075660524,0.0007566054,-0.0007566046,-0.00075660506,0.00075660547,0.00075660524],"ElementsTwoD":null,"ElementsThreeD":null,"_shape":{"Height":16,"Width":0,"Depth":0},"Shape":{"Height":16,"Width":0,"Depth":0}},"BiasGradients":{"ElementsOneD":[0.0,0.0,0.0,0.0,0.0,0.0,0.0,0.0,0.0,0.0,0.0,0.0,0.0,0.0,0.0,0.0],"ElementsTwoD":null,"ElementsThreeD":null,"_shape":{"Height":16,"Width":0,"Depth":0},"Shape":{"Height":16,"Width":0,"Depth":0}}}},{"LayerType":4,"Dense":null,"Dropout":null,"Flatten":null,"Lstm":null,"MaxPool":{"Shape":{"Height":30,"Width":30,"Depth":16},"Kernel":{"Count":16,"Dim":3},"Stride":2},"Conv":null},{"LayerType":2,"Dense":null,"Dropout":null,"Flatten":{"Shape":{"Height":14,"Width":14,"Depth":16}},"Lstm":null,"MaxPool":null,"Conv":null},{"LayerType":0,"Dense":{"Activation":0,"Shape":{"Height":3136,"Width":64,"Depth":0},"Weights":{"ElementsOneD":null,"ElementsTwoD":[[-0.80619794,-0.8535351,0.8633859,-0.2553247,-0.5642578,0.020853972,0.018737784,-0.881201,0.6216397,-0.19969262,-0.031945433,-0.41133946,-0.17973804,0.70776796,-0.30268446,0.67767113,0.7060587,-0.9405066,0.08869214,0.18773565,0.28106254,-0.3468824,0.8135711,-0.6403749,-0.39473796,0.35441402,-0.81847185,-0.93379456,0.8687607,0.8132075,-0.1400664,-0.7053579,-0.70139164,-0.8748694,0.1196284,0.8056409,-0.9168902,-0.9683449,0.494156,-0.87291956,0.89577955,-0.3941939,-0.53461015,0.33385992,0.65867543,0.008004063,-0.25819352,0.42066514,0.115443304,0.6230155,-0.19476964,0.008363147,1.0791997,-0.8907805,-0.79202616,-0.6201229,-0.87035567,0.36513054,0.42436615,-0.16451067,-0.51439804,0.74640965,0.9746445,-0.46786952,0.8749419,0.18232614,0.7617596,0.8672699,-0.06309497,-0.72130114,0.30175176,-0.48546657,-0.8032942,0.6780343,-0.35172057,0.3860288,0.023740584,0.54450184,1.0936103,-0.22513066,1.0381145,-0.20794882,-0.2769983,0.90921456,-0.84874326,0.38744238,0.5724474,1.0607891,-0.3051197,1.1386791,-0.2390367,-0.8207535,-0.58917,-0.35573998,-0.0150973685,-0.7456802,-0.45911825,0.15386595,0.80266047,0.7876603,-0.49918294,-0.72821504,0.18174368,1.1281605,0.8157336,0.66852844,-0.7682336,-0.48858607,0.38270488,0.56733143,-0.603433,-0.6287759,0.506197,0.79090255,-0.78224003,-0.53775144,1.0548139,-0.76307267,-0.6431087,0.89694154,0.9929256,0.61011434,-0.509423,0.28640914,0.053112593,-0.44098255,-0.39437512,0.49126437,0.011235876,0.6767766,-0.2774717,0.83677,-0.79211617,-0.098680705,-0.46413982,1.0441916,0.69170266,-0.83297914,0.94040316,-0.46913758,-0.2376044,0.7469025,-0.65616465,-0.2632765,-0.8142456,-0.7837374,1.1588281,-0.1744131,-0.86248875,0.50890136,-0.7245254,0.53600144,0.8039296,-0.36934698,-0.2532716,0.9745204,-0.3413224,-0.523137,-0.2662132,0.9028135,0.031301655,-0.17693108,-0.4761951,-0.15169188,-0.65262306,0.17194174,0.13550687,-0.05920898,0.49169132,1.0015991,0.6737884,-0.6369896,-0.27875975,0.7736053,-0.2917309,-0.32676736,0.1638548,-0.15610881,0.5418631,-0.21600024,0.9908221,0.5160773,-0.28252795,0.51394355,0.101159215,-0.419913,-0.039882753,0.28599325,-0.2647061,-0.965995,0.9923643,-0.5731731,0.3494073,0.07373069,-0.37893414,0.8296851,-0.77633846,0.85287446,0.73631394,-0.16521196,-0.47932896,0.7628237,-0.68197733,-0.23722471,-0.38064957,-0.2832246,-0.32407588,0.99099755,0.86245173,0.9345169,-0.3566957,-0.5962371,-0.02701703,1.0159297,-0.19832043,-0.5163664,0.36117536,0.9865241,-0.83497113,0.82699627,0.011284624,0.4715503,-0.9038632,0.96858674,-0.4149226,-0.27360928,0.21200761,0.05325762,0.8011997,0.4722468,-0.3315706,-0.670854,-0.5523866,-0.2880943,0.7473601,-0.84058315,-0.7207246,-0.31593326,0.2071136,-0.62447023,0.2362452,0.25713828,-1.0152212,0.8283137,0.79792714,0.5972022,0.5307704,-0.5753233,-0.7560384,0.56172115,0.95387626,0.6430078,-0.5681522,-0.15029553,-0.5497654,0.2911716,-0.7929587,0.3381959,0.47888455,0.7145996,0.28484648,-0.45989713,-0.45691386,0.3288808,0.21532209,0.92966646,0.9329995,-0.6251587,0.36413392,-0.3013541,0.6231347,-0.81962967,0.38181075,-0.03017575,0.96654904,0.824466,-0.7869608,-0.5345609,0.88155466,0.9077672,0.62214357,-0.82457584,-0.6740255,0.26027483,-0.39173985,-0.2836282,0.5673676,0.93267703,0.7021015,-0.21889664,0.11598504,0.41847095,0.45920616,0.3476681,0.64920855,-0.048004273,0.054164678,0.99851847,0.8372872,0.43942094,0.97224855,0.5949246,-0.033333678,-0.6828374,-0.91523564,0.06896185,0.29594898,0.2355428,0.20236823,0.31163806,0.7000951,0.8551759,1.0157807,-0.5934882,0.23974238,-0.5070978,-0.0015405511,0.51438683,0.4825745,0.7969074,-0.072899126,-0.56757176,0.87000364,0.60474813,0.8354943,0.07055153,-0.24702129,-0.42766455,-0.35770807,-0.88148814,-0.51034224,-0.97080046,0.5997841,-0.27394104,0.25237,0.18780933,0.040282916,0.92717874,-0.8147138,0.9784347,0.6546666,-0.42601535,0.2219544,0.98853034,0.15215358,-0.51436764,-0.32064748,0.47801983,0.55161595,0.3314106,0.9584857,0.38213438,0.31039995,0.030290164,-0.28749657,0.9737109,0.47716686,0.92526704,-0.15753773,0.5504069,-0.55260026,0.5433265,0.37111852,0.81664324,0.9018828,0.9197001,-0.40462497,-0.7058317,0.44926703,-0.5492089,0.16732144,0.9855683,0.43929756,0.47747836,0.9531694,-0.42050973,0.62991047,0.26568982,0.71524906,-0.6756621,0.6050481,-0.6409165,0.42753235,0.30338362,0.23425141,1.1161693,0.3881607,-0.30287766,-0.29847243,-0.47211546,-0.08263992,0.6172819,-0.544726,0.05773611,0.9921935,0.07866377,1.0836924,-0.058298983,0.29531598,-0.09513147,0.9010473,-0.20190868,0.1734841,-0.58722204,0.4404113,-0.6920079,-0.048323542,0.9369693,-0.25436482,0.073887974,0.86626124,0.8381539,0.36444077,-0.50252265,-0.23803315,0.5115583,0.16160476,0.59489894,0.48543996,0.8947729,0.19032775,0.8197852,0.7640801,-0.44673556,-0.76274663,1.002063,0.002459809,0.9500572,0.022418166,-0.3276839,0.32210633,-0.36543128,0.6151696,0.7297989,0.8672382,-0.713725,0.11716109,0.8104866,-0.8696235,-0.11846107,-0.6541395,-0.12452406,-0.14649093,0.71629333,-0.64416075,-0.5511424,-0.67114824,-0.7020362,-0.50617003,-0.2655723,0.5386069,-0.1679648,-0.15241359,-0.019654345,-0.7802986,-0.4702669,-0.2438312,0.8025757,-0.03065113,0.029568,0.75028646,-0.49077204,-0.6408713,-0.98438376,0.46339735,-0.13146682,-0.002451709,-0.34565094,0.6871027,-0.88574266,0.54921544,-0.714893,0.08867084,-0.59988064,0.9000449,-0.6825682,0.038573213,0.73786306,0.0762992,0.5032088,-0.2672044,0.7401907,0.1011044,-0.25013593,0.3703656,-0.49571308,0.15430482,-0.45357987,0.48399693,-0.46528852,0.48014224,-0.94126123,0.6495841,-0.4879591,-0.51128834,-0.055123895,0.34034088,-0.47233835,-0.8421957,0.23987088,-0.15996338,1.0448719,0.60478085,-0.20193644,-0.7219773,-1.030253,-0.18855506,0.72016734,0.85672605,0.91363573,0.04971507,-0.81769896,-0.17201656,-0.15922868,0.8270834,0.29030165,0.15251353,-0.052690517,0.1813185,-0.96960354,-0.8174687,-0.8574453,-0.108406305,-0.84779197,0.45774207,0.9331212,-0.57435006,-0.6988831,-0.7711166,0.7162999,-0.6215344,0.30825672,0.52244186,0.6913493,0.71232665,0.7258247,0.73331743,-0.8836555,-0.35839558,-0.9758396,-0.68696773,0.17825563,-0.6288591,-0.2322859,0.7552113,0.7357021,0.76239,-0.41001648,-0.6563327,-0.69712603,0.34311002,-0.5250619,-0.28230673,0.4942861,-0.95623463,0.7902267,0.95959586,-0.6562157,0.15760803,-0.116349846,-0.14287451,-0.15015706,0.659918,0.54775894,0.7317261,-0.3077842,-0.7054221,-0.25769898,0.16511258,1.0053958,0.42741513,0.35492337,0.30354375,-0.65337116,-0.8545547,0.54647636,0.43469018,-0.21208003,0.20262627,0.07528861,-0.13885605,0.29533318,0.43131018,1.0141119,-0.0826082,-0.07963,0.88566905,0.39781708,-0.57464534,0.8387829,0.23407738,0.5997765,-0.32316172,-0.9965805,-0.6274831,0.25237677,0.62073433,-0.5949652,-0.78735304,1.0796837,-0.17767523,-0.26974577,-0.22614655,-0.64835536,0.6026614,0.8186213,-0.387579,-0.20211028,-0.40733838,0.7855874,-0.67858547,-0.8074611,0.06305566,0.79175687,-0.08211773,-0.25623876,1.0387881,0.26229855,0.11842873,-0.4982234,1.1280944,1.1718493,-0.07902895,-0.22484815,-0.46029598,-0.13064267,0.5059897,0.19346772,-0.05277987,-0.2600764,-0.84068304,-0.54187894,1.1206913,0.60739255,0.95114285,0.026542986,0.7031604,0.118838556,-0.6581569,-0.8197453,-0.7902813,-0.81103873,-0.6143551,0.27585927,-0.35265127,-0.422332,0.12149181,0.7120085,0.14603233,-0.75714487,-0.47984877,0.065293446,0.37556425,-0.6100412,0.13048013,-0.8754848,0.2679898,-0.78260803,-0.35228235,-0.13147436,1.032075,0.3240089,0.27307633,-0.69365764,-0.38496813,-0.39748612,-0.5141024,-0.88306063,1.0161409,0.4535445,0.64582545,0.18047807,-0.13112803,0.6204726,-0.2570026,-0.52007455,0.6524335,-0.29089984,0.55951184,0.25585023,-0.79778343,-0.32904035,0.18526064,0.1664073,-0.4961148,-0.37585092,0.53242993,0.17547181,-0.3413288,-1.0191098,-0.30666292,-0.8683097,-0.7924355,-0.46657977,-0.5258364,-0.9274081,-0.93907267,0.63544554,0.9219661,-0.23312783,-0.17242035,-0.95373905,0.82612073,-0.18134418,-0.2636917,0.9703366,0.822924,0.6566783,0.6764743,-0.8297543,0.8928735,0.7460339,-0.51024044,0.4325363,0.7232246,0.31168383,0.23823966,-0.05126372,0.94625556,-0.9985837,-0.97478133,-0.9724836,0.40118474,0.108188145,0.45640492,-0.22357967,-0.45076758,-0.040857397,-0.35400283,0.18264318,0.32747924,0.17265248,0.54207766,-0.3984978,0.49762946,0.9180352,0.21192464,0.5510142,-0.99778706,0.10599756,-0.95264214,-0.07622126,-0.2854457,0.6730438,0.57542753,0.73958725,-0.7141802,0.4666405,-0.486565,0.2558891,-0.90152943,0.32767728,0.4353943,0.6487302,-0.33656132,-0.23196724,-0.5207978,-0.28756016,0.445678,0.9900494,-0.5726736,-0.9227007,0.8903126,0.2974357,0.75546014,0.9630088,-0.17518738,-1.0053487,-0.45945817,0.5268809,0.14379176,0.075401194,0.6678433,0.19222327,0.7886433,0.60783935,0.31591737,-0.101722226,-0.2257423,-0.024179017,-0.08111872,0.9559173,-0.68338925,-0.3206734,-1.0679277,0.5600041,0.507488,-0.5042044,-0.70418924,-0.9636432,-0.60251236,-0.400519,0.4026895,-0.15004195,-0.49887043,-0.58554476,0.68240714,-0.39798063,0.40942603,-0.2919115,-0.9622139,-0.55718124,0.6872379,0.19055423,0.9004025,0.44374207,0.7005633,0.27349526,0.39800075,-0.44254914,0.9368846,0.23652187,-0.75407016,-0.3895596,-0.36536747,-0.2721677,0.37883177,-0.4000141,0.26366764,0.87509054,0.00985668,0.7938566,0.81450564,-0.02405343,0.07833411,-0.5403958,0.7437574,-0.4438062,-0.35883465,0.6725904,-0.5798241,0.35274422,0.40087757,-0.9522882,-0.8606036,-0.5459397,-0.299145,-0.25841677,-0.9170416,-0.74395585,-0.5049376,0.46724728,0.36993352,-0.14543831,-0.6811029,-0.33814204,-0.78841853,0.10378481,0.50134754,-0.36834785,-0.3722897,0.9654901,0.6408124,0.6559099,-0.4342142,-0.31273738,0.22068135,-0.1945603,-0.21552016,0.73756117,-0.37452483,-0.48529416,0.20923473,0.19999385,0.64140475,0.8714007,-0.21731621,0.28405914,0.21308549,0.72012246,0.44863406,0.46001852,0.38959622,-0.3589434,0.46687835,0.896022,-0.35199806,0.18288141,0.8980072,0.97458994,0.8253459,0.115540594,-0.7553824,0.14701435,0.87043226,0.9336538,-0.7980477,-0.8507387,0.9089523,0.35335746,0.69184124,0.53696704,0.79946643,-0.4358201,-0.5014081,-0.0022334466,-0.809523,-0.6508142,0.74353874,0.578327,0.24560177,0.8694554,0.7029292,0.15506148,0.27484062,0.6388561,0.08292578,-0.7283005,-0.15656172,-0.651457,-0.117903896,-0.10012496,-0.54093885,0.51936686,0.9083489,0.6092109,0.13207887,0.90290236,-0.6559329,0.90411,-0.49994797,-0.5139867,-0.32694098,0.17923929,0.27868816,-0.40389296,0.35593194,-0.42836604,-0.93677384,-0.7078108,0.06106043,-0.904664,0.84101945,-0.9463326,0.6728752,-0.5322846,0.46175477,-0.628036,-0.63791704,-0.6870386,-0.36501968,0.73868096,-0.2447897,0.4280116,-0.33482945,-0.22900896,0.76575243,0.98216754,-0.9560035,0.811017,-0.2591916,0.30999193,-0.3966873,-0.822143,-0.87613654,-0.8094592,-0.87603617,-0.28549266,0.22155376,-0.8706141,-0.6742213,0.49589556,-0.41361362,0.9000097,0.2426301,-0.9408793,-0.87769055,-0.5820287,0.020346245,-0.4532213,0.45948675,-0.42370895,0.45700336,-0.7817707,0.42795092,0.37980086,-0.9248857,0.23700203,0.31365153,-0.06329404,0.5788385,0.92904127,0.4872297,0.09413281,0.20304698,0.5931059,-0.4876524,-0.037534885,-0.9059751,-0.67256254,0.70946175,-0.55151665,-0.1859579,-0.4206534,-0.90779144,-0.36128685,-0.028286925,-0.3324907,0.285438,-1.0455059,-0.79837006,-0.347092,-0.110865146,-0.30195156,-0.024362676,0.98130393,0.67661756,0.8819352,0.7930335,-0.58293223,0.0858145,0.4277079,0.5599018,-0.015284269,-0.80218655,0.060812525,0.6493878,0.7856996,-0.4063054,-0.67232364,-0.49912354,-0.4272359,-1.0333893,0.5311842,0.85726124,-0.48417142,-0.9826644,0.7861745,0.5290586,0.2778586,-0.843281,0.4796557,0.2785656,0.84844244,0.6877716,0.26874533,0.86217487,0.80209655,0.19792491,-1.0521556,-0.22339045,-0.675052,-0.85424954,0.085372694,-0.9287864,-0.5766223,0.2519682,1.0863239,0.08058912,0.70200247,0.35795337,-0.18165001,0.01821959,-0.6934012,-0.7708625,0.24974078,-0.21232547,0.48570752,-0.5215772,0.33593392,0.69072807,0.2930917,-0.8177983,1.069399,0.85638523,0.018550914,0.53920716,-0.4384202,-0.4889738,-0.27172127,-0.8228936,-0.1434306,-0.52205044,0.64600796,-0.86619663,0.61408794,-0.5966881,0.9516841,-0.059254833,-0.38493377,-0.26458907,-0.35017142,-0.55621153,-0.5006296,0.19558121,0.7485378,-0.30609366,0.45597136,-0.5850271,0.30530605,0.08323806,0.44418517,-0.6581668,-0.43322214,0.6993534,0.78279644,-0.10506546,0.85845435,-0.20384975,1.0802152,0.22041577,0.67544967,0.45835546,-0.3052644,0.8316089,-0.8118106,-0.18836093,-0.3152931,-0.7897664,0.83659136,-0.022635762,0.41675025,-0.68742657,0.47106963,0.42402875,-0.4150594,-0.5885665,0.2046755,-0.67382365,0.6998245,-0.28827295,-1.0192155,0.33456632,0.9290946,0.15247902,0.18010123,0.55295837,0.44376716,0.7176319,-0.47749022,-0.52589357,0.5510104,0.56464463,-0.3903416,-0.22019641,-0.4270183,0.97786283,0.5203644,-0.7085607,-0.36786118,0.5931699,0.5316413,0.36056545,-0.6665211,-0.53459936,-0.16368306,-0.6460945,-0.15618356,-0.18397078,0.056386817,-0.8135821,0.58607846,-0.29035074,-0.6517947,0.3760332,0.27510026,-0.9429911,0.6377731,-0.49085528,-0.65759856,1.0270761,0.3647216,0.58075196,-0.80963063,0.27688453,0.53409725,0.6468339,-0.052119303,0.9190754,0.3518539,0.8261809,0.9015195,0.68140185,-0.09998069,-0.2796392,0.50937736,-0.9364511,0.87336874,0.25807762,-0.2702402,0.24967103,-0.2173188,0.28254953,0.34923768,0.31508285,0.6065053,0.1254666,0.39680523,0.18834276,0.9432805,-0.06813966,0.81712824,-0.92626375,0.42919075,-0.6924564,0.52289766,-0.25366992,-0.4686129,-0.10610098,-0.6831977,-0.35235626,0.98246276,-0.8205078,-0.66562074,0.10890298,-0.80563444,-0.3966575,-0.6509735,0.5541638,0.8724709,0.16537462,-0.94362056,-0.40785423,-0.46623698,-0.9806906,0.08956486,0.22047378,0.20815516,-0.7611824,0.8611197,-0.9125711,-0.20596935,0.11001404,-0.9087543,-0.20063862,0.29440576,-0.035223708,-0.9202686,0.018079367,-0.0072718756,-0.11005522,0.90953827,-0.9971282,-0.69579625,-0.7256234,-0.8088957,-1.0242693,0.25372615,0.66347206,-0.10888697,-0.22943175,-0.22844249,-0.59387386,0.21037364,0.6939854,-0.909546,0.4228544,-0.2078429,0.6429614,0.151177,-0.23173258,-0.41911796,-0.883661,0.8855602,-0.7612468,0.66749555,0.15132327,-0.40712875,-0.08466007,0.077441454,-0.44810218,0.50461245,-1.0412849,0.49928156,0.9358621,-0.20561354,-0.33216745,0.7346543,-0.39381564,0.737934,-0.7909473,-0.1782924,-0.44238192,0.31458294,-0.18587194,0.6492879,-0.5269045,0.30919653,0.9625215,-0.4281818,1.176022,-0.43704656,-0.20123771,0.778783,1.0132655,-0.5188714,1.0843495,1.1788462,0.37582317,0.5756615,0.75451684,0.89658415,-0.16539954,0.21047138,0.6599215,0.31743798,-0.7045226,1.0650101,0.5450895,-0.5949407,-0.3443107,0.13047603,-0.6886011,-0.6479261,-0.3107967,-0.5353179,0.86520535,1.1014582,0.45582446,0.6269435,0.39312994,-0.1441338,0.956638,-0.004897067,0.09122294,-0.2820661,0.60865986,0.11826144,0.09363006,0.51512074,0.30979794,0.5596728,0.7834686,0.43196622,0.4630381,-0.9683577,-0.6720989,0.93341345,0.7684186,-0.002928526,0.4567388,0.62124443,-0.6799396,0.15075593,-0.42035076,-0.59303945,0.79242015,0.20946038,0.43297276,-0.1398171,0.8802891,-0.13087435,0.93088377,0.078593805,0.27773127,-0.24309143,0.57171154,0.90508205,0.9219048,-0.894054,-0.77257437,0.9054652,0.14579917,0.61227196,0.04176681,0.8649927,-0.43127424,0.37336108,-0.32663068,0.33923164,-0.2746404,0.95008785,-0.39167187,-0.5524193,-0.30291754,-0.3759823,0.2538989,0.47211194,-0.06271742,-0.9538864,0.8221761,-0.48259157,0.671848,0.88160497,-0.46924925,0.99838406,0.26826257,0.6270872,0.70169175,-0.73296416,-0.15590289,-0.24683668,0.36360586,0.5493017,0.3601283,-0.8484264,-1.0162566,1.1279347,-0.91034853,-0.7348746,0.9003055,0.11469713,-0.29316983,0.8110821,-0.84515816,0.74048084,0.18144137,-0.03363527,0.8530429,0.72094727,-0.39347467,-0.2665299,0.78423434,-0.1168503,-0.9152562,-0.0026428902,0.43994564,0.029746974,0.7893917,0.6792388,0.8909814,-0.75807685,0.27909464,0.12793657,0.02002944,-0.8768295,0.052749835,-0.54299194,0.49453768,-0.8745233,-0.34259957,0.5060991,-0.86852854,-0.63674366,0.91116536,0.6804252,-0.93400323,0.027174825,0.09262751,0.404191,0.028372152,0.08114068,-0.2720472,0.80902725,-0.65840274,0.93257123,-0.71521187,-0.32049137,-0.32524765,-0.1176891,0.25193208,0.5900872,0.59885454,-0.8387112,-0.37422413,-0.02076361,0.62930477,0.8483311,-0.51935047,-0.85536295,-0.9429168,-0.07915633,-0.21443413,-0.51145005,0.4336421,-0.9896814,0.44256935,-0.68585765,-0.021509362,-0.28296733,0.49447536,-0.46495864,0.48905954,-0.11471581,0.75042963,-0.928769,0.38938776,0.52062047,-0.16157171,-0.8269823,0.15312113,0.70725983,-0.02053085,0.5150137,0.1757433,0.6718871,-0.3881205,-0.19228008,-0.5544971,0.44763,-0.021530427,-0.19549742,0.70139223,-0.32072327,-0.9074145,-0.40210205,-0.699454,-0.66685724,-0.4335192,-0.6235981,-0.007330597,-0.5316522,0.17773627,-0.48154554,-0.8445876,0.6780114,0.6536799,-0.5817843,0.11719287,0.9961509,-0.20582034,0.27061284,0.06936227,-0.92083484,-0.4454743,0.7151855,0.80030984,-0.89085066,-0.3167274,-0.2044819,0.6831869,-0.6832055,-0.7682058,-0.43423194,-0.29631376,0.92003036,0.69219506,-0.9617144,-0.20264305,0.001292432,0.36390477,-0.06351931,-0.37507892,-0.711761,0.26774332,0.6035213,-0.12570846,-0.5532086,-0.4419597,-0.6858897,0.4095041,0.5824422,0.6255299,1.0408895,-0.4099909,0.3506849,0.25126487,0.16708319,-0.41253087,0.82166284,0.1525454,-0.42134285,0.15631302,-0.42420778,-0.47051352,0.25507018,1.015597,0.80382264,-0.06650268,0.79387784,-0.4141328,1.0037069,0.3826632,-0.94964504,0.75089854,-0.5673779,0.23927855,-0.3089159,0.8380972,0.16920577,0.3894739,-0.5296995,-0.4439324,-0.11616671,-0.5967426,0.40546235,0.8430993,-0.21209116,0.48971835,0.3294675,-0.4143287,-0.025470354,0.27905822,0.7148414,0.37789243,-0.9044182,-0.83300304,-0.43297046,0.8201559,-0.7097678,-0.9663596,0.17019765,-0.61022264,-0.6626753,0.5280602,-0.22979751,0.020452108,0.15249169,0.7699336,-0.24569789,0.62356514,-0.3632159,0.56253475,-0.7468589,0.6142513,0.2726572,-0.48583636,-0.04580042,0.8544308,0.007069678,0.9141462,0.5275514,-0.852775,-0.1411419,-0.05203023,-0.22829552,-0.121732846,0.53531086,-0.45354947,-0.87045574,-0.26044086,0.78714347,-0.27008784,0.98272073,0.7629846,0.46757928,-0.55787647,0.6313853,-0.08792683,-0.12737073,0.7855647,0.3147617,-0.53949714,1.0646586,0.5421401,0.67171806,-0.41609278,-0.5728249,-0.84688514,0.8125835,-0.6653212,-0.53039783,-0.014790871,-0.8000833,0.47909135,-0.708012,-0.21727088,0.3295138,1.0528003,-0.35969198,-0.5519467,0.8474917,-0.28749567,-0.19239993,-0.8750245,-0.18709013,0.07805336,0.3580646,-0.31650877,-0.42649975,0.14342418,-0.69654715,0.9739889,-0.47182527,-0.09933892,-0.2169611,0.96570003,0.16971561,-0.5327549,-0.79287577,0.11898659,-0.657556,-0.667863,-0.8633292,0.97562116,-0.48793644,0.47106785,-0.51107085,-0.65301955,-0.32092974,-0.29831225,0.20722838,-0.054161955,0.215013,-0.9436127,0.126528,-0.6543751,0.6827618,0.92463577,-0.73963004,0.9367563,0.029064579,0.46356502,0.84630203,0.3534078,0.11860965,0.29405364,0.021938048,-0.74812883,-0.8332056,-0.6408353,-0.1873257,0.13752285,-0.24505602,0.5843692,0.8550061,0.62495697,-0.24974003,-0.88589376,0.48600337,0.6496539,0.5819627,0.40069884,-0.7286152,-0.90186363,-0.0958249,0.58676875,-1.0222554,0.9292558,0.86650115,-0.90913886,-1.0260072,0.91789585,-1.0276054,-0.70314866,-0.11131995,0.092292085,0.50837904,-0.5024244,0.038086187,-0.107958004,-0.10276255,0.44982272,0.5713314,-0.77992296,0.18608391,-0.04511453,-0.6743249,0.064034,0.58419865,0.4183097,-0.83903706,-0.10543834,0.37850842,0.11706346,0.3043919,0.24508768,-0.38775778,0.11637968,0.05556803,0.63966465,-0.42157954,0.71212107,-0.35724315,-0.28891447,0.3654194,0.097689226,0.3099048,-0.21448469,-0.71644014,0.12725483,-0.75366765,0.61185664,-0.23743804,1.0255502,0.1130063,-0.21453567,-0.6530986,-0.10413499,0.6813495,-0.1680982,0.35651162,0.35807112,0.08006022,0.26990372,0.85789496,0.9763544,-0.4966856,1.1468738,0.7190897,0.36310208,-0.68003625,-0.73641133,-0.86046946,0.33866483,0.124216035,-0.77729774,-0.3951293,-0.7414294,0.31597286,0.29523644,-0.89097345,1.0783794,0.6316305,0.06309617,-0.8405878,-0.5989961,0.43265137,0.5645125,0.26410195,-0.19139782,0.21400508,0.6808888,-0.82245654,0.08669765,-0.25244424,-0.82767504,-0.803441,-0.15385425,0.6206042,0.6832066,-0.3680064,-0.9658609,-0.31124917,-0.013531837,-0.983504,0.923907,0.8201641,-0.416467,-0.65261704,-0.45938063,0.85954994,0.36697823,-0.8549295,-0.4712681,-0.42805222,-0.98311913,-0.7784232,-0.88456404,-0.043518417,0.57976794,0.07952963,0.2854431,-0.6816179,-0.6537134,0.8788587,-0.58801335,0.574391,0.6580229,-0.15597303,0.532244,0.31947738,0.5626102,0.8638061,-0.4754642,-0.47710675,0.27044445,0.868173,1.0653825,-0.7115726,-0.40002936,-0.63855433,-0.65962833,0.803023,-0.14653532,0.13129838,0.009527226,0.8086962,-0.22430557,-0.22464916,-0.79309046,0.12489844,0.8548108,-0.8702441,0.005724411,-0.6003664,0.48530963,0.340858,0.21131878,0.20013654,0.78085476,-0.08980799,0.24455328,-0.029478503,0.37078053,-0.38326338,0.6956812,0.25923872,-0.18498106,0.41655397,0.6649351,-0.08580941,1.1590415,-0.96459883,0.17707554,-0.3215486,-0.27855852,-0.4616462,0.09895288,0.028519833,0.49567705,0.76212686,-0.12521115,-0.7415975,-0.7367521,0.54581875,-0.59085035,-0.56769156,-0.19144769,0.5257497,-0.18426636,0.90752846,0.35548586,0.61568713,0.26205817,0.6363826,0.16809271,0.35718876,0.39171115,-0.58475155,1.0116928,-0.82011914,0.25118417,0.37418103,-0.0050249333,-0.39159018,-0.9463372,-0.11765946,0.3806052,0.98047996,-0.9439699,-0.95512635,-0.581071,-0.78113115,0.6112294,-0.007620599,-0.07596676,-0.44557518,-0.8481936,0.31676883,0.8056821,0.014162338,-0.6135034,0.23084408,-0.49484536,-0.34335068,0.0055966494,0.9663816,0.58193123,-0.9615278,-0.8250254,0.81172484,-0.15566196,0.5570994,-1.012848,0.089820966,-0.15990007,0.95716983,0.36305377,0.7504063,0.046470925,-0.48833558,0.14065239,0.9399611,0.33675843,-0.25883257,0.78091896,0.38948813,0.6422239,0.31382003,-0.7012699,-0.51049703,0.5560843,-1.0190485,-0.6151536,0.6415845,-0.62138927,-0.7094631,0.50546134,-0.25519523,-0.45362443,-0.2152872,-0.2696326,-0.07276869,0.49340957,0.93143016,0.40857095,0.23773296,-0.18490693,-0.9958331,-0.78494096,0.57296073,0.1739372,0.4408893,-0.74515975,0.7460156,-0.18423627,-0.57025266,-0.21640031,-0.39209536,-0.9305997,0.8428613,0.40432665,-0.5584673,0.6800927,-0.46520185,0.088090934,-0.29693583,0.39211103,0.061581433,0.2666307,0.9788039,0.7559586,-0.13453,-0.8611081,-0.44152582,-0.51680773,-0.3150386,-0.61711526,-0.47545812,-0.60117084,0.6084538,0.5212636,0.7012289,-0.058374904,0.17983945,0.6372191,-0.4662738,0.39880958,0.231777,-0.7468023,0.7166836,-0.4986406,-0.55708915,-0.008358169,-0.67753285,-0.9524449,0.025299197,0.5478769,0.75827277,-0.47858453,-0.21132044,-0.24276832,0.47097197,-0.62504715,0.30275106,-0.4377763,-0.9465575,-0.39798957,0.60495365,0.7255235,-0.7741723,-0.0975177,0.58025986,-0.3458347,0.58348906,-0.37557968,0.3004725,0.7144888,-0.24412067,-0.88727504,0.27272153,0.8492223,-0.35451275,-1.0028167,-0.49596593,-0.35112005,0.7242944,-0.76486427,-0.5247524,0.14924411,-0.30326647,-0.4584704,0.06965738,0.55294883,-0.72179383,-0.97806245,0.34689665,0.51690453,0.90098447,-0.80570877,0.65772635,0.047181845,-0.9340496,-0.78729355,0.22158322,0.8552614,-0.51271373,-0.039430637,-0.25660214,0.0933381,0.491647,0.08277466,-0.265159,0.18987368,-0.73914677,-0.35224533,-0.11361655,-0.5778647,-0.88435477,0.94305456,0.048971582,0.1747508,0.12521169,-0.07534928,0.40158302,0.24675347,0.7751709,0.8259048,-0.64097,0.05616815,0.99131846,-0.007687973,-0.5561727,0.20510572,-0.56271225,-0.59646314,-0.4697483,-0.5712274,-0.30889377,0.04639253,0.25142312,-0.8281105,0.46723852,0.21998508,0.5385167,-0.54322714,1.0753185,-0.13464235,0.768958,0.9060734,0.93183607,0.93835664,-0.46785006,0.5322519,0.48111463,-0.6371546,0.36980754,-0.25027773,0.24429291,-0.84915113,-0.023543643,0.29476064,0.88540477,0.45697916,-0.48445067,-0.20649526,-0.40415466,-0.34661373,0.7340522,-0.3437156,-0.87258536,0.04760594,0.12804168,0.033998895,0.16366397,-0.06423588,0.32393855,-0.034328394,0.624871,-0.83126885,0.56618905,0.85925907,0.24168363,0.7012946,0.054086093,0.43846625,-0.0005510537,-0.67580616,0.43353784,0.3377289,0.3650944,0.37678868,-0.43424276,0.7197521,0.8238793,0.79797614,0.9196743,-0.22535826,-0.7242354,-0.19088581,-0.32974747,0.23406875,0.53577024,0.7013247,0.24037136,0.13775472,0.9719203,0.5771255,-0.1613457,0.9021581,0.8054472,-0.5337221,-0.49593452,-0.74165046,0.44525608,0.2511553,0.44458747,-0.49546134,0.7474984,-0.6651576,-0.52350044,-0.37252945,0.53448313,-0.4859265,0.08934798,1.0256648,-0.48259115,0.91936094,-0.19284038,-0.069359764,-0.096658856,0.5566397,0.36179,0.015244059,-0.92783296,-0.9379818,-0.28701943,0.36681968,-0.28938198,-0.6079345,0.20200786,-0.91074365,-0.43912128,-0.18388544,-0.015718915,0.56091446,-0.49178463,0.53959626,-0.85891336,0.79130435,0.2222275,-0.36603773,-0.21783252,0.7662923,-0.27457306,0.02135815,0.7953663,0.7619673,0.27477744,-0.4511151,0.47858465,-0.6693789,0.5741106,0.37294602,-0.78011185,0.2076452,0.5292967,0.9988534,-0.3652544,0.1456661,0.8509354,0.061671242,-0.7635423,-0.49666202,0.275341,1.1431773,0.6102001,0.5288998,0.59366125,0.81522423,-0.43499136,-0.25045747,0.6040703,-0.0930898,-0.46277618,-0.37360436,-0.8354746,0.116718486,-0.7059327,0.86677635,0.86764586,-0.6803733,-0.71525764,-0.6477145,-0.22079073,0.3622663,0.57125163,0.46885642,0.93184555,-0.7154092,0.41372195,-0.48820558,0.032779727,-0.4650388,0.89498866,0.32697693,-0.75131947,-0.6193512,0.44299063,0.107977234,-0.858463,-0.8393557,0.7675001,-0.45237535,-0.7695645,-0.30927885,-0.9354584,0.7051582,0.03220565,0.90899056,0.70735615,0.76596904,0.29518026,0.31248793,0.8592814,0.24269494,0.6288811,-0.21818878,0.15699625,-0.97043926,0.5639608,0.029633883,0.7869484,0.41501167,-0.42078507,0.58771867,0.22847156,-0.20652354,-0.66935295,-0.25844622,-0.31295544,-0.42611647,-0.34321317,-1.0405319,0.52461624,0.86840445,0.46607783,-0.4932199,0.12375273,-0.15038621,-0.6225227,0.05553823,0.8113165,-0.40584436,0.17752846,0.5831298,-0.658041,-0.81339765,-0.9102079,0.27955377,0.9184714,-0.23503537,0.3772526,-0.19960834,0.9208779,0.5341109,0.8638511,-0.769937,-0.30255637,0.7193629,0.67432624,-0.63077813,0.81564915,-0.6601322,0.9850807,0.2952885,-0.94690025,0.5527687,0.3089667,0.70205474,-0.6131174,0.33327067,0.33672178,0.9199791,-0.57797515,-0.7986422,-0.3461099,-0.1668979,0.22799656,-0.008273692,-0.49248993,0.033365823,0.90895945,-0.16442505,0.37516132,0.70692027,0.6250678,-0.36291802,0.4640052,-0.46494973,-0.11311719,0.10627204,0.093928926,-0.67906,-0.7695427,-0.23363976,-0.7567958,-0.37446383,-0.334328,0.5712203,-0.79856807,-0.76093054,0.45587346,-0.11462977,0.89250076,-0.2558091,-0.34341335,-0.31728387,0.0099164285,-0.7269162,-0.8937589,0.23631582,-0.94081247,-0.33101532,-0.6391235,0.72102773,-0.31797704,-0.99368536,0.18670696,-0.5117464,-0.25550228,-0.8914111,0.5964395,0.46747166,0.26276144,0.8381342,-0.897251,0.13221991,-0.16501404,-0.3105429,-0.5417586,-0.5132319,0.81826746,-0.5770008,0.77918273,0.13331808,0.632459,-0.9776674,-0.6182168,0.6633857,0.38729388,0.7676476,0.4250361,0.737618,-0.36547083,0.6368403,-0.53440225,0.9466945,-0.092940904,0.55891204,0.42847148,-0.6101851,0.9437859,-0.29764763,0.5532348,0.1351431,-0.16883071,-0.68296784,0.42754996,0.85610145,0.53076535,-0.027153233,0.3424426,-0.5770347,-0.78701204,1.071303,0.8030235,-0.3007126,0.14476879,0.37791756,-0.13060157,-0.25621355,0.98986566,0.76694226,0.98285073,-0.64965224,0.537622,-0.94053686,-0.42455828,0.9048493,0.59237874,0.46103147,-0.7333143,0.4952775,-0.6259657,0.97510254,-0.84331596,0.9856712,-0.9418407,1.046423,0.83041906,-0.1150946,0.4669539,-0.15456173,0.4951695,0.040729877,0.63139904,-0.08350446,0.54391617,-0.5747041,-0.89759463,-0.037827183,0.29014784,0.87165296,0.54896575,-0.16161637,0.6672793,0.2250476,-0.0042505674,0.5457357,0.2027473,-0.9098388,0.05351878,-0.33633304,-0.18423517,-0.5070135,0.99616224,-0.032562815,-0.13120215,0.106957205,0.6061408,-0.77869946,-0.27569962,0.26102614,-0.019662522,0.4724308,-0.46239182,-0.47195485,-1.0520232,-0.55281436,0.32213315,-0.6179161,0.6853113,-0.54049987,-0.9324387,-0.5948131,-0.6136023,-0.23513223,0.6049161,0.48090586,-0.68699336,0.75885016,0.0075859176,0.38469318,-0.8099644,0.35193136,-0.116644576,-0.94494724,-0.080557585,0.8573557,-0.241872,-0.7580311,0.07267057,-0.17752115,0.5851732,0.09539814,-0.7096384,-1.0312107,-0.47137663,-0.81797403,-0.99639416,-0.5563477,0.47874278,-0.44874117,0.28970903,-0.64558816,0.7826491,0.35112643,-0.0923943,-0.33512163,0.93365115,0.20338754,0.74732524,-0.87319356,-0.07146535,-0.21127813,-0.82139295,0.75321543,0.08055338,0.67236364,-0.0799503,0.4644276,-0.8167074,-0.027431456,-0.014534056,0.22959399,-0.8947207,0.5921978,0.67132336,-0.12129874,0.0062893066,0.7621716,0.5684161,0.06438789,0.80698276,0.5509319,-0.6768991,0.9009725,0.87403655,0.71027696,-0.40626255,-0.074362375,0.16351172,0.0054650577,0.8745984,-0.7454845,-0.792821,-0.46549982,-0.45977697,-0.4113397,0.7448634,0.27948052,-0.7959669,0.499088,0.016936028,0.4950436,0.86696297,-0.7342317,0.04846683,-0.9487374,-0.10639958,0.51108843,0.117823154,-0.6501636,-0.5757825,0.316373,0.133932,-0.72151923,0.91627586,0.08149417,-0.7699374,0.0946825,0.8664865,0.43189514,-0.45433998,-0.6707109,-0.7402458,0.79091024,-0.5496313,-0.680478,0.9331993,-0.2264413,1.0648576,-0.7087009,0.54849714,0.89742607,1.0159637,0.24217205,-0.1795629,0.07926228,0.23660225,-0.20821132,0.17970306,0.9494966,-0.20374188,0.643192,-0.8426036,0.81866515,0.23769416,0.6459202,0.69569033,0.03565679,0.08729044,-0.8523351,-0.27425674,0.38227051,-0.56507874,0.6597867,-0.41270167,0.6354374,0.46739754,1.0156084,0.20209055,-0.4597314,0.9165877,-0.2669069,-0.7533046,-0.396206,0.41579044,-0.31929177,-0.4624458,-0.8941542,-0.66746193,-0.26694736,-0.22939363,0.7200095,0.9227779,-0.34970334,1.1373185,0.610189,-0.8054351,0.9229402,-0.4696607,0.16930923,-0.6188283,-0.7805473,-0.67984515,-0.5226665,-0.29591438,0.39858592,0.3828886,0.8354409,-0.19216704,0.23371011,0.5353743,-0.28731233,0.1736903,0.71359843,0.045711044,0.1192142,0.61952704,0.46278632,0.8771839,0.9338357,-0.5858422,-0.91234237,-0.10329981,-0.8462762,0.84079766,0.6852339,0.1630763,-0.09275776,0.82107747,0.8018086,0.96903926,-0.9662007,0.24965982,0.41935,0.56033665,-0.21738201,0.7854992,-0.31767625,0.91642416,-0.64887124,0.27918485,-0.56902665,0.77899665,-0.76111305,-0.71690834,-0.90433955,0.96038735,0.14696924,-0.44663092,-0.06980357,-0.8453764,-0.002475423,-0.8847035,0.8005349,0.201212,0.005295977,0.7838531,0.6274391,-0.60346705,-0.5498236,0.35664272,-0.4149985,0.8321248,0.44048727,-0.90661323,0.24458443,0.9319511,0.31395903,0.64391017,0.70540965,-0.1538355,0.007274121,-0.89959836,-0.28188822,0.7628177,0.47154534,0.21511863,-0.038250074,-0.9723818,0.79987746,-0.18320952,0.13814703,-0.23662247,0.4009046,0.8084022,0.55858123,-0.43119544,0.09953097,-0.2547764,0.5499729,-0.8239357,0.66515905,0.096496634,-0.7821397,0.86193955,-0.8478407,-0.8604203,0.81736064,-0.056063753,-0.2543457,0.71774054,-0.40804255,0.36312744,0.038815793,-0.91072047,0.3667733,0.9299855,0.9152822,-0.49433804,-0.43335205,-0.20595579,-0.5767726,0.5691311,-0.5226738,-0.32020536,0.21188329,-0.053412817,-0.14233275,0.6457676,-0.28325623,0.97966576,-0.7098988,-0.19447005,-0.27449498,0.5419646,0.26338467,0.3324194,-0.024345815,-0.26709244,-0.0531672,0.72876126,-0.91772825,-0.11499789,-0.48269662,0.14669394,-0.5018591,-0.8130149,-0.47059327,-0.318784,0.9767149,0.34848335,-0.6779642,-0.286554,0.35993037,-0.54678535,-0.50616395,-0.5248931,0.8060511,0.85467273,0.87667793,0.8877979,0.71959454,0.09714634,0.6750666,0.98586273,0.9412254,0.033059474,-0.5438059,-0.0678657,-0.95432466,0.61114115,-0.9673495,-0.421718,0.45969972,-0.80214673,-0.8733077,-0.8662445,-0.42479768,0.6918893,0.38327435,0.6276621,-0.7352905,-0.0025698994,0.051482644,-0.6448533,-0.35269082,0.47163075,-0.40086266,-0.14937499,0.034134172,0.49086592,1.005132,0.7450899,0.95387095,-0.047962032,0.076701455,-0.088126376,0.23479228,-0.85950726,-0.84535754,0.5087175,-0.6621508,0.91452116,-0.50810695,-0.37524742,1.042314,0.7889126,1.002805,-0.4180348,0.09182601,0.38225907,0.8107932,-0.79800665,-0.5678309,0.69299644,-0.59402925,0.0039729658,-0.8160225,-0.47130933,0.17076842,0.9333493,0.5376298,0.10863028,0.19834174,0.5027775,-0.05429782,0.6488514,-0.35154265,-0.5224668,-0.48299247,-0.6823168,-0.04965576,0.7645544,0.18209022,0.37059844,0.46840426,-0.29406905,0.94832623,0.9850505,-0.97040653,0.7728292,-0.7561252,-0.93774825,0.77343154,-0.6332234,0.17594731,0.74524826,-0.92118853,0.26294193,-0.61272085,-0.41416243,-0.97401303,0.9794373,0.6629288,0.22721675,0.7520098,-0.6933649,0.26558712,-0.61996967,-0.9544251,0.55824447,0.53263074,0.8619594,-0.5444126,-0.87855625,0.61352193,-0.49088067,0.92716575,0.6562461,-0.63754857,-0.71859634,0.10965278,-0.3000883,-0.89733803,1.001109,-0.27689102,0.13113387,-0.35738638,0.872486,-0.060932484,0.352353,-0.024714768,0.2218131,-0.12282001,0.4759618,-0.11780572,0.83034605,0.7735484,0.2907496,0.7045885,-0.27025858,0.42084557,0.3325239,-0.35355183,0.57507145,0.23959227,-0.3271274,-0.43920732,-0.40807068,-0.5559691,0.5790518,-0.41172612,-0.6815907,-0.9327883,-0.603964,0.16411565,-0.62138873,0.38393143,-0.37989703,-0.6844476,-0.5009622,-0.5259394,-1.1500837,0.81104106,-1.1237527,-0.814039,-0.33637586,0.85128576,-0.038967997,0.38805938,-0.5279285,0.8715221,0.2923863,-0.96007663,-0.5642333,-0.8985471,0.24893501,0.3445603,-0.7997462,0.2202133,-0.40540054,-0.12379605,0.36720458,0.73755616,-0.5094446,-0.20508914,-0.099211335,0.15479657,-0.007574496,0.46586907,0.75006324,-0.81451434,-0.9667813,-0.06537381,-0.49428964,-0.47214943,0.29472938,0.3751307,0.53958434,-0.56552094,0.036279693,0.19170615,0.036118794,0.5402991,-0.6346237,0.58007324,-0.87375385,0.30934063,0.8092666,0.8097197,0.28486642,0.19142255,0.7947738,-0.25806692,0.13002743,-0.51765925,0.011306035,-0.20534065,-0.032571647,0.6373285,-0.5884927,-1.0206252,-1.134959,0.48588574,0.32367504,-1.0348059,0.7231797,-0.9314113,0.6936583,-0.6609788,-0.040400293,-0.4272354,-0.6799659,-1.0302151,0.01174317,-0.13458325,-0.034759525,-0.8662382,-0.37463075,-0.8124624,0.8986238,-0.6546412,-0.856279,-0.12007771,0.687504,-0.6238727,-0.41086844,-0.7362342,0.32080448,0.13509372,-0.58622193,0.7728774,-0.4845943,-0.17989159,0.099822305,0.15792456,0.25026616,0.741941,0.8727226,-1.008339,-0.24713963,-0.3836278,-0.1597838,0.41852212,-0.3083638,-0.4769552,-0.15282252,0.50050807,0.16665529,0.5754745,0.97209024,0.87585545,0.86608803,0.24990197,-0.85041684,0.76868504,-0.38348275,-0.41639817,-0.2646674,-0.59228957,0.4585107,0.24468286,0.34844682,0.100693054,0.13788092,-1.0245674,-0.36788863,0.52642685,-0.69683963,-0.9542527,-0.55019575,0.508376,0.398217,0.5509476,0.52776194,-0.088223666,-0.76861644,0.21907787,0.06895648,-0.79265404,0.62512296,0.19443533,0.67942774,-0.44278964,0.43024465,-0.21833098,0.29804292,-0.23336636,-0.73702693,0.39791498,0.054610945,-0.16168632,0.051297665,0.27826795,-0.2470523,-0.35594937,-0.33808708,0.30992272,0.040865324,-0.75974065,0.4317892,-0.1454961,0.07903339,-0.40133518,0.8291312,0.5499927,0.43207145,-0.29855058,0.84408414,0.3760589,0.45681137],[-0.13281845,0.581909,-0.8686273,-0.10247503,-0.3531856,-0.0591157,0.6242792,-0.28984058,-0.74447757,0.8012357,-0.765091,0.99375653,0.87037694,-0.5747155,0.8926228,0.3932147,-0.89095783,-0.5955046,-0.5095513,0.8638398,-0.49260825,-0.21464153,-0.5713759,-0.16324152,0.3591235,-0.63516647,0.29232287,-0.6934034,-0.98523307,0.56943756,-0.52992374,0.08702197,0.7810064,-0.6990201,-0.7235253,0.17537072,-0.5932361,-0.5740384,-0.57087356,-0.7047586,0.12784842,0.4424212,-0.48971334,-0.7655288,0.9940786,-0.56235546,0.17962795,0.94675237,0.23582706,-0.89659876,-1.0095006,0.20961487,0.20539707,0.17516237,-0.38806102,0.09758089,-0.8990718,0.1832391,0.77382463,0.48827556,0.19036421,-0.9078148,0.31495348,0.78214884,-0.19794866,0.57834196,-0.83430445,0.4500089,0.70997167,-0.2237325,-0.058471985,-0.9601619,-0.08729734,-0.76691973,0.69477606,0.1513179,0.22243525,-1.0768027,0.70335,0.2802414,0.32813033,-1.0393105,0.0480275,-0.4716322,-0.7520584,0.07738567,-1.0434034,0.66753423,0.4162823,0.2021125,-1.009656,0.25718167,-0.83633316,0.07659116,-0.6547489,-1.016061,-0.59619504,-0.3591158,-0.67819697,0.5317127,-0.8513983,-1.0524018,-0.69051063,-0.5209592,-0.16028854,-0.5901631,-0.9342919,0.20596674,-0.37089083,0.5322263,-0.48330992,-0.9721806,-0.93792474,-0.29373428,-0.019822894,0.31545594,-0.45419425,0.12434939,0.4074671,-1.115012,-0.16146873,-0.53546214,-0.45899582,0.48913714,-0.22567566,0.36773646,-0.8329971,-0.42206314,-0.48199,0.10423057,-1.1515296,0.6481697,0.4307018,0.5783414,0.40580577,0.06568367,0.34978223,0.63447744,0.81798166,0.3740991,0.1802641,0.5905529,0.43554208,-1.0633479,0.74554276,0.14235136,-0.45084763,-0.3129805,0.0013899924,-0.47122347,0.5050349,-0.8306405,0.6924746,-0.105992384,-0.22520551,0.5960878,-0.3501597,-0.90444285,0.5218926,-0.9711963,-0.087336384,-0.711096,0.5520055,0.5033625,0.40421483,-0.93261343,-1.143604,-0.09263061,-0.06767023,0.24609718,0.711884,0.12769921,-0.080881536,0.6545959,-1.0197634,-0.24310677,-0.6814693,0.5373397,-0.6880714,-0.85610956,-0.47084638,-0.6693039,-1.033211,-0.83383995,0.8280492,0.62323743,0.8580411,-0.35384855,-0.9998727,-0.39683542,-0.5949334,0.8104937,0.12641124,0.5535619,-0.4798984,-0.21463014,0.18917441,0.3725239,-0.6825422,0.8147694,-0.8159203,-0.97178453,0.2078986,-0.2489135,-0.7400417,-0.28846264,0.14197694,0.05181811,-0.7258361,-0.42852163,0.22093669,-0.77822405,-0.47473335,-0.8350978,0.90912634,-0.5224979,0.7434899,-0.3687364,-0.51295984,-0.2994821,-0.7424303,0.4434201,-0.6571938,0.20031151,-0.044929497,0.39516258,0.5592434,-0.32310054,0.06982585,-0.4241259,-0.28181046,0.34660724,-0.8481908,0.29735377,0.022378698,-0.52243525,-0.44305813,0.5573401,-0.8660356,-0.23422393,-0.016976265,0.8562537,0.046692364,-0.13533913,0.9681198,0.4997166,0.3918557,0.7030417,-0.6423845,-0.72653425,-0.08885883,0.24576175,0.34557918,-0.47360402,-0.16880442,0.5129614,0.65489197,-0.4081431,-0.586715,-0.7125477,-0.47615477,0.7416978,0.17105208,0.9672025,0.32125327,0.5785145,-0.2730981,0.5239905,0.47309244,0.1831743,-0.25903544,-0.5922571,-0.14102711,-0.5188184,-0.37453377,-0.06685902,-0.6137201,-0.3228676,-0.063860804,0.97990376,0.19224171,0.44855538,-0.683648,-0.4732273,-0.7198814,0.20514242,1.024952,-0.34977597,-0.15870824,0.998048,0.49211153,-0.26059952,0.5422286,0.50836843,-0.7330642,-0.7199449,0.4913259,-0.86865246,0.67053276,-0.47443962,0.2628298,-0.88217366,0.7638176,0.74767196,0.4855518,-0.6546891,0.6817763,-0.4400079,-0.7120215,0.71704936,0.7354914,-0.48890507,-0.35450968,0.6114474,0.9706673,0.23942208,0.5725277,-0.55019367,0.51768416,0.08800268,0.16785327,0.6160426,-0.83839035,-0.27018517,-0.014638284,0.40879855,-0.8610744,-0.8091627,-0.78071135,0.28334287,0.42549622,0.7703963,-0.7027566,0.024758257,0.7222512,0.5544249,0.21111569,-0.12107703,-0.50356305,-0.35348448,-0.7521472,0.3027019,0.06454607,-1.0059651,-0.18908636,0.485278,0.068713665,-0.5355764,0.29299507,0.22789708,-1.0432054,-0.5138406,-0.5169967,-0.19401753,-0.8174441,0.26459,0.52095985,0.41772753,-0.18047296,-1.2015162,-1.0200804,0.5230474,-0.98184705,0.0016410756,-0.61998135,-0.57089645,0.78009456,-0.7035931,-1.0442885,-0.07820693,-1.0454783,-0.97021294,0.72152907,-0.45123214,-0.99954504,-0.36495298,0.7896729,-1.1900415,0.68788576,0.49309415,0.49451286,-0.2513713,-0.76979184,-0.8159385,-0.41440073,-0.8764081,-0.64739126,0.7477876,0.614578,-0.3245217,-0.21225874,0.5047465,-0.8354835,-0.5254981,0.018808512,0.8230059,0.21831487,-1.0746479,0.37416667,0.43088645,0.8299899,0.7766723,-0.19721957,0.3916961,0.27818167,-0.23903991,-0.33613017,0.35340068,0.69138116,0.65321326,-0.9681278,-0.7292765,0.41397598,-0.865343,-0.10136223,-0.5984028,0.13892892,-0.28958297,-0.8560814,-0.3206153,-0.8671908,-0.2179288,-0.7091858,-0.039114185,0.8250614,-0.6654861,0.23584962,0.41833785,0.86021024,0.32628137,0.029184463,-0.037127297,-0.043161996,0.3604354,0.8632952,-0.5002418,0.75017494,0.411949,-0.15610394,-0.27371907,0.8591095,0.5600283,-0.74675447,0.06404106,0.59584284,0.38070214,0.2890827,0.5951619,-0.59584314,-0.46565208,-0.37848097,-0.815313,-0.7416083,-0.09561055,-0.23041196,-0.65216976,-0.5803422,0.36594015,0.5898409,-0.66295534,0.85375905,0.4595871,-0.18459,-0.81559014,-0.7984442,0.87302244,-0.44919628,-0.61442816,-0.55627024,-0.16033679,-0.8115027,-0.39463326,0.074433185,-0.04000123,0.1507218,0.1461264,-0.083697654,0.5992581,0.06132045,-0.5038397,0.62000054,-0.114752814,1.0466595,-0.48320636,1.1090902,0.8395339,0.6429758,0.4250357,-0.25997168,-0.82203907,-0.1224446,0.8411957,0.46509895,-0.28846458,1.0366718,0.6396431,-0.62424546,0.28810185,-0.51276857,-0.44407338,1.0951331,0.3839615,-0.6970882,-0.2576499,0.5680301,0.2618809,-0.777703,-0.50548494,0.8185537,0.33309492,-0.19011723,0.51082385,0.08938839,0.3263523,-0.3568039,-0.042684406,-0.0659731,0.6642964,0.8694968,0.67299545,-0.21688977,0.71546483,-0.11501985,0.7764387,0.9686499,-0.8421881,0.52522373,0.61358994,0.04779958,0.7789828,-0.7459894,-0.74562174,0.9903187,0.84635806,0.13271734,0.22362702,-0.9062667,-0.6370581,0.9518997,0.24887158,0.02438406,-0.18396416,-0.800032,0.8829789,-0.7267691,-0.18939465,-0.24664918,-0.47377163,0.83417654,0.7172733,-0.46546727,-0.13994789,-0.5547597,-0.57648796,0.2441644,0.7824862,0.4945914,-0.7601429,0.037434984,0.3001242,0.83634585,0.38109025,-0.18174356,-0.59913874,-0.7279669,-0.98531264,0.30066448,-0.7829065,-0.24793947,0.21268782,0.27220798,0.42505196,-0.6006252,-0.6848511,0.007386427,-1.0552132,0.80669194,0.5154793,-0.40820694,0.72791237,0.87529236,-0.30624202,-0.32271782,-0.403926,0.4911051,0.34291995,-0.94685894,0.24776116,0.5681192,0.029464992,0.17353441,0.75624114,0.91304815,0.7416525,0.23470303,0.13966756,0.84450084,-0.70300233,0.7897294,0.8027803,0.8223003,0.24654205,-0.84578264,0.69360626,-0.39515927,0.55665106,0.24863863,0.65232146,0.6262019,0.8705047,-0.63072526,-0.8912607,-0.65304273,0.38748842,-0.769613,-0.16179828,0.34786788,-0.889554,0.37026572,-0.4647122,0.6006549,-0.8291418,-0.47805598,-0.81433403,-0.30151445,0.3060382,0.3524019,-0.6172597,-0.29475525,-0.63256806,0.7746059,0.7883539,0.53761685,-0.7221741,-0.5342223,0.82798195,-0.9106533,-0.8272014,0.72274077,0.83382326,0.4811685,0.7489262,-0.4938126,0.55608505,-0.876995,-0.5241903,0.50130975,-0.031113716,0.40817347,0.3468727,0.25414786,0.38501632,0.5550065,0.45485327,-0.27681458,-0.20601995,0.6261177,0.74522537,-0.24994098,0.45224416,-0.70681065,0.11584285,-0.63685066,-0.43359756,-0.9495824,0.7065479,0.7691902,-0.8972561,-0.038395885,-0.060995694,0.39384592,-0.32666078,0.8621066,-0.34956232,-0.5238082,-0.348765,-0.19451135,-0.6293887,0.26376948,-0.6463298,-0.53139645,-0.33492467,-0.07622576,1.0675592,-0.361271,0.17735085,-0.24847664,-0.96460825,0.951447,-0.3547756,0.59471387,1.0719299,0.73215395,0.012157459,-0.7855683,-0.17619194,0.6880522,1.0110723,0.7148404,-0.01318954,-0.055700593,-0.57737374,-0.609554,0.7681402,0.72624975,-0.7490348,-0.7480608,0.76400197,-0.42134917,0.18268946,-0.20085686,0.2012309,0.40088993,0.29906744,-0.4622089,1.1422988,0.089110516,0.8759714,0.36371633,0.526142,-0.6146656,0.51987857,0.6372922,-0.24491587,-0.61576563,0.33613855,0.14893255,0.4570803,-0.70232904,0.8886538,0.17595768,-0.56685364,0.07967041,0.5468538,0.57321316,-0.3549251,-0.28495738,-0.14399287,-0.34530902,0.48939884,-0.5472601,0.5271672,-0.15209785,0.18023033,-0.19083463,-0.6060345,-0.018471211,-0.3211238,-0.04618375,-0.5544789,0.3847986,0.09284989,0.4218283,-0.5565165,-0.44666508,0.38198772,0.48111862,-0.7875913,0.03799614,-0.48407498,0.06967705,-0.07939314,-0.6366879,-0.61896044,-0.17271993,0.500879,0.26932076,0.16968231,-0.81152284,0.59557045,-0.73978513,-0.3459447,0.6058216,-0.62788033,-0.56535083,-0.6037009,0.84866816,-0.06275807,0.7264676,0.7202675,0.05198474,0.00061775267,0.03446842,0.4168636,-0.0028430498,-0.49928063,0.047228,-0.41045436,0.56203353,-0.07407883,0.6997225,1.0081666,0.6673116,0.4623309,0.2660542,-0.2443259,0.16238345,0.58160555,-0.5049311,-0.529483,-0.6499761,0.98402077,0.8558042,-0.04405521,0.8949151,0.13251923,-0.8198463,0.3936564,-0.75791746,0.51870364,-0.06208094,0.1446716,0.8506745,-0.5179822,0.23239297,-0.97691745,-0.06666963,0.18411088,0.17352763,-0.41028556,-0.25538522,-0.28507072,0.88603663,-0.9793494,-0.05917068,-0.11195565,0.925995,0.14029656,-0.23980466,-0.8470436,0.40043384,-0.28075412,0.20356032,0.65849924,0.6478418,-0.37536544,-0.38723013,0.15219705,-0.2794112,0.21746475,0.18749833,-0.43378833,0.24499358,0.84921175,0.30759493,-1.0509527,0.044873115,0.10557405,0.6154212,0.5188279,-0.16626093,-0.5399898,0.102783225,0.74428165,0.20444779,-0.103744216,0.89925325,-0.66228515,-0.811889,-0.33000204,-0.35972816,-0.004270789,0.30924398,0.4612456,-0.10520553,-0.41362947,-0.68488175,-0.35049194,-0.3809992,-0.34736148,0.861375,-0.5025321,-0.5926336,0.9081687,-0.35968196,-0.57050836,0.40943044,0.4267999,0.38383743,0.069857605,-0.66878307,-0.48466238,0.21134563,0.66688716,-0.90863264,0.65195066,0.9038446,0.6448924,-0.67162925,0.9405829,0.6454358,-0.050634775,0.43355864,0.20457865,1.0746894,-0.09829323,-0.2886646,0.11703997,0.2715928,-0.1939579,0.21184239,-0.9046612,-0.85298395,-0.7357608,-0.25117266,-0.1952074,0.28891376,-0.61520004,0.48891252,0.79028994,0.91746527,0.7337056,0.20374088,-0.28879884,-0.13489775,0.6987421,0.72054183,0.80379903,0.82150483,-0.6145617,0.14427467,0.5407672,-0.2093327,0.11408148,0.6454424,0.14070927,1.091211,-0.7749964,0.52700925,0.27731788,0.90490144,-0.8678339,-0.5976278,0.2995557,-0.6726941,-0.769011,-0.5290909,-0.6176186,0.55842465,0.7128651,0.096883,-0.12497649,0.6455609,0.24816824,0.6206608,0.2546817,0.4906998,0.030420324,0.26480034,0.3851973,0.12986127,0.21708614,-0.45188394,0.6556279,0.09780733,-0.21674582,0.2583523,1.0331608,0.59502715,0.72214663,0.85316145,-0.8009329,-0.92474025,-0.4382302,-0.33979803,-0.8488274,-0.81822246,-0.42682996,-0.43299714,-0.83359665,-0.019798607,0.7453999,-0.8193485,-0.83295083,-0.6660547,0.83465487,0.6741831,0.0943428,0.34640703,0.25249422,0.9443754,0.02804741,-0.12805109,-0.9800407,0.45941705,-0.05537105,0.4285937,-0.80795234,0.10245147,0.78824127,0.57922727,-0.71335673,0.5691469,0.80499464,0.83827,0.59078044,0.0048369663,0.866363,-0.56699014,-0.7825495,-0.96247274,0.8148681,0.48304573,-0.2880353,0.7027551,0.13969333,0.42783365,0.14260247,0.6368861,-0.8491512,-0.52525157,0.6337457,-0.20765004,0.18470968,-0.22196634,0.66324455,0.60461104,0.19161755,-0.09231927,-0.42069718,-0.36384007,-0.1659686,0.1684289,0.2875141,0.8200823,0.28712204,0.20750067,0.28502688,0.2083434,-0.48218766,-0.3856222,-0.4083645,-0.30383486,-0.62059146,0.18106721,0.731216,-0.2589724,-0.40282547,0.64710635,0.6548924,-0.58970755,0.4543736,-0.27046624,0.96515197,0.4392267,-0.33984482,0.3956686,0.51890445,-0.9388278,0.97821575,-0.22822566,0.40087247,0.66470534,-0.4052636,0.7130744,-0.08113864,0.7876537,0.7826731,0.03684228,0.3449895,-0.78227055,0.76973206,0.10453789,-0.41153318,0.021654768,-0.41885695,-0.5821328,-0.84365016,-0.14977807,0.0985932,0.45101553,1.0295871,-0.9343336,-0.70114005,0.9408568,0.83497477,0.03619435,-0.651569,0.09786483,0.23249957,0.55519825,0.30647707,0.57140326,0.23790252,0.5087309,-0.24393883,-0.2162068,0.32149902,-0.70618075,-0.34440982,0.10732838,0.7796389,-0.658689,-0.7543167,-0.29121402,0.5299271,-0.61357886,-0.7679323,-0.1940436,-0.5895141,1.0527328,0.9774148,0.75451887,1.135754,0.57929724,-0.009949349,0.67363715,0.8362266,0.10432187,0.7384355,-0.6836681,0.3582725,0.9622162,0.4272916,0.8231177,-0.6403243,0.30186763,0.20651904,0.5172415,0.9846276,-0.16230391,-0.87921214,0.1248551,0.7275877,-0.63511777,0.8417749,-0.684896,0.17994563,-0.50627947,-0.36324266,0.84106964,0.5077011,-0.7837946,0.55988455,0.47781536,0.6056902,-0.62878853,-0.43208775,0.055050828,-0.40338278,0.4423,-0.4958613,0.01710996,0.19544218,0.2851143,0.8788975,-0.35346112,0.61460274,1.1299987,-0.5303113,-0.22669178,0.91560906,0.51950336,-0.24388719,-0.49994153,-0.83457464,-0.7962569,-0.16276404,0.6771243,0.9621522,0.7760606,-0.85472876,-0.39799038,0.59897006,-0.75706863,0.60138094,-0.83867806,0.8477101,-0.4441554,-0.33006868,0.09284224,-0.8822091,-0.53724045,0.22930667,0.89046204,-1.0612783,0.4054382,-0.13003543,0.21834712,0.13266331,-0.8343101,-0.110936634,0.6431058,-0.31708068,-0.7567954,0.20462684,0.7159619,-0.41191867,0.82848835,-0.44586155,-0.2594011,0.65756315,0.012858669,0.960075,-0.051345948,0.32679194,-0.91789776,-0.94916016,-0.5364633,0.43501934,0.49644807,0.990621,-0.7290338,-0.9858457,0.39547962,0.7267044,-0.9934308,-1.0098842,0.46947038,0.89269036,-0.23681955,0.42856297,0.07307224,-0.18178658,-0.25546297,-0.051034097,0.22352487,-0.2379234,0.59452915,-0.65463173,0.50098526,-0.78301215,-0.014371888,0.5884205,-0.30519435,0.30877882,0.7385904,-0.75167465,0.7101873,-0.38374177,-1.0581748,-0.18492678,-0.92936707,-0.52699095,0.6898426,0.4207737,0.07924275,0.48723203,-0.95504224,-0.6293936,0.2582859,0.649921,-0.9871762,0.075972475,-0.022497127,0.56240034,-0.58608156,-0.93966514,-0.8123869,0.3119941,-0.37052554,0.9589706,0.8485034,-0.8842644,0.22931468,-0.54801404,-0.9521464,-0.44401705,0.37405753,0.39680842,0.090474166,-0.37658566,-0.29981655,-0.1864557,0.31272277,-0.8092279,-0.6661826,0.46352187,-0.09957683,0.4770517,0.043033898,-0.09944954,-0.76437634,-0.11637504,-0.5454598,0.93504363,1.0343039,0.3351395,-0.29993573,0.42970952,-0.83756155,-0.099052615,0.4918313,0.65973586,-0.7540122,-0.49885178,0.7725729,-0.64830244,0.24857654,0.8046434,0.09593714,-0.088179775,-0.86462504,-0.80446804,0.212595,-0.55363166,-0.40173954,0.7148269,0.36524284,0.16617288,-0.43423954,0.30782545,-0.9822444,0.410833,0.36298612,0.972845,0.111185044,0.9260124,-0.30079436,0.18133512,0.4792794,-0.37389386,0.025534805,-0.018523093,0.94995886,0.7317249,-0.5941957,0.52082485,0.10149572,0.7420554,1.0157781,-0.07406574,0.8814132,0.13335973,-0.33410063,0.54566956,-0.33669442,0.7598106,-0.8582869,-0.25378877,-0.5656266,0.08637026,0.57598025,-0.4012192,-0.4307872,-0.8882717,0.9163817,0.9365004,0.4867326,-0.39239594,0.52485776,-0.69941276,-0.5232716,-0.19318873,0.6585013,-0.22702998,1.0649792,0.42724374,0.4927785,0.3812565,0.89391875,-0.47810367,0.52938807,0.178408,-0.67471933,-0.37996888,0.84406704,-0.032716446,-0.7384089,0.39852458,-0.70505214,-0.81293243,0.76832896,0.49490935,0.6828008,-0.46830943,0.23307681,-0.6270593,0.31125572,0.9920443,0.30649412,0.057044383,0.7418301,0.19854145,-0.3526444,-0.25495738,0.13698338,0.82926106,0.5332725,0.6340942,0.7041206,0.35220912,-0.25062844,-1.0032239,0.8019853,-0.33478615,-0.52333766,-0.35877192,0.96235144,-0.805824,-0.92883855,0.8245474,-0.58535695,1.0120502,-0.39565554,-0.83554745,-0.48328903,1.0148753,0.31835067,-0.2501094,0.6524118,0.89574397,-0.8008287,-0.38114408,0.25827864,-0.65291876,-0.5946118,0.060028125,0.3389045,-0.44887272,0.44750002,-0.37485906,-0.82538223,0.15842865,0.10539325,0.860404,0.5099824,0.66608083,0.19079173,-0.07422174,0.7801957,-0.16631073,0.32444498,-0.40126523,0.53841937,1.0444872,0.54685736,0.42481503,-0.85508186,0.031867273,0.69839495,0.67132634,-0.9690922,0.19664696,-1.0525023,0.014376126,-0.6202653,-0.72475827,-1.0264474,-0.38899013,0.8572554,-0.32498166,0.26477754,-0.4059879,0.31863365,-0.93525434,-0.5273641,0.8487212,0.19377139,-0.9461456,-0.058074597,-0.7424888,-0.81129736,-0.34009138,0.46376255,-1.03594,0.6457353,-0.21342048,-0.48354816,0.35554054,0.4316783,-0.9044129,-0.28047433,-0.8593121,-0.9039579,-0.25814277,0.77353233,-0.46620464,-0.98185456,-1.0224332,-0.40872136,0.50054646,0.75674736,-0.39643005,-0.9232164,0.0024699448,-0.5202193,0.35278574,0.606131,0.36569986,-0.60941225,-0.42844194,0.75776315,0.58024865,-0.7015614,0.72795105,0.8923048,0.0007300582,-0.12175964,0.34416613,0.57078886,0.47670633,-0.79918885,-0.7719633,-0.06502248,0.23181847,-0.33310604,-0.332602,-0.004795256,0.055229075,-0.94092923,-0.045632936,-0.67825204,-0.20652771,-0.11070216,-0.5612575,0.6461961,-0.7672207,0.46314305,0.32387725,-0.72895354,0.21454339,0.2471571,0.6209497,0.44864833,0.49595487,-0.1602387,-0.47013682,0.28941676,-0.09632859,-0.24200423,-0.80913967,0.8635253,-0.41233546,-0.05374639,-0.43175098,0.016940054,0.15938202,-0.534524,-0.91276014,-0.48884454,0.6711972,-0.14241415,0.48681504,-0.952528,-0.308673,-0.44495797,-0.5563953,0.51762235,-0.6252154,0.21956448,-0.6693329,-0.21004495,0.52864987,0.4453054,0.022804322,0.75770104,-0.29243192,-0.11384432,-0.06717156,0.50003153,0.5364083,-0.7679827,-0.011677484,0.93179184,-0.61870265,-0.7626415,-0.01317593,-0.36111173,0.7430552,-0.6116334,0.02127249,0.5649128,0.30469313,-0.33782423,-0.112081654,0.17176831,0.47936845,-0.1437915,0.23354952,0.7296621,-0.28209636,0.69431925,-0.32762325,0.27850994,-0.45264554,-0.37188268,-0.0831223,-0.93016917,0.8701987,-0.6604452,-0.7339348,0.085878134,0.9593433,-0.14832431,-0.38945684,-0.08727265,-0.14427684,0.35840625,-0.2553653,0.29210073,0.66725075,-0.92141616,0.50180656,-0.98395586,-0.2400511,-0.82060444,0.09409063,-0.63846016,0.41656226,1.0091573,1.0156881,0.41930076,-0.84515977,0.7108773,0.34941795,0.16545977,-0.05514714,-0.7109412,-0.59599644,-0.39535606,-0.640897,0.063784845,-0.369871,0.0013001768,-0.85264003,0.7114021,-0.30939645,0.089161105,0.8396492,0.69271475,-0.24923556,0.52002317,-0.77322036,-0.9679898,0.5350609,-0.012095158,0.2024939,1.0105143,0.49937242,0.59362894,-0.003997609,-0.052037653,-0.83999026,0.11821817,0.86037594,-0.88370395,0.16689336,-0.6558643,0.287058,0.921132,0.7461435,0.18117478,-0.4701118,0.34520206,0.95233375,-0.20746835,0.5391984,0.493971,-0.46765304,-0.3533804,0.68421334,0.015762886,-0.04513846,0.006252447,-0.56204677,-0.064746164,-0.034972824,-0.5433742,0.050393026,0.17989308,-0.04809751,0.68211263,0.19512846,-0.96760976,1.0421207,-0.7338703,0.9653314,0.25886723,0.13372913,-0.8316566,0.12040904,0.22728755,-0.05119802,0.95454377,-0.06345763,-0.09980589,0.25775412,0.6779978,-0.68962306,0.29604584,0.33020484,-0.11378262,-0.5233483,-0.905874,0.032306124,-0.7521382,-0.26104376,0.41991657,0.2459932,0.64741594,0.71870685,0.7507477,0.3838804,0.5696074,-0.88353735,0.13182057,-0.59422255,-0.8955721,-0.8996563,-0.4421248,-0.8145402,-0.12066256,0.3560951,0.6568625,-0.5704591,0.5036198,0.21102256,-0.24094892,0.4858229,0.3907636,0.19876274,0.59565586,-0.7838756,-0.27959555,-0.3399272,-0.53035736,-0.56500256,-0.12747407,-0.094140984,-0.7070169,0.27728117,0.99885815,0.8970951,-0.22075504,-0.74789566,0.39498815,0.9901463,0.87363464,0.2830908,0.40192497,-0.5712934,-0.15403372,0.811638,0.08384962,0.2121148,-0.84012884,-0.24675028,1.11297,0.4400457,0.39140788,-0.19022308,-0.77806914,-0.5698037,0.17544644,-0.7221838,0.29598585,-0.86300826,-0.9176547,1.1108283,-0.65930223,0.011312419,0.30867335,0.34968498,-0.072089426,0.60895926,-0.66678166,-0.8370305,0.5233809,-0.16975066,-0.68623406,0.7538622,-0.2579698,-0.3590406,-0.6829618,0.48783407,-0.64828604,0.008919348,-0.27717906,-0.9796652,0.7571751,0.42039397,-0.8945251,-0.5650942,-0.46939436,-0.73191696,-0.18356924,-0.36004364,-0.22074045,0.51089424,0.85136116,-0.4654492,0.3570073,0.09971719,0.63518184,-0.8176471,-0.50589126,-0.54334843,0.21207403,1.013013,-0.182115,-0.77910084,0.10340433,-0.6018935,-0.566411,0.57993317,-0.45483887,0.88267386,0.06442462,-0.9459539,-0.79585594,0.81059897,-0.9178598,0.8326715,0.21441486,0.46517578,0.3683159,0.12560262,0.44053063,-0.9088575,-0.67407274,-0.49788833,0.16050634,-0.3805833,-0.5955921,0.44983718,-0.7793895,0.71537125,-0.8737431,1.0867499,-0.009277763,-0.5677911,0.120319396,-0.62699735,-0.22602579,-0.5011882,0.63254863,0.046879213,0.53140223,0.3452194,0.5009573,-0.8500283,0.24591778,-0.5593459,0.12765802,0.43345356,1.0912882,0.6661584,-0.8863428,-0.07158233,-0.20755516,0.3120372,-0.66364425,-0.48117992,0.16226184,0.42376164,-0.5892283,0.08664666,0.48007086,0.4963201,-0.3090572,0.9883843,0.4517294,-0.21490377,0.7593762,0.8258235,-0.6392446,0.7473785,-0.757005,-0.9513953,0.37235078,0.6829083,-0.81735694,-0.5482261,-0.3573304,-0.71982557,-0.0782083,-0.6067,-0.37463498,0.9718787,-0.3638216,0.06547071,0.74037296,0.81351125,-0.43478823,-0.693082,-0.8886877,-0.6632821,0.008137979,-0.21924363,0.9041265,0.49575636,0.066225246,0.35760793,-0.8161485,0.9954297,-1.0265849,-0.12967195,0.053741418,-0.5582251,0.25930002,0.22829026,0.09673917,0.8820346,0.0896246,-0.53395456,-0.48240376,-0.13248342,0.9891042,-0.67650396,-0.28259423,-0.60704505,0.71131873,-0.83088934,0.7157677,0.1110535,-0.6138761,-0.29657587,0.20964915,0.30569512,-1.0075666,0.52917576,0.3665333,0.08294763,-0.080988124,-0.88826954,-0.66958666,-0.028490374,0.9581412,-0.6386172,0.74953324,0.28986186,-0.67011935,-0.96395886,0.30188662,0.27254108,0.47800502,0.13375454,0.9746306,0.06221138,0.71687996,0.14598928,-0.2836012,0.18068488,0.26276597,-0.19974211,0.9447211,-0.2361326,-0.24133639,-0.15249932,0.46868113,-0.70252264,0.78125894,0.7091775,-0.24216296,0.82146883,0.1312785,-0.865611,0.65951484,-0.021828467,0.015054681,0.46332398,0.6639264,0.93172854,0.2825499,-0.53119946,0.81072116,-0.24157266,-0.1545296,0.95598054,0.061939992,0.8553358,0.22396483,-0.3681938,0.23938186,0.08290942,-0.4400282,0.33410424,0.64063376,0.5080752,0.08058906,1.105939,-0.35437033,-0.56674993,-0.18583225,0.6351504,0.83258855,1.0776138,-0.07806221,-0.20747758,0.8395151,-0.5307917,-0.15276554,-0.8115035,1.0171907,0.84912074,0.57229626,-0.6748153,0.6901827,0.83275616,-0.70555514,0.7561408,-0.03331095,-0.5387066,0.8859632,-0.48953632,0.110177554,-0.65312666,-0.06495481,0.10560509,0.30652702,0.15021603,-0.8419558,1.0549474,0.1510121,-0.096540615,0.1859264,-0.110640615,0.7566445,0.22311367,-0.83480924,-0.22573143,0.31753162,-0.13847266,1.0526242,-0.5532719,0.8003755,0.31178874,-0.5730525,0.96691704,0.60734344,0.05189528,0.38704902,-0.63759965,-0.37275618,-0.5810982,0.862875,-0.4690199,-0.21495283,0.4836089,-0.93483853,0.9683407,-0.7209308,0.67472154,0.9066036,-0.037738547,0.32562762,-0.70621073,0.27371734,0.75221777,0.7389219,0.34105918,-0.85248065,0.22458023,-0.7418046,-0.38280618,-0.26884815,0.88473326,0.26315033,0.7798684,-0.07043883,-0.3057694,1.0371435,0.16532396,0.3730117,-0.5335915,-0.39469227,0.2794653,0.71297693,-0.29463726,-0.24236746,0.07416388,-0.42693856,0.7647114,-0.558717,0.17478648,0.909837,0.1682752,0.28331065,-0.49107993,0.22879672,0.9151141,0.6327799,0.924181,-0.6304476,-0.28606534,0.93424565,-0.01834772,0.8186057,0.076420926,0.1282178,-0.5095966,0.4401284,-0.6993176,0.65899265,0.0009111752,-0.13382001,0.5261523,-0.20191368,-0.37155598,-0.010542764,-0.11668425,-0.18816882,0.15147753,-0.35413346,-0.30567968,-0.27350917,-0.21670839,-0.725492,0.37540716,0.62760764,0.932217,-0.7652537,0.7598692,-0.27716708,0.90081745,-0.33131298,-0.8102174,-0.17506419,0.39632875,-0.8489875,-0.98268473,0.916103,-0.9387388,-0.19573927,-1.0128883,0.28842112,-0.20452793,-0.008260796,0.42324653,0.5272145,0.6237802,0.021660846,0.3306229,-0.6442859,-0.19631007,0.15993321,0.25664994,0.09852935,-0.25320852,-0.1310064,0.57449085,0.14294903,-0.8006705,-0.4906808,-0.8444589,0.48910305,0.7585265,0.5441882,0.026092071,-0.18077734,0.01949638,0.26488623,-0.342831,-0.45041332,0.36643437,0.021356901,-0.18868983,-0.5451214,0.4928117,-0.21901116,0.9617076,-0.51318014,0.60550237,0.69670373,-0.3547665,-0.34485155,-0.8083304,-0.5889606,0.52550495,-0.7750636,-0.425024,-0.90198994,0.84421104,0.27274632,-0.4255841,0.30063933,0.8511443,0.9693399,0.51766324,0.08678169,0.8870424,0.59933054,-0.40665552,0.9910063,0.8804423,0.6953422,-0.13009612,0.82864934,-0.3472075,0.45811403,-0.84904665,0.5573185,-0.34179768,0.09660243,0.09172783,-0.35529053,-0.54080737,-0.11932058,-0.21188511,0.07318536,0.084161475,-0.28556702,0.21639138,-0.5302058,-0.385043,0.76281464,0.334143,0.62039316,0.97524357,-0.7673908,-0.021547815,-0.3897963,-0.42089456,1.0601511,-0.6368029,-0.12725809,-0.8455038,1.0685016,-0.6031055,-0.90525734,-0.23821427,0.47686854,-0.24787055,-0.04938521,-1.0021232,1.0319908,1.0348008,-0.38936916,-0.1830431,0.5204113,0.40316236,-0.033364028,0.6506024,0.68615854,-0.0873758,-0.24125576,-0.8565568,-0.3842982,-0.48448107,1.0115294,-0.63961816,-0.6489356,-0.7171554,0.847516,0.90176743,-0.46842667,0.78559947,-0.4050045,0.22962266,0.65903944,-0.89612937,-0.90322924,0.9883596,-0.5677134,-0.8836991,-0.7628966,0.021442935,-0.94509476,0.074345976,-0.6038357,-0.44504115,0.7934986,0.11344539,0.77547574,0.09063515,0.5905397,0.7585368,-0.72002244,-0.43628472,0.69165117,0.49879256,-0.71847576,0.65556693,0.4251434,-0.8719646,0.98114043,0.6122621,0.9076308,-0.07280031,-0.71118677,-0.59732705,-0.28050637,0.21222013,-0.89018446,0.8231356,0.25867733,0.7016929,-0.09629824,-0.21329795,0.46155202,0.9770851,0.060645398,0.013150445,-0.5658955,0.9656554,-0.61480504,0.21064666,-0.58290404,0.58715874,-0.34522206,0.73452145,0.5935398,0.51482964,0.9369392,0.53847754,0.5396883,0.050037514,0.85707575,0.5816186,0.6743686,-0.18738525,0.5286749,0.5101034,0.27476802,0.8418972,0.16507083,0.898914,-0.768324,0.17012563,-0.74190557,0.44305742,-0.34257084,-0.7405947,-0.6528569,0.25490114,0.6701718,0.4348528,0.9480041,0.37923396,0.3126744,0.21878645,0.8982288,1.0219761,0.099183045,0.7175243,-0.47560504,0.36871532,-0.71867234,-0.3792915,0.74637437,-0.52356946,0.76593596,-0.78281754,0.12800112,0.04637817,-0.27006227,-0.31944776,-0.027463116,0.83462024,-0.73732775,-0.47133803,-0.9133615,0.69651234,0.42446363,0.9800649,0.8066415,0.44913256,0.6868685,0.1481399,0.90520793,-0.14782287,-0.59367657,0.06733973,0.5836509,0.8801923,-0.86425596,-0.39373842,0.3092993,-0.004880802,-0.43264475,-0.33246905,0.7234881,-0.31315935,0.38087198,-0.22627503,-0.54342824,-0.96254104,0.47362426,-0.8451043,0.122450136,0.5860779,0.49844804,-0.5756297,-0.49026814,0.69208646,-0.9949604,-0.9845791,0.78711486,-0.6962463,-0.46948382,0.80353355,0.0076867226,-0.23537433,-0.44046035,0.7449585,0.8246849,0.962348,-0.2631698,0.43887204,0.71084315,0.94710946,0.26274502,0.8520786,0.92319953,0.5017399,0.15711586,0.32162514,-0.9582743,-0.75753677,0.13161258,0.71200234,0.23419504,0.36909994,0.6428505,0.32466426,-0.36683536,0.5822994,-0.2574946,-0.5520958,1.0084032,0.54978013,0.97659546,0.09329073,-0.5133349,0.22205597,-0.3345526,0.22649147,0.9233492,-0.54005057,0.048677832,-0.18318413,-0.2523597,0.612923,0.7888883,-0.8885352,-0.70776653,0.27057037,0.8234357,-0.1399467,1.0531802,-0.6771788,0.41594145,-0.10070966,0.78707504,-0.14874138,0.36214206,-0.3638434,0.7480696,-0.7538417,-0.75534326,-0.7964102,-0.5408159,-0.4051733,0.29027343,-0.52333707,0.59433204,0.48191532,0.24242161,-0.10755976,0.64968485,-0.9647031,0.5768843,-0.371116,0.24548268,-0.038908646,-0.73909426,0.9370013,-0.5752394,-0.71338004,0.62363034,0.777538,0.81685776,-0.03459931,-0.55889463,0.4569309,0.90149295,-0.42938915,0.12374928,-0.1932321,0.5092297,0.03235019,-0.3091934,-0.3982352,-0.257963,-0.32744023,-0.009168814,-1.0026615,-0.9473156,-0.31236863,0.51089823,-0.45087263,-0.017721478,-0.77416545,-0.18062384,0.5971671,-0.38171142,-0.9591403,0.8905146,0.9435391,0.9824844,0.85765004,-0.529022,0.5229918,-0.121935874,-0.06093393,0.5567409,0.5542305,0.8369945,-0.70622313,-0.41795954,0.07444188,-0.17637119,-0.013989193,0.57664996,-0.09802944,0.5708731,0.4663025,0.33969086,0.6832576,-0.0936599,0.36262012,0.8978795,0.6085864,0.22143012,-0.99124396,0.81081665,-0.98872894,-0.91939956,0.9569799,0.84582525,-0.81255454,0.7764592,0.08171949,0.14262415,-0.21225907,-0.43288547,0.28982368,0.49533132,0.5052479,-0.2604558,-0.7790597,0.96938163,0.7250431,0.51596445,-0.9445137,0.9388553,-0.40425795,0.09545472,0.5045336,-0.4227225,-0.011171036,-0.44472393,-0.35119724,-0.86002314,-0.54649657,0.30833146,0.507717,-0.89517504,-0.42936352,-0.37452957,-0.40228322,-0.5709321,-0.90586126,-0.6687241,-0.1440966,0.02209863,0.43714935,-0.67053753,-0.017709253,-0.5474479,-0.8847061,0.7533981,0.9038109,0.83979094,-0.14791378,0.67041236,-0.14335796,0.07849084,0.35664076,-0.89818853,0.975353,-0.90475,0.91426486,-0.36956823,-0.5152904,0.20299187,0.83944017,0.35540903,0.38872612,-0.011093763,0.21056846,0.027326677,0.14114407,0.8148466,-0.8178485,0.29554057,-0.317649,-0.41056654,-0.5493246,-0.03658784,-0.8745387,0.9906665,-0.37655702,0.6208537,-0.06353139,0.8304661,-0.43875298,0.6794027,-0.19649035,-0.689279,0.08148132,-0.37569723,0.7419322,0.056947086,0.6029411,0.5319117,-1.0013874,-0.108636476,0.21486765,0.73214227,-0.17415395,0.25922057,-0.4615264,-0.8366198,-0.13786581,-0.30661502,0.83926207,-0.7626114,-0.96877533,0.28024298,0.10914029,-0.90017146,-0.78996694,0.25297624,0.45839366,-0.633071,0.30223584,0.46896154,0.124091744,0.15909214,-0.3805438,0.8548188,-0.18704697,0.26448503,0.9116739,0.12115018,0.48151156,0.14776084,0.10446892,0.5893291,0.15846176,0.22272937,0.81428117,0.5102371,0.42810825,0.23991595,-0.19925283,-0.8094313,0.8057677,0.033749733,-0.9201726,-0.403075,0.8163091,-0.44573036,0.26194152,-0.48919284,-0.89705217,0.656157,-0.5767275,-0.22760311,0.6566264,0.7955811,-0.70227194,-0.33571538,-0.32861337,0.37793365,-0.6696375,0.2978757,0.18744066,-0.0023404707,0.8012253,-0.40758213,-0.84528416,-0.6918731,0.6990011,0.30240408,0.2605924,-0.6155145,0.91563874,0.71482205,-0.21113712,0.88953567,0.40494904,0.3229089,0.94724095,-0.84182596,0.036471922,-0.40233192,0.49579895,0.6242082,0.53015786,-0.5335818,-0.2912293,0.4814196,0.46344867,0.35918558,-0.1615476,0.5706433,-0.95449716,0.6882364,-0.30977732,0.33940005,-0.6163558,0.21073827,-0.9536809,-0.55005,-0.5261457,0.8395143,0.9477986,0.36484143,-0.17926416,0.6155686,-0.2885865,0.88114476,-0.95781416,0.04813678,-0.0010510714,-0.051837947,-0.9680005,0.8322059,-0.656022,-0.2019879,0.9185472,0.25395033,-0.7567691,-0.79651904,0.37255234,-0.4462816,0.59997636,0.61245376,-0.012387053,-0.09131641,-0.13089404,-0.28491688,-0.29625425,-0.04413233,-0.84855145,0.93102866,0.38354737,0.78455216,0.8492624,-0.6476718,0.31823462,0.30826327,0.9506415,0.44508138,0.07490158,-0.059729986,-0.93417823,-0.6131433,0.8123781,0.42610952,-0.053939905,-0.724,-0.24424593,0.79323506,-0.50818235,0.57251394,0.9452597,-0.067676306,0.48621625,0.3247382,-0.12092994,0.44653594,-0.2104814,-0.5354336,-0.5986897,-0.038530305,-0.04487564,0.66595095,-0.09349681,1.0236489,0.8624039,0.40398094,0.1525441,-0.6222454,-0.3156036,-0.64654946,0.19344191,-0.68642783,0.6732364,-0.018590486,-0.20489426,-0.25525266,0.81247747,0.11690449,-0.53063786,0.22486492,0.8939063,0.25012875,0.07542956,0.8360659,-0.5886712,-0.55818355,0.75435114,-0.016186869,-0.63558435,-0.6421508,0.18056738,0.34997588,-0.2576192,0.5530366,0.07680405,0.27887383,0.11554691,0.6680209,0.6346009,0.0850908,0.16615471,0.9138724,-0.7739963,-0.06674837,-0.20260137,-0.27615827,0.52013,-0.6848338,-0.426078,0.7912991,0.35321513,-0.3595385,-0.6413355,-0.3422665,-0.8522312,0.22580369,0.82111704,-0.3593916,0.042679362,-0.24160537,-0.16098234,-0.5840944,-0.5584563,0.50412047,-0.24153584,-0.061417043,-0.69818795,-0.7799306,0.16062413,0.7877591,-0.10791479,-0.027656676,-0.14528233,-0.2815689,-0.11107306,0.18566698,-0.17322735,-0.69067705,0.012813123,0.09790429,-0.7498896,0.18572575,0.42875177,0.21713197,0.5833049,0.53778166,0.040276706,0.7704465,0.43827218,-0.54352635,-0.32178268,-0.7941271,0.34118396,-0.3473004,0.63247144,-0.2744928,0.70302826,-0.37659267,-0.7173114,0.14815685,-0.42159227,-0.1877363,-0.21214908,-0.53973734,0.65053177,0.47981817,-0.17803496,0.4385903,0.8307297,0.8969793,0.85702604,0.22349907,0.9294777,-0.48301932,-0.88513064,-0.73547643,0.1011681,0.99292785,-0.43259102,0.6543406,0.07744868,0.39767656,0.3420377,-0.32659516,-0.9602768,-0.5544328,-0.5056124,-0.89679146,-0.797156,0.18371496,-0.08750255,-0.6437558,-0.54230374,-0.7887412,-0.83510613,0.11402422,0.79644156,-0.8765525,0.034045875,-0.98989105,0.37882915,0.3738625,0.113208085,0.70274645,0.3300909,0.96266246,0.9703646,-0.0035999464,-0.6036779,-0.49207616,0.7678834,0.36070228,0.010034571,0.9043333,0.5728011,-0.15645687,-0.6927621,0.9730263,0.24065012,0.8953882,0.8311864,-0.97594905,0.93427587,0.36234987,0.67522573,0.105185196,0.08692573,-0.3457241,0.12981422,0.45091692,-0.5378902,0.13729516,-0.064443976,-0.6680201,0.035766378,-0.11999781,-0.2000929,-0.9352488,-0.7185189,1.036045,0.54275423,0.46357837,0.4191959,-0.28853086,0.67763174,0.23497903,-0.4307115,0.4192432,-0.73605627,0.241423,0.9184313,-0.19516703,-0.9417974,0.31868982,0.37499017,0.57265055,0.6292031,0.23409022,0.08425978,0.0030065852,-0.50966024,-0.69441605,0.8030353,-0.8211613,0.3292291,0.5210963,-0.3806904,-0.24794918,0.2160756,0.8526226,-0.5062875,-0.92653936,-0.91808736,-0.6748776,0.8616226,-0.884563,0.009482313,0.5711705,-0.18128613,-0.26369637,-0.35201675,-0.34822354,0.8812765,-0.9705165,0.6866893,-0.38505775,-0.25148287,0.40338227,0.70380604,-0.18004079,0.4846581,0.08972568,0.4918349,0.9100622,-0.11083088,-0.3283526,-0.76384616,-0.76286995,0.7295734,0.46323574,-0.5704218,0.22363314,-0.41226602,0.26232085,-0.7746493,-0.42534953,-0.55476785,0.20001778,-0.05818046,0.45674518,0.17125954,0.43427417,-1.019549,0.21026592,0.8880026,-0.42390543,0.63314307,-0.31443718,0.07563385,0.59679013,0.10784301,0.5400986,-0.46047595,0.46330053,0.614716,-0.81935835,-0.094546504,-0.27731684,0.24056858,-0.909298,-0.08607129,-0.06444227,-0.32602182,-0.2553682,-0.29421487,-0.8835242,-0.34113148,0.44990698,0.2832589,-0.22790347,-0.30221784,-0.81645566,-1.0654051,-0.2700693,-1.0615462,-0.57137984,-0.16801658,-0.94872326,0.51775825,0.105793044,0.67242664,-0.23931861,-0.20912845,0.46972877,-0.27731013,-0.25835165,0.1984246,-0.40400934,-0.8569364,0.6505448,0.39365175,0.17322429,-0.44826788,0.11870665,-0.37312716,-0.2573249,0.15994893,0.6077933,0.9405978,0.4069472,0.8032708,0.05780716,-0.28341457,0.16980557,0.20047808,0.019005243,-0.92106766,0.64383864,0.5211696,0.5695859,-0.42971668,0.68949777,-0.50709236,-0.11012522,-0.76145416,0.44836,-0.252611,-0.6053315,-0.7103061,-0.42466664,0.4224488,-0.6929915,0.81767213,0.6326144,0.52899075,-0.5175446,-0.666365,0.47785878,-0.7234976,0.546888,0.061976623,0.3049078,-0.52974,-0.52410084,-0.1701256,0.6702698,-0.9963103,-0.84809935,0.109340884,-0.63836145,-0.63001686,-0.83253556,-0.75838035,0.78697634,0.59789705,0.72295666,0.2725399,-0.13242778,-0.056443818,0.4188317,0.0039488203,0.705869,-0.42871854,0.7894244,-0.8206041,0.6020143,-0.8519392],[0.1783325,0.8435893,-0.17059249,0.07754052,0.3225092,-0.2647372,-0.26775384,-0.89392376,-0.06355253,0.38552493,-0.19302362,-0.14161962,0.42864934,-0.7222487,0.0809072,-0.6112514,-0.4820326,0.35228652,-0.56001705,-0.3405055,0.75005525,0.9340537,-0.95611507,0.33513886,0.56767875,0.07727829,-0.3491012,-0.6208379,-0.95962155,-0.3060295,0.60015893,-0.8892403,-0.45558813,-0.5246558,0.5798231,-0.82523847,-0.39492857,-0.015602921,-0.45219198,0.53205323,-0.11426558,-0.31922552,0.16074991,0.10834367,0.8591764,0.17531368,0.4626393,-0.20555198,-0.027934834,-0.7044327,0.33870783,-0.021414153,-0.38255262,-0.23926347,-0.8324048,0.9127909,-0.5797017,-0.47868705,-0.9746657,-0.46978372,-0.6264236,0.56433356,0.57536507,-1.0297682,-0.30893922,-0.15953158,-0.5118616,-0.71644664,0.3337326,-0.039072737,-0.50717586,0.71552664,-0.18736367,-0.98611176,-0.48909184,0.6167478,-0.19763437,-0.2893558,0.06363003,0.7158206,0.1458686,-0.16858521,-0.036361568,0.8382789,-0.7760493,0.23662509,0.17704496,-0.74318343,-0.4383073,0.25789198,-0.27087963,-0.9373819,0.17844959,0.7576388,0.46431386,0.56298435,-0.55999285,0.4395959,0.30946705,-0.74546623,-0.02464496,0.29715124,0.07818446,0.5623645,0.14297985,0.59799546,0.338044,-0.34169787,-0.4770686,0.6922711,0.5262535,-0.7925596,0.7790237,0.58794844,-0.90865076,0.4940821,-0.067129806,-0.9091805,-0.038294107,0.71578264,-0.18056756,-0.9830827,-0.3069241,0.86698973,0.11975407,0.15249856,0.60236984,-0.72133404,0.42964554,0.37777072,-0.86452466,0.48280188,-0.13783516,-0.9215229,-0.35855186,-0.23443918,-1.1483221,0.77196753,0.06880678,0.2304194,-0.013511091,0.29307806,0.3811223,0.28517073,0.33930948,0.50257987,-0.0775638,0.5512378,0.71826965,-0.30627266,0.3920567,-0.15136427,0.77768177,-0.9642473,0.7150566,0.028249027,-0.7617596,0.26070496,0.06147343,-0.17246132,-0.38451856,-0.26138303,-0.6929137,0.44891956,-0.81642413,-0.26914304,0.25286365,-0.038026758,0.5541592,0.57963,-0.2948879,-0.9699091,-0.08303256,0.10502094,-0.36184934,-1.1227163,0.39425415,0.61838424,-0.47862688,0.055323508,-0.88105327,-0.002580856,-0.035158973,-0.6319325,-0.18828474,0.23500007,-0.16477603,0.25911266,-0.33720845,-0.009667535,0.7047555,0.09430951,-0.7645536,-0.093478516,-0.7673894,-0.6599338,0.2503168,0.55975187,-0.040180556,-0.49565342,-0.60799056,-0.69130075,-0.25898656,-1.1035923,0.5424666,-0.74410737,-0.36996722,0.44201863,-0.58732754,0.13507812,-0.26447883,-0.032814343,0.40526167,-0.5188115,0.4880457,0.770687,-0.57184285,-0.9196837,0.60086316,-0.3008968,-0.91411453,0.6210861,-0.21852694,-0.6378059,0.529348,0.0159456,0.7870268,0.49920222,-0.3038187,-0.75529224,-0.79643923,0.40812778,-1.0408633,0.07303729,0.2122137,0.60382694,-0.42663857,-0.8413279,0.23371086,0.68418497,0.8263023,0.7076695,0.4062138,-0.8755685,0.44434747,0.74390185,-1.0503424,-0.050056394,-0.14674295,-0.24957056,0.039260227,-0.60184526,-0.5785295,0.067031026,-0.54873335,0.6224209,0.55537343,-0.62692153,0.35500732,0.5602225,-0.62795526,-1.04372,0.113549426,0.31424996,-0.44010773,0.49982607,0.8242982,0.032839287,0.33942315,0.14328009,-0.19822954,0.13797008,-0.30643556,-0.7977589,0.20470966,-0.47053543,-0.55007297,-0.59067434,0.7909658,-0.6187668,0.53801554,1.0055609,0.2704233,0.58370364,0.3428622,0.9676504,-0.8545816,-0.20471154,-0.6448977,-0.10742311,-0.8003315,-0.34694302,-0.30843621,-0.70036095,0.036976315,0.84474444,0.36904505,-0.9476481,0.1145092,0.28951818,0.34386316,6.6148306E-05,-0.8511638,-0.21759646,-0.7729492,0.8516039,0.1474261,1.087224,0.56957513,-0.53149486,0.6625709,-0.66580343,-0.12300299,0.9938027,-0.8078323,-0.32528168,0.70934147,-0.18262729,1.0381248,0.5974634,0.97187674,0.017099263,-0.06753662,0.066875465,0.6433847,0.5148317,-0.43839288,0.75823444,0.065553285,-0.61220354,-0.93756986,-0.15501446,-0.37628472,-0.75687563,-0.43802178,-0.9947051,-0.62039,0.4980346,0.3647126,-0.82052416,-0.60405624,-0.5891748,0.12856841,0.3650356,-0.65228766,0.44062465,0.9566165,0.27975944,0.633911,-0.029294863,0.91014624,-0.9836231,-1.0379251,-0.7347088,-0.6413551,-0.6013678,0.23338564,-0.9853398,-0.15101826,0.2542858,0.39085683,-0.34357804,0.15765578,-0.7724181,0.003650204,-0.49056366,0.3407813,-0.37569353,0.6126069,-0.12224959,0.07480363,-0.9909804,0.58083504,0.43353748,-0.38185477,0.07792294,-0.506973,-0.015284605,-0.5181169,-0.36626256,0.23998247,-0.7609177,-0.94282925,0.49862823,0.3576544,-0.5250165,-0.9081289,-1.0628394,-0.6720309,-0.42764375,0.4990285,-0.88385725,0.8102504,0.5045864,0.8632922,-0.51190215,-0.6772694,-0.26915446,0.4127578,0.3521024,0.40499645,-0.9852671,0.072438404,0.39336893,-0.35379142,0.3429985,-0.97421837,0.47227657,-0.7986091,-0.76408726,0.5808171,0.64899325,0.26274315,-1.0587683,0.41979462,0.7346458,0.26936918,0.4435919,0.7862237,0.6384136,-1.008778,-0.68026465,0.8109845,0.18427433,-0.4886976,0.7207942,0.5431477,0.19536746,-0.09566787,-0.9186094,-0.92990434,-0.7548919,-0.04412832,0.963233,0.08178966,-0.68452626,-0.44851324,0.5326136,-0.38778314,-0.8879858,0.78824127,-0.22946216,-0.0741939,-0.7616127,0.48620975,-0.4781229,-0.35811844,-0.14163376,0.3827438,-0.43821046,-0.46562198,-0.14643553,0.36815533,-0.33249146,-0.81974834,-0.34225404,-0.43895718,-0.22289436,-0.8931668,0.6803446,0.60150886,-0.033173293,-0.085420914,-0.25843117,-0.03413229,-0.8563905,0.38295197,-0.2571089,-0.6798597,0.9342946,0.17365877,0.44622785,-0.44499037,0.61283726,-0.033344835,-0.08134624,0.08314657,0.5098276,0.9238655,-0.5226496,0.5442432,-0.15699229,-0.64549965,0.1381562,0.8387735,-0.5577022,-0.5548109,0.38559276,-0.08320484,-0.36884865,0.56494015,-0.106664486,0.42075622,-0.97929025,0.89757854,-0.29001084,-0.27066514,0.7655121,-0.4113891,0.28124326,0.67172986,0.23828657,0.7643335,-0.54462004,-0.9557148,-0.13441409,-0.5370619,-0.20446673,-0.26196134,0.08622931,-0.15538631,-0.72860676,0.7425706,0.77769774,0.18356192,-0.70070404,0.8843445,0.35056695,0.81367546,-0.7732056,0.8935806,-0.086629905,-0.5438948,0.06171862,0.99905926,-0.13401268,-0.76612467,-0.5171392,1.0511948,-0.8789673,0.66425747,-0.25398394,0.22219244,0.46706763,-0.76668674,-0.95661414,0.32605323,0.054743893,0.118157335,0.33446097,-0.40821502,0.45174238,0.4218303,-0.12876892,-0.24557576,-0.29175335,0.65890825,-0.42076477,0.36094445,0.14257021,-0.86309546,-0.60141104,0.66667724,1.0540636,0.6146926,0.7239762,-0.18217051,-0.15002859,-0.567269,0.30549785,0.16014005,1.1001787,0.5016809,0.10683487,0.08802761,0.08118696,-0.79937893,-0.25488615,0.11810978,-0.52576697,0.833984,0.108394936,-0.89382195,-0.31677708,-0.6104141,0.44442755,-0.89317894,-0.102982,0.9901848,0.2738755,-0.070813626,0.053572744,0.16806737,-1.0472462,0.80201554,-0.28577706,0.88270223,-0.12673245,-0.36009082,-1.0324645,-0.6192976,-0.21228136,-0.06393237,-0.5345969,-0.2372141,0.95139605,0.5516648,0.37987727,0.5074004,-1.141253,0.17012694,0.03444907,-0.58051246,-0.13285115,-0.60370076,-0.92888975,0.910941,0.61166376,-0.07951404,-0.86131245,-0.30969223,-0.5304856,-0.26968035,0.22989649,-0.55111253,0.5122893,-0.19263558,0.7144333,-0.7739828,-0.95548064,0.6071035,0.3712811,0.21146883,-0.9812572,0.0424075,0.4293016,0.17037265,0.047346868,0.41373324,-0.74388534,-0.17991452,-0.061070077,0.72006005,-0.9427743,-0.47034374,0.57739997,0.55169314,0.73968947,0.22110559,-0.17224474,-0.8540406,0.08126472,-0.13369863,0.74546033,0.3478806,-0.7369044,0.5952554,-0.51402366,-0.02729597,-0.16379431,-0.36297783,0.49963078,0.64583087,0.73356646,0.6104059,0.85193473,0.25504506,0.17969415,0.63503647,0.22819193,0.23226397,-0.42668852,-0.8431367,-0.10513471,-0.9508854,-0.2806978,0.06778621,0.8263686,-0.07698651,-0.70171,0.23823665,0.76720935,-0.20085989,-0.5161891,-0.989331,-1.0151476,-0.5130943,0.04407802,-0.87636423,0.16867292,-0.9242043,-0.0067759175,-0.22191343,0.07922511,0.14833972,0.46075252,-0.79101413,0.105780154,-0.19631001,0.80311257,-0.58375794,0.89130324,-0.1637435,-0.6789641,0.24518599,0.7127208,-0.92389655,-0.5819727,-0.85163957,0.106979705,0.23253362,0.3951095,-0.23309442,0.2816287,-0.13349655,-0.68630636,-0.765671,-0.72372967,0.1496175,-0.65063137,-0.5345698,-0.39100057,0.15455382,0.00010004424,-0.72327393,-0.60307,0.069318265,-0.43205398,0.78562397,-0.38020536,-0.5592723,0.4972284,-0.34662104,-0.52088064,0.616668,-0.70218575,0.9375518,0.26332524,1.0321937,-0.45673674,-0.17461562,0.5144589,0.3673165,0.7665336,0.010940182,0.6017157,0.0629194,-0.57815593,0.80813503,0.037613,0.49727067,0.39300877,-0.9045699,-0.7259098,0.15538114,-0.45089942,0.4899045,1.0372571,-0.13533618,-0.48436862,-0.71678436,-0.4310155,-0.15587284,0.5884931,0.95503414,-0.9258028,-0.72943676,-0.06953406,0.8113742,-0.047357004,0.7077683,-0.60148925,0.6233312,-0.6401375,-0.17948233,-0.63646233,-0.26874742,0.7468353,0.38293263,-0.35566512,-0.1357197,0.89086175,-0.055887554,0.5205361,0.52527577,-0.6691908,-0.66223216,0.82894206,1.0727292,-0.17811249,1.0295308,-0.19193606,-0.6613053,0.33536512,0.93729997,0.3061085,-0.37282395,-0.5079813,-0.12179018,0.76437694,-0.662598,-0.08462229,-0.16494893,0.59539115,0.9074413,-0.8778532,-0.18577617,0.32846272,0.89593583,0.8895448,-0.71310014,-0.7063334,0.23724787,-0.22161812,-0.5437094,-0.23252858,-0.21288711,-0.86670125,0.39077958,-0.029714417,0.3398918,0.3610428,0.37240368,0.3005291,-0.41179436,-0.09406744,0.85497516,-0.66523796,-0.053883065,-0.91748655,0.53660834,0.06129789,-0.47082046,0.34985927,0.13579169,0.059688494,0.3119796,0.32821882,-0.59560055,0.13975824,0.12774771,0.82908964,-0.10915169,0.098927364,-0.15071324,-0.20499285,0.3686089,0.8251726,-0.25711256,-0.74475104,-0.9775309,-0.1437447,0.583292,-0.5617734,0.06296137,0.178883,-0.14764097,-0.63364285,0.6674598,0.112793975,0.27553594,-0.7265659,0.18316273,0.5874781,-0.1854508,0.52639854,0.88490605,0.37863243,-0.336821,-0.47719768,0.18873994,0.3705947,0.16903359,-0.18019833,0.71851766,-0.36073983,0.7911067,-1.0935441,0.46943188,0.09388306,-0.6751679,0.015167463,0.58908004,-0.44398674,0.018891968,0.41105396,-0.243798,0.6460536,0.15557547,-0.046000604,0.5952741,0.34514472,-0.8484681,-0.4877133,-0.04263902,-0.2773187,0.48718962,-0.15861017,-0.6426686,0.51683444,0.67426455,0.56231475,0.83941007,-0.026174635,-0.014480124,0.34268147,0.44177133,0.31469402,-0.10074967,0.8897399,0.052128438,0.29329073,-0.12843545,-0.92592007,-1.0607166,0.7309681,0.5376603,0.37179837,-0.38382986,-0.5566101,-0.6368013,0.5401698,-0.6277796,-0.41871122,-0.8033798,0.009885683,0.36509755,-0.6062365,-0.062020298,-0.05456993,-0.89259386,-0.17265347,-0.30735004,0.23725133,0.91095865,0.55810624,0.02300616,-0.68600774,0.07567684,-0.7416685,-0.79680914,0.9536423,-0.728191,-0.15691881,0.4729652,-0.7351829,-0.5310268,0.3233114,0.36210763,-0.69676226,0.8498823,-0.5639012,-0.17153333,0.28038853,-0.19220352,0.6893737,-0.8627193,-0.04727689,0.998203,-0.7666043,-0.4428015,-0.85543215,0.5994135,0.8933908,-0.32871678,-0.16128047,-0.31218782,0.3264054,0.24246714,-0.6301854,0.7189384,0.4427522,-0.764148,-0.6829518,0.3935809,0.7081302,-0.7593515,-0.6513601,-0.352476,0.26798785,-0.391893,-0.5541329,-0.38469997,0.8099156,-0.81567264,-0.7545663,0.7928303,-0.67419684,0.01618589,0.6786917,0.9463509,-0.55775094,-0.63588655,-0.06781718,0.82636154,1.0015707,0.21286698,-0.45058203,-0.8170781,-0.48177224,-0.64471453,-0.22491775,-0.056215443,0.6834131,-0.3313081,-0.34377292,-0.8087904,0.8596636,0.6112657,-0.74581146,0.3668529,0.25094572,0.4503044,-0.14175726,-0.0328984,-0.36786112,0.89385617,-0.85146546,0.18853235,-0.24097285,-0.33928296,0.7844441,0.4232002,0.076939724,-0.22624157,0.66089374,0.5718201,-0.12031128,-0.040788487,-0.9800157,1.0176541,-0.2853699,0.72501326,-0.46993908,-0.81874996,1.1257427,0.26771238,-0.18490684,-0.9642386,0.25238726,0.8811885,0.8522241,-0.3215005,-0.62269783,0.26335356,-0.9241609,0.68712837,-0.36180842,-0.580219,0.32357228,0.8413958,0.74069375,-0.8568224,-0.70053506,0.8332842,0.22338913,-0.7210066,0.6804915,-0.9822801,-0.8102386,-0.23231347,-0.4889502,-0.58424073,0.051497433,0.7864951,0.90909415,-0.7928781,-0.5821858,-0.8432087,-0.545294,0.038851764,-0.61245775,-0.69571716,0.5151923,-0.38845184,-0.38680536,-0.9847053,0.9722088,0.19892482,-0.69825345,0.6927694,0.24768834,-0.22340372,-0.32232982,0.07099843,0.89603496,-0.17276894,-0.20786732,-0.79732084,0.35434136,0.5677149,-0.21386835,-0.670118,0.11644388,0.2521823,-0.6217383,-0.8891027,0.12410775,-0.24891584,-0.4163122,-0.35044032,0.45540455,0.7762526,-0.4117568,-0.1878248,-0.7773774,0.5568326,-0.30353594,-0.8127132,-0.5157277,-0.6267948,-0.49186718,0.43098816,0.45386168,0.30565858,-1.0369558,0.7983997,-0.3368914,0.44355386,0.25547075,0.47416726,-0.01217462,-0.36029726,-0.027203908,-0.31789124,-0.033542484,0.10999249,0.2113938,-0.9887871,-0.3220461,0.005588839,-0.68336356,-0.5632647,0.529261,-1.0029235,-0.13645552,0.7232065,-0.05093403,-0.5341739,0.25464627,0.4507368,-0.1753984,-1.0714163,-0.29004803,0.27905458,-0.17065498,-0.8582658,-0.5245536,-0.6418657,-0.3341945,0.87210524,-0.38683775,0.30143005,-0.03405812,0.6877756,-0.1667128,-0.712054,0.63319325,-0.2653122,-0.8718163,-0.14886749,0.5720902,0.94965833,-0.42052355,-0.4533305,-0.35805738,-0.026994677,0.9925439,-0.92559576,0.29655838,-0.12007527,-0.34205824,0.47906968,0.2840148,-0.72225255,-0.27266032,0.5014482,0.41651586,-0.6786435,-0.7552713,0.57376033,0.18909635,0.79822826,0.7707603,-0.8988319,-0.886665,-0.015036199,-0.028233007,-0.30216974,0.5953346,0.4150371,-0.7120374,0.8463222,-0.6501398,0.122147545,-0.31903154,-0.044926804,0.75641924,-0.47853833,0.7152915,0.002642569,-0.7018299,-0.116901726,-0.4133614,-0.25656387,0.45881084,-0.8139667,-0.20988297,0.72356457,-0.30569243,-0.8055374,-0.31408682,-0.45272216,-0.69964147,0.49254233,-0.30286956,-0.42144087,0.59066087,-0.21786255,-0.7779924,0.1597275,0.8479441,-0.5942636,0.44066426,0.5203162,-0.7892267,-0.7287287,-0.30282807,-0.7115329,-0.3564421,0.62005067,0.8095641,0.2544264,0.6079402,0.20060053,-0.5132042,0.50401586,0.51459503,-0.25287768,0.95717925,-0.27538088,0.27714616,0.9764793,-0.59896725,0.11770809,-0.7771593,0.49765575,0.062278643,0.11043904,-0.0053793425,0.7094322,-0.882322,-0.6279476,0.9350194,-0.05296667,-0.330025,-0.7826476,0.9506394,0.072277114,0.41683382,-0.09950222,0.97465575,-0.15477483,-0.42827466,-0.3912217,-0.41947088,0.04641446,-0.4447166,0.9789829,0.10230083,-0.8923202,0.5008229,0.7058913,-0.32517967,-0.36721626,-0.37957004,0.34171653,0.7206553,-0.72302544,-0.5212964,-0.16037941,0.3733182,0.88006896,0.8690157,0.28145006,0.3328225,-0.5169298,1.0363986,-0.77039325,0.37412256,0.9981951,0.2574449,-0.16967523,0.5711378,-0.5345273,-0.371383,-0.4330446,0.028264165,0.8932055,1.0123463,-0.21770172,0.0033444706,0.06366748,0.24522893,1.0179147,0.5476581,0.3183815,-0.9654748,0.8795855,0.28624594,0.4453518,0.16265781,0.14497043,0.17709264,0.18844254,-0.76391387,-1.0000032,-0.83890516,-0.8912922,-0.81245863,-0.49598658,0.83505756,0.43015286,0.07459334,-0.54621875,0.97027755,-0.3472785,0.055621907,0.7555835,-0.38275546,0.360319,0.15540035,0.16685146,-0.5755148,-0.43583754,0.32793093,0.40698442,-0.4088036,-0.066559434,-0.83405113,0.47277158,-0.892946,-0.70264685,-0.2086801,0.18361995,0.09447418,-0.28075394,0.3489405,-0.6923122,0.49451968,-0.76557475,-0.4689237,0.58895904,0.5818447,0.635936,-0.0063614994,0.09241846,-0.1639656,0.58078307,-0.24815442,-0.088622846,-0.5270405,0.14044127,-1.064924,0.3362908,-0.99993855,0.2622357,0.5590388,0.32322055,0.66225666,0.5005269,-0.41186458,-0.73508596,0.24112234,-0.29535717,0.23123571,-0.4779885,0.7613311,-0.17797568,0.3897893,-0.5057368,0.8369569,0.79972315,-0.25020906,-0.29589912,0.94571906,0.89222586,-0.7056788,-0.3767154,-0.73848784,-0.31343538,0.3198126,-0.5425493,-0.6993377,-0.19555119,-0.4218017,-0.81050634,1.0086982,0.3032891,0.7248802,-0.0562216,0.037269074,-0.35315996,-0.5644139,0.9013344,-0.6794639,-0.23384231,0.47599024,-0.066278495,-0.9245811,0.14003697,-0.45207927,0.3960738,-0.88564366,0.5044409,0.40529606,-0.62211365,0.11372519,-0.81056774,1.0675426,0.69895166,-0.45484325,0.6812749,0.8945732,-0.58733976,0.55541795,0.88463587,0.23696402,-0.07505869,0.15799588,-0.8617876,0.02447137,-0.73200256,0.72080946,-0.040101785,1.104832,-0.2434006,-0.7719797,0.87281984,-0.2700071,0.59426385,-0.7763067,0.841162,-0.23562613,0.22061688,-0.0809059,0.551459,-0.8296879,-0.0776751,-0.26511943,0.42796195,0.9034731,0.8505969,-0.44795722,0.9623622,-0.12432675,0.66850406,-0.33558992,-0.73086816,0.919919,0.12440288,0.72289526,0.6364873,-0.08987337,0.13167848,-0.0007550098,-0.98123235,-0.92616504,-0.13447277,-0.44015822,-0.15338916,-0.5536147,0.72268474,-1.09717,0.085161135,1.0208665,0.6569796,0.6638702,-0.540205,-0.032840937,-0.8780336,-0.39104748,0.8622628,0.119202286,0.6577473,0.64890176,-0.21949285,0.51935273,-0.44651264,0.63248706,0.58608115,0.11754821,0.2993005,-0.5876639,-0.044756148,-0.1474968,0.87001026,0.7395539,-0.30366647,-0.30958024,0.062735654,0.09144579,-0.66648036,-0.4922655,-0.63887125,0.7116125,0.087316446,0.30936155,0.0004387186,-0.52356213,-0.40480614,-0.6203949,-0.34533623,-0.48425144,-0.61863285,-1.065317,-0.57827914,0.50282604,0.3726706,-0.9506075,-0.709456,0.7969391,-0.13879272,0.2355193,0.7683526,-0.32070154,-0.114506155,-0.4404544,0.5951651,0.43039712,0.71755,-0.07823548,0.762022,-0.6100892,-0.33096415,-0.13207419,-0.6192787,-0.9655536,1.0245044,0.115336545,-0.25526202,0.12025757,-0.6302578,-0.3611775,0.6599223,0.6851405,-0.15689573,0.8956401,0.89109236,0.04484906,0.048665874,0.478273,-0.44882068,-0.5434656,-0.22220267,-0.8471592,0.70242,-0.8737672,-0.6574986,0.18106636,-0.75936204,-0.8589666,-0.09483516,-0.9699503,-0.9902955,0.52779484,0.8144547,0.59998876,0.2572022,-0.92892784,-0.26599622,0.50498694,-0.9290845,-0.6233371,-1.0088264,0.2047115,0.11254683,-0.7643566,-0.91964906,0.14690004,-0.48323956,0.9141146,-0.12301214,-0.60189813,-0.25227836,0.2518718,-0.44247085,-0.5728737,0.31663364,-0.43899256,-0.74938405,-0.2512561,0.23332503,0.6557481,-0.36770865,0.13019091,0.19713984,-0.29846108,-1.0696472,0.23737276,0.62905073,-0.013081253,0.048907973,0.5721095,-0.568166,-1.0023586,0.025194833,-0.6761321,-0.9121679,0.75431544,-0.7688733,0.045277894,0.16848834,0.45304653,0.058505777,-1.031188,-1.0610042,-0.5179127,0.25789648,0.6493042,0.31275266,0.753873,0.8370998,-0.62104625,-0.92444754,0.76212364,-0.95166343,-0.45193803,0.82879865,-0.53908503,0.53524536,-0.7868857,-0.9031816,0.40297812,0.53785986,0.14162736,-0.609308,0.6029012,0.67762357,-0.014621899,0.47352713,0.59595436,-0.7156459,-0.34446105,0.22399636,-0.9285258,-0.36439005,0.6427976,-0.76806897,0.9162244,-0.9160655,0.94403875,0.22174817,0.5657531,-0.09229598,-0.033521794,0.44320276,0.70325464,-0.5137106,1.0580586,0.5818104,0.095784485,0.6531619,-0.28536543,0.37775543,0.010322153,0.007180748,-0.78342855,0.80933326,0.9344219,0.81168044,0.0005551759,-0.8884792,0.27825928,0.10329917,0.71830696,0.8032744,-0.4330849,-0.20827487,-0.16268845,-0.9873538,-0.85200745,-0.17409281,0.9011254,0.2712691,-0.9422479,0.8856201,0.66708875,-0.8260715,0.22484364,0.5555922,-0.7005565,-0.91952974,-0.5151325,-0.15989205,0.6615839,0.92328316,-0.736037,-0.6038298,0.86330366,0.61177135,-0.97592354,-0.05826952,-0.22115782,0.12726289,0.75962055,-1.0287296,-0.7138288,0.22652088,0.80509853,0.7285119,-0.011028348,-0.6027473,-0.29337886,-0.6176601,-0.07761987,-0.21510708,-0.31274167,0.3541677,0.72704804,-0.3890567,0.6393441,-0.82537824,-0.57793313,0.6021194,-0.56970716,0.14587425,0.0937295,0.43478262,0.025173265,-0.20440815,-0.07082498,0.9694894,0.04925899,-0.16814184,0.2067553,-0.93160546,-0.27158812,-0.21634422,-0.4687525,-0.37182596,-0.55845535,-1.0671602,-0.9849179,-0.33638662,0.9832855,-0.23775485,0.20744151,-0.81778353,-0.8528931,0.5017505,0.8318567,0.2803715,-0.2021589,0.15151031,-0.9144621,0.7702064,-0.30009833,0.026053242,0.7953011,0.8369611,0.5360837,0.70306754,0.4738476,0.010862474,-0.7687545,0.31326407,0.019868063,-0.66018116,-0.9650942,0.097026035,0.5113026,-0.98167133,-0.64860594,0.20125963,-0.66122925,0.7910625,0.52260596,-1.0019463,0.5871625,0.19587721,-0.38023543,-0.71946776,-0.31221846,-0.3889029,-0.5255272,-0.41912955,-0.13326873,0.66493106,0.3723414,-0.5812289,0.6671375,-0.48509637,0.35010606,-0.39176553,-0.2930881,-0.40561497,-0.62603104,-0.9248653,-0.40686855,0.11500995,0.38437718,-0.1019884,0.67785394,0.7766392,-0.3959501,-0.14129335,-0.049125943,-0.8049523,-0.39560756,-0.97412294,-0.6951079,-0.95507807,0.8895909,-0.73188794,0.4057691,0.13973328,0.9247965,-0.32881275,0.2648754,0.8969,0.66310155,-0.18490455,0.79257,0.941398,-0.9146907,0.036330197,0.20625709,-0.33962175,-0.046289,-0.52667737,-0.6123292,-0.9471253,0.42269412,-0.8821552,0.96529764,0.29601413,0.2949355,1.0045832,-1.0334185,0.100303985,-0.78489804,0.48102078,0.06530679,0.8246658,-0.2985135,0.013126384,0.022589676,0.51360065,-0.35435203,-0.421598,-0.21031268,-0.31786197,0.944686,0.33268842,-0.3844507,0.89495265,-0.65922695,0.9321929,0.7219577,-0.24035726,-0.7490029,0.2939849,0.6113269,0.635118,-0.9517854,-0.26379475,-0.06078899,-0.7498708,0.5110678,-0.6608349,0.09182229,0.84881794,-0.03454123,-0.63597953,-0.18401234,-0.1761506,-0.79678494,-0.40303415,-0.3574079,0.6132332,-0.45880178,0.9409886,-0.94962335,-0.08633322,-0.39621836,-0.57840246,0.9585698,0.74459356,-1.0423177,-0.33041796,0.73118615,-0.34978387,0.5936937,-0.090209104,0.7669208,0.25430968,0.78638196,0.029873237,-0.3621558,0.19329524,0.157067,0.10462518,0.2883677,-1.0030115,0.70804524,0.96958756,0.11965607,0.10313131,-0.25866976,0.03453387,-0.09453422,-0.037911545,-0.93504226,-0.9289504,0.45374602,-0.78560925,0.042923655,0.12259934,-0.090666614,-1.0078781,-0.64385945,0.04056224,-0.0048245,0.8470939,-0.2893327,0.4084827,-0.15702622,-0.31756043,-0.42726144,0.8199629,1.0438802,