{"SupervisedType":0,"MultiLayerPerceptronWrap":{"LayerWraps":[{"LayerType":5,"Dense":null,"Dropout":null,"Flatten":null,"Lstm":null,"MaxPool":null,"Conv":{"Shape":{"Height":30,"Width":30,"Depth":1},"Kernel":{"Count":16,"Dim":3},"Activation":1,"Stride":1,"Filters":[{"ElementsOneD":null,"ElementsTwoD":null,"ElementsThreeD":[[[0.14991757],[0.08605616],[0.020229531]],[[0.15021795],[0.077613354],[0.002273338]],[[0.13946849],[0.13554761],[-0.024057368]]],"_shape":{"Height":3,"Width":3,"Depth":1},"Shape":{"Height":3,"Width":3,"Depth":1}},{"ElementsOneD":null,"ElementsTwoD":null,"ElementsThreeD":[[[0.027063845],[-0.042697225],[-0.16923325]],[[0.15527375],[0.07350917],[-0.038058516]],[[0.042345524],[0.11705549],[0.07916533]]],"_shape":{"Height":3,"Width":3,"Depth":1},"Shape":{"Height":3,"Width":3,"Depth":1}},{"ElementsOneD":null,"ElementsTwoD":null,"ElementsThreeD":[[[0.137496],[0.16651353],[0.16160199]],[[0.08322853],[0.030314524],[0.05176641]],[[-0.17833962],[-0.17387664],[-0.1905196]]],"_shape":{"Height":3,"Width":3,"Depth":1},"Shape":{"Height":3,"Width":3,"Depth":1}},{"ElementsOneD":null,"ElementsTwoD":null,"ElementsThreeD":[[[0.092378646],[0.1373647],[0.08905493]],[[0.0061513376],[-0.011925821],[-0.038740423]],[[-0.13593903],[-0.12632822],[-0.11019852]]],"_shape":{"Height":3,"Width":3,"Depth":1},"Shape":{"Height":3,"Width":3,"Depth":1}},{"ElementsOneD":null,"ElementsTwoD":null,"ElementsThreeD":[[[0.06218859],[0.03208069],[0.017490854]],[[0.07981497],[0.09720514],[-0.049911115]],[[0.16074729],[0.11869773],[-0.03423557]]],"_shape":{"Height":3,"Width":3,"Depth":1},"Shape":{"Height":3,"Width":3,"Depth":1}},{"ElementsOneD":null,"ElementsTwoD":null,"ElementsThreeD":[[[0.026047157],[0.024637155],[0.06499024]],[[0.0796663],[0.037609562],[0.08171353]],[[0.12385124],[-0.005963359],[0.033588912]]],"_shape":{"Height":3,"Width":3,"Depth":1},"Shape":{"Height":3,"Width":3,"Depth":1}},{"ElementsOneD":null,"ElementsTwoD":null,"ElementsThreeD":[[[-0.11917156],[-0.20030901],[-0.12808515]],[[0.03652097],[-0.0996352],[-0.06403739]],[[0.23346397],[0.17129374],[0.040835585]]],"_shape":{"Height":3,"Width":3,"Depth":1},"Shape":{"Height":3,"Width":3,"Depth":1}},{"ElementsOneD":null,"ElementsTwoD":null,"ElementsThreeD":[[[0.12882878],[0.06282516],[0.091768056]],[[0.12234422],[0.05983273],[0.074494]],[[0.104013674],[0.10404988],[0.16114977]]],"_shape":{"Height":3,"Width":3,"Depth":1},"Shape":{"Height":3,"Width":3,"Depth":1}},{"ElementsOneD":null,"ElementsTwoD":null,"ElementsThreeD":[[[0.10243224],[0.12645273],[0.12621151]],[[0.0373509],[0.12003115],[0.18594149]],[[0.12905033],[0.08488637],[0.1340181]]],"_shape":{"Height":3,"Width":3,"Depth":1},"Shape":{"Height":3,"Width":3,"Depth":1}},{"ElementsOneD":null,"ElementsTwoD":null,"ElementsThreeD":[[[0.04634336],[-0.033327863],[-0.015347615]],[[0.11596236],[-0.03047263],[-0.021486675]],[[0.114612944],[0.0032830574],[0.055328064]]],"_shape":{"Height":3,"Width":3,"Depth":1},"Shape":{"Height":3,"Width":3,"Depth":1}},{"ElementsOneD":null,"ElementsTwoD":null,"ElementsThreeD":[[[-0.0030937435],[0.0678833],[0.022576854]],[[0.044580385],[0.059434135],[0.034953263]],[[0.11527079],[0.10624095],[0.055738773]]],"_shape":{"Height":3,"Width":3,"Depth":1},"Shape":{"Height":3,"Width":3,"Depth":1}},{"ElementsOneD":null,"ElementsTwoD":null,"ElementsThreeD":[[[0.007858772],[0.08536474],[0.03527132]],[[0.12565671],[0.09373618],[0.03843259]],[[0.14126092],[0.0112912785],[-0.011796181]]],"_shape":{"Height":3,"Width":3,"Depth":1},"Shape":{"Height":3,"Width":3,"Depth":1}},{"ElementsOneD":null,"ElementsTwoD":null,"ElementsThreeD":[[[0.059438866],[0.12984216],[0.06801802]],[[0.008053232],[0.059737485],[0.09113904]],[[0.025568075],[0.061110463],[0.07850407]]],"_shape":{"Height":3,"Width":3,"Depth":1},"Shape":{"Height":3,"Width":3,"Depth":1}},{"ElementsOneD":null,"ElementsTwoD":null,"ElementsThreeD":[[[0.04786374],[0.036864705],[0.11665814]],[[0.075504884],[0.09270359],[0.06673529]],[[0.0669912],[0.06490003],[0.028381562]]],"_shape":{"Height":3,"Width":3,"Depth":1},"Shape":{"Height":3,"Width":3,"Depth":1}},{"ElementsOneD":null,"ElementsTwoD":null,"ElementsThreeD":[[[0.091231],[0.08012343],[0.08818627]],[[0.11311471],[0.076936126],[0.11249589]],[[0.13735628],[0.093101196],[0.14073656]]],"_shape":{"Height":3,"Width":3,"Depth":1},"Shape":{"Height":3,"Width":3,"Depth":1}},{"ElementsOneD":null,"ElementsTwoD":null,"ElementsThreeD":[[[0.04904501],[0.06896887],[0.11577126]],[[0.07215054],[0.020741425],[0.027465085]],[[0.16092336],[0.06514954],[0.0072954455]]],"_shape":{"Height":3,"Width":3,"Depth":1},"Shape":{"Height":3,"Width":3,"Depth":1}}],"FilterGradients":[{"ElementsOneD":null,"ElementsTwoD":null,"ElementsThreeD":[[[0.0],[0.0],[0.0]],[[0.0],[0.0],[0.0]],[[0.0],[0.0],[0.0]]],"_shape":{"Height":3,"Width":3,"Depth":1},"Shape":{"Height":3,"Width":3,"Depth":1}},{"ElementsOneD":null,"ElementsTwoD":null,"ElementsThreeD":[[[0.0],[0.0],[0.0]],[[0.0],[0.0],[0.0]],[[0.0],[0.0],[0.0]]],"_shape":{"Height":3,"Width":3,"Depth":1},"Shape":{"Height":3,"Width":3,"Depth":1}},{"ElementsOneD":null,"ElementsTwoD":null,"ElementsThreeD":[[[0.0],[0.0],[0.0]],[[0.0],[0.0],[0.0]],[[0.0],[0.0],[0.0]]],"_shape":{"Height":3,"Width":3,"Depth":1},"Shape":{"Height":3,"Width":3,"Depth":1}},{"ElementsOneD":null,"ElementsTwoD":null,"ElementsThreeD":[[[0.0],[0.0],[0.0]],[[0.0],[0.0],[0.0]],[[0.0],[0.0],[0.0]]],"_shape":{"Height":3,"Width":3,"Depth":1},"Shape":{"Height":3,"Width":3,"Depth":1}},{"ElementsOneD":null,"ElementsTwoD":null,"ElementsThreeD":[[[0.0],[0.0],[0.0]],[[0.0],[0.0],[0.0]],[[0.0],[0.0],[0.0]]],"_shape":{"Height":3,"Width":3,"Depth":1},"Shape":{"Height":3,"Width":3,"Depth":1}},{"ElementsOneD":null,"ElementsTwoD":null,"ElementsThreeD":[[[0.0],[0.0],[0.0]],[[0.0],[0.0],[0.0]],[[0.0],[0.0],[0.0]]],"_shape":{"Height":3,"Width":3,"Depth":1},"Shape":{"Height":3,"Width":3,"Depth":1}},{"ElementsOneD":null,"ElementsTwoD":null,"ElementsThreeD":[[[0.0],[0.0],[0.0]],[[0.0],[0.0],[0.0]],[[0.0],[0.0],[0.0]]],"_shape":{"Height":3,"Width":3,"Depth":1},"Shape":{"Height":3,"Width":3,"Depth":1}},{"ElementsOneD":null,"ElementsTwoD":null,"ElementsThreeD":[[[0.0],[0.0],[0.0]],[[0.0],[0.0],[0.0]],[[0.0],[0.0],[0.0]]],"_shape":{"Height":3,"Width":3,"Depth":1},"Shape":{"Height":3,"Width":3,"Depth":1}},{"ElementsOneD":null,"ElementsTwoD":null,"ElementsThreeD":[[[0.0],[0.0],[0.0]],[[0.0],[0.0],[0.0]],[[0.0],[0.0],[0.0]]],"_shape":{"Height":3,"Width":3,"Depth":1},"Shape":{"Height":3,"Width":3,"Depth":1}},{"ElementsOneD":null,"ElementsTwoD":null,"ElementsThreeD":[[[0.0],[0.0],[0.0]],[[0.0],[0.0],[0.0]],[[0.0],[0.0],[0.0]]],"_shape":{"Height":3,"Width":3,"Depth":1},"Shape":{"Height":3,"Width":3,"Depth":1}},{"ElementsOneD":null,"ElementsTwoD":null,"ElementsThreeD":[[[0.0],[0.0],[0.0]],[[0.0],[0.0],[0.0]],[[0.0],[0.0],[0.0]]],"_shape":{"Height":3,"Width":3,"Depth":1},"Shape":{"Height":3,"Width":3,"Depth":1}},{"ElementsOneD":null,"ElementsTwoD":null,"ElementsThreeD":[[[0.0],[0.0],[0.0]],[[0.0],[0.0],[0.0]],[[0.0],[0.0],[0.0]]],"_shape":{"Height":3,"Width":3,"Depth":1},"Shape":{"Height":3,"Width":3,"Depth":1}},{"ElementsOneD":null,"ElementsTwoD":null,"ElementsThreeD":[[[0.0],[0.0],[0.0]],[[0.0],[0.0],[0.0]],[[0.0],[0.0],[0.0]]],"_shape":{"Height":3,"Width":3,"Depth":1},"Shape":{"Height":3,"Width":3,"Depth":1}},{"ElementsOneD":null,"ElementsTwoD":null,"ElementsThreeD":[[[0.0],[0.0],[0.0]],[[0.0],[0.0],[0.0]],[[0.0],[0.0],[0.0]]],"_shape":{"Height":3,"Width":3,"Depth":1},"Shape":{"Height":3,"Width":3,"Depth":1}},{"ElementsOneD":null,"ElementsTwoD":null,"ElementsThreeD":[[[0.0],[0.0],[0.0]],[[0.0],[0.0],[0.0]],[[0.0],[0.0],[0.0]]],"_shape":{"Height":3,"Width":3,"Depth":1},"Shape":{"Height":3,"Width":3,"Depth":1}},{"ElementsOneD":null,"ElementsTwoD":null,"ElementsThreeD":[[[0.0],[0.0],[0.0]],[[0.0],[0.0],[0.0]],[[0.0],[0.0],[0.0]]],"_shape":{"Height":3,"Width":3,"Depth":1},"Shape":{"Height":3,"Width":3,"Depth":1}}],"Bias":{"ElementsOneD":[-0.0007565994,-0.0007566009,0.0007565936,0.00075660343,-0.00075660064,0.00075660524,-0.00075659866,0.0007566052,-0.00075660495,-0.000756603,-0.00075660273,-0.0007566021,0.0007566025,-0.000756596,0.00075660506,-0.00075659953],"ElementsTwoD":null,"ElementsThreeD":null,"_shape":{"Height":16,"Width":0,"Depth":0},"Shape":{"Height":16,"Width":0,"Depth":0}},"BiasGradients":{"ElementsOneD":[0.0,0.0,0.0,0.0,0.0,0.0,0.0,0.0,0.0,0.0,0.0,0.0,0.0,0.0,0.0,0.0],"ElementsTwoD":null,"ElementsThreeD":null,"_shape":{"Height":16,"Width":0,"Depth":0},"Shape":{"Height":16,"Width":0,"Depth":0}}}},{"LayerType":4,"Dense":null,"Dropout":null,"Flatten":null,"Lstm":null,"MaxPool":{"Shape":{"Height":30,"Width":30,"Depth":16},"Kernel":{"Count":16,"Dim":3},"Stride":2},"Conv":null},{"LayerType":2,"Dense":null,"Dropout":null,"Flatten":{"Shape":{"Height":14,"Width":14,"Depth":16}},"Lstm":null,"MaxPool":null,"Conv":null},{"LayerType":0,"Dense":{"Activation":0,"Shape":{"Height":3136,"Width":64,"Depth":0},"Weights":{"ElementsOneD":null,"ElementsTwoD":[[-0.5437261,-0.9615374,-0.12649848,0.18856667,0.83440554,0.76518464,-0.8898615,-0.4968938,0.84799653,-0.6529631,1.0201144,-0.43906456,-0.6204567,0.44623148,0.3864242,0.0043875184,0.19553635,-0.33106428,0.46680546,0.23558736,-0.726711,0.79968226,-0.09396843,0.36987886,-0.84012705,-0.9205106,-0.14650333,0.06210566,0.93061453,0.50030833,-0.3958201,0.6407897,-0.02108653,-0.0056953854,0.4966582,0.61883503,-0.3331607,-0.33759338,-0.5344032,-0.019619832,0.16537881,0.58326584,-0.8503802,-0.9601885,-0.28323922,-0.35738364,0.55969846,0.93909043,-0.33803484,0.6541484,0.5335761,0.33186367,0.50654525,0.80324966,-0.5991331,-0.06250452,-0.27174026,0.93096524,0.938773,-0.16311684,0.12646356,0.53655875,0.8160947,-0.54927367,1.0421826,0.2998833,0.37411788,0.053051602,0.018749185,-0.8881844,-0.70923436,0.29846844,0.63178015,-0.16675106,-0.04337619,-0.7594011,-0.335175,0.538144,-0.58094174,0.32426366,-0.6573791,0.6722031,0.88756645,-0.19717702,0.11983568,0.3361341,0.88416964,0.21177062,0.73162615,-0.22422048,0.8776894,-0.37433904,0.6505035,-0.41825286,-0.91084826,-0.34518203,-0.83229566,-0.9501546,-0.31728297,0.36909905,-0.8877017,0.50329286,-0.32059908,-0.04784348,0.77611,0.7567377,-0.787405,0.8721872,0.056453273,-0.20336984,0.0037913772,0.86305386,0.49307916,0.09607361,-0.8284315,0.08886661,0.16459471,-0.64434993,-0.569709,0.87914073,-0.6888032,0.7207507,-0.16964735,0.47269452,0.42668316,-0.26338178,-0.40709615,-0.08311896,0.7940115,-0.21682325,-0.51587605,0.8570382,0.76685077,-0.73433936,0.5956527,0.9383119,0.3265015,1.073284,0.8039027,0.3836695,0.7149542,0.22930744,0.8162069,-0.7367661,0.77798766,0.10550565,0.27491784,0.014006404,0.92157716,0.8796538,0.9948542,0.9849826,0.48147595,0.95096356,0.7005826,0.17491058,0.167857,0.0800979,0.6492815,-0.8477408,-0.32471472,0.02240945,-0.87395126,-0.50707376,-0.26844797,-0.88025427,0.47209397,-0.29579577,0.10558343,0.56678593,-0.17316985,-0.09777738,0.582953,-0.62132585,-0.5109578,-0.30028614,0.5348619,0.6152934,0.25506383,-0.62834775,0.13532202,-0.16829063,0.66325396,-0.7584975,0.7455003,-0.5681261,0.28938723,-0.19864619,-0.688702,0.6544339,0.7933722,-0.00080375734,0.1726193,0.96795195,0.61054504,0.59394664,0.96217686,0.45595795,-0.3153185,-0.8870436,-0.98079604,0.6407274,0.9614692,-0.7590168,0.9848602,-0.68584746,-0.76613647,0.21896489,-0.73743796,0.077845566,-0.55358416,0.48989967,-0.26423794,-0.39060882,0.6921394,-0.06454841,-0.6959462,0.35510817,-0.61571664,0.9508416,0.64832205,-0.49583068,0.18533757,-0.10330585,-0.33617425,-0.2796038,-0.89684504,-0.076987274,-0.4088138,0.44676417,0.8494178,0.31830657,0.40010154,0.99709195,0.16324386,-0.4694911,0.016625054,-0.71131206,0.19491401,0.8512312,0.27255386,0.5266612,0.9871992,0.008674813,0.08225648,-0.16762336,-0.01709563,-0.8510429,0.09925983,-0.8652661,-0.03276267,-0.3632539,0.9125325,0.69436944,-0.34175947,0.09410644,-0.13050392,-0.08908574,0.8928904,-0.10203443,-0.6234436,-0.62877023,0.702313,0.970779,0.5487232,0.6255041,0.53106296,-0.047108393,-0.69639134,0.6813495,-0.114109926,0.154278,0.8263127,-0.6716095,0.5740476,0.23805916,-0.43876457,-0.6256362,0.76306766,-0.36381856,-0.31278148,-0.57015187,-0.7852365,0.9299289,-0.012832902,-0.7213167,-0.722766,0.40278438,-0.8989762,-0.001165217,-0.78790146,-0.9173921,0.40427092,-0.9384868,0.9330471,0.13335422,-0.8700956,-0.72740746,1.0354278,-0.08748331,0.9045284,1.0357317,0.6868735,0.20844014,0.47630522,0.46063572,0.6900001,0.16873273,0.5515367,0.051929705,0.59134555,-0.32991236,0.10943226,-0.17606324,0.2800301,0.44680098,-0.83725125,0.99616563,-0.6108024,0.051028132,-0.19040936,0.43849933,-0.33533868,-0.028045585,-0.46484092,0.027770324,0.5090816,0.68878883,-0.1466273,-0.14531417,0.9326187,0.12422809,-0.14247432,0.41977665,-0.8535178,0.636426,-0.6020443,0.4736835,0.8003327,0.6474416,-0.053022575,0.91337645,0.8250845,-0.08350826,0.5346424,0.48181692,-0.086527705,0.9780531,-0.30253202,0.58983016,-0.52027094,-0.19723853,-0.080644384,-0.5615755,0.053311612,0.056177903,0.9645433,-0.3749121,0.07910995,0.90138936,0.6441808,0.75033826,-0.59605706,0.7431443,-0.9906774,-0.1582552,-0.18111417,-0.67700887,0.89989686,0.16587526,-0.16635464,-0.31836686,-0.48099694,0.8470139,0.49960637,0.17730309,0.1895864,0.0043172063,0.78856075,0.39378265,0.33236408,0.1710169,-0.58949125,0.98948926,-0.47663578,-0.26605925,-0.13516544,-0.8454078,0.86525327,-0.77747023,0.87358767,-0.3264619,-0.36714503,0.1268748,-0.39824313,0.3970513,-0.87186176,0.5573652,-0.13833155,-0.6568175,-0.27613854,0.35844094,0.1391528,-0.85937047,0.713298,-0.7079993,-0.73964024,0.3621643,-0.36545327,-0.695452,0.25853887,-0.6765787,0.48732355,0.6230505,0.5503807,-0.11378667,0.91143656,-0.70868343,-0.59322107,0.12575671,0.5092037,0.60618675,-0.6680716,-0.5953026,0.42385674,-0.48028514,0.0232155,-0.46889892,0.60855407,-0.12127624,0.11301592,-0.65473527,-0.72841424,0.49125227,-0.9151106,-0.94720185,-0.5074286,-0.6395528,-0.58357847,-0.9536879,-0.058569618,0.73724574,-0.50517803,-0.4526045,0.18014343,1.0133579,0.033886794,-0.77522206,0.04741663,-0.6818698,-0.7509044,0.7377329,0.2855628,0.4088882,-0.31054938,-0.9923299,0.1321646,0.39846984,-0.7313054,0.58282924,0.890638,-0.102703616,0.38059467,-0.11522102,0.095370725,-0.68672514,-0.2948003,-0.54406625,-0.9176188,-0.6679803,-0.4298018,-0.060946915,-0.64112836,-0.558614,0.9606544,-0.2781995,1.0887215,0.26790434,0.943916,-0.4893516,-0.40437123,-0.6188977,-0.4224796,-0.4461574,-0.5683556,0.40110475,-0.17808597,0.39336932,0.9220815,-0.32886103,-0.20250747,-0.09973994,-0.93073034,-0.63238895,0.8828255,0.44337332,-0.7163155,-0.8052491,0.9710746,-0.09361807,0.45900932,0.728266,-0.44495422,-0.36544758,0.32271442,0.39584875,0.7647396,0.10179773,-0.12731685,-0.30690858,0.24191695,-0.82147056,-0.16006754,-0.13664469,-0.84831905,0.20424113,-0.7742138,-0.26071057,-0.5165044,0.33097365,-0.51022667,-0.7905162,-0.7603339,0.20369264,-0.98401445,0.2287209,-0.5189017,0.65849966,-0.5180989,0.88122034,0.45054066,-0.26082754,-0.84483016,0.611451,-0.2101283,0.26518553,0.9604648,-0.8208411,-0.80511063,0.61609447,-0.6701709,-0.54220283,0.061533917,-0.019280419,-0.8093743,-0.2623217,0.9142553,0.6970664,-0.4109163,-0.6765963,0.15721507,-0.36744133,-0.4421578,0.43165368,-0.38001433,-0.062061653,-0.87852836,-0.12950382,-0.5600065,0.03991387,-0.7062574,-0.027364507,-0.72441757,-0.6317818,0.70423806,0.2479036,0.7981667,-0.36774,-0.21441476,0.7336962,0.51981133,0.968654,0.81437796,-0.67729694,0.79211855,-0.26342562,-0.2725872,-0.6427499,0.8145147,0.0112713,-0.04914673,0.1782254,0.3807881,0.7348897,-0.5349702,0.4877928,-0.14361139,0.33065578,0.037198886,-0.6573237,0.05218493,0.41568565,0.10564384,0.44881302,0.22430973,-0.5392857,0.5697511,0.76270485,0.17780142,0.8392623,0.085646555,0.33410618,0.0013337736,0.60901225,0.17367366,0.1827636,-0.98046404,0.86342365,-0.5682133,0.91277474,0.48731554,-0.19671877,0.33486474,-0.0069366987,0.28327692,0.3335807,-0.7661954,-0.5936214,0.5868846,0.7470914,-0.30011988,-0.11874354,-0.57391083,-0.60251266,0.08488597,-0.81982416,0.64081997,-0.25518566,0.57528746,-0.93730783,0.036786832,0.12935144,0.92811847,0.7384062,-0.008579518,0.46604896,0.5312426,0.38225865,0.04104959,-0.68243486,0.79466945,-0.9380454,-0.6508906,0.40075484,-0.96266556,0.08379615,-0.15712366,0.3980164,-0.5386588,-0.72276616,-0.90164304,0.21374498,-0.09886778,-0.76502734,-0.012092281,-0.78895736,0.77614504,-0.5741753,-0.5301631,0.88296384,-0.8987175,0.7719472,-0.55567837,-0.19582058,0.50304127,0.38687342,-0.4940414,-0.3853855,0.2970453,-1.0101421,0.77977353,0.7618183,-0.817918,0.53302395,-0.87067604,0.73801917,0.52808976,0.8360519,0.7783844,0.9867034,0.4019508,0.36323383,-0.53889143,-0.17359474,0.3427035,0.8806011,-0.7487822,0.40920946,0.86075145,-0.4173406,-0.42884344,-0.49641275,0.54394215,0.66938484,0.8791917,0.70385134,-0.7593719,0.34227845,0.18856046,0.68656856,-0.416069,0.093419224,0.36439246,0.9866647,0.10321921,-0.63491005,0.78381073,-0.8375001,-0.12279143,-0.8801744,-0.5308113,0.8866822,0.3217414,-0.57908595,-0.559848,-0.3612533,-0.6519388,0.028201636,-0.16794021,-0.815803,0.19046672,0.3882525,-0.9360832,-0.6392728,0.655169,-0.86548704,0.09400205,0.5572532,-0.12018343,-0.5078731,-0.8177335,-0.74223006,-0.33602077,-0.26316458,0.22137643,0.9327156,-0.55081093,-0.11196879,0.113300346,0.97443056,-0.5001712,0.20413978,-0.42262125,-0.007414333,0.84077686,-0.2963418,-0.15807438,0.2340198,0.7041692,0.50034505,-0.9061282,0.41462708,-0.47792774,0.6927139,-0.29911226,1.0062193,0.92646915,-0.8130456,-0.06286744,0.84673566,-0.59129703,0.82799983,0.48625842,0.8538976,0.80001897,0.5577349,0.7054226,0.9525831,-0.59408146,0.7155348,-0.56324077,-0.42619243,0.5542444,0.75793725,0.548761,-0.3999251,0.93212956,0.14524591,-0.9573978,-0.87361366,0.9023347,-0.7583582,0.2301301,0.46713907,0.049155798,-0.7838435,-0.024845153,0.4243902,0.06693605,0.22990565,0.79240984,0.7242718,0.17342557,0.4932146,0.23962429,0.8535063,-0.5118404,-0.67147106,-0.82243407,-0.2548218,-0.17710868,0.122466214,-0.9610232,-0.9246406,-0.5044329,-0.90363866,0.35625097,0.027823497,0.33678812,0.96409094,-0.65873516,0.31060475,0.58260673,-0.7630603,-0.09995683,-0.4111174,-0.711859,0.02863155,0.91345125,0.6613185,0.6109635,0.5204945,0.06776618,-0.15476973,-0.7832739,-0.96525484,-0.034895718,-0.5295883,-0.24837036,-0.64615256,0.10982753,0.5066778,0.12737636,0.6894248,-0.6843499,-0.88801783,-0.27992436,0.9010795,-0.7056257,-0.9977705,0.49137047,0.40616062,-0.0027415932,-0.7699557,0.5488901,0.40422773,-0.40074846,0.85995716,0.2584361,0.31037492,-0.59699994,-0.26739237,0.12918763,-0.19764923,-0.71044326,0.8281174,0.7766302,0.84277326,-0.47086543,0.8058494,0.8122018,-0.6062131,0.21621329,0.6670249,0.00424248,-0.32066327,0.030629843,0.29704243,0.9220088,0.109115645,0.5441429,-0.74500525,0.26498944,0.8975116,0.4131984,0.34072116,-0.73517334,0.025936546,-0.660246,0.42515892,0.055659402,-0.3372248,-0.21916507,-0.9163946,0.65188384,-1.0391657,0.35698754,0.24315806,0.72088706,-0.9237475,-0.44573867,0.14897816,0.39683416,0.5887035,0.10243249,0.5082783,-0.4144514,-0.026098218,-0.4358204,0.20947957,0.75047386,-0.44049475,0.14446904,0.40856254,-0.10235838,-0.4440183,0.94148254,-0.049437936,0.17766462,0.95924497,-0.69979554,-0.1596189,0.43396443,-0.6633457,0.5848253,-0.78555185,-0.74618965,0.9761792,-0.22154665,0.28651008,-1.0166273,0.83688504,0.9090381,0.34669995,-0.6604225,0.12791999,0.99928325,0.8302734,0.40428495,-0.020261776,-0.030460954,-0.6806481,0.61084735,-0.7663484,0.81742007,-0.07178763,-1.0593781,-0.479357,-0.23985468,-0.5141092,0.7939337,-0.115343645,0.30619985,-1.0107399,0.87342465,0.20100094,-0.73478574,-0.9827491,0.1082115,-0.0999203,0.7663728,0.047444355,-0.16260067,-0.37361497,0.5985859,0.4599427,-0.39005536,0.3433289,0.15214229,-0.33937564,0.64688385,0.5484485,0.8802864,0.32085976,-0.9163882,0.56094587,0.7823775,-0.40895984,-1.0276558,0.74330676,-0.03714773,0.42030936,0.21310408,-0.87866133,-0.46472502,0.27488968,0.95430297,0.3118831,0.5537113,-0.72805,0.33308497,-0.92176586,0.022660064,-0.46426627,0.03923296,0.89407486,0.7561076,0.60206455,0.4748489,-0.4384791,-0.2458357,0.047154006,-0.87226635,0.34681645,-0.77520925,-0.5508584,-0.679266,-0.5710545,-0.43717885,0.72192335,0.6982808,0.8645152,-0.267218,-0.328782,0.96625876,0.0034439464,-0.96888614,-0.53366035,0.52988964,0.80764836,0.11635582,0.33954662,-0.79833007,-0.76428515,-0.8763369,-0.74295586,0.3101502,0.9702163,0.46583584,-0.5443547,0.70483327,-0.005519813,0.3572447,-0.48989028,-0.24017249,-0.8981555,-1.0714924,-0.4722165,0.23599385,0.3293003,-0.9475565,0.1488216,-0.37417254,0.70517695,-0.2915971,-0.22200784,-0.2408694,-0.1938569,0.55745435,0.9135305,0.98859805,0.3173485,0.15352553,0.29253346,-0.42787948,-0.079808876,0.946324,-0.29637834,-0.20613119,-0.07836473,0.8215677,0.96684265,0.29234582,-0.65051407,-0.42377132,0.35338876,-0.49115524,0.1728501,-0.5023195,-0.58634037,0.6288251,0.60450953,-0.38521442,0.08333973,-0.62174904,-0.5420569,0.86101013,0.61659324,-0.9031551,0.38793382,-0.36124322,0.7818808,-0.9182275,0.5930981,0.38735497,0.037907474,0.40958917,-0.49701008,-0.03667894,-0.17646332,0.17569919,-0.040617377,0.95549434,-0.9841732,-0.9295584,0.8453182,0.62838614,-0.77634937,0.49169222,-0.5636424,-0.42075953,-1.0596216,0.7190884,0.4495603,0.48740438,-0.5383632,0.15214185,0.4779221,-0.6871443,-0.8190094,-0.53885025,-0.44040248,0.17703024,0.027505428,0.2520573,0.5803372,0.45988652,-0.047956668,-0.1376781,-0.7833774,0.07456683,0.78774655,0.3992848,-0.79244256,0.85219115,-0.4696372,0.87285393,0.010720383,0.2998124,-0.84223455,0.85060406,0.19036524,-0.6486574,0.54476833,-0.87097436,0.9098563,-0.28765643,-0.16347913,-0.26298845,-0.36664796,-0.92817485,-0.45787108,-0.33400506,0.48051637,-0.58224475,-0.18403952,0.6351487,-0.07312517,0.0926577,0.5332341,0.75789136,-0.29264435,0.3760856,0.15656026,-0.36235216,-0.9550464,0.67279184,0.77757454,0.6330407,0.17707354,0.58631134,0.5328307,0.23822252,0.5485131,0.6334222,-0.6594851,0.770092,0.13606676,0.53889495,-0.5353912,0.75467604,-0.9753307,-0.03078273,-0.16502604,-0.53321767,0.11171342,-0.3785094,-0.9303903,0.59907436,-0.055327866,0.0269439,-0.47497803,0.8157521,0.47453272,-0.97382486,0.3406505,0.44855985,-0.16370626,0.47819743,-0.027496995,0.08479598,0.20990355,0.41055351,0.5768957,-0.8253241,0.2014795,0.6495778,0.54704124,-0.49065855,0.7447753,0.5479543,-0.49153304,-0.5333493,0.50126916,0.71675056,-0.26348713,-0.131269,-0.4092972,-0.9202482,0.5539547,0.40474042,0.6503437,0.77681875,0.1378608,-0.40862682,0.25680694,-0.43417883,-0.92327005,-0.8244726,0.24873531,-0.73999476,0.56870455,-0.5210113,-0.9933362,0.4481094,-0.96196866,0.73442245,-0.15978722,-0.04281739,-0.4288235,-0.7020747,0.30692077,-0.57018095,-0.6678819,0.7144405,-0.24912007,-0.29962155,-0.31252155,-0.60229546,-0.5178303,0.7666637,0.89022446,-0.88040936,0.54012585,-0.007646268,-0.75387025,0.6572138,1.0028843,0.9304628,0.49947208,0.19104168,0.56729114,-0.3090402,0.5527204,-0.36956266,0.47022665,0.33094975,0.8476313,-0.86335325,0.1574046,0.7601472,-0.7544087,-0.048047435,-0.4252559,-0.20427783,0.09384955,0.24831437,0.9819933,-0.69495314,0.7184213,-0.75479066,0.40753978,0.0830077,-0.42764553,-0.3102079,0.44993383,1.0340816,-0.72911483,0.42180288,0.6103386,-0.6279283,-0.002949154,-0.53158855,0.49541533,-0.1916378,-0.06824841,0.64714986,-0.8841058,-0.20651191,0.44993043,0.39328405,0.8829376,0.3410519,0.70845217,0.27039093,-0.74109995,-0.21627814,-0.2600312,-0.9362298,-0.59609586,0.27122,-0.57135975,-0.19903572,-0.3785052,-0.20700155,-0.4430394,0.15578015,0.23912846,-0.7003884,0.49091446,0.20286149,0.78126913,-0.7369748,0.19880626,0.86863995,0.18735556,0.49021816,-0.2219473,0.260709,0.52328056,-0.70285064,0.034697823,0.41888824,0.6602917,-0.36044326,-0.027811492,0.66092706,-0.89719045,-0.88094264,-0.7152915,0.5116189,-0.7987301,0.60418046,-0.73729616,0.08607677,0.81980234,-0.5646725,0.19994125,-1.0035591,0.4873343,0.7639055,-0.6774147,-0.010801401,-0.41370684,-0.24325462,-0.0925283,-0.92743045,-0.28807294,0.41504872,0.3875663,-0.2631724,0.14750776,0.7628261,0.45148247,-0.80273986,-0.5882538,-0.33727598,0.18787666,-0.5950851,0.8907423,-0.16972479,-0.8671797,-0.8709443,0.2619161,0.5017377,0.3518037,-0.1765967,0.9501768,0.49345848,0.78901243,-0.7718245,-0.7155359,-0.5047604,0.5357391,-0.58795756,-0.4945988,0.4674571,-0.7454994,0.033981487,-0.49744606,-1.0089823,0.5383081,0.7367116,0.6034822,0.22224744,-0.12677564,0.33411485,-0.38091466,-0.3933504,-0.5912066,0.11463206,-0.2802324,0.61359024,0.5872369,0.43056345,-0.62873226,-0.41558322,0.7315459,0.9077516,0.7756444,0.51398665,0.82416743,-0.48130003,0.7888209,0.28207338,-0.9004296,-0.40831283,0.6127255,0.68334824,0.7999724,0.5839302,-0.5864773,-0.6516056,-0.89246696,0.41114074,0.65278715,0.8919102,0.91546255,-0.63665915,-0.29305655,0.7775319,-0.39859602,0.18527348,0.36756665,-0.1172183,0.5785536,0.37211227,-0.311995,-0.17302404,1.0506071,-0.55664,0.7687246,-0.047522016,0.47776705,0.5416182,-0.8405816,0.19728193,-0.35749674,-0.49144024,0.48256674,0.5478585,-0.199151,-0.11346066,-0.9262707,0.06552153,0.37036383,-0.3826544,-0.597559,-0.7360486,-0.81559104,-0.39314657,-0.27414536,0.67565733,-0.40439513,0.8413435,0.54790133,-0.2739119,-0.2513321,0.349329,0.14953156,-0.31632563,0.6377981,0.28334466,0.1901131,-0.84390855,-0.4413009,0.6104946,0.58975464,0.96179324,0.25608513,0.5041837,-0.6883753,0.6214838,0.29958826,0.7472407,0.4245829,0.59625703,0.40315765,0.5072347,-0.36302942,-0.07411693,0.06196561,-0.12179096,-0.7040153,-0.3640426,0.082969695,0.048319865,-0.7291763,0.61293024,0.14384557,-0.3244597,0.6304826,0.79835314,-0.7156687,0.0400052,-0.8650756,0.48420453,1.0232562,-0.42479047,-0.14068632,-0.33806887,-0.66955584,-0.15334798,-0.8120647,0.07098972,0.14481895,-0.39093,1.0267122,-0.25191292,-0.029895531,-0.9071385,-0.058243357,-0.77991956,1.013255,-0.52867573,-0.7839924,1.0150179,0.15795286,-0.52018124,0.09356471,0.41323715,-0.7186942,-0.7711,0.21782479,-0.8594111,0.9557487,-0.8364651,-0.012256187,-0.55197495,0.31427744,0.9714951,-0.7895117,-0.33473966,1.086745,-0.9345792,-0.22027236,-0.9562343,-0.15408878,-0.27135193,0.3726952,-0.6915273,0.49879456,-0.65647423,0.41377115,-0.48460382,0.5585801,-0.22235185,0.277627,0.63177484,1.0298287,0.2978461,-0.35846782,-0.16467538,0.4137158,-0.12580112,0.87879294,-0.48648185,0.9280533,-0.56668717,-0.35961896,-0.5476502,0.0133024305,-0.5975787,0.9470319,0.9458139,-0.20025507,0.13244769,-1.0113112,0.84593374,-0.46185935,-0.8992785,-0.62332666,0.3931311,-0.49156117,0.7381993,-0.21502161,0.33032134,0.8738676,0.52286035,0.8780478,-0.08214964,-0.57351786,-0.2366724,-0.30328068,-0.0016023773,0.53152543,-0.8767986,0.79403377,-0.32312408,0.79901165,-0.7825989,0.42791125,-0.27353626,-0.7486733,0.5688726,0.46794972,-0.836286,0.6355803,-0.6500686,-0.9247021,0.788318,-0.7328022,-1.0372797,0.15262431,-0.23381248,-0.38034993,0.817053,-0.5320707,-0.6161599,-0.016420456,-0.18937325,-0.43054116,-0.5365644,-0.027706375,0.8437525,-0.07975049,-0.768215,0.115320824,-0.2493461,0.38205475,0.43110177,-0.27543715,-0.97288257,0.28223634,-0.46950853,0.21586403,-0.34505135,0.005417765,-0.6109567,0.61507624,0.84484404,0.18370563,-0.5593871,0.8486135,0.70425063,-0.5769028,0.44645065,0.6740083,0.9432678,0.46986532,0.029715206,-1.0323489,0.1828434,-0.89539075,0.7265124,-0.7194722,-0.7253001,-0.9538776,0.52201277,-0.8123661,-0.5783534,0.24383743,0.03590638,-0.705661,-0.8466632,0.9277413,-0.3601526,0.36742637,-0.7971404,-0.61232775,0.45326984,0.029460894,0.20479138,0.08300348,0.80301607,0.0014587133,0.8298002,-0.74296254,-0.6084807,0.11096669,0.6171826,0.13271077,-0.3563634,0.41267335,0.14349438,0.3773127,0.70521164,0.83672345,0.15631625,-0.2978967,0.6770806,0.72355866,0.8843872,-0.84570473,-0.10883154,-0.7997928,0.279114,0.52953976,-0.43090525,0.8472934,-0.11949098,-0.29978338,-0.8038063,1.0168573,-0.35968402,0.079044804,0.9255015,0.9477804,-0.6289889,0.5506601,0.18432021,1.0964427,-0.29146674,-0.4026501,-0.24148452,-0.35781536,0.78405905,0.329951,-0.8397578,-0.8513874,-0.33223882,0.1561039,0.37253463,0.20081607,-0.18935652,-0.02980762,-0.48327145,-0.032455765,-0.14112584,0.9593655,0.63546044,-0.8673959,0.72835577,0.89217585,-0.3200324,-0.65016484,0.8807452,0.6041079,0.17270187,-0.30382633,-0.25046048,-0.08516634,0.73289627,0.9026137,-0.6266993,0.6351099,-0.6372985,0.3389768,0.123809315,-0.7520774,-0.55801296,1.0136802,-0.29176447,0.43712828,-0.30051202,0.81131834,-0.32684603,0.055986963,-0.28672662,0.8673747,-0.053823683,0.47124156,0.84439546,-0.4370074,0.35041445,0.061239395,-0.38421246,0.5438291,-0.40247425,-0.026966918,-0.34374315,0.96043044,0.9282728,-0.35146752,-0.69638216,0.9862402,-0.6286554,-0.27293786,-0.86149794,-0.9700029,-0.7168083,-0.26309365,0.6802651,0.8544061,0.5404145,0.48580563,-0.27017233,-0.028548071,0.30657274,0.65413666,0.5295691,0.11463765,0.020351453,0.49199358,-0.9841608,0.6694537,0.71113974,-0.2862785,-0.38841784,0.68937945,-0.7230308,-0.23450233,-0.40541404,0.55931807,-0.12045743,-0.6524143,0.0027283162,-0.1416126,-0.87091094,-0.2238108,0.7644012,0.80656993,0.56278473,0.42504442,-0.99956214,0.5268329,0.04497052,0.4549068,-0.6025621,0.3548121,0.057887293,-0.5468739,-0.49571094,-0.9723655,0.0025968177,-0.6191267,0.0683422,-0.48084515,0.97591037,0.78149945,0.70479345,-0.5166699,-0.37672156,0.21091455,-0.84389496,-0.04458601,0.25920904,-0.16718987,0.11937785,0.6483988,-0.4935901,-0.81806374,0.68181074,0.7660077,0.62245446,-0.0282518,-0.4168035,0.5626456,-0.7306861,-0.29665437,-0.5292268,0.17066777,-0.60279864,-0.2623099,-0.9223536,-0.010720284,0.8221143,0.8497837,-0.22658338,0.45463476,-0.53884375,-0.33461967,-0.8895892,-0.59522974,-0.89341605,0.44270846,-0.35887775,0.3683479,0.8057019,-0.9862237,0.61151373,-0.93746436,0.42634794,0.7506062,-0.32664552,-0.47837892,-1.0033251,-0.39495355,-0.43606398,0.22021742,0.92381763,-0.9385806,0.24523656,0.069012485,0.09446008,0.2511636,0.7514928,0.45847636,0.712791,-0.4117325,0.7451521,-0.010072797,0.31635648,0.9778196,0.30610102,0.35763544,0.6915178,0.27233443,0.70753646,-0.3972452,0.6299836,0.19229503,-0.6029514,0.61089116,-0.36289066,0.3792076,-0.5152416,-0.5112677,-0.005505597,-0.82701164,0.11828275,0.07472109,-0.19044535,0.7120434,-0.5357018,-0.094318114,-0.6088632,0.4511248,-0.25059506,0.684887,-0.19270785,0.7898829,0.3938557,1.0330346,0.94191533,-0.755103,0.5437218,1.0399816,0.10660815,0.028279154,-0.21043697,0.042547606,-0.13484307,0.30464023,0.2718101,0.23452239,-0.2095232,-0.6738431,-0.35547724,0.9146603,-0.5218637,-0.44186515,0.5889781,0.8456558,-0.7545512,-0.6974837,-0.8306756,0.5233296,-0.14495479,0.17191382,-0.28893158,0.3366147,-0.14704458,-0.72748387,0.0891712,0.73321766,0.5825782,-0.78225607,0.6354208,0.69271106,0.63918257,-0.15950269,-0.291243,0.16232091,0.41538215,-0.28548676,-0.07667095,0.79190594,-0.51831686,-0.06256288,-0.6124761,0.6754528,-0.4334698,-1.0503047,0.91300505,-0.63334846,-0.79724735,-0.74209785,0.8581698,-0.09594629,0.63429284,-0.40702328,0.29903919,-0.1504595,0.5722777,-0.8361904,0.90099263,0.18939202,0.44347346,-0.61667305,-0.9968389,0.067422844,-0.66214895,-0.93421113,0.19490813,0.4092461,-0.46452284,0.8744239,0.16297196,-0.19648463,-0.42974928,-1.012772,0.79338,-0.46346852,-0.8295332,-0.0031225348,0.6118843,0.1566771,-0.3355365,0.88993907,0.3693876,0.057720114,0.73005944,0.12478342,-0.5963728,-0.7100177,-0.47281274,0.50185674,0.70803374,0.6702757,0.3036399,-0.4549675,-0.67623323,0.90819347,0.03561713,0.37013522,0.87895286,0.09510792,0.9970822,0.7335492,0.12453897,-0.9376549,0.53797656,0.31541398,0.75026655,-0.8694622,-0.39982215,0.3185876,-0.02020582,0.5632621,0.35303628,0.7380876,-0.45550084,-0.6359943,-0.5299482,0.9901907,0.45319152,0.12684137,-0.2825844,-0.62401384,0.69801337,-0.06776969,-0.8559402,0.9284458,-0.9723187,-0.5956204,0.9459622,0.593784,0.22368498,0.5438784,-0.30135858,0.89442945,0.9916648,0.3167281,0.5502092,0.5475685,0.24576724,-0.6691486,-0.35563216,0.7072571,-0.4837612,0.7162027,-0.5714601,-0.860765,-0.52060527,0.28131497,0.79244304,0.17008246,0.5642012,0.7179503,0.67462933,-0.07805721,-0.38056415,0.6047115,0.006259825,0.6160035,0.7288733,-0.5921457,-0.1446769,0.8675002,-0.5627646,-0.74700874,0.71095216,0.8948602,0.6400702,0.62575763,-0.070631295,-0.70307815,-0.4304674,-0.62528586,-0.792242,-0.90938145,0.8422938,0.42731488,0.5902399,0.3696322,-0.43440044,-0.90775627,0.5080121,-0.10644034,-0.8660096,0.52665395,0.97501826,-0.073984526,-0.31681272,-0.95359725,-0.7525229,-0.06765425,-0.81102896,-0.39274094,0.5626972,0.5343802,-0.85610026,-0.3318641,0.97514045,0.7625986,-0.30732015,0.26719475,-0.88973945,0.031098444,-0.53151655,-0.1746165,-0.7395811,0.2747098,0.99182224,-0.34849757,0.4676202,0.26675805,-0.5160858,-0.81912714,0.49414644,-0.7781367,-0.7555937,-0.18668348,0.92559665,-0.85513693,-0.7238398,-0.048292533,0.25328568,-0.2878996,-0.30465794,-0.10057753,0.37005177,-0.73775995,-0.77649224,-0.059166837,0.9286497,0.6273532,-0.6228946,0.6061705,-0.6543261,-0.46725807,0.90128744,0.69298863,-0.89827824,1.0411984,-0.4807865,0.95257705,0.3637274,-0.6344754,0.76727635,0.5977481,0.92862123,0.123136446,-0.56684506,0.54578507,-0.053172756,0.5513459,0.13166887,-0.29567933,0.35197213,0.71212614,-0.27048802,-0.8776263,-0.6953163,0.055955987,0.07807822,0.06180458,0.007918976,0.44009942,0.7006437,-0.18005058,-0.07968872,0.7371193,0.5218571,-1.003456,0.5823181,0.44475427,-0.7491331,0.72495365,-0.61565936,0.86279535,0.94929236,0.87539834,0.46855798,-0.6205702,0.6141337,-0.7638687,-1.0487134,-0.2613075,0.49168256,0.108622074,0.81992745,0.8734885,-0.62111795,-0.9391611,0.80483156,0.908358,-0.9240224,-1.0377673,-0.050587915,-0.98355716,-0.81065696,0.19638793,-0.81932265,-0.19555427,-0.92114514,-0.15128542,-0.80587304,0.31438679,0.42182142,-0.80851185,0.50357425,-0.324038,0.5259782,-0.9103974,-0.7087925,0.6770933,0.35720024,0.6185264,-0.03951994,-0.9228132,0.27014235,0.87720513,-0.5916607,-0.6679998,0.94056493,-0.7623493,-0.5453574,0.6509405,0.43428937,-0.81692266,-0.9576686,1.0298178,0.68463516,-0.7857937,-0.30085683,-0.48644122,0.3121844,-0.829784,-0.46453935,-0.057463538,0.8288011,0.97442126,0.4215912,0.2985709,-0.3529024,0.4345518,-0.09745556,-0.3574504,0.012910908,0.15766016,0.21989274,0.39246407,-0.56999487,0.16753712,-0.5530959,-0.5404579,0.10289483,0.113922186,0.24985194,-0.77153116,-0.87352973,0.3200688,0.08558827,-0.14454946,0.58893985,-0.48968202,0.56755555,0.91362053,-0.9364496,0.43529758,-0.17384456,-0.932272,-0.98165864,0.19624008,-0.0025230076,-0.47678158,-0.5091174,0.5389827,0.15462945,-0.65025216,0.32127425,0.18190396,-0.95244515,-0.52683175,-1.025277,-0.9540526,0.8392576,0.3681308,-0.6057292,-0.14847103,0.7956605,0.36987177,0.5509532,-0.3107566,0.54417783,-0.9254403,0.7047625,-0.78888905,-0.4530904,-0.13868281,-0.40050125,0.32230988,-0.8390737,0.5659229,0.8492418,-0.8704409,0.18147025,-0.32865793,0.92814744,-0.78385437,0.3122972,0.42380634,-0.45395184,-0.5806094,-0.82610065,-0.15747176,0.49240667,-0.05795509,1.0177364,-0.07548805,0.10818675,0.7344592,0.8124685,0.5104035,-0.71611154,-0.8760647,-0.29757726,-0.8812851,-0.019839775,-0.7024999,0.48739693,-0.22422564,0.40321153,-0.06741094,-0.7830672,-0.5487713,-0.014544701,0.58985096,-0.32129937,0.24996279,0.38398027,-0.42420986,-0.78777796,-0.22357745,0.31930438,-0.9214275,0.10717249,-0.48304337,0.2240243,-0.040232386,0.05862319,-0.13743322,-0.427926,-0.49908787,-0.421155,0.25061217,0.8021564,-0.5741224,-0.64812416,0.70219976,0.9106596,-0.8957068,0.6314989,-0.22102444,0.9948623,-0.87073666,0.7070658,0.5925858,0.3717706,-0.42650685,-0.17731322,-0.4873081,-0.8075272,0.43104905,-0.16598533,0.57016945,-0.78268075,-0.8435979,-0.111794434,-0.58431095,-0.021406358,0.019218693,-0.123152114,0.76700807,0.2025356,-0.5438647,-0.06754077,0.5820126,-0.73255855,0.7417041,-0.90166605,0.8538371,-0.8942053,0.35238874,-0.9291264,0.85601056,0.8805091,-0.17748514,0.79361963,0.8610171,0.31667343,0.22025068,-1.056069,-0.92460287,0.54213715,-0.31296623,0.12114034,0.123486966,0.08098655,-0.9430159,-0.7119706,0.47951052,0.81074923,-0.9225101,-0.86767113,0.5421541,0.23348689,0.336424,-0.5189119,0.8556487,-0.07254804,-0.24017458,0.076477826,0.16480722,-1.0108204,0.12413626,0.7071296,0.30667108,0.60978454,0.10721648,-0.31324404,-0.3958019,0.89472264,0.36910766,-0.8163539,-0.6954736,0.435773,0.4812761,-0.90861136,-0.32474965,-0.10890099,0.7263418,0.42915988,-0.9652013,-0.84377694,-0.28564858,0.77806884,-0.1592778,0.28676602,0.79252535,-0.30036253,0.1034591,0.5475038,-0.7020505,0.15317766,-0.7952324,0.0067595877,0.93981844,-0.7463247,-0.8526308,-0.531782,-0.68741935,-0.8411428,0.18913731,0.28609812,-0.010384621,0.7718293,0.7041066,-0.0034395054,0.12221493,0.25216904,-0.47514024,-0.14329948,0.757701,-0.6268781,0.82854545,0.5935214,-0.7628991,-0.23882632,-0.45252597,-0.7005759,0.46076986,0.8171622,-0.33484298,0.0011743305,-0.5732616,1.0011857,0.057570975,0.6833856,0.12470252,-0.6916574,0.7339419,-0.73425925,-0.783489,-0.5222447,-0.7974129,-0.9722169,-0.14215817,0.77281606,-0.3660044,0.8845821,0.9299665,-0.32096192,-0.03904687,-0.38010135,0.844498,0.61757195,0.13641529,-0.54510754,-0.065777615,-0.81175536,0.2792471,0.033885438,-0.41685137,-0.523781,-0.28333047,-0.5268181,-0.24278158,-0.76558626,-0.06270204,0.71623874,0.8507189,-0.6105698,-0.20644522,-0.1851102,-0.99367326,0.11164268,-0.30197597,-0.01735838,-0.7361375,0.13166913,-0.7465157,0.4804991,0.8521287,0.48757693,0.15995094,0.31711432,0.050260797,0.508346,-0.045076847,0.90812707,0.70367837,0.15139359,0.9487515,-0.46226126,0.010207171,0.45660764,0.49079695,-0.62494093,-0.5895424,0.35329118,-0.16876146,-0.20921819,-0.1508938,-0.8222947,0.4392669,0.16037051,0.7272052,-0.9397838,-0.5939097,-0.2792244,-0.5017749,0.6114336,0.41959432,0.6298361,-0.039000925,-0.7264643,-0.48029077,-0.51817596,0.20714134,-0.50210536,-0.118578985,-0.7635101,-0.62262756,-0.8144545,-0.42613536,0.47914582,-0.8854612,-0.036874905,0.8838933,0.06614101,-0.38698733,0.671068,-0.9061821,0.37120575,0.29887277,-0.48543862,-1.0078025,0.70991707,-0.19569452,0.94739825,0.08216408,-0.08217359,-0.5508378,0.7694693,-0.8645992,0.63759184,0.7710466,0.31442836,0.31582758,-0.65160817,-0.54775846,-0.7400337,-0.16142642,-0.7541085,-0.9771485,0.31968313,-0.2583001,0.0646219,0.38097045,-0.97523636,0.082213245,0.64833045,0.56841135,-0.11396314,0.2938216,-0.68001413,-0.3294413,0.85971713,-0.3434403,0.9304825,0.90543705,-0.5316695,-0.39525542,0.37200907,-0.46489435,0.62626106,0.92167836,-0.46650597,0.023149647,-0.6812863,-0.10565616,0.18868808,0.17498298,-0.2144303,-0.7189445,-0.87147695,-0.70910174,0.8199146,-0.085759096,0.6809418,-0.828857,0.24200426,-0.7493096,0.039791267,-0.61123085,-0.8464098,0.93072855,0.1042807,0.12986045,-0.83403295,-0.7467851,-0.58802736,0.679148,-0.16630696,0.36808202,0.07797009,0.06552553,0.20406877,-0.9275602,-0.5705574,0.99677795,0.089027375,-0.47582054,-0.72958815,0.4844472,0.80059195,0.10042039,0.2154785,0.3326877,-0.44499248,-0.17738315,-0.96047854,0.449498,0.8798629,-0.11170766,-0.8911097,-0.5466961,0.18879241,0.757113,-0.57716936,-0.09995741,1.0004121,0.77899367,0.15300277,1.0131961,-0.66142786,-0.6999305,0.90308714,-0.5075534,-0.39743334,0.12938838,-0.6506801,-0.29126468,-0.972243,-0.015855478,0.32486403,-0.27768785,-0.664766,0.7950781,-0.7237453,-0.7092903,0.9313003,0.78064877,0.27256247,-0.79668623,-0.1337274,-0.58024246,-0.5006034,0.5616138,-0.052497637,0.30423114,0.7184773,-0.8564835,-0.12872666,0.8516592,0.4564821,0.6679465,-0.20916471,0.05345059,-0.8642238,-0.71665144,0.57966614,0.95536494,0.08275635,-0.6830739,0.45800784,0.9518389,-0.09887263,0.34309128,0.48883203,0.26701927,0.2770811,0.13321903,-0.76952475,-0.47321457,-0.66018283,0.59333223,-0.78388697,0.8404955,0.65513533,-0.4593078,0.4120232,0.4691674,0.8308091,0.58986396,0.12049552,-0.044535786,-0.55858153,-0.11550006,-0.25807035,-0.18697989,-0.7056514,0.89749426,0.72252035,0.6429993,-1.0038918,0.17965518,0.07450865,-0.11049783,0.6651779,-0.41281676,-0.59478456,0.673125,0.72343975,0.7028164,-0.7064502,0.5844956,0.1346503,0.6144325,-0.44913265,-0.55010974,-0.24008368,-0.4702187,0.7280443,-0.41807613,-0.6044682,-0.14617176,0.75163555,0.114166565,-0.16559394,-0.90818626,-0.43812364,0.5776774,0.70354646,0.5552626,-0.043182846,-0.94434786,0.7615817,0.44426006,0.055229727,0.5270236,-0.86063063,-0.2136001,0.7839959,-0.7237637,0.25706354,-0.10844591,0.95152444,-0.72861534,-0.9790299,0.32208705,0.27411258,-0.8781221,-0.78740656,-0.9668486,-0.6548181,-0.5144041,0.032141324,0.33846968,-0.374884,0.47683796,0.7302299,-0.39047453,-0.014812869,-0.4979991,0.4356072,-0.0680857,-0.785801,-0.83633876,-0.029906746,-0.54098564,-0.28511155,0.13498063,-0.50884837,-0.67437214,-0.44960794,0.82649857,0.3899565,0.26464152,-0.5151485,-0.2727321,-0.8225885,-0.78971535,0.22017251,-0.211061,0.5396488,-0.8290979,-0.16344377,-0.33226892,0.7731802,0.47468024,0.32827616,0.7668094,0.360075,0.09932469,-0.2897288,0.70768005,-0.06739814,0.97834647,0.31835663,0.40728444,-0.044934068,-0.9888349,0.507032,0.5565309,0.90942335,-0.16560182,-0.687261,-0.9122724,-0.17141007,0.7355951,-0.65530914,0.18999235,0.98567486,-0.8984233,0.08242986,0.41380617,0.362181,-0.13138025,-0.5295863,0.8678784,-0.9454013,0.10821171,-0.70502406,-0.63465995,0.15762947,0.29558885,-0.63279384,0.3670942,0.9665386,-0.13878506,-0.7557314,0.00255012,0.58308715,-0.6388987,-0.94143933,0.488114,0.98973125,0.8784669,0.17498249,0.4749107,0.04945958,0.27900234,-0.1307963,0.47115967,0.6557305,0.2597704,-0.73078233,0.9523895,-0.91750795,-0.38968045,0.27160046,-0.86985195,-0.4480571,-0.6649862,0.7578701,-0.43974045,0.6296473,-0.49816728,-0.7931888,-0.77365595,-0.7959748,-0.18376072,-0.4795629,-0.1486862,0.12833436,0.5225002,-0.78825015,-0.45214617,0.81747484,0.47593957,-0.02025562,-0.05891504,0.907171,-0.6171942,-0.29505497,0.9773465,-0.7885122,-0.1800282,-0.2832135,0.40472543,0.15470266,-0.84041184,-0.28225538,0.13838983,0.6465114,1.0025352,-0.82549477,0.007891801,0.38163736,0.65776783,-0.2650873,-0.34830222,-0.46104506,-0.36142987,0.38949615,-0.050559875,-0.21682969,-0.76798636,-0.5901164,0.682398,0.9690543,-0.8029628,0.33513114,-1.0218436,0.57450306,0.7546399,0.7268859,0.201356,0.5565209,0.5112722,-0.19742624,-0.3355491,-0.6326681,0.19082104,-0.4513451,-0.24134475,0.47487253,-0.36715323,0.5010339,-0.965123,-0.829116,0.15534143,0.27647397,0.9237828,-0.13389009,0.11190464,-0.7630252,-0.38288754,0.19222304,0.70716923,-0.37336832,-1.0567749,-0.14256357,-0.5139097,-0.5912554,-0.16565987,-0.023889033,-0.069185846,-0.89879036,-0.49625683,0.38529286,-0.6732137,0.2906793,0.72535914,-0.061501738,0.8095827,0.47468123,0.6789559,-0.023470087,-0.53304726,0.36447313,-1.0376977,0.15126358,-0.05359157,-0.28250927,-1.0888412,-0.6229196,-0.5665633,-0.85749036,-0.0830265,-0.83660764,-0.0011688797,-0.38395062,-0.8285676,-0.318072,-0.07968985,-0.44059864,-0.344494,-0.57213646,0.89832354,0.890908,0.23531863,-0.40379742,-0.7954944,0.8667266,-0.52273643,0.8709215,-0.72236955,-0.90802217,-0.084298395,-0.21833444,0.51431847,-0.9527924,-0.2856298,-0.9061648,0.894729,-0.7219565,0.24474183,0.6802825,1.0480499,-0.4055256,-0.44184503,0.08126184,-0.17904021,0.40043855,0.2572311,0.5449062,0.09606348,0.13918686,0.30584535,0.75534266,0.051477972,-0.079776846,0.43133762,0.23563218,-0.68870133,-0.5200042,0.850743,-0.07368228,-0.8466775,0.6137116,-1.0085193,-0.5667222,-0.42382282,-0.9357013,0.7017361,-0.5333649,-0.7742024,0.9945767,0.89221394,0.6989966,-0.07073739,0.37931824,-0.9796507,0.27184382,0.3257387,0.4668013,-0.5636143,0.69426316,-0.08162289,-0.1828919,0.45429993,-0.65249574,0.2606334,0.32384765,0.49299276,-0.46539405,0.6864566,0.98323417,-0.43154442,0.922165,-0.28830186,-0.77759737,-0.35423625,-0.629699,0.5664566,-0.73300636,0.16366217,0.90434986,0.11566464,-0.4974901,0.0093218945,-0.5599759,0.7517165,-0.8022492,-0.8181998,-0.80598015,0.43076235,-0.94341725,0.9738941,0.69096893,-0.25796995,0.87023133,0.17373054,0.51579565,-0.8809252,0.88491523,0.51533324,0.119126424,-0.014629002,-0.5375587,0.94463074,0.23036869,0.17535648,-0.41100362,0.9167066,0.33998138,-0.7708693,-0.28864273,0.68119997,0.18223445,0.41190675],[-0.7359476,-0.45768836,0.023666518,-0.3386725,0.131219,0.82884854,0.2864973,-0.8428224,0.92591804,0.08088177,-0.34932578,-0.55612046,0.45343086,0.8168117,0.22967473,0.7848186,0.20797762,-0.36423886,-0.8688635,-0.07395227,0.06098781,0.28038275,-0.14936084,-0.29818493,0.93702507,0.14053807,-1.0042397,0.03168237,-0.98520464,0.08066583,-0.58081764,0.10080862,-0.78406096,0.81238735,0.70111245,0.46522972,0.15254018,-0.8595623,-0.4140514,-0.13973203,-0.24442391,0.1725093,0.37044033,-0.7203121,0.43052503,-0.55051774,-0.04477729,0.66539115,0.9303624,-0.42816237,-0.9415442,0.30757716,0.41973484,0.8051024,0.9558168,0.76272875,0.071126685,-0.4296332,0.17850615,-0.21780157,0.24251142,-0.887266,0.4436577,-0.99037707,-1.0533842,-0.79773587,-0.4598693,-0.38474318,-0.083802454,-0.92552793,0.5243485,0.61473393,0.8023682,-1.0247245,0.12976672,0.0007750668,-0.7134423,0.31338498,0.019114329,-0.07830993,0.27240932,-0.0058578304,-0.3803447,-0.9653844,0.26886636,-0.64656126,0.28088477,-0.89870644,-0.86375844,0.4526223,0.7188908,-0.36781922,0.60464144,0.7675198,-0.58686334,0.24440655,-0.96443,0.6121846,-0.7791328,0.3486676,-0.36456227,0.88579005,-0.76462865,0.94527155,-0.94739515,-0.695904,-0.08636102,-0.2998343,0.41636106,-0.2421181,0.05511655,-0.6092736,0.030441115,0.25598922,0.2613648,-1.0359282,0.38139695,0.83420306,-0.7308694,-0.55054605,-0.65687037,-0.73504287,-0.22508916,0.37721878,-0.21064824,-0.46552798,-0.17277716,-0.5996419,-0.77288944,-0.9118173,-0.25548849,-0.17937723,0.2973371,-0.7772281,-0.055300847,-0.2639328,-0.5715959,-0.5452532,-0.67980283,0.5770575,0.7091109,-0.98572356,0.46740007,-0.6306774,0.47134292,-0.5142387,-0.8123421,-0.8554643,-1.0061918,0.022778096,-0.08434427,-0.016648354,-0.31358856,0.13717422,-0.23149933,-0.7030512,0.41955683,-0.73101485,-0.15061629,0.030148402,0.064245105,-0.8433583,-0.6507409,0.62818444,0.20397061,0.20883892,0.19629459,0.49277407,-0.9586138,-0.5096426,0.24702868,0.6507617,-0.64477074,0.6871824,0.36450076,0.75695246,-0.75533867,0.8299174,0.43789488,-0.5140186,-0.4624079,0.39185262,-1.0596677,0.24868579,-0.7861024,-0.43274358,-0.08816158,0.9161716,0.7252933,0.011384113,-0.1326948,0.14188902,0.33516124,0.09061856,-0.43235797,-0.9343553,0.80198926,0.24634673,0.807608,0.4489331,0.118596174,-0.37293893,-0.32147005,0.29669458,-0.4666137,-0.19075023,0.70123965,-1.0209963,-0.78905845,0.866831,-0.041183565,-0.10529776,0.5428626,0.71297246,-0.34760138,0.3448114,-0.58542365,-0.9759282,-0.2650772,0.3781563,-0.4494011,0.38723686,0.50986993,0.17902707,-0.49732456,0.0023048352,-0.55829984,0.85993236,0.78864586,0.2148689,-0.27990806,-0.8579899,0.51774925,0.12504297,-0.3479856,0.0060998183,-0.2839407,0.8754871,0.3089874,-0.61832434,0.35501462,0.22139207,-0.39740157,-0.8699423,-0.29597712,-0.050892074,0.64152086,-0.068180606,0.8278807,0.6459757,-0.698144,0.13012192,0.7417452,-0.4255406,0.7857098,0.34975052,0.77829385,-0.608938,-0.24526109,-0.9532286,-0.7382703,-0.30145228,0.96178436,0.56385744,-0.5049843,0.17720456,-0.8032688,0.4046967,0.35145447,-0.45978323,0.091733515,0.38207966,-0.4956882,-0.40761185,-0.71238357,-0.3137949,-0.890123,-0.16804896,-0.51289356,0.04488388,-0.7160693,0.1972495,-0.5221095,0.03875162,-0.5796446,-0.44110814,-0.10335685,-0.8178795,-0.8699071,-0.59256035,-0.54636437,-0.32970232,-0.22933167,0.72514594,-0.92825216,-0.3413469,1.089377,0.50408953,-0.6705385,-0.9238803,0.40613416,-0.5611655,0.5878126,-0.52777773,0.24029106,0.8612451,-0.579081,0.70988435,-0.2585784,0.887225,-0.37962753,-0.71526307,-0.6000976,0.64305615,-0.19613676,-0.40029407,0.81698763,-0.30466107,-0.6381156,-0.17811967,0.8886888,-0.4482861,0.665819,0.25126487,0.4678042,0.60979694,0.911269,0.7263372,0.60853153,-0.055330604,0.1813226,0.85721356,-0.009133083,-0.9098781,0.56102806,0.28984055,0.19648866,-0.08552283,0.43082508,-0.46986696,-0.4418024,0.108459935,0.19446132,0.5994731,0.8672838,-0.38595685,-0.06945813,0.34054884,0.3479608,0.6288841,0.83243227,0.2881898,-0.95798856,0.7775539,0.22499742,0.61444885,0.8383531,-0.36434042,0.4024588,0.7690163,0.90268886,0.95447993,-0.4165622,0.474425,0.7397661,0.41408798,0.73718476,0.02268625,-0.32231236,0.047502648,-1.0250531,-0.4033793,0.3716853,-0.054359354,0.24678183,-0.7383161,-0.5265945,-0.87988967,-1.0241508,-0.17002441,-0.2072457,0.010719873,-1.0500357,-0.47707677,-0.4057062,0.8355779,-0.80899745,-0.8627227,-0.8272013,0.2817906,0.6850599,-0.68614596,-0.07446793,0.76803505,-1.0085336,-0.13920608,0.28527614,-0.41934872,-0.42554337,0.6872877,0.41940913,0.23026904,-0.34538814,0.35805237,-0.7802327,0.52637684,-0.2820378,-0.58157283,-0.86013657,-0.2481306,-0.9883693,0.5132623,-0.93951875,0.31995898,-0.93554264,-0.29702494,0.80449486,-0.057703074,-0.3937586,-0.6535265,-0.8617679,0.8467001,-0.33322644,-0.37121284,0.42843416,-0.41409406,-0.92255825,0.47023568,-0.55644476,-1.0723022,-0.98431545,-0.110301405,-0.4706671,0.7039106,0.324705,-0.085464865,0.69330776,0.5824513,-0.6701276,0.20680065,0.7879611,0.7447576,-0.5864706,0.5454778,0.039531257,-0.17608318,-1.0309465,0.31408417,-0.13483316,0.7856593,0.66832167,0.30317977,0.27214733,0.11657378,0.55475754,0.7744744,0.1206101,0.9490029,-0.3871633,0.68371356,0.9683143,-0.2590842,0.78816473,-0.51432633,0.11044188,0.09115895,-0.540455,-0.30015865,0.6746082,-0.044313222,-0.6293077,0.21177337,-0.83718026,-0.078822136,0.09404769,0.11439502,0.72596073,0.09415367,-0.7678569,-0.5777451,-0.29546118,0.77814776,0.8314792,1.0271823,0.9214662,0.33786803,-0.3495595,0.96024865,1.0603391,-0.74273694,0.52048683,-0.2897662,-0.3862367,0.37549055,0.57281166,0.51937336,-0.37193462,-0.033019267,0.73943657,0.2756296,-0.01394913,0.45071128,-0.12087457,0.87607086,0.42888024,0.00910069,-0.8154951,-0.82902074,0.35541746,0.331665,0.9167237,0.07399763,-0.30250537,0.03441164,-0.58930534,-0.76405305,-0.24232206,-0.20618016,-0.81218505,-0.48797473,-0.43711907,-0.8498082,0.40600044,1.0973922,-0.4740766,0.2463596,-0.03654013,-0.5291754,0.059588157,-0.13444027,0.5187172,0.2669981,0.87250113,-0.7813806,-0.38848448,0.6347602,-0.7579817,-0.7121756,-0.85411763,-0.24239904,0.117239155,-0.17415436,0.74197346,0.5853823,-0.016207892,0.9180033,-0.4891903,-0.35823885,-0.82915765,0.5965646,-0.6375156,-0.8997519,0.16542897,0.8770071,-0.5793877,-0.18526778,0.74485207,0.9674175,-0.3422945,0.47475162,0.55019134,-0.8120962,-0.5261458,0.10070488,-0.46548483,0.031032791,0.47507682,0.6819673,-0.22858588,0.13061184,0.84550077,0.49502498,0.44873777,0.4844759,0.903677,0.88480234,-0.47531736,-0.32067317,-0.78531027,-0.6084377,0.41460213,-1.0393503,-0.9431422,-0.93628556,-0.17513013,-0.9688136,0.4458902,0.050580893,-0.036237516,0.91211855,0.9281148,-0.4477268,-0.2821826,0.31917068,0.2522764,0.43471527,-0.09911779,-0.117797114,-0.53659344,-0.008700043,0.1433324,-0.7677021,0.25594047,-0.1627886,-0.14618796,-1.0753047,0.14208758,0.33775017,-0.76794386,0.33351934,-0.65559083,-0.5998741,-0.052427642,-0.23143187,-0.6606756,-0.99893624,0.52849567,-0.37469438,0.5011586,0.09996783,0.889174,-0.7517438,0.4579929,0.09776669,-0.74110687,0.54338586,-0.8864728,-0.017238364,0.5199741,0.09232269,-0.393006,0.7754752,0.32427263,-0.3191825,-1.0227093,0.19623314,-0.049382024,0.4889035,-0.048891973,0.5797818,-1.0504012,-1.1384289,-0.78616136,-0.5082657,0.59073377,-0.97193956,0.5188891,0.05204318,-0.9467422,-0.6817688,0.15502064,0.57567936,0.42179263,-0.096963,-0.30402455,0.48729745,0.4648504,0.10015589,0.5176599,-0.25004488,0.6774971,0.5873381,-0.8551288,0.83257604,-0.8675885,0.18863514,0.6460499,-0.20274435,0.23880437,-0.33262396,-0.94093895,0.40655842,-0.87265444,-0.2951468,-0.19044007,0.27843046,-0.36569154,0.41057104,-0.6567424,0.7537371,0.73299307,0.021008596,-0.10769756,0.28501353,0.40213352,0.52830535,0.24413612,-0.037951212,0.016863232,-0.049582798,0.18808983,-0.4161216,0.78885716,0.024954693,-0.30037993,-0.48226795,0.1331603,0.2301903,0.7637423,1.0355896,-0.44412616,0.64471614,0.33220372,-0.6139654,0.6513292,-0.04988062,-0.1355942,-0.60132486,-0.044752717,-0.54531324,0.9516459,-0.7629783,0.51406413,0.41763738,-0.18886785,0.0802493,-0.47482815,-0.53801584,-0.042995293,0.19078779,-0.3861521,-0.49414155,0.6482281,-0.7170622,0.06778046,0.35232362,0.6310358,0.77307177,0.55410117,-0.6383671,0.36557928,-0.7916675,-0.023240313,-0.6493462,0.9858125,-0.12637517,0.7484846,1.0483543,0.16993469,-0.6181002,-0.051982593,0.21513864,0.8942519,0.32408234,0.8456052,0.87202984,-0.6284493,-0.8265768,-0.61402434,0.21427892,0.7936618,0.19165294,-0.5240545,-0.6008064,-0.28918388,0.42658842,-0.45961383,0.27086562,1.0811574,0.68403506,0.23665181,-0.92746896,0.1328948,-0.13402645,-0.2647912,-0.6702055,0.042173386,-0.63905305,0.8948765,0.8672678,0.98593265,0.8157812,-0.8464349,-0.18728045,-0.54649144,-0.39428326,0.4278605,-0.8255455,0.9118696,-0.67286015,-0.46791726,0.82277274,-0.101274654,-0.6587556,-0.99365914,-0.24196908,0.5841914,-1.039994,0.47916096,0.6133775,0.19519138,0.2045989,-0.34617555,0.6830911,0.7747315,0.42546406,-0.47463533,-0.4898925,-0.7244726,-0.99016297,-0.017346026,-0.082115315,0.48407137,-0.25041223,-0.6813249,0.61263525,-0.2969279,-0.51712376,0.9947649,0.09618284,0.5462082,-0.82994306,-0.14809844,0.6276761,0.7515443,0.5209136,0.9929413,0.20213808,-1.0860267,0.56053156,0.4854282,0.90895516,0.9052556,-0.3004434,0.51541674,0.5576088,-0.56215036,0.19582313,-0.81663686,0.00539623,0.8457849,0.73498213,0.12281293,0.17528939,0.6315727,-0.25453615,0.802928,-0.9094894,0.4952191,-0.77672446,0.8811696,0.58082914,-0.15763211,0.7001916,-0.4396663,-0.2104684,-0.7993816,-0.8184485,-0.5498542,0.19602358,-0.3468435,-0.72690934,-0.32842627,-0.57968545,-0.8521001,-0.31556928,0.5141475,-0.59582686,0.169365,-0.90894926,0.19125967,-0.8060994,0.2463636,-0.43862864,0.37000066,-0.032847207,-0.81956095,-0.29815027,-0.57384115,-0.97362983,0.575881,-0.60257703,-0.0651277,0.5595325,-0.2635198,-1.1102139,0.58010936,0.7790506,-0.9349662,-0.19088033,0.67187935,-0.39572942,-0.8502191,0.08448982,0.7259453,0.69716257,0.18775944,-1.0390024,-0.9506115,-0.7615556,-0.2906367,-0.6716987,-0.9305861,-0.8596961,-0.24987411,0.42403564,0.5145761,-0.7525088,0.44628754,-0.532159,1.0604094,1.1874094,0.09812667,1.0686693,0.687205,0.088375114,-0.13766944,0.058030672,0.47434837,-0.15115134,0.74303687,0.57328105,0.0006716105,-0.5254702,-0.6582694,-0.81588,-0.7478335,0.60488653,0.6071475,0.6567837,-0.5272346,-0.15225151,-0.073229365,-0.82145125,-0.008571382,1.0852425,0.7443045,-0.6276993,-0.07955744,-0.34716302,0.5914605,0.3586001,-0.32939756,0.08687835,0.25304148,-0.45203805,0.5115515,-0.4068874,-0.76432675,0.9891753,-0.4657716,0.19094127,0.32533702,0.23367514,0.8476771,-0.7341449,-0.11339714,-0.2130724,-0.9542395,-0.97479916,-0.19426747,0.68835163,0.02987368,-0.21964467,0.46091926,0.27729017,0.66968167,0.053858746,-0.44752315,0.35133612,-0.22202569,-0.14228196,-0.47495574,-0.5689266,-0.4517676,-0.42520157,0.8680505,0.8777452,-0.51663035,-0.71537393,0.16292086,-0.19715902,-0.59696937,-0.45380545,0.27003363,-0.13767047,-0.7717576,-0.20113155,0.5451636,-0.094484836,0.83292544,0.39751533,0.052755773,0.46941358,0.18288106,-0.25031215,-0.47426125,0.44027925,-0.74836624,0.65854263,0.050579127,-0.053585924,-0.056026738,-0.07925311,0.5332638,0.05433361,0.55131626,-0.46330422,-0.018893005,0.883264,0.30801377,-0.13069075,0.08621811,-0.7576941,0.014780948,-0.6366323,-0.5840972,0.9103585,-0.38776425,-0.5766699,0.40797427,0.08174331,0.7996628,0.20468009,0.27713692,-0.1962013,-0.12650001,0.044522054,-0.19273631,0.93381166,1.091253,0.20247537,-0.1795188,0.5526919,1.0723221,0.37290502,-0.40741426,0.5757031,0.49547014,-0.15537234,-0.43257108,-0.59393203,-0.34649557,0.20495787,-0.028616644,0.02496056,0.91310215,-0.629057,0.6361859,0.5112592,-0.4216465,-0.8964181,-0.0071781967,-0.10672911,-0.6916798,0.20445406,-0.11051556,0.13454643,1.0206047,0.22445907,0.5869671,-0.43071327,0.27215227,-0.6841771,-0.36412552,-0.23106241,0.8110234,-0.32915536,-0.9958294,0.31268343,0.22688681,-0.64475656,-0.668584,0.6212046,0.5318589,-0.58349246,0.4429313,-0.644939,-0.8248017,0.10047843,0.9015893,0.404731,-0.8527971,-0.23312028,0.1493628,0.37057996,-0.94164217,0.117308006,0.8727374,-0.103436016,-0.37812012,0.6701656,-0.08118003,-0.28893843,0.6554123,-0.57724816,-1.0661815,0.6514679,-0.52193147,-0.5459638,-0.95784503,-1.0520527,-0.45832333,-0.90243757,-0.26002607,-0.32123342,0.2650694,0.32449973,-0.03134,0.87130547,0.5465872,-0.25852063,-0.9596431,0.48689866,-0.4638998,-0.8190929,-0.6277715,0.54021066,0.0209025,0.38843915,0.31469586,-0.6521763,0.8714876,-0.16640142,-0.3018516,-0.3128934,-0.76510465,-0.951554,0.568639,0.8009574,0.805105,0.007960164,0.8036971,0.84477687,0.97133136,0.07552544,0.051063806,-0.26840395,1.1512718,-0.37747633,-0.48123306,-0.33270404,0.19609372,0.5930278,-0.7168581,-0.39274427,-0.33671942,-0.23344353,-0.23636533,0.55210763,0.15430829,0.19124375,1.0420275,0.48194864,-0.21170665,0.22036229,0.36436865,-0.92635477,0.9848785,0.93157613,-0.7423571,-0.68862957,0.25828624,0.021347456,0.32781205,0.47607717,-0.2677583,0.2410348,-0.84346914,-0.49764866,-0.39421964,-0.20429549,-0.065382175,-0.25182453,-0.6541964,-0.5099054,0.34388968,0.13641451,-0.65714556,-0.73944616,0.08739176,-0.3530679,-0.021119706,0.76349014,-0.888825,-0.21169575,-0.82023156,-0.45825222,-0.3583381,-0.18761557,0.40751705,-0.30341008,0.74878275,-0.37026897,-0.2023656,0.2175914,-0.8287715,-0.84910226,-0.96182173,-0.114273,-0.72544384,-1.144111,0.010858714,0.12086591,0.2890699,-0.10458822,0.3455506,0.32441556,-0.22946106,0.41298926,0.32032233,-0.64558756,0.6545227,-0.4240979,0.32901332,0.64225745,-0.37833837,-0.58634573,-0.5746903,-1.126715,0.3602115,-0.34054333,-0.950736,-0.24928196,-0.5364957,0.7309753,-0.7015796,-0.80663955,0.24766296,0.52105844,0.63779914,-0.9191551,0.5859841,-0.48313367,-0.2444508,0.6869621,-0.021135155,-0.63242877,-0.04814306,-0.35621428,-0.80270094,0.036459703,0.84787166,-0.572888,0.020841653,0.5672514,-0.38398546,0.57379985,-0.12560284,-0.7072921,-0.6480997,-0.9859424,-0.38727802,-0.7677173,0.85929406,0.6478654,0.9791724,0.24577457,0.5280572,0.3657836,-0.40590572,-0.29485902,-0.40098676,-0.42315936,-0.31382734,0.25491697,-0.4219085,0.8232317,0.75167644,0.05359756,0.5044723,-0.39914826,-0.19613254,0.8078585,-0.8779097,0.3574847,-0.72414744,0.02697952,0.088196695,-0.88816005,-0.043942206,0.69825876,-0.62321717,-0.9078888,-0.03187901,0.6851559,0.28433597,-0.7764803,-0.32004172,0.67765456,-0.9095336,0.02266814,0.8230288,0.6775834,-0.73183954,0.05436555,-0.6775709,0.21409415,-0.8217213,0.6419631,-0.6823733,-0.27342924,0.007892067,-0.4758634,0.568905,0.56046486,0.75338066,-0.5570377,0.75758904,-0.30402014,0.59507453,-0.80165106,0.32340562,0.70945764,0.28731728,-1.0520077,0.26839346,0.035196036,-0.53778356,0.6873259,0.34146947,-1.0621718,0.80182534,-0.7655166,0.47887495,0.37615195,-1.0479678,-0.42490736,0.22416377,-0.6543158,0.09820437,0.36735243,-0.26392415,0.10393961,0.10190464,0.7580025,-0.9795897,-0.0707727,0.19845715,0.88420886,-0.96587276,-0.5751835,-0.91854626,0.10637891,-0.7975936,-0.47558457,-0.8299099,-0.43869835,0.0017604966,0.569498,-1.0026286,-0.022358783,0.22632411,0.87723666,-0.71460414,-0.7427208,-0.24120277,-0.3792391,0.5588453,-0.8580533,0.35573974,-0.30353758,-0.047947552,0.629165,-0.15994158,0.70735216,-0.34866598,-0.63177896,-0.056004908,0.12848184,-0.94751346,0.7272863,0.057305086,-0.6642736,0.014620375,0.90181863,0.33023316,-0.9459039,-0.9370213,0.48312953,0.7038802,-0.8401977,-0.5333041,-0.1380227,-0.14838623,-0.10431228,0.6345026,-0.925296,-0.95598227,0.7366314,-0.25443769,0.52263963,0.8883852,-0.9725279,-0.72411895,0.44558308,-0.7079506,-0.056227375,-1.0736922,0.2609699,0.65312254,0.5853713,-0.08209506,0.35639423,-0.15364096,0.69744444,0.5098757,-0.28698277,-0.1129301,0.536553,0.6764962,0.8625302,-0.49106732,0.72757196,-0.27852997,0.23910688,-0.16676143,0.34064516,-0.523115,0.6506233,0.92235935,0.96467096,-0.42397156,0.6283044,0.2334692,0.82103133,-0.59657484,0.55889875,0.39896268,0.7661958,-0.42207196,-0.6093445,-0.8433376,-0.1360887,-0.5293874,-0.47563422,-0.22451258,0.2849051,0.6819535,0.4585976,0.2785167,-0.8006355,-0.5301432,0.2586824,-0.7378919,0.35649708,0.1491407,0.3040374,-0.24319388,-0.46398684,-0.5311811,-0.8265192,0.70606285,-0.23680417,0.7567163,0.46453425,-0.26443365,0.10858192,0.69332176,-0.9558553,0.5694397,0.25413454,-0.6129256,0.2512656,-0.16258481,-0.68190026,0.040703256,-0.24232191,0.5952103,-0.8158041,-0.99437916,-0.09064653,-0.9386564,-0.07491939,-0.53846836,-0.3422251,-0.6745291,-0.5312039,0.67567855,-0.080916025,-0.31263214,0.10490138,-0.74612343,0.16597807,-0.876055,-0.73571503,-0.40081066,-0.7787985,0.43647695,-0.36848056,-0.7675975,0.7064164,0.4992643,0.7781037,-0.2287947,-0.5460504,-0.029614346,0.4719091,0.82648975,-0.13038318,0.6663162,-0.0075182472,0.08576838,0.90015966,0.32986203,-0.86552256,-0.742475,0.16570477,-0.41385326,0.079395995,0.90534014,0.1477136,0.64334023,-0.3973588,-0.26628542,0.46816316,-0.20499703,-1.0877607,0.70942974,0.11376211,-0.9086301,-0.9381354,0.08266294,-0.0021125255,0.4912148,-0.92326355,-0.048911754,-1.0057216,-0.92146766,-0.38222063,0.82301325,-0.23542091,0.08699684,-0.06443251,-0.15483049,0.6121806,-0.061604436,-1.0651506,0.21845698,0.25740972,-0.0724166,-1.0129886,0.6243796,-0.14424968,-0.94203043,-0.053777482,-0.045315575,-0.2846978,0.35274595,-0.21756883,-0.1598269,0.39970523,-0.10000156,-0.2631733,0.30788684,0.28261527,-0.47221413,-0.0052817543,-0.215997,-0.67460436,-0.2696942,-0.7112747,-0.82420164,-0.7590034,0.4352127,0.092575446,-0.895556,-0.30168933,0.7327705,-0.89809763,0.70109254,-0.30667105,-0.5212926,0.47866163,0.6248307,0.19654429,-0.9545374,0.76830626,0.3133079,0.74377596,0.49174935,-0.08939548,0.8636249,-0.79316556,0.6487391,-0.16312468,-0.7861556,0.9477075,0.40210876,-0.38077068,-0.034477632,0.40843767,0.658591,-0.7557988,-0.27619034,-0.37356183,0.06148949,0.019390887,-0.6077947,0.51436347,-0.9487115,0.1709335,-0.83232594,0.6565049,0.92960626,-0.73748773,-0.39634413,0.051744133,0.26133108,0.2877594,0.3882923,-0.23893683,0.19165698,-0.4694904,0.04157368,-0.19555837,0.012041492,-0.61215204,-0.2030298,-0.03804063,-0.09884795,-0.958365,0.33968544,-0.5849458,-1.0227948,0.8434066,-0.95815235,0.38350436,-0.8270085,-0.2038496,-0.19217655,-0.1646903,0.41647604,0.63787127,-0.66721106,-0.22121662,0.56301516,-0.47144812,-0.14415419,0.7855887,-0.86719835,-0.6954454,0.891761,0.3432911,0.64792717,0.73922694,0.36776897,0.91203314,-0.5463131,-0.39544564,-0.42720222,0.40837112,0.7304919,0.74981284,-0.061885968,0.33050486,-0.11770525,-0.18138623,-0.6829544,-0.64871174,-0.1513865,0.85154116,0.84996635,0.36027035,-0.72360754,-0.2889551,-0.507171,-0.7312696,0.1718548,0.06061264,-0.2687455,0.5528859,-0.2730808,-0.35550144,-0.32729033,0.34420037,0.5122875,0.97119623,-0.6996427,-0.15136296,0.6570169,0.92586774,-0.15037122,-0.93170345,-1.0425063,-0.86842626,0.14401017,0.23120236,0.12010836,-0.588307,0.7254056,-0.6810384,-0.5556671,0.67434347,0.8535805,-0.24308786,-0.8940632,-0.4339476,-0.38244036,-0.8924826,-0.2126131,-0.43530273,-0.75776404,0.66522384,0.71769774,0.52026564,-0.39415953,-0.81149524,0.037360877,-0.35761094,0.79111785,0.49474198,-0.74726796,-0.7995938,0.86429745,-0.6364741,0.9969444,0.30061126,-0.71105945,0.4572503,-0.31957328,-0.30551094,0.35062006,0.104924984,-0.97144866,-0.48462653,-0.806949,0.38796633,0.78997815,0.3702504,0.24226207,0.09006259,0.30924594,0.7840903,0.3956585,0.376301,0.34488618,0.7226717,-0.30907634,0.61706513,-0.35526887,-0.8319954,0.76820374,0.110258795,-0.3029116,-0.30101955,-0.15561482,-0.3992163,-0.6919267,0.9435826,0.37031218,-0.46617347,0.0726863,0.13424678,-0.48766974,-0.3036849,-0.14675145,-0.03668105,0.76488423,0.42772278,-0.20520829,0.28607777,0.87006384,-0.05446329,0.25840023,0.5705479,0.148989,0.6516274,0.366814,0.6152643,-0.35576838,-0.24711409,-0.36191994,-0.18499921,-0.56935316,-0.3007149,-0.36275023,-0.3289338,0.91441965,-0.4427629,-0.40000528,0.046835292,0.60690576,-0.7548249,0.5802712,-0.31755447,-0.5360229,-0.81254524,-0.37490195,0.74910814,-0.469041,0.84747916,-0.30801675,-0.7432107,0.086647645,0.28814167,0.9344275,-0.14616808,0.91143817,0.038087532,0.41831294,-0.59231585,0.8042138,-0.6526012,-0.9539232,0.6601551,0.921016,-0.1338347,-0.43346483,-0.9397958,-0.19774689,0.57078207,-0.2443085,0.028568923,-0.07295735,-0.40514544,-0.8130076,-0.7214114,0.052750926,-0.35381246,0.84885037,0.89359075,-0.9897232,0.52003133,0.33145508,-0.5304562,-0.19241716,0.3166246,0.12391546,-0.71250015,-0.059139248,0.07511389,0.25589252,-0.06620546,-0.911526,-0.41836637,-0.7682783,-0.8199911,-0.9063716,-0.5584506,-0.2255132,0.6526676,-0.14875245,0.20028587,0.032611553,-0.48818246,-0.6584577,0.23009351,0.6797635,0.56168383,-0.3813167,-0.9266066,-0.05620049,-0.41479662,0.12563172,0.80902135,0.6623697,-0.60850686,0.21510333,0.30021602,0.19047326,0.75286716,-0.5446377,-0.39939886,-0.977186,0.9559121,-0.34726372,-0.3467282,0.2970017,0.09617444,-0.29873824,0.021876803,-0.83711696,0.26674482,0.5765512,-0.584954,-0.9825788,0.6420342,-0.64084905,0.54251194,-0.86262035,-0.18018474,0.35623282,0.35488343,0.5347025,-0.78214276,0.28421384,0.024520371,-0.88026,-0.5657745,0.36842674,-0.3222258,0.7974225,-0.96713287,0.6985019,0.1351539,-0.8001164,0.113122545,-0.6893077,-0.9278386,0.92138314,-0.14958255,0.12811342,0.64662194,0.1009212,0.85272306,0.3430306,-0.38204086,0.7860277,-0.6188001,0.34933096,-0.2063418,0.3166089,-0.17798133,0.73267615,0.6782356,-0.44552484,0.2231,-0.28798443,-0.5707839,-0.82228607,-0.15629147,-0.8409249,0.22265805,-0.41732097,0.030731423,0.4056234,0.08364539,0.5512517,-0.17545816,-0.24434124,0.5417747,0.5372322,-0.18986619,0.28143403,-0.5766985,-1.0039555,0.18548752,0.70676655,-0.00818732,-0.57984215,-0.5836964,-0.5903837,0.59679997,-0.8567242,0.7108516,-0.8597661,-0.28235766,-0.11167396,0.7484595,0.7491519,-0.026879078,0.11228526,-0.07261859,-0.4329336,0.03692362,0.13426994,0.15795073,0.5817742,0.63715833,-0.79847413,0.37936485,-0.8553749,-0.04884868,0.61999947,0.24545161,0.6555609,-0.61720467,0.7405539,-0.22735712,1.0179982,0.30543363,-0.032843597,-0.22157219,-0.15517558,-0.0085528195,-0.24688834,0.81422704,-0.4491774,0.686245,-0.6340241,0.99510217,0.19622241,-0.5560857,0.088743135,0.9632373,-0.33555073,-0.51972175,0.10809885,-0.9299505,0.7812422,-0.22838123,0.1774221,0.2587417,0.5030515,0.50994027,-0.36268723,-0.07989117,0.035820864,0.16869895,0.96174866,0.14250173,-0.69679034,-0.6286453,0.7720712,0.21714714,0.25275472,-1.0117804,-0.0008120038,0.9463647,-0.5145971,0.22252366,0.8762307,0.04325767,-0.6756129,-0.71611834,0.39449996,-0.90826267,0.922381,-0.62524134,1.061336,0.56544363,-0.8754667,-0.3725444,-0.20567551,0.846456,-0.48093277,-0.84235185,0.3638782,0.5258016,-0.7773667,-0.040620416,0.0071531367,0.17397167,-0.23280147,0.91123915,0.92440116,0.39896062,-0.7254074,0.26385814,0.7780753,-0.115608335,-0.31838328,0.5879918,0.94715434,-0.62373763,0.2990744,-0.37980074,1.0050925,1.0960724,0.8530575,0.29328734,1.0317612,-0.34352857,0.109831735,0.8879684,-0.028800115,-0.09775946,-0.055087354,-0.13830811,0.049114637,0.5875467,-0.8053464,0.8697255,0.8906409,0.24305212,0.7749597,0.586694,-0.38701326,0.8668179,0.7343023,0.4564502,0.6213616,0.45841834,-0.008113195,0.5177571,0.4602521,0.8468826,-0.16309485,0.38954654,-0.86728275,0.14827538,0.6698133,-0.5749716,-0.76947963,0.30860558,-0.8927618,0.59080905,0.82230484,0.85725147,0.6661574,0.34654066,-0.77439326,0.07557722,-0.18013087,-0.07465994,0.5946759,0.77826285,0.74261445,0.9152884,-0.6430986,0.31226248,-0.13488068,-0.40159163,-0.6405172,-0.39736268,-0.48795405,-0.8679445,-0.6395838,-0.56328475,0.7367038,0.059892543,-0.4946104,-0.28799605,-0.60033906,-0.63874644,-0.14264002,0.7474869,0.015641505,-0.47120905,-0.061211493,0.54944056,-1.1002998,-0.9264205,0.5612356,0.3494563,-0.98998266,-0.90941465,-0.9124963,0.41189167,0.0020742975,0.7322715,0.86562,-0.29757676,0.4048994,0.24293168,0.3931327,0.07224986,-0.30243334,-0.66106886,0.92011243,0.493739,0.55977243,0.19022025,-0.45846793,0.014347947,-0.043183252,-0.26739246,0.7456487,0.62084115,0.040234994,-0.77335,0.6898199,-0.4569891,-0.24717844,0.5297501,-0.7970646,0.33228764,-0.3737687,0.060448475,-1.0724014,0.7694064,0.93836355,0.07602038,-0.5577058,-0.0034048734,-0.8612096,-0.441415,-0.19800088,-0.75477874,0.8516433,0.84025925,-0.36487105,0.55696887,0.14503293,0.32377493,-0.13677293,-0.60803497,-0.16044222,0.03565081,0.9050161,-0.99779296,0.8682956,0.17084771,0.8212227,0.9275062,-1.0312386,-0.16797288,0.93513113,-0.7550621,0.7041178,0.65619165,-0.29549664,0.21876575,-0.062579766,0.46086273,0.6165496,0.4466156,-0.07416694,-0.34892148,0.08423179,-0.5736804,-0.64359224,-0.18487813,0.96458244,-0.58577716,-0.67171407,0.6087587,0.9185807,0.29372138,0.36159554,0.13961002,0.06414484,0.8418931,-0.70745486,0.8685873,-0.6297061,0.4928324,-0.7658083,-0.32089368,0.064326204,-0.20760103,0.77866995,0.7896705,-0.8528422,0.46823016,0.48722085,-0.9282077,0.77045923,0.0049871476,0.15223405,0.7014136,-0.35439852,1.0142502,0.33749366,-0.7898837,0.79687566,0.7538575,-0.69898367,-0.68426234,-0.09203424,-0.42431548,0.505471,0.84177,0.4075549,-0.013310935,-0.08776852,-0.8005162,-0.36156407,0.9855282,0.24724615,-0.36622426,-0.6649979,-0.09450102,-0.9434082,0.61884016,-0.74086684,0.5183538,-0.08948167,-0.9392926,-0.6106533,-0.5269459,0.53507847,0.56327516,-0.7622152,0.14500763,0.8094663,0.6041863,0.92557263,-0.5704075,0.72184914,0.22742055,-0.50714654,0.63859713,-0.2431747,-0.38051137,-0.6402365,0.63668,-0.7221425,-0.7885052,0.06082244,0.9736139,-0.59658396,0.8709707,0.9617406,1.0114679,0.06081167,0.27675617,0.61371195,-0.07211524,-0.76192725,0.5487793,0.20539485,-0.5012122,-0.31108758,-0.6300584,0.27442372,0.814115,0.7317059,-0.5561147,-0.0236989,-0.7834838,-0.6292267,-0.84448695,0.25905484,0.99445367,0.05202928,-0.6907255,0.88649416,-0.58805305,0.35502174,-0.3477995,0.32207718,0.60468996,0.44017062,-0.46137062,-0.23822592,-0.9294555,-0.7178206,0.7883284,0.62157726,0.15656437,0.32140586,0.28652474,0.31414497,-0.08120472,-0.8245282,-0.23799808,0.10872822,-0.022350287,-0.8821382,0.17842063,0.8956572,0.13044903,-0.06976484,0.61150694,-0.93785834,0.5779563,0.7621168,-0.17921722,0.13789164,0.27612418,0.24908274,-0.2066443,-0.5255073,-0.7450865,-0.18878172,-0.3257008,-0.31359053,-0.20370837,-0.13209921,0.4922923,-0.9266463,0.6789183,-0.4561506,-0.24033791,0.45047408,-0.75102204,0.17080909,-0.54717165,0.7038094,0.554081,-0.33647072,-0.48973873,-0.054254804,0.7256682,-0.5452204,-0.1647609,0.8009694,0.3616096,-0.4576969,-0.5903113,0.9276869,0.35639843,-0.022538459,0.9305898,0.104526125,0.8359552,-0.42281082,-0.27570775,-0.38760474,0.5000791,-0.29072502,0.15034086,-0.94342524,-0.71557605,0.8630951,0.3118852,-0.9431454,-0.4541408,0.17817448,-0.8541488,0.5881149,-0.39735556,-0.49253172,-0.07970569,0.51910645,-0.5420385,-0.5323456,0.110034354,0.62551475,-0.7104405,-0.30253613,-0.8984418,0.8747895,-0.37479863,0.3346631,-1.0188375,0.7590407,-0.09904794,-0.21370986,0.2849216,0.22579914,-0.5914649,0.41600415,0.2947956,0.8801846,0.30366766,-0.90249133,0.098351836,-0.61174273,-0.7742206,-0.1607385,0.4218909,-0.30927795,0.7483769,-0.7869261,-0.0640219,0.51289,-0.6419204,-0.010415618,0.58555895,-0.85866946,-0.9369382,0.6716647,0.9463456,0.18386406,0.84071976,-0.8746164,-0.61811715,0.36132723,-0.49806395,-0.45995885,0.5948941,0.0028570388,0.95221895,0.33956957,-0.07393525,-0.03532933,-0.8522085,-0.043808453,-0.44422698,-0.5081414,-0.86544704,0.8498552,0.93423986,0.55066645,-0.7413079,0.6538091,-0.029086482,0.58855796,0.5578126,-0.6653878,-0.06995033,-0.8175034,-0.46050814,-0.68592334,-0.8819022,-0.4834953,-0.23425587,-0.6401614,0.27690592,-0.18799448,-0.25638142,0.76750517,0.011085378,0.101439826,0.32766986,0.83623767,-0.7393109,0.91595024,0.7754027,0.92644215,-0.5480385,-0.0006198911,0.64675903,-0.84994125,-0.7481103,0.6234325,-0.25292242,-0.7332568,0.27795124,-0.49582633,-0.1655166,-0.3074695,0.1383615,-0.011397966,-0.15944892,0.516987,0.53051716,0.31169468,0.72430235,1.0109266,0.73511964,0.8134303,0.3738279,-0.34444842,-0.040669553,0.5308937,0.18356077,-0.14303903,-0.6634682,-0.5029124,0.12625778,-0.10437203,-0.83802706,-0.4692537,0.73927814,0.5239089,-0.73741865,-0.57784045,0.5586261,-0.89994127,-0.33662692,0.63373435,-0.11405015,0.65457475,0.46757054,0.30758044,-0.47577047,0.519076,-0.112085044,0.4710792,0.918073,-0.4389798,-0.0005544985,1.022557,-0.22145565,0.09117257,-0.33871362,-0.27165958,-0.9360125,0.22315882,0.08819865,-0.53574663,-0.1748224,0.5802823,0.5308867,0.88109237,0.4635373,-0.8967975,-0.5593759,0.5673502,-0.917033,-0.08009853,0.58276457,-0.75374997,0.44508374,-0.45292896,-0.93096966,0.49124193,-0.6134726,0.02297398,0.6185754,-0.8910996,-0.8137598,0.07880498,-0.36854196,-0.63681906,0.15688641,-0.9194627,-0.032766663,-0.90588415,0.051897604,-0.14798233,0.6237437,-0.0352498,-0.8262045,0.051124275,-0.4342555,0.54943275,-0.7889449,0.6073904,0.7076733,-0.20257989,0.7646214,-0.33737862,-0.18481782,0.78338915,-0.94581383,0.5430199,-1.061398,-0.49392554,-0.6048367,0.023305146,-0.9574847,-0.86437637,0.84764564,-0.25701347,-0.87905455,-0.001178314,-0.07097616,-0.040085934,0.6487977,-0.049568374,0.3066996,0.051331278,0.15260094,-0.74987847,0.35690528,-0.061200965,0.000576573,-1.0379629,-0.7452946,0.30203366,-0.9535949,0.08305704,-0.089786395,0.09868876,-0.24376543,-0.3168662,-1.0376633,0.85348934,-0.82723117,-0.097178504,-0.19364347,0.19707869,0.9275342,-0.1253333,0.07894516,-1.0677449,-0.2854281,-0.81553155,0.4288918,0.1392168,0.40830186,-0.6389302,0.25464237,0.11404259,-0.3696598,0.6856091,-0.26025373,-0.9854664,0.7488494,-0.6220507,-0.74373454,0.77870184,-0.19765224,0.70495564,0.678316,-0.60128415,-0.67665744,0.42774624,-0.7294546,-0.56151646,-0.54718214,0.5654652,-0.24820565,-0.899007,0.42961702,0.5413808,-0.7306116,-0.3432907,-0.7203396,0.940292,0.8160747,-0.25713584,0.9211977,-0.13793136,-0.67382324,0.9612638,-0.25881803,-0.57997686,-0.8235655,0.23745638,0.7500092,0.55457723,-0.8179936,-0.6758715,-0.27054447,0.3660327,-0.07137968,-0.904248,0.19842708,0.29680163,-0.56702626,-0.50210804,0.9483501,0.16308741,0.78587556,-0.6214066,-0.63349766,-0.16754958,0.4247621,-0.089972496,0.46590498,0.02659397,0.6883261,0.91680306,0.5760345,-0.6863863,-0.509794,-0.07488702,-0.7480993,-0.19610305,0.3009998,0.31586614,0.3914379,0.5844463,0.22873741,-0.4494518,-0.60044265,-0.7996557,0.6629885,-0.868903,0.6311778,-0.5877738,0.06196251,0.08810115,-0.12508962,-0.97363883,0.24985893,-0.56771415,0.6995093,0.91772205,-0.0358714,0.3570872,0.029224847,-0.22836402,-0.4798841,-0.2581966,0.1533369,-0.6482893,-0.43602085,-0.4436068,-0.649334,0.59281254,0.5698729,-0.64704937,-0.66557455,-0.30173156,0.7057475,0.65799266,-0.4326077,0.82343894,0.60077477,-0.7616714,0.038422626,0.6418481,0.45457396,-0.26545596,-0.0857812,0.718202,-0.6478908,0.8922134,0.96376747,-0.30112627,-0.352486,1.009656,-0.578423,-0.1426498,0.77311045,-0.2541268,-0.22690207,0.29879645,0.21491729,0.14078131,-0.5672433,-0.21083307,0.3040246,0.18758695,-0.7059061,-0.3931707,-0.044703502,-0.14355822,-0.9318636,-0.5519423,-0.4292033,0.75991386,0.20263,0.29080987,0.6426619,0.72386444,0.8578806,-0.75912285,-0.6719683,-0.9018739,-0.4166673,0.16952759,0.5458823,0.113111034,-0.74029267,0.4902549,0.9279739,0.91246134,-0.671483,0.7563375,-0.9382021,0.33865628,-0.08030391,-0.5847358,-0.24530894,0.8554517,0.58499104,0.23163727,-0.27101937,0.8911049,-0.18785197,0.00017573335,-0.5273598,0.40734985,0.34140003,0.22021885,0.20201854,0.57302004,-0.62006044,-0.25641298,-0.12370475,-0.21822058,0.095742635,0.8207308,0.9023196,-0.30713636,-0.8504116,-0.5983677,0.5623738,0.49375334,0.28726393,-0.30162323,-0.18525423,0.71308243,0.46111786,0.49969926,0.5812909,0.3789707,0.22612303,0.7258077,0.30491322,-0.55740434,-0.8353879,0.8866602,0.47871634,-0.78487545,0.28673023,0.80414486,-0.50848323,-0.25301003,0.14262936,0.49213693,0.32909456,0.36825004,-0.46153435,-0.74738234,-0.38705105,-1.0558325,-0.39159814,-0.37438828,0.14457908,-0.5129599,0.3309918,-0.7262715,0.31975216,0.00036060874,-1.0785476,-0.2612391,0.5908549,-0.36446968,0.83627546,0.60607535,0.7193146,-0.27128932,0.42146686,0.1236305,-0.2828203,0.7230362,-0.9035181,0.33191946,0.8653332,0.32486147,-1.0545998,0.022723323,0.5785025,-0.8468301,-0.10458689,0.839764,-0.79776216,0.89204514,-1.0484105,-0.017807536,-0.025269177,0.9367367,0.43175176,-0.46272483,-0.23548575,0.3068119,0.79092246,-0.0860025,-0.8519752,0.033698272,-0.8011491,0.7096154,-0.7834662,-0.75200343,-1.0399883,-0.80345607,0.5230412,-0.7506571,0.24999735,-0.15244846,-0.4238305,0.5356126,-0.46224052,0.6573862,0.19426693,-0.37384665,-0.5921821,-0.5419645,0.4080948,0.9326763,-0.6123371,-0.07124609,-0.83460665,0.6238327,-0.20238551,-0.54566646,0.92189384,0.46420366,0.09154435,-0.42770213,-0.65266925,0.30743888,-0.8137747,0.3687505,0.55366564,0.13381821,-0.40951002,0.22476974,-0.3691181,0.9906772,-0.43258366,-0.6024232,-0.34448132,0.72008926,0.3062378,-0.66089165,-0.13493206,0.40595195,0.40794104,-0.60253805,-0.63255906,-0.44871667,0.29245028,-0.33198726,-0.3215118,-0.046812303,-0.07248116,0.86475194,-0.7360716,0.7386357,-0.62680054,-0.36984086,-0.10055082,0.5424074,-0.63332236,-0.86080307,-0.40337625,-0.7025516,0.84008384,0.8500578,0.58541095,0.26014766,0.23248771,0.67657304,-0.82022506,-0.3976454,1.009599,0.4563857,-0.40944803,-0.21790367,-0.24277729,0.13686137,0.646561,0.7429905,0.3130062,1.0506786,0.06579268,0.8342908,0.6113781,0.18404539,-0.11698703,0.5599966,0.49964815,0.5185847,0.5626547,0.20066664,-0.69633245,0.36030492,-0.21839814,0.04943883,-0.7472672,-0.5507688,0.56604826,-0.6833067,1.0194671,-0.13256395,0.7120333,0.652898,-0.60121745,-0.49570534,-0.21643154,0.31112552,-0.44008145,0.7548313,0.15015477,0.3959015,0.45120436,-0.32808977,-0.9223154,1.0187062,-0.31655818,-0.9245418,-0.9598354,-0.7809942,-0.16322145,0.93635637,-0.26017207,-0.3031513,0.6866992,0.66963005,-0.72058266,-0.017151782,-0.2745379,0.5279233,-0.92584085,0.44357547,-0.46735027,0.03943794,-0.015143406,0.22589369,-0.03135201,-0.77384984,0.056659028,1.0482846,1.0070786,-0.45697105,0.7452656,0.7644666,0.08368263,-0.46538293,-0.45742688,-0.44454718,0.8094649,-0.64588404,0.74785393,0.49288335,-0.23311403,0.3465032,0.13756399,-0.1486107,0.5953955,0.33091208,-0.56576276,-0.33099157,-0.17611519,-0.63287306,-0.3085434,-0.49303016,-0.675139,0.5757428,0.7402845,0.76240385,0.86972404,0.988777,-0.33274695,0.38239357,-0.124549575,-0.35662484,0.14062978,0.3154018,0.3940488,0.4574033,0.85340345,0.26053944,0.8369859,-1.0357703,-0.08793129,0.66084796,-0.17167313,-0.19640349,0.025629137,0.75847,0.3421538,0.4325279,0.58008003,0.28037906,0.6576962,-0.93392265,0.37141168,0.81306905,0.7871212,0.104373954,-0.52848774,-0.99083626,-0.9995519,-0.53742236,-0.36315012,0.32870907,-0.45274538,0.58557063,-0.8637242,0.72165287,-0.14240499,-0.85162836,-0.23803027,-0.8904591,-0.73687357,0.68912,-0.24198706,0.4802659,-0.33425203,-0.4180874,-0.0749837,-0.56659156,-0.6646939,0.55053884,0.5669506,0.2548926,-0.27890098,-0.16132234,-0.098658316,-0.42895988,0.24566945,-0.9690227,-0.21416843,0.59750617,0.4600085,0.75773835,-0.24964604,0.83237153,0.19884548,0.47711796,0.6320747,0.16364914,-0.09188323,0.76684624,0.34352207],[-0.37447864,-0.5513267,0.8908598,0.7389622,-0.5137174,0.25604627,-0.61606807,0.2652825,-0.5793441,-0.6710196,-0.08219482,0.81273794,-0.35225987,0.43483445,0.31971818,-0.9339244,-0.4195026,-0.6072987,-0.5327762,0.8252643,-0.5921588,-0.33765814,-0.103786744,0.18528982,-0.97584844,-0.00584783,0.22301157,0.32382414,-0.11055446,0.85772544,0.49608174,0.30112925,-0.2692909,0.39588162,-0.6636988,-0.016869966,-0.9808595,0.9480036,-0.10158829,0.9342411,0.70518273,-1.0584861,-0.032674156,-0.81072354,-1.0195657,-0.5938706,-1.0137731,0.5587302,0.63018495,-0.77335924,0.27784348,0.64908856,0.6990964,0.7592759,-0.044302043,-0.88953716,-0.4032153,0.28666487,-0.018082067,-0.30619955,0.11604196,-0.4820512,-0.3377756,-0.49698868,0.5263616,0.8100515,-0.42953417,0.36512566,-0.07544047,0.4170349,-0.9154129,-0.52108186,-0.47043538,0.14670151,-0.10249036,0.09790725,-0.46237037,-0.9054033,-1.1216459,0.30023953,0.7904533,-0.7531509,-0.69474894,0.18663046,0.37965885,0.4195292,-0.66538256,0.66792583,-0.45940983,-0.22438051,-0.7401957,-0.4590497,0.20121549,0.1477763,-0.16389252,0.60005957,-0.40719786,0.020096386,-0.25507638,0.13722776,-0.5240507,0.8617993,-0.26060635,0.91310126,0.24997403,0.9506528,-0.62337285,-0.72626793,0.26466894,-0.34798616,0.2854276,0.57723606,-0.9673107,0.7574016,0.9360277,-0.7702885,-0.30162668,0.68553936,-1.0006508,-0.057239436,0.5542706,0.49035516,-0.070401154,0.56314504,-0.037211604,-1.0095296,-0.86522055,0.38086164,0.29767895,0.87360114,-0.078801885,0.20690529,0.75733554,0.21786685,-0.65320927,-0.42541406,-0.6163497,0.8745405,-0.34980178,0.041162428,0.07389868,-0.39856222,-1.0648354,-1.0215614,-0.037321746,-0.8556647,0.82624596,0.38423023,0.7615141,-0.04004704,-0.6719086,0.14747562,-0.5626012,0.20730421,-0.045668054,0.6859168,-0.8084677,-1.1088804,0.023535343,-0.63730377,-1.0371652,0.03342615,0.19006559,-0.9182537,0.33464155,0.76088804,0.10703832,0.2776531,0.82178295,0.8133163,0.29911956,0.82697093,-0.1271374,0.51796734,-0.8822284,-0.6060472,0.17193674,0.7881993,-0.23938592,-0.19792187,-0.09025419,0.5385564,-1.0534998,0.5095081,-0.06465682,-0.32984108,0.26846534,0.3663044,-0.3500461,0.31218213,-0.92161244,-0.80533934,-1.0042808,-0.02064787,0.7043237,0.88190097,-0.756336,0.656816,0.036189876,0.7720705,0.10466256,-0.35375133,-0.86365116,-0.037233412,-0.4155105,-0.5601412,-0.9370756,0.3740894,-0.73306555,0.7861945,0.7631363,-0.28656456,-0.48998708,0.14815223,-0.48246774,0.22936167,-0.56123537,-0.6965224,-0.09440083,-0.07097241,0.8356637,0.2900848,0.092724144,0.81195694,-0.5434001,-0.5748825,-0.101045474,-0.9568839,-0.044325545,-0.88493454,-0.54074824,0.6362063,0.22060283,0.9618698,-0.27413025,-0.5233362,-0.2533592,0.63283044,-0.91051173,-0.51031786,0.79302245,-0.51393396,0.10808456,-0.9623369,-0.60711765,0.21428199,0.40871057,-0.7665165,-0.8679725,0.80144095,-0.413436,-0.0963727,0.35906914,0.3915074,0.6564761,0.2920717,-0.018845912,-0.1372475,0.33198798,-0.56684554,-0.048545003,0.28463364,0.8500837,0.71955794,-0.75519824,-0.85618615,0.2426018,-0.2871061,-1.0029407,0.21104674,0.25099304,0.45125586,0.8562283,-0.84934366,-0.34454536,0.35387594,-0.8525588,0.46714923,-0.4881085,-0.24250479,0.14578907,0.5853148,-0.69148594,0.5485632,0.3390897,0.88094085,-0.018198771,0.2836976,0.40840673,0.12499238,0.313593,-0.81669766,-0.24074133,-0.5438554,0.11986823,0.52607894,-0.6503628,0.58689725,-1.0533684,0.1862608,0.114748426,0.6098485,-0.42577186,-0.33774352,-1.0075767,0.83225375,0.74256676,0.10781048,0.18469664,-1.0480477,0.05471026,0.18565927,-0.6559577,-0.14455849,0.82475936,0.31323564,0.13836291,-0.8632399,0.3393912,0.14558336,-0.06954447,-0.3472084,-0.2508621,-0.96065235,-0.10919376,-0.36978006,0.34097376,-0.10971145,0.13950783,0.47736883,0.6938786,0.5486063,0.62725794,-0.90678346,0.19086823,-0.09920666,-0.27033478,-0.84999734,-0.6662644,0.045446824,-0.7491046,0.4276152,0.600529,1.0062513,-0.59862924,-0.52264047,0.40131712,0.5052266,-0.33055356,-0.78712195,-0.5744306,-0.23712361,-0.6344825,-0.042486355,0.45637378,-0.052978043,-0.18483463,0.7340982,0.7259273,0.08439337,-0.71541375,0.65119827,-0.5436036,-0.36226428,0.1262038,0.95596147,-0.10408903,0.099828705,0.6418669,-0.84688234,0.7089864,-1.0428535,0.06404552,0.75049746,-0.9166729,0.16988808,-0.0787978,0.5375227,-0.41173574,0.32106686,0.78791904,-0.07153711,0.3615014,-0.09757309,-0.60624254,-0.9337222,0.24081622,-1.0952078,0.6418992,-0.7671991,-0.37362334,0.5404094,0.3458068,0.7593842,-0.07977434,-0.8079877,-0.98919225,0.36519352,0.25899088,-1.0435147,0.06164604,0.133565,0.6136843,0.46839112,0.801104,-0.773891,-0.60510844,0.8251939,0.38119137,-0.463316,-0.92184573,0.303921,0.40225407,-0.83082104,-0.48432392,0.709172,-0.6242667,0.89698255,-0.68379754,0.3347421,-0.23165652,-0.92293096,0.3018238,0.608238,0.5693624,0.596417,-0.6924275,0.8506931,-0.49039653,0.5067344,-0.015948549,-0.09375551,-0.4933182,0.12356701,-0.1248577,0.6331622,-0.9547034,-0.88393706,0.9513224,0.8337164,0.12686716,0.19015634,0.54587257,-0.19979788,-0.91554445,0.73749685,0.055808894,-0.9273967,0.045793056,-0.6416583,-0.9216791,0.24891537,-0.73172975,0.3781221,0.54829246,-0.70916826,0.82366014,-0.24201891,0.06489966,-0.16542672,0.4598635,0.0755403,0.177053,0.3747856,-0.9960128,0.41326436,-0.7196571,-0.46463802,0.81654596,-0.5596089,-0.19181079,-0.8523294,-0.5550051,-0.09334387,0.6408883,-0.83095205,0.8134971,-0.91838616,0.30948982,0.8205215,0.30531242,-0.1525811,-0.63638085,-0.5807062,-0.25181532,-0.13512784,0.5545513,0.9583713,-1.0351602,-0.5227545,0.68321,-0.68066114,0.93280566,0.5608221,-0.53472906,0.88740915,-0.38880837,0.81971383,-0.7583263,0.30765593,0.77963805,-0.56549895,0.87380147,0.08739668,-0.48533466,-0.70847327,-0.6765223,-0.29856226,-0.50851244,-0.3668144,-0.8201433,-0.66414356,0.7301713,-0.19994141,-0.70837057,0.8829559,0.65791965,0.1648894,-0.058345284,-1.0219314,-0.44137424,0.3127911,-0.06394757,0.158577,0.61346376,0.009592388,-0.111227974,-0.47960368,-0.21632689,-0.79404134,-0.25662503,0.06819438,0.07943248,-0.024442395,0.03667455,-0.6004657,-0.5983137,-0.37590525,-0.5870047,-0.2786068,-0.23625706,-0.60662216,0.80734295,0.9567053,-0.22479545,-0.38707793,0.3322578,0.13240731,-0.579372,-0.65450275,0.02150152,-0.60583717,0.9654755,-0.97105867,0.14863805,0.7959083,-0.34513095,0.82432836,0.31978944,0.7863747,-0.3984883,-0.99773264,0.39592832,-0.788417,0.95400643,0.08368644,-0.41586325,-0.5674002,0.8100266,-0.72492594,-1.0113406,-0.53990895,-0.7557645,-0.62632656,-0.792015,-0.16529621,0.8102726,0.39773178,0.34377378,0.15878177,-0.092988625,0.8758627,-0.32429492,0.5099429,-0.92350477,0.89016217,0.3292232,-0.45610565,-0.53931874,-0.22163269,0.34183434,0.80749005,0.48100895,0.4078251,0.68364424,0.82233864,0.07716815,0.27861792,-0.1552804,-0.7494879,0.9337177,-0.9943247,0.5626016,0.25931397,0.43413517,0.74430835,0.5894315,-0.047592793,-0.81934404,0.0015704547,0.14820707,-0.88450986,-0.9491453,-0.4684947,-0.07847225,-0.48486575,0.91729397,-1.0300529,0.42776662,0.13511199,0.33739665,0.14975154,0.7822374,-0.8943004,-0.25308102,0.031210437,-1.0328343,-0.12091572,-0.61794496,0.5182787,-0.75012106,0.7333255,0.14996375,0.47689915,-0.1529631,-0.73907787,-1.0315461,0.4483738,0.5703477,0.33008802,-0.19614902,0.8828896,0.8718391,0.8783093,-0.9314881,0.87752056,-0.3432954,0.06310111,-0.98086685,0.8960561,0.25627077,-0.9812719,-0.6630394,-0.2277077,0.9328696,0.4803557,-0.13226072,1.0333773,0.9550842,-0.84905916,0.42029446,-0.3819055,-0.18907867,0.17562962,-0.5884439,0.91711754,-0.741983,0.57574916,0.76618665,0.29008397,0.12503129,0.13452384,-0.9441544,-0.4558485,-0.16509688,-0.7374172,0.9230726,0.3578334,0.37951714,0.0647294,-0.80854255,0.922658,0.80915856,-0.65124136,-0.32390326,-0.20065442,-0.046377897,0.29363543,-0.6498907,-0.019151956,0.5497979,-0.033021346,0.8091045,-0.37875512,0.051317975,-0.72693354,-0.3521518,0.9248109,-0.58262455,-0.33282742,0.800176,0.91382533,0.8001481,-0.55562234,-0.7929845,-0.47157887,-0.13351096,-0.2418435,0.67125404,-0.8232239,-0.14940639,0.6542383,0.9368327,0.89028734,0.5563942,-0.9207588,0.57488793,-0.6066137,-0.17040722,-0.4051263,-0.8671594,0.50964963,-0.6736426,-0.8978525,-0.31846693,-0.7929514,0.65660673,0.7670605,-0.099928364,0.04548762,0.9358856,0.5335572,-0.70307183,-0.97298795,-0.7946811,-0.07294644,-0.85309666,0.3583234,0.031094758,0.42294943,-0.3189022,0.052927323,0.6447797,0.7977772,0.5901901,0.6184466,0.5195989,-0.3750612,-0.79803246,-0.39350298,0.341017,0.029638644,-0.87716943,-0.4300549,-0.120177165,-0.4405817,-0.7825041,-0.43722868,0.36853418,-0.33313107,0.7153157,0.5011866,-0.43087175,0.8736082,-0.43899184,-0.2168936,0.6713726,-0.18116456,0.8072293,0.74389803,0.15846792,-0.90453225,0.044774253,-0.8670525,-0.24827193,0.0017157635,0.46987307,-0.038412675,0.83917016,-0.97874445,-0.6395876,-0.81942993,0.9635108,-0.34273198,-0.04123175,-0.010763381,-0.82486695,0.8276482,0.41761893,-0.9198701,0.40582564,0.09722363,-0.49788114,-0.720978,0.096517175,0.9928882,-0.7994224,-0.79723734,-0.94567925,0.8524631,-0.43276283,-0.08119658,0.1989582,0.49758062,0.006980412,0.80786186,0.5840792,-0.48160553,0.73769087,0.38075942,0.68247056,-0.3752562,-0.1255036,-0.96196556,0.48856062,-0.6889369,0.1661429,0.11776824,0.37355596,-0.57425785,-0.35021475,-0.025230164,0.2175964,-0.92431206,0.28487882,0.17630082,0.5342246,-0.67739433,0.5916958,-0.8250066,-0.0819511,-0.85085523,0.14745177,0.6532878,0.6265081,-0.66828233,0.32032713,0.6155325,-0.586019,0.82128227,-0.08631226,0.67590326,0.61735535,0.48759276,-0.26631132,0.4798331,-0.268412,-0.5903499,0.8722459,0.6339707,0.48091847,0.18844284,-0.8398321,0.9691523,0.52044624,-0.2986942,-0.011093501,-0.901248,-0.65986025,0.10547727,0.80663466,0.88137424,0.14636517,-0.98322433,-0.77099705,0.8098968,-0.3323614,-0.14916687,0.59173757,-0.8740109,0.11142381,0.33094856,-0.3059381,0.20909616,-0.78067917,-0.88999575,0.067012705,0.92335856,0.6241378,-0.11784203,1.0925467,1.024835,-0.84424466,-0.6851286,0.8848979,0.6140738,0.9107985,0.81637776,-0.049333584,-0.6916057,1.026685,0.33583173,0.770327,0.91077715,0.7365969,0.72950804,0.61484563,0.33687118,-0.62998915,0.08351002,0.47691512,-0.1866853,0.56985563,-0.27459115,0.36288643,-0.9093148,0.31353277,-0.7704599,-0.51165694,0.089760475,0.55575836,-0.17151618,-0.89542323,-0.7061015,0.8041993,0.8391776,0.94550604,-0.46045357,0.71466243,0.45017225,0.86358917,-0.56214917,0.85143346,-0.93692374,-0.4476413,0.08935197,-0.4210897,0.7793809,-0.52312315,0.20103005,0.22441435,-0.4026613,0.9745688,0.24811313,0.55534345,-0.47441837,-0.97885704,-0.60930103,0.73683363,-0.5991917,0.22975807,0.15231448,-0.44333693,0.572657,0.7087299,0.8756539,-0.47689328,0.57277995,0.30259913,-0.96942866,-0.87586266,0.7462831,0.27875423,0.3650103,-0.8010089,-0.9923455,-0.7903526,0.9259287,-0.75549823,-0.28076228,-0.96102417,0.25856197,0.8074203,-0.49178812,-0.32495636,0.18004394,-0.6193818,0.5573386,0.25071114,-0.85606813,-0.12200247,-0.1357915,-0.4192824,0.6485161,-0.95816433,-0.9644226,0.6592546,0.76747406,-0.33273548,-0.69308627,0.12963416,0.36023006,0.33519766,1.0529631,0.25940672,-0.8709435,0.51869905,-0.7465551,0.6864238,-0.8417727,0.46090037,0.28526512,-0.8460052,0.05224377,0.72437304,-0.2119169,0.2852188,0.29443404,-0.025569808,0.8784193,-0.5136125,-0.25307253,0.26593328,0.2478969,-0.51664615,-0.005016447,0.9379913,-0.8397662,-0.13982342,0.98319787,-0.4361788,0.6840394,-0.06706752,-0.95387155,1.1428704,0.9340992,-0.9299473,0.49460322,0.041831393,0.5243478,-0.72784483,-0.59689385,0.5911674,0.14982213,0.25373176,0.23480314,0.30344528,0.44725403,-0.7250174,0.42732513,-0.002947539,0.25330454,-0.24845551,0.46378073,0.18825974,0.572108,0.2569823,0.72593063,-0.36369446,-0.42491573,0.5579408,-0.9297218,-0.2508856,-0.17796616,-0.72831434,-0.12781852,0.23677713,-0.71266484,-0.9372785,-0.08566314,0.90178144,-0.32053286,0.063717395,-0.70855004,-0.92738086,-0.20093054,-0.11081791,-0.75444114,0.16496812,1.0623338,-0.93020093,-0.7364831,-0.23466794,0.33124748,-0.13042854,-0.605672,0.23912342,0.144162,0.5407356,0.23881058,-0.721639,0.6046413,0.7436001,-0.4953946,-0.5756208,0.8334779,0.3859133,0.8785962,-0.49182203,0.7433346,-0.6707247,-0.58729696,0.6106671,-0.7934398,0.76710826,-0.26271126,0.74753284,0.29348874,0.89417034,0.49210095,-0.20727824,0.83332604,-0.7405493,-0.24473189,0.29428747,-0.67143536,0.17342182,0.90269,-0.8754489,-0.0724235,-0.15779486,0.83773416,0.9498947,-0.06088738,-0.38492107,0.27752262,-0.5120275,0.66525143,0.011365864,-0.767814,0.8280312,0.3374599,-0.8363042,-0.14028892,0.41537473,-0.74570054,-0.34279537,-0.064096145,0.2867022,0.9058585,-0.33703113,0.84624577,0.841033,0.003842317,0.44212452,-0.6522249,0.48423913,-0.5891841,0.8908858,0.8252672,0.41303653,-0.5384055,-0.3997487,0.92363566,-0.7626441,1.087418,0.40694964,0.02665014,-0.47220922,-0.024942135,-0.11952092,0.58144575,0.4914595,-0.1329756,-0.8679705,-0.18276833,-0.7325254,0.8778481,-0.103612065,-0.77365994,0.4253757,0.23572806,-0.16970584,-0.52618307,0.25795993,-0.42545173,-0.055843964,0.009591432,-0.23152792,-0.47848538,-0.86683774,0.8309887,-0.10416796,-0.16814423,0.85297096,-0.94952655,0.5587531,-0.34685314,0.33875978,0.5766701,0.6756041,-0.3663477,-0.31171936,-0.30150083,0.35155922,0.2534329,0.76082516,0.8172432,0.33725888,-0.3698102,-0.07981801,0.4847171,0.4373761,-0.49626204,-0.43581042,-0.3463256,-0.11252357,0.9143389,-0.954944,0.14128746,-0.7727136,-0.05773312,-0.21271417,0.6325989,0.67217654,0.09920305,0.48628002,-0.4863323,0.56024754,-0.8022376,-0.71834785,1.0131465,0.18862109,-0.39153832,0.56176865,0.019405331,-0.18840632,-0.1325331,0.5284723,-0.90745676,-0.1623325,0.3348346,-0.0057478948,0.6856344,0.19585206,0.09552986,-0.4850914,0.9235535,0.73494554,0.42246994,-0.040382776,-0.655668,0.69383216,-0.6892266,-0.03938407,0.40517917,0.007898818,-0.8161864,0.12040857,0.23902753,-0.50819445,-0.088447146,-0.065431714,-0.033196494,1.0487659,-0.02911303,0.0056090415,-0.37659317,-0.091509044,0.9756392,0.40163702,-0.03225507,0.06639501,-0.24229033,0.8112147,0.2879947,0.6492919,-0.28929338,0.54509187,0.98885196,0.5500041,-0.25233606,-0.225886,-0.83159816,0.089029126,0.2648547,0.23876873,-0.7652074,0.13213983,-0.8021293,-0.02417386,0.16944273,-0.3107778,0.39631355,-0.86910564,0.74933904,0.04777508,-0.49568987,-0.4543455,0.57686925,-0.04668529,0.9732237,0.84525174,0.5981875,0.3352529,0.89810145,-0.6995227,1.0092013,0.00016994117,-0.23932265,-0.089453325,-0.45235285,-0.7780786,-0.85027224,0.16164288,0.07907768,0.25974566,0.19409749,0.9272564,-0.76730126,-0.36328778,0.13111705,-0.32161164,0.8540072,0.85113484,-0.862902,-0.80349296,0.59380966,0.36230963,1.0107676,-0.51697135,-1.0754647,-0.8971487,-0.5684498,-0.12823313,-0.20791912,0.73197144,-0.49884504,-0.79160106,-0.26236957,-0.5642789,-0.31339547,-0.16778427,0.022940004,0.8553787,-0.104515575,-0.7201281,-0.08219949,-0.6642673,0.64547014,-0.25394535,-0.8391847,0.21579187,-0.845785,-0.70208883,-0.8839772,-0.83169353,0.34302166,1.0030235,0.14630072,-0.8624493,0.4769968,0.586828,-0.5467484,-0.5764669,-0.6656697,-0.70226926,0.6000849,-0.7546474,-0.7832472,0.48116446,0.044185624,-0.76203614,0.6213424,-0.35664055,0.65997934,0.82765454,0.7355984,-0.084208965,0.2644687,-0.18132783,0.6764769,-0.82801366,0.48180586,0.70175505,0.48563412,-0.42344022,-0.8188967,0.0011345504,0.0168203,0.47810486,-0.7197574,0.06387144,-0.62850404,0.25171325,-0.69466037,0.75235367,-0.45261654,0.68053675,-0.36844468,-0.014603531,0.83844656,0.3974649,0.52856475,-0.8840548,-0.38040942,0.6204311,-0.69285595,0.7794975,-0.046065412,0.6268644,0.7925511,1.0036484,0.14102207,-0.17742057,-0.5309265,-0.9167027,0.6811772,-0.43315876,0.1932601,-0.49451163,-0.28709608,0.27917233,0.34759364,-0.45954317,-0.71072,0.00053094793,-0.16417332,0.8338673,-0.97252333,-0.52336556,0.6092992,0.012186461,-0.66174126,0.53423446,-0.603959,0.43094534,0.5570581,-0.6794323,-0.54419696,-0.22381288,-0.77463835,-0.620409,-0.12705864,-0.08701977,0.1287449,0.036656044,-0.8180516,-0.2493994,-0.3750111,-0.66872096,0.9960893,0.44669995,-0.67773384,-0.3250305,-0.16532555,-0.25171477,0.8326072,-0.3796986,-0.4103971,-0.562394,0.031667806,0.10967945,-0.28139675,-0.3074406,0.8756487,0.7739847,0.92694765,0.88914657,0.28219894,-0.21668851,0.29797888,0.47787163,0.90645075,0.26422855,0.4195052,0.6607809,0.2866555,-0.8811978,-0.82474774,-0.26628277,-0.20917866,0.956029,-0.14016801,0.80355114,0.36296254,-0.023318484,0.79108536,-0.6896843,-0.1028179,0.43482026,0.59432536,-0.39309776,0.07968722,0.56919605,-0.28576255,-0.5132159,-0.26136103,-0.117016636,0.14080551,0.5430527,-0.95617753,0.40705675,0.88257384,-0.6638914,0.9539487,0.043519657,0.44943368,-0.46089986,0.075222835,0.76288515,-0.98433715,-0.61693716,-0.32514483,0.37995726,-0.11244509,0.06790378,0.26290688,0.2616865,0.93274486,0.81122935,0.6211415,0.9704292,0.9344574,-0.54801184,-0.14060776,0.07006961,0.68171036,0.44361848,-0.49893722,0.24596643,-0.03457792,0.9384005,-0.4806802,0.70922315,-0.75518143,-0.30725566,-0.48663515,0.103778005,-0.16538839,-0.018359894,0.8473434,0.76560134,-0.3174714,0.6262266,-0.07051948,0.44981512,-0.74389565,-0.57999593,0.098168306,-0.30959174,0.17357454,0.45354584,0.7613078,0.6941098,-0.6561251,-0.71178675,-0.45145547,-0.09493325,-0.794099,0.558727,0.2679948,-0.14805928,-0.23016986,-0.3071716,0.7475205,0.19909051,-0.037818808,-0.5879863,0.8455517,-0.67180467,0.6692853,0.5485518,0.70766735,0.632973,-0.24801914,-0.67981607,-0.34745064,0.3265571,0.21803448,0.3256226,0.7918908,0.213138,0.7224259,0.5123646,0.026633589,0.25106287,-0.5038289,0.6551045,0.68947756,-0.7931131,0.21560188,0.60471475,1.0083416,-0.49283436,0.68436545,-0.44407016,0.03551207,-0.8065719,0.59943926,0.64018697,-0.7025616,0.1582243,0.70663005,-0.79662955,0.22112174,0.8776003,-0.6898243,-0.54975766,0.7248948,-0.6836319,0.33226654,0.10069315,0.74316967,-0.78477824,-0.104010075,-0.79440784,-0.8200294,-0.1800595,-0.86171854,0.5337211,0.7029908,0.43336585,0.04951808,0.012595329,0.26328763,0.3406229,0.35887426,0.16518132,0.09688995,0.71188235,0.023987804,-0.4047736,-0.4925458,0.58919865,0.44382173,-0.15666199,-0.9690417,0.6923779,0.24445741,0.23396446,0.3075115,0.37202728,-0.82008576,0.23128353,-0.38052988,0.24816352,0.78416073,0.34074476,0.8370242,0.55514824,0.8391367,-0.79453635,-0.6060484,0.0023922636,0.6044258,0.1765359,0.82786167,0.85946256,0.78353935,-0.79752195,0.774468,-0.51624966,-0.93884635,0.5087633,0.27532268,-0.58595383,0.44160685,0.3165003,-1.0052605,0.7435716,-0.7197967,-0.5064885,-0.25932032,-0.5081104,-0.2734946,-0.99624324,0.15400812,-0.26750144,-0.6961423,0.6833517,1.0639874,0.5346474,0.83491033,0.87589073,-0.118174545,-0.40900275,-0.8158279,-0.74140763,0.8190929,0.5493654,0.80245346,0.8640538,0.7289663,0.54764235,0.6879928,-0.59553814,-0.8882931,0.75276023,0.54278386,-0.95831984,-0.97963256,-0.47659975,-0.20090264,-0.6365212,-0.26602632,-0.9269535,-0.24487768,0.67781144,-0.42289293,-0.7116128,0.19992493,-0.07497582,-0.8936254,-0.7775939,0.1902903,-0.6198527,0.9778726,-0.46332553,-0.75701874,-0.8926304,0.1893292,0.1598366,-0.76874423,-0.8063913,-0.1602345,0.4337723,0.21604714,0.8016283,0.33753034,-0.3426584,0.44144523,0.25252274,0.56865937,0.78614354,-0.18198454,1.0058491,0.853566,-0.52158946,-0.2359235,-0.93245536,0.35425687,-0.028623031,-0.9058967,-0.51756227,0.24369477,-0.92140955,0.034446288,0.813331,0.19253443,0.33644986,0.20802653,-0.06674229,0.8628393,-0.6386961,-0.7274378,0.7115097,0.42224652,-0.099607445,-0.34933,0.66541314,-0.007165741,-0.9241453,0.8055088,0.20713072,-0.016396184,-0.22208445,-0.8682431,-0.991312,-0.071932696,0.3322628,0.5336275,0.04721895,-0.84232444,-1.037477,0.26165354,-0.42610568,0.7713549,-0.4891053,0.799582,0.13523655,0.5121191,-0.74098194,0.5026159,0.8087785,0.69513893,0.7112349,0.42555055,0.5981514,-0.77812046,0.64622355,-0.07845037,-0.10648973,-0.58916146,-0.5906757,0.010455137,-0.1337554,-0.057614256,-0.89360857,0.17950334,-0.63954806,0.027358616,0.119267374,0.3380649,0.10053318,-0.011353114,-0.26393458,0.4048667,-0.74750584,-0.39291528,0.23445833,0.8841564,0.2843182,-0.6579098,0.4193869,0.2584782,1.0490395,-0.73669726,0.2739998,-0.35089305,0.6403804,0.3882843,0.23208675,-0.32685274,-0.058745407,-0.4371403,0.59160185,0.32418007,0.43009073,-0.5536342,0.29819596,0.26438722,-0.85099846,-0.398593,-0.34933355,-0.64000547,0.20254324,0.61019725,-0.38636467,0.45488873,-0.75518,-0.70278996,-0.68449724,0.2790062,-0.22195657,0.7715406,0.72895586,0.06816874,0.77048403,0.80919325,-0.57365316,0.76657194,-0.99382734,0.089175105,0.26254365,-0.97225296,0.9521244,-0.50845844,-0.21155696,0.5832266,0.90474063,0.05227309,-0.6003171,0.7339663,0.6868185,-0.4910555,0.23830989,0.67159194,0.94260967,0.56682885,-0.70792526,0.8798998,0.19045576,-0.44557035,-0.15513763,-0.40303624,-0.58477443,-0.5081066,0.06801998,-0.69071513,0.036923297,-0.3277811,-1.0184872,-0.59924525,0.5502791,0.25582117,-0.6041328,0.9212585,0.7254777,-0.0943795,0.6148501,-0.24867329,-0.3571254,-0.09414165,-0.29954395,-0.97158027,-0.37005407,0.2182957,0.9019841,-0.23153932,-0.26355383,0.77567744,-0.69196707,-0.43352097,-0.831212,-0.12619495,-0.16155638,-0.017916398,-0.022715775,0.40266746,-0.3700822,-0.08433769,0.8947588,-0.9381633,-0.37022102,0.5753441,-0.7840779,0.1016404,0.44469848,-0.4533416,0.3774408,0.9511164,0.12779178,0.6848192,0.5750309,-0.91815645,-0.41492864,-0.8400149,-0.8283955,0.43848607,0.13002194,-0.16412061,-0.9065086,0.005989485,0.9443163,-0.25902876,-0.5268086,-0.5636222,0.25916162,0.15162775,-0.23960073,-1.0266292,-0.17284732,