{"SupervisedType":0,"MultiLayerPerceptronWrap":{"LayerWraps":[{"LayerType":5,"Dense":null,"Dropout":null,"Flatten":null,"Lstm":null,"MaxPool":null,"Conv":{"Shape":{"Height":28,"Width":28,"Depth":1},"Kernel":{"Count":16,"Dim":3},"Activation":1,"Stride":1,"Filters":[{"ElementsOneD":null,"ElementsTwoD":null,"ElementsThreeD":[[[0.089773215],[0.07557868],[0.14356034]],[[0.08991959],[0.1680879],[0.1654936]],[[0.15953416],[0.12836432],[0.11106035]]],"_shape":{"Height":3,"Width":3,"Depth":1},"Shape":{"Height":3,"Width":3,"Depth":1}},{"ElementsOneD":null,"ElementsTwoD":null,"ElementsThreeD":[[[0.1595602],[0.18005212],[0.11954739]],[[0.13785845],[0.15854627],[0.14847396]],[[0.15153287],[0.18779802],[0.16534358]]],"_shape":{"Height":3,"Width":3,"Depth":1},"Shape":{"Height":3,"Width":3,"Depth":1}},{"ElementsOneD":null,"ElementsTwoD":null,"ElementsThreeD":[[[0.15463525],[0.1537573],[0.10208049]],[[0.13665842],[0.12054222],[0.12180281]],[[0.18373068],[0.13843395],[0.15592933]]],"_shape":{"Height":3,"Width":3,"Depth":1},"Shape":{"Height":3,"Width":3,"Depth":1}},{"ElementsOneD":null,"ElementsTwoD":null,"ElementsThreeD":[[[0.15550631],[0.12808135],[0.13757737]],[[0.17721161],[0.14348572],[0.1607999]],[[0.1822611],[0.15081139],[0.18220039]]],"_shape":{"Height":3,"Width":3,"Depth":1},"Shape":{"Height":3,"Width":3,"Depth":1}},{"ElementsOneD":null,"ElementsTwoD":null,"ElementsThreeD":[[[0.16870481],[0.13672625],[0.15586448]],[[0.15689725],[0.18712921],[0.117540054]],[[0.14397138],[0.15573789],[0.19071902]]],"_shape":{"Height":3,"Width":3,"Depth":1},"Shape":{"Height":3,"Width":3,"Depth":1}},{"ElementsOneD":null,"ElementsTwoD":null,"ElementsThreeD":[[[0.15892042],[0.12726815],[0.17084056]],[[0.09302635],[0.10320715],[0.10964803]],[[0.0071580093],[-0.047595326],[0.03316888]]],"_shape":{"Height":3,"Width":3,"Depth":1},"Shape":{"Height":3,"Width":3,"Depth":1}},{"ElementsOneD":null,"ElementsTwoD":null,"ElementsThreeD":[[[0.18224153],[0.16873585],[0.12891436]],[[0.1348324],[0.13345744],[0.08733997]],[[0.11932695],[0.09837874],[0.07871153]]],"_shape":{"Height":3,"Width":3,"Depth":1},"Shape":{"Height":3,"Width":3,"Depth":1}},{"ElementsOneD":null,"ElementsTwoD":null,"ElementsThreeD":[[[0.15282385],[0.11589784],[0.17104171]],[[0.16644932],[0.16449782],[0.10618551]],[[0.15269415],[0.12847131],[0.14818156]]],"_shape":{"Height":3,"Width":3,"Depth":1},"Shape":{"Height":3,"Width":3,"Depth":1}},{"ElementsOneD":null,"ElementsTwoD":null,"ElementsThreeD":[[[0.10691768],[0.14486533],[0.08837271]],[[0.16411602],[0.16598986],[0.11451039]],[[0.11639787],[0.16086471],[0.16186062]]],"_shape":{"Height":3,"Width":3,"Depth":1},"Shape":{"Height":3,"Width":3,"Depth":1}},{"ElementsOneD":null,"ElementsTwoD":null,"ElementsThreeD":[[[0.12818168],[0.18954535],[0.16212425]],[[0.16456941],[0.18599035],[0.12832649]],[[0.15033478],[0.1519776],[0.17703824]]],"_shape":{"Height":3,"Width":3,"Depth":1},"Shape":{"Height":3,"Width":3,"Depth":1}},{"ElementsOneD":null,"ElementsTwoD":null,"ElementsThreeD":[[[0.13316627],[0.17359304],[0.1712117]],[[0.16892597],[0.14693473],[0.18707474]],[[0.1160091],[0.16688086],[0.17288524]]],"_shape":{"Height":3,"Width":3,"Depth":1},"Shape":{"Height":3,"Width":3,"Depth":1}},{"ElementsOneD":null,"ElementsTwoD":null,"ElementsThreeD":[[[0.14250138],[0.15567699],[0.06432521]],[[0.17622308],[0.115557306],[0.12095689]],[[0.12856385],[0.14184433],[0.074881196]]],"_shape":{"Height":3,"Width":3,"Depth":1},"Shape":{"Height":3,"Width":3,"Depth":1}},{"ElementsOneD":null,"ElementsTwoD":null,"ElementsThreeD":[[[0.12159817],[0.11664851],[0.12165249]],[[0.14564227],[0.08294044],[0.10849538]],[[0.103065945],[0.08720531],[0.060950976]]],"_shape":{"Height":3,"Width":3,"Depth":1},"Shape":{"Height":3,"Width":3,"Depth":1}},{"ElementsOneD":null,"ElementsTwoD":null,"ElementsThreeD":[[[0.18807648],[0.10675657],[0.07694362]],[[0.118491314],[0.16894338],[0.11820434]],[[0.13189456],[0.1663185],[0.12677538]]],"_shape":{"Height":3,"Width":3,"Depth":1},"Shape":{"Height":3,"Width":3,"Depth":1}},{"ElementsOneD":null,"ElementsTwoD":null,"ElementsThreeD":[[[0.12351755],[0.085809976],[0.06530453]],[[0.117703296],[0.16944648],[0.12453636]],[[0.1462906],[0.17548193],[0.113517396]]],"_shape":{"Height":3,"Width":3,"Depth":1},"Shape":{"Height":3,"Width":3,"Depth":1}},{"ElementsOneD":null,"ElementsTwoD":null,"ElementsThreeD":[[[0.09565806],[0.10561605],[0.10501485]],[[0.012947949],[-0.015984744],[0.048321586]],[[-0.09405718],[-0.029388286],[-0.006483905]]],"_shape":{"Height":3,"Width":3,"Depth":1},"Shape":{"Height":3,"Width":3,"Depth":1}}],"FilterGradients":[{"ElementsOneD":null,"ElementsTwoD":null,"ElementsThreeD":[[[0.0],[0.0],[0.0]],[[0.0],[0.0],[0.0]],[[0.0],[0.0],[0.0]]],"_shape":{"Height":3,"Width":3,"Depth":1},"Shape":{"Height":3,"Width":3,"Depth":1}},{"ElementsOneD":null,"ElementsTwoD":null,"ElementsThreeD":[[[0.0],[0.0],[0.0]],[[0.0],[0.0],[0.0]],[[0.0],[0.0],[0.0]]],"_shape":{"Height":3,"Width":3,"Depth":1},"Shape":{"Height":3,"Width":3,"Depth":1}},{"ElementsOneD":null,"ElementsTwoD":null,"ElementsThreeD":[[[0.0],[0.0],[0.0]],[[0.0],[0.0],[0.0]],[[0.0],[0.0],[0.0]]],"_shape":{"Height":3,"Width":3,"Depth":1},"Shape":{"Height":3,"Width":3,"Depth":1}},{"ElementsOneD":null,"ElementsTwoD":null,"ElementsThreeD":[[[0.0],[0.0],[0.0]],[[0.0],[0.0],[0.0]],[[0.0],[0.0],[0.0]]],"_shape":{"Height":3,"Width":3,"Depth":1},"Shape":{"Height":3,"Width":3,"Depth":1}},{"ElementsOneD":null,"ElementsTwoD":null,"ElementsThreeD":[[[0.0],[0.0],[0.0]],[[0.0],[0.0],[0.0]],[[0.0],[0.0],[0.0]]],"_shape":{"Height":3,"Width":3,"Depth":1},"Shape":{"Height":3,"Width":3,"Depth":1}},{"ElementsOneD":null,"ElementsTwoD":null,"ElementsThreeD":[[[0.0],[0.0],[0.0]],[[0.0],[0.0],[0.0]],[[0.0],[0.0],[0.0]]],"_shape":{"Height":3,"Width":3,"Depth":1},"Shape":{"Height":3,"Width":3,"Depth":1}},{"ElementsOneD":null,"ElementsTwoD":null,"ElementsThreeD":[[[0.0],[0.0],[0.0]],[[0.0],[0.0],[0.0]],[[0.0],[0.0],[0.0]]],"_shape":{"Height":3,"Width":3,"Depth":1},"Shape":{"Height":3,"Width":3,"Depth":1}},{"ElementsOneD":null,"ElementsTwoD":null,"ElementsThreeD":[[[0.0],[0.0],[0.0]],[[0.0],[0.0],[0.0]],[[0.0],[0.0],[0.0]]],"_shape":{"Height":3,"Width":3,"Depth":1},"Shape":{"Height":3,"Width":3,"Depth":1}},{"ElementsOneD":null,"ElementsTwoD":null,"ElementsThreeD":[[[0.0],[0.0],[0.0]],[[0.0],[0.0],[0.0]],[[0.0],[0.0],[0.0]]],"_shape":{"Height":3,"Width":3,"Depth":1},"Shape":{"Height":3,"Width":3,"Depth":1}},{"ElementsOneD":null,"ElementsTwoD":null,"ElementsThreeD":[[[0.0],[0.0],[0.0]],[[0.0],[0.0],[0.0]],[[0.0],[0.0],[0.0]]],"_shape":{"Height":3,"Width":3,"Depth":1},"Shape":{"Height":3,"Width":3,"Depth":1}},{"ElementsOneD":null,"ElementsTwoD":null,"ElementsThreeD":[[[0.0],[0.0],[0.0]],[[0.0],[0.0],[0.0]],[[0.0],[0.0],[0.0]]],"_shape":{"Height":3,"Width":3,"Depth":1},"Shape":{"Height":3,"Width":3,"Depth":1}},{"ElementsOneD":null,"ElementsTwoD":null,"ElementsThreeD":[[[0.0],[0.0],[0.0]],[[0.0],[0.0],[0.0]],[[0.0],[0.0],[0.0]]],"_shape":{"Height":3,"Width":3,"Depth":1},"Shape":{"Height":3,"Width":3,"Depth":1}},{"ElementsOneD":null,"ElementsTwoD":null,"ElementsThreeD":[[[0.0],[0.0],[0.0]],[[0.0],[0.0],[0.0]],[[0.0],[0.0],[0.0]]],"_shape":{"Height":3,"Width":3,"Depth":1},"Shape":{"Height":3,"Width":3,"Depth":1}},{"ElementsOneD":null,"ElementsTwoD":null,"ElementsThreeD":[[[0.0],[0.0],[0.0]],[[0.0],[0.0],[0.0]],[[0.0],[0.0],[0.0]]],"_shape":{"Height":3,"Width":3,"Depth":1},"Shape":{"Height":3,"Width":3,"Depth":1}},{"ElementsOneD":null,"ElementsTwoD":null,"ElementsThreeD":[[[0.0],[0.0],[0.0]],[[0.0],[0.0],[0.0]],[[0.0],[0.0],[0.0]]],"_shape":{"Height":3,"Width":3,"Depth":1},"Shape":{"Height":3,"Width":3,"Depth":1}},{"ElementsOneD":null,"ElementsTwoD":null,"ElementsThreeD":[[[0.0],[0.0],[0.0]],[[0.0],[0.0],[0.0]],[[0.0],[0.0],[0.0]]],"_shape":{"Height":3,"Width":3,"Depth":1},"Shape":{"Height":3,"Width":3,"Depth":1}}],"Bias":{"ElementsOneD":[0.0007566053,0.0007566055,0.0007566055,0.0007566054,0.0007566054,0.0007566054,-0.0007566044,0.00075660547,0.00075660547,0.0007566055,0.0007566055,-0.0007566054,-0.00075660547,0.0007566055,0.0007566055,0.00075660547],"ElementsTwoD":null,"ElementsThreeD":null,"_shape":{"Height":16,"Width":0,"Depth":0},"Shape":{"Height":16,"Width":0,"Depth":0}},"BiasGradients":{"ElementsOneD":[0.0,0.0,0.0,0.0,0.0,0.0,0.0,0.0,0.0,0.0,0.0,0.0,0.0,0.0,0.0,0.0],"ElementsTwoD":null,"ElementsThreeD":null,"_shape":{"Height":16,"Width":0,"Depth":0},"Shape":{"Height":16,"Width":0,"Depth":0}}}},{"LayerType":4,"Dense":null,"Dropout":null,"Flatten":null,"Lstm":null,"MaxPool":{"Shape":{"Height":28,"Width":28,"Depth":16},"Kernel":{"Count":16,"Dim":3},"Stride":2},"Conv":null},{"LayerType":2,"Dense":null,"Dropout":null,"Flatten":{"Shape":{"Height":13,"Width":13,"Depth":16}},"Lstm":null,"MaxPool":null,"Conv":null},{"LayerType":0,"Dense":{"Activation":0,"Shape":{"Height":2704,"Width":64,"Depth":0},"Weights":{"ElementsOneD":null,"ElementsTwoD":[[0.2620722,0.2842801,-0.28571475,-0.074966185,0.6069763,-0.51890624,0.5611183,0.66241574,-0.13441363,-0.6499467,-0.252407,0.4424104,-0.72945124,-0.03620364,0.013315711,-0.32294473,-0.44471338,0.7240447,0.098248936,-0.5642853,0.82187057,0.1587473,0.21291111,-0.7406413,0.42670447,0.626334,-0.046215333,-0.30149308,0.3990732,0.6946267,-0.8630514,0.9233849,0.031323627,0.2345319,-0.69751734,-0.8917978,0.16796385,0.4741745,-0.9391798,0.4021757,-0.37473553,-0.20167246,-0.691738,-0.023415424,0.98545355,-0.17178047,0.8609195,-0.52506715,-0.54046386,-0.7282173,-0.11413457,0.2679101,0.8107747,0.28206575,0.5639848,-0.595101,-0.8482788,0.011359816,-0.10963652,0.22499956,-0.757215,0.21264383,0.17254366,-0.863085,0.16523564,0.14326595,-0.9928634,-0.0065937946,0.39825946,-0.5698532,-0.65986353,0.3026446,0.0005446276,0.09233299,0.19104189,-0.37059936,-0.8218481,0.9605681,0.30984017,-0.602162,0.71728253,0.19301562,-0.7025899,-0.3102025,0.20949736,-0.44359514,-0.63438684,-0.81702554,-0.33136505,-0.75824094,-0.7818351,-0.46458733,-0.6467519,-0.91612494,0.56654805,0.6294085,0.008362702,-0.5805309,-0.44490406,0.36344862,0.7483235,0.041007366,-0.84572875,-0.43202952,0.8658008,0.40472147,-0.82914233,-0.52067226,0.79296637,0.35175538,-0.83346206,0.69942015,0.31379294,0.4723433,-0.96208775,-0.98617285,-0.27058446,-0.24533856,-0.59721947,-0.58361614,-0.21949676,0.8463968,0.81076616,0.16449744,0.13810614,0.79663587,0.914156,-0.68829215,0.7067741,-0.36207968,0.13224445,-0.49214888,-0.61763346,-0.62232214,-0.4823857,0.8659659,-0.9204074,0.09012653,0.98438656,-0.6050517,0.381738,0.5463674,0.21163136,0.56392133,-0.8176111,0.22003318,0.309643,-0.8543571,0.4585662,0.89036787,-0.14871582,0.21780129,0.61894435,0.5383997,0.57687414,0.36087623,-0.47931662,0.2993734,0.30268896,0.82945013,-0.03241583,-0.6805653,0.72847134,-0.1899937,0.89813846,0.34323093,0.8191445,-0.65616876,-0.36199114,0.91101795,-0.052770596,0.7395494,0.6246776,-0.62452465,0.9710894,-0.48582458,0.04561091,-0.056063607,-0.8444913,0.98973817,-0.45190808,-0.8274836,0.77951974,0.96469504,0.27898267,-0.91181314,-0.45271057,0.8594288,-0.24031582,-0.9141486,0.25799552,0.7595229,-0.34743345,0.5789133,-0.27337426,0.038407728,0.68563855,0.49705714,-0.4229016,0.6052473,-0.10141353,0.79998255,-0.89148426,-0.74779415,0.48904577,-0.38306925,-0.19799781,0.7872145,0.6906358,0.88563895,0.9673403,-0.17132325,-0.17922397,0.57489717,-0.08193899,-0.8001042,-0.16161363,0.53588206,-0.1864147,-0.2360938,0.43162498,0.48100352,-0.7768704,0.76897615,-0.989129,-0.62933636,-0.6496155,-0.20715076,0.046415363,0.94759566,0.6342277,-0.36317438,-0.592844,-0.7523537,-0.66144174,0.13004372,-0.6657754,0.92282045,0.975951,-0.28236422,0.1830189,0.1461941,0.68345755,0.3633043,0.29204205,0.21753807,-0.8102378,0.7887809,0.51885635,0.048918728,-0.8327631,0.5618508,0.16973728,-0.8977973,0.034725755,-0.16094832,-0.8733747,-0.7163665,0.30622664,0.80782175,-0.7068425,-0.8452321,-0.6086768,0.063630216,-0.53088266,-0.13619772,-0.96953565,0.28576276,-0.312303,0.34604993,-0.7762598,0.36864665,-0.2996879,-0.3161066,-0.44696137,-0.015695618,-0.7750483,0.3757788,-0.031993765,0.15458576,-0.42153394,0.63612264,0.24916115,-0.20865586,-0.36018223,0.9052054,0.39000398,0.042460404,-0.95286465,-0.5153254,-0.6066619,-0.07712714,0.07029963,-0.61086124,0.69372606,0.686016,0.8119638,0.14640456,0.7497691,-0.5334912,0.21059771,-0.4957541,0.4416831,-0.38451815,0.46318567,0.5600433,0.869256,-0.87808055,0.60475034,0.6964659,0.83244306,-0.13884248,-0.53111744,-0.14187932,-0.47729903,-0.44924274,-0.38933954,0.6779599,-0.27080917,-0.3018949,-0.23951416,0.66107845,0.69939613,-0.7032656,0.46448997,0.3484051,0.270859,-0.021646455,-0.6855446,-0.41475183,-0.8051295,-0.14944386,-0.49250278,-0.9600901,-0.14012747,0.42073533,-0.35874256,0.37804797,-0.8980935,-0.2361375,-0.6258075,0.8750965,0.8449977,-0.45930547,0.60978377,-0.9648657,0.8184676,-0.9195448,0.87615204,-0.049224634,0.8754833,-0.9396279,0.08129603,-0.052262273,0.19177236,-0.932547,0.64010364,0.2933816,-0.8833028,-0.9781029,0.57061374,-0.39692983,0.71082693,-0.92643857,0.41877148,-0.065346494,-0.48085824,-0.7959339,-0.76068515,-0.9811245,0.13067135,0.5594112,0.3015389,1.0481586,0.7543964,0.7094707,0.8873108,0.756362,-0.8524157,0.1427127,0.49101785,0.15314291,0.7776727,-0.71751875,-0.8322935,0.14387111,-0.74820614,0.9067052,-0.65398914,-0.6517496,-0.6616347,-0.022012841,0.88087493,-0.4466005,0.12582158,-0.9002868,-0.9306959,-0.9027406,0.18845782,0.77491295,0.62872297,0.8688092,-0.5934878,0.8146213,-0.29416528,-0.111691475,-0.18619318,1.01124,-0.27480406,0.6181647,-0.31172964,-0.46671858,-0.84081745,-0.27063885,0.0794301,0.9894322,0.14333457,0.6045495,-0.2878722,-0.8659697,-0.31528103,-0.9658132,-0.96261215,0.2570533,0.97753054,0.36941898,-0.16845426,-0.9495772,0.4150645,-0.096257076,-0.07734097,-0.75622475,-0.5356029,-0.88134986,-0.27407488,-0.8446563,-0.03875625,-0.53008425,-0.4337442,-0.04087054,-0.77185243,-0.32215425,0.4076932,-0.443075,0.9139602,0.49184552,0.8446525,-0.4271542,-0.625215,-0.7330283,-0.19548008,0.85483944,0.5845071,0.9589748,-0.81227696,-0.7406719,-0.25713527,-0.9997173,-0.7103851,0.5861468,-0.47019976,0.6142507,0.40760633,0.45834634,-0.5260044,-0.36154422,0.75310844,0.3751373,0.38961208,-0.3458771,0.7371218,-0.3325895,0.76936305,0.16978152,0.67617756,-0.5927637,-0.18280037,0.6312115,0.5339616,-0.80956256,0.77279973,0.45769837,0.25972044,-0.74502957,-0.97030705,-0.42775378,-0.41940874,0.064203665,0.672562,0.72863734,-0.94600695,0.22866865,-0.3227256,-0.6617952,0.24176586,-0.7900894,0.6737014,-0.09473141,0.8258275,0.6931395,-0.22624803,-0.41552064,0.52904683,-0.3937216,-0.60188466,-0.8817948,-0.17434558,0.358976,-0.5272321,0.6305869,-0.21855068,0.374812,-0.31250855,-0.7654911,-0.9429337,0.43380585,-0.65869564,0.11500473,0.24867713,-0.0013359986,0.1056247,0.23844859,-0.62899405,-0.48596102,-0.24424498,-0.47287136,-0.297401,0.46527517,0.28888562,-0.7119424,-0.56192744,0.70166427,-0.37088367,0.8163514,0.8119889,0.8305791,0.9513922,0.1479059,0.5409565,0.7174077,-0.42449653,1.0024991,0.16872351,0.4468628,-0.9775869,-0.29125375,-0.33158785,0.34127185,-1.0350934,-0.84029734,0.4862267,-0.35360876,-0.0073915413,0.52122927,-0.30277473,0.22403161,0.54954046,-0.7448133,0.20032011,0.44411498,-0.30549285,-0.6521606,-1.0270269,-0.4863552,0.29986027,0.72772056,-0.3070593,-1.0730312,0.1739068,0.38630858,-0.035253234,0.12571113,0.50829303,0.06166442,-0.9565457,0.45907456,-0.54327404,-1.00868,0.92691773,-5.518744E-05,-0.01944677,-0.8650676,0.011719674,0.087949246,-0.47392407,-0.7843923,0.25926167,0.46486816,0.115232736,-0.05060203,-0.86302364,-0.37176293,0.87360007,-0.6639639,-0.21786945,0.65723383,0.3102388,0.68862194,0.36066642,-0.82418114,0.39864734,0.86407954,0.7287881,-0.7925434,-0.7777019,-0.6364549,-0.1730911,-0.56339574,0.20764779,-0.16887738,0.9876671,-0.120425455,0.583156,0.2951955,-0.28403184,0.48287302,0.541344,-0.47895637,-0.71445,-0.9062341,0.0682671,0.60896176,0.25171745,-0.0656238,-0.48532835,-0.07405559,-0.72825044,-0.8001945,0.27561238,-0.6466964,-0.90189946,0.014357954,0.5329718,0.46664807,-0.33859193,-0.2757865,-0.2535858,0.21717301,-0.42691255,0.74001473,0.8163279,0.07306982,0.07234944,0.5348559,-0.94435483,0.4818171,-0.62823725,-0.0071756267,-0.2882654,0.9032297,0.2586206,0.7117693,-0.47052333,-0.6130176,0.2516738,-0.4543706,0.62263304,0.2948375,-0.39268544,-0.13580212,0.71215737,-0.27391782,-0.009735031,0.22559945,0.16005173,-0.17333716,-0.9757712,0.009832892,0.32414585,-0.5132597,-0.87540096,0.71884215,-0.26164845,-0.19185801,0.4500052,-0.5482121,-0.30165645,-0.6285853,-0.7544283,-0.55437213,0.3566043,-0.58319885,0.6798608,-0.3315619,0.36104426,0.9608763,0.8377497,0.5644445,0.57456416,-0.96204203,0.0050963257,-0.4268713,-0.15537083,-0.8961698,-0.6820009,0.89200395,-0.8333107,-0.7408847,0.54597384,-0.63841313,-0.3201712,-0.10310188,0.9348553,0.8344292,0.7518971,-0.42366257,-0.8238874,-0.45677269,-0.7292231,0.4243782,0.7549096,0.45064864,-0.84428436,0.4795657,-0.6623373,-0.07602142,-0.53949654,-0.24798298,-0.49839434,-0.8203226,0.2886208,-0.23534785,0.1121232,0.36684564,0.06775457,-0.45032242,-0.07173494,-0.7050219,-0.14297332,0.7261975,-0.5566946,0.74217814,-0.93487215,0.0807521,-0.5894734,0.9217928,0.6801891,0.28443936,0.75153726,0.3838747,-0.9556814,-0.58633715,-0.7879466,0.81095684,0.28678438,-0.34075192,-0.078245945,0.12068531,-0.665913,0.35201457,0.9295557,0.103006326,0.101674244,-0.6693382,0.33129266,-0.3478278,0.40733564,0.2258457,-0.78744924,-0.8809038,-0.23885328,0.33147392,0.781445,0.8250708,0.7738085,-0.53440833,0.8922089,0.51703334,-0.016766515,0.45066124,-0.42340612,0.14493261,-0.34371027,-1.0672781,-0.11882667,-0.8976547,-0.14560972,0.41800362,0.4543292,0.628749,0.79222375,0.14309567,0.90708005,0.39675432,0.31730965,0.17479055,0.8390165,-0.28258333,0.37269184,-0.4312331,-1.0494403,0.6856632,0.11461651,-0.8506177,0.46997115,-0.86227643,-0.46373698,-0.8640943,-1.0039685,0.14317048,0.78353125,0.7521488,0.84760576,0.3090988,-0.8721367,-0.11973381,-0.7902002,-0.93356264,0.24104685,-0.8152001,0.2160118,0.7717706,0.7782441,0.9174005,0.8421746,-0.4018605,-0.40683183,-0.060843047,-0.3711319,0.3029784,-0.8399955,-0.30185744,0.71029717,-0.38839826,-0.9624665,-0.6572574,0.6457204,-0.48379704,-0.33878687,-0.18579645,0.18187942,0.5139246,-0.40482575,-0.41360205,0.6467035,-0.21155195,0.45126173,-0.64629376,-0.2683676,-0.022192838,-0.1578663,0.45494816,-0.48599547,-0.172707,0.15277974,0.85811496,-0.7236661,-0.8071607,0.6395553,0.14862594,0.40695637,-0.73992735,-0.8025361,0.7740584,-0.6654649,0.6341093,-0.04735078,0.5329383,0.6110781,-0.6905445,-0.6862471,0.1850205,0.37663183,-0.63140017,-0.461318,0.1686033,0.8710861,0.87930787,0.7436444,0.48140854,0.87622994,-0.8062249,-0.6500177,0.7335573,0.79660255,-0.36921838,-0.51265085,0.70032746,-0.6474148,0.74887913,0.87930214,-0.40088797,-0.6907536,0.39837697,-0.8866643,-0.55258095,-0.083652064,0.9460071,0.50662494,-0.60447574,-0.26981828,-0.18093853,-0.6706141,0.22317871,0.31750333,0.22658795,-0.15147473,0.31292897,0.48202327,0.4058907,-0.18649542,0.6741831,0.37447658,0.85039943,-0.6934921,-0.47652772,-0.47319216,-0.71383125,-0.27397966,-0.52648705,-0.057090133,0.21065569,0.7383489,0.6296942,-0.16359499,-0.6646996,0.34068143,0.7896501,0.2829577,0.47468066,-0.62304634,-0.4473311,0.75215775,0.19836378,0.6727524,0.22607963,0.5167359,0.519968,-0.88448364,0.71029264,0.5474407,-0.0714972,0.41454583,-0.65150535,-0.4239869,0.9815332,0.49282527,-0.9626505,-0.6088723,0.3341686,0.6274215,0.4916042,-0.43468907,-0.80629903,-0.5179454,-0.6169694,0.23588449,0.65417045,-0.80987906,-0.36810946,0.15377288,1.011625,-0.27427214,0.29092526,-0.8406479,0.80376667,-0.72060174,0.85191697,-0.25586534,0.21489677,0.4261665,-0.8860371,0.045406394,0.3426214,-0.8926886,0.3482903,0.9814557,-0.8166447,-0.5164522,0.5743686,0.13090745,-0.69747984,-0.8129209,0.58071613,-0.30898458,0.6089075,0.6050794,0.48352152,-0.8809478,0.113755584,0.87137127,-0.3422599,0.6783589,-0.77517945,0.5627179,-0.44387951,0.49916327,0.6334573,0.9265769,0.5589354,-0.38017955,0.029035764,-0.29139817,-0.9228523,0.045238014,0.6547393,0.88322246,-0.7787344,0.14774403,-0.18692513,-0.034876894,-0.43559235,-0.2021738,0.8913907,-0.7192811,-0.67014503,0.20017122,0.15428083,-0.3249577,0.41613734,0.8523947,-0.10849318,0.73336816,-0.69179416,-0.8394882,-0.21759897,0.7297257,-1.0053093,0.03575229,0.5141229,-0.77979076,-0.33745018,-0.8766314,0.077354945,-0.08074075,-0.43605372,-0.12566757,-0.02285219,-0.050613265,0.35667056,0.97870296,-0.23296316,-0.10464904,0.31866524,0.38158855,0.5007736,-0.061574906,0.49674934,0.81254566,-0.3187036,0.6639504,0.29325855,0.4875117,-0.2908502,-0.32242742,0.9114473,0.5614034,1.0449933,-0.004161537,-0.7594473,0.33403623,-0.09109266,0.7131053,-0.8585602,0.9944395,0.36148253,0.32647505,0.79526657,-0.07601765,0.013764527,0.9576586,-0.19616503,-0.81422585,-0.15145184,-0.124381274,-0.14205025,0.7025358,0.81594414,0.67288893,0.6069888,-0.23052007,-0.7948164,-0.954791,0.9706125,0.82853127,0.65944594,-0.6360563,-0.31540474,0.27348816,-0.54848796,0.873416,1.0261567,-0.23935464,-0.9296503,-0.36642706,-0.23378105,0.39680377,0.21953203,0.12765667,0.58897233,0.74993414,-0.45905212,-0.1689534,0.8308442,1.0284338,0.0024112044,-0.8224581,0.07191521,0.64233685,0.14984724,1.0480912,0.3078005,0.7421216,-0.8432122,0.6404196,-0.6228647,0.18391421,-0.9409924,-0.4977147,0.019094622,0.4048482,0.5433372,0.8412218,0.43215808,0.22240067,-0.8951484,1.0029649,-0.6612831,-0.9081696,0.68875635,-0.45851973,-0.21615821,-0.2295509,0.11719681,-0.3100178,0.6222341,-0.44075578,-0.87442094,0.92510307,-0.5812335,0.2852765,0.8888883,-0.06281722,-0.6521394,-0.8626663,-0.89899355,0.40788162,0.09379068,0.51604086,0.5157605,0.1490974,0.9358028,-0.14380863,-0.7130161,-0.24786782,0.61931753,-0.44665918,-0.6840805,-0.69330424,0.6544521,-0.5601679,0.24296142,-0.42752755,0.06459039,0.65408766,-0.0050396007,-0.56119925,-0.5092049,-0.27753618,-0.09732092,-0.18795967,-0.4769947,0.86774206,0.18490627,-0.9777191,-0.6130264,0.35035345,-0.40664157,0.5725199,0.97072196,-0.5945639,0.2982875,-0.813138,0.18414389,0.22241989,0.8168646,0.0418206,0.7634109,0.58266807,0.06586066,0.32027036,-0.5846941,-0.6700194,0.1274035,-0.2433787,0.9490648,0.7715483,-0.49236584,0.17553723,-0.15035507,0.11887236,0.35403323,0.18210658,-0.4991222,0.47488818,0.6178246,-0.76467836,-0.76033723,0.05408268,0.74675983,0.90066284,0.8222312,0.8984313,0.85612607,-0.2574326,-0.37048313,-0.15855397,0.14141649,-0.58418626,-0.72403306,0.006793954,-0.9854475,-0.55926037,0.9230632,-0.81308913,-1.0119816,-0.27126184,0.32154232,-0.7124257,-0.5587609,0.75951636,0.05562998,-0.35570285,0.51847196,-0.8472916,0.49089554,0.6582965,0.3821765,0.07773433,0.9131092,0.8919588,0.5035295,0.85128313,-0.07496956,0.6286683,-0.13340701,0.5875868,0.3565373,-0.83727133,0.7408521,0.87699527,0.11332649,-0.18873364,-0.47770718,-0.6447629,-0.34214142,-0.47749507,0.9703046,0.043969203,0.5493446,0.59257174,0.35476148,0.2937489,-0.42749986,0.89968044,-0.065279014,0.32189345,-0.9364148,-0.8549911,-0.9080202,-0.91189253,0.64170325,0.307993,-0.60992163,-0.846383,-0.6904253,-0.8568423,0.14265797,0.21922559,-0.42436475,0.9569126,0.025441397,0.94810635,0.5033203,-0.7387363,-0.12527984,0.4630623,-0.7628398,0.18780072,-0.24497727,-0.36349574,0.13956088,0.85114044,-0.38913015,0.6114727,0.81025356,0.20095943,0.6537475,-0.9419223,0.06537088,-0.39958832,-0.23029356,0.77644163,0.3985594,0.3080731,0.76660395,-0.92252684,0.62583464,-0.86371666,-0.879143,0.32282495,0.3727555,-0.063742936,-0.7730875,0.3248777,-0.25383574,1.0703331,0.8361034,-0.8420377,0.34770975,-0.5794573,-0.2659656,-0.85156125,-0.8451001,0.94365925,-0.8181904,0.44153848,-0.979717,0.15561521,-0.29140168,0.4667051,-0.24436224,-0.61899805,0.8918448,-0.41044247,-0.8769827,-0.44959718,0.11796196,-0.42096928,-0.98783326,-0.24673001,0.8458929,0.42110467,-0.8088756,-0.8127522,-0.19637355,-0.15284456,-0.30317146,0.0769555,-0.3811969,0.15448333,0.24856158,0.41848218,-0.977648,-0.087522924,-0.6339584,-0.6610751,0.5695579,-0.027794288,-0.6200468,-0.5407307,0.27657127,-0.2959881,0.13124211,0.94940865,0.8660606,0.04023864,-0.39479402,0.75252193,0.89759475,-0.75164527,-0.3644538,-0.39533278,0.52787125,-0.33250493,0.2540713,-0.52917707,-0.014452611,0.9254635,-0.37663057,0.48584923,-0.80492663,-0.8496245,0.9955592,-0.71058416,-0.47296572,0.008278819,0.62971735,-0.6714122,1.0305101,0.37746578,-0.03658782,0.3235746,0.37917238,0.36781135,-0.24566811,-0.88557076,-0.73743063,-0.7474388,0.48543304,-0.83639145,-0.72770596,0.6388337,0.6762177,0.62160426,-0.5967593,-0.2588016,-0.431818,-0.32844484,0.7490772,-0.0048228437,0.98642844,0.3841175,0.45097002,-0.65407,-0.9211635,0.6208494,0.647404,0.15401271,-0.5325762,-0.12147101,0.8919768,0.42594433,-0.96968776,-0.43952143,0.3019671,-0.091742635,-0.421013,0.52801394,0.11157191,-0.084082164,-0.55956715,-0.88321054,0.2589941,0.44839695,0.69582254,-0.37688655,0.6459666,-0.24524538,0.3540813,0.9385834,0.4176896,0.33256227,0.49617764,0.579772,-0.082929194,-0.26546204,-0.4322313,0.6163728,0.27844965,-0.5284442,0.15500422,-0.26233512,-0.4026712,0.44144806,-0.46878126,-0.19023608,-0.56759137,0.49339125,0.27250114,0.9872498,0.9847208,-0.03376373,0.9772087,0.37901226,-0.25715378,-0.6811281,-0.41318086,-0.7331439,0.24065113,-0.23079543,0.6905091,0.2948702,0.42742264,0.723878,-0.73780745,-0.23328012,-0.5955314,0.8684096,-0.97813463,-0.18996587,0.6046385,0.387419,-0.10585952,0.6303163,0.5879039,0.8925528,0.11345187,0.7992889,-0.14121239,-0.18274371,-0.15389623,0.17033428,-0.757811,0.50416386,-0.7643678,-0.3924985,0.31823638,-0.78148574,0.15453728,0.5578355,0.976481,-0.8732204,-0.35864264,-0.180077,-0.49974212,0.9005459,-0.3838649,-0.6985607,-0.5085049,0.8679079,-0.2349883,-0.8162243,0.83429646,-0.086457595,-0.11190458,-0.25846437,0.02348207,0.82563007,0.43532696,-0.7352666,-0.26844263,-0.06995868,-0.48949602,0.34652543,-0.53633595,0.2761245,-0.7894946,-0.8184311,-0.033838272,0.52009904,0.52465385,0.65515846,-0.81433934,-0.4143734,0.9292829,-0.24261688,-0.3946421,-0.69200754,0.75343996,0.5686032,-0.083471455,-0.7263716,0.0904928,-0.77753085,-0.88246024,0.1710753,0.77766603,0.89660174,-0.55090725,0.64064914,-0.30506557,-0.27467218,0.4445275,1.0122823,0.98574024,0.5506558,0.74815726,-0.2103757,-0.2829033,-0.0048546763,0.35823065,0.7678843,-0.12047047,-0.32182765,0.01281581,1.0274792,0.29452688,0.8091414,0.6665754,-0.041430052,0.09154293,1.016944,0.5253765,0.90397996,-0.6474659,-0.6191295,0.12183117,-0.6332942,-0.53952885,-0.72992796,1.0058925,0.12586127,-0.29819718,-0.19608678,-0.75769377,-0.85071766,0.8404123,0.32014862,-0.855963,0.18920015,-0.5823365,-0.6213703,0.038724296,-0.03545574,0.31901702,-0.4031546,-0.8763928,0.7298795,0.26806143,0.06155205,-0.8827301,-0.055928223,0.5954848,-0.18835187,0.29247943,0.7385024,0.7878331,-0.8561467,0.20767769,-0.79750186,-0.3682706,0.84844106,0.5168265,-0.07927553,-0.52445775,0.01594269,-0.56882274,-0.3685295,-0.44217315,-0.11692818,0.48510814,0.3241211,-0.98064333,-0.8108463,0.09832958,0.3530016,-0.19893856,-0.5383321,0.65948033,0.25710025,-0.9231965,0.96805125,-0.3011121,0.84727657,-0.19743544,-0.29610038,-0.25082132,0.67662156,0.39909008,0.21939887,-0.46040896,-0.6181404,-0.5138152,-0.77396595,0.39769062,-0.8248587,0.5552694,-0.9235853,-0.5651535,0.9811669,0.14332871,0.3509343,-0.9461259,0.533583,0.2209972,0.87627345,-0.95948887,0.9934486,0.1528275,0.5542514,-0.20993792,0.5298755,-0.34939396,-0.0033658552,0.9294586,-0.24575253,0.9587496,-0.4323099,-0.22321025,-0.17123584,0.09646356,-0.07556696,0.18718556,-0.9055704,-0.9361642,-0.14018175,-0.6512362,-0.7897806,0.14310877,-0.08380399,-0.15176764,-0.3503801,-0.76933706,-0.36351272,0.04144128,-0.4632998,0.65065646,0.8418285,0.17638987,-0.42287537,0.88186085,-0.8005802,0.21328853,0.60981095,0.15226369,0.75469923,0.12402269,0.8084616,-0.548299,-0.57044226,-0.8699015,0.6145713,-0.735057,0.7210905,-0.22601417,0.17215802,0.51924103,0.21387376,0.87338376,0.8081196,0.9863395,-0.30294436,0.13578118,-1.0511295,-0.07162451,0.97019017,-0.0657331,-0.78103435,0.034783304,0.83174556,0.68683267,-0.8277833,0.41229084,-0.24260898,-0.24722959,0.94974583,0.9601432,-0.13922404,0.3541139,0.73069,0.42128834,0.72583854,-0.27210286,0.17200786,-0.8209743,0.56762147,0.68370116,-0.48094797,0.6601009,-0.2200144,0.64708656,0.69545925,0.965037,0.912767,-0.6175689,0.7023703,0.61442614,0.72075295,0.44339833,0.9562516,0.85524243,-0.7333427,1.0515604,0.81043327,-0.6409383,-0.44866315,0.27592564,0.17350847,1.0100789,0.37392595,-0.26949918,-0.059799038,-0.16607127,0.15499325,-0.40593502,-0.27190772,-0.9225529,0.08130156,0.7447588,-0.1267326,1.0775489,-0.18694623,0.949594,-0.32459766,0.5135094,0.18069291,0.91251504,-0.108285725,-0.791921,-0.3826065,0.9209328,0.0063006356,-0.6715291,0.92719716,-0.88126534,-0.4658075,0.6151958,0.9586596,0.3499499,0.1381036,0.45905772,0.08911024,0.6545111,0.87944216,0.33426085,0.586056,0.349834,-0.6612677,0.7614233,-0.6438021,0.00036115956,0.2836374,0.3404041,0.33525658,0.6782325,0.063470416,-0.0061531356,0.63613355,-0.50206447,0.17654128,-0.5357667,-0.8104155,0.91692173,0.68213296,-0.6329064,0.5249068,0.60515344,0.81834984,0.62667453,-0.09454813,-0.17842513,-0.21351798,0.21057184,0.76295894,-0.9825336,0.6930556,0.15098679,-0.48525065,0.8007142,-0.67431587,0.7471262,-0.4356472,-0.3214585,0.06435001,0.31530827,0.63721466,-0.8649796,-0.6104889,-0.3587855,0.6439603,0.15113413,0.53628004,-0.034738794,-0.64176285,0.06818033,0.7931739,-0.3345043,0.7403729,-0.7500061,0.8290475,-0.14404379,-0.18394569,0.49699876,-0.54548687,-0.0858436,0.7312506,0.86433786,-0.21079019,-0.21776073,-0.9561311,-0.96231425,-0.31268647,-0.4472369,-0.6386353,0.048285026,0.9548133,1.0445448,0.19022216,-0.6094971,0.51784,-0.1812149,0.6974723,-0.4593513,-0.33843756,-0.32478917,-0.8965859,-0.83459306,0.1881122,0.99537265,-0.019106695,-0.16810015,0.30140832,-0.4175571,0.7893432,0.6024947,0.52451795,0.8860607,0.4368954,-0.7176414,0.3541416,0.6688153,-0.4584132,-0.8091991,0.17396857,-0.8277501,0.07267355,0.9001609,0.5222484,0.48354495,0.9542558,0.20995256,-0.4542362,0.37512168,-0.53025115,0.8257822,0.6566364,0.6064803,-0.2821331,-0.48406577,-0.37183636,-0.006806759,-0.10949814,0.59939057,-0.3618555,0.711414,-0.5929311,-0.7092349,0.5239519,-0.6574421,-0.8261641,-0.23310068,0.0109392,0.61174935,-0.29083723,-0.6792973,0.408249,-0.8501717,0.5417077,-0.6045282,-0.06617692,-0.69336814,0.4659132,-1.0839956,-0.1334817,-0.02736649,-0.8187027,0.58324236,0.68635535,0.24530596,0.79008675,-0.46474767,-0.07020282,-0.6854268,0.021500017,-0.37520692,-0.95706004,0.04692092,-0.51758313,-0.12429351,-0.47856137,0.5460643,0.03442748,-0.7628579,0.02483317,-0.82085544,-0.25950846,0.49255326,0.43241182,-0.6815969,-0.4620786,-0.2492938,-0.6197457,-0.6849679,-0.698983,-0.7955349,0.8842043,-0.11549532,0.20210603,-0.456175,-0.34013578,-0.6759835,0.9203207,-0.15746248,0.45424634,-0.24089211,-0.70486736,1.0447646,0.14539512,-0.55046135,0.9331042,0.61801976,-0.5749527,-0.12355591,0.25830415,-0.02847553,-0.9542289,0.7687002,0.37400466,-0.6733166,-0.700497,0.016285682,0.5342599,-0.58486044,0.13075224,-0.46512273,0.8041552,-0.19596662,-0.8730863,-0.25184524,0.44108704,-0.6086037,0.6930415,0.6515526,0.7834034,0.910672,-0.45115644,0.71323454,-0.6809029,0.747742,0.8899835,-0.030786276,0.040573154,-0.36815763,-0.9190309,-0.63899785,-0.39249092,0.7362573,-0.03179115,-0.8949295,-0.80599546,-0.8558149,0.71077275,-0.73114145,0.18148595,0.78957987,-0.6828422,-0.9900203,0.08316038,-0.7426905,0.7323948,0.69046485,-0.6357329,0.491645,0.9502648,0.38907775,0.2969491,0.2101242,0.28542194,0.4522167,-0.70173484,0.05113803,-0.92984337,0.15890513,-0.98990935,-0.7711914,-0.034492876,-0.33884555,-0.32432193,0.77634066,-0.4219286,0.42676413,0.5275728,-0.7598043,-0.0149340015,-1.0037849,0.3076476,0.3934432,-0.19762911,0.6882998,-0.58070207,-0.8851841,-0.043643586,-0.20896702,0.98784673,0.8971505,0.6365464,-0.034050044,-0.6170223,0.39203936,0.5817691,0.9372837,-0.3538232,0.95280075,0.4962479,0.9462864,0.33550197,0.68353593,-0.5906528,0.70432514,0.71875536,0.64400226,0.37961972,0.106118985,-0.06091662,0.088686705,-0.83281475,-0.09042822,0.6054365,0.60011685,-0.26830265,-0.7066126,0.63107336,-0.9673798,0.7980614,-0.27103603,-0.18843874,0.88829595,-0.75308555,0.1738801,-0.54814863,-0.15960273,0.97888416,0.22067067,0.21311936,0.26290196,-0.14208944,0.11527251,0.9930145,0.37584373,0.15060556,0.38895342,-0.09040188,-0.03344168,-0.92566574,-0.92937225,-0.28473687,-0.7167499,-0.04937237,0.12084998,-0.6865468,0.6209377,0.5599277,-0.102986895,0.71001893,0.48251867,0.06546593,0.30197093,-0.08890966,0.73939,-0.31711444,-0.22051346,-0.15316083,0.22223648,-0.99419725,-0.30503806,0.055387523,-0.44082254,-0.13958497,0.81501305,0.6128453,0.5011445,0.87647617,0.13350601,-0.4433478,0.53496873,0.5936084,0.21910846,0.46965617,-0.5411656,0.709963,-0.637701,0.35385054,-0.7000743,0.85925484,-0.66063476,-0.006942384,0.7329717,0.4576773,0.41620964,-0.8302569,-0.8376002,0.3969979,-0.32534507,-0.5411771,0.6832287,0.19154847,0.71463823,0.3052118,-0.4791591,-0.097425744,-0.026598357,-0.91499984,0.62269634,-0.46428537,-0.0642358,-0.18555844,0.47008646,-1.01758,-0.21089782,0.09550788,0.074212074,0.1571006,-0.49639174,0.36089355,-0.05748599,-0.40303162,0.7083122,0.6335093,-0.30317035,0.96863717,0.7180567,0.62685037,0.4482884,-0.1804971,-0.39080742,0.6903891,0.7665352,0.31012908,-0.8122347,-0.4877055,0.27567154,-0.15333407,-0.39341384,-0.12209656,-0.21783686,-0.58678424,0.927713,-0.4773116,-0.85429335,-0.5167895,-0.18593772,0.08816895,0.28670496,0.885856,0.104298204,-0.5717986,0.06224309,-0.89655477,0.5212287,-0.40987575,0.954998,0.114213526,0.96647424,-0.75297606,-0.7512355,-0.15362419,-0.4461481,0.35584244,-0.88781023,-0.97089326,0.72545016,0.22939381,0.5328388,0.20436879,0.9600947,-0.7194611,-0.04621713,0.9647347,0.8451669,0.75320035,-0.49382147,0.95626056,0.62763214,0.09126236,0.11414699,-0.30643204,-0.5953923,0.6628152,-0.23676653,-0.5507535,0.14732711,-0.20345601,0.025644701,-0.09833594,0.008422985,0.5369641,-0.16578603,-0.70832026,0.05487165,0.62163067,0.1775911,0.40686142,-0.66547203,-0.40572578,-0.43018046,0.5311676,-0.29692048,-0.85906976,0.53990155,0.08661208,-0.37460902,0.79628354,-0.30655932,-0.28793663,0.52815497,-0.50168705,-0.17013226,0.20182861,-0.8878073,-0.3648721,0.97681606,0.91352147,-0.7896546,0.28558534,0.9243181,0.940879,0.7219289,-0.5418414,-0.70372045,0.1855659,-0.5128551,-0.089502476,-0.0869328,0.42991534,0.12069607,-0.57976395,-0.93778235,-0.3701183,0.6885576,-0.19432376,0.9167772,0.5909989,-0.8632717,0.3638006,-0.21458544,0.11600475,0.4505232,0.9617049,-0.5544501,-0.6975625,-0.22782496,0.12059973,-0.07629604,0.04605194,0.61704135,-0.46717817,-0.33326235,0.3467119,-0.6877352,-0.54572743,0.040029384,0.6346259,-0.49702275,-0.45717472,-0.91712546,0.8777719,0.926352,0.33811593,0.43912408,0.4277933,-0.5699041,-0.43324548,0.026769813,-0.77995086,-0.2851427,-0.37801033,-0.23528498,0.5761164,-0.6204004,-0.68370426,0.24609461,-0.4265513,-0.17764392,-0.109713726,-0.021276373,-0.42122045,0.4602667,-0.705687,-0.6974024,0.70104724,-0.12731381,0.7701534,-0.8106293,0.096737236,-0.593783,0.12130915,-0.65912557,-0.5609176,0.5889535,0.42580268,0.32278544,-0.3035932,-0.9935201,-0.082770854,0.20417333,-0.051719025,-0.94087625,0.744257,0.41464016,0.43497878,-0.7009852,-0.5534994,0.4922978,-0.71536857,-0.88205034,-0.75391823,0.48069894,-0.41631424,-0.5036097,-0.85889095,-0.74182767,0.18815637,0.6623058,-0.13826337,-0.31705365,-1.0605277,0.52105004,0.5081886,-0.7417988,-0.88147634,-1.0628163,0.80895346,0.7431492,0.21588075,0.74406815,0.122662015,-0.0063080625,-0.20305926,0.92957443,0.8236679,-0.65681684,-0.5686218,-0.84286356,0.056846105,0.80946773,0.351694,0.22540751,-0.24789996,-0.15668584,0.7793641,-0.50091374,0.99478203,-0.4318409,0.8429409,-0.91843545,0.71413755,0.83166826,-0.02142289,-0.41766825,0.6039082,-0.7663069,0.034580063,0.43302345,0.538755,-0.4766913,-0.36158752,-0.85056347,-0.9148611,-0.6285377,-0.7740013,-0.9273394,-0.62568676,0.92852914,-0.37055433,0.7154963,-0.0008612039,-0.8143522,0.79312545,0.20791948,-0.755027,0.16443865,0.9532799,-0.67056465,0.2800586,-0.050606612,-0.4570691,0.085526705,0.534365,0.66067857,-0.05320746,-0.8034934,-0.50692534,-0.91241854,-0.10211717,0.48505145,-0.8919804,-0.5625612,-0.10639424,0.3784397,-0.8970284,-0.13816138,0.94797844,0.119876064,0.12272612,0.568426,-0.54986626,-0.2310193,-0.62588245,-0.673346,-0.5243796,0.6227826,0.8064959,0.8484262,0.18359111,0.23128279,0.5207989,0.84476393,0.603615,0.37850457,0.26912397,0.4149885,0.4541362,0.8926508,0.88952845,0.86767584,-0.52599055,-0.42342535,-0.23421095,-0.66693145,-0.45291355,-0.10725606,-0.65197724,0.05023608,0.9502643,0.9879184,0.69522065,0.79853725,0.86559576,1.026257,0.13660812,0.45857382,0.4071118,1.0238683,0.7695798,0.6598744,-0.56945324,0.7820882,0.6315118,-0.14383052,-0.7576321,0.22921726,0.023133922,0.5935131,0.1504369,-0.42211413,-0.12415287,0.38767314,0.380233,0.8694842,0.3025889,0.055979896,0.3285073,-0.52064526,-0.49991938,0.60934263,-0.6777094,-0.43605623,0.42093384,-0.50839496,0.7819775,-0.9098164,0.5085857,-0.7836317,-0.8390482,0.92463225,-0.50354683,0.8778068,-0.66546357,-0.75202394,-0.8373854,0.7633058,0.6630555,0.33512488,-0.6022083,0.7488022,0.15901491,0.1106873,-0.84963584,0.5417224,0.902751,-0.0853953,-0.6827365,0.29124498,0.76105267,0.7237516,0.7021325,0.5888022,0.16769095,0.73377013,-0.33214408,0.11527579,0.48846278,-0.010512874,-0.25336793,0.7029423,0.4876339,0.87735313,0.35928822,0.36759073,0.8564843,0.74643886,0.6536854,0.13972074,-0.63075715,0.49184158,0.12202802,-0.6797946,-0.80273885,0.3841969,0.21342014,-0.6508664,0.40906367,-0.52456063,0.13170238,-0.48181438,-0.23894338,-0.056583054,-0.9593751,0.2893747,-0.75088626,0.92956185,-0.067453004,0.4272977,0.5127055,0.30706215,-0.7497075,0.78820646,-0.32456502,-0.07528448,0.9439197,0.6624547,0.9838336,0.46454072,0.78977704,0.5390514,-0.14885536,0.35165203,0.8448128,0.768469,0.29336104,0.69381803,-0.88737124,-0.6964924,0.6392691,0.02771695,-0.2735907,0.13550888,-0.71656024,0.7402439,-0.6038663,0.37945515,0.4404751,-0.87627655,-0.4399779,0.21185267,-0.7707983,-0.4147868,-0.2779256,-0.16975088,-0.28240526,0.2049261,-0.14785859,-0.57471937,0.68995893,0.8420162,0.28950652,1.0277865,-0.7211396,0.118295684,-0.38736913,-0.34830567,-0.13751425,0.5822179,0.06975984,0.71309555,0.19180639,-0.49932244,0.20371488,-0.42250323,0.3834174,0.692522,0.9322933,-0.39125308,0.6587188,0.14186038,0.27640468,-0.4595027,-0.24287038,0.021882573,0.36677584,-0.8691251,-0.6874437,-0.8186623,-0.0020424817,0.038371768,-0.04614696,-0.72629106,0.05922045,-0.7688509,0.1892696,0.1356362,0.8315699,0.7253634,-0.9087283,0.5141052,-0.7195102,-0.84004563,-0.6255524,-0.7634094,0.8232084,0.97614044,-0.030173464,-0.9303092,-0.31490454,0.92994136,-0.43975052,-0.08407409,0.90212893,0.44895265,-0.32280514,0.4488427,0.03958948,-0.1682317,0.67271096,0.039066594,0.21843857,-0.071501866,0.8495378,0.54979664,0.85219574,0.9906417,0.5052401,0.2302422,-0.5586502,0.50994784,-0.6533086,-0.3653501,0.6583212,0.37095645,-0.3203003,-0.3449843,0.38675946,0.7925132],[-0.7654136,0.9610561,-0.106634244,-0.52484006,0.0038380965,0.21401669,0.92089075,-0.7576736,-0.47570258,0.3305051,-0.8526289,0.7956214,0.76497626,0.8839236,-0.8413014,0.742704,-0.395793,0.20563716,-0.60409474,0.059260443,0.50153834,0.93035346,-0.104213655,-0.8057528,-0.02989833,-0.15334839,-0.24956842,0.19309498,-0.04166991,0.23425509,0.62863994,0.35976005,0.9157543,0.9397131,-0.037394658,0.2714362,-0.29044428,0.3707718,0.58284706,0.6415076,0.7518117,0.9298604,-0.7837301,0.19857898,0.6763579,0.032755345,-1.003718,-0.9076121,0.7537116,0.5161371,-0.160089,0.9201885,-0.89584064,-0.9412755,0.7385229,-0.16299562,1.0218911,0.26111525,0.8757679,0.94516414,-0.7967441,-0.28921792,-0.7758301,0.17198963,0.6052943,0.48511606,1.0023656,-0.40634513,0.5286297,0.0071138255,0.66477734,0.046544306,0.8153295,0.68360263,0.21839882,0.41767696,-0.57447433,-0.23533566,-0.2594208,0.07024863,0.99691826,0.5564419,0.5293399,-0.2580949,0.45129067,0.8703169,-0.7625995,-0.6384151,-0.44155905,-0.35769752,0.51038635,0.26190662,-0.94597304,-0.42973116,-0.33498892,-0.5448274,-0.81152475,-0.5137248,-0.18178272,0.508672,0.34203368,-0.32488927,1.0010736,-0.20278049,-0.13051033,-0.30077425,-0.9317939,-0.20811188,-0.5122004,0.09248011,0.29784217,0.031058257,-0.9080676,0.91849697,-0.45150673,-0.5467528,0.34950033,0.028368233,-0.30336523,-0.40403095,0.2780025,-0.24591756,0.4251332,0.459903,0.36994743,0.39951992,-0.5390025,0.5297037,-0.78728205,0.73693854,0.3794574,0.39213112,0.78540134,0.57652545,-0.35560444,-0.6243385,-0.7006249,0.51754814,0.71278846,0.75980645,0.17533574,0.9074936,-0.12970355,0.97663194,0.38300353,0.6800392,0.090978175,-0.83292556,-0.7937831,-0.14656682,0.7216708,-0.38163254,0.6724498,-0.183965,0.8959178,0.4314012,-0.31748632,0.5579214,0.8063756,-0.7579669,-0.88527566,-0.91572136,-0.24706893,0.038759552,0.40617156,-0.4110586,-0.87010956,0.8398991,-0.60860693,-0.8685147,0.48261878,0.24731657,-0.4293523,0.85971296,0.3806045,-0.07395667,0.4089322,-0.47546467,-0.96041656,-0.5524657,0.655561,0.6539134,0.5437965,-0.95924306,-0.33791056,-0.05313837,-0.6171518,-0.038718723,-0.006466275,0.037113532,0.8993191,0.77688146,-0.83907646,0.17568465,0.62851256,0.52366817,0.22488394,-0.9822469,0.9434223,0.7323524,-0.7858604,-0.12786007,-0.5987294,0.30255508,-0.71953636,0.14366464,0.9347731,0.975558,0.39505047,0.45843023,-0.846007,0.370715,-0.58394754,0.24504413,-0.33009493,0.45843396,0.114312924,-0.22911434,-0.67807984,0.38855615,0.99554354,0.87009025,0.44119936,0.3099959,-0.24087566,-0.24431679,-0.65741825,0.91820097,-0.6955872,0.6830988,-0.5525798,-0.9507706,0.022713128,0.2402599,0.86529684,-0.70002514,0.65112054,-0.31655544,-0.8848617,-0.7880172,0.23076765,0.48953113,0.61422694,-0.402854,-0.70219064,-0.011431619,-0.50220305,-0.5518861,0.32565752,-0.76001513,-0.42082107,-0.23589733,-0.8361328,-0.61456007,0.38957173,0.8502902,0.93265635,-0.17195985,-0.5423696,0.09077211,-0.18860553,0.56429636,-0.6196575,-0.45488223,0.940862,0.48500085,0.72440743,0.3081757,-0.9324728,-0.32276908,0.541888,-0.33124974,-0.4931766,-0.8195243,0.46021748,-0.17285475,0.15075521,-0.66048586,0.56428295,-0.8551607,-0.27160832,-0.56760055,0.6314145,-0.6479625,-0.49721825,0.9217101,-0.6956424,0.4454783,-0.8177319,-0.32406518,0.62354255,-0.5878062,-0.05119622,0.09716266,0.42957488,0.79088557,-0.085003816,-0.67404777,-0.48179373,0.93743837,-0.0077010663,0.7129087,-0.0762404,-0.111087404,0.15442891,-0.06181102,-0.7345734,-0.054868594,0.1273925,0.18357317,-0.13123864,0.76610196,-0.5072473,-0.7665334,-0.38200095,0.38389698,0.07066932,-0.3395565,0.66962296,0.89931613,-0.5184518,0.9842703,0.050880212,0.25166172,0.31034333,-0.006484934,-0.07296054,-0.44064844,0.43992084,-0.92255694,0.7532562,0.9049281,-0.97956276,-0.8890603,0.75872964,-0.14383341,0.99652165,0.27520755,-0.7174339,-0.82823575,-0.58377427,-0.45290717,0.70294213,0.9867883,-0.57120496,0.7990734,0.73496115,-0.32875988,-0.470003,0.65386176,-0.36584055,0.15989676,-0.9105008,-0.040252715,-0.9113388,0.6278112,-0.52009284,-0.584169,0.5377861,0.01572237,0.43287328,-0.2984114,-0.18317239,0.46068305,-0.020124612,-0.10107163,0.16511248,0.09399657,0.722358,0.038336888,0.24362268,0.9294989,-0.44772407,-0.9822878,0.5461537,0.82551634,-1.0023698,0.5451196,0.3023155,0.8753362,-0.9824394,0.51855963,0.6924154,-0.85189205,-0.68523073,-0.66058135,-0.6929114,0.7025972,-0.5900789,-0.8430523,0.19620223,-0.56019855,-0.44579992,0.42486462,0.8610466,-0.65670127,-0.11163107,0.55591005,0.25861132,0.8053432,0.8474645,0.05273514,-0.6270924,0.064146906,0.5950369,0.8519569,-0.73540676,0.28127623,0.0030403414,0.92586696,0.12523082,-0.45106968,-0.50798076,-0.81681865,-0.03957628,-0.81502295,0.18549247,-0.13191162,0.6874985,-0.029187959,0.5240801,0.41882142,0.24145812,-0.791021,0.058058187,0.06527028,-0.66811603,-0.550351,-0.7040459,-0.09707445,-0.34773198,-0.5395889,0.83489394,1.0441575,-0.82159936,0.25799146,0.048973817,0.24666736,0.6168367,0.6078627,-0.23474008,-0.30871144,-0.518386,-0.8116658,-0.022312496,-0.67535716,-0.48944438,-0.14093708,0.39995274,-0.07266861,0.85178435,-0.01093941,0.46863255,0.068487056,0.23689821,-0.0819156,-0.36674157,0.7526842,-0.11853612,0.7911464,0.5504012,0.2251637,-0.21848063,-0.86251277,0.4938502,0.5045548,0.41090673,-0.026729498,0.31070116,-0.31470206,0.23160969,-0.22850013,0.14678387,0.18909068,-0.7339529,-0.30484712,-0.660095,0.7538125,-0.7565317,0.32590687,-0.7538984,0.71717024,0.9697624,0.28675294,-0.43601325,-0.73743844,0.55083483,-0.2797598,-0.05219744,1.040801,0.5930876,1.0311104,-0.4427177,0.051167987,0.99825656,-0.70941997,0.4606269,0.3299075,0.28117663,0.034200273,0.2868795,-0.862952,-0.0036679043,-0.09561223,-0.20427924,-0.9393893,0.89057404,0.78797865,-0.32213467,0.46320486,0.7439455,0.10641857,0.22276227,-0.41345072,-0.8712622,-0.376911,0.70690984,0.7909339,0.81886053,-0.23993528,0.4706623,-0.48222452,-0.62991405,0.36900747,0.70165515,-0.06024792,-0.12964241,0.2603834,-0.6512591,0.12860201,-0.87625736,0.035455406,0.5031244,-0.060182627,0.6632851,-0.44567788,0.49717593,-0.67392975,-0.8270399,0.6617603,-0.47139117,0.48726907,0.57688165,-0.29523408,0.3508049,-0.07444952,-0.21715933,-0.8583592,-0.91334647,-0.92170435,0.30038542,0.033612303,-0.38855025,-0.61391,-0.8537652,-0.9456289,-0.5672237,0.5573381,-0.89631194,-0.33874983,-0.8674378,0.3250937,-0.27454314,-0.18943839,-0.4144703,-0.122608215,-0.43378645,-0.9181456,-0.14555886,0.53144693,0.2892627,0.22178113,-0.82649577,-0.72994053,0.31578946,-0.13774069,-0.6902272,-0.47321612,-0.6290199,-0.34690475,0.6983697,-0.5480971,0.97050357,0.2884516,-0.51969314,0.06125407,-0.26292562,0.106875665,0.72027534,0.78433025,-0.39067224,-0.7561738,0.94141805,0.7948991,-0.050211523,-0.39785835,0.78159404,0.61541593,0.95290613,-0.5305282,0.14064984,-0.21214077,0.58830374,-0.29460782,0.32282227,0.7553348,-0.020475833,-0.969448,0.9307926,-0.014158456,-0.12930201,-0.88771665,0.84020543,-0.3297805,0.1959384,0.43253174,0.80370575,0.70745665,-0.77042824,0.7715416,-0.44960627,0.78067803,0.6207471,-0.20364547,-0.098219894,0.3065417,-0.6141468,0.781112,0.72376466,-0.09653164,-0.4742877,0.5887647,0.5485121,0.47589383,-0.57333994,0.022353413,0.45654783,0.45462605,0.21933858,0.11264562,-0.6266955,0.12713203,-0.2675488,0.8642477,-0.58026767,0.34340572,-0.70265955,0.5342346,-0.92617196,1.0000117,0.94870126,0.507168,-0.34451967,0.45747188,-0.66916853,-0.8011753,-0.82434773,0.47944966,0.66838264,0.512477,-0.5927145,0.98945796,-0.7529498,0.6851176,-0.08743467,-0.7559864,-0.20514342,0.16711633,-0.109226935,0.3775797,-0.36925402,-0.67947423,0.75604653,-0.8482214,-0.5740072,0.808075,-0.5817001,0.7205202,0.99679744,0.28997588,-0.66553015,-0.40293315,-0.41722634,-0.5076739,-0.34448633,0.17845277,-0.24903363,0.6666629,-0.73827326,-0.94716597,-0.6118593,0.7936254,0.90627867,-0.9201979,-0.49462572,0.5224397,-0.8568415,0.6299175,0.6285712,-0.10113649,0.4896928,0.30667984,0.41456386,-0.22295165,-0.07767336,0.08532215,-0.031430434,-0.17215891,0.37358335,-0.941211,-0.49883753,-0.1558617,-0.3229013,-0.34425592,-0.20136397,0.8978026,-0.83115613,-0.37581885,0.11458474,-0.7029397,0.5466214,0.121143885,0.33677033,0.049926963,0.2794279,-0.6603585,0.4657775,0.62215143,-0.17377658,0.54974824,0.7444724,0.4447553,0.55036527,-0.24087596,-0.2672621,0.75657505,0.8322721,-0.37960002,0.18854713,-0.19113061,0.76268363,-0.020422252,-0.8631438,-0.89719695,-0.76425695,-0.9109439,0.32924333,-0.26384848,0.7906466,0.9540524,0.72216165,0.079463206,-0.36551923,-0.62327707,0.71731037,0.58779794,0.5048289,-0.8606534,-0.058171123,-0.032619286,-0.47139907,0.9825046,0.86490697,0.039319325,-0.09732949,-0.93129015,-0.9538359,-0.56961167,-0.89924145,-0.8552429,-0.6253143,-0.033413514,-0.8755507,-1.0095636,-0.58729947,-0.5197677,-0.3628474,0.6735447,0.9035879,-0.0026998753,-0.4715371,-0.61438334,-0.23766136,-0.87940615,-0.9368214,0.6439992,-0.32591525,-0.93211305,-0.9365242,0.3965378,0.12374875,-0.0008923012,-0.18410634,0.039356526,0.8467101,0.11624672,-0.9038293,0.44962278,0.9661914,0.81161326,0.8410706,-1.0098684,-0.38162053,0.39838794,0.7766315,-0.90929794,-0.7561054,0.5607357,0.15672122,0.44613057,-0.52680504,-0.9067728,0.5207582,0.9215376,0.88990283,-0.18086655,-0.84502804,-0.99121225,0.96807796,-0.8922735,-0.7462427,-0.6717451,0.2568316,-0.13380937,0.8174696,0.79972446,-0.14702673,-0.18555512,0.7282644,-0.7040571,0.7890701,0.29086006,-0.45554277,1.0025787,-0.11169799,-0.9182986,0.64568293,-0.06717331,-0.49305668,-0.086809754,-0.59439695,0.36704993,-0.31237918,-0.0011443226,-0.5605682,-0.6263659,0.4977639,-0.15568678,0.7697035,-0.41508925,0.0470601,0.6620861,-0.23035973,1.0260695,-0.6531102,0.3930133,0.80111754,0.5894117,0.49334893,-0.35457763,-0.1370392,0.24806009,1.0067625,0.69344604,-0.11349783,-0.686372,-0.72433436,0.09995888,1.0061812,0.7824295,1.0157895,0.92258316,-0.66289,0.9401263,-0.2304978,0.8994918,-0.85346574,0.93886304,0.12124761,0.6875277,0.1553698,-0.41650918,-0.13375013,-0.5544125,-0.071609914,0.3003043,-0.24619545,0.5056742,-0.23374613,0.7056397,0.26477543,0.9348609,0.20459434,-0.9227254,-0.38249776,-0.21913226,-0.066748686,0.26560044,0.4556086,-0.12402635,-0.9793509,0.9902822,0.15728612,-0.14697784,-0.12462166,-0.3268911,-0.3257903,-0.28901434,-0.8369215,1.0149872,0.5168791,-0.86948556,0.7715311,0.7396896,0.8630465,0.34082142,-0.42734942,-0.9735442,0.803446,-0.5964638,-0.39438948,0.5462592,-0.9490634,0.3443411,0.46137062,-0.58526385,-0.8127688,-0.8562273,0.6840829,0.5402957,0.24589089,-0.67925006,-0.34161964,-0.27307096,0.049158458,1.0016656,-0.80864364,0.51806825,0.30906072,-0.08309849,0.23232771,0.5828067,0.8192327,0.201548,-0.61622846,1.0342057,0.1378348,-0.15384293,0.47289068,-0.06811577,0.12906583,0.6629422,0.74099916,-0.29717854,-0.91319877,0.9702387,-0.938795,0.56076527,-0.37816617,-0.9275457,0.04173508,0.27026063,0.33380067,1.0477206,-0.4424886,-0.22062466,-0.63664657,-0.41236755,0.36869612,0.76342386,-0.42747873,0.5085147,0.124121994,0.6174973,1.0429676,-0.31916153,0.20310588,0.096543826,-0.5079401,-0.21132405,-0.9461644,0.5311983,-0.34425902,-0.051284466,0.6158261,0.004225018,-0.2642284,0.866694,-0.45741874,0.16061474,0.64538,0.3255877,-0.63219595,0.5502182,0.10024565,0.7050909,0.5664166,0.7999086,-0.10788217,0.94570875,-0.1114821,-0.5049929,0.070967615,-0.6392658,0.8714106,0.582627,-0.81460226,-0.22444144,0.44411,0.084300585,0.5905659,-0.14117315,-0.733577,0.8147007,0.8696139,0.7898451,0.4736474,0.19980356,0.88727254,-0.5456447,-0.6738925,0.7602794,-0.9195863,-0.80509377,0.8481105,0.6123889,0.7970626,-0.26967803,0.75795066,0.8153377,-0.54465604,-0.87239605,-0.61993814,-0.5945601,0.46192586,-0.054049235,-0.77673244,-0.374011,-0.8707093,-1.0072491,0.99043375,0.49826062,0.42715096,-0.8757346,0.50935346,-0.3378108,-0.8510278,-0.8201982,-0.76931506,-0.1945424,-0.5990969,-0.8490384,0.27765045,0.7839618,0.9219935,-0.47055143,-0.11180988,0.7560551,0.41451454,-0.47430915,-0.67024857,-0.69689286,-0.30037177,0.3378463,0.042955324,-0.7918136,-0.6111052,-0.84975797,0.9943408,-0.13533455,-0.8033738,0.59735405,-0.4477091,0.5834705,-0.4106633,0.71140826,-0.05939193,-0.9042689,0.2048481,-0.37527683,0.64030653,0.079268865,0.45202073,-0.0771994,0.801488,-0.3228537,-0.0662974,0.47103578,-0.7756545,0.8007048,0.50965786,0.5057495,0.20661359,0.7019537,-0.327961,0.566841,0.6369949,-0.520913,-0.5757904,0.31123963,0.8177635,0.78630835,-0.119740225,-0.53064924,0.8529269,0.53810775,0.89212155,0.55774474,0.8078828,-0.41394514,-0.77035433,0.35987216,-0.07045728,-0.7748752,-0.38036063,-0.27247453,0.03797764,0.667266,-0.09166285,-0.50136983,0.6444482,0.5750244,-0.56522703,0.10173845,0.061644766,-0.60126203,0.70810914,0.1732955,0.25149027,-0.37267378,0.09061296,0.11511484,-0.6529392,-0.1494401,-0.97927564,0.525905,-0.41024935,0.037153233,-0.020751461,-0.24777502,-0.3373717,-0.16094168,0.24919668,-0.3097521,0.7111613,0.21317568,0.72169024,-0.056363016,-0.40794876,0.58995783,0.69545674,0.16313685,-0.7600966,-0.4643972,0.9215242,-0.90504426,0.44424233,-0.85057586,-0.7716477,0.8419185,0.8283023,0.05185738,-0.50148374,-0.26154634,0.74839056,-0.6652409,-0.5337069,-0.057479106,1.0807589,0.96340257,0.79535115,0.05482576,0.1214556,0.5021732,-0.40214485,-0.52357334,0.74571013,1.0727116,-0.1520527,0.9482228,0.9354112,-0.003450287,0.9700187,-0.41174865,0.6233635,-0.39107844,1.0049202,-0.48469615,-0.79038376,0.3287953,-0.32939494,0.33149776,-0.25322703,-0.87006074,1.0899858,-0.5457815,0.78418994,0.2590288,0.8815809,0.9489194,-0.17107548,0.23550451,-0.46278238,-0.25146306,0.43771064,-0.8063621,0.5099333,-0.6183082,0.9221173,-0.67499816,0.9966699,0.32049835,0.77461344,0.91733205,-0.0066849873,-0.66140115,-0.25711492,0.22246988,-0.66418046,0.15675004,0.568652,0.98930806,0.354319,-0.031499445,-0.8247215,0.49526432,0.06211213,-0.86854315,0.30216384,-0.3677069,0.846438,-0.35710648,-0.73551595,-0.9305636,-0.18917495,0.4650719,0.45629,0.57096344,-0.3892824,-0.42133307,0.7040484,-0.8739533,-0.40282336,-0.43089896,-0.23879254,-0.57926065,0.8192747,0.2227681,0.57738054,-0.29488385,-0.3019853,0.81039715,-0.9416176,-0.37401655,-0.9350967,0.85645586,0.16811617,-0.29113057,0.554009,0.01838847,-0.79876524,0.309491,0.32285702,-0.47221148,0.1794394,0.09936083,0.85978884,-0.7024126,0.5925427,-0.0231393,0.70585823,0.41087663,-0.5616698,-0.7197083,0.35336357,-0.7575006,0.34912848,-0.7475741,0.48869523,0.02603729,-0.80468905,-0.2742653,0.11435224,-0.16917564,-0.7398636,-0.27029997,0.98462796,0.80003625,0.15309626,-0.12302615,-0.591675,-0.04726171,-0.61422986,0.5706706,-0.63902044,-0.9356841,0.654958,-0.81495637,-0.96500254,-0.7592276,-0.81074774,-0.11763322,-0.17317176,0.04083033,-0.6038334,-0.9452302,0.04134586,0.26018184,-0.7805479,-0.9549849,0.38113222,0.567054,-0.24290228,-0.84330165,-0.05313692,0.35159227,0.2805625,0.8417653,0.17695606,0.69089425,0.80874205,-0.6435416,-0.49807388,-0.19300678,-0.8763144,-0.56580156,0.29783452,-0.9892001,0.020279655,-0.19678219,-0.15387297,-0.24436444,0.9341399,0.03209218,0.012236946,-0.70447016,-0.36690637,-0.24132185,-0.34045935,-0.98097706,0.7947884,0.28216714,-0.39297408,0.91040176,0.60742396,-0.30389205,0.8830302,0.9985211,0.26695192,-0.59925133,0.76364386,0.7019032,0.95392627,0.63339525,0.63757277,-0.7983227,-0.8672427,-0.3661374,-0.22067086,0.47744027,0.062662095,0.56743616,0.14764266,-0.09642137,0.5846261,0.1462006,0.80118936,-0.68367034,0.15033792,1.0115873,-0.9003742,-0.117976315,0.8319825,-0.79924685,0.00428423,0.41673633,-0.24946044,-0.28316066,-0.4666699,0.4978006,0.86629844,0.17303863,-0.7338333,0.72682047,-0.41620794,0.24550882,-0.27819097,0.26190558,0.040080294,-0.5892138,-0.62577856,0.25928915,-0.09534198,-0.21770011,0.30316848,-0.6389076,-0.655326,0.81453943,-0.5796827,0.53017235,-0.47758934,0.8002415,-0.5330135,0.8980858,-0.11859686,0.22655734,0.86934024,-0.15713435,-0.25744453,0.17296824,0.36028877,-0.23527554,-0.43380597,0.8603787,-0.35881105,-0.7399424,0.658454,0.028407982,0.24637868,-0.51750356,0.33033395,-0.059907783,0.81248426,-0.74741346,0.9942206,0.10428023,-0.79018223,0.6963095,0.60780877,0.57875407,-0.4019749,0.23192589,0.38562524,0.3050219,-0.9297245,0.40048823,-0.8176441,-0.7278986,-0.5071455,0.17661162,0.74414945,0.20332171,0.87345225,-0.70166063,-0.5248383,-0.26401746,0.082317375,-0.42086124,-0.10825422,-0.34143838,0.9910396,-0.1706007,0.63928145,-0.669743,0.46980733,-0.5297896,-0.23615259,-0.5176232,-0.0021806275,-0.3813085,-0.9570583,-0.30356893,-0.47245365,-0.9139705,0.45669279,-0.81230545,0.8093105,-0.3017816,-0.4040633,0.9406748,-0.89815766,-0.9182577,-0.33292773,0.41604337,-0.3749043,0.50061166,-0.1361391,0.6828324,0.22548458,-0.7775725,0.99978906,-0.6333479,0.9801728,-0.91557354,-0.42368156,-0.49864915,0.54011816,0.03459191,-0.9086449,0.38805288,1.0723817,0.58423895,-0.77760684,0.39585525,-0.6339998,-0.24686626,0.42285198,0.389629,0.21991926,-0.3416933,0.40790415,-0.4946902,0.77178115,-0.3540147,0.5421224,-0.5813915,0.12908968,-0.21452342,0.34893665,0.82112765,0.6996935,0.013560889,0.2915301,-0.6412076,0.46766078,0.804527,-0.21388602,-0.116457954,0.30786508,-0.6646571,-0.14361966,-0.13754398,-0.39462137,-0.48450187,-0.9274183,-0.57564867,-0.5116714,0.24229583,0.7673119,-0.42538902,0.34533906,-0.5983481,0.91777116,-0.6179901,0.7235195,0.4293725,0.48002154,0.3689359,0.068954594,-0.65796155,-0.5841317,0.5445859,-0.51291084,0.08046227,-0.5951667,0.5046099,-0.42293838,-0.8834355,0.9288006,-0.1441633,-0.025158843,0.19914803,-0.3517777,0.2599709,-0.92349154,-0.7096822,0.3824854,0.5364626,0.2574937,0.56705755,-0.3930122,-0.4788034,-0.9206654,-0.83710444,-0.2950241,0.30238187,0.7595646,0.36998385,-0.7947283,-0.31545767,0.17771268,0.06549219,-0.37412956,-0.69859993,-0.46793583,0.166762,-0.19898228,0.69228387,0.20959607,0.023413315,-0.2859465,0.56125623,0.2778944,-0.4538454,-0.09334016,0.1728081,0.59818697,0.76480645,0.8576892,-0.2984364,-0.47746515,0.22784165,0.5112911,0.7021,-0.6542832,0.18637866,0.8672517,0.67339945,-0.42942366,-0.43641236,-0.85033834,0.76978695,-0.4662711,0.49752715,0.95407283,-0.8131152,-0.41299424,0.37600857,0.7954463,-0.28991085,0.5500532,-0.5813939,0.24124323,-0.8704169,0.9201948,-0.48499388,-0.82437265,0.54415375,0.9179727,0.07186258,0.9622849,0.49566624,-0.696947,0.55790854,-0.060023546,-0.39718264,0.3633056,0.27877086,0.51482904,-0.33552122,-0.24022101,-0.07945906,0.93704927,0.6911966,0.7000871,0.84949785,0.22708577,-0.13384019,-0.4280424,-0.39133042,-0.9474233,-0.7939461,-0.7538229,0.40706295,-0.5846479,0.20566964,-0.1074593,0.49720162,-0.31533706,-0.4439112,-0.14637417,0.8867728,0.56674707,0.95311743,0.35289928,-0.73919433,-0.19801927,0.5632389,-0.5606323,0.121024765,-0.9123164,-0.4684313,-0.24265243,0.97238046,0.0061771143,0.59988075,0.64423066,0.70741993,0.22550112,-0.19429395,0.67041945,-0.35300568,0.7904272,0.5605261,0.911823,0.700887,0.9454247,0.3474872,0.25335005,0.57435465,-0.55242234,1.0226077,-0.47911155,-0.86927253,0.5691313,0.058513917,-0.48930222,-0.9071824,0.092488624,0.7069889,-0.5104416,-0.96557516,-0.43340978,-0.55810577,0.5774364,0.9012497,0.1272724,-0.81339955,0.46314976,-0.03810899,0.84368795,0.47303203,0.82949334,-0.051013418,0.32832664,-0.2664264,0.43597826,-0.9081478,0.6037935,0.45704335,-0.7202746,0.36517382,-0.10142887,1.0238342,0.9059872,0.6840352,-0.1464706,0.53971225,-0.56777596,-0.86588615,-0.7284528,-0.83631617,0.038518526,-0.3835622,0.14207156,-0.5851348,0.81074774,-0.7263623,0.08627235,1.0022274,0.1920994,0.37911037,0.0811746,0.8343214,0.26572314,-0.37574527,0.76908547,-0.7151435,0.99428856,0.2629202,0.15663834,0.619967,0.85452753,0.19029306,-0.9638224,0.76443076,-0.3505251,1.0165962,-0.73151857,-0.25758815,0.7039448,-0.84019303,0.9839351,0.7593112,-0.16062444,-0.27668375,0.19186804,0.06762695,0.48005053,0.62210137,0.25025007,0.45123515,0.9543519,-0.7300329,-0.36582738,-0.016619632,0.4865348,-0.78298396,0.43359783,-0.98060364,-0.5523535,0.7094822,0.60493886,0.28094673,-0.45150897,0.19781986,0.82417834,-0.34617028,-0.5135435,-0.39039442,0.18624133,0.9443232,0.5672559,0.025865773,0.16334721,0.35095802,0.02889248,0.7180847,-0.7898328,-0.42958134,0.7002877,-0.32532564,-0.58357793,-0.1337007,-0.4565142,0.07757187,-0.40732595,0.3726035,0.13402155,-0.80691564,0.05502808,0.05816764,-0.4810388,-0.38722,0.45429137,0.2045709,-0.3235358,-0.30526122,-0.72266716,0.6491086,0.0340405,-0.76949066,0.44996747,-0.10997928,0.029445218,0.62546486,0.11336166,-0.3597788,0.030080078,0.48836884,0.11143761,0.7251667,-0.73564386,0.51543516,-0.8773957,-0.39487264,0.39819476,-0.10804988,0.12306804,-0.9173672,0.49937505,-0.79039407,-0.8479778,-0.92970866,-0.6968057,0.2459096,0.5546884,-0.52429146,-0.58431554,-0.8758221,0.029106583,0.8922034,-0.98075974,-0.61279434,-0.5544438,0.9704469,-0.5145824,-0.045316916,-0.9838343,-0.8871933,0.5993459,0.47354874,-0.9468513,0.28818262,0.8467544,0.34500742,0.9185442,0.047746804,-0.3190902,0.84079117,-0.22496338,0.46007115,0.8599015,0.1149124,0.052336883,0.027128017,0.087303996,0.32950673,-0.7422083,0.3668412,-0.33430815,-0.54965526,-0.21554944,-0.66625065,-0.62102765,-0.7335973,0.71175,0.07107158,0.98814976,-0.71355015,-0.5462678,-0.72117245,0.8620412,0.34721783,0.56191665,-0.907865,0.18362539,0.48532113,0.33094504,0.99044544,-0.904258,-0.08904466,-0.2950638,-0.945194,-0.09600772,0.8312978,-0.826141,0.15179965,-0.83918333,-0.8797472,-0.47815198,0.22067268,-0.67772704,-0.92376715,0.3048308,0.15370727,-0.14643754,-0.9416946,0.20247719,0.60589975,0.3813114,0.8415692,0.058089416,-0.9208529,0.4678094,0.5569839,-0.88893324,-0.19307636,0.41605827,-0.8901491,0.3471051,0.9780671,-0.15736598,-0.09397507,-0.47924688,0.0009462189,0.8419276,0.7610297,0.34239537,0.3428292,0.7481175,0.24801649,-0.536735,-0.079791926,-0.4798697,-0.6095359,-0.25280157,-0.94576776,0.9658992,0.46835226,0.37115827,-0.50350803,-0.35421544,0.042717386,-0.54772943,-0.100149415,0.7105713,-0.4619065,-0.4346376,-0.053759698,-0.7280068,-0.9462271,0.6240671,0.7677268,0.9648449,-0.19389643,0.62235594,0.28230283,-0.9731539,-0.33079514,0.12007445,-0.39859542,0.7659861,-0.33670488,0.90885997,0.606619,-0.3924672,0.7818768,-0.7172654,-0.5996213,-0.3574462,0.25943083,0.99360514,-0.57852006,0.19795907,-0.94875014,-0.08792833,-0.5820326,0.30489454,0.43014574,-0.8957341,-0.09789341,-0.093090974,0.2962209,0.18049896,-0.41056627,0.28252038,0.25359845,0.24488696,-0.6135329,-0.26676878,0.92330027,-0.25284904,0.559145,0.6195341,0.27266282,-0.5526089,0.61666065,0.9426773,0.20491584,0.24526533,0.32439923,-0.46577397,0.81676996,0.5361506,0.0791229,1.0028089,-0.6755778,-0.08139351,-0.24288696,0.9998688,0.14998282,-0.5776851,-0.7770528,-0.87021464,-0.21559605,-0.9384596,-0.85716283,-0.8321457,-0.41202447,0.831056,0.4558565,0.10593669,-0.12120089,0.43465695,-0.0044585317,-0.25370836,0.4313154,0.331668,0.30113384,-0.1374794,0.85541725,0.28232065,-0.35843766,0.18774457,-0.5339063,-0.88640124,0.5905651,0.5513328,0.68443865,-0.5411022,-0.018824782,-0.003989622,-0.68786097,-0.15709981,0.061476514,-0.7088678,0.8924823,0.25544423,0.42127267,-0.13258015,0.54384303,-0.7279106,0.29519174,1.0047874,-0.036741517,0.6526529,0.61442983,0.8404093,-0.07962884,0.024015721,0.9113069,0.36839926,0.59497875,-0.7609674,-0.920034,0.26419964,-0.38194656,-0.5649717,-0.5551307,-0.8605023,-0.9683457,-0.9928262,0.64019805,0.4700177,-0.32161576,-0.17549302,0.86987525,0.32675633,0.121681295,-0.7621267,-0.41998684,0.58017325,-0.31785142,0.2779411,-0.44968218,0.7038831,0.6198758,0.8793333,0.35138863,-0.67285,-0.94294596,0.24998091,0.9483132,-0.1930221,-0.5528367,0.80078197,0.8978587,0.97075707,0.8023169,0.29679736,0.47141033,-0.9527621,0.21027207,-0.85627586,0.59949416,0.51090366,0.5191259,-0.70743746,-0.99463433,0.45969003,-0.8938585,0.79859555,-0.62539756,0.3600414,-0.4453585,0.9133369,0.6844694,0.34991312,0.21258117,0.7797066,0.11008068,-0.54100245,0.44922617,0.212094,0.30647478,-0.92372215,0.7261503,-0.27744278,-0.74615973,-0.8750661,-0.6847268,0.2762006,0.7884114,0.7828811,-0.12750138,0.26410422,-0.16479813,0.8111585,0.20502022,-0.28447393,-0.08728669,0.2628395,0.44304743,0.694462,-0.7301202,0.6893591,-0.5744841,0.96764195,0.8840426,-0.46263134,0.5820426,0.7958096,0.37495956,-0.3151447,0.8099468,-0.4927728,-0.011229031,0.3601231,0.3237544,-0.43335122,0.8866799,-0.20384553,-0.9865451,-0.09680761,-0.080480345,-0.7140005,0.6363831,0.0082144365,-0.47339833,-0.95259976,0.5960131,0.3479874,-0.14853452,0.08967499,-0.308703,-0.93358546,-0.5488344,0.79334956,-0.24549946,-0.48708096,0.23401658,0.8983786,-0.47781754,-0.26527137,-0.14722458,-0.5999952,-0.07913828,0.05103974,0.6768839,-0.88357216,0.06398103,0.21652548,-0.6519396,0.3563946,-0.6588859,0.816671,-0.688495,-0.32893753,0.16334563,0.9248708,-0.7588374,0.9880475,0.40695992,0.5176987,-0.9073633,-0.25181493,0.3895535,-0.67871976,0.2703967,-0.7092077,0.8554811,-0.1461692,-0.5962202,0.85678196,-0.8822453,-0.61367387,-0.70870084,-0.26575193,-0.37908563,-0.03484552,-0.5248046,-0.39587155,0.26527968,0.775293,0.82938445,-0.35581747,0.30437475,0.49603987,0.21175523,-0.6004651,0.767063,-0.6934371,0.6643088,0.05479337,-0.430935,0.026283158,0.44052488,0.3984495,0.6498923,-0.8651003,-0.7908986,0.09746147,-0.2220021,-0.85707957,0.7878482,0.09036791,1.0035955,-0.30901626,0.37744054,0.48964214,0.6744427,-0.8763049,0.34091827,0.781709,-0.57230496,-0.2095234,-0.40363225,-0.7013037,0.61866695,-0.30306503,-0.2853778,-0.12661506,-0.08294358,-0.10617255,0.8141005,-0.65674216,-0.5747333,0.8020456,-0.32326093,0.19204055,-0.910762,0.32746255,0.20856002,0.97481054,0.08425216,0.71553975,0.8102942,0.35117412,0.5313552,-0.30572814,0.83968014,-0.5528626,-0.62631625,-0.8821526,-0.6121105,0.4650347,-0.69798166,-0.5277145,-0.058057476,0.62130725,0.31095463,-0.97804236,0.66025764,-0.2300262,-0.12350599,-0.009998791,0.5525059,0.89855635,0.0391562,0.984879,-0.60581607,0.20189047,0.48324496,0.6101313,-0.23170848,0.42534697,0.79467297,0.5728067,0.93944836,-0.113405906,0.4792989,-0.20350865,-0.6230112,-0.05050589,0.36211365,0.018318415,-0.6670139,-0.33996296,-0.42215338,-0.30752525,-0.009901184,-0.6667094,0.9269177,-0.53034997,0.8762223,0.53133965,-0.87711287,0.69159263,-0.56003773,-0.95494676,-0.0056509823,-0.5216151,-0.4316396,-0.5024498,0.16422565,-0.4854869,-0.70442647,-0.84141743,-0.03170611,0.78409564,-0.9413265,0.2012065,0.274497,0.026223399,0.346828,-0.48382208,-0.5956637,-0.08328813,0.044713706,0.9635196,0.6745453,0.90801615,-0.028580016,0.25856486,0.016864728,-0.9443578,0.493648,0.9528488,-0.81900436,-0.6914278,0.41265032,0.21588384,0.3732544,-0.5570156,-0.44287047,0.31821996,0.82719743,0.24225923,0.47172377,-0.54579026,-0.9979697,-0.56755525,-0.4961309,0.5989619,0.010296724,-0.6664839,0.69790286,-0.8790755,-0.40023074,0.11321983,-0.6933392,0.7724564,0.63223326,-0.22340703,0.86756194,-0.7344915,0.84405273,-0.35172692,-0.9391108,-0.64676166,-0.27532464,0.4923758,-0.08122623,-0.42154408,0.51782966,-0.0621223,0.089344874,-0.10825566,0.8916078,0.1652047,0.18206295,0.7130559,-0.46047038,0.046255454,-0.2731424,0.48433754,0.39125076,0.8683072,-0.647772,-0.22493215,-0.8544704,-0.42209062,-0.8963887,-0.73989064,0.6832401,-0.92143226,-0.8689869,-0.84982497,-0.5972889,-0.0050860336,-0.7107071,0.72568834,-0.61430764,-0.116233386,0.17343915,-0.55858254,-0.56625116,0.44670153,0.81570727,-0.43891615,0.4856307,0.09726087,-0.65114564,0.37348104,-0.40197578,0.4533216,0.015364883,-0.7206966,-0.6655786,0.74141765,-0.46121606,0.18405125,0.053539094,0.26168108,0.58667976,0.7051166,-0.7076537,0.9268724,-0.2587461,0.73335344,0.6558368,0.72184783,-0.8550927,-0.84759593,0.756183,-0.60291886,0.15446891,1.0182215,-0.8263729,0.6823025,0.2659995,-0.90172094,0.2906392,0.6571348,0.02745158,-0.4970935,-0.15092546,0.98246634,-0.22857444,0.43204346,-0.5493702,-0.9407753,0.7506919,-0.18428288,0.4102883,-0.2538387,-0.39954525,-0.77835727,0.44224346,0.37737346,0.44964677,-0.5304389,0.9064513,0.54827857,0.75123,0.17070845,0.8391027,0.19283558,-0.1932061,0.8632764,-0.23504657,-0.9800471,-0.66435033,-0.23791179,-0.3493613,-0.8017879,0.5610266,0.9257517,0.23250374,0.78263783,-0.031259,-0.23238449,0.69933546,-0.24420618,0.27461654,0.6081703,-0.9044213,0.57450557,0.8436255,0.8704887,0.039457303,-0.62911147,-0.3257436,0.09430957,0.5739673,-0.1374682,-0.94998944,-0.46066338,-0.97301805,0.020869017,-0.46496996,0.3827676,0.6383905,0.9822393,-0.79060173,-0.9673784,-0.47913036,0.8945004,-0.7689873,-0.3932899,-0.0649689,0.6669388,0.37648875,0.7144908,-0.7293008,-0.20798825,-0.97200793,0.50839674,0.28084934,0.49094632,0.6919063,0.9116496,0.33086655,0.31176823,-1.0121263,0.6794411,-0.11783819,-0.12547271,-0.6066501,0.88818294,0.27503592,0.39655522,-0.52238363,-0.042525366,0.55790436,-0.63481,-0.3409332,-0.64869094,0.63076496,-0.7551615,-0.64491606,0.31474364,-0.50057274,-0.8562054,0.49193385,-0.7070535,-0.04728574,-0.3134563,-0.12110366,0.7544289,0.81104755,-0.97545433,0.27847973,0.7183714,0.715262,-0.26922593,0.31640264,-0.26459134,-0.97913086,0.40897295,0.5836762,-0.59419996,-0.40490958,-0.37872267,-0.62107736,-0.29271585,-0.77594334,0.66968143,-0.804242,0.30529845,-0.30533415,-0.031191833,-0.30929995,0.74968785,0.88032013,0.7761447,0.97055364,-0.788874,0.86744106,-0.7972268,-0.6784803,-0.5545143,-0.5464831,-0.94265234,0.84572214,0.096246704,0.17035973,0.5067999,0.14165232,0.10925841,0.61460066,0.8374531,0.77629983,-0.23874484,-0.38644373,-0.4171795,-0.49659014,-0.19044295,-0.9190075,0.8235937,-0.8841593,0.73376465,-0.47017732,-0.75898427,-0.70366377,-0.7091447,-0.63104373,-0.7806214,0.70392424,0.755205,-0.30309,-0.38252237,0.7832692,0.7384285,0.5697158,0.5781253,-0.7538637,-0.8944311,-0.5342616,0.78923565,0.86733276,0.76444757,0.81912255,-0.55492806,0.37016675,0.9156272,0.79306525,0.42506734,-0.24814771,-0.37165865,0.6407872,-0.8585068,-0.21320018,-0.67627794,-0.39545235,0.058911033,0.54991996,-0.92736983,0.468548,0.7452717,0.2614247,-0.34924814,-0.11141625,0.9902313,-0.071278706,0.3825091,0.0819688,0.4243048,-0.47917476,0.08342164,-0.66199905,-0.8531217,-0.35608903,0.48216888,0.01310184,0.4015995,-0.47167888,-0.073349915,0.34831476,-0.047131076,-0.16757691,0.45476714,0.7716684,-0.17774273,-0.26106712,0.43540028,0.84142613,0.093324974,-0.38319275,0.64962107,0.15312035,-0.5764415,-0.45145646,-0.55195427,-0.2555456,-0.90797114,-0.95748335,-0.071216606,-0.32836932,-0.41457745,-0.7868301,-0.51708585,0.03200202],[-0.23168047,0.44037792,0.31571406,0.7782109,0.89615816,-0.40642005,-0.586072,0.8114878,0.79205185,0.5505071,0.7586464,-0.62955105,0.26607153,-0.23550834,0.30681983,0.7168598,0.8718208,-0.18382066,0.91799974,0.5058996,0.52128977,0.7463872,0.12542675,-0.103697285,0.9106477,-0.052024107,-0.50295734,0.59076846,0.7974018,0.36842337,-0.21985886,-0.6947061,0.10919614,-0.54969424,0.5012313,0.8495691,-0.60661316,0.9917298,0.4299933,0.2357751,0.6680255,-0.7577449,-0.6880436,-0.01559507,0.06506204,-0.33842975,-0.1941947,-0.24051142,1.0281293,0.6032276,0.062921,0.31962514,-0.5293389,-0.15049921,0.42073092,-0.4080415,-0.29181442,0.97633594,-0.3015969,-0.14015223,0.6761729,-0.3331221,-0.2110566,-0.063564755,-0.46850458,-0.44740057,0.48393252,0.5401256,-0.44334072,0.5452837,-0.7221402,0.6452834,-0.6397775,0.2320593,-0.18687886,0.18017434,-0.83276844,0.5594368,0.562906,0.3407171,0.45110068,0.2526821,0.006977086,0.91221756,-0.09007793,0.8730541,-0.11129533,-0.49072886,-0.09826871,0.055701125,-0.12902577,0.33293948,0.16373646,0.2390761,-0.47575703,-0.17336081,-0.26598656,0.5438905,-0.32606366,1.0773033,0.7907147,-0.84639585,0.78374535,-0.8779283,-0.8668451,-0.45740995,0.304095,-0.21467328,0.4838245,0.3513465,0.21580456,-0.28410545,0.295869,-0.48871335,-0.011617001,0.8103454,0.34652904,0.8948405,-0.69534373,0.48724836,0.41599625,0.918655,0.7449572,-0.23747596,-0.75790805,0.6670009,0.07464895,0.6032411,0.46670455,0.45727128,-0.20454189,0.92851937,0.6979843,-0.700587,0.9585578,-0.46534917,0.36329195,-0.3327188,-0.248562,-0.36640576,-0.49603087,-0.4882182,0.45875108,0.4660706,-0.081354134,-0.106259406,0.52192247,0.63825005,-0.1373408,-0.6449304,0.26857537,0.83804035,0.9023842,-0.14020455,-0.41735646,-0.8526709,-0.8464961,0.51084095,0.39133352,0.8354533,-0.36995095,0.7276779,-0.69392043,-0.37467667,0.64086026,0.6453636,0.14482205,-0.031684138,0.612148,0.3951061,0.19250782,-0.80050427,-0.032761335,0.40626684,0.80554545,0.2842193,-0.0029250104,0.4388891,-0.4363186,-0.20202687,0.10136452,0.4359272,-0.663405,0.6034182,0.97819513,-0.3293604,-0.024717813,0.36758596,-0.6174173,0.11679544,0.4206027,-0.6850267,-0.24074514,-0.073290534,-0.21638767,0.23866604,-0.2887872,0.38626722,-0.8688442,0.0010236423,0.45636994,-0.88454574,-0.005261158,-0.4320936,0.5269018,-0.44947165,-0.5662956,-0.7164527,-0.07692068,0.22439541,-0.96518177,-0.60301477,-0.24197051,0.95432824,-0.89034903,0.9239438,-0.4237862,-0.006621361,-0.15656957,-0.2959736,0.12843707,0.9623176,0.84050006,-0.9500487,-0.87814623,0.9039468,-0.1436065,-0.22275151,-0.69641846,-0.5356465,-0.20381185,0.44402775,-0.30868053,-0.18928334,0.013230962,0.47278753,0.7005546,-0.4011839,-0.5845202,0.6804322,-0.59995544,0.19352858,0.051670145,-0.48613518,0.6046269,-0.43779132,0.88674057,-0.16538258,-0.23468663,0.5491884,-0.26126692,0.08337289,0.83359635,0.99708754,0.2123651,0.10597638,-0.6837107,-0.0033110392,0.060509328,-0.67171687,-0.032182265,-0.18323405,-0.90152454,-0.6051057,-0.74917203,0.99942195,-0.15523402,-0.32050934,0.18079317,0.0056191976,0.45655575,-0.7501247,-0.11852584,0.8891572,0.90736246,0.063825056,-0.48121294,0.81469345,-0.6437688,-0.23604608,0.8348584,-0.8341594,0.53071564,-0.5763339,0.15297313,-0.78973895,0.55094385,0.7802391,0.6268354,0.83690655,-0.69933474,-0.8790159,-0.41336936,-0.37480888,0.5830704,-0.7674334,0.08735773,-0.28216407,0.7276261,0.28290412,-0.84569496,-0.3390099,0.07581165,0.8431125,-0.48490393,-0.64277965,0.15723944,-0.34803298,-0.8547062,-0.85036707,0.8783322,0.4017166,0.1665718,1.0135059,0.09839143,-0.6658545,0.5048439,0.16773047,0.5559411,0.64939624,-0.04663346,0.57737863,0.4243659,-0.3506125,-0.23774777,-0.6565392,-0.43512183,-0.21221411,0.6458003,0.5283343,-0.011699457,0.36978456,0.49366516,0.011720235,0.4265719,0.8552882,0.3881926,0.9059965,0.87491876,-0.092583574,-0.53636694,0.57845783,0.69871753,0.65082496,-0.8646689,0.58354455,0.8483784,0.46003607,0.8270337,0.93357617,0.73507154,0.3839189,-0.4515324,-0.39903808,0.8146337,0.5201293,-0.21758689,0.4108332,-0.9435443,-0.3035005,0.20331271,-0.53266513,-0.24171554,0.8768696,0.8034061,0.29252198,-0.3746064,-0.047777966,0.9384375,0.35081995,0.09560014,0.38823858,-0.24118622,-0.92460126,0.44883192,0.6792904,0.13388477,-0.31883526,1.0177803,-0.7015865,-0.85032856,-0.24421951,0.006029405,1.039572,-0.26222116,1.0337704,0.60398567,-0.66164607,-0.6983404,-0.640719,-0.4515491,0.9033592,0.055409126,-0.187183,0.85256875,-0.8912256,-0.9872082,0.006054439,0.9868242,0.5965563,-0.57175374,-0.8766512,-0.79758215,-0.7891012,-0.43916446,0.572788,-0.029226698,-0.34079364,-0.72779393,-0.4754536,-0.07893291,-0.52106386,0.02689279,-0.73049545,0.54025686,-0.43513122,-0.32574788,0.013682379,0.551596,0.88491017,-0.51281685,0.75340307,-0.9621882,-0.9047386,0.32516447,-0.9571604,0.92600054,0.9175676,-0.84113955,0.6105194,-0.96803784,0.9623026,0.73972476,0.30405495,-0.7739261,-0.48046568,-0.7233173,-0.62251574,-0.32288757,-0.008817076,-0.60481113,0.31233454,0.47734645,0.8725594,0.7688178,-0.011941318,0.6012461,-0.43308645,0.1415408,0.9445787,-0.15585944,0.9275655,-0.36535856,0.6393864,1.0315547,-0.6372164,0.999611,-0.05665967,-0.34809607,0.06112834,-0.7473065,-0.06728362,-0.9199998,1.0457664,-0.2729797,0.4544086,-0.85779154,0.19138694,0.24704427,0.6360105,0.19168803,0.5966993,0.76268625,-0.88372636,0.9685061,0.9753709,0.015314193,0.84041697,0.7881083,0.8320542,-0.8949394,0.75923425,-0.15420793,0.6845342,0.7948244,-0.14759989,-0.008262034,0.72698313,-0.93277895,0.9485173,-0.2711476,0.257097,-0.2251287,-0.75607294,-0.77661926,0.13025862,0.9131394,-0.13223204,0.5588964,0.11918365,-0.6839939,-0.88078135,-0.66323453,-0.8644449,0.7463116,0.86274576,-0.083418235,-0.3207238,-0.7804179,0.97277296,0.20741521,-0.63007945,-0.9303776,-0.53734255,-0.31623238,-0.56276125,-0.20547241,-0.17748101,0.45038643,0.43252522,0.7035197,-0.74272186,0.9199772,-0.72104126,0.5107185,0.6760819,-0.120174766,0.22475253,0.91596574,0.5099383,0.8744018,-0.8150854,0.38672882,-0.3773393,0.89805275,-0.15733436,0.01610582,-0.011972163,0.042864967,0.8688032,-0.78300714,-0.057621136,-0.17417705,-0.43123516,0.045671858,0.68449223,-0.35581267,0.065501176,-0.3078016,-0.2769733,-0.29940903,-0.076252,0.0055769538,-0.10642196,-0.8516838,-0.82406014,0.50899595,-0.70185816,-1.0178024,-0.7455516,0.3134305,0.42395595,0.17585337,-0.21217777,0.05484553,-0.7641119,-0.44471478,0.9406179,-0.6964703,0.85129404,0.8294452,0.059647486,-0.6154257,-0.46741697,0.1106031,-0.5262155,0.69725394,0.35410577,-0.55221653,0.674961,0.30828455,-0.19469225,-0.3143282,-0.8873826,-0.62489146,-0.42285237,0.48821843,0.13261735,-0.5597244,-0.9300497,0.47649547,0.4554681,0.70274276,-0.37626362,0.17174499,-0.87564456,-0.1382569,0.65270895,-0.7092799,0.14945647,-0.02461435,0.024745055,-0.5795062,0.7221126,0.6810976,0.14797255,-0.34664443,0.5602157,0.4881063,0.021849236,0.94613963,0.60602087,-0.7464995,0.12420879,0.017128475,0.2714211,-0.9010648,-0.3026017,-0.9553389,-0.3102589,-0.78880715,0.35787475,-0.081512876,-0.5987014,0.31637022,0.31784397,0.55047673,0.12982762,-0.1460849,0.87194973,0.9902061,-0.707181,0.34418398,0.67508686,0.43636873,-0.7581024,0.27435458,0.76185435,0.57896614,-0.92644715,0.38918182,-0.36413243,0.67711544,0.86590934,-0.431285,0.12171416,0.26396552,0.75293344,-0.2199069,0.9871423,0.66830605,-0.2970102,-0.84095544,-0.52469504,-0.9009278,0.4676187,0.33523393,-0.03455975,0.95096964,0.46897793,0.22620843,-0.43557644,-0.54550004,-0.9987031,0.12252381,-0.13294461,0.24063341,0.30765146,0.30658498,0.8088736,-0.018534863,-0.5129164,-0.7865827,0.40525916,0.56643105,-0.092691004,-0.5820008,-0.74358153,-0.5221972,-0.9207625,0.3968259,0.8406793,-0.6728371,-0.39850694,0.041887224,0.23715968,-0.25162616,0.8551285,0.11365837,-0.097008795,-0.9748525,0.9158637,0.0331091,-0.6049727,-0.9772739,-0.5034789,-0.37742537,0.19911443,-0.74051,-0.58666277,0.81708854,0.3096608,0.53413504,0.8416356,-0.45443866,-1.0303044,0.54158694,-0.4650586,0.073986806,0.50504905,0.2680009,0.5075198,0.76876545,-1.0004058,0.6127833,0.7863013,0.90040636,0.93380374,-0.9018776,-0.63683236,0.14579442,-1.0215851,-0.40635833,0.14972313,0.26085138,0.07993397,0.92320985,0.79473937,0.1547167,0.34996024,-0.8343,-0.5972467,0.7396269,-0.47108024,-0.44780278,0.2469297,0.89216614,0.115377925,-0.36584076,-0.013140431,0.84647423,0.92815787,0.9072852,-0.5611393,-0.26476333,-0.27316463,-0.49627215,-0.03841567,-0.7922745,-0.6204479,-0.3033533,0.5338035,-0.1655443,0.0010424894,0.20324549,0.22843012,0.51482207,0.07699587,-1.0108156,-0.23145555,-0.99397856,0.55597097,-0.74919254,-0.9899677,0.9137285,-0.84078383,-0.035026766,0.7434721,-0.66570324,-0.51125973,-0.55815935,0.43194997,0.7355619,-0.75047904,0.7688032,0.08166511,-1.0147728,-0.24524307,0.8137037,0.058166835,-0.9315019,-0.9779195,-0.64938825,-0.22285199,0.3917989,0.2924348,-0.76996595,0.52743083,-0.10573459,-0.4294521,-0.8337938,-0.8000195,0.66757506,0.49027708,-0.5034957,-1.0063676,0.32073832,-0.6852213,-0.088087276,0.1568777,0.055735562,0.46582565,-0.86579835,-0.54372907,-0.07939767,0.574135,-0.6679355,-0.8929163,0.13042764,0.30912703,0.72416025,0.19358297,-0.34361422,0.60504776,-0.27121556,-0.67072207,0.47428697,-0.14187127,0.19587351,-0.86471623,0.75831014,0.07184142,-0.373705,0.122828275,0.7333914,-0.68352926,-0.46309063,0.087862015,-0.55315787,-0.27268735,-0.7660924,0.26314953,-0.14655852,0.7297904,0.0056970585,-0.12885006,0.046043947,-0.654,-0.34998092,-0.0822143,-0.14154282,-0.5578092,-0.40206853,-0.030863449,-0.13088298,0.626747,0.2588497,-0.6363806,0.23911808,0.019212019,0.012575477,0.7781371,0.5865138,0.46921572,0.06435926,0.01523157,0.40336344,-0.67274237,-0.118858166,-0.5602969,0.71985036,0.49479187,0.29191783,-0.52616477,-0.7928094,0.8283108,-0.2544902,0.18427981,-0.42864904,0.33264008,0.117858954,0.78060037,0.6164398,-0.9761923,0.92735726,0.5047413,-0.0625572,0.8410744,0.5453403,0.3309611,-0.14926536,-0.24153745,0.6104346,-0.29995933,0.5321744,-0.2845231,0.85731995,-0.43071124,0.8605891,0.045767162,0.33124673,0.6516429,-0.2430492,0.34559745,-0.98524773,0.6798501,-0.43804705,-0.55443907,0.76624304,0.26912686,0.67038333,0.932164,-0.41008046,0.47582632,0.08552851,-0.32049903,-0.3375987,0.6728311,0.92426044,-0.86893004,-0.47216082,-0.7853673,0.14091413,0.31835812,0.22054847,-0.41918147,-0.56191903,-0.025404057,0.36089638,-0.23761171,-0.0388372,0.30402946,0.82748276,0.7443976,0.9106373,0.17813544,-0.42408174,0.24540032,0.7680827,0.2727034,0.29161742,-0.6110814,0.83205336,-0.98355865,0.09916057,0.7488911,-0.8192765,-0.63638514,-0.32896277,-0.65635,0.94630605,0.23672368,-0.94913334,-0.46639788,0.042431723,0.41822496,-0.99104553,0.5448481,0.7723665,0.724254,-0.43395507,-0.64940834,-0.33410698,0.4474584,-0.5637524,0.4391024,-0.12575243,0.53748137,0.6511684,0.06665652,0.7068692,0.5483597,-0.48624456,-0.27766493,-0.35527626,0.65867335,0.5073433,0.14498694,-0.46646908,-0.74798846,-0.70136577,-1.0478517,-0.9707111,0.023401096,-0.065078475,0.018412886,-0.7822764,-0.56613344,0.19078586,-0.98069495,0.40175548,-0.0027095058,0.4863744,0.69070196,-0.7687311,-0.81844854,-0.9708569,-0.74471486,-0.11488649,0.10045735,-0.21594569,-0.35319796,-0.79120123,0.6395939,0.30045128,-0.7933089,-0.8683248,-0.9469917,-0.6199925,-0.22500233,0.0046360847,-0.46830773,-0.03024092,0.8968579,-0.89472324,-0.8019493,0.40718758,-0.05976547,-0.99762905,-0.9971258,-0.0015773065,0.27459174,-0.3444389,0.2051196,-0.6555713,0.1618572,-0.4745133,-0.20795882,0.854848,-0.097892106,0.088054694,0.76282954,0.8670569,0.8080997,-0.9946798,0.7193113,-0.011778924,0.24879317,-0.72880566,0.17740493,0.18191898,-0.31350955,0.24252391,-0.6702263,0.13427165,-0.07754263,-0.15775806,0.13963877,0.83893263,-0.47110462,-0.9888646,0.6122905,0.8329841,-1.032002,-1.0499352,0.23412074,-0.5776138,0.35265028,0.18329056,0.08590696,-0.5647341,0.9096314,-0.80585325,0.5352329,0.787159,0.9534152,0.3009036,-0.62523925,0.8902571,-0.6041666,0.8785304,0.42818192,0.48394477,-0.47057596,0.53169465,-0.98088896,0.36552006,-0.9803979,-0.5428818,0.8875427,0.0050920737,0.08086556,0.38729563,-0.25691435,-0.021456685,0.8484627,0.8780417,-0.6253568,0.29593968,0.32849923,-0.638893,0.7836881,-0.8845612,0.7851946,-0.8250064,-0.56723744,0.09437957,0.7283742,-0.4159478,0.20494601,0.57863396,-0.036578774,0.06396724,0.24382825,0.010487286,-0.96633595,-0.85052216,-0.955588,-0.018468376,-0.88553303,-0.7852827,-0.94776577,-0.8745524,-0.11620235,-0.008779823,0.19760497,-0.61737627,-0.12829953,-0.22491872,0.1929306,0.52752,0.20433006,0.94070256,-0.6403593,-0.3814247,-0.29333243,-0.27413252,0.77724046,0.022980683,-0.4395622,-0.4748603,0.7293003,-0.36387292,-0.17123047,0.8005796,-0.03915947,0.7352529,0.68901443,0.09394715,-0.37525943,-0.70756084,-0.7716845,-0.6955172,-0.08176977,-0.7960742,-0.36406562,-0.22703761,0.95163643,-0.5249963,0.7357653,-0.21433218,-0.8358861,0.42766383,0.9116483,-0.22603135,-0.5614496,0.053997375,-0.14288653,-0.9506887,0.5203473,0.7178669,-1.0056323,0.20267043,0.35676235,-0.5917352,0.81412894,-0.38578403,-0.56460845,0.8943028,-0.31753132,-0.065998204,0.6246305,-0.9993632,-0.5196706,0.8900799,0.7419417,0.42524412,0.43443456,0.6313332,0.54453546,0.87360567,-0.2181291,0.48789206,0.7256036,-0.024555217,0.26249737,0.020889549,0.7700133,0.8404492,0.20855717,-0.2620141,0.0178797,0.83760476,0.53287625,-0.22550628,-0.9442431,-1.0096937,-0.27271464,-0.5784959,-0.36882913,0.7072679,-0.9149582,0.63195515,-0.45156118,-0.9288308,-0.004760299,-0.58254004,0.8362798,0.30330938,0.59517646,-0.61611086,-0.7304103,0.8106662,-0.05569461,-0.060905084,0.73371315,-0.42742258,0.4179911,-0.9455727,0.7644591,0.5373162,0.2917072,0.25190538,-0.42372775,-0.3361617,0.6472163,-1.0394672,-0.808264,-0.50791585,0.14724591,0.42272967,-0.09989861,0.7159285,0.29280183,-0.30206004,-0.45061347,-0.63168573,0.007111571,-0.38658467,-0.8622701,0.2939498,0.9533374,-0.8357091,-0.5196344,-0.026808398,0.107951365,-0.22430183,-0.009012808,-0.39395738,0.4217095,-0.50499,-0.92931443,-0.8967704,-0.94692236,-0.74740165,0.026387887,-0.6370363,-0.006757414,-1.0231012,-0.5900324,-0.9148753,-0.41995883,-0.276677,-0.6471475,-0.5386927,-0.5029649,0.82257634,0.63035893,0.63765013,-0.0921025,-0.17685136,0.9280789,0.24101463,-0.3936292,0.020506466,-1.0220474,0.91643935,0.709391,0.82145965,0.5191876,-0.935679,0.42467326,0.83102185,-0.36630276,0.9114499,0.2965014,-0.93316543,0.51610446,0.536016,0.52038354,-0.5495972,-0.8622244,-0.4804189,-0.16154219,-0.274295,0.59054506,0.836731,0.90479326,0.13387527,-0.7089642,0.8311797,0.21031666,0.21443528,-0.65897274,0.26484716,0.045863606,-0.6837945,-0.62166095,0.9035325,0.44806713,0.04787231,0.65695643,-0.45840082,-0.6311244,0.41232216,-0.94725865,-0.570758,-0.5242252,0.2389209,-1.0071383,0.21404143,-1.0018357,-0.8909476,-0.49156627,0.26313633,0.112415954,0.31580773,0.66396457,-0.88133484,0.55855244,0.7066817,0.10085097,-0.8170468,0.55654866,0.81218624,0.4121511,-0.34659246,0.8715024,0.5968557,-0.31772503,-0.17180955,-0.23504351,-0.9875604,-0.93273336,0.13343169,-1.0074484,0.35700312,0.21076135,0.28416938,-0.23072857,-0.7657911,-0.8873443,0.10346876,-0.548275,-0.0572067,0.9052646,0.4825833,-0.58193296,-0.26085958,0.20395955,0.21080138,-0.9220024,0.7865053,0.632568,-0.7336573,0.34002665,-0.64054674,0.14901567,0.49208894,0.3501815,0.39100066,-0.7775434,0.049118012,-0.84150624,0.5868631,-0.74261516,-0.127817,0.80004555,0.29421684,0.0058523766,-0.041891634,-0.45538053,-0.97319317,-0.339551,0.12814517,0.4485814,-0.32259098,-0.6765161,0.8409958,0.72537047,-0.517058,-0.3330262,0.5388452,-0.6950187,0.15433225,0.35176197,-0.25454572,-0.79419583,0.50858057,-0.8154985,-0.6227066,-0.89452595,-0.6656192,0.36786044,0.5222217,0.45229438,-0.49724135,-0.9061605,-0.4549909,-0.19848791,0.9601844,0.27323884,0.20148095,-0.068822235,-0.23892848,0.2734705,-0.041550897,-0.6722414,0.52101815,0.24316353,0.74694294,-0.6371751,0.6789475,-0.6322394,0.82450515,0.8581777,-0.969522,0.23281029,-0.3831277,-0.5682744,-1.0096658,-0.26696134,-0.5564557,0.33470285,-0.32162133,-0.51891613,-0.099892795,-0.843981,-0.06891451,0.25767595,-0.86010164,0.16630617,0.38753885,-0.5451373,-0.641354,-0.8624299,0.14677638,-0.92738366,0.40837798,-0.5245707,-0.98825186,0.29241565,0.86214817,-0.784917,-0.021778654,0.71737313,0.43226075,0.5431523,-1.0069772,-0.5606778,0.89473855,0.24967091,-0.7942539,0.17545342,0.08407634,-0.9726172,0.30541062,0.5450272,-0.3344212,-0.45089543,0.5044232,-0.892945,0.5529482,0.8924962,0.7419534,0.0022480176,-0.37182024,-0.8947363,-0.36361718,0.78688926,0.3604931,-0.12949003,-0.1946266,0.4219021,0.045877952,0.19467327,-0.34961718,0.38003904,0.82083327,0.56218153,0.48139748,-0.43260637,-0.26410165,0.38317198,-0.09912108,0.90570295,-0.18984449,0.66672623,0.6952553,-0.3809471,-0.44195578,0.7180153,-0.6961932,-0.5447509,-0.7135703,0.40571073,0.053184554,0.66441005,0.35721362,-0.8475085,0.8179716,-0.2812826,0.6880941,-0.8741229,-0.15643421,-0.7274123,0.43012488,-0.8662216,0.46593305,-0.49181718,0.6010104,-0.8933352,-0.09176569,0.4682441,-0.04350951,0.90399987,-0.0666995,-0.20272928,0.81591564,0.39657947,-0.9995528,0.96619123,0.6844449,0.07063869,-0.66425365,-0.3677233,0.93888724,-0.17561401,0.24517214,-0.3436225,0.6286646,0.75727427,0.20098212,0.8441923,-0.95069414,-0.2825578,0.61102754,0.5097315,-0.55675346,-0.6261774,-0.39681673,-0.06442382,0.47922558,0.54516405,0.9905707,-0.44187737,-0.0791614,0.44409758,0.90621614,0.96076137,-0.1630757,0.021033714,0.6063983,0.9864699,-0.9842597,0.6710493,-0.45398974,0.6553407,0.30166516,0.6109648,-0.9322241,0.8750936,-0.8951827,-0.9263803,0.46873975,-0.09199618,-0.6769554,-0.4349612,-0.8265682,0.15506476,-0.9836086,-0.38692674,-0.6855824,0.72312325,-0.82372564,-0.533786,0.21662514,-0.47158852,0.06205927,0.6187232,-0.46366957,0.94234884,0.6832773,0.32748207,0.11361834,-1.0134066,-0.7534465,-0.7266662,-0.10909894,0.96471083,0.056015924,0.6737566,0.73057306,-0.7006953,0.8201448,-0.27304387,-0.95642704,0.4179272,-0.36677194,0.5836162,0.5771668,-0.45815822,0.8367207,0.18539551,-0.8983704,-0.038324203,-0.3155393,0.32203853,0.8253152,-0.7794063,-0.039825454,-0.48639965,-0.6767076,0.08870037,0.890316,-0.16373582,0.96327686,-0.14086598,-0.100677535,-0.72902864,0.6813988,-1.0032334,0.81026876,-0.98829114,-0.67026734,-0.939812,0.77983475,-0.19734056,-0.079570584,-0.45655665,0.07732761,0.32852006,0.44868702,0.56862986,0.9509249,0.9407926,-0.924447,-0.8996338,-1.004269,0.6152291,0.5394502,0.4294546,-0.379789,0.6991963,-0.7206696,0.8625197,0.4441281,-0.99045837,-0.2532031,-0.7209861,-0.93863136,0.43682933,-0.07975525,-0.29273042,0.38110182,-0.4382514,0.106083594,0.67776346,0.8127067,-0.7319718,-0.32914445,-0.44761664,0.6732763,-0.4883092,0.9966622,0.014704088,0.6025873,-0.09307204,0.7147354,0.05052012,-0.53361565,0.48161334,0.44967383,0.3416555,0.09683418,0.6015266,-0.7517919,-0.587869,-0.35182983,-0.6022694,0.9457757,0.39460492,-0.81841135,1.01269,0.1473495,0.9305191,-0.015289348,0.97856766,0.7469498,-0.33314133,0.03523217,-0.40034422,-0.8906382,1.0335158,-0.92091566,-0.82234055,-0.1507037,0.99513924,-0.3780623,-0.11330667,0.64278233,-0.44429317,-0.80102015,0.5588846,-0.7190718,0.0714187,0.3179242,-0.50788313,0.75147593,-0.60636646,0.87404144,0.8658197,0.78290236,0.61879784,0.6054917,0.2874315,0.529268,-0.17513123,-0.4927194,0.7093129,-0.86230123,-0.73187405,0.20840673,0.2023566,-0.27760783,0.2974972,-0.038410414,0.52562803,-0.2413653,-0.8006739,0.16087471,-0.9292647,0.23790655,0.86780053,0.6841638,0.88234454,-0.19768924,0.2555113,0.8169604,0.11421972,0.9677288,-0.7632438,-0.8951535,-1.0041051,0.7442042,-0.27071267,-0.33511204,-0.5815951,0.72027,-0.022994017,-0.12418608,-0.76332027,-0.9701354,-0.15599668,0.30349332,0.5621048,0.919916,-0.8019945,0.9748619,-0.26575422,-0.6973503,-0.43437105,0.38964865,0.15697171,-0.99080867,0.94799495,0.18345757,-0.10622255,-0.54490507,0.25802416,-0.83576304,-0.36061797,-0.57966006,0.52080506,0.775618,-0.8491216,0.07747948,-0.32231054,0.039301164,0.6080724,0.12185418,-0.68067294,0.13427022,0.43931812,-0.121745974,0.15384433,-0.83959204,0.8444816,-0.08515008,-0.41236353,-0.017878877,-0.71346,-0.36922646,-0.53253263,0.21049285,-0.65205103,0.41310188,0.7995962,0.85515827,0.5800532,-0.23320425,0.004517515,-0.3405261,0.808188,-0.50886416,-0.5332927,-0.83671045,-0.15886283,0.38049147,0.7596507,0.8965693,0.43064487,0.62247586,0.49058694,0.083017826,-0.2458514,0.159367,-0.4685087,-0.39420477,0.42075127,-0.32667673,0.18529509,0.5873181,-0.47060186,-0.89723593,-0.15394697,-0.10242389,-0.44566637,-0.08940713,0.17782708,-0.7341024,0.2899177,-0.5147339,0.704914,-0.23530243,0.14230584,0.88522154,0.68247,-0.0905918,-0.306807,-0.61277044,-0.8965497,-0.8930619,0.5990346,0.34292915,-0.497144,-0.21496795,-0.36190078,0.5450649,0.43723136,-0.069775924,-0.1476117,-0.65588003,0.8152033,-0.8857722,0.14179939,-0.5967989,-0.739756,-0.42441785,-0.47236538,0.88570154,0.9206391,0.8164118,0.55492544,0.40676346,-0.92529905,0.014012744,0.08255123,-0.98397726,0.6625168,-0.5943818,-0.26484713,-0.2536544,0.7507145,0.6078572,-0.7737153,0.58746076,-0.67394537,-0.35175535,0.7857178,-0.5214178,-0.0091729,-0.8195638,0.27227604,-0.34058478,-0.7487741,0.8103344,-0.37721133,-0.818289,-0.6567214,0.56630576,-0.83089924,-0.75856453,0.9336627,0.38966998,0.65626335,-0.9410176,0.26929384,-0.11459469,0.51427674,-0.45774037,0.22248177,-0.36069143,0.11713915,-0.23608515,0.9423218,0.6372455,-0.51617736,-0.32690528,0.8418171,0.65081155,-0.5342864,-0.8771504,-0.41957498,-0.7134712,-0.38798577,0.41498747,-0.759712,0.11669729,0.26149258,0.723447,0.92453593,-0.1733409,0.82037574,0.6494879,-0.81788075,0.6808721,1.0294186,-0.2199297,-0.91663975,0.23072442,0.3677849,0.007464945,-0.07657661,-0.52596563,-0.026743367,1.0021794,0.72219616,0.34297928,0.12032256,0.79391164,-0.35933,-0.072077185,0.37942788,0.61125636,0.3080225,0.59944123,-0.26528105,-0.29426283,-0.32794136,0.8725238,0.1852861,-0.20837875,0.9440446,-0.67421776,-0.98262626,-0.58455163,0.16344059,-0.41798118,-0.34495115,-0.9354559,0.9230191,0.626009,-0.7761108,-0.22666377,0.7332522,0.8168346,-0.4980691,-0.9561116,-0.8359637,-0.570296,-0.43463716,0.78566384,0.711205,0.11810922,0.48926786,0.25702715,-0.3074764,-0.41255686,-0.68313396,-0.616189,-0.22118041,-0.89132744,-0.6844502,-0.6030301,-0.4758075,-0.3744382,0.76472443,0.8734482,0.7702391,0.41308826,0.6566995,-0.29053852,0.07104636,0.77760756,-0.20855083,-0.55849755,-0.02164185,-0.7056126,0.91487515,-0.8571442,0.050090984,0.68175864,-0.077170506,0.6805106,-0.32591954,-0.88785285,-0.3124171,0.53173906,-0.22520141,0.8778084,0.21027596,-0.02544894,-0.63311666,0.19604568,-0.90700805,-0.883275,0.61811566,0.013695535,0.5570719,-0.73095673,-0.73180157,0.18263043,-0.52001923,0.08962536,0.63258517,0.9247598,-0.445725,-0.026257334,0.6370249,0.6323828,0.5755903,0.47213018,0.1287491,-0.049207024,0.8276806,-0.64855665,0.83299613,0.02463648,-0.49024707,0.8239408,0.1489544,-0.55056345,0.091965415,0.55199957,0.37675855,0.3635945,-0.32076722,-0.6780553,0.040253595,-0.7224317,-0.029379025,-0.10770225,0.44089153,-0.09061594,-0.4695773,-0.5556612,0.4965572,0.039065935,-0.19255163,-0.3843322,-0.47431722,0.4992004,-0.80726874,-0.009560872,-0.51783437,0.72566676,0.32719308,0.9766781,-0.89840144,-0.88587826,0.51957303,0.5273502,0.7968597,-0.33984828,-0.8181293,0.52315253,-0.85323393,-0.4218803,0.9248099,0.40645456,0.5270454,-0.5572766,-0.16281122,-0.30339307,0.15531728,0.32659137,0.47592458,-0.38709405,0.8656421,-0.44399214,-0.14472231,-0.09366512,0.2744398,0.19742304,-0.1487723,1.0261263,0.26860592,0.12511109,-0.6238864,-0.69770086,-0.8729226,-0.512653,-0.8766715,-0.17834052,0.5896592,0.3071035,0.8583168,-0.4352028,0.79950273,-0.06633743,0.8985456,0.027270818,0.67122346,0.81524235,0.16398388,-0.30167457,0.34290558,0.4477138,-0.3824993,0.26733106,0.39622265,0.93179727,-0.86073154,0.8293481,-0.8462781,-0.8510175,0.64731765,0.19820406,0.61685705,-0.020556794,-0.2552437,0.9842095,0.2698423,-0.08434881,-0.90459317,0.28243014,0.21600637,0.3716753,-0.5288328,0.08447732,-0.3192496,-0.67788506,-0.6200999,-0.11473618,-0.83059394,0.7320837,0.6631437,-0.37285596,0.06809173,-0.9313965,-0.07003112,-0.26838782,0.6254641,-0.8995831,0.0220165,-0.46088147,0.6917622,-0.5390691,-0.6950667,-0.063086055,-0.39090332,-0.95782286,0.48498803,0.88231915,0.46463147,0.5002739,0.020685678,-1.0222107,0.20537458,0.69946575,0.25699085,-0.32030544,-0.24395357,-0.19811645,0.15271015,-0.17053182,-0.26489744,-0.97577655,-0.29928485,0.49308315,-0.27846563,-0.78214705,0.06601902,0.40766984,-0.04140259,-0.8149373,-0.6044285,-0.9545347,0.77898437,-0.15905334,-0.07825684,-0.55425423,0.022190325,0.8462652,-0.054765813,-0.706791,1.0254811,-0.7265196,-0.727953,-0.03464807,-0.30107027,-0.26242808,-0.09836145,-0.43091837,-0.57093495,-0.0018548463,1.0383137,-0.7965619,0.06789422,-0.98080796,-0.16789581,0.5483987,-0.031875186,0.236651,-0.32725796,-0.21137527,-0.5215853,0.6335725,0.29755312,-0.9430324,-0.3184618,-0.36496976,0.46883157,0.7141244,-0.43230522,0.68154085,0.42440695,0.040461697,0.1200615,0.4532095,0.15411742,-0.599542,0.31494462,-0.65928036,0.4462682,-0.6281551,-0.6749005,0.202841,-0.04625263,0.09098544,-0.74953544,-0.6027097,0.6057336,0.13677073,0.5233726,1.0426234,0.2110346,0.67462945,-0.7823706,-0.8314906,0.7261034,0.71736914,0.011489713,-0.9054543,0.70343095,-0.28618604,0.19445263,0.025994796,0.8847548,1.0037227,-0.5057395,0.6619732,-0.1182926,-0.457533,-0.42911956,-0.07348365,-0.10316339,0.89844376,0.08290547,0.021403808,-0.03888055,0.27866676,-0.12404131,-0.35768777,0.6575351,0.79920137,0.49658552,-0.9826574,0.03823448,-0.94664496,0.29798234,-0.43555993,-0.03194122,0.77483,-0.17472269,0.95040375,0.50476086,-0.48127764,-0.11262465,-0.41723737,-0.44871503,0.123931654,-0.54470456,0.2964442,-0.75455034,-0.72250104,-0.71588445,-0.49587882,0.3822633,0.95323944,-0.880265,0.5737191,-0.090731286,0.055539522,0.9558563,-0.5115494,0.18490022,0.011863385,-0.5207872,0.38174263,0.634985,0.40379742,0.9211291,0.16713753,0.6951047,-0.009637986,0.45555228,-0.6755298,-0.5056338,0.35110283,0.7001594,-0.07361201,0.70499676,0.344666,0.28258485,0.7318119,-0.71320266,0.48586938,0.04953625,0.3319698,0.30470043,0.6597239,-0.661198,0.5789886,0.11730334,0.8614678,-0.75498486,0.22586015,0.46657455,-0.38659608,0.8788702,0.9935216,0.9602167,0.09014134,0.07221241,0.46045947,0.79961574,-0.3120089,-0.08338131,-0.44668975,0.6048956,0.26077294,0.5662051,0.1261353,-0.23183371,0.37159866,0.2686465,0.49301788,0.37006012,0.031107727,0.6746358,-0.66323113,0.8737039,0.38417158,0.6536091,-0.2529823,0.043417823,0.040629115,-0.4256103,0.40250346,0.32073867,0.34940234,0.0027565062,0.1328156,-0.2081863,0.8175782,0.0009599872,0.08203461,0.4818055,0.46366274,-0.6908972,-0.025390366,0.8241885,-0.96076375,0.22602434,0.7141979,-0.28007108,0.06131596,0.97216296,-0.7081766,-0.6104129,-0.46744856,0.796521,0.1663044,-0.07628481,0.9121225,0.53961664,-0.6719966,0.979317,-0.71951693,0.60533834,-0.607025,0.5425133,-0.11896869,0.1699521,0.80042994,0.13558595,0.6002173,0.3082016,-0.13405763,0.9301832,0.2535358,0.03788551,-0.7307682,-0.37500623,0.6313709,-0.25603232,-0.39921322,-0.9054052,0.06766703,0.89606076,-0.023998203,0.49710283,-0.63041586,0.39468122,-0.42454284,0.11107113,-0.73900414,0.4180693,0.17849514,0.66611296,-1.0098593,-0.7954294,0.019638443,-0.45922285,0.4322346,-0.46281087,0.26162913,-0.24238417,0.3038746,0.7555738,0.8369901,0.90851164,-0.72491205,0.23177296,0.08171561,0.16440612,-0.59391814,-0.30882552,0.7474565,0.5981908,0.6518019,0.47858068,-0.92753446,0.54182667,0.5311633,-0.12571049,0.2768025,-0.025908848,-0.52113426,0.08189474,0.1357563,-0.31996483,0.6796206,-0.29027334,0.94819915,-0.1090445,0.124556124,-0.20198016,-0.0058491817,-1.017174,0.6195797,-0.9914168,0.26016143,-0.5024664,0.11667273,0.7303298,0.016071726,-0.06976623,-0.41907892,0.75267464,0.5334612,-0.6115727,0.9200744,-0.9870406,-0.93828475,-0.8489172,-0.17547576,-0.15840594,-0.26300538,-0.43781227,0.48670653,0.1171797,-0.9160468,0.87205976,0.6416621,0.28330612,0.10274454,-0.28076375,-0.00082355837,0.2555651,0.2602444,0.76838094,0.080609396,-0.8716797,0.4526975,-0.4489467,0.67445296,0.4403141,0.16227658,-0.3021393,0.7713338,0.84848106,0.21002787,0.44316962,-0.3162566,0.8466484,0.17246917,0.9210384,0.012468811,-0.19944736,0.6182528,0.7654667,0.09758122,0.22989178,-0.7502452,-0.6290578,0.27101305,0.02589646,0.3012871,-0.07414774,-0.6633843,-0.14110266,-0.39266232,0.24518673,0.8683784,-0.03361984,-0.7685148,-0.33109847,0.09907769,-0.91000926,-0.027122429,0.6909449,0.26746708,0.8060283,0.64512,0.294918,-0.28824416,-1.0056554,-0.026724825,-0.0994633,0.7407908,0.5279585,-0.2724612,-0.8015186,0.093229905,0.724606,0.7399538,-0.97727716,0.47914335,0.13673805,0.033940103,0.47321784,0.669673,-1.058673,-0.25195912,-0.5232822,-0.61615163,0.16793112,-0.5893922,0.6373073,0.0967473,-0.3396412,-0.2976834,0.086766504,0.6233389,-1.0612513,-0.53247476,0.22522381,-0.051505245,-0.14488415,0.60551107,0.71016204,-0.8336853,0.06038508,0.4249541,0.46026942,-1.0901952,-0.16786954,-0.921283,0.0057916716,0.58305997,-0.9171543,-0.6736861,0.13456278,0.6450214,0.8691506,-1.0513397,0.43912995,-0.71926296,-0.7531614,-0.63469607,-0.9504674,-0.30735946,-0.52441126,-0.86090815,0.35930428,0.69350535,-0.13597272,0.29897568,-0.4765089,0.12214275,0.30632988,0.7630697,0.20795971,0.2627753,-0.046076715,0.5052731,-0.523174,-0.7688581,0.07023993,-1.0056822,0.15681647,0.076052904,-0.16584618,-1.0549092,0.44746426,0.16101654,-0.5070828,0.119198024,0.09856638,0.042255368,-0.24490842,0.492388,-0.2063961,-1.0113546,0.27294174,-0.15541121,-0.61169195,-0.69969356,-0.7696632,0.6326648,-0.9394985,-0.387833,-0.49000344,-0.20947967,-1.0381892,-0.74470764,-0.12447096,-0.8493309,0.82553804,-0.12434099,-1.0363904,0.39944184,-0.4069896,-0.5560542,0.15911214,-0.19665176,0.027075585,0.23740809,0.26515967,-0.31918773,0.6642502,0.040665906,-0.7014913,0.4575171,0.476594,0.4267695,0.89593506,0.19491713,-0.66776013,-0.48831874,-0.10011577,0.42338553,-0.9571806,0.72581387,-0.7448071,-0.013909937,0.42528728,-0.3629859,0.0737156,-0.86816585,-0.92550975,0.41019514,0.27428034,-0.030321952,-0.39499345,-0.11517839,-0.28628466,-0.83901256,-0.5174928,0.9211564,-0.023944348,0.80838794,-0.580683,0.79658806,0.41373473,-0.85138667,-0.17662711,0.918305,0.20062478,-0.04904143,-0.48787642],[-0.5250436,-0.15598585,0.73089975,0.40769872,-0.10100088,0.58902854,-1.029166,0.2874864,0.15150207,0.30031952,-0.43504012,-1.0077802,0.30356365,0.64256257,0.63457835,-0.40996915,-0.017890839,-0.17221503,0.20426905,0.51811284,-0.863862,-0.96449864,0.83509773,-0.7682708,0.8561626,0.3353404,-0.7589471,-0.060582656,-0.3784465,-0.0049036127,0.02009012,0.061930526,0.7011369,0.74740696,-0.70054346,0.91555536,-0.19290593,-0.9119176,0.79501873,-0.52197474,-0.56103915,-0.6992564,0.056062486,-0.5346958,0.27451247,0.45105505,-0.75182915,-0.60836613,0.8203975,0.5811164,0.008159164,0.12565798,0.07499108,0.36029992,-0.64697856,-0.24700554,-0.36763301,0.2170116,-0.5970979,-0.48711395,0.33960754,0.73177844,0.7519569,0.6456086,0.70050585,0.9061726,-0.90006334,-0.11989793,0.35927376,-0.18075132,-1.009918,0.71644163,0.4157339,-0.6881571,-0.41039786,-0.65371346,0.6926632,-0.87308013,-0.6299741,-0.08206455,-0.040730167,-0.009919185,-0.31206432,-0.6510469,-0.36309835,0.8135398,0.17820726,0.39014068,0.72877085,0.7754048,-0.7437986,0.8129222,0.25414127,-0.6608124,0.26570866,