{"SupervisedType":0,"MultiLayerPerceptronWrap":{"LayerWraps":[{"LayerType":5,"Dense":null,"Dropout":null,"Flatten":null,"Lstm":null,"MaxPool":null,"Conv":{"Shape":{"Height":30,"Width":30,"Depth":1},"Kernel":{"Count":16,"Dim":3},"Activation":1,"Stride":1,"Filters":[{"ElementsOneD":null,"ElementsTwoD":null,"ElementsThreeD":[[[0.004150253],[-0.014173184],[-0.023174053]],[[-0.009135961],[0.01641557],[-0.04859466]],[[0.0062572802],[0.046242803],[0.00848362]]],"_shape":{"Height":3,"Width":3,"Depth":1},"Shape":{"Height":3,"Width":3,"Depth":1}},{"ElementsOneD":null,"ElementsTwoD":null,"ElementsThreeD":[[[0.050420262],[0.011499225],[-0.03583351]],[[0.08962369],[-0.008901362],[-0.03348685]],[[0.063156076],[0.05432786],[-0.04682845]]],"_shape":{"Height":3,"Width":3,"Depth":1},"Shape":{"Height":3,"Width":3,"Depth":1}},{"ElementsOneD":null,"ElementsTwoD":null,"ElementsThreeD":[[[0.04155832],[-0.0047664344],[-0.04063988]],[[-0.040485233],[0.0087605305],[-0.039389096]],[[-0.012744954],[-0.030700395],[0.015888032]]],"_shape":{"Height":3,"Width":3,"Depth":1},"Shape":{"Height":3,"Width":3,"Depth":1}},{"ElementsOneD":null,"ElementsTwoD":null,"ElementsThreeD":[[[-0.043909162],[-0.025186718],[0.019362353]],[[0.015892101],[0.036318637],[0.044784725]],[[-0.0015801208],[0.056845866],[0.04140441]]],"_shape":{"Height":3,"Width":3,"Depth":1},"Shape":{"Height":3,"Width":3,"Depth":1}},{"ElementsOneD":null,"ElementsTwoD":null,"ElementsThreeD":[[[-0.020008454],[-0.017022364],[0.005401145]],[[0.0015245624],[0.0078034136],[0.016910376]],[[-0.013069192],[-0.01416599],[-0.01716195]]],"_shape":{"Height":3,"Width":3,"Depth":1},"Shape":{"Height":3,"Width":3,"Depth":1}},{"ElementsOneD":null,"ElementsTwoD":null,"ElementsThreeD":[[[0.039081264],[-0.00051074463],[-0.038203448]],[[0.00076950033],[-0.022365969],[0.022032019]],[[0.0029074564],[-0.026358938],[-0.06042113]]],"_shape":{"Height":3,"Width":3,"Depth":1},"Shape":{"Height":3,"Width":3,"Depth":1}},{"ElementsOneD":null,"ElementsTwoD":null,"ElementsThreeD":[[[-0.05290478],[-0.045244195],[0.007324573]],[[-0.029960193],[-0.015206314],[0.027502475]],[[-0.0044913203],[-0.018010242],[-0.029152788]]],"_shape":{"Height":3,"Width":3,"Depth":1},"Shape":{"Height":3,"Width":3,"Depth":1}},{"ElementsOneD":null,"ElementsTwoD":null,"ElementsThreeD":[[[-0.02387044],[-0.0017382067],[0.023198942]],[[0.014649972],[-0.05387135],[0.02592596]],[[0.035859317],[-0.03851763],[0.021975229]]],"_shape":{"Height":3,"Width":3,"Depth":1},"Shape":{"Height":3,"Width":3,"Depth":1}},{"ElementsOneD":null,"ElementsTwoD":null,"ElementsThreeD":[[[-0.008071966],[0.032681603],[0.019220388]],[[-0.024718706],[0.030580437],[0.04087159]],[[0.013850907],[0.0007260921],[0.025511406]]],"_shape":{"Height":3,"Width":3,"Depth":1},"Shape":{"Height":3,"Width":3,"Depth":1}},{"ElementsOneD":null,"ElementsTwoD":null,"ElementsThreeD":[[[-0.030584004],[0.03547775],[0.00970115]],[[-0.027123056],[0.035776332],[0.03886532]],[[0.018917616],[0.053796843],[0.02821835]]],"_shape":{"Height":3,"Width":3,"Depth":1},"Shape":{"Height":3,"Width":3,"Depth":1}},{"ElementsOneD":null,"ElementsTwoD":null,"ElementsThreeD":[[[-0.025550228],[0.028156068],[-0.015639435]],[[-0.013298725],[0.00957316],[0.04367218]],[[-0.0062279673],[0.050878473],[0.06077081]]],"_shape":{"Height":3,"Width":3,"Depth":1},"Shape":{"Height":3,"Width":3,"Depth":1}},{"ElementsOneD":null,"ElementsTwoD":null,"ElementsThreeD":[[[0.011406658],[-0.021192696],[0.02795871]],[[0.009703576],[0.029640898],[0.026257344]],[[-0.0045691757],[0.008602737],[0.022682935]]],"_shape":{"Height":3,"Width":3,"Depth":1},"Shape":{"Height":3,"Width":3,"Depth":1}},{"ElementsOneD":null,"ElementsTwoD":null,"ElementsThreeD":[[[0.012888951],[0.005412824],[-0.028805867]],[[-0.025042383],[-0.010438049],[0.022708526]],[[-0.050105184],[-0.011981838],[0.037521385]]],"_shape":{"Height":3,"Width":3,"Depth":1},"Shape":{"Height":3,"Width":3,"Depth":1}},{"ElementsOneD":null,"ElementsTwoD":null,"ElementsThreeD":[[[0.024574853],[0.024142656],[-0.01910888]],[[0.04872182],[0.039316498],[-0.0240842]],[[-0.0027811485],[-0.0013067396],[-0.017429955]]],"_shape":{"Height":3,"Width":3,"Depth":1},"Shape":{"Height":3,"Width":3,"Depth":1}},{"ElementsOneD":null,"ElementsTwoD":null,"ElementsThreeD":[[[-0.07131926],[-0.04534976],[0.013570365]],[[0.0024638996],[0.03696978],[-0.035311364]],[[-0.0032203284],[0.052961096],[0.042817004]]],"_shape":{"Height":3,"Width":3,"Depth":1},"Shape":{"Height":3,"Width":3,"Depth":1}},{"ElementsOneD":null,"ElementsTwoD":null,"ElementsThreeD":[[[-0.011261567],[-0.039229795],[-0.026471265]],[[-0.048170865],[-0.026086494],[0.04013017]],[[0.026945086],[0.039585605],[0.03491761]]],"_shape":{"Height":3,"Width":3,"Depth":1},"Shape":{"Height":3,"Width":3,"Depth":1}}],"FilterGradients":[{"ElementsOneD":null,"ElementsTwoD":null,"ElementsThreeD":[[[0.0],[0.0],[0.0]],[[0.0],[0.0],[0.0]],[[0.0],[0.0],[0.0]]],"_shape":{"Height":3,"Width":3,"Depth":1},"Shape":{"Height":3,"Width":3,"Depth":1}},{"ElementsOneD":null,"ElementsTwoD":null,"ElementsThreeD":[[[0.0],[0.0],[0.0]],[[0.0],[0.0],[0.0]],[[0.0],[0.0],[0.0]]],"_shape":{"Height":3,"Width":3,"Depth":1},"Shape":{"Height":3,"Width":3,"Depth":1}},{"ElementsOneD":null,"ElementsTwoD":null,"ElementsThreeD":[[[0.0],[0.0],[0.0]],[[0.0],[0.0],[0.0]],[[0.0],[0.0],[0.0]]],"_shape":{"Height":3,"Width":3,"Depth":1},"Shape":{"Height":3,"Width":3,"Depth":1}},{"ElementsOneD":null,"ElementsTwoD":null,"ElementsThreeD":[[[0.0],[0.0],[0.0]],[[0.0],[0.0],[0.0]],[[0.0],[0.0],[0.0]]],"_shape":{"Height":3,"Width":3,"Depth":1},"Shape":{"Height":3,"Width":3,"Depth":1}},{"ElementsOneD":null,"ElementsTwoD":null,"ElementsThreeD":[[[0.0],[0.0],[0.0]],[[0.0],[0.0],[0.0]],[[0.0],[0.0],[0.0]]],"_shape":{"Height":3,"Width":3,"Depth":1},"Shape":{"Height":3,"Width":3,"Depth":1}},{"ElementsOneD":null,"ElementsTwoD":null,"ElementsThreeD":[[[0.0],[0.0],[0.0]],[[0.0],[0.0],[0.0]],[[0.0],[0.0],[0.0]]],"_shape":{"Height":3,"Width":3,"Depth":1},"Shape":{"Height":3,"Width":3,"Depth":1}},{"ElementsOneD":null,"ElementsTwoD":null,"ElementsThreeD":[[[0.0],[0.0],[0.0]],[[0.0],[0.0],[0.0]],[[0.0],[0.0],[0.0]]],"_shape":{"Height":3,"Width":3,"Depth":1},"Shape":{"Height":3,"Width":3,"Depth":1}},{"ElementsOneD":null,"ElementsTwoD":null,"ElementsThreeD":[[[0.0],[0.0],[0.0]],[[0.0],[0.0],[0.0]],[[0.0],[0.0],[0.0]]],"_shape":{"Height":3,"Width":3,"Depth":1},"Shape":{"Height":3,"Width":3,"Depth":1}},{"ElementsOneD":null,"ElementsTwoD":null,"ElementsThreeD":[[[0.0],[0.0],[0.0]],[[0.0],[0.0],[0.0]],[[0.0],[0.0],[0.0]]],"_shape":{"Height":3,"Width":3,"Depth":1},"Shape":{"Height":3,"Width":3,"Depth":1}},{"ElementsOneD":null,"ElementsTwoD":null,"ElementsThreeD":[[[0.0],[0.0],[0.0]],[[0.0],[0.0],[0.0]],[[0.0],[0.0],[0.0]]],"_shape":{"Height":3,"Width":3,"Depth":1},"Shape":{"Height":3,"Width":3,"Depth":1}},{"ElementsOneD":null,"ElementsTwoD":null,"ElementsThreeD":[[[0.0],[0.0],[0.0]],[[0.0],[0.0],[0.0]],[[0.0],[0.0],[0.0]]],"_shape":{"Height":3,"Width":3,"Depth":1},"Shape":{"Height":3,"Width":3,"Depth":1}},{"ElementsOneD":null,"ElementsTwoD":null,"ElementsThreeD":[[[0.0],[0.0],[0.0]],[[0.0],[0.0],[0.0]],[[0.0],[0.0],[0.0]]],"_shape":{"Height":3,"Width":3,"Depth":1},"Shape":{"Height":3,"Width":3,"Depth":1}},{"ElementsOneD":null,"ElementsTwoD":null,"ElementsThreeD":[[[0.0],[0.0],[0.0]],[[0.0],[0.0],[0.0]],[[0.0],[0.0],[0.0]]],"_shape":{"Height":3,"Width":3,"Depth":1},"Shape":{"Height":3,"Width":3,"Depth":1}},{"ElementsOneD":null,"ElementsTwoD":null,"ElementsThreeD":[[[0.0],[0.0],[0.0]],[[0.0],[0.0],[0.0]],[[0.0],[0.0],[0.0]]],"_shape":{"Height":3,"Width":3,"Depth":1},"Shape":{"Height":3,"Width":3,"Depth":1}},{"ElementsOneD":null,"ElementsTwoD":null,"ElementsThreeD":[[[0.0],[0.0],[0.0]],[[0.0],[0.0],[0.0]],[[0.0],[0.0],[0.0]]],"_shape":{"Height":3,"Width":3,"Depth":1},"Shape":{"Height":3,"Width":3,"Depth":1}},{"ElementsOneD":null,"ElementsTwoD":null,"ElementsThreeD":[[[0.0],[0.0],[0.0]],[[0.0],[0.0],[0.0]],[[0.0],[0.0],[0.0]]],"_shape":{"Height":3,"Width":3,"Depth":1},"Shape":{"Height":3,"Width":3,"Depth":1}}],"Bias":{"ElementsOneD":[0.0008620561,-0.0008620561,0.0008620561,0.00086205604,0.0008620561,0.0008620561,-0.0008620561,-0.0008620561,-0.00086205604,-0.0008620561,-0.0008620561,-0.00086205604,0.0008620561,-0.0008620561,0.0008620561,0.0008620561],"ElementsTwoD":null,"ElementsThreeD":null,"_shape":{"Height":16,"Width":0,"Depth":0},"Shape":{"Height":16,"Width":0,"Depth":0}},"BiasGradients":{"ElementsOneD":[0.0,0.0,0.0,0.0,0.0,0.0,0.0,0.0,0.0,0.0,0.0,0.0,0.0,0.0,0.0,0.0],"ElementsTwoD":null,"ElementsThreeD":null,"_shape":{"Height":16,"Width":0,"Depth":0},"Shape":{"Height":16,"Width":0,"Depth":0}}}},{"LayerType":4,"Dense":null,"Dropout":null,"Flatten":null,"Lstm":null,"MaxPool":{"Shape":{"Height":30,"Width":30,"Depth":16},"Kernel":{"Count":16,"Dim":3},"Stride":2},"Conv":null},{"LayerType":2,"Dense":null,"Dropout":null,"Flatten":{"Shape":{"Height":14,"Width":14,"Depth":16}},"Lstm":null,"MaxPool":null,"Conv":null},{"LayerType":0,"Dense":{"Activation":0,"Shape":{"Height":3136,"Width":64,"Depth":0},"Weights":{"ElementsOneD":null,"ElementsTwoD":[[0.006237832,-0.2541695,0.26998094,0.07858231,-0.8636505,-0.24453953,0.2058063,0.61244655,-0.5893473,-0.7827523,-0.070948824,0.81965435,0.5992065,0.37658995,0.18900254,-0.5020555,-0.6389193,-0.18042755,-0.7443111,0.031123785,0.89807385,0.48717076,0.561441,-0.78363925,-0.83993816,0.9114813,-0.591493,0.10119326,0.294292,-0.8736601,-0.57474893,0.2430604,-0.5204221,0.99600846,-0.3525131,0.41206062,0.14802125,0.077070974,0.8842998,-0.7683343,0.05303193,-0.63307357,-0.6376046,0.56473315,0.19979976,0.4332078,-0.104370415,-0.2327507,0.2082962,-0.1424646,-0.6181848,-0.32166535,0.023197219,-0.4314256,-0.696286,-0.3436408,-0.7040493,0.82529694,0.75849754,-0.102086574,0.83920103,-0.9477997,0.42989543,-0.21415861,-0.60879517,-0.8743732,0.82873005,-0.121594906,-0.88668716,-0.46552747,-0.62402546,-0.37686118,0.20432967,-0.21996433,0.4498837,0.064054854,0.5748119,-0.8383413,-0.79194903,-0.57934797,-0.7825509,0.8739992,0.71280885,0.32826397,0.65103084,0.37160054,-0.4979377,-0.01981961,-0.55303776,-0.52303183,0.21253651,-0.5738066,-0.304075,-0.719365,0.16423486,-0.5695344,-0.14156114,-0.5663641,0.050231446,-0.6149172,-0.70531243,0.9866692,-0.69575864,-0.16438662,-0.3367138,0.104371056,-0.97702575,0.85965437,-0.5392416,-0.875955,0.089212656,-0.45774361,-0.7438686,-0.7218274,0.20909639,-0.90737104,0.73135644,0.37626404,-0.4092031,0.5053332,0.5753969,-0.3475009,-0.5585166,0.7160034,0.5455985,0.33222967,0.4878254,-0.31036448,-0.33105028,0.8897316,0.8112774,0.6082368,-0.84128505,-0.28146526,0.87229115,-0.3340153,0.11248277,-0.53579193,-0.73996836,-0.4495582,-0.12131005,-0.33973753,0.30652085,-0.4208353,0.36937046,-0.008261881,-0.8100145,0.38583502,-0.52700526,0.54197055,-0.13100195,-0.6337678,-0.2700417,-0.00014048279,-0.15491281,-0.14247051,0.94484556,-0.91330177,0.05821351,0.1825586,-0.8813736,-0.37055337,0.26358768,-0.35776863,0.54066354,-0.106069654,-0.20066597,-0.61991465,0.51709986,-0.26137975,-0.4586282,0.77575535,-0.3023412,-0.16341484,0.67630994,-0.088968076,0.23644516,0.78528816,0.6212984,0.78765947,0.6593849,0.11209969,-0.2366326,-0.10641724,-0.7210828,-0.14154176,-0.5300007,-0.5960845,0.11541003,0.9366647,-0.8194544,-0.9905264,-0.3321207,0.81308347,-0.9309169,0.6731568,-0.039725475,-0.23366971,-0.6850667,0.45639107,-0.21594399,0.94018805,0.03165069,-0.055779092,-0.09063625,0.030260572,0.33866492,0.9725797,-0.2400129,-0.58512396,0.57577145,-0.024897674,0.30671778,0.857903,0.02145068,0.5594306,-0.24547069,-0.33707923,-0.5766938,0.4971749,-0.36281732,-0.21955743,0.5287898,0.004016906,-0.059735924,-0.16146797,-0.33451512,-0.6966662,0.34413818,-0.021823684,-0.22698267,0.6334698,0.9508142,0.414905,0.5832355,0.16994984,0.35192147,-0.8132822,0.11850118,0.4026427,0.46543536,0.7908126,-0.11325556,0.529099,0.4715645,-0.9093916,0.92541057,-0.7078252,-0.65519476,-0.63037765,0.024078075,0.73168445,-0.032118484,-0.71728945,-0.06908823,0.90373886,-0.8706443,0.12993845,0.42556813,-0.5024328,0.050473675,-0.0006672013,0.08379755,0.5631743,-0.119015805,0.6928645,0.40062898,0.07775887,-0.111524515,-0.8243329,0.0636354,0.696839,-0.4434159,0.27807721,0.8898356,-0.76746875,-0.9155347,-0.6312635,-0.5140664,0.57280546,-0.57958037,0.17772008,-0.09811227,-1.0211681,-1.0008111,-0.9226696,0.8345386,0.04203923,0.8749928,0.30274308,-0.16161609,-0.19956173,-0.24956578,0.9240529,-0.6932462,-0.5254149,0.3275879,-0.68475306,-0.71826345,0.87358105,-0.5712264,-0.9038524,-0.7705054,0.017161913,-0.7189033,0.88392025,0.7595912,0.2603248,-0.70224893,-0.79560655,0.98309195,-0.944771,-0.58263767,0.6682027,0.8805268,0.88658273,-0.38799307,0.94452614,-1.0382636,0.37892568,-1.0008184,0.5493377,0.7971688,-0.6609063,0.1415625,0.9022947,-0.7426797,0.3788589,-0.26585403,0.33318698,-1.0143143,-0.39875895,0.30419406,0.5774573,-0.06253036,-0.29851872,0.6277202,0.8723151,-0.77835774,0.6016312,-0.48102236,-0.084382884,1.0039873,-0.8148782,-0.18849002,0.80823064,-0.8769944,-1.0272597,0.5112478,0.52197844,0.20931059,-0.9532037,-0.3292135,-0.11924775,0.8932153,0.6052968,-0.7802238,0.18699977,0.94695705,0.9077428,0.59677523,0.8890637,-0.8337461,0.3748882,0.084606476,-0.18773971,0.080962315,-0.2183503,0.93614,0.08482668,0.4415221,-0.004572564,-0.1340442,0.55901885,0.47501844,-0.74801123,0.5042104,-0.10693248,-0.41786277,-0.03876546,-0.5767623,0.53438467,0.8150416,-0.8076419,-0.61851794,0.9549638,0.066229686,-0.59301955,-0.017501308,0.21802428,-0.47863612,-0.88273424,-0.26347825,0.071826845,-0.82592946,0.42714068,-0.44571963,-0.7846232,0.66902554,0.25567552,0.9222864,-0.44481078,-0.28611502,0.2604525,0.36851603,-0.7855414,-0.5832905,0.8905677,0.8980901,-0.986236,-0.86421424,0.035758354,0.71237123,0.37490928,-0.8864386,-0.14682694,0.38245755,-0.9889161,-0.3513204,-0.7859282,0.985701,-0.5374751,0.48384076,0.38240153,0.84507835,-0.022688612,-0.30152643,-0.6351083,-0.8387477,-0.57212216,-0.91983396,0.7244753,-0.6948578,0.65420127,0.43680677,0.08770616,-0.8037118,-0.13474229,0.80818206,-0.05366152,1.0040188,-0.63210255,0.38900584,-0.17452165,0.08434218,-0.9359838,-0.45753253,-0.3896149,0.8457836,-0.07373601,0.0033646855,-0.78574705,-0.30607736,-0.43009105,0.32761192,-0.8499552,-0.5336957,-0.96287763,0.30955085,0.31360173,-0.26574445,-0.60505074,0.3531737,0.4475793,-0.5279019,0.87783474,-0.16827567,-0.9539971,-0.12857059,-0.8729072,-0.010974031,0.7695315,0.36411965,0.92811644,0.23550692,0.8143688,0.6626688,-0.021769166,-0.7439397,0.054123994,0.21570393,0.1664327,-0.3003894,-0.24603091,-0.78459907,0.92935646,-0.34357378,0.38601446,0.8649436,-0.114450574,0.1842397,-0.3451176,0.7519742,0.51018935,0.47301617,-0.07223463,0.4670591,0.89309776,0.70176417,0.17576894,0.18273439,0.47029623,0.04931254,0.6911811,0.6672213,0.8916356,-0.4072963,0.4091424,-0.9190103,-0.53631204,0.2666348,0.9061102,-0.05347823,0.6305845,0.05257319,-0.3327593,0.69913983,0.70953,0.2597193,0.27295178,0.16633067,-0.16989547,-0.6345927,-0.8211657,0.67016524,-0.39773268,0.1463893,-0.12357146,0.90902007,0.6716706,0.25425616,0.45188746,0.3719698,-0.12099554,0.40411434,-0.6926267,0.21301366,-0.29870105,-0.5498265,0.017038513,-0.40345952,-0.70043653,0.87797266,-0.6168413,-0.58379936,0.41112033,-0.7195798,0.15232591,-0.15198798,-0.81036484,-0.8161822,-0.34056488,-0.8967136,-0.13400045,-0.2081087,0.351756,-0.9212397,0.55108726,-0.7481378,-0.38829488,0.10186571,-0.35366368,-0.4877625,-0.798587,-0.4580287,0.028972564,-0.94132996,-0.47015527,-0.09489671,-0.5419742,0.9575158,0.13170323,-0.7966949,0.6390269,0.67144275,-0.0281213,-0.918635,0.65071374,-0.7625718,-0.15103021,-0.64724195,-0.8473155,-0.95013344,-0.81487703,0.43898615,-0.6771692,-0.2205498,0.098100044,-0.4103087,0.6194574,-0.6623696,0.7752098,0.7336382,-0.58170533,0.3310273,-0.8305361,0.3509154,0.9410975,0.007744007,0.34603268,-0.06113089,0.5000088,0.79696643,-0.66924053,-0.7749872,-0.47617206,0.31164807,-0.75476927,-0.17768233,0.3319,-0.83338165,-0.83694977,0.0031969396,-0.5183747,-0.81566167,-0.1040538,0.6109732,-0.6812142,-0.8208511,-0.7752575,-0.89314353,-0.30973333,0.55393183,-0.62053174,0.20188463,0.34043646,-0.37265715,0.10496191,-0.28672743,0.5912038,-0.87058425,0.1432574,-0.8403879,0.23499158,0.35793316,-0.6335487,0.3066949,0.3909377,0.015164672,0.6126122,0.91477895,-0.9579878,0.49556714,-0.81012714,-0.023851253,0.14048266,0.056159876,-0.82260865,-0.41994557,0.52424484,-0.5552078,0.18252155,-0.1392671,-0.26976267,-0.292414,0.51484674,0.63975364,-0.5840364,0.8424186,-0.8917475,-0.68537474,-0.100003466,-0.96052784,-0.09021197,-0.63462776,0.6355266,-0.5690773,-0.3339485,-0.69781893,-0.8432467,0.2680113,0.4672597,-0.18389569,-0.24779329,0.6954671,-0.47024754,-0.39871764,-0.3488941,-0.32329512,0.29801366,0.95611835,-0.3463725,-0.2593404,0.44260576,-0.5780534,-0.3514696,-0.31849942,-0.46743894,-0.5499447,0.9900646,0.58052224,0.8966439,-0.9547969,0.67025197,0.027827514,-0.39544117,0.06543667,-0.8919041,0.23202966,0.13475868,0.41071942,-0.04436939,0.33027166,-0.892762,0.55253303,-0.80670685,0.7766788,-0.60808784,0.52505916,0.0773423,-0.38050544,-0.4428786,0.06682772,-0.84536076,-0.8616513,0.37909192,0.60740745,-0.7401133,-0.7938838,0.15993252,0.063206755,-0.25483575,-0.73614377,0.10424795,-0.82221353,0.85834205,0.776717,-0.19441752,0.59749573,0.8777172,-0.18948235,0.45749453,-0.15744564,-0.21830407,-0.8746087,0.07356094,-0.9123658,-0.36638966,0.2792302,0.7939406,0.5183151,0.135256,0.20319277,0.611339,-0.64788055,-0.3500016,-0.5972462,0.36670586,0.5505348,-0.30270496,-0.12459002,0.46645766,0.63821626,-0.18880415,0.6053952,0.1425191,-0.51684886,-0.2820887,0.9780369,-0.008183033,0.021902956,0.14643228,0.8504826,-0.8815037,-0.32997468,-0.5493077,0.458571,0.59357345,0.8607332,0.103490494,-1.0169576,-0.16624428,0.20572191,0.6846324,0.023619313,-0.41043365,0.4574664,-0.9063913,0.6016106,0.46431836,0.83770907,0.32950318,0.26474744,0.33037025,-0.7914043,-0.14903952,-0.16342618,-0.11869496,-0.8676646,-0.11165744,0.6636904,0.010560399,0.12953748,0.7784027,-0.3696003,-0.43883106,0.03494512,0.9898424,-0.27555907,0.35577878,-0.4558989,0.9274983,0.7047992,-0.40150252,0.32674614,0.3904553,-0.6868777,0.44951344,-0.392819,-0.2597462,0.07340978,0.5035298,0.07855672,-0.5883412,0.11950941,0.68952835,0.54340845,0.03692905,0.41564646,-0.18602028,0.14370142,-0.7509641,-0.009061305,0.7841013,-0.21109307,0.34167522,-0.15199845,-0.6148471,0.2975625,0.78386194,0.40270898,-0.44270602,-0.3579179,0.49848938,-0.197444,0.21287991,0.46652094,0.14954954,-0.67319745,0.7851702,-0.09714889,-0.48475102,0.8848973,-0.21000731,0.7071997,-0.6206087,-0.76267594,0.09780061,-0.060392596,0.8910218,-0.31583226,0.52258617,-0.35828477,0.7792672,0.2662111,-0.022138298,-0.464314,0.9511247,0.62379706,-0.12901638,-0.49874726,0.5485151,-0.9604996,0.31085244,0.08310028,0.7221331,-0.25727674,-0.71172374,0.84602994,0.8000384,-0.61991185,0.03723051,0.9597623,-0.5328385,0.23752005,-0.65148044,0.09330566,0.21703905,0.96265113,0.3269535,0.8643416,-0.79205316,-0.41007143,0.60184014,0.5356601,0.2476205,-0.51131773,0.40014645,0.21666849,0.57192665,-0.37196884,-0.041200366,-0.47420326,0.248373,0.6682497,-0.21213275,0.27200013,-0.7727204,0.4077918,0.14873816,-0.1681013,-0.4748723,0.15317126,0.0007960253,-0.943731,-0.8643864,0.073319346,0.5673296,0.5430099,0.18349586,-0.21243382,-0.45072892,-0.49167693,-0.63926446,0.8530345,0.63692456,0.3336962,0.78300726,-0.8888639,-0.6330665,0.4603042,-0.70877516,0.3076962,-0.33076692,0.14562516,0.82787216,-0.47443306,0.6737321,0.101590864,0.31304336,-0.3713967,-0.017647509,0.84713787,0.6514281,-0.71346694,0.34185323,-0.6244763,0.34456035,0.7068351,-0.1971111,-0.620342,0.5338982,-0.5655352,-0.8470897,0.23123074,0.083343916,-0.9170967,-0.22260295,0.42834684,-0.08711521,0.49878603,-0.22874291,-0.78018826,-0.34278023,0.4043057,0.59458476,-0.21024261,-0.20186768,0.90113354,-0.39178967,-0.89636093,0.424169,-0.32289484,0.6668055,0.8692795,-0.34426695,-0.36423573,0.97879755,-0.8735443,0.5235998,0.18960163,0.06468715,-0.5783492,-0.79808456,-0.27411014,0.88854545,-0.8516804,0.33722836,0.024415273,0.4813641,0.18933715,0.8732941,0.26125488,0.9301781,0.4842959,-0.6708761,-0.8191476,0.6953843,0.18211716,0.95328903,0.30441484,0.30753848,0.5019579,-0.9029096,0.82228535,0.24763976,-0.59155864,0.9052513,0.21103773,0.5675243,-0.04436929,0.47390738,-0.27378303,-0.8700765,-0.5722981,-0.23776925,0.8660144,0.8467601,0.59275323,0.36424673,0.47637066,0.5782836,0.9101624,-0.8015505,0.3883833,-0.7366589,0.86806226,-0.3996315,-0.34186316,-0.6517887,-0.19455808,-0.383032,-0.8207885,-0.19709808,0.700066,0.009595446,0.5613455,0.60146224,0.48911825,-0.5996925,-0.32254985,0.33540264,0.76447326,0.10880156,-0.20038004,-0.14767295,-0.5558427,0.040959965,0.95877814,0.36030835,-0.38681152,-0.65097296,-0.5430326,0.98243815,-0.85020345,-0.46575686,-0.8303396,-0.4288712,-0.48972914,0.9567293,-0.10300965,0.50741714,-0.10223167,0.86723477,-0.1339085,0.17523642,0.8967539,-0.5654175,0.47844377,0.77835035,0.74831766,0.3118913,-0.8365437,0.55893797,0.78067195,1.0043525,-0.096090466,0.71067107,-0.633354,-0.6187161,-0.31454325,0.49984214,0.1448698,0.912587,-0.5661023,-0.5518642,-0.14568199,-0.67455435,-1.0064384,0.3860335,-0.39771914,0.34245738,-0.1443429,0.41611215,0.13086246,0.6440639,0.5871425,-0.8062252,-0.3520115,0.91182256,-0.3656824,0.3652092,0.7019586,0.4214674,-0.34924072,0.16037795,0.042032897,0.7045675,-0.9121543,-0.80508184,-0.5796964,0.13303119,-0.17641611,-0.08478624,-0.57365865,-0.6863146,-0.93563557,0.9994185,-0.48307353,1.0179904,-0.9132479,0.45334098,0.1612009,-0.79451686,-0.33982605,-0.42620662,0.13128377,0.6327514,-0.17962511,0.2963866,-0.15449773,-0.4619229,0.8315043,0.6474911,-0.95265764,0.09157726,0.41426873,0.551949,-0.10176885,-0.56858146,0.27078176,-0.5110478,0.13497107,-0.14966573,-0.0354387,-0.65648574,0.20015982,0.99257755,-0.28824732,0.06007825,0.81248164,0.44830325,-0.2553512,0.6478126,-0.9998905,-0.82312304,-0.64486945,0.715661,-0.5656296,-0.0768474,0.016580977,0.37588418,-0.17146935,-0.9141327,-0.031451136,-0.8816687,-0.5646729,-0.7412261,-0.18081984,0.855724,-0.05876746,-0.42790586,0.17155722,-0.8516264,0.8358506,-0.9897662,-0.27610147,0.4299946,0.56457293,-0.69468045,-0.36809078,0.34399444,-0.1109715,0.42255345,-0.6869438,-0.7032277,0.9678347,-0.48874044,-0.47843248,-0.46987972,0.87431896,-0.79906243,-0.41064397,0.89698887,0.38069725,0.5314943,-0.9539033,0.558221,-0.021784617,-0.98290753,0.99312896,-0.7614359,0.71069837,-0.71187514,0.38011435,0.8190074,-0.28116998,-0.8058157,0.4231868,0.8975223,0.73071474,-0.505246,0.6151846,0.20387174,0.26294836,0.28197393,-0.35138384,-0.039231427,0.30938372,-0.47717226,-0.8541409,-0.29796466,-0.5042759,0.2569966,0.93879193,0.6361763,0.002839636,0.81245047,-0.30769476,-0.50462586,-0.60344726,-0.98541814,-0.67483425,-0.3664561,0.25953147,-0.19375677,-0.5830496,0.7289077,0.31069762,-0.36082506,0.3739674,0.84893125,0.8535502,-0.94620335,-0.71441317,-0.054827377,-0.58886236,0.7944939,-0.13910502,0.5099467,0.09440558,0.6452097,-0.70238006,-0.39718357,-0.4996847,0.967416,0.17910424,0.05448332,0.12014162,1.0124267,0.8510084,0.023438755,-0.46595612,0.861962,0.12922698,0.6458334,-0.10968475,0.8333692,-0.9174305,-0.6112062,0.65353674,0.6512236,0.152601,0.43915823,-0.988721,-0.11584227,-0.4890039,-0.6510091,-0.3695072,-0.4688045,-0.52953684,-0.39499548,-0.9537853,-0.4495386,0.7977437,0.49934602,0.9106255,-0.021935208,-0.089118905,-0.4633549,0.03968848,-0.9316356,0.0075740954,0.09165363,-0.41738036,1.0181106,0.47775632,0.90885615,0.23085018,-0.3944477,-0.41549015,-0.06503078,0.13665518,-0.2626341,-0.66514796,-0.8367477,-0.09926346,0.18487972,0.6328319,0.38464665,-0.76801676,0.35066053,-0.42407537,-0.41562238,0.88402003,0.7575769,-0.20288546,0.059976544,-0.94844633,-0.32724836,0.82312346,0.81972224,0.74452055,-0.5791678,0.95767796,0.039726492,-0.606497,0.17015618,0.79790545,0.704741,-0.43967637,0.404551,0.21056634,0.73611724,0.8053823,0.13252714,-0.6406189,-0.595943,0.73530024,-0.39951175,-0.7023,-0.95367163,-0.2215854,-0.164095,-0.035303332,0.10101706,0.94403666,0.14798982,-0.38007897,0.16171415,-0.93056804,-0.024718765,-0.47095463,-0.33444458,0.31899717,0.31038186,-0.5067513,0.753111,-0.21327412,-0.84333074,0.88304645,-0.367777,0.13978377,-0.08634127,0.66074127,0.060254678,0.113473564,0.55792487,-0.79460514,-0.6244771,-0.5665247,-0.88473856,-0.07577506,0.70483714,0.7276147,0.09570335,0.18097045,0.85057884,0.9604502,0.18286033,0.54084635,0.046198867,-0.16527043,-0.737017,-0.5737863,-0.024531059,0.06934341,-0.4035786,-0.35065678,0.23469909,-0.9647433,0.7510858,0.58004695,-0.43754458,-0.8702044,-0.183735,0.8171847,0.59382915,-0.1312854,0.8038876,0.6905204,0.9163612,1.0192834,-0.14930673,0.22191824,0.016863877,0.6629661,0.7591227,0.6189561,-0.5776496,-0.8605273,-0.4644802,-0.20044635,0.30417505,-0.120248124,-0.5412364,-0.5103414,-0.77426744,0.26014662,0.51461625,-0.25984627,-0.07913962,-0.52772164,0.9684547,-0.20840506,0.11843843,-0.95098495,-0.47455066,0.27415884,-0.36395216,-0.9405011,-0.8827437,-0.23670612,0.1564445,-0.8838654,-0.22306763,-0.6466962,0.6737888,-0.6122607,0.017581152,0.022215236,0.9254481,-0.37662032,0.97281516,0.22597764,0.66490465,-0.30015838,-0.7637958,0.7476383,-0.56482905,-0.12924553,-0.23123379,0.31184,0.37911826,-0.6075894,0.46706015,-0.27320108,-0.3223686,0.6263698,-0.6270009,0.03696865,0.3197239,-0.505717,0.25106114,0.9741953,-0.92802066,-0.32471743,0.19962528,-0.2492464,-0.7968717,-0.11010761,-0.20548789,0.7043414,-0.91937566,0.042439535,-0.87716025,0.68473727,0.23638844,-0.66541713,-0.90582645,-0.9566288,0.36562544,0.834655,0.8822578,-0.96319246,0.4135866,-0.44591624,-0.5791314,-0.9465521,-0.9290266,-0.560236,-0.9590417,0.024742354,0.112275556,0.1830145,-0.09068716,-0.10492268,-0.7387947,-0.9902015,-0.80384606,0.64858574,0.89406276,0.56739813,-0.05574872,0.91335464,-0.4916399,-0.43208617,0.637945,0.6513687,-0.45596895,-0.5784258,0.4818974,0.2815863,-0.98391783,-0.18721092,0.26698676,-0.8739157,0.33213365,0.9777193,-0.6171306,0.92674804,-0.033051804,0.7026937,-0.54211646,0.123605765,-0.18322925,-0.1806057,0.33054873,-0.32572275,-0.6143808,0.46826681,0.8749435,0.37695247,-0.17666356,0.48940727,0.66812116,0.3231906,-0.6687325,-0.035790246,-0.18647294,-0.68602675,0.4869502,-0.3770762,-0.7531603,0.12754501,-0.31597167,-0.9820222,-0.08610323,-0.5930592,0.34754547,-0.9729397,-0.13845934,0.75839126,-0.07653176,-0.17944646,-0.26009935,-0.7626893,0.86400384,0.08438546,0.5464348,0.68360025,0.5455541,-0.9575971,0.65252495,0.8630315,-0.8169627,0.32455197,-0.22209609,-0.33079767,-0.85985863,0.6127896,0.40270078,-0.64716953,-0.1284211,-0.09549873,-0.024758942,0.3060881,-0.072255224,0.21008117,-0.9678838,0.47640565,-0.22675249,0.29424933,0.90078616,-0.7901301,-0.95960665,-0.56447583,0.7722257,0.9245756,0.9404626,0.17741755,-0.8471195,-0.2397406,0.14416592,0.9673936,-0.5178418,-0.29186857,-0.37737125,0.5008318,0.43324262,-0.04324431,-0.7667393,0.034700945,-0.1620114,0.15268786,0.21427482,0.07855629,-0.8151157,0.29283282,0.070661455,-0.7403669,0.46368298,-0.6794547,-0.20785207,-0.14240459,0.41379258,-0.68975675,0.98290205,0.6042144,0.82169574,0.11218923,0.64583683,-0.05176837,-0.82638335,0.98983884,0.14770137,0.77798903,0.47282922,0.43244442,0.38828927,0.60266507,0.22210857,0.5623388,-0.13061287,-0.64234406,0.74668694,-0.30816683,0.76908255,-0.7609822,0.9118648,-0.6273191,-0.53372467,-0.8194484,-0.11530548,-0.64046377,-0.030204402,0.7767706,0.99414116,0.1340325,-0.7849682,0.735673,0.2215351,-0.062121354,-0.8944405,0.54651064,-0.22121227,-0.18566467,-1.0015172,-0.23001418,-0.5941021,-0.559262,-0.09369068,0.71748257,0.40874577,-0.09218027,0.78590345,0.6923977,0.2979437,-0.43923956,0.7022615,0.24869755,0.042245116,0.37341687,-0.90965027,0.5594689,0.6481196,0.7237308,-0.26707727,0.37005615,-0.30773076,0.31484723,-0.31922555,0.99916595,-0.21258157,-0.07588205,-0.12545344,0.80096865,-0.8418767,-0.77185595,-1.0146267,-0.007664161,-0.36125845,0.14156388,0.41499507,0.9910124,-0.09732005,0.036412876,0.76658046,-0.47711655,-0.035974685,0.90363276,0.17092633,-0.2942004,0.45899585,0.8610018,0.4484126,0.31921485,-0.8278972,0.16995548,-0.066193745,1.0073483,-0.28415397,0.13091284,-0.42312375,0.034078583,-0.116973214,0.7032252,-0.05489589,0.4742988,0.89143896,0.59014463,-0.93934655,-0.6385381,0.82945645,0.6520105,-0.7311549,-0.07436211,0.56467575,-0.93167907,-0.7643432,-0.38895592,0.62745714,-0.18835635,0.49521542,0.3265606,0.38874286,-0.7134811,0.2734069,0.18967193,0.16004097,0.5837665,-0.9378032,-0.8713047,0.6905177,0.75440603,-0.036487058,0.9007041,-1.0295308,0.41023618,0.71091425,-0.114244044,0.57883734,0.81569153,0.76622343,0.4478637,0.41714144,-0.41056037,0.7772768,-0.51846176,0.09628297,-0.59093964,0.4503649,0.49906525,-0.9059489,-0.5967652,0.3421106,-0.8009927,0.21230033,-0.16989152,-0.21136214,0.40281898,0.6672866,0.5688146,-0.8097923,0.6939378,0.8606513,-0.3352885,-0.8864065,0.09260367,0.4549299,0.18945536,-0.61306965,0.0049122493,-0.8488281,-0.69199175,0.97310215,-0.17853266,0.2427515,0.83193725,0.7416787,0.49223253,0.14700371,0.06698492,0.8802132,0.4019412,-0.0394899,-0.055888776,-0.18216188,0.35215452,0.2783033,0.12063788,-0.7050371,-0.12960695,0.6804072,0.98148036,0.574718,0.15998435,0.20072713,0.68406916,-0.4952685,0.44317284,0.005661669,0.9307847,-0.25889176,0.69022685,0.8072896,0.98862445,0.46534654,0.98582417,-0.75617003,-0.9817784,-0.9292512,-0.456369,0.71954566,0.56192946,-0.56978226,-0.07387021,1.0044314,-0.3876503,-0.24404617,-0.86317277,0.038495786,-0.6877328,-0.9332095,0.22320512,-0.40664992,-0.6309506,-0.35871422,-0.59875005,-0.62291104,-0.94172674,0.4155508,-0.65037835,-0.96717155,-0.031128738,-0.8322391,-0.9215036,0.088099405,-0.1816615,-0.39114603,0.39622724,-0.6589958,0.33570483,-0.21515079,0.3085304,-0.22175828,0.030412097,-0.2797932,0.8906099,0.82426333,0.20592353,-0.60789084,-0.011975478,0.8812927,-0.7267706,-0.09860119,-0.09708951,-0.14868324,0.1994359,0.36103955,0.5154431,0.8910512,-0.19323276,0.68693525,0.24728915,-0.43253398,0.3055771,-1.0093704,-0.7205992,0.15491478,0.38017666,-0.931702,-0.91872156,-0.95741844,0.94462734,0.4773679,0.94712806,-0.018565953,0.2671955,-0.13722529,0.06775235,-0.039802272,-0.3071333,0.281835,0.56012034,-0.6863951,-0.30097318,0.6639899,0.41776022,0.47973073,-0.37269548,0.17978184,0.048452113,-0.5535675,-0.36102533,0.4944297,-0.7728482,0.81692034,-0.18933557,0.100546114,-0.9315696,0.40723795,-0.69574094,0.65554035,0.8689708,0.38413888,0.7802998,0.58586997,0.3937044,0.96262115,0.63135326,0.50608546,-0.5821775,0.21232027,-0.20148806,-1.0060494,0.83896387,-0.1143888,0.94717294,-0.67908525,-0.3226178,0.0039530224,0.46453965,-0.55869174,0.3121105,0.87594146,0.79106456,-0.26923773,-0.40408814,0.45642418,0.9179545,-0.45233887,0.51561123,0.22216108,-0.08816053,-0.17103714,0.3770121,0.94335294,-0.21353096,0.1450153,-0.59394294,0.5399703,-0.5375315,-0.95754164,-0.486845,-0.8656781,-0.72124034,-0.3728639,0.14398547,-0.88827944,0.2667047,0.88389117,-0.35253462,0.45090246,0.8590811,0.6153289,0.4695576,-0.55732906,-0.8587964,0.06007864,0.7148706,-0.20565075,0.9235001,-0.57745105,-0.818487,0.07551513,-0.9002469,-0.9021708,-0.3559528,0.65651476,0.8378119,0.35420477,-0.00036178593,-0.75746953,0.20395029,-0.6640593,-1.0188078,0.28413153,0.792199,-0.07704942,0.5514727,-0.59686357,-0.281014,0.6102482,-0.39338398,-0.8789023,0.32259178,0.6535377,0.03356906,0.039788008,-0.21382804,0.5069612,0.30861974,0.34551215,-0.56677634,0.57378983,-0.08011512,0.96809244,-0.62048876,-0.5974646,0.22065932,-0.909249,-0.7414056,-0.98663425,0.9476777,0.96344626,-0.66806227,-0.22737311,-0.037881803,0.91587526,-0.77539873,0.92149884,0.86744404,0.1647445,0.7768092,0.120280355,-0.3109761,-0.46263722,0.23954892,-0.25917876,-0.7623211,-0.7751212,-1.0043294,-0.6576084,-0.08945512,-0.93205374,0.15445429,0.99865484,-0.7540119,-0.4876411,-0.65139294,-0.96289355,0.4665741,0.35348222,-0.9886844,0.563997,0.9824788,-0.579906,-0.3861808,-0.052228138,0.628479,-0.8866477,0.7903913,0.6999331,-0.031074945,0.5923356,0.31014124,-0.8754515,-0.54845136,-0.9753657,0.44097635,-0.04625527,0.990559,0.23689635,0.64366114,0.2995352,-0.21181853,-0.26442415,0.23007458,0.23473917,-0.047337487,0.92006624,-0.7859774,0.39294672,0.024368057,0.04978398,0.29018125,-0.93369263,0.9294674,0.2472435,0.6133643,-0.81222904,0.3837198,-0.44517267,-0.73675936,-0.8164757,0.34098062,-0.9156923,-0.9140261,-0.4397821,0.4186385,0.74606705,-0.33321646,0.5879104,0.5652335,0.38965902,-0.94901115,0.7124815,-0.54663694,-0.9322329,-0.8761965,-0.09861098,0.04914424,-0.9833381,0.67604977,0.6996512,-0.9908911,-0.11046418,0.6119102,0.28251517,-0.19085093,0.11900476,1.016751,-1.0128714,0.5322224,-0.79804605,-0.47718465,0.056633834,-0.26240954,0.31997916,0.6523806,-0.97158486,0.43288937,0.71511835,-0.5801821,-0.67719024,0.62586766,-0.6530335,0.8066308,0.55859387,0.66351837,-0.45331737,-0.5976099,0.84114707,0.799458,0.03555184,0.83461004,-0.7871795,0.74885935,-0.023464233,0.5460906,0.68937635,-0.80566376,0.9613542,0.8706909,0.7016182,-0.9492432,-0.28821355,0.21583098,0.63641745,0.9076966,-0.8854496,0.6827468,0.8980128,-0.4010885,0.78224283,-0.4064469,-0.6814137,0.85030216,-0.24778973,0.4856301,0.936782,-0.88806975,0.11681222,-0.9312727,0.56124187,0.6132996,0.21220529,-0.69318557,0.017833311,-0.975338,-0.4426412,0.18701155,-0.01110077,-0.10512411,0.8300912,-0.07991057,0.44759086,-0.051483173,-0.96519786,-0.20033199,0.036067747,0.93757135,-0.50086254,-0.31203422,0.020346541,0.35916004,-1.0096557,-0.6250456,-0.85212255,-0.933654,0.09583636,-0.79410744,-0.61943066,-0.80624926,-0.8060129,-0.42279598,0.3776874,-1.0339875,0.2977741,-0.7438175,-0.9396563,0.6038675,0.927927,-0.22718278,0.7894011,-0.7438505,-0.021710461,0.54972804,0.3215067,-0.60606027,0.19988845,-0.3099882,-0.079072095,0.24071516,0.35794577,0.6270457,0.2523092,-0.75909996,0.5277748,0.24094656,0.06296154,0.14925021,-0.8855918,0.23937671,0.20089339,0.92439365,0.52396363,-0.47843364,-0.5222779,0.17089087,0.6118022,0.9241592,0.31448936,0.5200507,0.60924006,0.3612049,-0.7180402,-0.17988788,-0.7557003,0.70654505,-0.048012823,0.6625779,0.7956804,0.7040525,-0.73713464,0.033260446,0.8381354,0.55645657,-0.9711371,-0.6883459,-0.09855014,-0.45297083,0.33157784,0.586036,0.95543206,0.31948513,0.2744704,0.20594336,0.06408374,-0.41051328,-0.4207112,-0.03819816,0.7350277,0.26406375,0.6738635,-0.07629329,-0.1864936,-0.15979993,-0.456879,0.67706317,-0.3706855,-0.9045837,-0.813927,-0.5768592,-0.5800647,-0.6272314,0.52999395,-0.057600822,-0.2867681,-1.0192587,-0.31598136,0.11301001,0.82723945,0.51375073,-0.16680695,0.12936097,-0.07898418,0.8273509,-0.7673,-0.17409325,-0.40660533,-0.6232602,-0.09109452,0.42258435,-0.18917525,-0.98633677,-0.71534324,-0.13160424,-0.8994098,0.21422312,0.6615971,-0.27058446,-0.059533253,0.1850266,-0.64474833,0.86481076,0.6730029,0.61592084,0.66846764,-0.1867179,-0.1402008,-0.106067,-0.45629257,0.8262093,0.41901016,-0.4629044,0.70371157,-0.51660717,-0.9771451,0.6296142,-0.8778253,0.43963975,-0.1447189,0.54959506,0.40220493,-0.63974893,-0.5611075,0.7066774,0.07613959,0.54253715,0.45178324,-0.9830405,-0.6705039,0.06172171,-0.44105613,-0.2196688,0.09298157,-0.13945062,-0.5277167,-0.58049214,0.91893256,0.21233009,0.29513562,-0.92474383,-0.48961538,-0.15290083,-0.42167017,-0.42570978,-0.89734185,-0.2039684,0.5867317,-0.6322336,-0.60605335,-0.046027288,0.95822686,0.8396535,-0.9669291,0.23953678,-0.77364904,0.8685914,0.8112078,0.7563623,-0.25369605,0.79172486,0.5427574,0.83848137,0.053750187,-0.0678037,-0.08910417,0.08687074,0.9145819,-0.668766,-0.053801488,0.8471404,-0.9464726,0.63122886,-0.33384675,-0.9471888,0.11314134,-0.7176471,0.8512412,0.67891604,-0.91405094,-0.8793305,0.9367579,0.6984695,0.1508923,-0.28115585,-0.9729523,0.36150154,0.611161,-0.39559847,0.7881247,0.07102406,-0.9010032,-0.7159692,0.9674277,-0.15651909,0.40493944,-0.85095185,0.84448254,0.95440704,-0.5496782,-0.8837,-0.025451012,-0.06078136,-0.018407047,0.140162,-0.3169646,0.43486872,0.81773067,-0.618887,0.6129461,0.052641563,-0.52972007,0.37793916,0.73663473,-0.9443597,-0.302649,0.36151332,-0.26298517,0.4753607,0.8582816,0.17160657,-0.11415351,0.20003255,-0.37636158,0.3855919,-0.49143192,-0.18271777,-0.6453125,0.8379965,-0.15628451,-0.69266665,0.54694843,0.92617434,-0.32891044,0.66550475,-0.91370755,0.19529067,-0.47198597,-0.64223325,0.9633391,-0.14543055,-0.33672586,0.86019963,-0.6554667,0.6702897,-0.5045537,-0.77743214,-0.5665759,0.2852396,0.07706114,-0.14061385,-0.1687628,-0.13109685,0.7747244,-0.78952914,-0.9045622,0.7698069,-0.7962417,0.068400875,-0.612369,-0.77819073,0.44262406,0.40020424,0.17515485,-0.44323874,-0.41907418,-0.38119614,-0.69150525,-0.036567688,-0.1347464,-0.019925272,0.6604205,-0.71552855,-0.9925193,0.31769374,-0.9284995,-0.16565575,-0.3585379,-0.94843334,0.39505357,0.301786,0.8639803,0.07693046,-0.9611311,-0.7934532,0.15161996,-0.053860832,0.5585592,0.29663554,-0.17806228,-0.4584419,0.21723211,0.21117797,0.88085324,0.069315605,0.4295245,0.8479529,0.21483147,-0.6473201,0.1093024,0.47972336,-0.4592525,-0.16018549,-0.0499767,-0.38769346,-0.79975766,0.31548074,0.7051395,-0.54812473,0.65633494,0.47902608,-0.5794737,0.07581236,0.8312543,-0.37193024,-0.5433608,-0.16550548,-0.6158872,-0.77395463,0.9198957,-0.6040608,0.0024925815,-0.87385744,-0.8484991,0.03979416,-0.030600145,-0.01990226,-0.3963376,0.7968294,0.1088551,-0.7723262,-0.45094666,-0.57174075,0.7017216,-0.45880064,0.32121596,-0.11745094,0.31035453,0.30991957,0.20396058,0.65511537,0.58623654,0.5962397,0.25381374,0.8836991,-0.20062213,0.08681724,0.48940367,-0.27326986,0.7511718,0.23646887,0.42697537,-0.89418435,0.015396762,0.907418,0.71939576,0.47133812,-0.59006816,-0.908851,0.9371822,0.38240173,0.59092087,0.38661975,-0.23239644,-0.11179361,-0.5203261,0.5776639,-0.79717857,0.30957216,0.10983629,-0.64881223,0.6912967,-0.72150934,0.12909068,0.23244043,0.013714171,0.7663999,-0.20827076,-0.49190882,0.8933353,-0.0012469506,0.59573257,0.14360599,0.13087423,0.6175938,0.6212161,0.9860212,0.072085075,0.69276804,0.43608877,0.2732632,-0.9188935,-0.48937264,-0.895148,-0.9459902,0.00026164937,0.739461,-0.59471893,-0.2701025,-0.5871398,-0.6824345,1.0086771,0.091177106,0.48474944,0.9539124,-0.51395035,0.65558237,-0.45245484,0.82628036,0.47455814,-0.6970304,-0.40499666,-0.8569141,0.8234132,0.37377366,0.9744872,0.53684336,0.48146632,0.80511504,-0.14570695,0.97968185,-0.5946821,0.40058443,0.59859556,0.85796165,0.20798887,0.016432228,-0.761616,0.3625084,-0.72988117,-0.82765764,-0.4384785,-0.08996506,-0.24460028,-0.6143319,0.9564615,-0.32021964,0.6589688,-0.8696831,0.11453635,-0.92889047,0.49813133,0.7416367,0.19442232,-0.69504213,-0.9352011,-0.21973266,-0.7726359,0.78633267,0.69325024,0.39073446,0.79932445,0.64835584,-0.8962673,0.66378456,0.6505941,0.13907628,0.012654178,0.49352998,-0.79423386,0.74039453,0.39217582,0.7935668,0.8130362,0.6829828,-0.581365,-0.26375985,-0.22343561,-0.42835566,0.93875045,0.7028053,0.3454411,-0.1596096,-0.13853696,-0.48350605,0.93634534,0.6976575,-0.42798904,0.32168183,0.25434566,0.8776022,0.3955548,-0.11349587,0.86461407,0.018270763,0.4494427,-0.18842761,0.20116654,-0.53840446,-0.56973803,-0.18465972,0.66528034,0.081007,0.3824379,-0.84010494,-0.39609978,0.70409274,-0.524113,0.1056837,0.1765131,-0.04376718,0.0037840814,-0.17248516,0.22154789,-0.024674043,0.9363402,0.98773175,0.48485345,0.08202147,-0.39097396,-0.68494064,-0.8919943,0.50676703,-0.830026,-0.6541633,0.14072207,0.33449936,0.7161171,-0.69700295,-0.8984611,0.5313884,0.5394205,-0.5785729,0.03442321,-0.55304384,-0.54471076,-0.2334946,0.19948217,-0.32810396,0.23422717,0.9864078,0.6585565,0.7680787,-0.26455507,-0.25190735,-0.21277435,0.5389188,-0.6656476,0.49590623,-0.16738647,-0.00020331831,0.33101833,0.10912343,-0.34878144,-0.51330954,0.2245568,-0.8847932,-0.0032477144,0.46302164,-0.9903666,0.6116013,0.07203939,-0.8748294,-0.9300863,0.29950246,-0.99736446,0.70889795,-0.7271617,-0.2550792,-0.7311286,0.4949538,0.98142296,-0.056453567,-0.7345881,0.21113026,0.6017369,0.021474328,0.3201796,0.73143154,0.07073905,-0.7042798,0.7711886,-0.27739072,0.5846143,-0.30172,0.83919066,0.9283385,-0.54166573,0.15959316,0.8756674,1.0248184,-0.13743575,0.23315823,-0.5978464,-0.8502939,-0.94428056,0.0475832,-0.8111377,-0.50062734,0.6175544,0.23978868,0.07929122,-0.37516317,-0.5541836,0.9863309,0.7794072,-0.7725254,-0.87819386,0.9159881,-0.5354039,0.6679199,-0.8918028,-0.008522818,0.45110413,0.7861766,-0.2528309,-0.75375557,0.82341427,0.8017081,0.39455214,0.44271725,0.63184804,0.8126896,-0.4174317,-0.29980534,0.28398156,-0.6400507,0.6897544,0.524607,0.24578555,-0.58534676,0.55581313,-0.34133676,-0.20150809,-0.20154668,0.4190893,0.58620524,0.15607063,-0.41253316,0.49771303,0.7986474,-0.2588341,0.86380595,0.10775259,-0.546657,-0.25749257,-0.83676463,-0.96108204,-0.5414714,0.93755245,-0.5711397,0.7478256,0.9788287,0.36472315,-0.54610324,0.53520757,0.7343525,0.8899241,0.6972886,0.07651729,-0.66809064,-0.5718544,0.29934976,0.9127796,-0.1710712,-0.74766695,1.0445088,-0.43045056,-0.62313193,0.8880625,0.93615586,0.1351233,-0.37354818,0.53065735,0.7209046,0.026399277,-0.72710556,-0.4082321,0.32205933,0.4157346,0.6961112,-0.1467958,0.022325985,-0.96609014,0.9341783,0.27781302,0.669423,-0.84931064,0.63719463,-0.7662829,0.20256414,-0.7818553,-0.3399557,-0.51926935,-0.3650487,0.16335212,-0.3407833,-0.6712648,-0.58631766,-0.38472125,-0.14864577,0.8072586,0.032155428,-0.7791941,0.68459994,-0.5806533,-0.009812533,0.24663667,0.13127923,0.48295215,0.873005,-0.78775334,0.5015923,0.48044896,-0.28550476,0.32750195,-0.2537124,0.3598106,0.8138682,0.557521,-0.45426938,0.4436527,0.883397,-0.33564994,0.23727764,0.5479195,-0.46722665,0.6555041,0.83736044,-0.4204813,0.6898509,-0.78851694,0.07395221,-0.19100079,-0.13212597,0.946367,0.32132968,-0.42013305,-0.28362793,0.34650192,0.13339728,-0.86464536,0.12099146,-0.46700332,-0.4357537,-0.08665216,0.20914471,-0.89815855,0.72554094,-0.38986337,0.6619566,-0.60532206,-0.91873527,-0.4722918,0.7330123,0.6002414,0.5302989,0.5286644,0.6751544,0.8229061,-0.3686226,-0.76516414,0.8691442,-0.2265944,-0.7943437,-0.6267876,0.527347,-0.7464985,0.12933393,-0.14317442,0.07788397,0.5496699,-0.10553407,-0.97639203,0.9377186,0.30930218,-0.82987416,-0.7739611,-0.6459628,-0.7385743,-0.6944569,-0.13581726,-0.31611073,0.10981296,-0.7027781,0.8493407,-0.084431976,-0.75442827,0.84253544,-0.20114954,-0.9601317,0.6455664,-0.8585333,0.37879875,0.63193935,-0.20900412,-0.90553755,0.3038949,0.7970073,-0.6897562,0.67481965,0.6441074,0.3203214,-0.5036579,0.8208714,-0.93486387,-0.4047856,-0.30661651,-0.87259054,0.59111536,-0.9636688,-0.4286553,0.4664687,-0.0053708707,0.19310327,0.14386106,-0.18704274,-0.7793337,-0.79900974,0.25619298,-0.29470587,-0.83211565,0.77441305,-0.15434946,0.12957671,0.560683,0.5741744,0.7415707,-0.70017,-0.69866925,-0.9273621,-0.0019293018,-0.30122545,0.32665697,0.29797876,0.428297,-0.8322206,-0.59324783,-0.54605144,-0.24525748,-0.9016704,-0.94922817,0.14182822,0.14692217,-0.6798938,0.8885654,-0.28800458,0.55007744,-0.56826115,-0.7665654,-0.62462634,-0.06059536,0.22459348,-0.3654113,-0.80751157,-0.42840755,-0.2580842,0.44504875,0.48208272,-0.065440714,-0.40687943,-0.9056113,0.45296994,0.87247705,-0.36741108,0.8903547,-0.1117827,-0.2828132,0.47645375,0.051961686,0.80056024,0.54723483,-0.7806385,1.0199212,0.5200952,-0.19517154,-0.22884566,0.7988082,-0.48801968,-0.18203889,-0.13601701,0.23563175,-0.7089025,0.6218989,0.8266228,-0.20060323,-0.5838594,0.21366782,0.34427252,0.15365851,-0.33884913,0.06427088,0.16162816,-0.9311557,0.8856984,-0.3940534,-0.04408886,-0.46384504,0.63269556,-0.2119389,-0.28649867,0.6108777,-0.9203163,-0.77499,-0.11287038,0.33475634,0.3561131,0.62539226,-0.9136787,-0.24371406,0.8478641,0.8565539,0.36082658,-0.7347449,-0.08511321,-0.8140412,0.7406483,-0.637728,0.99135906,-0.9325163,0.94916743,-0.8856251,-0.21760815,0.435265,0.5239225,0.29053968,-0.64202553,0.18131854,-0.6523652,0.10848658,0.16995496,-0.80511326,-0.3584495,0.71432745,-0.017518045,-0.18738945,-0.7099249,0.66266257,-0.17567211,-0.69766504,0.27181426,0.77929795,0.40145725,-0.8428448,0.8988846,-0.85438955,0.65290415,-0.9049844,-0.024782294,-0.7915969,0.5315173,-0.1570691],[0.9547799,0.99624664,0.68919486,-0.5185812,-0.5795323,-0.7959693,-0.121538185,-0.6177858,0.36781394,0.15463723,-0.5026827,0.31108752,0.96070886,-0.72046506,-0.46302286,-0.9516491,-0.42229328,-0.71486336,-0.5490862,0.3705343,-0.2705012,0.36444485,-0.2782888,-0.21483551,-0.8186877,0.10235288,-0.6684516,-0.7626855,0.031611092,0.14613216,0.68920106,-0.7248102,-0.04344331,-0.112424664,-0.12070285,-0.38850495,0.83319205,-0.5802948,-0.34412518,1.0088646,0.77432334,-0.3603193,0.6203515,0.9246111,-0.08086504,-0.4795244,-0.43943092,-0.18508376,-0.019054925,0.3410551,0.6394747,0.7836948,0.3059949,-0.79343927,-0.017622393,-0.9367194,0.63540673,-0.25421616,-0.99127203,-0.14546543,0.7383332,0.09977123,-0.2979771,-0.56566805,0.28339347,-0.31480333,0.78243834,-0.40487716,-0.22376992,0.7599103,-0.14168753,-0.55563474,0.45696473,-0.69305485,-0.40462387,-0.6978154,0.03638498,0.28723168,0.18191384,-0.7868615,0.46828824,0.7271767,0.38827258,0.8469031,0.88500935,0.022868674,-0.6224705,0.93209934,0.4373326,0.06430331,0.46337172,0.2010946,-0.3451486,-0.42648163,-0.23602293,-0.7086517,-0.103494376,-0.18602243,0.0423446,-0.62952566,0.98908836,-0.8714002,0.5180033,0.1958814,-0.8261413,0.6444009,-0.78609115,0.18520631,-0.17154942,-0.6262437,-0.5998544,0.12307164,0.29916623,-0.041991185,-0.37129363,-0.46989846,0.6310443,0.7038879,-0.17294502,-0.4012343,0.75429755,0.004736535,-0.035008736,0.03157457,-0.0014399322,-0.40961355,-0.8136349,0.17996563,0.45171413,0.7003889,0.46755204,-0.8041141,-0.5773464,0.3006132,0.2823172,-0.78257895,-0.10175393,-0.6133193,0.15571263,-0.88231295,0.55207723,-0.69294125,0.08639335,-0.60503536,-0.905602,-0.3943849,-0.3247876,-0.7889114,0.036835406,0.4269449,0.9726934,-0.33311707,-0.40240005,-0.41280922,-0.9014015,-0.6031118,-0.1427308,0.9735124,-0.22501199,-0.72673154,0.7898731,-0.62706304,-0.07262973,0.04244908,-0.6916801,0.6684503,0.8473558,0.62680554,-0.6478059,-1.0191951,0.91306466,-0.54316306,0.62094206,0.53682816,0.7658373,-0.26206812,-0.05378354,0.38340506,-0.21229374,0.120747715,-0.6120584,0.1992271,0.34438244,0.5743091,-0.15977271,-0.31276205,0.9004032,0.03183949,0.058967832,-0.26054016,0.58794343,0.11251201,-0.081863016,0.20893519,0.9851046,0.33126152,-0.6500053,0.10531028,0.7888343,-0.17987776,0.669767,0.13440539,0.5884984,0.90786576,-0.82248175,-0.18779106,-0.6269296,-0.7138575,0.51224935,-0.8407634,0.9865449,-0.5754865,-0.6804907,-0.81467,-0.75818855,-0.7571466,-0.32126045,0.6733303,-0.807699,0.38634542,0.58629775,0.4162273,-0.43714002,0.24584523,0.35678545,-0.5282443,-0.65395075,-0.7134196,-0.49960822,-0.5564123,0.5242918,0.089617305,0.4582522,0.14809348,-0.48322862,-0.4562532,-0.69431555,0.07590631,0.6948696,0.26041424,-0.98827237,-0.10295921,-0.8345415,-0.36047447,1.0034648,-0.5465031,0.69529647,-0.76453775,0.16639674,0.5776763,-0.9770501,-0.75704485,0.78483987,0.31140596,-0.75070995,0.25183862,0.97296524,-0.36041182,0.6607413,-0.35303926,-0.3613218,0.89398795,-0.7948676,0.18068369,0.43048552,0.24861863,-0.6642023,-0.8598527,0.5126568,0.30710545,-0.45772094,0.8879581,0.6827606,0.33870596,0.42518038,0.14656317,0.6295912,0.83091074,-0.8261624,-0.43430662,0.78126705,0.71511143,-0.25727007,0.5213284,-0.8691876,-0.568033,0.14215924,0.24710861,0.3226669,-0.75164557,0.093338825,-0.9908733,-0.35619184,-0.75909305,-0.032558303,-0.49958494,0.7966686,-0.52626806,-0.9839594,0.8496827,-0.66889983,0.700831,0.4202374,0.23710027,0.4840273,-0.9613847,-0.35470808,0.75991786,0.11562331,-0.19179426,0.28974962,-0.20391425,0.9556347,0.26032534,-0.97430366,0.40538323,-0.27704516,0.95913875,0.8065406,-0.2626049,-0.35713702,-0.2218062,0.9710549,0.20621708,-0.5773914,-0.96383744,-0.4963258,-0.3218979,0.66300774,-0.8082832,0.3165758,0.23993489,0.3652005,0.0003548651,1.0048021,-0.4650009,-0.4642461,-0.9186542,-0.31047243,-0.02110686,0.60076743,-0.6768175,0.4775641,-0.030947652,0.2780092,0.03416705,-0.106416255,0.33313385,0.036717378,-0.09600929,0.32861733,-0.8107428,0.6859478,0.5073997,0.73166084,0.89687383,0.18472224,0.13547286,0.49365345,-0.20958813,0.46594584,0.7307636,0.30242535,0.6468302,-0.29422128,-0.49689272,0.62780595,-0.12619224,0.54714984,-0.68509686,0.50203484,-0.48239464,-0.61728495,0.09350075,0.29785842,-0.01677091,-0.8823113,-0.86910784,-0.022522146,-0.15903042,-0.18763563,0.269327,-0.20924923,-0.21486065,0.5395794,0.5808863,-0.34505114,0.51029444,0.6199871,0.44421586,-0.081266195,-0.589639,-0.53801394,-0.8136683,-0.7497873,0.33507526,0.83469564,0.0043256287,0.077471346,-0.21665262,-0.6781944,-0.31046507,-0.15861963,0.57946795,0.20861596,-0.31270358,-0.66203153,0.68884397,-0.8137117,-0.32132685,-0.6908648,-0.79478425,0.590748,-1.0062853,-0.12800497,0.49689397,0.6113235,0.63082916,0.7568809,0.233629,-0.36768353,0.9800398,-0.4640588,0.6527718,-0.7021484,-0.5147967,-0.45287815,0.7373647,-0.38268062,-0.29284087,-0.23761922,-0.029420046,0.06927543,-0.3689287,0.9272909,0.7931017,-0.6202278,0.6226824,-0.049851205,-0.47088838,0.22190224,0.61824715,0.33296,0.09580992,-0.10395932,0.52475077,0.28550598,0.31920612,0.03044775,-0.31828108,0.26932278,-0.64413124,0.692626,0.2903265,0.67799,0.68969494,-0.73356134,0.35638878,-0.14802489,-0.16634348,-0.475807,0.41131696,-0.13417594,-0.5784822,0.23151912,-0.69748825,0.8121547,0.49168047,0.8163629,-0.6743403,-0.2237049,-0.86292964,-0.8770777,-0.5613767,-0.44935253,-0.67202955,0.45130736,0.300167,-0.22604397,0.45382595,0.78215957,0.055395905,0.95735526,-0.48426524,0.78016204,-0.95848125,0.8472398,-0.056107234,-0.20577341,0.43371364,-0.5896954,0.9089968,0.95601636,-0.86052084,0.8559482,-0.83922905,0.1695949,0.72114587,0.7702516,0.8988934,0.26323164,-0.47459045,-0.21645662,-0.6616122,-0.6133737,-0.44198176,-0.5028574,-0.36601612,-0.58448595,-0.37142342,-0.32793525,0.009975472,-0.3178239,0.6983526,0.88556844,-0.8443735,0.8625922,-0.6021697,-0.6840376,-0.8186724,-0.5486016,-0.050616283,-0.9318363,0.17787667,0.32092252,0.77555794,0.7210298,0.31718472,0.51461756,0.4630193,-0.8154296,0.43689144,0.56856495,-0.7951238,-0.46131018,0.9023058,-0.57480216,-0.2152547,-0.20340924,-0.6794776,0.4174953,-0.6818609,-0.98961234,-0.85035616,-0.87249494,0.9723264,-0.55219746,-0.51969326,-0.14440134,-0.96864945,-0.05371821,-0.58057696,0.5852914,0.20027238,-0.0041470407,-0.01341148,-0.15926477,0.80605894,0.58679104,-0.814509,-0.2995088,-0.1099578,-0.06992055,-0.4547638,0.96850234,-0.38782707,-0.835079,0.6593797,-0.41305807,0.09236692,-0.83031094,0.17369124,-0.28688735,-0.75111616,-0.16353886,-0.23200405,0.43921918,-0.57824945,0.9474528,0.119891785,-0.8122193,0.23314205,-0.8977714,-0.16368276,-0.18734087,0.013877357,-0.3704444,0.10253215,-0.88908446,-0.10192561,0.1585836,-0.12530085,-0.13653189,-0.5018877,-0.5200455,-0.1333831,0.45007893,-0.24754009,0.7233464,0.50824505,0.2512377,0.00531877,-0.65100324,-0.22298957,-0.96605456,-0.392445,0.4893811,0.89863396,0.7202472,-0.4819852,0.64661205,0.45763117,-0.38050503,-0.9032911,0.7804168,0.90739685,-0.12253505,-0.052125428,0.9789348,-0.6106018,-0.08208401,-0.34064257,-0.4488434,0.68480355,-0.65239006,0.77882737,-0.16907331,-0.14066502,0.59285456,0.98654264,0.753544,-0.29244086,0.33558312,0.6213106,-0.8851375,0.86044,0.2528619,-0.5801847,-0.34305364,0.7273593,0.09015211,-0.31550926,0.9252373,0.038811553,0.5748254,0.86041814,-0.8656361,-0.8718547,-0.14314762,-0.11030701,-0.23432724,-0.9056052,0.9859669,0.63687587,0.87014234,0.81155705,-0.5770876,0.1641079,0.449839,0.0913219,-0.17844543,-0.72494936,-0.5370967,-0.17180714,-0.34445167,-0.47744998,-0.773045,0.14957324,-0.1928814,0.26042554,0.912812,0.34455252,-0.1830637,0.51404226,-0.26809633,0.6319218,-0.4267061,0.07869416,-0.058388434,-0.46502286,0.81744003,-0.96333176,-0.8934027,0.8485057,0.6563572,0.29276073,-0.06880794,-0.5949938,-0.80240715,0.24089618,0.6710435,0.51207244,-0.28093046,-0.34117037,-0.6710495,0.66260964,0.79885346,0.55578136,-0.48265466,-0.5285357,-0.3910271,-0.17215952,0.80936944,-0.08339681,-0.18274882,-0.5183739,-0.95457923,-0.61381507,0.5760825,-0.9126923,0.61744887,-0.12967293,-0.5054715,0.5633527,-0.76102567,0.19240363,0.4430056,0.35111195,0.37045848,0.37819806,0.89335424,0.634304,-0.2016257,-0.28953725,0.14468437,0.673859,0.6678875,0.98631954,-0.67990345,-0.4913788,-0.98729616,-0.65562004,0.3562777,-0.074152574,0.63418156,0.24782585,-0.76090807,-0.9057049,0.9275241,-0.059552465,0.36279157,-0.910926,-0.79436177,-0.55735314,0.38876978,-0.3306567,0.43290046,-0.29245722,-0.33452564,-0.5310311,0.6576883,0.89578253,0.61383414,0.852889,-0.027642405,-0.82556087,0.83626467,-0.07403732,-0.93118626,0.15891844,0.02576684,-0.63135874,0.28591222,0.1671905,-0.3968934,-0.98476046,-0.8964966,-0.6016683,-0.35526797,-0.90727854,-0.7724946,-0.22141054,0.3101113,-0.15024962,-0.7814829,0.08669854,-0.64927274,0.2825247,-0.2712385,-0.15708612,-0.56389964,-0.1787152,0.25834823,-0.07597006,0.38115448,0.8083353,0.19756451,-0.7776264,-0.5614741,-0.88480914,0.21409485,0.018314075,-0.6171337,-0.8169929,-0.4420019,0.16216916,0.8740276,-0.39215258,-0.9467517,-0.7261683,-0.38439837,0.71636,0.8776783,0.013076892,0.47315994,0.9200879,0.36769885,-0.48216233,-0.74884593,0.172394,-0.97170323,-0.10827748,-0.13188778,0.35474437,0.044919513,0.60286254,0.11477332,0.34895164,-0.5384558,-0.5631008,-0.8155702,-0.55650437,-0.90134585,-0.33501452,0.5901092,0.9653145,-0.36048052,0.6835978,0.48491573,-0.92609274,-0.8324154,0.3289927,-0.06484933,-0.5275981,0.8565507,-0.21599339,0.33505696,-0.2678225,-0.36152,0.15934363,-0.4635264,-0.6572037,0.72769666,0.34375566,-0.88734484,0.14295138,0.81042886,-0.35890365,-0.77525914,0.38920552,-0.40639222,0.22903979,0.036154028,0.51406723,-0.8212318,0.63858986,0.3350512,0.28641146,-0.3640297,-0.3979083,0.6388384,-0.6097389,-0.09611223,0.91556984,0.6274989,-0.75569093,0.27511784,0.28230688,-0.5935603,-0.14741534,-0.5470613,0.0475363,-0.326022,0.24922134,-0.024087714,0.03721641,0.3293505,-0.5108974,-0.20451021,0.79745525,-0.17860022,-0.25323316,-0.57731324,0.19238804,-0.75290906,-0.17110832,-0.695975,-0.061072264,0.17709155,-0.23028429,-0.3535031,0.86868167,0.12951984,0.5778014,0.6990121,0.41519725,-0.15296368,0.36355925,-0.18186688,-0.5526695,-0.7184507,0.6760949,0.72054183,-0.9031268,-0.16392462,0.18576355,-0.5943885,0.3731086,0.29207572,0.36486852,-0.24029881,-0.37068364,-0.41230884,0.59766865,0.91734755,-0.6390078,0.32824165,0.2857863,0.6007104,0.31150797,-0.277788,0.1321221,-0.9175561,0.56996584,0.58823395,-0.50583196,0.14549533,-0.5265496,-0.59733444,0.17957613,0.03854315,0.9091804,0.6628147,0.28611308,-0.84057415,-0.75675637,-0.90761065,0.7914133,-0.28823295,0.8956675,-0.6607189,-0.47480676,0.6633725,-0.8509912,-0.5420784,-0.10422179,-0.09839533,0.042583074,0.12930395,0.07892631,0.8712289,0.7386199,0.008515409,0.42216885,-0.4736711,-0.38881332,-0.095470026,-0.41876736,-0.0152188,0.39905933,-0.23272473,-0.3772082,0.87848413,-0.87174076,0.6302582,-0.9243963,-0.5506722,-0.058100697,-0.9367234,0.50047344,0.564093,0.13579799,0.6485016,0.6972755,0.60504913,-0.7672715,-0.36445504,0.10318026,0.25770128,-0.3456591,-0.44414246,-0.9141235,-0.867349,-0.8603983,0.85589486,0.6801712,-0.8830012,0.4257011,0.74465954,0.99698794,-0.058237463,-0.41500822,-0.05258372,-0.2417864,-0.36132395,0.21051829,0.8893538,-0.25958517,-0.27940175,0.046187248,0.39508995,-0.76705414,0.80986655,-0.06571819,-0.05816827,0.8677498,0.7891558,-0.58714855,-0.26682085,-0.71900684,-0.5642625,0.74832153,-0.24963652,0.5029303,0.105452575,-0.84270936,-0.44026765,0.23340704,-0.25473344,-0.20050155,0.5069934,0.7624299,-0.14487378,0.6837039,-0.09303477,-0.11606055,0.6216314,0.33873427,-0.69181246,-0.4170472,0.95286125,-0.2889656,-0.50792783,0.4360209,0.55208355,0.21194439,-0.55679923,1.0108727,0.16528441,-0.5668153,-0.13966303,0.33482954,0.77901655,0.6091854,0.8520017,0.13505751,-0.3885642,-0.15124317,-0.49974304,-0.95334494,-0.6777762,0.6108997,0.18120348,-0.108835444,-0.1833313,-0.6358732,-0.15257934,0.04643681,-0.4870105,0.30410686,0.7202612,-1.0058377,0.8990073,0.537583,0.4551903,0.64913195,-0.7588081,0.29959175,0.04896382,0.69400716,-0.8206072,0.38751614,-0.39916196,-0.72002363,-0.18222775,0.81146556,-0.16002165,0.9659448,-0.63752246,-0.23424473,-0.8170342,0.48881277,-0.02773025,-0.023422392,-0.7821069,-0.94083416,0.8532003,-0.216226,-0.30497473,-0.33001897,0.27723205,0.3182044,-0.051727906,-0.86486894,-0.94773793,-0.17027062,0.36378235,-0.048062347,0.1441812,-0.58591914,-0.4123714,0.80836487,0.07179875,0.7696661,0.919723,0.35438332,-0.6287419,-0.7042406,0.93800616,0.2414118,0.009156322,-0.7608295,-0.009481353,0.242907,0.9233065,0.95914125,0.26399752,1.0191385,0.49699256,-0.77577835,0.9877567,0.94502896,-0.691807,0.016479453,0.85396606,0.4525103,0.09038048,-0.9488084,-0.96194017,0.71063256,-0.791487,0.055631764,-0.3469705,-0.91364384,0.8896469,0.38703826,-0.94626,0.20191252,0.8078454,-0.5378745,0.17008409,0.15031013,-0.44186082,0.076675005,-0.4671241,-0.9170865,-0.13930622,0.47629127,-0.20629822,0.58175737,0.4401559,1.0160187,0.5250615,0.41351947,-0.63741493,0.18268114,-0.07880955,0.82278955,0.54746044,-0.19859503,0.42322755,-0.06757262,0.39627376,1.0066792,-0.16875532,-0.6295645,-0.5611037,-0.3888408,0.048702963,-0.30468145,0.5448858,0.027587062,0.69355154,-0.5845585,-0.11266889,0.08323417,0.76233494,-0.3034554,0.3393206,0.60568035,-0.03337874,-0.72420263,0.58796906,-0.38232744,-0.6350227,0.1908573,0.5847076,-0.50158453,-0.4501378,-0.1378689,0.22806433,-0.78726226,-0.8026349,0.4436936,-0.2974134,-0.5021933,0.16025423,0.17110556,-0.64116794,0.4588598,0.27366775,0.48374945,0.42806074,0.72263527,0.55870485,-0.6033681,-0.9218515,-0.571335,0.13898708,-0.59208333,0.621082,0.024333142,0.024657937,-0.7497131,0.7575736,-0.10802623,0.3492688,-0.2536671,-0.9342444,0.66849583,-0.9124249,-0.2747376,0.1105905,0.8775623,0.07048151,0.7347913,0.96026736,-0.49589103,0.3509684,-0.91040677,0.47209835,-0.78357345,-0.34920695,-0.6173084,-0.6368286,0.21023053,0.9142401,0.55749536,-0.27364302,-0.34280074,0.039375283,-0.9790065,-0.51092887,0.2718188,0.13611475,-0.8286707,-0.95617425,0.8719216,-0.11766376,0.5990717,0.117999226,-0.36585012,0.4096389,-0.50978875,-0.4077443,-0.08299336,0.38321424,-0.40671962,-0.48186657,0.34712255,-0.5580809,0.48526672,-0.025947198,-0.8887551,0.6721405,0.91717917,-0.044394262,0.7356791,0.52060944,0.65445924,-0.93664736,0.47754812,-0.14510019,0.63982546,0.36684474,-0.03391344,0.15102637,0.44238612,-0.10811919,-0.09601716,-0.0998012,0.79979765,-0.006488478,0.8751774,0.14692836,-0.2035528,-0.96495867,-0.81408644,-0.17774129,0.3981936,0.28967437,-0.35557392,0.51132923,-0.15537861,0.7189275,0.9443487,0.41839305,-0.6485894,0.6842894,-0.65791595,-0.17213182,-0.6043624,0.8953823,0.6065533,0.0516763,0.95829594,0.2869407,-0.8191167,-0.77019405,-0.12329739,-0.037395507,-0.27712536,0.04581612,-0.6745724,-0.7634811,0.44556394,-0.7012089,-0.55000544,-0.6356197,0.62933874,-0.37473667,0.8710128,-0.8226133,0.7258151,0.18914695,-0.3092804,-0.29972947,0.7190797,0.54118407,0.34491086,0.10906575,-0.0178966,0.6107043,-0.4008641,0.7022498,-0.9270815,-0.74763876,-0.8954223,-0.19819574,-0.17040418,0.35413176,-0.6553642,0.49867216,-0.11176865,0.80174214,0.013407186,0.4535027,-0.45460588,-0.030125733,0.5367357,0.65633893,-0.31564695,0.7976744,0.8687712,0.11688413,-0.598306,0.18921435,-0.97423786,0.1457465,0.7604328,0.7465623,0.10132809,0.544092,0.36922318,-0.49306497,0.8052865,-0.40283883,0.4989961,0.34079054,-0.8200921,0.765857,0.67024773,0.1967796,0.20787756,0.0857763,-0.6941257,-0.785659,-0.5260906,-0.8540553,-0.1910976,-0.084155396,-0.8027493,-0.08739897,0.26170543,-0.9027514,-0.2712147,0.8424333,-0.08632409,0.4831813,-0.09728199,0.21957296,0.38413155,0.8890501,-0.8692034,-0.47533444,-0.86038774,-0.6679501,-0.7268846,0.4625027,0.63315034,-0.73196834,1.0060521,-0.6914736,-0.5611632,0.08751641,0.87831634,-0.57085514,0.36603537,0.473981,0.33638245,1.0241376,-0.64688647,-0.45850533,0.37032637,-0.28418922,-0.08990564,-0.6494399,-0.077330284,0.2920784,0.32502085,-0.41764835,0.15005594,0.34834677,-0.9552442,0.15699422,0.15623067,0.71330464,0.44724983,0.47913387,0.77332425,0.03836556,-0.6432819,-0.062021248,0.8080078,-0.53396386,0.43793344,0.5362748,-0.0077159954,-0.094904006,0.8077228,-0.5645031,-0.96014583,-0.11428222,-0.7846949,-0.47610956,0.38684472,0.8342386,-0.97674394,0.38174725,0.13636868,-0.22244689,-0.51128614,-0.75123984,0.55088633,0.011685792,-0.57815605,0.3560068,-1.0030365,-0.22851932,-0.1144236,-0.3834531,-0.22884403,0.7768685,-0.18998086,-0.5694402,0.047418863,0.9639032,-0.28554815,0.8213727,-0.29782274,0.15304849,0.5468934,0.628113,0.84420997,0.5374384,-0.37764782,-0.5136043,-0.92026025,0.0023615314,-0.5958171,-0.9166893,-0.11039714,-0.8021288,-0.77686465,-0.052789837,-0.840506,0.05796984,0.21442333,0.8189772,-0.6796856,0.6487271,-0.5728766,0.2828096,0.37421224,0.12174114,0.6910238,-0.27554157,-0.30737194,-0.34496018,-0.791738,-0.6340147,0.57808304,0.70509493,-0.64001423,-1.0044814,-0.045209195,-0.97159094,0.19762921,-0.9096347,-0.62246627,1.01929,0.31748238,0.6249573,0.6854815,-0.3549124,0.62689734,-0.80338496,-0.00979855,-0.10634547,0.7999485,-0.112363845,0.10029216,-0.02435427,0.022826457,0.3027619,0.8681948,0.40592724,0.83836013,0.56902194,-0.72769976,0.9167888,0.64745104,0.20922573,-0.55517167,0.21488987,0.16047862,0.30205092,-0.87453103,-0.38391307,-0.57289636,-0.49163106,-0.02177248,0.43024814,0.6778814,-0.8187638,-0.5164844,-0.17338328,-0.95573777,-0.6072334,-0.8610967,-0.7260874,-0.6978408,-0.7797818,-0.26370087,0.59145063,0.8317108,-0.49529362,0.016772477,0.32748953,-0.5939667,-0.7768583,0.7861432,-0.9279073,-0.11950812,0.6124588,0.7305981,0.000996295,-0.50141495,-0.7939874,-0.20984659,0.23921815,-0.9202529,-0.3156923,0.17271708,-0.028699366,-0.17820664,-0.05161215,-0.23996909,0.727667,0.9274975,0.22342145,0.055871528,-0.15468928,-0.766786,0.76755065,0.43751413,-0.3722782,-0.08425838,-0.66201633,0.8866135,-0.18487076,0.94226325,0.92166054,0.30670512,-0.092999846,0.69166535,0.10450539,-0.56598425,-0.43315518,-0.33887282,0.99185437,-0.053396102,0.34024575,-0.51454717,0.584132,0.20333362,-0.8052744,0.97252905,-0.7057792,-0.14566341,0.773473,0.28086734,-0.7094011,-0.57553846,-0.3839346,0.47239134,0.43290192,0.32608038,-0.86408144,-0.8077004,-0.6851274,-0.64078957,-0.6481464,0.6573558,0.49737838,0.63175803,-0.7824572,-0.9789269,0.5036263,-0.45995957,0.6184852,-0.32897615,-0.8223545,0.40095243,0.516879,-0.3575537,0.1987396,0.8353786,-0.009615533,0.818359,-0.3456499,-0.50328875,-0.112330265,0.9056957,-0.19937749,0.7998132,0.72517586,-0.24443509,-1.0058523,-0.6087337,-0.7016867,-0.31685564,0.44394064,-0.3997253,0.7966819,-0.5171101,-0.3633139,0.016093936,-0.28966975,0.6644388,-0.90026325,0.33409598,-0.43742827,0.31720182,0.018439824,-0.79553556,0.14621404,0.48418114,0.17854111,0.8448997,0.31093946,0.27628952,-0.8730206,-0.8235337,-0.4985568,-0.545189,0.5207147,-0.5492337,0.013564669,0.62823796,0.5312375,0.4209171,0.44270226,0.36620286,0.2893151,-0.44358313,0.26890352,0.94986844,0.976351,0.39203903,-0.6650699,-0.46289182,0.6384122,-0.03923662,0.8670199,0.75201446,0.49404913,0.32214588,-0.12490055,0.5092568,0.9553109,0.6684858,-0.96386975,0.80682546,-0.6920772,-0.3468847,0.9431789,-0.8440636,-0.5833899,0.50094277,0.8362534,-0.02912965,-0.66425616,0.48778388,0.008586723,0.28571278,-0.13340376,-0.32676384,-0.8628986,-0.52024317,0.77696157,-0.36093605,-0.581258,0.6619773,0.22697061,0.20830156,0.14837621,-0.9497601,-0.4094554,-0.71589243,0.06200608,-0.0930983,-0.31092578,0.5461119,0.7883611,-0.10052397,0.91504484,0.9560893,-0.23701186,0.8274398,0.12594594,-0.29308847,0.5526816,-0.8940786,0.6471384,-0.6477929,-0.37870568,0.013376851,0.18920791,0.22076072,0.9682557,-0.39999455,0.46999067,-0.40280372,0.20580404,-0.61878866,-0.22791779,0.8498236,0.22437774,0.621075,0.06717151,-0.5066423,0.29545072,0.34770328,-0.044381764,0.038179997,0.42046428,0.8106865,0.57444507,0.9057392,0.1980335,-0.8859708,0.77510923,-0.5992592,0.57488924,0.12947096,-0.28568652,-0.07850065,-0.6877628,-0.77879655,-0.9514195,-0.14490642,0.23613876,-0.9187684,-0.6428125,-0.21947677,0.5464717,-0.10003649,-0.85045916,0.08209143,0.7296259,0.5074798,0.60663414,0.3777952,0.94489306,-0.08897064,0.381801,-0.9104059,0.071153045,0.0848552,0.7493019,0.7779706,-0.03885722,-0.17645346,-0.5645354,-0.28667668,-0.8615295,0.6622564,-0.7036306,-0.7447877,-0.35636052,0.0038935626,-0.70063716,-0.92206556,0.44002774,0.57542413,0.114320986,0.21214417,0.8894293,0.17617245,0.72283185,0.9086046,-0.49444118,-0.85024995,0.6841867,-0.095283866,0.4155134,0.05688789,1.007528,-0.011283655,0.34070504,-0.20713122,-0.034644675,-0.29698476,-0.2957364,0.34993032,-0.5576202,0.09505593,0.87897,0.80519277,-0.08749451,0.5067368,-0.93738574,0.32451054,0.27370426,-0.2325868,-0.48243058,0.84042376,-0.48096415,-0.47440374,1.0014126,0.45626834,-0.4786399,0.9284977,0.24347708,0.2573799,-0.8552263,-0.5830899,0.83895755,0.3921462,-0.6348498,0.6915037,-0.22475094,0.4600371,0.39152163,-0.32326236,0.88434637,0.705468,-0.8324028,-0.9402941,-0.6212722,0.10512885,0.34515598,0.014851338,0.050414063,0.5283968,-0.6458177,0.254095,-0.7094739,0.8778176,-0.7757496,0.53574014,-0.23652147,0.4521194,-0.08738114,0.25501838,0.20344272,-0.95033306,-0.86763465,0.4347077,-0.72935814,-0.54904574,-0.10817803,-0.53761554,-0.70552504,-0.7673298,0.5257888,0.8139982,-0.6749733,-0.6258677,-0.21124233,-0.93767637,0.26332664,0.33009508,-0.9622824,-0.7595462,0.6338041,0.37832522,0.1655185,-0.46365398,-0.56193936,0.15406492,-0.5262256,-0.38430572,-0.3907395,-0.37838224,0.9169833,0.71520245,-0.23531911,0.6913534,0.3958739,0.17026764,0.9450238,-0.17661585,-0.3021182,0.8823952,-0.91820645,0.6085973,-0.62624776,-0.8273489,0.89546204,0.5498021,0.06208563,0.8306949,0.32381827,-0.82126474,-0.76096153,0.8986376,0.10393839,0.65192395,0.7807074,-0.100737914,0.75528085,0.91993093,0.51424056,-0.62583387,0.7009039,0.8391669,0.455879,0.7548272,-0.236184,-0.32587287,0.022266537,-0.9490493,-0.81772923,-0.9199226,-0.34051195,0.5374203,-0.34446394,-0.30935827,0.46839294,0.23463355,0.024999125,-0.44104353,0.85625213,-0.24840832,-0.124812596,0.2885947,-0.049010623,0.6371539,-0.019571595,-0.5676058,0.99344754,-0.3252268,-0.951801,0.3142392,0.09717144,-0.112101085,0.4892091,-0.5968122,-0.2375747,0.7939911,0.7544431,-0.9349644,0.14882028,-0.43020195,1.0100839,-0.29446575,0.6782478,-0.36063161,-0.5614034,0.65480506,0.14588657,0.106554605,0.796883,-0.9089012,-0.5795504,0.6235947,0.20663889,0.20228428,0.94509715,-0.5730629,-0.19657242,0.8326164,0.6304903,-0.56081474,-0.71239716,-0.6589801,-0.83497477,0.971468,0.03739379,0.24931225,-0.7683517,0.042441998,-0.66953343,-0.62122285,-0.64875865,0.24880733,0.042684574,-0.7212244,0.7624567,-0.5686583,0.28478232,-0.8167424,-0.8394758,0.17745306,0.8268121,-0.49116838,0.7273654,0.57211363,0.17935675,0.87864584,-0.5831428,0.9703825,-0.23501018,-0.3192752,-0.26615992,0.012064252,-0.9526941,-0.6420983,-0.17103304,-0.2849018,0.42770645,0.029672794,-0.8697029,0.48578402,1.0249767,-0.38462904,-0.27512076,-0.8660269,-0.30759177,0.28266555,-0.7546754,0.6425224,0.20219919,-0.31058717,-0.3813597,0.5151965,0.2665991,0.7565148,-0.623738,0.028384967,-0.6486481,0.91177934,0.8564178,0.6648368,-0.6561343,-0.90529835,0.7515032,-0.9326766,0.56522393,-0.40123233,-0.64116365,0.39291468,-0.24710213,0.43684238,-0.81449705,0.5553259,0.1598692,0.17446889,0.0025522315,0.07186244,-0.21392375,-0.622762,0.18758807,-0.30446124,0.43335667,-0.6981942,0.37965387,-0.93999213,-0.44551563,-0.16486534,-0.022779409,-0.3852309,0.17263621,0.4101429,0.24105418,-0.057101987,0.9358597,0.6956386,0.24025306,-0.016745605,-0.35255364,-0.39618394,0.5275659,-0.44908905,0.1602647,0.90386546,0.4669903,0.08096562,-0.037977748,-0.20898691,-0.87538505,-0.7979458,0.42121258,0.9684209,0.8085858,-0.55086005,0.4554435,0.71152806,0.21569364,0.9799919,-0.62870306,0.5080755,-0.92579144,-0.13484979,-0.6291417,0.528856,0.100873694,0.91608584,0.6797886,-0.4480484,0.4596157,-0.28492486,-0.20960392,0.47038442,0.7075054,0.5012273,-0.23179048,0.58125293,-0.8797976,0.25267354,0.16371673,0.7192835,0.28615814,0.06644203,0.58096737,0.2264366,0.5013743,-0.28527546,-0.72060555,-0.45357823,-0.51454294,0.8028506,0.7428002,-0.81116825,-0.30405924,-0.8575128,0.01800915,0.2737475,0.5352537,-0.16080932,0.46002114,-0.42297858,-0.20018135,0.17623016,-0.1978058,0.3248504,0.9565727,0.7826044,0.7663171,0.43412286,-0.4069347,0.049816784,0.96991813,-0.27833316,0.8908952,-0.6212377,0.2292459,-0.29417786,0.69441736,-0.92668337,-0.618802,-0.5165359,-0.45954645,0.29058897,-0.23128803,-0.3021901,-0.5707866,-0.8625143,-0.33582988,-0.9200777,0.25534397,-0.5763723,0.58212554,-0.70844644,-0.61956376,-0.150369,0.85642296,0.7243329,0.34124425,-0.9059503,0.6186312,-0.15359458,0.4441818,-0.35826087,-0.2660891,-0.48812628,-0.55990076,0.13730855,0.3943269,-0.48364353,-0.9532502,0.75527585,0.115845986,-0.59361976,0.51992494,0.86658615,0.6430526,-0.6006018,-0.20259856,0.47327587,-0.82692766,0.77959865,0.38018408,-0.3612083,0.3992777,0.3487809,-0.6748151,-0.5545789,0.5877747,-0.35228094,-0.6583847,-0.52336055,0.1736881,0.47226897,0.59628904,0.5074186,-0.3633841,-0.45514607,-0.3460032,-0.36979714,0.5629795,-0.57184005,-0.7402854,-0.31762546,-0.2669584,-0.57766,-0.47815964,-0.885748,0.79237264,0.83591855,-0.7845317,0.3787646,-0.95051336,-0.5219056,-0.5939818,-0.33079678,1.0105904,-0.15715587,0.8622245,0.084566206,0.45784828,0.68455166,-0.5585759,-0.406955,-0.25246838,0.42971814,0.076116696,-0.57796806,0.850273,-0.60754776,0.5625303,-0.22942182,0.19300766,0.7513744,-0.79505515,-0.8328781,-0.84506613,-0.5489214,-0.22792834,0.010601549,-0.7552071,0.80795366,-0.28017524,-0.23045693,0.9228144,0.097332105,0.017255621,0.9531639,-0.4696214,-0.9412085,0.45584816,-0.2637496,-0.57432723,0.56817025,0.7001382,-0.40080416,0.64185786,0.8437171,-0.86859626,-0.98123115,-0.7795947,0.22588477,0.63530654,-0.27779657,-0.7643972,0.5986934,0.096883856,-0.20134757,-0.338386,0.31166163,-0.06585007,-0.64829075,0.26295096,-0.45555493,-0.35101932,0.30754668,-0.85246855,0.67483443,0.41164428,0.69827706,0.6089061,-0.7989227,0.97317547,0.42597,0.9217287,-0.9248318,-0.8913426,0.5045781,0.8301872,-0.681308,-0.38617894,-0.059154168,-0.035922922,-0.015967758,0.8145515,-0.08981142,-0.5063359,0.3145471,0.5572387,0.9160188,0.56927836,-0.7404086,0.7632847,-0.8734538,0.2659499,0.3923666,-0.38101852,0.1329939,0.5734617,0.6053692,0.43716478,0.39752898,-0.8227359,0.5178622,0.32116625,0.119506106,0.06471982,0.39866108,0.094512515,1.0118665,-0.40401623,0.58698535,0.3814799,0.07165213,0.32512778,0.6875224,0.18276489,0.18437529,-0.5298516,-0.08400598,0.9923426,0.15277262,0.89618593,-0.8651119,-0.8409669,0.12925133,-0.08895454,-0.14476104,-0.54059863,-0.5852755,0.20404857,0.9680766,0.51444274,0.040561613,-0.96692115,-0.34904447,-0.48718846,-0.9694656,0.90897065,0.3754935,-0.9183622,-0.35175,-0.67273736,-0.27368015,-0.38313633,-0.41533908,0.781359,0.37270132,0.64286524,-0.08892973,0.8127771,0.8221459,-0.88994133,0.97378534,0.07382887,0.8217592,0.5964069,-0.010405501,-0.871211,0.41750923,-0.14309649,-0.39071813,0.21369681,-0.15271074,0.93069583,0.41625524,-0.09566746,-0.81222653,0.49175277,-0.3163059,-0.6422104,0.005832107,-0.9690296,0.2207987,0.815115,0.17916657,-0.55560124,-0.1299494,-0.10485244,-0.6492652,-0.4948682,0.16220996,-0.8969016,0.9363546,-0.07155931,-0.38097844,0.027236978,0.9987152,-0.5031872,0.16756426,0.48662466,0.11599827,-0.5332841,-0.21715094,-0.2570185,-0.7619401,0.41482723,0.48500922,0.8251973,-0.920701,0.48402387,-0.3521138,-0.069636315,0.8974895,0.50492525,-0.008906292,-0.84422344,0.25562042,0.27274156,-0.6334041,-0.4695815,0.29182392,-0.78474814,0.70438594,-0.7774044,0.15554784,-0.8496985,0.22743402,-0.0680612,0.031356037,0.6911187,0.32881162,-0.5541069,0.03715161,0.16341473,-0.6539704,0.117430836,0.97354704,-0.12327831,-0.30399686,0.22709408,-0.44394067,0.8686523,-0.8615862,0.9941138,-0.19077154,-0.9198881,-0.48487756,-0.22802791,-0.43876836,0.3799918,-0.23988132,0.4734475,-0.37449655,-0.33029214,-0.95387816,0.0042134216,-0.80125207,-0.6305723,0.17857249,-0.4520006,0.6080314,-0.04068339,-0.86272305,0.1254146,-0.47140956,0.28015667,0.34316233,0.72497946,-0.62971985,0.13813359,-0.67423546,-0.3665534,-0.4312768,-0.3360684,0.99988925,0.6373534,-0.19146918,-0.8052868,0.35318387,-0.18882899,-0.27164513,-0.37892997,-0.5920752,-0.22231987,0.20057179,-0.90636116,-0.79334235,0.44234875,0.5449296,0.008608128,0.8050131,0.4286535,0.6536532,0.42907763,0.9176652,-0.50673336,-0.20093559,-0.5824115,1.0036144,0.13187201,-0.96573913,-0.69150645,-0.043911226,-0.6426933,0.4046727,-0.31007007,-0.74645317,0.21408607,-0.9103297,0.49488303,0.16595955,0.9100212,-0.6405982,-0.0725166,0.0785384,-0.6231581,-0.6326174,-0.5119736,-0.95693,0.48219863,-0.16800493,-0.36917788,0.28136575,-0.9027479,-0.8803245,-0.062884584,0.5800424,-0.65465057,-0.35618347,0.116662085,-0.22545256,-0.6135647,-0.7623512,0.87798953,0.66376406,0.7148407,0.23604529,-0.96017885,-0.24850215,0.6717489,0.073901504,-0.35997126,-0.011005965,0.66752696,0.66817003,-0.90327877,-0.7974522,0.36686367,0.59745586,-0.96678895,-0.6329624,0.013556594,-0.28190792,0.53640693,-0.80145544,0.38769066,-0.91724336,-0.8154123,0.1837633,-0.552935,-0.1361239,-0.69755346,0.043859813,0.38946143,0.03689815,-0.35921144,-0.5171062,-0.78208447,0.19178122,0.7989162,0.35307288,-0.7402886,0.9940264,-0.81314266,-0.9301444,0.12044109,0.7987964,-0.8150564,0.74692327,0.07305049,-0.77288944,-0.4828204,0.6577021,0.23270276,0.42673734,-0.8526062,-0.27176794,-0.50920403,0.9065349,0.39106908,-0.2126442,0.019062243,-0.07882683,0.5388232,-0.95966184,0.13011433,0.90850854,-0.6476331,0.76334745,-0.6131551,0.77745473,-0.5540159,0.4998943,-0.7364128,0.7936487,0.7208769,-0.50182575,0.2698508,-0.973836,0.48748222,0.7487597,0.15445837,-0.8040815,-0.5384866,0.29383564,0.85217917,0.87020826,-0.59543395,0.5393012,0.2925272,0.947241,0.5344326,0.6319892,0.06888074,-0.88969,-0.21275048,-0.70848995,0.46190387,-0.9550133,0.51536965,0.83819294,-0.3629284,0.12576105,-0.20417152,-0.7909041,0.7411398,0.51845396,0.12438889,-0.16232495,0.6403696,-0.12781028,0.63331497,0.75283253,-0.39895102,0.45809585,-0.9216181,0.33521864,-0.09427212,-0.15378745,-0.10479084,-0.5531266,0.6213575,0.5240741,0.8857392,-0.7102009,-0.88208085,0.34050038,0.50941145,-0.7689896,-0.7502328,-0.34662318,0.96534896,-0.6978019,0.3789299,0.34388548,-0.26964068,0.3891468,0.06446644,-0.6561191,-0.015793733,-0.84214056,-0.7141133,0.29747653,0.5172035,0.5958531,-0.16969891,-0.04198971,-0.7936685,-0.1355993,-0.2547543,-0.45618856,0.47140864,-0.18133545,-0.4705286,-0.64608115,0.051913958,0.8252254,-0.8429657,0.18311323,0.38224158,0.50089216,0.13559037,-0.73980635,0.50719494,0.7531289,0.7422736,0.39460245,0.0300402,0.15912403,0.104113266,-0.7355104,-0.72173023,-0.13407856,-0.5202684,-0.34900835,-0.37768102,-0.25180402,0.91726786,0.72475857,0.4298142,-0.5434073,-0.7569739,0.9951066,0.38758245,-0.1152804,0.65959483,0.37130773,-0.16629648,0.39666426,0.6891924,-0.524143,-0.55383986,0.48177838,-0.36825314,-0.33775255,0.12677838,0.27093112,-0.69425315,0.45496368,-0.74308383,-0.12890807,-0.50450003,-0.6644467,0.21557333,0.5329898,-0.5609896,0.3265335,0.32803276,0.7759528,-0.34585,0.18536456,-0.069703594,-0.42021936,0.60486907,0.8837738,-0.73367065,-0.16887401,-0.5017993,0.58265215,0.74695086,0.4074953,0.88924783,-0.82784975,-0.2168939,0.28549647,-0.6615826,-0.8482125,0.21023947,0.3206248,-0.9310935,0.10201853,-0.24249016,-0.64043015,-0.9422164,-0.8891849,-0.21270953,-0.6313816,-0.08588242,0.8546014,0.6934322,-0.6490459,-0.5035119,-0.72539616,-0.94487894,0.9310138,0.72188926,-0.4357133,-0.005391916,-0.6174921,-0.8487138,0.5425945,0.19316334,0.99627924,1.000953,0.092126526,0.938647,0.46971187,-0.9038414,-0.96703464,0.30353224,-0.060576912,-0.34861085,-0.6474265,-0.69397265,0.36502054,0.51179415,0.63172275,0.32566905,-0.14005941,0.8043279,-0.22526969,-0.9222511,0.27096146,-0.8334421,-0.12298279,-0.19338904,0.11144961,-0.83587736,-0.97892845,-0.9556936,-0.030175276,0.32219246,0.3205148,0.5944213,0.1328909,-0.2187389,-0.016815929,-0.5157716,-0.8795981,0.08255777,-0.9206829,-0.05076165,-0.022210823,-0.22008112,0.7655564,-0.93306524,-0.521371,-0.47524282,0.43203813,0.28675348,0.012889503,-0.5342197,0.41698626,-0.031193616,0.81507325,0.26798195,0.06934113,0.71672904,0.24078773,-0.7305347,-0.76946336,0.92176974,0.005966397,-0.75067466,-0.7499584,0.7300256,-0.109024666,0.23215972,0.85224414,0.6217717,-0.5641532,-0.0035492992,0.7222763,-0.9279081,0.72739255,-0.7239833,-0.25677186,-0.018898686,-0.94749737,-0.60224795,-0.6076818,-0.7802415,0.96558905,-0.80903655,-0.7221905,0.36835027,-0.15512966,0.1250675,0.45151898,0.9258221,0.7860928,-0.6112861,-0.18851276,-0.5161609,-0.72364396,-0.2246263,0.6738268,0.880864,0.8261286,0.2688347,0.3042058,0.018435363,-0.5313959,0.06493584,-0.42720515,0.6892361,-0.22525546,-0.3012368,0.48216587,-0.32006562,-0.91297454,-0.51485753,0.24232304,0.9064227,-0.28745365,-0.8344893,-0.46125427,0.45195153,0.8032495,-0.13618724,-0.7737152,-0.17282443,-0.3970214,-0.20740457,0.23558012,0.6100916,-0.83766997,0.3021226,-0.9063414,0.098920606,-0.9284434,0.2966626,0.80373526,-0.26888427,-0.9683167,0.80893016,-0.10147163,0.60772145,-0.96537375,0.5111265,-0.43733954,0.38034993,0.9076153,0.9611578,-0.7799553,0.62563956,-0.48806304,-0.6302363,-0.70675164,0.69580835,-0.25906658,-0.20330888,-0.47830003,-0.53443485,-0.84076667,-0.45256945,-0.61912894,0.630194,-0.70190203,-0.79203194,0.2197129,0.24927557,0.64542854,0.06616405,0.47278237,0.09028901,0.83576655,-0.4459342,-0.80965793,-0.12871982,0.7168347,0.751243,0.7212284,-0.19355167,0.67870027,0.6742249,-0.7048873,0.22000676,-0.18873437,-0.6788324,-0.3650343,0.42351595,-0.1936723,-0.025526175,0.65736246,-0.8019638,0.5608991,-0.3101817,-0.77835155,-0.44737026,0.90249866,0.6323672,-0.13397476,0.1749281,-0.30405244,0.39540523,-0.5949291,0.6486007,0.7519293,0.753021,-0.24187018,0.30323485,-0.9461219,0.5429328,0.43173414,-0.056807946,0.2149216,0.34599853,-0.6234348,0.46066925,0.93280035,1.0232216,0.5596487,-0.517367,-0.06873619,-0.634387,0.22608535,0.46429348,-0.17054902,-0.11269846,0.7133494,0.80466783,0.8599513,0.88929003,-0.0920717,0.672748,0.33181238,-0.48695064,-0.62512803,0.34432802,0.6665053,0.0051862444,0.92216736,-0.22749211,0.08170159,0.93153864,-0.4281839,0.4224937,0.8663128,-0.74067867,0.8916465,-0.79238605,-0.04014239,0.573265,-0.69382554,0.22417438,0.63682383,0.1401251,-0.7000514,0.101602405,0.48172355,-0.6083068,-0.57351565,-0.7548904,0.03069966,0.20720047,-0.6796115,0.48278823,-0.62878335,-0.47142544,0.8485293,-0.01856568,0.7683804,0.60246927,0.20158006,0.24879573,-0.9195951,-0.47868037,-0.6522848,0.77031046,0.117745146,-0.9556322,-0.11231708,-0.17197332,0.70178926,-0.53441054,0.3781884,0.96509874,-0.08373807,-0.12803918,-0.81126505,0.030158496,-0.58172745,-0.5289113,0.517484,0.6318566,0.23070835,-0.39038166,-0.59088445,0.07693274,-0.49421898,-0.052966595,-0.08012577,-0.98817587,-0.13442995,-0.31117812,-0.0998846,0.5970817,0.40287802,0.05605151,-0.6395371,0.9530639,-0.5807553,-0.2671781,-0.027273538,-0.89719135,0.46999678,-0.6050876,-0.085748814,0.15942205,0.12592852,-0.3377947,-0.9624197],[-0.092589326,0.17808996,0.34860027,0.20752989,-0.14421408,-0.6147102,0.45780608,-0.9206264,0.01169144,-0.10450188,-0.15019655,-0.2522725,0.04139835,-0.69941896,0.9370911,-0.98016137,-0.8189269,-0.09463795,-0.9189096,0.3892415,0.6539018,-0.5941955,-1.0011485,0.36621466,-0.4315249,-0.9438883,0.6960207,0.6995469,-0.77877367,-0.24470179,-1.0180908,-0.79963624,0.40168598,0.6120258,0.4894542,-0.0926558,-0.7656361,-0.20685467,0.19344164,0.5413097,0.25794405,-0.79983336,-0.32581988,0.79543346,0.09986016,-0.9611967,-0.29809,-0.686317,-0.57352495,0.016870895,-0.7048343,-0.77873635,-0.43195346,0.82022285,-0.9563808,0.21545738,0.4596946,-0.3828954,-1.0059053,-0.8403141,-0.043047063,0.7809287,-0.36069572,0.55532515,-0.4338135,0.6159138,-0.92728025,-0.096702054,-0.6391583,0.47309506,-1.0203185,-0.8380209,-0.036845624,-0.87525177,-0.48276275,-0.6780386,-0.14409828,0.10945555,0.8603981,0.43271878,-0.9204875,0.27313238,-0.68673974,-0.77364373,-0.87687075,-0.12602173,0.85944915,-0.18773718,0.6966714,-0.65644103,0.67590106,0.9588468,-0.83749485,-0.21362208,-0.028587703,-0.06312469,0.8387997,-0.6286578,0.59530735,0.5292073,-0.5694061,0.032356024,0.20529641,-0.34414095,-0.92482907,0.43336618,-0.851471,-0.01991007,0.39446053,0.066603154,0.26482233,-0.76513505,-0.93473077,-0.19083855,-0.54448843,-0.9491,-0.41763756,-0.06258315,0.82845366,0.06638462,-0.13845257,-0.6082838,-0.33355486,-0.18003373,0.8519966,0.47203445,0.540383,0.045848016,-0.23382504,0.08566484,-0.25378957,-0.028494826,0.46968922,0.10278171,0.85753345,-0.999374,-0.2900848,-0.8462893,0.19137716,0.35288325,0.7142073,0.63990897,-0.7525732,-0.12784596,-0.29259336,0.5539045,-0.42729732,-0.36366475,-0.18886094,-0.93436015,0.38362917,0.51794344,0.1279835,0.31335145,0.14487271,-0.42527345,-0.96030146,-0.09932924,-0.614837,0.6807142,-0.7769274,0.20736499,-0.63269836,-0.015086975,0.5065387,-0.022495374,-0.3082004,0.22859022,0.21142477,-0.23557061,0.39942476,-0.18847471,-0.14783773,0.73521733,0.30557743,0.034022804,-0.12444512,-0.98889667,0.6106383,-0.67167455,0.4964693,0.42241433,-0.9985187,-0.4482462,-0.5088849,-0.061578352,-0.90736806,0.01577531,0.2775789,-0.21748514,0.5375055,-0.5333874,-0.328868,-0.116105795,0.08858485,-1.0036088,0.8276694,-0.58406943,0.80605793,-0.19475566,-0.33078527,0.8547364,-0.9097816,-0.92830765,-0.9986567,0.45308626,0.9697138,0.77280295,0.20087412,0.8588185,-0.8447042,0.078918405,-0.65860415,-0.111558735,0.6189989,0.7271005,0.4998398,-0.955197,0.856529,-0.23844102,-0.8518193,-0.9952311,-0.4036537,0.7350429,0.9117169,0.6801482,-0.078830115,-0.8541064,-0.26428977,0.6213888,-0.38251796,0.8453287,0.31987575,0.092196785,-0.46407536,-0.9380105,0.08178143,-0.50730616,-0.021112198,0.26035655,0.20226239,-0.29489395,-0.49659362,0.42024004,-0.21100797,-0.5233155,0.13705003,0.78955615,-0.2737641,0.22525816,-0.7542997,-0.66045177,0.6956379,-0.99536675,0.4954475,0.29837462,-0.55868596,0.33085462,-0.26839387,-0.5338601,-0.11712278,0.8768916,-0.049195886,0.53414357,0.72699106,1.0105916,-0.8048301,-0.532776,0.6971068,-0.7613705,0.55111533,-0.89590406,-0.8912351,0.16809534,0.7381646,0.81068546,0.6308784,0.8958714,0.51980734,0.8118946,-0.5775132,1.028402,0.8853749,-0.33047503,0.40670922,0.84178984,0.86349946,-0.5848508,0.9759974,-0.85849726,-0.08157336,0.74394417,-0.35759628,0.88686526,-0.7974613,-0.787712,-0.4444626,-0.61607826,0.05416948,0.5820645,0.76614314,0.93276876,-0.9382441,-0.97407717,0.5442484,0.14524429,-0.9357895,-0.77409536,0.5455966,0.07966473,0.41308823,0.56968105,-0.1798192,0.6925698,-0.90953225,0.8863302,0.5507291,-0.33932737,0.24380517,-0.47536606,0.3512306,0.19015005,0.68129885,0.21364167,0.9166319,0.93300354,-0.9214725,0.20481329,-0.5223306,0.42404282,0.5630313,0.5855677,0.4824192,-0.3893805,0.50567806,-0.717558,0.1934266,-0.52236366,0.7313545,0.55426085,0.7229071,-0.4947432,0.9408032,0.44599774,0.12422964,-0.9892714,0.9069679,-0.18557918,0.894,0.38525304,-0.49945825,0.21488869,0.0500082,-0.98619765,-0.9289868,0.18733744,-0.057864003,0.80274296,-0.6453121,0.30371425,0.24107529,-0.35818577,0.74697036,-0.9188856,0.5410671,0.15133591,-0.4251305,0.3363732,-0.64938396,0.6117173,-0.92715764,-0.7133307,-0.5933589,-0.5302062,0.3474661,-0.8395364,-0.71283776,0.18837427,0.8317,0.23060048,-0.6170089,0.78608775,0.20996358,-0.12988481,-0.76671886,0.28685772,0.6666396,0.8159663,0.30939287,0.85964155,-0.01054292,-0.92331105,-0.6487721,-0.33965352,0.7125811,-0.49286792,-0.50003326,0.26738137,0.6769517,-0.2518225,0.7666441,-0.21313433,-0.6255977,0.29374793,0.7814402,-0.791501,0.30930758,0.94700605,-0.033645198,0.53628904,0.4201268,0.27638686,-0.7144347,-0.07269145,0.671925,-0.3205588,-0.13236181,0.107818834,0.28112775,0.6051489,0.7877313,-0.94653267,-0.2139173,-0.9943387,0.080623224,-0.14977047,0.119730964,0.828367,-0.68852156,0.52226883,-0.75571287,0.24012016,0.4333261,0.83164895,-0.692127,-0.31205618,-0.34492144,-0.7128448,-0.9242834,-0.9892586,-0.44772038,0.20039892,-0.4619162,-0.7920027,-0.22132467,-0.9290309,-0.10311285,-0.18320628,0.9114198,-0.06840549,-0.7795686,0.48571822,-0.88153195,-0.9760793,0.46494135,-0.766757,0.4323803,-0.28409582,0.17487003,-0.7925759,-0.23577406,-0.23903716,-1.0325273,0.3338842,-0.77580136,-0.5415987,0.3071584,0.0108008,0.070755765,-0.585547,-0.8050277,0.9270639,-0.60783064,-0.82522655,0.52695024,-0.5962475,0.81228846,0.810186,-0.19572265,0.60755473,0.5491891,-0.5890808,0.21212813,-0.64738417,0.39086357,-0.6946136,-0.06087825,-0.18006052,-0.9199326,-0.47528318,0.7856314,-0.2669497,0.8097865,-0.8072156,0.62064695,-0.21005405,-0.8774335,-0.69119465,0.68611187,0.36013162,0.18620263,-0.12580767,0.017882043,-0.31506628,1.0327079,0.09834717,0.61264336,0.6154599,0.56993085,-0.00020722428,-0.20934102,0.66063875,0.04311399,0.65201294,-0.96122456,0.12672696,-0.5580743,-0.41060513,-0.520183,-0.14548823,-0.05722381,0.021415057,-0.23907936,0.20472957,0.95045507,0.59247977,0.74568963,-0.668239,0.25440943,0.41114604,0.4887235,0.523978,0.19109395,0.1306851,0.7751418,-0.8097151,0.50881827,0.48101926,0.20577066,-0.32701007,0.71411926,-0.528355,0.9781381,-0.4573154,-0.4681958,-0.33585832,-0.8593948,0.12728968,-0.2793319,-0.6117415,-1.0097802,-1.0040834,0.32062304,-0.9365578,0.6608032,0.6819695,0.45466766,-0.020810083,0.26541838,0.28076306,-0.1843801,-0.30297562,0.4826486,-0.44333616,-0.92639804,-0.008277699,0.04225961,0.08185225,0.73681915,-0.83902115,0.8227262,0.87892514,0.60073346,0.044858646,-0.76465833,0.11548548,-0.7674374,0.14443962,-0.34513414,-0.5848621,0.8226233,-0.89002746,-0.12239495,-0.61309814,0.3901298,0.78779304,-0.6811155,0.10717192,-0.5085958,0.4952954,-0.20184602,0.07071142,0.9449491,0.40324128,-0.11745645,0.2071873,0.080111325,-1.0478811,0.13751172,-0.51556516,-0.00597692,-0.15822455,-0.3054601,-0.83405,0.77706265,0.40320802,-0.054066665,0.45187944,-0.34920698,0.6493543,0.8192807,-0.31084144,-0.38287747,0.8454968,-0.078740805,-0.24971993,-0.36859706,0.5052723,-0.5550763,0.52302504,-1.045477,0.6810464,0.6598026,0.03750941,-0.8184799,-0.49735275,0.018356755,-0.47726122,-0.0904445,-0.34150082,-0.10723748,0.31764483,-0.5887811,0.2263016,-0.092133455,-0.4224228,-0.8708044,-0.76892614,-0.61142236,-0.5965167,0.17493542,-0.12249421,0.90751916,0.89362377,-0.5481274,0.95275086,-0.02030376,0.66714185,-0.06156653,-0.116087146,0.020046728,-0.89783233,-0.61409473,-0.49426764,-0.55907756,0.28943193,-0.8110886,-0.41112772,0.7929374,-0.47537532,0.20017043,-0.56662196,-0.5404955,0.15326487,0.6690558,0.18594733,0.60568434,-0.16516006,0.79168355,-0.95939636,0.7176742,0.39968643,0.20537359,0.21074466,0.7530396,0.5522636,-0.22542292,0.025998715,0.6881626,0.52915937,-0.30218148,0.7119077,0.24171248,0.17684247,0.5465979,0.80244786,-0.55808467,-0.89196104,-0.35047194,0.25204,-0.15608925,0.3603581,0.15537514,-0.69657946,0.5695063,0.11188854,-0.59435743,-0.12790781,0.063774586,0.55464935,-0.17120662,0.42818406,0.29881763,-0.15258972,-0.69537646,-0.34427205,0.3653351,1.0221657,-0.26696798,0.043223437,0.32559955,-0.8610863,0.49926174,0.07757469,-0.9272475,0.023892077,0.016762394,-0.17195694,-0.5750188,0.034184348,0.27488178,0.4631415,0.87572336,-0.7311858,0.2319509,-0.6143902,-0.09634848,0.35450548,-0.32605824,-0.9046456,-0.27957085,0.05686933,0.21715532,0.34148246,0.6793416,0.098359555,0.6184868,0.2788757,1.0264144,0.2701065,0.17720771,0.2134876,-0.14798391,0.097206004,0.22249195,-0.88676804,0.6656876,0.22595821,0.19986817,-0.27355862,-0.32578227,0.09229908,0.47650367,0.21892579,-0.20065863,0.0989007,-0.6695763,-0.85187066,-0.19005217,-0.387888,0.33120802,0.2673141,0.6629201,-0.21925372,0.061289564,-0.85966814,-0.88462555,0.4818151,-0.09500747,-0.44673732,-0.41527948,-0.9593192,0.186156,0.68793905,0.4496986,-0.061719388,0.7697481,0.884991,-0.99144626,-0.3626388,-0.25576654,0.975664,0.02867359,-0.1955234,0.38923514,-0.5999761,0.44841346,-0.62204754,-0.81351167,-0.20473398,-0.7481348,0.68255943,-0.21642144,-0.9411626,-0.2959716,0.8439105,0.62662524,-0.32642734,0.28235108,-0.6905038,0.75580245,0.78091484,0.77586466,-0.8141078,0.08801537,0.80209225,0.42873102,-0.61975414,-0.8667393,-0.5716675,0.6328155,-0.26020724,-0.5590037,0.23170282,0.7726731,0.3340349,-0.6053785,0.5906584,0.30832735,-0.795834,0.4258874,0.24050352,-0.06758115,-0.8612232,0.50448704,-0.027143532,0.47239122,0.9699532,-0.45455277,0.75249237,0.9979036,0.556207,0.7189244,-0.84420437,-0.40707585,-0.6277792,-0.82562053,0.37452245,0.68837976,-0.12610315,-0.43807572,-0.82114404,-0.034356683,0.4598694,0.6427744,-0.4007874,-0.5991218,0.7449156,-0.057846837,-0.077696,0.055614475,0.90021396,-0.9256897,-0.4760283,-0.7750175,0.5586838,0.77278334,0.6437827,0.23125741,-0.41316888,0.9461263,-0.53023237,0.30099794,-0.5768587,0.6249981,-0.89212924,0.91664445,0.37595844,-0.8489641,0.13009582,0.26706645,-0.3765172,-0.956798,0.18528216,0.6769713,0.20872541,-1.0475973,0.82709616,-1.0123446,0.82687837,-0.9958881,0.82384235,-0.25252867,-0.8763933,0.6428943,-0.78940666,-0.45111182,-0.37631002,0.17200321,-0.17766301,0.25398523,-0.9917418,0.60311747,-0.19611077,-0.6784196,0.56564814,-0.5718302,-0.6650093,0.65600616,0.49680603,0.026113642,0.2500165,-0.0031518135,0.6937185,-0.7615738,0.09593286,0.5859423,-0.86710054,0.61774707,0.83580923,-0.41943756,0.16582058,-0.8641915,0.90506387,-0.7664539,0.62581325,-0.3872644,0.92979866,0.5894833,0.056401413,-0.89552295,-0.77401453,-0.08082515,-0.14748704,-0.90158474,-0.08106809,0.41889867,-0.61193633,-0.7243812,0.15467858,-0.55527216,0.1329747,0.8558563,-0.029567951,-0.5705394,0.64570874,-0.34566307,0.18755738,-0.20439373,-0.37354353,-0.8444782,-0.70854783,0.63052577,0.35289058,-0.38357309,0.58512133,-0.00092929497,-0.9458885,-0.029631874,-0.12073635,0.8059764,0.45315078,0.9173208,-0.5172554,0.46327937,0.24896637,0.46481586,0.90886706,-0.06686701,-0.7700811,-0.7289351,-0.7706074,-0.8096245,-0.6419713,0.0042942152,0.029378805,0.6844541,0.5035664,0.63987345,-0.8196299,-0.42390674,-0.6517308,0.59720707,0.28692895,0.10803274,-0.8652159,-0.82832587,0.23797795,0.5977395,0.054234337,0.5714338,0.895673,0.81200606,0.76023424,0.085072555,-0.032075133,-0.3492579,0.5845515,-0.49430546,0.44469652,0.763805,-0.5849018,-0.7713777,-0.033978775,0.41441795,0.6204873,-0.25649393,-0.42440832,0.8160192,0.68743384,0.27326137,0.806714,0.6909445,-0.076714836,0.1411191,0.50327677,0.6339772,-0.30855143,0.3747777,0.92878586,-0.5610323,-0.7085324,0.81877846,0.46691555,0.90690494,-0.22357894,-0.37203604,0.72142076,-0.14561684,0.9743168,0.70673364,0.851016,-0.19799243,-0.19596043,0.42186895,0.53645974,0.047894165,0.92510414,-0.07895153,0.43483382,0.7622647,-0.8734015,0.34300268,-0.20151299,0.89840424,-0.17843184,-0.121077076,-0.48299727,0.9519893,0.46005604,0.35647172,0.47302616,-0.32762548,-0.5285074,-0.9657053,0.8818314,0.5350279,-0.82400894,0.11491753,-0.24863166,-0.70827854,0.5361583,0.5754281,0.38655713,0.59641784,-0.34812003,-0.019526564,0.38002837,0.15801924,0.2171865,0.6638761,0.48378572,-0.89414376,-0.6362424,0.5140985,0.6494082,-0.5882815,-0.27391404,0.82363796,-0.48574942,0.9230003,-0.43371546,-0.32972318,0.70062625,0.7062473,0.69014335,0.32722384,0.3528404,-0.8567064,-0.9901878,-0.36713254,0.2559865,-0.07246539,0.5005851,0.6623458,-0.5239852,0.023814967,0.3877263,0.5761092,0.9370149,0.3114339,-0.4890206,0.3745878,-0.71687233,-0.71900564,-0.49954587,-0.61726356,-0.75506747,-0.054136954,-0.4718284,0.49988076,-0.2907316,-0.62173086,0.44127247,-0.63044953,0.5671406,-0.3100648,-0.38495368,-0.4999575,0.11637348,0.9561856,-0.5593392,-0.59986955,-0.7641949,0.9597791,-0.29388556,0.8356077,-0.4823309,0.89343596,-0.9539804,0.18017896,0.34887266,0.6660624,-0.067027465,0.62060505,0.8075686,0.96360445,-1.0234232,-0.8024363,-0.13924074,-0.88619,0.090064995,-0.008224668,-0.96018535,-0.9341379,0.89611137,0.12727383,-0.69554716,0.6730132,-0.65483075,0.7267181,0.4432802,0.3589341,0.041623257,0.6267274,-0.0412524,0.9871349,-0.5779179,-0.5631253,0.30969167,-0.9242907,0.40892592,-0.99263793,0.41436175,0.5639221,-0.15940922,0.42688102,-0.3746579,0.22236504,0.6694641,-0.30656868,0.61155534,0.9530584,0.19699058,-0.33063072,0.57549125,-0.8169178,-0.64057446,-0.7711055,-0.41512233,0.31633484,0.6697374,-0.90612584,-0.8321535,0.86784595,0.9760523,-0.61118054,-0.3251877,-0.46415034,0.39192393,0.78007156,-0.8317788,-0.47683528,-1.0104603,-0.6495809,-0.65648913,-0.17928483,0.7955548,0.07306079,-0.7674193,0.9480651,0.8796057,0.6297891,0.8192365,0.4370574,-0.120271154,-0.6151242,-0.56209135,0.8395606,0.55299425,-0.5346328,-0.117253214,-0.16083647,-0.49475238,-0.51835996,-0.44616902,-0.55454123,0.37190706,0.7143892,0.9401038,0.86932975,0.68489814,-0.18021251,-0.64604497,-0.4371099,0.36115247,-0.8268038,0.2734048,0.3756553,-0.53544885,0.2450367,-0.34515035,0.68642,0.051774345,0.25943053,0.0687996,-1.0399992,0.61282796,0.22904535,0.06399049,0.670762,-0.14892377,0.82273865,-0.85782653,0.9455713,-0.8059613,-0.38097313,0.7112557,0.8791859,0.07534368,-0.195296,-0.9874925,-0.37596774,0.85759807,0.45852584,0.65317684,0.5598177,-0.05429081,-0.1992314,0.23672858,0.63681614,-0.42528573,0.009914373,0.73157126,-0.8546791,-0.16136643,-0.063157305,0.8257378,-0.7015873,-0.88049525,0.26349023,0.1051947,-0.662782,-0.61897063,-0.55561393,0.9952995,0.97423816,0.4076903,0.063696094,0.2601317,0.33563006,-0.8244858,-0.20246759,-0.7317722,-0.4759407,-0.90860635,0.14836666,-0.31381124,-0.7017096,0.5058495,0.29041487,0.9347069,0.27978092,0.8614515,-0.52368647,-0.59633446,0.6373104,0.8101492,-0.6430068,0.5032666,-0.0361673,0.18152913,-0.17049822,-0.71596235,-0.88870376,-1.0182278,0.44999686,-0.97781855,0.16318327,-0.36722368,0.12584163,0.17227198,0.28800306,0.65113026,0.00813004,0.8922717,0.70237404,-0.11883806,-0.3597076,-0.08561782,-0.904136,-0.024230821,0.4563366,0.1057142,-0.19076353,0.22423972,0.41970563,-0.8409491,0.54015535,-0.7676654,0.06120327,-0.6768556,0.26400793,0.0076309023,0.3706759,-0.50024235,-0.96261674,0.7871426,-0.31133473,0.37918463,-0.004139526,0.14172973,-0.9818254,-0.2811635,-0.17160968,0.6721441,-0.3163934,-0.7496897,-0.052545015,-0.101557575,-0.3994066,0.74347895,-0.7050024,-0.3120588,0.91578835,-0.4543093,0.8429753,-0.376331,-0.9673573,0.06358582,-0.021992186,0.46619967,-0.13692704,-0.43641406,0.30562046,-0.28182742,0.36130953,-0.98595536,0.29462755,-0.35227007,0.36301628,-0.30490458,-0.978621,0.64197594,-0.7067544,-0.3937174,-0.5629783,0.5190016,0.06903858,-0.9102925,-0.056681305,0.28505132,0.8747988,-0.8907537,-0.57971996,0.86478883,0.60103065,-0.9819302,0.15304896,-0.998747,0.5649669,0.69773924,0.7920897,0.7198441,0.8077463,-1.0087262,0.88724124,0.3221793,0.7738846,-0.2993884,0.58793646,-0.42692167,-0.72806114,0.11584119,-0.5510726,-0.22675157,0.79596376,0.0024099671,-0.87118804,-0.58654195,-0.5534697,-0.83624345,-0.26847032,-0.8047336,0.8502608,-0.016009679,0.6100155,-0.27601677,-0.07938139,0.90658206,-0.93670213,-0.48586714,-0.82129633,0.3445537,-0.3280887,0.9332112,0.9416548,-0.4523257,0.14635846,0.15524961,-0.89046645,-0.048683476,-0.77383757,0.9141923,0.98789096,-0.919807,-0.37401137,-0.3934242,-0.5231931,-0.35438392,-0.04149919,-0.44653165,0.46788216,0.8405425,-0.5987873,-0.87287587,-0.8797068,-0.58777267,0.85229814,0.35526562,-0.14020786,-0.3917991,-0.515206,-0.18404931,-0.67946744,-0.5700851,-0.565405,-0.059633713,0.39704055,-0.16587217,-0.056577045,-0.9647614,-0.35203964,0.77909774,-0.73954475,0.68339086,0.8335485,-0.83633906,0.116752654,0.13805966,0.35705966,-0.2937968,0.08934175,0.8312901,-0.82112,0.65123034,-0.81982034,-0.89651024,-0.326287,0.355523,0.014864093,0.20695017,0.15484098,0.57008886,-0.27900124,0.8207515,-0.38763854,-0.8278152,-0.112396434,-0.7214109,0.18518393,-0.7269666,0.41729867,-0.46826375,0.4485028,0.2159868,-0.24157774,0.1622595,0.07996963,-0.29426003,0.3943956,-0.27603358,-0.98998517,-0.94473225,-0.8454213,0.4347522,-0.69969726,0.5003744,0.017854845,-0.9636935,0.18068618,-0.92975736,0.71948236,0.5144331,0.23837829,0.5247677,0.5596991,0.94495326,-0.50249684,0.041682474,0.7349969,0.8668231,0.3305899,-0.53505373,0.85500497,-0.9200781,-0.68401486,0.5867545,0.73196495,-0.47070494,-0.058008425,-0.40017894,0.0758678,-0.40847662,-0.29768047,0.44177872,-0.82993454,-0.14281039,0.75464135,0.5627696,0.7941944,-0.36126363,-0.9643649,-0.305377,0.038634483,0.3056224,-0.33350354,0.021908328,0.7606721,-0.5566971,0.50100917,-0.27952006,0.812374,0.0790943,-0.15288578,-0.9309354,-0.15872453,0.87807184,-0.84892666,0.4088932,-0.15702423,0.21059264,0.5394063,0.44270143,0.33594006,0.13117275,-0.66069967,-0.4529233,-0.36355045,-0.5321867,-0.63371086,-0.22625723,-0.56444806,0.11039612,0.08833668,0.62161475,-0.90343106,0.10686951,0.18462545,-0.26551136,0.3596847,0.41728517,0.32371017,0.43005693,0.6346687,0.6731797,-0.24137832,0.3677616,-0.74685794,0.00532793,-0.91897,0.68966895,-0.1350518,-0.33010083,0.7225592,-0.16386965,0.15861768,-0.4864696,0.48816487,0.054513935,0.9417185,0.04125973,-0.16902895,0.24639305,-0.879988,0.0039414368,0.062541,-0.8885971,0.3573794,0.020315409,-0.8062598,-0.97454214,-0.024274608,-0.91327596,-0.9641695,0.1497105,0.89482874,-0.2238656,0.8291112,1.0243367,-0.079621725,-0.1314885,-0.24193467,-0.56612116,-0.41763982,-0.64726233,-0.3555411,-0.19424804,-0.11424536,-0.30831364,-0.7316723,-0.68084586,-0.6852758,-0.30762494,0.037805278,-0.25439215,-0.88652194,-0.75899935,-0.8422246,-0.27215573,0.7771379,-0.67880416,-0.037899844,0.69018924,0.75352037,0.5303427,0.31798685,0.21349469,0.39326102,0.9216561,0.010895596,-0.44290084,0.72471875,0.53693324,-0.2137371,-0.70971066,-0.21206075,0.56494063,0.24033365,0.087688565,-0.2579326,-0.90899086,0.3647821,0.5622668,-0.40945932,0.35916954,-0.8842899,0.45015433,-0.9981635,-0.7683602,-0.78898674,-0.37478995,0.5169217,0.3592139,0.03326271,-0.37134245,0.78185856,-0.15612258,0.5170695,0.052654568,-0.30727202,-0.6456693,0.4741675,0.64563805,0.318668,0.18480507,0.6356154,-0.5379138,0.63804924,-0.93652785,-0.5546219,-0.1961854,0.6732888,0.34567866,-0.26369038,-0.88927096,0.88824016,0.15665627,-0.586376,0.053942785,0.073714614,0.64434034,0.98992765,-0.38092348,-0.19692753,0.262403,-0.7424173,0.20336266,0.6243252,0.7976607,-0.28006145,0.57430756,-0.92915833,-0.4361504,-0.21529813,-0.8277273,0.14307259,0.0048148064,-0.73651665,0.6550343,-0.5869767,-0.1337853,-0.43208125,0.9547353,-0.4816706,-0.37066084,0.48540044,-0.47635028,0.49552897,0.14699386,0.46963158,-0.14165542,0.08398833,-0.51602775,0.7338577,-0.4408109,-0.041377597,-0.8418984,-0.5288251,-0.81910497,-0.43592396,-0.83492386,0.0358099,0.50652623,0.30397928,-0.9941081,-0.7376904,-0.34298384,0.2830526,0.46079236,-0.20279218,-0.73736894,-0.18409725,-0.38221794,-0.9605151,0.31852314,0.19977127,-0.38110548,0.287234,-0.8040539,-0.35442173,-0.14723395,-0.09082608,0.7473475,0.718437,-0.9777171,-0.6387606,-0.22117183,-0.03906239,-0.75182647,-0.98267406,0.45534983,-0.26858655,-0.009836081,-0.23455156,0.97018224,0.29074067,0.11206038,-0.33510083,0.107297204,0.13456073,-0.43922216,0.73069566,-0.67226833,0.5172136,-0.72132826,-0.31228337,-0.8209218,-0.8603975,-0.0038752735,-0.07291673,-0.6554404,-0.6447841,0.21737656,-0.2626986,0.6327008,-0.32175535,0.2509507,-0.35724947,-0.34095696,0.08994228,0.58161736,-0.7998808,0.009571532,0.17548746,-0.3337416,0.22985716,0.9685087,-0.7749463,-0.1032932,0.5627275,0.47377276,-0.10489783,0.15952232,0.9040038,0.6867669,0.35356364,0.44378054,-0.5777955,0.5233545,-0.33967656,0.70360184,0.4887685,-0.998866,0.47815433,0.08295061,0.44771162,0.19651105,-0.57444495,0.23297909,-0.42649132,-0.44147703,0.023384457,0.034662526,-0.9395152,-0.4144598,-0.15109625,0.1475231,-0.2581834,0.14349343,-0.5031981,0.745373,-0.6897457,0.20108397,-0.2855078,-0.91968936,-0.45294696,0.8589526,-0.11485692,-0.1428294,0.26041326,0.87433,0.75125724,0.34735334,-0.8407082,0.8574893,-0.037880488,-0.41666305,-0.28638926,0.46559352,0.9202139,-0.7212519,0.57440025,-0.38010657,-0.60290563,0.5987196,-0.65987474,-0.04789014,0.8003336,-0.454092,0.16699123,0.29738763,0.062228717,0.5865016,-0.24755365,-0.39094007,0.062566,0.4588271,0.2769522,0.5987318,0.14931421,-0.49985725,-0.6905057,-0.46502274,0.0041043772,-0.49501437,0.5576947,-0.86253065,-0.024483088,0.36653402,0.29549357,-0.46614012,0.36029917,0.24452783,-0.8481696,-0.38416603,0.73563987,-0.2050192,-0.71957105,-0.58251274,-0.24543881,0.18111129,-0.6682155,-0.12795869,0.5696943,-0.82024,0.2521092,0.32154077,-0.5366998,-0.6170658,-0.3715864,-0.20195448,0.24187614,