{"SupervisedType":0,"MultiLayerPerceptronWrap":{"LayerWraps":[{"LayerType":5,"Dense":null,"Dropout":null,"Flatten":null,"Lstm":null,"MaxPool":null,"Conv":{"Shape":{"Height":30,"Width":30,"Depth":1},"Kernel":{"Count":16,"Dim":3},"Activation":1,"Stride":1,"Filters":[{"ElementsOneD":null,"ElementsTwoD":null,"ElementsThreeD":[[[0.037389047],[-0.02564893],[-0.026042433]],[[0.0026174036],[0.026082966],[-0.012156054]],[[0.016286379],[-0.00912566],[-0.021340182]]],"_shape":{"Height":3,"Width":3,"Depth":1},"Shape":{"Height":3,"Width":3,"Depth":1}},{"ElementsOneD":null,"ElementsTwoD":null,"ElementsThreeD":[[[-0.039065093],[0.018314589],[0.015121773]],[[-0.0149623],[-0.023633227],[-0.032577496]],[[0.031622045],[-0.009816381],[0.03856197]]],"_shape":{"Height":3,"Width":3,"Depth":1},"Shape":{"Height":3,"Width":3,"Depth":1}},{"ElementsOneD":null,"ElementsTwoD":null,"ElementsThreeD":[[[0.011184849],[0.032874595],[0.006900176]],[[-0.0070727463],[-0.033363495],[-0.036501497]],[[-0.0045840982],[-0.03411904],[-0.0034772838]]],"_shape":{"Height":3,"Width":3,"Depth":1},"Shape":{"Height":3,"Width":3,"Depth":1}},{"ElementsOneD":null,"ElementsTwoD":null,"ElementsThreeD":[[[-0.030705646],[0.016992822],[-0.009503055]],[[0.0010591613],[-0.0054653],[0.0052211178]],[[-0.011234213],[0.029336931],[0.019835822]]],"_shape":{"Height":3,"Width":3,"Depth":1},"Shape":{"Height":3,"Width":3,"Depth":1}},{"ElementsOneD":null,"ElementsTwoD":null,"ElementsThreeD":[[[-0.020300046],[0.0048130034],[0.024233123]],[[0.030690324],[0.037101146],[-0.02899185]],[[0.008748521],[0.014371915],[-0.0035642777]]],"_shape":{"Height":3,"Width":3,"Depth":1},"Shape":{"Height":3,"Width":3,"Depth":1}},{"ElementsOneD":null,"ElementsTwoD":null,"ElementsThreeD":[[[-0.030947486],[0.03201229],[0.020441951]],[[0.01784891],[-0.0032866802],[-0.01733399]],[[0.0011253171],[-0.029743556],[0.03262487]]],"_shape":{"Height":3,"Width":3,"Depth":1},"Shape":{"Height":3,"Width":3,"Depth":1}},{"ElementsOneD":null,"ElementsTwoD":null,"ElementsThreeD":[[[0.03499811],[0.010549054],[0.0029629497]],[[0.0028371664],[-0.014668082],[-0.030963456]],[[0.026739996],[0.00074695935],[0.019562177]]],"_shape":{"Height":3,"Width":3,"Depth":1},"Shape":{"Height":3,"Width":3,"Depth":1}},{"ElementsOneD":null,"ElementsTwoD":null,"ElementsThreeD":[[[0.019768389],[0.014752079],[0.02933563]],[[-0.020050503],[0.02493093],[0.03638579]],[[-0.031122908],[-0.013424525],[0.028196996]]],"_shape":{"Height":3,"Width":3,"Depth":1},"Shape":{"Height":3,"Width":3,"Depth":1}},{"ElementsOneD":null,"ElementsTwoD":null,"ElementsThreeD":[[[-0.039499905],[0.0028224215],[0.020707294]],[[0.0024529258],[0.03173985],[0.0047761397]],[[-0.033000287],[0.0048807925],[0.017222252]]],"_shape":{"Height":3,"Width":3,"Depth":1},"Shape":{"Height":3,"Width":3,"Depth":1}},{"ElementsOneD":null,"ElementsTwoD":null,"ElementsThreeD":[[[0.0085747065],[0.024931798],[0.022651743]],[[-0.033166904],[-0.010992456],[-0.030770056]],[[0.030450363],[-0.024633195],[-0.013417299]]],"_shape":{"Height":3,"Width":3,"Depth":1},"Shape":{"Height":3,"Width":3,"Depth":1}},{"ElementsOneD":null,"ElementsTwoD":null,"ElementsThreeD":[[[0.020856552],[0.006069899],[-0.003634194]],[[-0.0092994785],[0.010645574],[0.00039419264]],[[-0.007780416],[0.019984191],[0.011806425]]],"_shape":{"Height":3,"Width":3,"Depth":1},"Shape":{"Height":3,"Width":3,"Depth":1}},{"ElementsOneD":null,"ElementsTwoD":null,"ElementsThreeD":[[[-0.008039093],[0.040660173],[0.021080678]],[[-0.005641454],[-0.009334736],[-0.030776013]],[[-0.008533903],[0.0077887783],[0.019972097]]],"_shape":{"Height":3,"Width":3,"Depth":1},"Shape":{"Height":3,"Width":3,"Depth":1}},{"ElementsOneD":null,"ElementsTwoD":null,"ElementsThreeD":[[[-0.0018423409],[-0.016128553],[0.00842813]],[[0.011043384],[0.019209445],[0.022565726]],[[-0.032318357],[0.02292352],[-0.03072692]]],"_shape":{"Height":3,"Width":3,"Depth":1},"Shape":{"Height":3,"Width":3,"Depth":1}},{"ElementsOneD":null,"ElementsTwoD":null,"ElementsThreeD":[[[-0.013170093],[0.0069361427],[0.0026667784]],[[0.038381923],[-0.028611962],[-0.004933021]],[[-0.01137642],[0.018918023],[-0.004188638]]],"_shape":{"Height":3,"Width":3,"Depth":1},"Shape":{"Height":3,"Width":3,"Depth":1}},{"ElementsOneD":null,"ElementsTwoD":null,"ElementsThreeD":[[[0.015230205],[-0.019090757],[-0.006991226]],[[0.015203735],[0.02901106],[-0.011844211]],[[-0.008625684],[-0.01938701],[-0.017064346]]],"_shape":{"Height":3,"Width":3,"Depth":1},"Shape":{"Height":3,"Width":3,"Depth":1}},{"ElementsOneD":null,"ElementsTwoD":null,"ElementsThreeD":[[[-0.012758088],[0.011196381],[0.00019731768]],[[-0.01917423],[0.02779425],[-0.009065758]],[[0.0019269745],[0.025514856],[-0.0112299835]]],"_shape":{"Height":3,"Width":3,"Depth":1},"Shape":{"Height":3,"Width":3,"Depth":1}}],"FilterGradients":[{"ElementsOneD":null,"ElementsTwoD":null,"ElementsThreeD":[[[0.0],[0.0],[0.0]],[[0.0],[0.0],[0.0]],[[0.0],[0.0],[0.0]]],"_shape":{"Height":3,"Width":3,"Depth":1},"Shape":{"Height":3,"Width":3,"Depth":1}},{"ElementsOneD":null,"ElementsTwoD":null,"ElementsThreeD":[[[0.0],[0.0],[0.0]],[[0.0],[0.0],[0.0]],[[0.0],[0.0],[0.0]]],"_shape":{"Height":3,"Width":3,"Depth":1},"Shape":{"Height":3,"Width":3,"Depth":1}},{"ElementsOneD":null,"ElementsTwoD":null,"ElementsThreeD":[[[0.0],[0.0],[0.0]],[[0.0],[0.0],[0.0]],[[0.0],[0.0],[0.0]]],"_shape":{"Height":3,"Width":3,"Depth":1},"Shape":{"Height":3,"Width":3,"Depth":1}},{"ElementsOneD":null,"ElementsTwoD":null,"ElementsThreeD":[[[0.0],[0.0],[0.0]],[[0.0],[0.0],[0.0]],[[0.0],[0.0],[0.0]]],"_shape":{"Height":3,"Width":3,"Depth":1},"Shape":{"Height":3,"Width":3,"Depth":1}},{"ElementsOneD":null,"ElementsTwoD":null,"ElementsThreeD":[[[0.0],[0.0],[0.0]],[[0.0],[0.0],[0.0]],[[0.0],[0.0],[0.0]]],"_shape":{"Height":3,"Width":3,"Depth":1},"Shape":{"Height":3,"Width":3,"Depth":1}},{"ElementsOneD":null,"ElementsTwoD":null,"ElementsThreeD":[[[0.0],[0.0],[0.0]],[[0.0],[0.0],[0.0]],[[0.0],[0.0],[0.0]]],"_shape":{"Height":3,"Width":3,"Depth":1},"Shape":{"Height":3,"Width":3,"Depth":1}},{"ElementsOneD":null,"ElementsTwoD":null,"ElementsThreeD":[[[0.0],[0.0],[0.0]],[[0.0],[0.0],[0.0]],[[0.0],[0.0],[0.0]]],"_shape":{"Height":3,"Width":3,"Depth":1},"Shape":{"Height":3,"Width":3,"Depth":1}},{"ElementsOneD":null,"ElementsTwoD":null,"ElementsThreeD":[[[0.0],[0.0],[0.0]],[[0.0],[0.0],[0.0]],[[0.0],[0.0],[0.0]]],"_shape":{"Height":3,"Width":3,"Depth":1},"Shape":{"Height":3,"Width":3,"Depth":1}},{"ElementsOneD":null,"ElementsTwoD":null,"ElementsThreeD":[[[0.0],[0.0],[0.0]],[[0.0],[0.0],[0.0]],[[0.0],[0.0],[0.0]]],"_shape":{"Height":3,"Width":3,"Depth":1},"Shape":{"Height":3,"Width":3,"Depth":1}},{"ElementsOneD":null,"ElementsTwoD":null,"ElementsThreeD":[[[0.0],[0.0],[0.0]],[[0.0],[0.0],[0.0]],[[0.0],[0.0],[0.0]]],"_shape":{"Height":3,"Width":3,"Depth":1},"Shape":{"Height":3,"Width":3,"Depth":1}},{"ElementsOneD":null,"ElementsTwoD":null,"ElementsThreeD":[[[0.0],[0.0],[0.0]],[[0.0],[0.0],[0.0]],[[0.0],[0.0],[0.0]]],"_shape":{"Height":3,"Width":3,"Depth":1},"Shape":{"Height":3,"Width":3,"Depth":1}},{"ElementsOneD":null,"ElementsTwoD":null,"ElementsThreeD":[[[0.0],[0.0],[0.0]],[[0.0],[0.0],[0.0]],[[0.0],[0.0],[0.0]]],"_shape":{"Height":3,"Width":3,"Depth":1},"Shape":{"Height":3,"Width":3,"Depth":1}},{"ElementsOneD":null,"ElementsTwoD":null,"ElementsThreeD":[[[0.0],[0.0],[0.0]],[[0.0],[0.0],[0.0]],[[0.0],[0.0],[0.0]]],"_shape":{"Height":3,"Width":3,"Depth":1},"Shape":{"Height":3,"Width":3,"Depth":1}},{"ElementsOneD":null,"ElementsTwoD":null,"ElementsThreeD":[[[0.0],[0.0],[0.0]],[[0.0],[0.0],[0.0]],[[0.0],[0.0],[0.0]]],"_shape":{"Height":3,"Width":3,"Depth":1},"Shape":{"Height":3,"Width":3,"Depth":1}},{"ElementsOneD":null,"ElementsTwoD":null,"ElementsThreeD":[[[0.0],[0.0],[0.0]],[[0.0],[0.0],[0.0]],[[0.0],[0.0],[0.0]]],"_shape":{"Height":3,"Width":3,"Depth":1},"Shape":{"Height":3,"Width":3,"Depth":1}},{"ElementsOneD":null,"ElementsTwoD":null,"ElementsThreeD":[[[0.0],[0.0],[0.0]],[[0.0],[0.0],[0.0]],[[0.0],[0.0],[0.0]]],"_shape":{"Height":3,"Width":3,"Depth":1},"Shape":{"Height":3,"Width":3,"Depth":1}}],"Bias":{"ElementsOneD":[0.0012904702,0.0012904701,-0.0012904702,0.0012904704,0.0012904704,-0.0012904704,-0.0012904701,-0.0012904702,0.0012904702,0.0012904702,-0.0012904704,-0.0012904702,-0.0012904704,0.0012904702,0.0012904702,0.0012904702],"ElementsTwoD":null,"ElementsThreeD":null,"_shape":{"Height":16,"Width":0,"Depth":0},"Shape":{"Height":16,"Width":0,"Depth":0}},"BiasGradients":{"ElementsOneD":[0.0,0.0,0.0,0.0,0.0,0.0,0.0,0.0,0.0,0.0,0.0,0.0,0.0,0.0,0.0,0.0],"ElementsTwoD":null,"ElementsThreeD":null,"_shape":{"Height":16,"Width":0,"Depth":0},"Shape":{"Height":16,"Width":0,"Depth":0}}}},{"LayerType":4,"Dense":null,"Dropout":null,"Flatten":null,"Lstm":null,"MaxPool":{"Shape":{"Height":30,"Width":30,"Depth":16},"Kernel":{"Count":16,"Dim":3},"Stride":2},"Conv":null},{"LayerType":2,"Dense":null,"Dropout":null,"Flatten":{"Shape":{"Height":14,"Width":14,"Depth":16}},"Lstm":null,"MaxPool":null,"Conv":null},{"LayerType":0,"Dense":{"Activation":0,"Shape":{"Height":3136,"Width":64,"Depth":0},"Weights":{"ElementsOneD":null,"ElementsTwoD":[[0.3185575,0.9457618,0.61868113,0.5355936,-0.95953596,0.27637815,0.57126576,-0.76951134,-0.13283451,0.06598804,0.022299496,0.93554056,0.17209245,-0.8214875,0.30738348,0.72145706,0.46146297,-0.8280976,0.79629916,0.157437,-0.58942324,0.7917627,-0.3524073,0.20296769,0.3828955,0.8112866,0.4372885,-0.42652678,-0.6134762,-0.79885095,0.37129444,0.014751602,-0.20581584,-0.6788196,-0.8535417,0.22708371,0.07673279,0.8555807,0.7963323,0.076872386,0.14378636,-0.9170688,-0.5099656,-0.27174252,-0.118616164,-0.23551556,-0.047968544,0.3310583,0.6742567,0.090602964,0.6581262,0.843506,-0.019860169,-0.7738247,0.84999394,-0.1051183,-0.7077135,0.9596415,0.32138824,-0.46688777,0.17696156,0.29897925,0.27847952,0.34163967,-0.40357122,-0.50025934,0.9273328,-0.22989304,0.80544615,0.80983937,0.5264071,-0.5933868,-0.96843314,-0.35082355,-0.4938552,-0.1628311,-0.20472352,0.9640626,0.4566562,-0.38531324,-0.19430041,0.8218138,0.035070837,-0.12523742,0.34703335,0.42097983,0.67973983,0.13216385,-0.7642857,-0.15425341,-0.42421976,-0.40747282,0.98000497,0.2425234,0.4405124,0.3503811,-0.8106445,-0.37831438,-0.33039224,-0.0013151357,0.63771176,0.978317,0.94018674,-0.8722799,0.12823659,0.54672885,0.15877637,0.30460057,0.61633176,-0.35418522,-0.86813,-0.13313472,-0.7846859,-0.41776708,0.9742153,0.7232208,-0.30989563,-0.52839684,0.24668129,-0.15848853,0.5710996,0.082342006,-0.48417476,0.7541709,0.44328663,-0.75236297,-0.2589989,-0.27206177,-0.4251412,-0.43586883,0.15016717,-0.4551244,0.85395867,0.49641597,-0.9952457,0.39866772,0.11645261,-0.4649521,-0.68141806,-0.51345325,-0.8359518,-0.97720796,0.46268958,0.60368764,-0.2177466,0.58418965,0.5463752,0.7711406,-0.8792447,-0.5947006,0.13417797,0.93983704,-0.2642335,0.5771137,-0.2936059,-0.016468883,-0.4600374,-0.31128743,0.4296916,-0.9465857,0.1809081,-0.08266007,-0.031365275,0.598276,-0.42939648,0.8442496,-0.16445012,-0.9024071,-0.9577166,-0.6708525,0.6657128,-0.04307604,0.6793922,0.3541076,-0.17052564,0.6246883,0.36570394,0.30911756,-0.455922,0.15853968,-0.11680778,0.8394593,-0.5009194,0.08567277,0.87267315,-0.45820257,-0.9158111,0.08826852,-0.36121297,0.6547957,-0.5287309,0.6661429,-0.2373542,0.1871735,0.95956165,-0.5321188,0.29291776,-0.22520298,0.68204004,-0.4370092,0.2885281,-0.6751717,-0.010374816,-0.06736648,-0.30994785,-0.24038425,0.6834964,0.31426564,0.14861764,0.51901674,0.37894243,-0.05219332,-0.14852042,0.15087414,0.46545616,0.26554194,-0.39413884,0.35479316,0.05287072,-0.2544312,0.4628172,0.6128009,-0.9934797,-0.8287536,0.72140634,0.5573424,0.56016475,0.36666083,-0.592995,-0.96250445,-0.39207157,0.40084186,0.41074362,-0.7392779,0.97947377,-0.09650487,-0.33807105,-0.49344012,-0.27355498,-0.29897895,0.46385384,-0.40011382,0.76721483,-0.3798877,-0.29830435,-0.67119163,-0.9156103,-0.44418603,-0.8482808,-0.3193092,0.52422106,0.20025834,-0.8737521,0.5485738,0.58300763,-0.60611063,0.058206566,-0.13634971,-0.12320179,0.23070723,-0.29891968,-0.08722994,0.5009059,-0.4063605,0.6897835,0.9832577,0.5329419,0.06421024,0.7507478,0.21881114,0.6604546,0.11325229,-0.040869527,-0.36230353,0.37164813,-0.4218754,-0.21795055,-0.060756244,0.6684316,-0.96706045,0.3280373,-0.24781048,0.1702007,0.799647,0.01366896,-0.086620666,-0.85284644,-0.307385,-0.8942821,0.43645594,0.050898742,-0.9888749,-0.6845245,-0.3467331,-0.10543953,-0.7523141,0.108362235,-0.7712719,-0.04581765,-0.075429894,-0.12634285,0.7601062,0.30994487,-0.8749478,0.23281214,-0.21732734,0.8104479,-0.4460841,-0.15570895,-0.6832795,0.49994585,-0.01466655,0.8987587,-0.3218456,-0.45950702,-0.24873781,-0.18967143,0.8864478,-0.82313985,-0.5901716,-0.021843895,0.06685611,0.9894524,-0.21992126,0.9492576,-0.79465246,-0.5618793,0.8689467,-0.99469143,-0.43338495,-0.5538534,0.27455536,-0.49130893,-0.09957015,-0.37195387,0.6786859,0.18643138,0.16100283,-0.76377285,-0.13314432,0.6314285,0.7195275,-0.47498065,-0.29549646,-0.5821211,-0.36776495,-0.3462443,0.36450514,-0.82451516,0.6229881,-0.56460226,-0.2621836,-0.9024856,-0.20980346,0.08188671,-0.57780737,-1.002425,0.69032264,0.7538171,0.3778779,-0.6485223,0.23766948,0.08195533,-0.08297196,0.23329738,-0.90035206,0.12915196,-0.22582036,0.022148106,0.7352495,-0.80035764,0.5402586,0.22575322,-0.62677455,0.917298,0.23602729,0.04393901,0.14305831,-0.065400556,0.41340494,0.7814865,-0.5145342,0.29074785,0.6386216,-0.42274627,0.65671396,0.3754534,0.107273765,-0.04419313,0.3167598,0.6146184,-0.4316628,-0.95852023,0.85925263,0.85664976,-0.105982825,0.5087352,-0.34933195,0.91693676,-0.21998595,0.26889652,-0.69597113,0.26635665,0.13386413,0.5660122,0.35014164,-0.23616081,0.99092823,-0.23759952,-0.4248592,-0.6461204,-0.9328699,-0.7703639,-0.76130086,-0.6960836,-0.35702845,-0.06241978,-0.99245745,0.6919294,-0.7334969,-0.81854105,0.6164186,0.22254115,0.7549663,-0.61011994,0.9750838,-0.1744797,0.82968605,0.89393854,0.1382967,0.44531614,0.11715824,0.27407146,0.34598112,0.038567603,0.5201112,0.23150365,0.7311945,-0.5383534,0.7458572,0.19166474,-0.92690796,0.38578877,0.2531439,-0.25594026,0.8358452,-0.23020121,-0.6451536,-0.6167133,0.17127039,0.8785283,0.8384739,-0.8167592,0.8436668,0.7479895,-0.10438689,-0.35420683,0.92262477,-0.45964625,-0.3953899,-0.988083,0.2841545,-0.6587883,0.23474675,0.46909666,0.9828554,0.5775756,0.4351629,-0.5275536,0.74088585,0.16539744,0.17634751,0.947638,0.6793147,-0.75732565,-0.80092704,0.6063582,-0.1092893,0.82192856,0.9857885,0.7604903,0.04928335,0.08567899,-0.65142745,0.64364797,0.037549354,0.5377177,-0.65977573,0.3183765,0.5637053,0.016512826,-0.3364479,0.27817497,-0.69584024,-0.85947555,0.8573404,-0.14036271,-0.4206746,-0.6875273,0.4811769,0.99713314,-0.87215525,-0.36998025,0.61559093,0.5731552,0.2988571,-0.39154857,0.58865064,-0.318387,-0.42825654,0.94870967,-0.8491984,-0.13684544,0.76515335,0.27820054,0.7992669,0.4374046,0.3875323,-0.42606413,0.6400547,0.42872387,-0.76210594,0.8077235,-0.10585819,-0.91480875,0.45864075,-0.22985636,0.148738,-0.39997825,-0.63382787,0.43417773,-0.006992276,0.21797135,-0.5813972,0.88392925,0.46044326,0.73935825,-0.15675054,-0.7326756,0.7070916,0.24761154,-0.61181206,-0.13933937,-0.39292088,-0.29886022,0.17861864,0.8645939,0.97800356,0.14534763,-0.31048298,0.6723739,-0.053694654,-0.68202,-0.66064197,0.117586575,0.031554468,0.8376098,-0.38215837,0.23533505,-0.5112046,-0.356714,0.1783937,0.49519473,0.41456953,0.9225284,-0.44634494,-0.1838402,0.8426132,-0.40884125,0.49459952,0.15402134,0.567425,0.8045418,-0.4846229,0.40979668,-0.27233768,-0.8617163,0.7867601,0.5041074,0.72482014,-0.19063756,-0.7922283,0.9545765,-0.5172617,0.028360488,-0.8439544,-0.57802176,-0.13816042,0.6923314,-0.9262608,0.81504834,0.12408405,0.07225016,0.42869323,-0.051753066,0.36869854,-0.3945747,0.20699504,-0.06313964,-0.17151345,0.06982184,0.99413806,-0.8237122,-0.6334787,-0.8702002,0.8736323,0.7802764,0.39429647,0.81427884,-0.77479,-0.9699339,0.27250448,-0.8635576,-0.32555062,0.21487372,-0.41693303,0.66276544,0.87806046,-0.29709962,0.6447249,-0.25206935,-0.3168474,0.082559146,0.10242643,-0.20554772,-0.4783789,-0.42688867,0.2527377,0.18923298,0.8392837,0.033005256,-0.84227353,-0.06631353,0.876572,0.9491687,-0.07869396,0.39389196,0.44519556,0.7111389,-0.16640875,-0.1500365,0.039669696,0.0055538993,0.9529646,0.9364236,0.851176,0.26943165,-0.5529458,0.3453112,-0.21646734,-0.8094568,0.9627662,-0.7476405,0.6254636,-0.9360578,0.016667476,0.1771517,-0.49148643,-0.7500561,-0.5409754,-0.56827813,0.57797325,-0.5455122,0.27610984,-0.17734917,-0.09355541,0.07401559,-0.6859368,-0.99102426,0.30169222,-0.71982545,0.46790543,-0.5901042,0.21013881,0.450509,0.7665458,0.6341192,0.61170244,-0.9751631,0.4319382,0.29241553,0.47735056,-0.35598102,0.8250848,-0.3578949,0.7254222,-0.5260052,0.040067483,-0.931932,0.14776684,0.8160841,-0.8599669,-0.6954284,-0.33303258,0.95711666,-0.6902997,-0.20911951,-0.44689652,0.93129134,0.41682515,-0.9066117,-0.5834482,0.20855102,0.18451005,-0.21873307,-0.07840224,-0.075726114,0.845313,0.052055247,0.5669668,0.18080582,-0.009428037,-0.8510976,0.18306874,-0.9164387,0.010553921,0.73957926,-0.035008956,-0.40029353,-0.2695027,-0.57920945,0.29635715,0.42761782,-0.9541688,-0.44331056,0.74264944,0.793249,0.97314715,-0.662787,-0.5899288,-0.84763074,0.02985268,0.26402146,-0.23353074,0.7583703,0.3981511,-0.21493557,0.92096066,0.3971099,-0.16254678,0.30647597,0.97408116,0.66956425,0.88844454,0.07730367,0.89184594,-0.14785565,-0.60995984,0.6607185,-0.9034706,0.5256175,-0.6349933,-0.28978765,0.7458943,-0.5276486,0.5321655,-0.0033347928,0.15133314,0.90714884,0.81070554,-0.83776987,-0.524878,-0.043648925,0.1422923,-0.75498074,-0.4334535,-0.5162296,-0.31145424,-0.5376796,-0.29733178,0.13103405,0.971732,-0.30875427,-0.19806316,-0.6642065,0.2686345,-0.32750762,-0.6066567,0.27623096,-0.094712056,0.82411546,-0.9134565,-0.7526767,0.2424163,-0.35232505,-0.43154204,0.54100245,-0.50869906,0.008130748,0.10408124,-0.16089353,0.7444711,-0.9221252,-0.46588746,-0.22544293,-0.041746374,0.34498674,-0.23987278,-0.9901033,0.75373167,-0.5612401,-0.95515597,-0.8716108,0.14021891,-0.93279666,0.42594865,0.3225685,-0.16550072,0.43888536,-0.6192312,-0.5322404,-0.013911576,0.08141029,0.07725056,-0.9492842,-0.5688617,-0.4564507,0.39161116,-0.20921747,0.706234,-0.02400024,-0.52456844,-0.11445327,0.6421641,-0.6451858,0.33739734,-0.47379088,0.48626047,0.36316147,-0.47718278,0.92891276,-0.67268735,0.22142594,0.881387,-0.798925,0.22780155,0.5215615,0.64891565,0.92359495,-0.8893625,0.124762885,-0.48482656,0.272767,1.003024,-0.2055977,-0.9468322,0.7215123,0.92097527,0.1327981,0.24891724,-0.11170694,0.2988059,-0.18729998,-0.854563,0.8802129,0.3398087,0.9043664,0.60001886,0.71948653,-0.49803346,0.3853735,-0.89796555,0.2735913,-0.7565622,-0.5333684,-0.7634147,-0.08867467,-0.2521989,0.082871504,0.7970078,0.88785344,-0.20267588,0.60289514,0.043579724,0.033515837,-0.6209215,-0.9639792,0.655084,-0.5883565,0.13620126,-0.3594712,-0.35399568,-0.23815048,0.90241337,0.05924455,0.70552385,-0.2830067,0.9769029,0.75281405,0.7808247,0.8206946,0.08853376,-0.91004777,-0.27471897,-0.38252616,0.3993415,0.5611794,-0.3127132,0.6893124,0.43417305,-0.65951985,0.9101854,-0.3781036,0.69401795,0.83241355,0.07279763,-0.9322877,0.5085404,-0.81866455,0.38401958,-0.3116436,-0.114327624,-0.5822989,0.709488,-0.6228633,0.28947514,0.17666596,-0.30803224,-0.66116303,0.8394968,0.6325992,-0.6848257,-0.35585186,-0.99845964,0.3228854,-0.008839633,-0.18872097,0.32338232,-0.244315,0.26355717,0.91979915,-0.68312883,0.87825924,0.8111769,0.5422657,-0.8313409,-0.08599483,-0.8613071,-0.748797,0.039323267,-0.18947424,0.7449825,-0.6371155,0.0064287987,0.18341301,-0.06961256,-0.83714896,-0.06248148,0.33603644,0.92105734,0.33561325,0.5928451,0.2863513,-0.5305478,-0.32907277,-0.1432451,0.43512413,-0.6178759,-0.15038614,-0.48642206,0.95406294,0.82195985,-0.14396942,0.8051964,-0.023700008,-0.9876037,0.41495597,0.14952604,0.9975799,0.6388627,-0.41478002,-0.5609968,0.743257,-0.38585773,-0.13644792,0.07170743,-0.4323896,0.972317,-0.63983965,0.6589419,0.25034967,-0.38915867,-0.2571708,-0.76638114,-0.042538866,0.9023443,-0.59122884,0.2636125,-0.5278864,0.6605216,0.61889565,-0.4961157,-0.07587839,0.20882614,-0.04825821,-0.2643552,-0.11150916,0.49866664,0.5428715,-0.11613701,0.2510844,0.94601774,0.286899,0.59130937,0.9644636,-0.10298671,-0.51414764,0.1173752,-0.39032605,0.39418063,-0.4746719,0.8284601,0.9842651,-0.10768011,0.44049844,-0.63913566,-0.27266565,0.7610766,0.9085363,0.9878637,0.7880607,0.21819863,0.82752967,-0.1455821,0.23334296,-0.72606164,-0.81242275,0.7876631,-0.9164997,0.04901031,0.38037837,0.71093035,-0.83057976,0.34200075,0.23744284,0.50345385,0.08513447,0.82203436,-0.6793135,0.08849635,0.5903971,0.37444293,-0.26923046,-0.8859498,0.069032714,0.43357712,0.9801607,0.42145914,-0.034698714,0.009056388,-0.037344716,-0.9132894,-0.6404446,0.8182985,-0.66657686,0.19080919,-0.6861962,0.9311061,-0.6105471,0.95581126,-0.007039625,-0.25390464,-0.78335434,-0.61345667,-0.45587555,0.670855,0.6387718,-0.097292274,0.8483935,0.0063692154,0.9511925,0.03709005,-0.6038853,-0.017388381,0.19769955,0.1562523,-0.15907678,-0.80499935,-0.23084481,0.79676807,-0.0850872,0.21353745,0.4532961,0.6353288,-0.52763486,-0.31399632,-0.35942158,0.84014577,-0.6633638,-0.23185998,-0.6505363,0.43598995,-0.7734942,0.083415054,-0.55247444,0.49933603,0.924734,0.70739174,-0.4881061,0.57757187,0.84788024,-0.7925021,0.42557478,0.98042965,0.48433268,-0.35662526,0.48338324,0.5891794,-0.66901416,0.7420311,-0.5684959,-0.7041896,-0.76477194,-0.177569,0.057954878,0.2800374,0.86048555,0.6065003,0.8883843,-0.31332287,0.67501056,0.4693231,0.52625793,-0.051091284,-0.65244645,0.7641617,0.34868255,0.31667736,-0.5986935,0.36600468,0.2513592,-0.90263546,-0.7785827,0.3500329,-0.96773905,0.8431248,0.020951087,-0.7950354,-0.8857581,0.36444086,-0.510596,-0.14217474,0.5041532,0.2565199,0.66947514,0.6130694,-0.124531075,0.76444554,-0.87902004,-0.57279354,-0.30469796,-0.44600937,-0.19233695,0.8410615,-0.7682915,0.9391923,0.6550316,0.3067881,0.6747282,-0.15055837,0.673603,0.37416136,0.026931744,-0.6297506,0.5724544,-0.5452183,-0.79571664,-0.799612,0.54230803,-0.63330597,0.77458286,-0.75603133,-0.3508013,-0.97195417,-0.6043078,-0.24959022,-0.91321635,0.74300086,-0.595456,-0.66431904,0.85043555,-0.98551357,0.7699939,-0.43409815,0.05318836,-0.07030607,-0.83781,-0.32800373,0.19323842,-0.008683995,0.8723949,-0.47840053,0.40313986,-0.24127616,-0.5477081,0.9239737,-0.5854052,0.3954054,-0.44256195,0.664169,-0.46314365,-0.9635402,0.16434641,0.8276702,0.3605805,0.17149378,0.39794976,0.3073144,-0.16632444,-0.3755244,-0.7112002,-0.5005572,0.3867584,0.8823935,-0.5799509,-0.16148129,0.07183316,0.84227264,0.96286136,0.43232146,0.5640638,0.82838035,-0.68219626,-0.30873612,0.035133008,-0.09522281,0.032058287,0.215547,0.17571588,-0.29703727,-0.16928013,-0.68311536,0.23275252,-0.8199853,-0.90153015,0.77840626,-0.7660249,-0.75814426,0.8295319,-0.11779685,-0.6753091,-0.29307637,0.08652102,0.3700958,-0.022496596,0.71868503,-0.30089942,-0.16629158,-0.860381,-0.66078293,0.14369452,-0.23836806,0.4377104,-0.464382,0.45425424,-0.9140699,0.6043585,-0.96742123,0.27134597,0.0946584,0.91753745,-0.61629605,-0.49062124,0.9334553,0.5047964,0.18571588,-0.25703093,0.39096704,0.8129102,0.6017237,-0.8616344,0.5566832,0.24460495,-0.42396975,0.7252027,0.78811514,-0.6006204,0.25037706,0.7252148,-0.00656453,-0.75920916,-0.46616542,-0.4419284,0.5862325,-0.35649124,-0.063290276,0.91682696,-0.17097463,-0.70053935,0.00778151,0.20492665,-0.51786244,0.7364821,0.4892515,-0.71797353,0.54638416,0.73682857,-0.55493736,-0.16444209,0.41898668,0.36208373,0.4750152,-0.17398556,-0.7859156,0.6766949,-0.33221522,-0.9784572,0.9631673,1.0000098,-0.77102965,-0.08745457,0.73451,-0.9763347,0.017353473,-0.8429399,-0.74626637,-0.43961,0.20047918,-0.046933524,0.37666637,-0.69502676,0.8152317,-0.03349701,-0.29279283,0.7583647,-0.72929204,-0.32991225,-0.93107927,0.7993728,0.9017706,-0.04822904,0.005974075,-0.12731923,0.92612004,-0.7226346,0.26765195,-0.21216144,-0.093286596,-0.60840946,0.9351629,0.24334611,-0.66467893,0.8483612,0.866319,-0.6066041,0.6756572,-0.29560858,-0.47259784,0.91598225,-0.9627503,-0.37404844,-0.49284008,0.6224767,0.8019882,-0.83456236,0.12119878,0.48575312,-0.67103845,-0.85750747,0.7464207,-0.5533291,-0.7461305,0.35726413,-0.5079712,0.25476483,-0.26449272,0.87801796,-0.65991,-0.32989,0.95868576,0.3301655,-0.71526647,-0.5528106,-0.80356,0.35968748,0.5066627,0.25110048,-0.0678133,0.7918775,0.40672794,0.25485468,-0.33632708,0.4384744,0.77508557,-0.5937447,-0.26007575,-0.7304254,0.6242685,0.5296731,-0.30074668,-0.9221068,0.97502136,-0.34190062,-0.3329193,0.36758763,-0.6547767,0.38459438,0.8724688,0.12575667,0.7716974,-0.56194985,-0.16440307,0.5422517,-0.3562107,0.68068594,0.4973176,0.76578146,-0.33502024,-0.24768728,-0.6989333,-0.32858387,-0.95442164,0.3396657,0.028032582,-0.38591146,-0.4761014,0.8030701,0.8973595,0.48756915,-0.33012047,-0.75448817,-0.87079704,0.07286709,0.30616358,-0.7279358,0.19517103,0.5288129,0.3570512,-0.8253273,-0.3712426,-0.645779,0.81866693,0.70688635,0.97565,0.80296034,-0.5193745,-0.42905962,-0.95642513,-0.7116085,-0.36903852,-0.43327534,0.5272766,0.9836985,-0.74315315,0.8649067,-0.85179806,0.61606807,-0.5062337,-0.8375032,0.19322169,-0.96036524,0.6540036,-0.5619126,-0.41039404,-0.8065677,0.5316378,0.33833796,-0.78597605,0.60503167,0.069579355,-0.6990094,-0.564425,0.9320124,-0.46896365,0.70652956,0.2189992,-0.954402,0.4920054,0.5048675,0.5831565,-0.23651992,0.07704855,-0.43323886,-0.5983705,-0.5241531,0.14206447,-0.6831163,0.39782023,0.24151477,-0.86997986,0.24541174,0.011459201,0.5053102,-0.8687185,0.67791355,-0.85189223,-0.22394238,0.9075466,-0.09507192,-0.8394351,-0.0735238,-0.7566982,0.6072589,0.15019286,0.7058457,-0.9453977,-0.4262853,0.7255235,0.41435325,-0.5087005,0.87142986,-0.4588444,0.14059095,-0.3353274,0.47015762,0.3777681,-0.14934936,0.39897206,-0.08188928,0.9104171,-0.22522755,-0.28891492,-0.7961812,0.2971989,-0.07709202,0.95695496,-0.25226215,-0.5637481,0.50969887,0.6286116,0.40164116,-0.69313353,-0.40712324,0.69543475,0.08637445,0.8216078,0.66059196,-0.67755634,-0.30590546,0.5214461,0.0032034565,0.8992408,0.80820024,-0.73603106,-0.9270294,0.82244205,-0.8571753,0.36031866,-0.13286285,0.81887466,-0.6008282,-0.9776266,0.06783099,0.70946497,0.018197812,0.6765207,0.52816033,0.7170556,0.8894935,-0.083229996,-0.679968,0.67521054,0.47484875,-0.5207824,0.57467455,0.7529589,-0.2357225,0.27294123,0.21956997,-0.22990115,0.86075735,-0.23030803,-0.9322828,-0.64639074,0.6186551,-0.08776614,-0.52647513,-0.13366479,-0.15089355,-0.36343503,-0.18097025,0.7169194,0.049270906,0.8472012,-0.70382684,-0.47001263,0.5371884,0.5154372,-0.9357529,-0.78532714,-0.3509764,-0.8621711,-0.34741193,-0.60195416,0.2876861,0.6539189,-0.96494937,-0.7490461,-0.05812367,0.87439585,-0.4085208,0.11663181,0.16280411,-0.631262,0.7325367,-0.033323403,0.101168275,0.17823885,0.85762256,0.061734125,0.9703866,-0.16110674,-0.106572375,-0.33795092,-0.3139126,0.9058188,-0.56776506,0.6813247,-0.06377547,0.08132422,-0.06625955,-0.67673403,-0.12817137,0.9053324,-0.63830197,0.3091019,0.47007456,0.63127553,0.44548473,-0.4296073,-0.19951518,0.19770078,-0.5448065,0.84230196,-0.70506424,0.3416678,-0.7609643,0.6364827,0.7736406,-0.86663884,0.22652116,-0.78608537,0.3269005,-0.6082874,-0.78976244,0.17395519,0.75837815,-0.9424363,-0.70080554,0.42709947,0.67257506,-0.4746217,0.13919465,0.95991623,-0.85037816,0.35976967,-0.99286324,0.49172986,-0.23732826,-0.6100149,-0.6321456,0.5256179,-0.23648901,0.3071194,0.20848446,-0.5529851,0.22474599,-0.20436504,-0.5362975,0.38078803,0.8268852,-0.52645683,0.23452923,-0.31596577,0.69712865,0.9763329,0.6801999,-0.59813553,0.95531803,-0.5598164,0.64240944,0.35138544,-0.017383214,0.06053766,0.04172572,-0.13761435,0.7378572,0.4354597,0.62332594,-0.29710278,-0.60451,-0.22487429,0.16436683,0.07483901,0.2921727,0.20502822,0.2206183,-0.28422278,0.070928745,0.3089688,-0.5957072,-0.31331524,0.62311625,0.32639733,0.421806,-0.83618146,0.06474091,-0.3877914,-0.38460484,-0.88846767,-0.045291025,-0.1478035,-0.07619572,-0.9092376,-0.0369898,-0.7209015,-0.5741954,0.7929958,0.6328327,0.082686074,0.44200587,0.42033693,0.7834985,-0.6148522,0.16475153,-0.7417684,0.87717545,-0.26469374,0.9477147,0.40407872,0.07954151,0.8344993,-0.63170236,0.059431538,-0.11394501,0.49494767,-0.090656534,0.071393736,-0.3892054,0.02707764,-0.93989605,-0.5515171,0.36958003,-0.62237966,-0.9177824,-0.32125777,0.89820844,-0.49224097,-0.7161381,-0.39406177,-0.25631094,-0.7827648,0.03378403,-0.72552323,0.8656144,0.03718067,0.9208313,-0.15527621,-0.72801703,0.7793114,0.16414034,0.4157414,-0.661277,-0.5115264,0.7332479,0.9132564,-0.5219828,0.922578,-0.6316601,-0.2912581,-0.39008987,-0.9565648,-0.15309651,-0.9878531,0.92299646,-0.62560725,-0.70392376,0.81450194,0.052111667,0.9241728,0.24248347,-0.616746,-0.7212845,0.23718712,-0.024641778,0.33680755,-0.879227,-0.71618986,-0.4843648,-0.38802612,-0.5097074,-0.66760397,-0.5897061,-0.10422083,0.03015248,-0.12386671,-0.9132552,-0.8196273,0.22623946,-0.9897739,0.744126,-0.68125236,0.055251725,0.67271066,0.6888185,0.9642283,0.9669401,-0.7071133,-0.68866175,-0.88447344,-0.7210657,-0.37562594,-0.38128188,0.99162376,-0.8918229,0.688965,0.7545689,0.38829127,-0.7632637,-0.4002793,-0.5369027,0.0972269,-0.21837106,-0.066786565,-0.7365548,-0.42525184,-0.30765584,0.09646294,-0.05007132,0.41964385,-0.33796555,-0.03969851,-0.9582389,0.71969444,0.33754426,0.6048802,-0.62253606,0.24575971,-0.75503427,-0.005043773,0.2571006,-0.8371419,0.83872217,0.0077756983,-0.8776327,0.026461864,0.9479025,-0.8558653,-0.98293936,0.9595528,0.43925846,-0.13016202,-0.7995068,-0.9846354,-0.25403896,0.6298071,0.7633215,0.44708663,0.5538811,0.03356848,-0.75116223,0.2669868,0.09212802,-0.7174984,-0.48366785,0.62932956,-0.841702,0.17475948,-0.99595344,0.5152398,-0.1357481,0.56790054,-0.05334802,0.86334336,-0.8007261,0.38854426,0.014373881,0.46575397,-0.8873918,-0.28287733,0.09262374,-0.7269843,0.95903945,0.13350393,-0.1677578,0.7241212,-0.578745,-0.73105896,-0.76160985,-0.1324131,-0.037112214,-0.97824615,-0.49483237,-0.93320847,0.8290233,0.8746595,-0.07459404,0.9717428,0.15048656,0.4331933,0.14203228,0.29668653,-0.5599941,0.26202524,-0.48192358,-0.6039889,-0.9349447,-0.91318023,0.5053805,-0.18359926,0.39320686,-0.76422936,0.44024655,0.9474202,-0.031898007,0.5913799,0.10308482,0.414559,0.12543394,0.0054840506,0.7204349,-0.42365384,0.9042801,-0.16859442,-0.8120215,-0.5109076,0.26821536,-0.8755666,-0.8782483,0.08956578,0.9368931,-0.104234435,-0.1739713,0.5409263,-0.14786717,0.5793867,-0.35183784,0.71186924,-0.22142664,-0.2754707,0.66445434,0.70750624,0.5937851,-0.5276546,0.8560538,-0.67964065,-0.72334707,0.78935003,-0.5896217,0.05846251,-0.5757492,0.052496176,-0.56743586,-0.958509,-0.3708602,-0.5421147,0.1285628,0.54505265,0.8453873,0.47708037,-0.53256303,0.6969354,0.56956875,-0.34554553,-0.30821684,0.6549004,-0.08990839,-0.2926119,0.23813997,-0.16185647,0.40404597,-0.9394176,-0.6778511,0.28945026,0.119850285,0.77686155,-0.040782575,0.87035155,-0.21976511,0.28903806,-0.9937424,0.47062755,-0.020190228,-0.07516006,0.9678305,-0.21686445,-0.26168373,0.27499855,0.6395699,-0.63080853,0.9620714,-0.4315553,0.20996997,-0.87632614,0.13625969,0.059841644,0.68603957,0.35768965,0.8307504,0.048112366,0.36124837,-0.94959486,-0.22654545,0.6919475,0.58309793,-0.73124695,0.21050845,-0.94350255,0.3865139,0.43206915,0.94170856,0.24492933,0.4586262,0.29789162,0.35839263,0.17315936,0.44442716,-0.9400378,0.5638162,-0.20190099,0.9315197,-0.39527762,0.20985343,0.91782886,0.01433059,-0.21758562,0.49301946,0.847252,-0.07951808,-0.25443876,0.53275734,-0.81455755,0.046697654,-0.30469325,-0.93106794,0.9641083,-0.649123,0.18522894,-0.36665577,0.5719344,-0.60874885,0.22857016,0.19174851,0.4439416,-0.5470061,0.724428,0.9460092,-0.7818149,-0.4190182,0.3828763,-0.08728314,-0.5089748,0.9051708,0.9528532,0.8232306,0.027797086,0.59600955,0.062453933,0.8860031,0.582237,-0.5607567,-0.017478816,0.2826131,0.8072593,0.7170569,-0.32772848,0.44762558,-0.6557194,0.29960907,-0.37808594,0.98352885,-0.83374834,0.7724306,-0.12588875,0.4087406,0.2168549,-0.6160106,0.06670391,0.7242373,-0.4838211,-0.92336726,0.57870924,0.45070827,-0.9262772,-0.24083512,0.9638435,-0.9135799,-0.56860334,-0.53153825,0.83291686,0.9933959,-0.3249761,0.85123193,-0.31569952,0.4335526,0.19693968,0.38445494,0.9641683,-0.60013884,0.059914824,-0.9569454,0.8182954,-0.5232212,-0.8468659,-0.42809382,0.14333627,0.011969964,-0.013408327,0.18078549,0.09475144,0.33656675,0.9348936,0.8451561,-0.09671162,-0.9320184,0.09747651,0.41160208,-0.06141322,-0.9172288,0.61516446,-0.5327468,-0.0034436358,-0.8461405,-0.67015505,0.48090026,0.10477682,0.13597138,0.13661195,-0.6290649,0.1286069,0.908246,-0.14589551,-0.7779916,0.1772541,0.3659707,-0.9548749,-0.05860879,0.6593437,-0.3270699,-0.091712385,0.93716574,-0.34162498,0.77498484,-0.72087616,0.07701349,-0.42995113,-0.20860897,0.5624967,-0.77005374,0.4869343,-0.2037986,-0.5786572,-0.5693675,-0.4145805,-0.3324587,0.580791,-0.8507227,-0.78361505,-0.7085117,-0.7507829,-0.7295116,0.85302985,-0.0024767756,-0.54046273,-0.3473185,0.7604209,-0.3853698,0.60529006,-0.79472184,-0.16131453,-0.48873568,-0.71408165,-0.18323946,-0.37923303,-0.08377215,-0.80164766,-0.29282436,0.9956385,0.30217925,0.43504977,-0.8584663,0.9270159,-0.97309285,-0.5666804,-0.5371787,-0.24024121,0.74342096,0.27416393,-0.58076024,0.7673116,0.046423167,0.37066436,0.20091747,-0.34424523,-0.2644302,0.14925562,-0.9394839,0.8092916,0.552013,-0.37183625,0.5559052,-0.9687273,-0.52287555,-1.0032306,-0.87548006,0.13429964,0.5931529,0.5234374,-0.40225706,-0.5747126,0.69026536,-0.6649501,0.54663986,0.7723801,-0.89398867,-0.10853702,0.37316534,-0.4104156,0.20726468,0.744996,0.24748917,0.71145386,-0.26633525,-0.5599766,-0.5622236,-0.24164014,-0.5767927,0.18113092,0.21479544,0.67161345,0.55790734,-0.49841365,0.844805,0.32197332,0.7819667,0.6930547,0.7219599,-0.942195,0.6834726,-0.74313843,0.78715307,-0.69985896,0.63141024,-0.7719749,0.99728817,0.30678976,0.8783897,-0.011294337,-0.21458986,0.9796811,0.56063044,0.6958221,-0.90574723,0.61343324,-0.6353186,-0.34234756,-0.024178049,0.8434525,0.822844,-0.7961349,-0.94410497,-0.47980368,0.02578855,0.9880877,0.5526456,-0.11935474,0.43355072,-0.46012628,-0.37233695,0.01914933,-0.104702875,-0.2903143,0.9683575,0.73420924,-0.36323586,0.49140868,-0.034132507,-0.05518069,-0.40385732,0.76275337,0.2531523,0.1622323,-0.44408643,-0.28946248,0.6721928,0.56843764,0.082768165,-0.8915613,-0.55643725,0.74970347,-0.5218541,-0.28734988,-0.9545715,-0.6405662,-0.49428877,-0.16959621,-0.6300405,0.6016283,-0.69659,0.5684512,0.9394866,0.8369712,0.99367523,-0.2607151,0.301317,-0.4191388,-0.73044527,-0.23750663,0.0045348234,-0.25970572,0.21017392,-0.84934115,0.5467248,0.0657144,0.56668526,-0.31430286,-0.09478889,-0.63462406,-0.63143134,-0.7774286,-0.20028001,0.10849102,0.04778627,0.6774836,-0.44697767,-0.9374851,0.33507684,-0.48494124,-0.33912537,-0.048417836,0.19112705,0.4119838,-0.49801835,-0.33519712,0.046230387,0.058415126,0.11274727,-0.8879697,-0.6766922,-0.07123064,0.9293115,0.2851284,0.27826944,0.010142816,-0.8034525,-0.58031386,-0.48141465,0.73667884,0.16911495,-0.98404586,0.907938,-0.14802216,-0.5329944,0.4311299,-0.35622025,0.77537566,0.6037861,-0.10468088,0.7922676,0.84886086,-0.808526,0.15381111,0.39482307,0.47049284,-0.50084454,0.039688032,0.07879524,0.58227193,-0.015904645,0.44980863,0.73685306,0.040653147,-0.97246426,-0.03832235,-0.41573134,0.3264087,0.5390327,-0.4677247,0.17475432,-0.4291378,-0.82830566,-0.74583066,0.07062684,-0.12874451,0.83896077,-0.87457466,-0.41888025,-0.53483844,0.44668645,0.5251473,-0.7659548,-0.98861974,-0.3171209,-0.3387181,0.20333876,0.20498763,0.5628986,0.5652925,-0.44107014,0.41972277,0.329391,-0.11704917,0.2742592,-0.32770276,0.91298044,0.39712083,0.079058416,0.4882327,0.5980511,-0.32830408,0.52459097,0.6471211,0.50350255,-0.9118325,0.4469895,0.87049115,0.6003537,0.73834157,-0.5286157,0.2913333,-0.15106216,-0.78040385,0.8652268,0.93568075,0.40547284,-0.08638696,-0.29241905,-0.8225585,-0.16147406,0.5429477,0.04986461,0.65524125,-0.13015185,0.5868263,-0.5262391,-0.90863466,0.6058668,-0.27595362,0.5636273,-0.092250794,0.54989636,-0.48762825,0.7279077,-0.96828103,0.47722572,0.18513134,-0.016449917,-0.75916576,0.49952903,0.18177906,0.02097229,-0.122005805,0.42961618,-0.07498038,0.045913696,-0.15080276,-0.42109638,-0.63050205,-0.5922769,-0.59174097,0.58375436,-0.7495469,-0.8687702,0.92049253,0.82327026,0.9879815,0.95166385,0.72194725,0.4644924,-0.7924098,-0.31954247,-0.049051493,-0.9237977,-0.9228835,0.55008924,-0.5339477,-0.91651577,0.61670876,0.89233357,0.72013855,-0.15142359,-0.052416287,0.3252701,0.7232961,0.43315968,0.21121037,0.15916432,-0.11058381,-0.29775536,0.22430843,0.09813727,0.9542684,-0.6520648,-0.33207506,0.54963523,0.6306553,0.13022198,-0.9492428,-0.58433956,-0.62689334,-0.23304243,-0.4776657,-0.8768599,-0.92347497,0.21936044,0.8160153,-0.35686305,0.6302491,-0.3986808,-0.50949347,0.4062227,-0.3666959,0.9001574,0.3584131,0.8253923,-0.59747857,-0.19301406,-0.83260417,0.3731477,-0.6436,0.49008566,-0.11504616,0.343019,-0.89650995,-0.28383273,0.80283666,-0.4608218,-0.9181936,0.910604,0.5365343,0.87005395,-0.952084,0.07571073,0.9704183,0.44658008,-0.9010239,0.14542685,-0.78123456,-0.032924,-0.7137842,0.7348532,-0.8477283,0.5611571,0.4193204,0.39037526,0.72543156,-0.21448329,-0.2600434,0.044906706,0.59934783,-0.25718927,-0.9938249,-0.9794101,-0.09698679,0.38949558,-0.19662996,0.28203738,-0.814599,-0.5070965,-0.07398735,0.7224287,0.14699133,-0.59474593,-0.5260312,0.8143574,0.24670584,-0.05521024,-0.21202427,-0.3622156,-0.71972233,-0.93300074,-0.10889764,-0.11172348,-0.59804356,0.8198093,0.8015132,0.082129195,-0.30913758,-0.8315413,0.6639924,0.6513262,0.8780173,-0.9722983,-0.3733996,0.37972996,0.23009627,0.38218096,0.91921306,0.12762295,-0.36157784,0.10572067,-0.6172848,-0.008560486,0.59299934,0.5122313,-0.83969873,0.5735748,-0.817981,-0.3493552,-0.12690996,-0.8115185,0.5228942,0.73023033,0.6392106,-0.7976317,0.8650918,0.71363175,0.90265715,0.5421494,-0.77716935,0.5833674,0.138551,-0.63640505,0.42390394,-0.62390643,-0.02456095,0.3370761,0.6442474,0.23767953,0.5644855,-0.19074658,-0.7333081,-0.2077923,0.5212867,0.82377076,-0.041525796,-0.7069709,0.20418388,-0.7445371,-0.17024449,-0.54982954,0.3119951,-0.29045352,-0.64640224,0.34466395,0.2895249,-0.54069775,-0.30551213,0.55884373,0.88145244,0.99135363,0.04476996,-0.8746864,0.23109017,-0.19380288,-0.9380328,0.7343257,0.6157155,-0.15254295,-0.9374251,-0.27474228,0.2763112,-0.18298277,-0.8485226,-0.5517957,0.0028197505,0.7464639,-0.7140988,0.7856031,0.91900283,-0.112875365,-0.39546058,-0.19304045,-0.5619029,0.7941924,-0.2105856,0.5980143,-0.6686665,0.63002336,-0.42145795,-0.9803552,-0.4960568,-0.14750437,-0.5512263,0.430406,0.24026643,0.08837495,-0.2941934,0.89536655,0.9763411,0.7069993,0.6856852,-0.28639865,-0.89147496,-0.13704604,-0.29273653,0.3283905,0.026675701,0.59025854,0.18579988,0.751997,-0.20029876,0.8166134,-0.8777319,-0.08269036,0.7889207,0.8525135,-0.2245481,-0.9060036,-0.33305573,-0.84486455,-0.67604387,-0.95194364,-0.48524058,-0.30967948,-0.8796891,0.97399783,0.55671614,-0.8996998,-0.5651268,0.043168906,0.96819,-0.023817096,-0.66788465,-0.03144651,0.1259431,-0.90648615,0.4218459,0.09425916,0.623368,-0.035540033,0.511344,0.023484873,-0.28948647,0.980318,-0.08139839,0.6086247,-0.8408163,0.8567957,-0.77265364,-0.7223288,-0.36118156,-0.29060155,0.045960512,-0.26858115,-0.6650497,-0.9600894,-0.84383756,-0.6030399,0.7668249,0.0606247,-0.9379115,0.55103695,-0.17389102,-0.3871256,0.16506024,0.37088478,0.37577623,0.7538458,-0.15090033,0.9499203,0.40595827,0.2621988,-0.12017324,0.5987238,0.12133982,0.4971139,-0.3908338,-0.2771378,-0.5065656,0.6211714,0.42986876,-0.34983557,-0.8181796,0.66377735,-0.77128655,-0.83034736,-0.45484856,-0.14496766,-0.88879883,-0.514767,0.4003985,0.789162,0.19176824,0.041834384,-0.82498115,0.8720808,0.8810191,0.9619632,0.14393891,0.72186273,-0.15813284,-0.8767048,-0.7133243,0.04665144,-0.9003784,0.9594408,0.23935114,-0.704437,0.63140404,0.26407355,0.2568334,0.45834476,-0.67607445,0.42521825,-0.37772676,0.12181021,0.3467094,-0.19167234,0.63288176,-1.0030397,0.037598293,-0.049538847,0.6943898,0.12857078,0.9788506,0.8634967,-0.12362069,0.34095535,-0.024422951,-0.797825,-0.60887635,-0.3761952,0.7464247,-0.007445472,0.2578426,0.33617634,0.75804317,-0.3799425,-0.17736949,-0.18026806,0.7747539,-0.21000068,0.39619216,-0.923762,-0.1347501,-0.5366578,0.8013365,0.8279156,-0.094778396,0.14834695,0.086305544,-0.42523122,-0.7222084,-0.9302566,-0.086831816,0.41957062,-0.81189466,-0.0024664346,-0.100176185,0.13898784,-0.91446483,0.7540778,-0.8174438,0.5746098,0.4021177,-0.057078086,-0.2973377,-0.6604638,0.18426907,-0.21616484,-0.8753851,-0.99066347,-0.113335915,0.876437,-0.60810196,-0.39631414,0.7319997,-0.9191219,-0.004606478,0.54462135,-0.982748,-0.011405192,-0.046960488,0.20696352,-0.79781127,-0.76504993,0.74810696,-0.28207448,-0.123006485,-0.5746301,0.33731422,-0.27223885,-0.7253812,0.97855717,-0.42202747,0.16942486,0.6904222,0.50538534,-0.17372572,-0.92072463,-0.24680097,0.98214614,-0.8973137,0.11040832,0.7932323,0.30127478,-0.042989284,0.17482778,0.6146861,-0.11007302,0.5582595,-0.32091576,0.14439407,0.5483648,0.6169058,0.020238915,-0.3608432,-0.9722442,0.32279167,-0.5059292,0.21621883,0.97385824,-0.90716064,-0.6927605,-0.16274863,0.5418711,0.29094207,0.31895822,-0.90419436,-0.4298167,-0.9079431,-0.6922646,0.88977295,0.94770133,-0.58959943,0.3572373,0.986259,-0.8318529,-0.65288913,-0.5072142,0.5344265,0.5488967,0.51084363,0.38283914,-0.7772359,-0.67870885,0.010798931,0.9147007,-0.6483142,-0.79201436,-0.42248854,0.33375475,-0.018843949,0.5162319,0.2897224,0.5583685,0.012973834,0.54326284,0.13659109,-0.2673583,-0.66967744,-0.18517591,-0.21542639,0.053514756,-0.124865495,0.579746,0.67849857,0.8628343,-0.7765081,0.21304835,0.12109038,-0.89377606,0.5676411,0.8614924,-0.98012984,-0.45018142,-0.4065013,-0.6541949,0.08174455,-0.46467128,0.8008359,-0.7214198,0.46830282,-0.5696892,-0.35226715,0.58328915,-0.36060765,0.8063485,0.49683633,0.31806755,0.71826595,0.24419671,0.09512581,-0.26043868,-0.52597624,-0.4237742,-0.28864133,-0.98882663,-0.16606125,0.81822306,0.7387644,0.72278273,-0.12778425,-0.30071074,-0.26538476,0.89188904,0.77812845,0.8540423,0.11584319,0.5004596,-0.7432816,-0.6732808,0.78593224,-0.9526916,-0.5970666,0.14004084,-0.16324565,0.70459807,0.75044155,-0.77568173,0.31876427,0.4555714,-0.027727386,-0.27024466,0.32166255,0.79471356,0.27075708,-0.013961243,0.7168221,-0.83977324,0.7570312,-0.26949444,-0.5527898,-0.6268876,0.9490176,-0.007244899,0.5909682,0.6382141,0.43864906,-0.2294431,-0.102598526,0.9837632,0.34994736,-0.9268153,0.15495878,-0.8572138,-0.5180383,0.012487707,-0.09627152,0.0060039554,0.87190944,0.43485796,0.13609971,0.21394926,-0.9585825,0.42130515,-0.32918417,0.9921523,0.47729704,0.8020283,0.34298453,0.01161523,-0.0016646179,0.42997146,-0.3963943,0.35764548,-0.4999286,0.9382993,-0.75695956,0.6185065,-0.34614378,0.73066837,-0.8520868,-0.11048789,0.7383332,-0.2059119,0.027308606,-0.487421,0.11074531,0.3305546,-0.47776008,-0.73294383,0.68913925,-0.54238665,0.7014859,-0.13079216,-0.7091941,-0.09343275,0.52552557,0.07602004,-0.017623665,0.48927638,-0.53488344,0.5924636,-0.90695304,-0.11493677,0.5768651,-0.52940094,-0.81266755,0.49724188,0.58724326,0.71977353,0.39460337,0.600532,-0.67709464,-0.18709369,-0.6473212,0.8676643,0.25586548,-0.9459746,0.9282586,0.7813737,-0.94569874,0.7132791,0.020941345,0.31073707,0.00695901,0.92728734,-0.6207893,-0.68000674,0.5809672,-0.12966354,-0.564342,-0.47833696,0.23312156,0.012642777,-0.8230963,-0.43266848,-0.43540633,0.76563644,0.16199514,0.67596346,0.11322217,-0.39763093,-0.4405198,-0.506694,0.62278116,-0.64977354,-0.7540916,-0.11988082,-0.01137962,0.27394345,-0.3060582,0.03810832,-0.008524716,-0.91086096,0.8372039,0.5224162,0.5164842,-0.5677737,-0.86585647,0.34567565,-0.07094524,-0.4608939,-0.075748265,-0.57705075,0.07187358,-0.023814104,-0.71116865,0.29581138,-0.7379438,0.0053892178,-0.8140426,-0.30534846,0.29592124],[-0.95704013,-0.8214213,0.895109,0.68884915,-0.5018328,-0.8949422,0.76885396,-0.88722485,0.6568037,-0.27502194,-0.19754183,0.38389015,0.37208256,0.9048711,-0.5509074,-0.07607235,0.71045357,-0.5810271,-0.38333938,-0.8512308,0.7654038,0.604615,0.7444666,0.63146526,-0.34431338,0.5931297,0.2291615,0.5190184,0.8678637,0.109577425,0.760803,0.06928854,-0.063227266,-0.07229558,-0.8607425,-0.046688784,-0.2891586,-0.9798717,0.7952706,0.16345832,-0.11055871,-0.9198348,0.67165256,0.54565096,0.17873782,-0.35864705,-0.5240926,-0.027732864,-0.09436533,-0.2534832,-0.5925531,-0.77314645,0.8521846,-0.37836298,-0.3969151,-0.9826568,0.09242857,-0.7205779,-0.550013,0.691349,0.17679209,-0.10489457,0.6462598,-0.46427906,-0.29933697,0.52966344,-0.36533448,0.44831005,-0.2265852,-0.78406525,0.10115613,-0.13938092,-0.7997226,0.31772712,-0.41450134,-0.9141665,0.8994417,-0.4819079,-0.24887402,0.47217214,0.14957683,0.72138727,0.01579733,0.5857394,-0.47847453,0.02046099,-0.45328775,-0.82757527,-0.46657506,0.26267022,0.50974655,0.42912906,-0.4123546,-0.3223636,-0.33971226,-0.48742753,0.060449183,-0.22348891,0.011130525,0.44049814,-0.73088217,-0.79954684,0.8921586,-0.83414304,-0.9607807,0.52044225,0.5409106,0.19059663,0.17744361,-0.15838315,0.022629738,0.9587837,-0.76696694,-0.9027678,-0.6189366,0.9883656,-0.97512686,-0.5194533,0.28432384,0.68527967,-0.5212934,-0.10635461,-0.6412042,-0.04418502,-0.20426488,0.6522373,-0.22339529,-0.00904144,0.7842992,-0.15082486,0.4088206,-0.5144151,0.39278305,-0.32089517,0.4715081,0.13343892,-0.5191102,-0.0010989283,0.50164974,0.85382473,-0.043747712,0.84031904,-0.81540066,0.8225222,-0.2227861,0.54066247,-0.0425555,0.9722877,0.5949878,-0.3903374,-0.1954948,0.30469498,0.8451319,-0.78527105,0.23893023,-0.59964705,-0.9292792,0.59949374,-0.18724914,-0.96493995,-0.26820865,0.8753907,-0.33877352,0.041135978,0.6118019,0.054627895,0.11477848,0.56740326,0.014456671,0.3525912,0.58504546,0.2600659,-0.4416518,0.7895683,-0.009143313,0.87106144,-0.48661086,-0.7618734,-0.37713632,0.10507102,-0.7661111,0.494959,-0.54307395,0.10253855,0.16315906,0.4214032,-0.79932725,0.38172805,-0.40336218,-0.63046443,-0.07798251,0.86028004,-0.8858423,-0.012426945,0.037429165,0.15900475,0.65324396,-0.16687816,-0.5169563,0.75148207,0.39688486,0.4152793,0.23276544,-0.3365522,-0.95770985,0.775718,0.76829207,-0.29603052,-0.629525,0.18276963,-0.38848445,-0.61710006,-0.5822518,-0.28338814,-0.35691515,0.95853025,-0.8730842,-0.07203661,-0.89241046,-0.49497116,0.5837577,-0.6635511,-0.90937525,-0.37076616,0.08062562,-0.7852007,-0.08643834,-0.7963502,0.01267954,0.3782252,-0.24506798,0.12733218,0.16381137,0.6218031,-0.18418592,-0.92244184,-0.17264092,0.11114801,-0.0006254518,-0.5419577,0.34780356,0.20137042,0.7559015,-0.13969284,0.30529985,-0.56185985,0.63651425,-0.8425679,0.4017376,0.25862363,-0.94711584,0.78883815,-0.81170255,-0.059604462,0.9002378,-0.040332157,0.3489829,-0.07588528,0.50564986,0.56063336,-0.21815759,0.92281544,0.84179956,0.7261517,-0.8193714,0.37239352,0.27535748,-0.46034697,0.0810129,-0.5588534,0.013820091,-0.64753044,-0.5569275,0.37894747,0.055242132,0.35076758,-0.8256382,-0.06298068,0.2354022,-0.21323197,0.8198973,0.45258176,-0.81217855,-0.91241896,-1.0007687,-0.24055792,-0.19549246,0.6359987,-0.59004486,0.10216325,0.8134462,-0.51582974,-0.5788299,-0.47820017,0.21317823,-0.22849812,-0.97376317,-0.6514457,0.4384969,-0.6921289,-0.3433115,0.66568667,-0.5979378,-0.3507036,-0.6731145,0.35183093,0.20412341,-0.273531,-0.18338819,0.96951056,-0.14071576,-0.6153517,-0.8414891,0.52037346,-0.42253706,-0.647399,-0.21425368,0.9507357,0.6455729,0.9497834,0.56238097,0.31346443,0.11808587,0.81017816,0.035890397,0.8806015,0.8956871,0.58536184,0.28361118,-0.03664859,0.7739366,-0.9948975,0.4758108,0.15894794,0.5754599,0.18416516,0.2233807,-0.85498476,0.97861344,0.58502847,0.9959439,-0.41588485,-0.49849576,0.2674216,0.25815693,-0.28510374,-0.3530536,-0.6695419,-0.038493853,0.70248556,0.12903966,-0.32609499,0.13801758,0.04799548,0.24164303,0.08865698,0.9221283,-0.45487964,-0.9746838,-0.93110317,0.44006738,-0.73679775,0.38305545,-0.86920416,0.72299254,-0.5932832,-0.15286472,-0.6606331,-0.7347213,0.9810311,-0.77810943,-0.9352076,-0.6086962,-0.5108564,-0.29426104,0.23527987,0.88954264,-0.30033475,-0.8249124,-0.17215106,0.74320155,0.2939203,0.42593017,0.7769576,0.14020836,0.101257436,-0.46100792,-0.42470813,-0.6024056,-0.043047667,0.26775706,-0.738065,-0.017859377,-0.40399832,-0.47290644,-0.5014002,-0.36801782,-0.9257954,0.96127474,0.6888682,0.13454945,-0.8982057,-0.3530362,0.6814222,0.5778148,0.30936018,-0.741861,0.2860728,-0.9799833,0.6932236,-0.8760117,-0.58243424,-0.6496755,-0.3679179,-0.15904595,-0.27243143,-0.21301724,0.65888876,-0.011999236,0.8337191,0.21378914,0.5242696,-0.27465108,0.03301402,-0.6060786,-5.808752E-05,-0.9613913,-0.9096271,-0.5029015,0.7745346,-0.2288086,0.101195976,-0.5163844,0.013034311,-0.3499647,0.73070985,0.48064873,0.52986324,-0.68835086,-0.6017779,0.17141835,-0.49374887,-0.4212361,0.060829878,0.13553995,-0.35359067,0.86132514,0.14126973,-0.03992835,-0.115118116,0.4098197,0.45314178,0.18854806,-0.44232374,0.1127884,0.31990442,0.06209425,0.98600703,-0.06323587,-0.26398414,-0.08468627,0.3255453,0.13694339,0.8689488,-0.84571266,-0.7624666,-0.45158014,0.5678206,0.016679358,0.0066683013,0.08359676,0.39723378,-0.8343593,0.055404082,-0.75995487,-0.3681827,0.47394818,-0.8794736,0.4366203,-0.4701431,-0.41392174,0.84833926,0.6805689,0.0041963477,0.067116074,0.83529216,0.8541389,0.09160541,-0.25322288,0.58250886,-0.49638373,0.050376143,0.720795,-0.5316093,-0.5510541,0.29586768,0.06214962,0.5729804,0.3862468,0.33734354,0.42166266,-0.6582304,0.72501457,0.657637,-0.086432815,-0.39917633,-0.4805515,-0.115489095,-0.13687885,0.517658,0.66594285,-0.5016072,0.14236535,0.6719432,-0.16865031,0.35216826,-0.08996801,-0.052007582,-0.6324301,-0.02862411,0.31260693,0.35759804,-0.7693748,-0.62073004,0.26745227,-0.5989333,0.7412654,-0.44392785,-0.78278553,-0.25227532,-0.10707167,-0.46676,0.47424608,0.70301425,-0.20386346,-0.39173114,-0.25309896,0.7862,0.46277288,0.23605564,-0.13619791,0.31653145,0.86841387,0.25455284,0.98113143,-0.24126644,0.67678446,0.99427277,-0.011538823,-0.65183,-0.07720723,-0.8249026,-0.7425478,0.56465375,0.7787142,0.7531613,-0.7503456,0.46469656,-0.047696874,0.46833414,0.07851686,0.18353029,-0.7701504,0.17341396,-0.2758797,0.053697843,0.62151885,-0.48906988,0.99888766,0.24460691,-0.5787967,0.85294724,0.10170687,-0.5674575,0.7710308,-0.24012884,-0.59029806,-0.46308097,0.27184215,0.6202972,0.49602064,-0.6551908,-0.7296182,0.093899205,-0.15343958,0.9557008,-0.28446573,-0.9855688,-0.7833567,0.8628119,-0.33567312,0.57922363,0.9192816,0.86151946,0.5964736,0.47529063,0.09310754,-0.76302624,-0.5677729,-0.5633562,0.44937322,-0.96827215,-0.73428273,-0.8157039,0.007789355,0.29926288,-0.6824274,0.490104,-0.77552897,0.044730656,0.42534193,-0.09855754,0.48806068,0.19261205,-0.2601429,0.1921605,-0.89378697,0.25043842,0.6441408,-0.03270968,-0.029721461,-0.5990204,0.6327854,0.8835429,-0.55522317,0.22560126,0.31108734,-0.018998716,-0.3453478,-0.8744581,0.8622808,0.38568175,0.02564293,0.16728392,-0.8858166,-0.22550517,0.7866184,-0.07838692,-0.36687392,-0.6440414,-0.5286277,0.4239576,0.35275766,-0.28141907,-0.24253805,-0.0499589,0.981155,-0.88949347,-0.3664744,-0.7345846,0.22267844,-0.30213857,-0.71229523,-0.48700264,0.39867637,0.9683311,0.42385682,-0.9698366,-0.079656765,0.28274187,-0.65259415,0.8396381,0.4853557,0.21764776,0.76121664,0.55899316,-0.9127907,0.9984312,-0.049649168,0.27873063,-0.10896506,0.7137351,-0.91777444,-0.45745894,-0.13185464,-0.4208909,0.41113648,-0.10526389,0.64508337,0.65658194,0.6472715,-0.24557164,0.5003258,-0.49989587,-0.88139933,0.6078975,-0.7081304,-0.45314765,-0.5888869,0.38490504,0.54336137,0.5254509,-0.9511151,-0.3214105,-0.5075595,0.20524043,0.14193799,0.8228486,-0.036290612,0.31896016,-0.18971774,-0.69097894,-0.7458727,0.3284043,0.5861272,0.70940036,-0.84982616,-0.3447551,-0.64167374,0.8082549,0.29146177,-0.6286522,-0.4314723,-0.44884247,-0.9349677,0.80972695,0.664073,-0.7814865,0.84321594,-0.31257522,-0.7024638,0.141576,-0.40065196,-0.51889926,-0.24396096,0.12325926,0.80541,-0.05112772,0.6903646,0.22768739,0.31026587,0.28192672,0.78438056,-0.33372888,0.578536,0.2732537,0.17926754,-0.6257573,0.97928476,0.00915643,0.4030202,0.63987553,-0.95888853,-0.96768814,0.03266415,-0.16306683,-0.6629222,-0.24263714,0.015613748,0.6394364,0.08441469,-0.9294955,0.14228407,-0.21999106,0.65046144,-0.1785055,-0.46792778,0.849877,-0.81795216,-0.009236591,0.2111589,0.5167782,-0.205031,0.92213315,0.8055805,0.27110133,-0.9658998,-0.46962926,-0.46654755,-1.0017797,-0.3234325,0.24572589,0.6265719,-0.19212788,-0.10280617,-0.8716372,0.044008113,-0.61468524,0.34999636,0.33707336,-0.925227,-0.76445997,0.77488095,0.1479552,-0.30848798,-0.6747624,0.5845795,0.59277976,0.11466137,0.92684793,-0.48666227,-0.32411563,-0.47086865,0.7112471,-0.95860404,-0.4102312,-0.20690922,-0.43775824,0.6148809,0.33849514,-0.8133184,0.8289819,-0.6509775,0.9091017,0.12871559,0.34161872,-0.5264402,0.06514116,0.8825898,0.30527937,-0.22081368,-0.76547116,-0.7541833,-0.4944404,-0.5986142,-0.1381862,0.0063252067,0.31403193,-0.7034397,0.45626542,0.554968,0.19827254,0.9222914,-0.7426679,-0.989125,-0.4276391,-0.59237874,-0.59788734,0.4699286,-0.9087613,-0.80784893,-0.6000167,-0.17553422,0.09856881,-0.68849933,-0.6796672,-0.9761467,0.20666075,0.54552007,-0.2124017,0.08536292,-0.18091153,-0.7240985,0.044697132,0.172192,0.90476674,0.6697365,0.36681655,-0.099374786,-0.9616493,0.3503834,0.24571246,-0.6902136,0.040322203,0.19407989,-0.28481093,0.23401435,0.45212016,0.3382843,-0.24359803,0.78132576,0.74930555,-0.25371295,0.789009,0.26877105,-0.15326217,-0.3705736,0.9797358,0.8324886,-0.63522536,0.15257749,0.76559,0.258807,-0.0075313565,-0.82050383,-0.24747111,-0.12832111,-0.77907795,0.27881047,0.64568067,0.45073947,-0.28304324,0.81712776,-0.4222419,-0.91316617,-0.78542626,-0.7514029,0.043868266,0.5498303,0.64413744,-0.5726857,-0.94393885,-0.2613158,-0.32408994,-0.2633778,-0.62724173,-0.75654024,-0.17090303,0.19439323,0.16475886,-0.7102054,-0.60191226,-0.7329518,0.9960008,0.7757131,-0.3177301,-0.7940382,0.54348695,-0.7925697,0.5509676,0.55158126,0.7267996,-0.7274594,-0.27406174,0.060107037,0.6178275,-0.61597264,-0.7874259,-0.18134344,0.17771393,0.6255934,0.24551998,-0.44926068,0.3894994,0.6363397,0.97804403,-0.7798474,0.9107896,-0.3122341,-0.43852443,0.3062094,0.30098706,0.7659643,-0.17481525,0.6757223,-0.003194842,0.3021755,-0.91917425,0.2927589,-0.59358954,-0.23736887,0.2876353,-0.7852917,-0.23172736,0.6615103,-0.46653226,-0.100593016,0.6063179,0.69072556,0.70972455,-0.26811776,-0.008189364,-0.16527933,-0.048857287,-0.539658,-0.66654813,-0.9502068,0.27060214,0.22244897,0.5227685,0.9076432,-0.284816,0.44135305,0.031179966,-0.29717287,0.032041054,-0.9426074,-0.050127875,-0.29131323,0.6739558,-0.339418,-0.6473726,-0.44521084,-0.5421965,-0.25866163,0.4029941,0.15218748,0.20909658,-0.6833996,0.6683222,0.19834433,0.4777333,-0.14394684,0.0524755,0.111534856,0.8542505,0.38462722,-0.6996637,0.5505569,0.33282098,0.32641038,-0.5569171,-0.71505594,-0.39942014,0.7703024,-0.4472118,0.13564506,-0.30695143,-0.16220124,-0.40460414,-0.044245217,-0.5001407,-0.94411564,-0.13022898,-0.8625926,0.85736775,0.045628056,0.79121655,-0.03924747,-0.36713806,0.3845904,-0.2813065,0.9913863,-0.36909786,0.42471462,-0.15088585,-0.9423068,0.36553887,0.32981053,-0.28852645,0.69023615,-0.4768369,0.08203962,0.40365294,0.43673208,-0.64372003,-0.7272406,-0.6860837,0.87191683,0.7181345,-0.68914413,0.7215259,-0.8428305,-0.46100998,-0.32952705,0.23554917,-0.6803993,0.863348,0.35320944,-0.6489684,-0.96889794,0.48350343,-0.102003686,0.7858072,0.27693158,0.97390556,0.03288408,0.25992912,0.058010172,0.2705024,-0.63707757,0.88072294,0.022238456,0.60280883,-0.3977361,0.2320634,0.3901852,0.23321185,0.48910204,0.8746917,0.3220342,-0.48249626,0.2911763,0.92034817,0.4211402,-0.0822086,-0.4970347,-0.29572073,0.0379062,0.38658658,0.4374745,0.5622711,-0.16935258,-0.8222302,0.86711603,0.30102283,0.63268036,-0.3574461,0.089631066,0.7715214,-0.22677699,-0.94006705,-0.57540435,-0.44098303,0.2856324,-0.81521326,-0.90336126,-0.51850474,-0.42064908,0.3672144,0.69056326,0.46550295,0.4506765,-0.106783666,0.57588667,0.8829327,0.09165112,-0.4601017,-0.10772608,-0.1208176,-0.8260766,-0.70468783,0.81670153,0.5579457,-0.7182317,0.5297505,-0.16600583,-0.64824724,-0.48469052,-0.85804784,-0.8949662,-0.5289064,0.76937103,0.32106856,-0.4117214,-0.2425142,-0.48140994,0.618525,-0.13448758,0.9999096,-0.7329547,-0.31130642,0.736473,-0.9230438,0.9312076,0.9806603,-0.80755013,-0.099721976,0.09431195,-0.25967476,0.5683961,0.42488682,-0.709367,0.010029678,-0.006352624,0.30959255,-0.15809287,0.71798974,-0.6270395,-0.5779359,0.39437264,0.12798342,0.2891795,-0.24071014,-0.446354,0.23673294,-0.8634637,-0.122807115,0.9348305,-0.1500327,-0.084467344,0.90124345,0.34388834,-0.3806318,0.28666145,-0.20190495,0.40552062,0.7071893,-0.8414529,0.3583307,0.6716993,-0.8347296,-0.9710702,0.43324846,-0.30515283,-0.37940583,-0.64910114,0.32173193,0.67771,-0.9337161,-0.68444645,-0.91715974,-0.38304284,0.921931,-0.31167403,0.6533562,0.4768549,-0.82001376,0.9318422,-0.37985662,-0.9509255,-0.20660636,0.775651,0.7809168,-0.23854244,-0.3223902,0.0023499774,-0.39033684,-0.74633807,0.15314345,-0.79389817,-0.450909,-0.02473138,0.3038992,0.18125173,0.42766666,0.22457202,-0.61641484,0.25138023,-0.2816406,-0.30744782,-0.84259975,0.7703013,-0.124613196,0.8423836,0.6549245,-0.21607964,-0.64306366,-0.45223272,0.63643354,-0.41141787,0.10550835,-0.02345572,0.07459345,-0.91733944,0.45587376,-0.10547171,0.5894282,0.68936074,0.94622576,0.12713066,-0.52378976,0.9365425,0.49181503,0.9455646,0.94958234,-0.23786993,-0.19592436,-0.86084366,-0.18246774,-0.17764111,-0.8404091,0.07381491,0.8825755,-0.9563877,-0.75561965,-0.76909643,0.6049098,0.15543179,-0.63463926,-0.20770448,-0.63668996,-0.7345139,-0.9174741,-0.6234632,0.15883437,-0.35524216,0.92227226,0.24108808,-0.0380114,0.49971867,0.2955458,0.77583563,-0.52916825,-0.17674907,-0.06325917,-0.9325371,-0.5980313,0.3281236,-0.10424773,0.9815433,0.3572518,0.21469535,-0.5087723,0.16484721,0.3024775,0.38317817,0.049967892,-0.2479227,-0.0035285119,0.8365351,0.2671557,-0.14622973,0.39683837,-0.21944217,0.64417905,0.7072259,0.7111582,-0.6787976,0.45218283,-0.6832093,-0.91746503,-0.5189395,0.67865115,-0.7106024,-0.48720598,0.5348939,-0.9277582,0.7538923,-0.6883277,-0.28377137,-0.6380859,0.10363561,0.89399,-0.04040899,-0.6954618,-0.28322262,0.1848377,0.23117654,0.11883227,0.7979143,0.5719405,0.39523292,0.4744297,0.7782496,0.1576012,0.7123745,0.14313434,-0.06811063,0.8410381,0.7945022,-0.32841194,-0.81116766,0.08913477,-0.86787444,-0.87973934,-0.53345996,0.28973064,-0.72017545,-0.2428879,0.47871524,0.35015884,-0.13791342,0.8128949,-0.83334285,-0.87152076,-0.11410675,0.76235116,0.3491784,0.45237812,-0.80489933,0.018011644,0.6234954,0.85110545,0.5489351,-0.27464107,0.7161733,0.35829535,-0.98283076,0.5200137,-0.4595261,0.042672876,-0.21482505,0.18694846,0.30117115,-0.77874106,0.46850812,-0.22516632,-0.78430265,0.0069883824,-0.32337278,0.23808068,-0.5846004,-0.77225643,0.22633028,0.10506616,-0.7901642,-0.35845965,0.53739536,0.8334538,-0.51510805,-0.9936684,0.6296584,0.52040285,-0.87489206,0.06830427,0.72474796,0.94158465,0.21954729,0.7915574,-0.73713577,0.10964379,0.04036705,-0.20011717,0.026833428,0.7338966,-0.08432043,-0.20360334,0.2774753,-0.33136907,0.39261216,0.10362884,0.07105235,-0.9132884,0.14247853,0.23332629,0.5111603,-0.56723416,0.33027554,-0.041339066,-0.26786855,0.35379666,-0.73640174,0.7701273,0.8061801,0.10431004,-0.43464443,0.69455326,0.6099218,0.5518849,-0.97628635,0.45385194,-1.0020813,-0.9080672,-0.20886841,0.2528946,-0.4958227,0.82687163,-0.21112724,-0.6996789,0.16470373,-0.5219499,0.75822544,0.38271254,-0.91156703,0.8268435,0.2796982,0.6347852,-0.13397413,-0.010211865,-0.8506347,0.62508315,0.53001636,-0.22387671,-0.98469836,-0.4444688,-0.07431758,0.10979664,-0.14831369,0.47207147,0.2769199,0.8551611,0.8696613,-0.15838301,0.4497087,-0.8123763,-0.6505905,0.41489395,0.022832114,-0.8169551,0.9870441,0.3363365,-0.36612445,0.8194537,-0.71582943,0.060476344,0.09550275,0.7215406,-0.22696349,0.009778443,0.20289701,-0.33305696,-0.27029604,-0.44544947,-0.7244624,0.31606936,-0.3985871,0.20649369,-0.05161951,-0.14050275,0.12781739,-0.13970453,-0.79634523,0.2698721,0.35751393,0.8190725,0.43041012,0.59748703,0.24204886,-0.05222825,-0.74960625,0.37538007,0.978372,-0.73051924,0.8487978,-0.52965564,0.17530797,0.30604297,-0.19272995,0.71353614,0.32258683,0.7508278,0.37805757,0.85641754,0.814592,0.047644082,0.37134257,-0.36599168,-0.8193259,-0.7640322,-0.39280593,0.6701972,-0.977595,-0.84326494,-0.2112271,-0.47062564,-0.90372854,0.77132076,-0.044046026,-0.16300547,-0.80999535,0.6872171,0.8429009,0.75957507,-0.9067455,0.3584222,-0.6609084,0.019706873,0.2629542,0.031517364,-0.55785656,0.23403846,0.9426779,-0.73229545,0.2657722,0.1679097,0.18750861,-0.3822218,-0.75794286,-0.81848484,0.06432359,-0.29190248,-0.5963847,-0.53244084,-0.03250272,-0.9444092,-0.059747815,-0.7949693,-0.28383824,-0.353854,-0.72207236,-0.64980984,0.51295555,-0.4214897,-0.96447617,0.6812893,0.26725608,0.22606188,-0.34176818,-0.9244766,-0.97495776,0.25867915,-0.77986544,0.29802004,0.31070024,0.29752684,0.8916745,-0.8539338,-0.56810564,-0.1393121,-0.7928536,0.37537277,-0.40857223,0.21300516,0.2855049,-0.45266828,0.6114418,0.06463659,-0.30902067,0.72291225,-0.82433474,-0.32281998,-0.4297052,0.5007521,0.22994858,-0.48648214,0.43940598,-0.12453146,0.79425174,0.9233692,-0.104942486,-0.4584516,-0.19525316,-0.493461,0.33825287,-0.42462865,0.3572939,0.24774674,-0.18733048,0.8776729,0.2181508,-0.18586832,-0.1695937,-0.55623335,-0.33092442,0.8056981,0.15651281,-0.18973067,-0.84730273,0.83308077,-0.59485966,0.11172563,0.6123965,0.35276547,-0.08333768,-0.16514516,-0.9873275,-0.42749584,-0.12907107,0.3910287,-0.40009746,-0.90842634,0.6552213,-0.3941392,-0.9599047,0.19199966,0.26988894,-0.11016289,0.7397888,0.30242822,-0.9409929,-0.47631848,0.8836973,-0.9400585,-0.29948485,-0.6474638,-0.87857926,0.52303326,0.23468585,0.30732659,-0.45958215,0.13370468,-0.14288181,0.24004234,-0.86289954,-0.97628886,-0.7632725,0.53881764,-0.743003,-0.5956446,-0.4011667,-0.20911582,-0.5425951,-0.58725834,0.21187279,0.30232236,0.571745,0.19311644,-0.36381322,0.79071736,-0.15310168,0.72546035,0.68416345,0.20702942,0.6096822,0.8164824,0.26036614,0.7677398,0.97055274,-0.009262601,-0.6065235,0.9507879,0.27589643,0.4629979,-0.24857382,0.8809812,0.07898653,-0.9202969,-0.53394306,-0.5873816,-0.50543904,-0.86941755,-0.04107974,-0.7195748,-0.08524018,0.38495222,-0.46022436,0.7117007,0.925747,0.72388494,0.24160092,0.7325397,0.7434268,0.33819485,0.2416991,0.6008681,-0.4312444,0.90785253,0.9316431,0.38855836,0.5147451,0.6139786,-0.2503643,-0.6118774,-0.23252876,0.40855494,0.63035965,-0.9675127,-0.41546395,-0.20626302,-0.34353015,-0.12315183,0.5037594,0.54853034,-0.79106575,-0.97658193,0.8458599,0.8285535,0.9959682,0.94873977,0.48950085,-0.18842575,-0.9073464,-0.3299464,0.5294355,0.7734394,0.24459916,0.81149805,0.4241578,0.9329482,-0.008329674,-0.5733314,0.46213275,0.9546527,-0.32298034,-0.6241784,0.3407455,0.7810519,0.8813957,0.6427586,-0.8829128,-0.8394894,0.55753756,0.6580979,-0.70683455,-0.95572996,-0.4665169,0.6116557,-0.78780806,0.7893385,0.08296102,0.56532973,0.14161737,-0.61117053,0.8550775,0.72835237,0.35040647,-0.67921036,-0.72419184,-0.5598134,0.7133644,-0.21864988,-0.8498546,0.5147536,0.95127183,0.72948915,-0.42564005,-0.25562602,0.7249566,0.93610096,0.050803084,-0.7870959,0.9909004,-0.76339364,-0.29642144,-0.8749341,-0.50211483,0.9009285,0.091791384,0.74449444,-0.9258041,0.6004217,-0.04538051,0.4409394,0.17505687,-0.098373495,0.42970783,0.30303916,-0.2895429,0.5319987,-0.5198488,-0.87603325,-0.174321,-0.026473965,0.20264412,-0.34587923,0.5863363,-0.2471154,-0.36403182,0.4509594,-0.16876057,-0.11553234,0.52116674,0.23856887,-0.53873456,0.21052781,0.3954401,-0.50816953,-0.026915062,-0.70933867,0.24068265,0.12781565,0.0052468455,0.15613875,0.3066779,0.30962464,-0.5450669,-0.25663024,0.9932298,-0.14512417,0.9173627,0.3207703,-0.918173,0.9393538,0.17771941,0.57020545,0.8627888,0.971647,0.19065341,0.61553794,-0.4723647,-0.87771493,0.7529675,-0.3798329,0.95302504,0.8751902,0.37430814,-0.65964806,-0.2750682,0.28808284,-0.17715022,0.27705646,-0.5411984,-0.39146197,-0.80283314,0.7577942,-0.7097447,0.30594873,0.59537536,0.4446665,0.32675818,-0.07925228,0.27953503,-0.13284074,0.7316739,-0.4041595,-0.5220774,0.39117038,-0.040377397,0.5274855,-0.58412457,-0.6273411,-0.64446187,0.7479106,-0.8280111,-0.6277466,-0.10408518,0.7424263,-0.75403506,-0.95510125,0.4671075,0.79721105,-0.32434228,-0.7468524,-0.89448917,0.5769065,-0.45969817,0.74952686,0.85586965,-0.71855557,0.6543468,0.13849625,0.23865518,-0.4996581,0.0982114,-0.494819,-0.28860417,0.80414206,0.78733945,-0.72071373,0.39745212,0.49498644,-0.36005482,-0.021669008,-0.24443083,-0.5804459,0.57452166,0.75165784,0.3980721,0.7576114,-0.09124081,-0.5019402,-0.23937277,0.42117837,-0.5144779,0.7089534,-0.1664488,0.11500132,0.99273896,0.22571161,-0.5198973,0.60341585,-0.035188735,-0.0050208163,0.64034593,0.42134923,0.94245887,0.6529259,-0.06520817,0.40621394,-0.23989211,0.7300427,0.8829483,0.09456018,0.88490874,-0.19123806,-0.91241944,-0.57524675,-0.25532973,-0.4067422,-0.9945806,0.20350076,0.50392014,-0.8493957,-0.724728,0.28139788,-0.6823799,0.46467382,-0.96623206,-0.52350533,0.5604682,0.06057795,0.5027682,-0.2701901,0.35097796,0.08529529,0.9752219,0.7832749,0.88090956,0.24400917,-1.0036229,-0.8403767,-0.9918624,0.36749256,-0.19928525,-0.65969115,0.36210394,0.11930677,0.79520816,-0.12330805,-0.61135685,-0.5668803,0.95629233,0.014912323,-0.765634,0.34730604,-0.8505524,-0.9614731,-0.43214935,0.49667642,-0.80305594,-0.40142617,0.46808717,0.47433785,0.5080638,-0.25042346,-0.5412466,-0.06811647,-0.2640266,0.42172056,0.49702087,-0.68348336,-0.5006056,-0.9442416,-0.15554033,-0.5251407,0.44643685,-0.5013793,-0.1289782,0.41890317,0.12270896,-0.5718899,-0.20950902,-0.020971565,0.7947485,-0.647268,0.66533303,-0.018268185,-0.5312654,0.64847183,0.99860376,0.20266959,0.42266503,-0.9425885,0.37789625,0.8969241,-0.5818877,0.9237682,-0.73674506,-0.10792192,0.2783087,-0.8767002,-0.0363244,-0.88567877,-0.5958696,-0.08775063,-0.22299892,-0.0061916374,-0.13241152,-0.89518815,0.77935416,0.42843673,0.82626444,0.22606808,-0.023726441,0.49763167,0.17578515,-0.10287175,-0.52198195,0.7810381,0.80317736,-0.24353504,0.00794227,0.18067789,0.7853056,0.13885634,0.43123278,0.3958473,-0.96089077,0.8106932,0.81720465,0.9563123,-0.46698573,-0.89022136,-0.8888176,0.5716376,0.23835313,-0.6717961,-0.44828734,-0.25755554,0.24583213,0.23015396,0.12889072,0.6030136,0.3461953,0.37656075,-0.29173997,0.69142485,-0.48096812,-0.013100033,-0.38031605,0.36576214,-0.35567817,-0.59783244,0.2844493,0.17327659,-0.17171253,-0.27880126,0.647391,0.7926295,-0.4261883,0.10099173,-0.16792291,-1.0029631,0.9453613,0.15823184,0.019126173,-0.54336673,0.08034609,0.017239029,-0.37969923,0.07485277,-0.11698058,0.054750703,0.05748345,-0.21976656,-0.69863427,0.05699332,0.41073483,-0.8764806,-0.29617545,0.104841426,0.3551858,0.98220813,-0.6180828,-0.829497,0.82180786,0.46119365,-0.11862816,-0.81317043,-0.4425322,0.5985255,-0.89779246,0.6436236,0.82646525,-0.41512322,-0.580443,0.28826135,-0.9483889,-0.93304735,-0.92796654,0.87463474,0.44986436,-0.8368358,0.98154473,0.2611778,0.83413994,0.23516966,0.065140784,-0.43362638,0.5946348,0.9141797,-0.22622566,0.0227008,-0.14135158,0.8662005,-0.11742018,-0.3163816,-0.08133334,-0.18982898,-0.7350441,-0.7384988,0.60126287,0.45515016,-0.49641708,-0.9579524,0.46321988,-0.85485756,0.42033315,0.7979336,-0.64289474,-0.7625438,0.65500593,-0.88493484,0.049917944,0.8161409,0.36076665,0.8901965,-0.5826805,-0.31032702,0.22773355,-0.23170802,0.05968179,0.74482566,-0.12221278,0.6953943,-0.48393586,0.40478304,-0.080693744,0.10203877,0.44918966,0.5957431,0.46260503,-0.5662238,0.7778543,-0.17487685,0.8838756,-0.77936804,-0.6245367,-0.90771765,0.43297327,0.4797022,0.9154458,-0.7235597,-0.6941321,0.27143297,-0.23936316,0.21130386,0.3989698,-0.37683573,0.25230643,0.20615609,-0.7993262,0.9825609,-0.755655,-0.2361057,0.76608944,0.90604675,0.30530503,0.9865945,-0.9244756,0.576048,-0.844912,0.10672806,-0.2626514,0.1534748,0.8030151,0.5399536,0.16451214,-0.6283341,0.77908224,-0.8079572,0.64916766,0.9201704,0.83803594,0.81284124,-0.048980508,-1.0005383,0.3492502,0.06786528,-0.62238103,-0.7240666,-0.43409866,0.8631761,0.0873218,-0.12945183,-0.94605136,-0.37379995,0.32387814,-0.76439095,-0.11899787,-0.23115039,0.13914242,0.06212387,-0.10683043,-0.39682716,0.760575,-0.97220427,-0.8682589,0.6633109,0.058355264,-0.5333622,0.61045665,-0.9408919,-0.66796136,-0.11970711,0.74075675,-0.7065039,0.31361124,-0.7229821,0.24795276,-0.22411665,0.1541747,0.88509476,0.44397876,0.8491549,0.42480287,-0.4623238,-0.479139,0.85483193,0.1801543,-0.2389445,-0.74024427,-0.7252051,-0.53041875,-0.25990462,-0.8994666,-0.10862362,0.10881726,0.39849132,0.77785,-0.6582646,0.7222503,0.56956726,-0.7830011,0.27098238,-0.304755,-0.689205,-0.08473911,0.914815,-0.4977948,-0.23835623,0.80315,-0.10695874,-0.71246666,0.60945797,-0.35816172,-0.3816293,0.4458947,0.23399776,-0.2924142,0.24918565,-0.06841706,-0.23094833,-0.7909462,-0.66456693,0.16280101,0.14689635,0.87425226,-0.6245498,0.7872189,0.49245715,0.03180203,0.9246909,-0.31464636,0.98870295,0.8097599,-0.43301547,0.86965877,-0.24284036,-0.23272377,0.24459356,-0.54750574,0.942958,0.37875327,-0.14426246,-0.8704887,0.5856905,-0.45556727,-0.46187943,0.07438684,-0.2819641,0.5159029,0.18186791,0.9132192,0.41654676,0.6006526,-0.16696484,-0.2576563,-0.1459404,0.4555367,-0.69737536,0.12626503,-0.15894489,-0.2005207,0.5776876,-0.7381793,0.713814,0.96983004,0.44003433,0.9828062,0.21672364,-0.97953045,0.81874377,-0.51995695,-0.36491647,-0.07654899,-0.9356556,-0.1804755,0.73868096,0.47208437,-0.90471023,-0.49766976,0.24962994,-0.21235059,0.09222223,0.09147723,0.48563862,-0.064455986,0.16310602,0.30039316,0.576967,-0.5212264,0.57097524,0.17276451,-0.39243177,-0.121264495,0.31662285,0.464555,-0.5058944,-0.6874101,-0.29966408,0.3128997,-0.20936309,0.5698881,-0.3693932,0.20250763,0.36328986,0.6960912,0.45978352,0.6956799,-0.5693793,0.009838957,-0.82624847,0.62356114,0.6923671,0.01886907,-0.6606063,0.19398727,0.3566745,0.64527047,0.94884056,-0.37549794,0.7592195,-0.97396076,-0.13453256,0.577983,0.8760433,-0.86867654,-0.16176452,-0.46413514,-0.09713091,0.16063164,0.42848846,0.24127297,-0.88896966,0.26590884,-0.13021971,0.16509783,0.37797526,0.8824458,-0.8688981,-0.57245755,0.29529905,0.9669546,-0.7314571,0.14641029,-0.45010233,0.027281389,0.38201877,-0.07186778,-0.11171572,0.007709319,0.46573454,-0.2252511,-0.63502365,-0.09409132,-0.41031358,-0.53831816,-0.25819018,-0.31311253,-0.17723565,0.70031834,0.20623133,0.30230948,-0.72593516,0.20743023,-0.26940763,0.42541692,-0.17900123,0.32381678,0.5099442,0.43847737,-0.060777877,-0.6447029,-0.61905277,0.45139202,-0.1805952,-0.15352489,-0.034367032,0.8440962,-0.9018554,0.06124279,0.3161033,-0.55858356,0.78929836,-0.56822956,-0.257903,-0.2581663,-0.2360315,0.08642574,-0.4091159,-0.3378023,0.34268424,-0.6905874,0.5293177,0.44338197,0.8011192,0.39683312,-0.24445783,0.22165255,-0.5364923,-0.8091904,0.732252,-0.93852144,0.717391,-0.41396186,0.92806983,-0.44649908,0.16553614,0.24635799,0.53478533,-0.40476725,-0.9009004,0.92800206,0.845463,-0.038243134,-0.80383635,0.58023655,0.4472022,-0.44031605,-0.07980024,-0.14057429,-0.6434349,0.40538356,0.15663287,-0.41911146,0.9196314,0.48129305,-0.21017402,-0.7343927,-0.18571308,-0.5367795,0.793624,0.845464,-0.8486723,0.3628579,0.513476,-0.90077275,-0.43910563,0.24127218,0.337018,-0.5586892,-0.42940152,0.029049221,-0.10808023,-0.16590644,-0.9342957,-0.326852,0.0528462,-0.90230924,-0.15813299,0.9098281,0.7653222,0.031415857,0.9845927,-0.28814492,0.17768043,-0.3977812,0.0017059334,-0.9822175,0.49066135,0.781782,-0.22649103,0.7171835,-0.24978639,0.43319985,-0.3482667,-0.35458857,0.8260789,-0.018166551,-0.61726516,0.7624055,-0.032528467,0.03752302,-0.8246527,0.42544174,0.92781603,0.96812856,0.21920034,-0.10386411,0.32629412,-0.64823115,-0.7422721,0.13609904,-0.37079117,-0.61068916,0.96618086,-0.21224087,0.09175595,-0.5361241,-0.9269466,-0.7983947,-0.1669039,-0.18524419,-0.14110057,-0.52593446,0.29759672,-0.27057132,-0.7336993,0.7308129,-0.8018316,0.08946762,0.54532963,-0.49485502,0.54581594,0.4984362,0.36232957,0.82986987,0.9369854,-0.019217715,-0.56455445,-0.38654554,0.9443816,-0.385777,0.20558262,0.32144743,-0.9850664,0.9540503,0.269707,-0.3147572,0.38255817,0.4450288,-0.5942354,0.63364744,0.55871904,0.74456525,-0.53103787,0.4017533,-0.410035,0.053650755,-0.4013588,0.381176,0.6742209,-0.8674407,0.1758171,0.3206127,-0.58182704,-0.42012802,0.09240659,0.95661306,-0.15524484,0.12819983,0.36247534,-0.81449836,0.29681996,0.016998805,-0.6551664,-0.7881448,-0.105061136,0.57869625,0.42580166,0.80528015,-0.12906928,-0.3910935,-0.2834983,-0.004773039,0.63114405,-0.906332,-0.74369633,0.72915006,0.74690396,-0.0183083,0.6053511,-0.31113654,-0.029766643,-0.415578,-0.5780616,0.64851534,0.8971251,0.0358766,-0.39619347,-0.6860304,0.16461703,0.7947298,0.55013824,0.59891,-0.78674465,-0.27295262,-0.54774576,-0.65743554,-0.58635056,-0.6858735,0.89921343,-0.5030736,-0.5849885,0.25594673,0.70940953,-0.24716653,-0.6540061,0.39489412,0.8118254,0.012295589,0.8021036,-0.9246256,0.71564186,0.72828466,-0.681579,0.8722012,0.7329098,-0.88603675,0.990997,-0.12730534,0.1104563,0.52748746,-0.046864953,0.7018446,-0.7665741,-0.70893836,-0.20560771,0.7572268,0.70922613,0.3729877,-0.4853756,0.8684452,0.08264117,0.5754859,-0.6990523,0.27885684,-0.17420602,0.028822487,0.39763463,-0.71424437,-0.6123168,-0.5771818,0.07426597,0.2074232,0.43810225,-0.3664191,0.45035717,-0.1905291,0.28450495,-0.45484844,0.20802376,-0.8311946,0.15380198,0.96923333,-0.31366086,0.92349046,-0.07290528,-0.5436384,-0.459102,-0.10837155,0.3332969,0.0509382,-0.72507715,-0.14988764,-0.91116923,-0.120619446,-0.6416146,-0.5077189,0.48300156,0.58663434,-0.3942899,0.18788692,0.50128883,0.31195277,0.07871236,-0.92678964,0.042196393,0.17276376,0.19444716,0.86349976,0.9282354,0.3514082,-0.43748155,0.08985812,0.89586073,0.41914675,0.51372635,-0.93869525,0.77531403,-0.5331711,0.23411995,-0.17116725,-0.41152674,0.8638263,0.90498054,0.5801219,-0.39254242,0.5118093,-0.08165765,0.7171872,0.7034531,0.93024546,-0.3087462,0.6665544,0.7061921,0.22431768,-0.6470165,-0.033881653,0.48388323,-0.9125293,0.7687627,0.4721157,-0.5242549,0.6253844,-0.22839881,-0.06309574,-0.56419563,-0.08147132,0.7357865,0.8286063,0.649095,-0.08626708,-0.05957764,0.29754147,0.9097993,0.15706474,-0.48614022,-0.5837415,0.97501916,-0.75205487,0.06502517,-0.34342948,0.9717615,0.0059828376,0.22336276,0.6203839,0.6615218,0.058364693,-0.58701247,0.2357713,0.8181188,0.39884177,-0.09315165,0.030914076,-0.23884523,-0.5514021,-0.9225557,0.17701405,0.34001893,-0.7938881,0.9326385,-0.451173,-0.05917184,-0.32740328,0.3042249,0.9349046,-0.46960318,-0.7574366,0.83663267,-0.39750564,-0.07332194,-0.45991436,0.7007428,-0.81265867,-0.87786406,0.5964214,0.28626612,-0.5669414,0.15067138,0.93069243,-0.6291696,-0.6199665,-0.26544648,0.9393736,-0.45863324,-0.47713897,-0.5540071,0.9283462,-0.25985712,-0.89840895,0.73400813,-0.82393897,-0.2442542,0.4347002,-0.41744676,-0.20714554,-0.296989,-0.20220299,-0.03159984,-0.31112617,-0.85307115,-0.5568926,-0.2809486,0.3889771,-0.9810319,-0.51467156,0.91858274,0.9010129,0.1174898,-0.40987816,0.9234749,0.55775094,-0.11742537,-0.5785418,-0.88209295,0.011284096,0.20784046,0.69885635,-0.77544767,-0.4272491,0.19523896,-0.033219013,0.16455655,-0.19900016,-0.95272595,0.6678624,0.5080689,0.84294045,0.33960456,0.32164714,0.4440676,0.8638048,-0.9525359,0.91384476,-0.5239349,0.8424566,0.8313435,0.71841574,-0.6909281,-0.59527916,-0.5856879,0.35482535,0.93184304,-0.42066437,0.38508192,-0.4159061,0.50564504,0.8306616,-0.3266698,0.57970315,0.95458376,-0.58680296,0.8303248,0.21469672,0.59255666,0.42850623,0.19804728,0.68030065,-0.9035488,-0.4625137,0.41822687,-0.19792241,0.38581038,-0.9945253,0.38554382,-0.907636,0.85441256,0.6916916,0.92631024,0.8227162,-0.25468513,0.32608137,-0.8760047,-0.6487035,-0.5320834,0.47721785,0.5986876,-0.493904,0.63982964,0.6299954,0.88835967,0.38618118,-0.11142929,0.5214128,-0.06507316,0.79194206,-0.8553688,0.23994395,0.049007773,0.78340715,-0.6179058,0.4398244,0.2239671,0.11690808,0.96998906,0.112441964,0.690119,0.5392761,-0.23338546,0.8845636,0.9124363,0.92606467,-0.8444323,-0.83609754,0.8140862,-0.70923615,-0.23088405,0.4046765,0.65159076,0.08769394,0.04615295,0.07531781,-0.2607097,0.5760224,-0.185726,-0.38793364,0.32020077,0.07380207,0.5133572,0.4193438,0.67490363,-0.38250056,-0.2833576,-0.29727113,-0.14212349,-0.89746875,-0.84237075,-0.8981363,0.1446966,0.12188343,0.06417827,0.22158667,-0.95834863,-0.44898352,0.65588444,0.8394905,0.9421164,0.16711721,-0.18429944,-0.66723955,-0.4058089,-0.24987859,-0.094094515,0.5680836,-0.23500127,-0.051232837,0.5078784,0.064876646,0.61993784,-0.054331023,-0.62556005,-0.69261026,0.30438718,-0.6214352,-0.14911586,-0.71661127,-0.41968992,-0.9848719,-0.6697869,0.6411101,-0.9200691,-0.6506944,-0.8773227,0.8723374,0.09081643,-0.7074731,-0.47803846,-0.61616653,0.06969246,-0.48970866,0.6694302,-0.1276251,0.03166279,0.9337876,0.22743294,0.17834762,-0.5970378,0.36197892,0.6492655,-0.1345346,0.039490636,0.2412223,0.51052225,0.17037362,0.7193394,-0.36890107,-0.4439903,0.49733236,0.06676444,0.2674683,-0.4297575,0.8028888,0.08085213,0.97152424,-0.17781048,-0.07416702,0.724574,0.07479118,0.8353991,0.18815733,0.0114100985,-0.07283137,-0.9816422,0.34678972,-0.5243029,0.28225312,0.22906695,-0.23059423,-0.5863376,0.07548046,-0.22409524,-0.38095292,0.2224362,0.6668945,0.88758427,0.48278832,-0.09775623,0.4250077,0.78773224,-0.72018397,-0.33806434,-0.32783923,0.10436915,-0.33550304,-0.15275992,0.6872455,0.010217411,0.01269844,-0.93724465,0.5060622,0.8629688,-0.33121097,-0.136197,0.95724875,-0.96216327,-0.45295775,-0.092459776,-0.331156,-0.5075926,0.009980309,-0.07079031,-0.0031409771,-0.6980121,-0.30424452,0.4966989,-0.6079125,0.111021854,0.45282254,-0.64619035,0.9446296,0.66270906,0.29629773,-0.78323966,0.06728083,0.30107263,0.63851196,0.026187958,0.29116556,-0.40910548,-0.25282535,-0.6691337,-0.66639215,0.07631655,-0.3510581,0.10804129,-0.3734788,0.15340766,-0.04141738,-0.3553687,-0.79567134,0.7577753,-0.63158745,-0.07334023,-0.86508095,-0.64411783,-0.4362528,-0.48095533,-0.13756035,0.0011363768,-0.042557336,-0.16442388,0.17368123,-0.8774057,0.21362333,-0.5923158,-0.9183074,0.15139091,0.8264746,0.5295006,0.40634328,-0.7255784,-0.19634363,0.7773761,-0.5728566,-0.05164038,0.014611207,-0.2809221,-0.6913504,-0.82905775,0.53095114,-0.84481496,-0.4992156,0.9219972,-0.7863823,-0.15185827,-0.9869605,0.02643697,0.4299521,0.30120358,-0.5914703,0.2082141,0.7836701,-0.7890316,-0.5904334,-0.47827062,0.64666307,0.37465623,0.42866766,-0.6825191,-0.71241575,0.9789125,0.88048553,-0.16708346],[0.1452858,0.79214525,0.82206476,0.46122357,0.9550488,-0.290568,0.2860335,0.03484546,-0.34883237,-0.82763946,-0.5131797,0.62425554,0.9382255,0.3277144,0.29901809,0.9405415,-0.18397479,-0.48843095,0.89315784,-0.6137875,-0.5883583,-0.97212285,0.42483282,-0.8329102,0.15030296,-0.0715959,0.24314317,0.599028,0.5077239,0.0667697,0.5137626,0.79639864,0.5441747,0.4965783,0.51885414,0.69481635,-0.07835336,-0.3143142,-0.49609005,0.287825,-0.09872561,-0.082228415,-0.32195935,0.52324843,-0.42148596,-0.47029516,0.03353925,-0.8420837,0.66680026,-0.054394804,-0.7858653,0.26377162,-0.06295605,0.21310292,0.33534396,0.62635565,0.3987572,0.47867745,-0.54014456,0.13096198,-0.25604928,-0.93171316,0.26523072,0.10303996,-0.7857452,0.66880023,-0.9228345,0.103020534,-0.5811155,-0.04302724,0.10852407,-0.7276988,0.80132496,-0.6143168,0.7991564,0.7154913,-0.024600783,0.73312515,-0.51949596,-0.4214985,-0.66684884,0.16711412,0.46090004,0.20509492,-0.01989014,0.6870116,-0.06257881,-0.1988787,0.8917227,-0.48117578,0.5446321,-0.5904829,0.59905887,-0.5564717,-0.12839861,0.030541942,0.5009367,-0.6785557,0.2176188,-0.89554805,-0.4200542,-0.5168501,0.085993506,0.49998555,-0.6577411,0.62282246,0.5235305,-0.15951817,0.0035828492,0.6847411,0.47090942,0.5109408,0.6895345,-0.28919056,-0.2439011,-0.35851932,0.098307244,0.4539239,-0.124223374,0.18193649,-0.59462583,-0.28888497,-0.35031632,0.51319516,0.7651316,-0.5168301,-0.058936626,-0.5361963,0.7170901,0.22237952,-0.26448783,0.6424582,0.41955,0.74292845,-0.9185147,0.83693886,0.691947,0.7274422,-0.7876423,0.62231493,0.9191365,-0.1891419,-0.44153154,-0.52851355,-0.80338734,-0.52409244,0.116037816,-0.99626064,-0.86991787,-0.75675553,0.44076312,0.7252716,0.5738373,-0.11701732,0.8378352,-0.47470516,-0.86553586,0.08929632,0.5531639,0.38315353,0.45986316,-0.8629761,-0.27666447,0.32908317,-0.59899426,-0.26108646,-0.092934325,0.15497826,-0.78005934,0.71458566,-0.8898511,0.5888107,0.56217515,0.5081878,0.574581,0.48178717,-0.40875515,-0.5569286,-0.21371529,-0.77668107,-0.15705134,-0.79421204,-0.35386848,-0.7001352,0.600155,-0.5885097,-0.68785447,0.048517227,-0.4832098,0.19247028,-0.32596618,0.09684906,-0.24939047,0.51958346,-0.90428734,0.45758817,0.8421079,0.15788126,-0.77274597,-0.77853036,0.108573504,-0.038004622,0.43248758,-0.5402083,0.22746217,-0.110271834,-0.13075946,-0.30614015,-0.2731726,-0.6822448,0.73930764,-0.0498369,0.73420227,0.5751734,-0.2658251,-0.31102628,0.016323164,0.017515257,-0.4200479,-0.08584595,-0.955967,-0.1592488,-0.12929821,0.7171571,-0.67467725,-0.7269609,0.6803851,0.17695853,0.69973016,0.63706994,-0.3863783,-0.43648744,0.0829993,0.9533073,0.18148789,0.9641092,0.45426774,-0.65324795,-0.5992898,-0.040359344,0.021080099,-0.7665472,0.86048555,0.84932375,-0.6924367,-0.19035734,-0.7312075,-0.8263445,-0.3364718,0.67613757,0.26149592,-0.14811464,-0.002070548,0.4429221,0.8620763,-0.59328556,0.22955675,-0.56164116,-0.42829445,0.6885423,-0.079856075,0.63358957,-0.7021997,0.20295548,0.50021243,0.8390176,0.004771056,0.6343012,-0.07104486,-0.6480148,-0.21082978,-0.060260978,-0.18539022,-0.24209931,0.145233,-0.84149337,0.05916078,-0.10361351,-0.15772386,-0.76050264,0.5640938,-0.6680818,-1.0008281,0.30711582,-0.58519375,0.41995174,-0.3199948,0.5515771,-0.92829186,-0.64512575,0.18050572,0.6253929,1.0006516,-0.99378943,0.28997335,-0.6747625,-0.6417017,0.25979933,0.58573735,-0.1121302,0.03630465,0.21779287,-0.8481608,-0.730005,0.8100713,-0.06682949,-0.23425159,0.26560944,0.4407559,0.9956019,0.94792926,-0.866702,-0.06628243,-0.577538,-0.85996467,0.8983178,-0.8334988,-0.9151128,-0.09744164,0.28919646,0.60169137,0.26469964,-0.380724,-0.46546715,0.75963175,0.09066384,0.67653465,0.8729354,0.041443724,0.57210803,0.0833633,-0.9879156,-0.24863616,0.19020255,0.94511,0.5356853,0.58269626,-0.9609769,0.5962363,-0.3784246,-0.38241878,-0.6043299,0.7471482,-0.19616242,0.32500598,-0.7263944,-0.39736745,-0.9631268,0.19969821,0.7536315,0.61199605,0.10814866,-0.091274664,-0.7477788,0.3291646,0.85767406,-0.7620306,-0.79177785,-0.042262815,0.2847521,0.5806838,-0.061372794,-0.914234,-0.38417447,0.4680973,0.7482165,0.20795865,0.35751027,-0.80543727,0.11227604,-0.023742761,-0.22364424,-0.02642444,-0.30108213,0.88924795,0.5627004,0.25316536,0.6686557,0.73114496,0.66377866,0.5889961,0.26492178,0.48208517,-0.5828465,-0.88542986,-0.4309729,-0.06704357,0.06947208,-0.11198591,-0.27468684,0.91240567,0.51630074,0.28914723,0.20898764,-0.6139297,-0.3703369,-0.23357175,0.4641422,-0.46663988,-0.84944975,0.695758,-0.7031121,-0.3804647,0.08054766,0.12078246,0.5495733,0.5805992,0.4958785,-0.105341844,0.84337735,0.91397965,-0.17941584,-0.8760319,0.24051484,0.04593344,-0.085737556,-0.865335,0.03600367,0.71487224,-0.6076082,0.4286393,0.5036812,-0.9089234,0.43785822,-0.82346416,-0.32682377,0.7975564,0.43644345,-0.3151086,-0.09650346,0.14373036,-0.63362,0.8842728,0.80531454,0.18477449,0.52296793,-0.29524654,-0.4556874,0.85023737,-0.4928162,-0.5763516,-0.7157265,0.908077,0.47725177,0.22620487,-0.18423703,0.868171,-0.025537815,-0.6378807,0.7289543,-0.11280194,-0.04402646,-0.07499267,0.48870087,-0.8226209,0.94635713,0.57682633,0.67239654,0.22205469,0.22990143,-0.72281945,0.1776087,-0.3793069,-0.62245405,-0.8408699,0.7940191,-0.37407294,-0.42774144,0.17600653,0.5357536,-0.3546286,0.108426884,0.6361985,-0.6714621,-0.12900689,-0.72860646,0.9843457,-0.25822964,0.19866855,0.21557364,0.06774529,0.43839797,-0.7595407,-0.6806882,0.07032736,0.37903595,0.23780327,-0.7246079,0.6750095,-0.9650386,0.6083476,0.52612674,-0.8958065,-0.5600444,0.0033088457,0.3939049,-0.7852241,0.18350683,-0.24987268,-0.99676985,-0.8560126,0.3209408,-0.62759537,-0.017482359,-0.9621494,0.78370804,-0.27185333,-0.6279094,0.08606051,-0.25344142,0.87712854,-0.47028458,-0.31634846,0.51128435,-0.7374229,0.39495295,-0.9658104,-0.87985516,-0.70670295,0.39955407,0.6964402,0.8629151,0.025602296,0.6070198,0.4485095,0.80738235,-0.11237288,-0.9705197,0.11291441,0.03972388,-0.9160571,-0.2681566,0.29174727,0.8175895,-0.6591807,0.29453844,0.05597564,0.43336588,0.7300898,0.5029657,-0.69297564,-0.6315273,-0.7836262,-0.8386196,-0.31504333,-0.97410065,0.5310318,0.05500577,-0.5438131,-0.94318646,-0.71086884,0.18456776,-0.5069276,0.22114725,-0.9001895,-0.63093626,-0.06804951,-0.26799816,0.69270897,0.5883219,0.9680016,-0.06626328,0.6334293,0.43926844,-0.48281544,-0.55946684,0.80211747,0.03192471,-0.66536725,-0.11522338,-0.46463534,-0.69529927,-0.37909475,-0.8214189,0.33076954,0.83771044,-0.4793301,-0.34761682,0.4487175,-0.72249043,-0.89692575,-0.47615242,0.11520205,-0.69243443,0.81818616,0.78003967,-0.43897158,0.38260886,0.20150463,-0.36956462,0.87390184,0.41677234,0.6706749,-0.00220873,0.36335617,0.5490601,0.4846567,0.9627396,-0.09277936,-0.95376956,-0.24266048,0.5595857,-0.94861805,0.8050551,0.94666696,0.77093756,-0.11190881,0.5228158,0.91242236,-0.4314597,-0.38958165,-0.81900144,-0.62219965,0.49133742,0.43858847,-0.86831456,0.9814606,-0.97603136,0.58324033,-0.0026020915,0.58155006,-0.8734019,-0.75309575,0.83825153,-0.91002136,0.027857916,0.69904745,0.6067611,-0.9403221,-0.6998408,0.37989762,0.13131833,0.049393255,-0.26582387,-0.82523793,-0.7498487,-0.4576277,-0.29469043,-0.17400005,0.5418891,-0.018927075,-0.8627737,-0.60782367,-0.50071937,0.24862409,0.8922326,-0.7922474,-0.7551333,-0.28488606,-0.3752476,0.5519632,0.20134449,0.07161507,0.34661242,-0.101370566,-0.2943904,-0.28362545,0.45694777,-0.38383064,0.05635259,0.018156396,0.3862512,-0.070616975,0.4164616,-0.106059484,-0.92965317,-0.114526175,-0.4327963,-0.15403455,-0.8115494,0.2405655,-0.17582992,-0.8040079,-0.51726854,0.60652244,0.81700766,-0.32532078,0.5133681,-0.3882134,0.29262185,0.5082121,-0.39417887,-0.12156507,-0.8359859,-0.8552071,0.71200573,-0.2788881,0.8115711,0.48104927,-0.21154682,0.4558514,0.22462747,-0.20742314,-0.13627687,-0.6165976,0.19767804,-1.0010546,-0.29565763,0.010176273,0.15320322,0.040974114,-0.32206532,0.30972022,0.28173587,-0.918596,0.7501493,-0.9180229,0.5429176,-0.23101221,-0.7241958,-0.376093,0.7123951,-0.31739017,-0.36296523,-0.56396013,-0.40270177,-0.40598723,-0.31145164,-0.7166523,0.46120986,-0.24550644,-0.42953545,0.71474075,0.14868681,0.011478633,0.76412034,-0.5920138,-0.82827556,-0.72346854,-0.13394906,0.98362607,-0.41635507,-0.42310533,-0.5881706,-0.78520435,-0.7039555,0.24969345,-0.43645427,-0.54355925,-0.46601912,0.53194404,0.5262747,0.74828815,0.44060487,0.6764616,-0.9236458,-0.07803653,0.50062454,-0.53652614,0.96804756,0.9198957,0.4814209,0.8768561,-0.44727397,-0.61713487,-0.74511254,0.88556063,-0.5981178,-0.20186101,0.22919841,0.64487755,-0.97977364,0.1345516,-0.9814079,-0.98563796,-0.9838646,-0.8650419,0.41890016,-0.9287261,0.74787796,-0.10625539,-0.13579398,0.80869126,-0.5768722,-0.74244034,0.50466096,-0.613744,-0.52063274,-0.26891023,0.08962985,-0.797756,0.9896622,0.95803964,-0.37293422,0.7127845,-0.9215107,0.3824969,0.67555237,-0.7162796,-0.005345602,0.9627309,0.57664394,0.50358975,-0.32621545,0.3719421,0.53349924,-0.6703305,-0.03012399,0.13874027,-0.6228916,0.24992917,-0.13969944,0.18517628,0.056486,0.14980672,0.9532535,-0.6758537,-0.3720532,0.38020146,-0.25538948,-0.4524721,-0.76916677,-0.062378895,-0.05796902,0.31421623,-0.3515078,-0.21306522,-0.9642234,-0.31692693,-0.1775662,-0.9462962,0.051609017,-0.76065856,-0.13492508,-0.587129,-0.8656598,0.74669766,-0.73897445,0.86797607,0.8191587,-0.5393486,-0.76063555,0.43624565,-0.51797706,0.75854105,0.6973662,0.39319322,-0.9265051,-0.015730882,0.7623328,0.74616396,0.071375445,-0.65726185,0.809251,-0.6243232,0.25047657,0.43729016,0.25830525,0.63709646,-0.5393087,-0.44710243,0.12876937,-0.8829527,0.17673539,-0.7122992,-0.173225,0.01291622,-0.9116507,0.23955475,0.32532802,-0.23565689,0.80023843,0.34161595,-0.9912009,0.4347796,0.23627754,-0.9919988,0.121067494,0.16114247,0.16643457,-0.66793936,0.6787878,0.5200547,-0.9366362,-0.72287446,0.5543541,0.47062957,-0.19224939,0.45586175,0.87092793,0.8445319,0.20787688,-0.2534158,-0.5807885,-0.045557868,0.47303605,-0.36315745,-0.53925955,0.3460161,-0.35474485,-0.4121478,0.83443546,0.100001566,0.7309189,-0.7245861,-0.98410857,0.4164556,-0.3267865,0.19804332,0.9138684,-0.612562,0.2616417,-0.12214849,0.12659319,0.27615172,0.756106,0.9614674,-0.93887126,-0.46971983,-0.03222057,0.5446867,0.010968063,0.76159906,0.11962183,0.4616184,0.51623404,0.033038456,-0.11447218,0.56200564,-0.4951305,-0.9710535,0.12177498,0.5191659,-0.585513,-0.8862202,0.7662227,-0.9685723,0.28157386,0.13370617,0.22201423,0.5151206,-0.4243224,0.8691305,-0.9014343,-0.6378808,0.6052195,-0.38541758,0.980762,0.64616644,0.8163104,-0.024681514,-0.8843833,-0.37823653,-0.45853743,0.6673072,0.52014667,-0.18091512,-0.2116684,-0.25577208,-0.77633834,0.98542863,-0.6806811,0.016677957,-0.071343675,0.6423341,-0.039726026,-0.9432508,0.92374444,-0.18031923,0.023641266,0.3811373,-0.07905642,-0.81833833,-0.37152922,-0.74283475,0.15545543,0.5094544,0.5555247,-0.7065692,-0.34125903,0.111494064,-0.34344283,-0.28292415,0.065996215,-0.8633144,0.15431269,0.8931802,0.73160577,0.76207834,-0.0062989863,-0.19721042,-0.5073246,-0.31205106,0.75808585,0.8404372,0.9900508,0.7575679,-0.17936407,-0.33298194,0.913749,-0.4637775,0.6288497,0.38237804,0.95711696,-0.28676146,-0.30404755,0.021439863,-0.6720983,0.84165597,0.9117441,-0.94840086,0.56854826,-0.21648483,0.99506474,0.9399506,0.06659029,0.7257463,-0.687218,-0.22255038,0.3539295,-0.40259266,0.68676734,0.5195401,-0.30193457,0.77902603,0.10074397,0.30025414,-0.05310002,0.61343956,-0.8000759,-0.71366507,-0.30713183,0.66753817,-0.12740624,0.15956038,0.23835753,0.8870489,-0.6233723,-0.827964,-0.6623776,0.27346265,0.6787448,0.5977551,0.85505664,-0.3410441,-0.45527038,0.58847487,0.79452395,0.61454934,0.22731233,0.41778943,0.21592112,0.7843985,-0.3251736,-0.8958028,-0.13192925,-0.7902663,-0.29086596,-0.7613536,-0.9994122,-0.12953646,-0.24381302,-0.95437497,-0.29032174,-0.92284167,-0.2501761,-0.86894757,0.7651775,0.9590021,-0.28457135,-0.856216,-0.044132393,0.12456212,0.7410207,0.5657678,-0.05494902,-0.3403897,0.63000673,0.5623222,0.9275952,-0.05906985,-0.56030774,0.2540912,-0.84394646,-0.7661325,0.27439523,0.54158443,-0.4066048,-0.49547574,0.84125763,-0.9473135,-0.3018472,-0.9021954,-0.0068107513,0.6042675,0.852259,0.1030977,-0.066646084,-0.07436643,-0.984758,-0.98275334,-0.125245,0.8903992,0.5732163,-0.043561876,0.067477055,0.649156,0.081576176,0.8007475,-0.516706,0.7149659,0.58587277,0.67710245,0.10490891,-0.37103364,-0.088889636,-0.37279174,0.892486,0.61755085,-0.97954607,-0.5791981,-0.9256296,0.034615234,-0.45183557,-0.7372191,0.2769525,0.71704745,0.76028454,0.13261218,-0.066784345,0.19721992,0.5770266,0.18243238,-0.5470302,-0.81755346,0.98718655,0.2997682,0.10715063,-0.34986198,0.68530107,0.85150576,-0.27032343,0.08493313,-0.085943304,-0.20941256,0.99102986,-0.1663556,-0.3726472,-0.11753438,-0.11151449,-0.7232723,-0.9737932,0.96341074,0.32229707,-0.3494984,0.041628912,0.38437685,0.93640745,0.00499627,-0.7138922,-0.5958391,0.058590505,0.97940147,0.534226,-0.20254317,0.5455523,-0.12668774,0.07444795,0.91976464,-0.53936803,-0.29816756,0.27787954,-0.019228725,-0.17810696,-0.25192454,0.8885617,-0.6068948,0.4540052,-0.88517946,-0.36220497,0.21890658,0.79375464,0.79236865,-0.88695407,0.19609495,0.34191057,-0.45994875,0.48970082,0.48305687,-0.829555,-0.7894012,0.6468477,0.1866332,0.72620994,-0.3325629,0.83744806,-0.09279819,0.93002945,-0.14519458,0.21691084,0.6963893,0.20407602,-0.95771796,-0.3544424,0.42161128,0.31068587,-0.008053612,-0.13600792,0.29564282,-0.30828264,0.1382478,-0.7154145,0.98710275,-0.9235637,-0.5674381,0.7064388,0.08844296,0.37775415,-0.42370743,-0.97411543,0.13471873,0.11686595,0.6143433,0.5059982,0.09185411,0.3812915,-0.27456123,-0.08699396,-0.6797804,-0.78608066,-0.67079556,-0.6330395,-0.9267976,-0.92665005,-0.8605635,0.047934055,-0.7702555,0.57075024,-0.5432806,0.50129455,-0.3315747,-0.110316366,0.29818898,-0.94754237,-0.40336645,0.09470019,-0.7113652,-0.39332443,0.9416388,0.97772,0.90716124,-0.7077509,0.06963582,-0.11321406,-0.39021543,0.45960066,0.45033783,-0.4926954,-0.4312222,-0.27862903,0.7873462,0.60459816,-0.10077811,-0.31285778,0.4586305,0.05108129,0.100049965,-0.34390888,0.38310036,-0.39737996,0.2527841,-0.29816905,-0.4276916,0.65233684,-0.18999816,-0.796117,-0.5989759,-0.8861348,0.25249553,0.13908336,0.086468324,0.7391577,-0.07035169,-0.6734935,0.30887744,0.32898572,0.5722908,0.41131744,0.1048672,-0.016622446,-0.91948235,-0.93246204,-0.49111444,-0.34703153,0.06360934,-0.7204341,-0.67597806,-0.59045625,0.868067,0.1267218,-0.88866156,-0.52826697,-0.96550965,0.6984094,-0.87477744,-0.74019223,-0.13865834,0.16816361,-0.32025433,-0.9042149,0.46193057,0.08071747,-0.3668285,0.51436853,-0.53374934,-0.18250567,0.8194257,0.13590306,-0.107527874,0.7680829,0.2629277,0.07709712,0.36696288,0.8095907,-0.5513948,0.95022273,0.57071865,0.57984257,-0.40700167,-0.9797291,0.21755476,0.09866471,-0.5713949,-0.40496722,0.7388772,0.16097876,0.81557024,-0.8635041,0.9210981,0.085768186,0.8441167,0.11829969,-0.23269339,-0.39817953,-0.965398,-0.75115365,-0.50393105,-0.05615668,0.98537207,0.004826069,0.7910987,0.18967292,-0.7749003,0.17923686,0.46320042,-0.87387466,0.75768197,-0.59470826,0.17276092,-0.86503786,-0.8680385,0.5996194,-0.8695366,-0.31990343,0.9320905,-0.91007864,0.2462003,-0.61615837,-0.04412727,0.2978445,-0.6515367,0.013412316,0.17268261,0.0958862,-0.98366797,-0.2656099,-0.93455815,-0.09090178,0.79800737,-0.91642606,0.9221765,-0.76411355,-0.55906093,0.8389144,-0.7841776,-0.7996103,-0.86163235,0.8863712,-0.9037632,-0.9151451,-0.36059934,0.3960596,0.365042,-0.40439126,-0.15711881,-0.027964342,-0.7508588,0.27291575,-0.83755666,-0.9372384,-0.6744511,0.5468544,0.809877,-0.32861397,0.32320634,-0.16982627,-0.93627167,-0.7647098,0.93664277,0.803794,-0.4312848,0.962055,-0.6278372,0.6979337,-0.3053354,0.71983516,-0.20325792,0.6398547,-0.66297114,-0.46749035,-0.46489838,0.78757286,0.6646979,-0.051547967,-0.10007503,0.2049732,0.46216726,-0.841999,-0.8642595,-0.9938143,-0.22159724,0.904378,0.54304266,0.807936,-0.0070789973,-0.010454687,-0.5869783,-0.6860583,0.6155784,-0.50070494,-0.70917237,0.9767225,-0.22213486,-0.020051073,-0.11118818,0.7857388,0.36597937,-0.8726367,0.46216556,-0.5774324,0.46901494,0.025444955,-0.5725321,-0.41741267,-0.2736596,-0.1282231,-0.32890928,-0.5904006,-0.44817585,0.7070033,-0.9566126,-0.18732469,-0.26446563,0.16310102,0.47121876,-0.7328692,0.8337239,-0.6780497,0.6728677,-0.43822291,-0.72791195,-0.67661154,-0.5737198,0.49457186,0.7507131,-0.49054584,-0.16425733,-0.34976426,-0.48569584,-0.9193903,0.2883821,0.42107922,0.54074275,-0.8744826,-0.62441456,0.66859126,0.96788144,-0.21291867,-0.15488254,-0.30536628,0.9632131,-0.3580294,0.7552793,0.25805077,-0.0966402,-0.5092435,0.23387907,0.8936466,-0.94180506,0.63696945,0.34841517,-0.44706002,-0.8303638,0.5052551,-0.3508853,-0.07953974,0.064834334,0.8699011,0.99217117,0.67615277,0.23608445,0.71347684,0.61553526,0.86383295,0.51094854,-0.761648,-0.65945643,-0.63412726,0.34926113,0.1701828,-0.34867206,-0.276887,-0.7700759,0.11043974,0.045416415,0.038921453,-0.3494448,-0.9433884,-0.3058506,0.25957233,-0.87101024,-0.8641222,-0.9195724,0.9201431,0.44149047,0.3202062,0.75123805,-0.4226665,0.8444346,-0.072297975,0.2480685,0.4816718,0.66106427,0.40617368,-0.46653113,0.6335734,0.33364937,-0.33807257,0.93119895,-0.52490467,0.50679326,0.33753014,-0.44025227,0.003281775,-0.7691612,-0.1801909,-0.80187607,-0.67091215,-0.2802239,-0.13346085,-0.8174826,0.29661414,-0.3430554,-0.44711044,-0.78559124,-0.28454342,-0.6397542,0.7294425,-0.004821551,-0.08199121,0.61844444,0.9482056,0.31727633,-0.77814645,-0.9879359,0.7125722,-0.09530633,0.53516805,-0.98942435,-0.70014906,-0.66711795,0.01657543,-0.5348965,-0.4530002,-0.18751217,0.73194575,-0.054475114,-0.40770328,-0.84258634,0.9479165,-0.8694065,0.81666124,0.46398073,-0.3628073,-0.727841,0.64070463,-0.08095589,0.5606009,0.5710659,0.9442913,0.015946083,0.800691,0.14816518,0.9761071,-0.18975058,0.9523116,-0.54779845,0.050241563,-0.028374895,-0.9715956,-0.11741004,-0.56462425,-0.6960966,0.93519557,0.9526648,0.07036434,-0.22846456,-0.06839617,-0.8308785,0.40891853,0.9184074,0.0147227645,-0.293423,0.78005147,0.5249717,0.90396786,0.5094244,0.09728525,-0.093757994,0.5551295,-0.7526841,-0.9724117,-0.93665737,0.5467309,-0.5273428,-0.5081137,-0.1116403,-0.20210889,0.92599225,-0.20445612,0.36748788,-0.14753892,-0.9677629,-0.11544326,0.32760033,-0.90624523,0.8872894,0.20397554,0.35559976,0.19114147,0.11493408,-0.9789056,0.5213051,-0.04235365,-0.9948722,-0.4692833,-0.9847912,0.5213318,-0.99780476,0.3759274,0.55309296,-0.04693146,-0.26614696,-0.3367562,0.025080547,0.43810266,0.4680178,-0.8634136,-0.68695843,0.91335475,0.19743131,-0.72254163,-0.84198785,0.9567314,0.17595954,-0.97671247,-0.787854,0.2816566,-0.6785253,0.7908499,-0.13017598,-0.6832498,-0.9836825,-0.6786974,-0.49257335,0.5809591,0.56830764,-0.56419945,0.85228944,0.9470591,-0.69179976,0.3001257,-0.25760874,-0.42434463,-0.20143692,0.4284516,-0.06228666,-0.68917996,0.41069192,-0.3257984,-0.1387193,-0.58950204,0.76303303,-0.75892365,0.30188215,-0.16055696,-0.52316546,0.5008933,0.8759079,0.7552169,-0.6974303,-0.46931037,-0.07902478,-0.29065448,-0.11256252,-0.14324315,-0.040075105,0.89643735,0.9097012,-0.937729,0.83537567,-0.6075659,-0.32438502,-0.29465118,0.23174152,-0.86131364,0.55095184,0.15590017,0.7895268,-0.9217763,0.5449871,-0.17669103,0.47206017,0.43981823,-0.49908823,0.2720321,-0.08724877,0.959902,-0.6557551,0.27506152,0.09948837,0.7796651,0.2546148,0.65260905,-0.034871604,-0.30398798,0.2834321,-0.9034892,0.7133017,0.53499645,-0.12898897,0.0126262205,0.15733856,0.86037374,0.8325677,-0.4388566,-0.45671907,0.30621576,0.83191264,0.3488932,0.6591569,-0.3288876,0.9856293,-0.8545511,0.16172051,0.7694179,-0.19643943,-0.3180698,-0.14040683,-0.16083927,0.2521646,-0.89742893,-0.06361857,-0.7611299,-0.55386937,-0.67114097,0.5014051,-0.20763311,0.27676612,-0.30067533,-0.049478192,-0.05528594,0.54550827,0.71694267,0.95653284,-0.52606916,-0.56706357,-0.3575385,-0.27946547,-0.31755748,-0.44608718,-0.22782123,0.7186018,0.07592712,-0.1281333,-0.21152966,-0.9999012,-0.078284204,-0.8292456,-0.9497033,-0.36984807,-0.67369324,0.2444609,0.82515264,-0.5343462,0.79612386,-0.87408596,-0.6399747,-0.13531984,-0.028721703,-0.9133982,0.35265118,0.14287254,0.24887729,-0.78253883,0.96403015,0.6973088,-0.8462021,-0.9381451,-0.58032036,-0.683869,-0.3661107,-0.0034111445,-0.096118845,0.20864666,-0.78788143,0.35214823,0.5499165,-0.4066234,0.69143724,0.21202952,-0.051816847,-0.5574371,-0.56680554,-0.9624006,0.8659511,-0.9686325,0.9785122,-0.11245576,0.9339144,-0.3297745,-0.6495925,-0.97673625,0.19279914,-0.5414474,-0.45817426,-0.32155547,-0.54366744,-0.1658433,-0.6043185,0.4530991,0.11667893,0.5040911,-0.29960862,-0.33736682,0.8191143,-0.5738963,-0.21926601,0.29236138,0.4382361,-0.76096106,0.41009995,-0.24188584,-0.26436767,-0.046246238,0.4273996,-0.850989,0.6641314,0.6531762,-0.60536367,0.9841949,0.5977193,-0.71696496,-0.08696921,0.44990158,0.57510114,0.6492642,-0.11816843,0.351905,0.17661951,0.59467196,-0.66384894,0.7684547,-0.14300136,0.071479306,-0.91713595,0.16116165,0.019516448,0.04151533,-0.67977786,0.79943824,-0.5844548,-0.9794871,0.48587736,-0.61123097,0.47471043,0.6698457,-0.59303856,-0.8244171,-0.18401732,-0.7866906,0.34466287,-0.6255144,0.0059001013,0.049704272,