{"OptimizerType":0,"MultiLayerPerceptronWrap":{"InputShape":{"Height":0,"Width":0,"Depth":0},"LayerWraps":[{"LayerType":5,"Dense":null,"Dropout":null,"Flatten":null,"Lstm":null,"MaxPool":null,"Conv":{"Shape":{"Height":9,"Width":9,"Depth":3},"Kernel":{"Count":16,"Dim":3},"Activation":1,"Stride":1,"Filters":[{"ElementsOneD":null,"ElementsTwoD":null,"ElementsThreeD":[[[-0.018617142,-0.02883378,-0.0024436535],[0.020118823,0.011668068,-0.0049790675],[-0.010808609,0.032878686,-0.029535819]],[[0.010552265,-0.03491579,-0.018664507],[-0.013325174,0.03627905,0.013490601],[0.011473179,-0.016094131,0.008544181]],[[0.015129743,0.0149479,0.03331692],[-0.03011937,-0.025117986,-0.008742882],[0.022070201,-0.024483915,0.021761749]]],"Shape":{"Height":3,"Width":3,"Depth":3}},{"ElementsOneD":null,"ElementsTwoD":null,"ElementsThreeD":[[[0.02008103,-0.007099068,-0.02474084],[0.03592941,-0.028962621,-0.014319969],[0.022380777,-0.0040335786,-0.020371618]],[[-0.036206916,0.019656839,-0.03490788],[-0.03647695,0.0007424001,-0.008733706],[-0.01634009,0.015043576,-0.01960402]],[[0.017134957,-0.030444328,-0.03091489],[-0.011946283,-0.012599098,0.017134592],[0.029329883,0.02315927,0.011373971]]],"Shape":{"Height":3,"Width":3,"Depth":3}},{"ElementsOneD":null,"ElementsTwoD":null,"ElementsThreeD":[[[-0.015294874,0.014635647,0.027036048],[-0.022334076,0.004480768,-0.023660872],[-0.018503914,0.033128228,-0.011207418]],[[-0.008892017,0.00015539593,0.022922816],[0.014445353,-0.034794245,-0.030958012],[0.029920714,-0.027892789,0.026321856]],[[0.019140173,-0.001762485,-0.021072628],[0.0062268046,-8.020798E-05,-0.03106201],[0.036589567,-0.0032716172,0.0009861876]]],"Shape":{"Height":3,"Width":3,"Depth":3}},{"ElementsOneD":null,"ElementsTwoD":null,"ElementsThreeD":[[[0.0234033,0.036370356,0.004738865],[-0.0065234876,-0.036149915,-0.033001777],[0.014685472,-0.0037840384,-0.0020432186]],[[0.018422877,-0.019346045,0.0066794422],[-0.008706422,0.0037431805,0.020891754],[0.002107448,0.003244921,-0.0018263415]],[[0.021145383,0.026919356,-0.011230365],[0.024399893,0.012438681,-0.00518454],[-0.030224826,-0.029702505,-0.009401591]]],"Shape":{"Height":3,"Width":3,"Depth":3}},{"ElementsOneD":null,"ElementsTwoD":null,"ElementsThreeD":[[[-0.011972604,-0.015969004,-0.017558323],[0.009287101,-0.0027065298,0.031731393],[-0.026199218,0.03337777,0.00712098]],[[-0.0283363,0.035226587,-0.009563931],[-0.031858195,-0.031793464,-0.0013325502],[-0.025705816,0.03438263,-0.02997454]],[[0.023150599,-0.018472875,-0.0013881038],[-0.03150109,0.024957573,0.020692931],[-0.022965144,0.01794068,-0.019789374]]],"Shape":{"Height":3,"Width":3,"Depth":3}},{"ElementsOneD":null,"ElementsTwoD":null,"ElementsThreeD":[[[0.026725566,0.005765707,0.03421857],[0.025097689,0.030736856,0.022390494],[0.006990168,-0.003534498,0.016285181]],[[-0.0010214051,0.015725145,-0.025807306],[0.019064104,0.006743961,-0.023556855],[0.020554988,-0.008553735,0.015951337]],[[0.025155814,0.010208969,0.00845416],[-0.013328003,-0.036597613,-0.027503667],[-0.015705463,-0.008490207,-0.030177152]]],"Shape":{"Height":3,"Width":3,"Depth":3}},{"ElementsOneD":null,"ElementsTwoD":null,"ElementsThreeD":[[[-0.008650336,0.027500423,0.01192138],[-0.033165798,-0.009893828,0.0130495895],[-0.03389452,0.033627313,0.025449382]],[[0.026293494,-0.0037762986,0.032023396],[-0.004087669,-0.028792683,0.028292911],[-0.007258276,0.022583975,-0.012196861]],[[0.027161025,-0.035183262,0.018296419],[0.004845085,-0.024078723,-0.0016261957],[-0.00844578,-0.034921095,0.03350914]]],"Shape":{"Height":3,"Width":3,"Depth":3}},{"ElementsOneD":null,"ElementsTwoD":null,"ElementsThreeD":[[[0.030047836,-0.024838941,-0.010375806],[-0.017355213,0.02354956,0.0037086848],[-0.0007051362,-0.0032849554,0.034613583]],[[-0.020465687,-0.023277739,0.01578002],[-0.027239442,0.009744741,0.006068605],[-0.035071544,-0.02035239,0.033729013]],[[0.029166238,-0.0065014185,0.028138682],[0.023018174,-0.011559833,0.024251275],[-0.0011860972,0.012722091,0.02312136]]],"Shape":{"Height":3,"Width":3,"Depth":3}},{"ElementsOneD":null,"ElementsTwoD":null,"ElementsThreeD":[[[-0.0053280657,-0.0031042276,-0.032672994],[-0.0015446256,-0.017081127,-0.0056322175],[0.03248425,0.03387685,-0.030296292]],[[0.0068492093,0.031294893,-0.00046335548],[0.023682859,-0.025791904,-0.0161557],[0.011189262,0.010785319,0.0055808183]],[[0.031171454,0.022180425,-0.03609313],[-0.03288281,0.0009590564,-0.023945324],[0.0060735852,-0.013708796,0.012733579]]],"Shape":{"Height":3,"Width":3,"Depth":3}},{"ElementsOneD":null,"ElementsTwoD":null,"ElementsThreeD":[[[0.033370107,0.018630482,0.019103898],[0.014265961,0.016362261,-0.014973122],[-0.008400442,-0.0030354152,-0.021132091]],[[0.034164105,0.01179345,-0.01670673],[0.00053108623,0.012745522,0.03569407],[-0.016624002,-0.032151047,-0.022567382]],[[0.033176668,-0.023211805,-0.026250865],[-0.014709722,0.013477948,0.0019321486],[0.0133332675,0.03393439,0.0023458004]]],"Shape":{"Height":3,"Width":3,"Depth":3}},{"ElementsOneD":null,"ElementsTwoD":null,"ElementsThreeD":[[[-0.0020057978,-0.033708878,-0.0031932902],[0.030076552,-0.024268424,-0.024314024],[0.024788944,0.034126393,-0.011967893]],[[-0.0125950705,-0.007707993,-0.032950103],[-0.022620687,-0.022791123,0.013469762],[0.029636802,-0.0010133386,0.023358496]],[[0.03518188,0.0054700375,-0.016408606],[0.0034633654,0.025996836,0.02780962],[0.02059295,0.0075035007,-0.00804198]]],"Shape":{"Height":3,"Width":3,"Depth":3}},{"ElementsOneD":null,"ElementsTwoD":null,"ElementsThreeD":[[[0.036692373,-0.011974164,-0.025490476],[-0.028186938,0.009174965,-0.03365493],[-0.016095746,-0.0027858724,-0.0028036921]],[[0.014719826,-0.027209437,0.024880596],[0.028301613,0.015746307,-0.008754545],[0.0018235357,0.030124368,-0.0047897035]],[[-0.03688698,0.034151882,-0.0065663434],[0.021636454,-0.035558347,-0.020386983],[0.027852632,-0.018927388,-0.01842976]]],"Shape":{"Height":3,"Width":3,"Depth":3}},{"ElementsOneD":null,"ElementsTwoD":null,"ElementsThreeD":[[[0.0013164723,0.009760547,0.026286412],[-0.0123763485,-0.03145572,0.031078242],[0.017093642,0.034375932,0.006360509]],[[-0.03203935,0.027363194,0.008637221],[0.0051498413,-0.019790342,-0.030978851],[-0.025989732,-0.012811994,-0.032937903]],[[-0.034881763,-0.01124035,0.00327592],[-0.03426453,-0.023039458,0.005490493],[0.035112314,0.0287158,-0.028817542]]],"Shape":{"Height":3,"Width":3,"Depth":3}},{"ElementsOneD":null,"ElementsTwoD":null,"ElementsThreeD":[[[-0.03405943,0.03149526,0.0039892285],[0.0034342387,0.0019876692,0.02173734],[-0.023791049,-0.0025363322,0.01552471]],[[-0.0047244583,0.007861756,-0.007606153],[-0.018001935,0.018747088,0.020870915],[0.020271076,0.018325713,0.012987976]],[[-0.03287655,0.017441494,0.013118183],[-0.016091442,-0.010520569,0.031367965],[-0.031702075,0.002284911,0.03486875]]],"Shape":{"Height":3,"Width":3,"Depth":3}},{"ElementsOneD":null,"ElementsTwoD":null,"ElementsThreeD":[[[0.004638738,-0.020844102,-0.01830796],[0.019244825,0.035431053,0.012396437],[0.0093983365,0.034625478,0.024688907]],[[0.022590438,-0.011639688,-0.023849526],[0.032920364,-0.016789563,-0.0013533897],[-0.0075421906,-0.024610652,-0.015160223]],[[-0.03087134,-0.027950738,0.022960441],[0.002081646,0.001998323,-0.01682864],[-0.024442395,-0.024145978,0.02448097]]],"Shape":{"Height":3,"Width":3,"Depth":3}},{"ElementsOneD":null,"ElementsTwoD":null,"ElementsThreeD":[[[-0.030737163,0.0008906126,0.033468932],[0.035055414,-0.005199631,0.0030555327],[-0.03148635,-0.0022867918,0.033853106]],[[-0.02416874,-0.03114113,0.033981174],[0.009768592,0.021747867,-0.023577694],[-0.035355456,0.0065270574,0.030765653]],[[-0.028866123,0.00073110615,0.032802705],[0.020254735,0.01451721,0.009048833],[-0.017182712,0.023497207,0.014093191]]],"Shape":{"Height":3,"Width":3,"Depth":3}}],"FilterGradients":[{"ElementsOneD":null,"ElementsTwoD":null,"ElementsThreeD":[[[0.0,0.0,0.0],[0.0,0.0,0.0],[0.0,0.0,0.0]],[[0.0,0.0,0.0],[0.0,0.0,0.0],[0.0,0.0,0.0]],[[0.0,0.0,0.0],[0.0,0.0,0.0],[0.0,0.0,0.0]]],"Shape":{"Height":3,"Width":3,"Depth":3}},{"ElementsOneD":null,"ElementsTwoD":null,"ElementsThreeD":[[[0.0,0.0,0.0],[0.0,0.0,0.0],[0.0,0.0,0.0]],[[0.0,0.0,0.0],[0.0,0.0,0.0],[0.0,0.0,0.0]],[[0.0,0.0,0.0],[0.0,0.0,0.0],[0.0,0.0,0.0]]],"Shape":{"Height":3,"Width":3,"Depth":3}},{"ElementsOneD":null,"ElementsTwoD":null,"ElementsThreeD":[[[0.0,0.0,0.0],[0.0,0.0,0.0],[0.0,0.0,0.0]],[[0.0,0.0,0.0],[0.0,0.0,0.0],[0.0,0.0,0.0]],[[0.0,0.0,0.0],[0.0,0.0,0.0],[0.0,0.0,0.0]]],"Shape":{"Height":3,"Width":3,"Depth":3}},{"ElementsOneD":null,"ElementsTwoD":null,"ElementsThreeD":[[[0.0,0.0,0.0],[0.0,0.0,0.0],[0.0,0.0,0.0]],[[0.0,0.0,0.0],[0.0,0.0,0.0],[0.0,0.0,0.0]],[[0.0,0.0,0.0],[0.0,0.0,0.0],[0.0,0.0,0.0]]],"Shape":{"Height":3,"Width":3,"Depth":3}},{"ElementsOneD":null,"ElementsTwoD":null,"ElementsThreeD":[[[0.0,0.0,0.0],[0.0,0.0,0.0],[0.0,0.0,0.0]],[[0.0,0.0,0.0],[0.0,0.0,0.0],[0.0,0.0,0.0]],[[0.0,0.0,0.0],[0.0,0.0,0.0],[0.0,0.0,0.0]]],"Shape":{"Height":3,"Width":3,"Depth":3}},{"ElementsOneD":null,"ElementsTwoD":null,"ElementsThreeD":[[[0.0,0.0,0.0],[0.0,0.0,0.0],[0.0,0.0,0.0]],[[0.0,0.0,0.0],[0.0,0.0,0.0],[0.0,0.0,0.0]],[[0.0,0.0,0.0],[0.0,0.0,0.0],[0.0,0.0,0.0]]],"Shape":{"Height":3,"Width":3,"Depth":3}},{"ElementsOneD":null,"ElementsTwoD":null,"ElementsThreeD":[[[0.0,0.0,0.0],[0.0,0.0,0.0],[0.0,0.0,0.0]],[[0.0,0.0,0.0],[0.0,0.0,0.0],[0.0,0.0,0.0]],[[0.0,0.0,0.0],[0.0,0.0,0.0],[0.0,0.0,0.0]]],"Shape":{"Height":3,"Width":3,"Depth":3}},{"ElementsOneD":null,"ElementsTwoD":null,"ElementsThreeD":[[[0.0,0.0,0.0],[0.0,0.0,0.0],[0.0,0.0,0.0]],[[0.0,0.0,0.0],[0.0,0.0,0.0],[0.0,0.0,0.0]],[[0.0,0.0,0.0],[0.0,0.0,0.0],[0.0,0.0,0.0]]],"Shape":{"Height":3,"Width":3,"Depth":3}},{"ElementsOneD":null,"ElementsTwoD":null,"ElementsThreeD":[[[0.0,0.0,0.0],[0.0,0.0,0.0],[0.0,0.0,0.0]],[[0.0,0.0,0.0],[0.0,0.0,0.0],[0.0,0.0,0.0]],[[0.0,0.0,0.0],[0.0,0.0,0.0],[0.0,0.0,0.0]]],"Shape":{"Height":3,"Width":3,"Depth":3}},{"ElementsOneD":null,"ElementsTwoD":null,"ElementsThreeD":[[[0.0,0.0,0.0],[0.0,0.0,0.0],[0.0,0.0,0.0]],[[0.0,0.0,0.0],[0.0,0.0,0.0],[0.0,0.0,0.0]],[[0.0,0.0,0.0],[0.0,0.0,0.0],[0.0,0.0,0.0]]],"Shape":{"Height":3,"Width":3,"Depth":3}},{"ElementsOneD":null,"ElementsTwoD":null,"ElementsThreeD":[[[0.0,0.0,0.0],[0.0,0.0,0.0],[0.0,0.0,0.0]],[[0.0,0.0,0.0],[0.0,0.0,0.0],[0.0,0.0,0.0]],[[0.0,0.0,0.0],[0.0,0.0,0.0],[0.0,0.0,0.0]]],"Shape":{"Height":3,"Width":3,"Depth":3}},{"ElementsOneD":null,"ElementsTwoD":null,"ElementsThreeD":[[[0.0,0.0,0.0],[0.0,0.0,0.0],[0.0,0.0,0.0]],[[0.0,0.0,0.0],[0.0,0.0,0.0],[0.0,0.0,0.0]],[[0.0,0.0,0.0],[0.0,0.0,0.0],[0.0,0.0,0.0]]],"Shape":{"Height":3,"Width":3,"Depth":3}},{"ElementsOneD":null,"ElementsTwoD":null,"ElementsThreeD":[[[0.0,0.0,0.0],[0.0,0.0,0.0],[0.0,0.0,0.0]],[[0.0,0.0,0.0],[0.0,0.0,0.0],[0.0,0.0,0.0]],[[0.0,0.0,0.0],[0.0,0.0,0.0],[0.0,0.0,0.0]]],"Shape":{"Height":3,"Width":3,"Depth":3}},{"ElementsOneD":null,"ElementsTwoD":null,"ElementsThreeD":[[[0.0,0.0,0.0],[0.0,0.0,0.0],[0.0,0.0,0.0]],[[0.0,0.0,0.0],[0.0,0.0,0.0],[0.0,0.0,0.0]],[[0.0,0.0,0.0],[0.0,0.0,0.0],[0.0,0.0,0.0]]],"Shape":{"Height":3,"Width":3,"Depth":3}},{"ElementsOneD":null,"ElementsTwoD":null,"ElementsThreeD":[[[0.0,0.0,0.0],[0.0,0.0,0.0],[0.0,0.0,0.0]],[[0.0,0.0,0.0],[0.0,0.0,0.0],[0.0,0.0,0.0]],[[0.0,0.0,0.0],[0.0,0.0,0.0],[0.0,0.0,0.0]]],"Shape":{"Height":3,"Width":3,"Depth":3}},{"ElementsOneD":null,"ElementsTwoD":null,"ElementsThreeD":[[[0.0,0.0,0.0],[0.0,0.0,0.0],[0.0,0.0,0.0]],[[0.0,0.0,0.0],[0.0,0.0,0.0],[0.0,0.0,0.0]],[[0.0,0.0,0.0],[0.0,0.0,0.0],[0.0,0.0,0.0]]],"Shape":{"Height":3,"Width":3,"Depth":3}}],"Bias":{"ElementsOneD":[0.45248652,0.6346507,0.53604543,0.1163224,-0.58793366,0.1177696,0.81205416,-0.115644276,0.95509946,-0.45259106,-0.4161874,-0.06537062,0.26531816,-0.060976267,0.96430254,-0.939266],"ElementsTwoD":null,"ElementsThreeD":null,"Shape":{"Height":16,"Width":0,"Depth":0}},"BiasGradients":{"ElementsOneD":[0.0,0.0,0.0,0.0,0.0,0.0,0.0,0.0,0.0,0.0,0.0,0.0,0.0,0.0,0.0,0.0],"ElementsTwoD":null,"ElementsThreeD":null,"Shape":{"Height":16,"Width":0,"Depth":0}}}},{"LayerType":4,"Dense":null,"Dropout":null,"Flatten":null,"Lstm":null,"MaxPool":{"Shape":{"Height":9,"Width":9,"Depth":16},"Kernel":{"Count":16,"Dim":3},"Stride":2},"Conv":null},{"LayerType":2,"Dense":null,"Dropout":null,"Flatten":{"Shape":{"Height":4,"Width":4,"Depth":16}},"Lstm":null,"MaxPool":null,"Conv":null},{"LayerType":0,"Dense":{"Activation":0,"Shape":{"Height":256,"Width":64,"Depth":0},"Weights":{"ElementsOneD":null,"ElementsTwoD":[[0.21494722,0.6108837,0.30163705,-0.62661797,0.76258147,-0.16970497,0.045981884,0.9416255,-0.8385327,0.084946275,0.6326505,0.47892058,-0.36134583,-0.3722971,0.76334596,0.29444444,-0.9830513,0.07067132,-0.7252445,0.79414964,-0.8485859,-0.9624487,0.72997475,0.94301033,-0.26792175,-0.07920939,0.10004604,-0.5580888,-0.5151273,0.544446,-0.07370764,0.86248636,-0.7334414,-0.17051125,0.1574682,-0.0005802512,-0.775335,0.93296885,-0.4911514,0.22021496,0.111920595,-0.1220445,0.6909032,-0.60552096,0.7402191,0.531289,-0.7581539,0.44705796,0.61523616,-0.063611925,-0.22975498,-0.2387309,0.9494165,0.9026511,0.19763541,0.17739594,0.88090897,0.35862672,0.6413038,-0.1582092,0.7302489,-0.39592934,0.45675266,-0.38297868,-0.84134614,0.77016425,0.21236193,0.80916536,0.47023475,-0.23607379,0.069779515,-0.91602015,-0.4381773,0.054540396,-0.31777096,0.2734586,-0.6533519,0.3354957,-0.79720885,0.20078921,-0.3210554,0.6529881,-0.173325,0.5484847,-0.22579902,-0.83497673,0.9130697,-0.63609254,0.63185334,0.98007226,0.11851072,-0.13396174,-0.708335,0.66705775,0.48996603,-0.49215007,0.42120278,0.073881865,-0.7641749,0.970055,-0.68107295,-0.56731933,0.9768232,-0.14868999,0.8666086,-0.31373483,-0.80055356,-0.10512388,0.22042215,0.9241768,-0.16925216,-0.45458668,0.15583563,-0.55948544,-0.8371538,-0.92273915,0.7773956,0.9082681,0.8428204,0.99363065,0.8570944,-0.15154552,-0.822688,0.4901626,0.6454154,-0.7962588,0.7923149,-0.1052351,0.56457436,-0.8256209,0.8522558,0.27276623,0.09967065,-0.76726377,-0.118137896,-0.7537361,0.67616487,0.97536504,0.68187594,-0.9120642,0.9655769,0.018193722,0.14348543,0.70767653,0.1493243,-0.4269026,0.7102026,0.8511504,0.50421154,0.41270518,-0.26954573,0.5129347,0.23106146,-0.75780547,-0.8870395,0.47047257,-0.7446314,-0.5133393,0.20589447,0.6628674,-0.10604966,0.30468154,0.33030176,0.04604304,-0.928079,0.5579817,0.44574273,-0.0769006,0.5586524,0.91658235,-0.598904,0.8020307,-0.7736079,0.7548846,-0.97194624,-0.16109926,0.70496905,-0.5303645,-0.6591618,0.07231808,-0.5064614,0.9411644,0.39055336,-0.8481309,0.44392478,-0.66067886,-0.9582953,-0.14252394,-0.8802243,0.41138947,0.9908953,0.18950415,-0.23052955,-0.9809914,0.19398546,-0.33910465,0.68789196,-0.9025576,0.63575554,0.5913427,0.12735474,-0.21289676,-0.707502,0.5876292,0.011609197,-0.07157636,0.28654265,0.47617698,-0.7858593,0.27405977,0.7655035,0.7857331,-0.85417753,-0.8664235,0.16932881,-0.04721409,0.9141282,0.17843258,0.60211813,0.73259985,0.51627696,-0.4117334,-0.19667631,-0.85273707,0.92568696,0.21159184,0.03256023,-0.7926165,-0.43910092,0.3671584,0.15100884,0.6075268,-0.16612005,-0.25050443,0.94496334,0.7064353,0.6486664,0.80292416,0.14025986,-0.4844988,0.052778482,-0.4344722,-0.35666466,-0.15428412,0.64588606,-0.7948378,0.04368174,-0.364106,-0.15032023,-0.7588004,-0.25323278,-0.49054068,-0.5046758,0.9031557,-0.9249343,-0.46091193],[0.98377955,-0.85476494,0.66194224,0.80001736,0.8958634,0.07915914,-0.08472216,-0.1530177,-0.876949,-0.8420232,-0.048146844,0.3963269,-0.8113868,0.4628935,0.30411947,-0.888796,-0.9618273,0.08661699,-0.32017857,-0.04925078,0.94493127,0.95760775,-0.49862307,0.7205248,-0.8320899,-0.60333383,0.3577037,-0.6803005,-0.37960875,-0.35845047,0.112202525,-0.06927574,-0.32557017,0.4058752,0.7226558,0.50343144,-0.8590182,0.3402425,-0.3803622,0.9736192,0.65024996,0.7963531,-0.27733505,0.4879092,0.25330913,0.64735484,-0.5527191,0.38678634,-0.062919915,-0.36443686,-0.52871346,0.40870726,0.2233342,0.124316454,-0.4058432,-0.97382826,0.6438581,0.9414176,0.63210726,0.49919724,0.72145545,-0.4044217,-0.77340895,0.48150146,0.04577422,-0.9788711,-0.27810293,-0.21726209,0.7402376,0.80068815,0.97022223,-0.30206972,-0.5330208,-0.29379785,0.3004992,-0.8514218,0.23494291,0.0134676695,-0.53278434,-0.47944468,0.9493853,0.97091734,0.38261938,0.9848281,-0.82973707,0.70349526,0.70739007,0.5501133,-0.18828154,0.6964841,0.85957325,-0.8004357,0.7081351,0.12044048,-0.74783623,0.054671645,0.569762,0.24116349,-0.557865,0.23218024,-0.074542284,0.66454303,0.64654875,0.136392,-0.33465904,0.7733563,-0.058271945,-0.4828679,0.82381725,-0.5544214,-0.20877111,-0.3696096,0.47420192,0.111552,0.54981196,0.7505381,0.21295893,-0.758237,0.31123853,0.34227896,-0.6862612,0.17178369,0.9710194,-0.9562465,0.9411148,0.7706579,-0.010204911,0.34653866,-0.5459616,-0.7541724,-0.42118382,0.9937794,-0.4286673,0.23503542,0.59509754,-0.7151577,-0.6756313,-0.7537726,0.3194871,-0.6030933,-0.23823273,0.1902579,0.72629607,-0.6338601,-0.09474474,0.22918284,-0.27463758,-0.4034168,0.5706285,-0.49837428,0.8417127,0.32799911,0.92992496,0.09985602,-0.081558585,0.75367403,0.6935235,0.6027951,0.19527721,-0.10531694,-0.21643877,0.59518933,-0.9369063,0.5779896,0.8667624,-0.20255053,-0.9409423,-0.7608336,0.51645446,0.2649697,0.4261694,-0.03326851,-0.07772416,-0.085668206,-0.41948837,0.123480916,0.44548762,0.6048796,0.1384983,-0.288068,0.045295477,-0.6067881,0.77591014,0.9524126,-0.5958851,0.25081718,-0.9361456,0.47147667,-0.68340594,0.8414235,-0.4086812,-0.27842647,0.05095017,-0.5751959,0.6133455,0.16657794,0.12716424,-0.8516935,-0.5006225,-0.8921943,0.17012513,-0.51380396,0.08012879,-0.6943412,0.07545626,-0.12501878,-0.5942768,0.015593171,-0.4806556,0.7949605,-0.6918135,-0.91135603,-0.5357031,-0.5166548,0.8493875,-0.60965073,0.8192792,-0.8893189,0.17387474,-0.38405472,-0.26640487,-0.41241896,0.9225724,0.67503095,-0.32634914,-0.29540408,0.91578126,-0.50252825,0.3009864,0.41393363,0.9963167,0.29718113,0.10550213,0.030692577,0.5418068,-0.4409005,0.31308317,0.47025132,-0.12304366,0.5291337,-0.1549061,0.048261166,-0.047867715,-0.47836643,0.5332371,-0.49732518,-0.74272335,-0.43239498,-0.42458344,0.22299612,0.34729886,0.016483068,-0.025568247,0.88343215,0.3742106,-0.4174559],[-0.43637633,0.40509784,0.63200796,-0.62913966,-0.040800035,0.9082515,0.71460676,0.105410695,0.79864395,0.011005402,-0.01685816,0.43360436,-0.058461666,0.2902881,0.0772661,-0.6509722,0.23372471,0.64474106,0.7708514,0.68533397,0.6354488,0.40093875,-0.85820615,-0.8290239,-0.55268073,0.34817624,0.92205524,-0.92200977,-0.9333651,-0.020166516,-0.6772506,0.22206998,0.65648186,-0.04073721,0.99547577,0.9079853,0.83824337,-0.49390405,-0.4300663,-0.06315756,0.3336544,0.84672153,-0.27701038,-0.47776836,0.5195329,-0.1763277,0.6260667,0.28512847,-0.85427,-0.0017290115,0.78275836,0.3296907,-0.88741916,0.68887675,-0.052904725,0.16268492,0.263304,0.4610319,0.92354107,0.61102366,0.9861963,0.6366166,0.0387758,-0.1811896,-0.31174397,0.7610719,0.7771225,0.9822755,0.29481232,0.16928089,-0.48921555,-0.27237123,0.074807405,-0.16599107,-0.64832044,0.78872716,-0.32205087,0.61956215,-0.34855688,0.623647,0.72210956,-0.36307323,0.93226016,0.068363905,0.19707513,-0.0069413185,0.10948908,0.9676051,-0.9878325,-0.16720915,-0.35531873,-0.62278855,-0.41744512,-0.04109001,-0.049353838,0.6970377,-0.19205427,0.9041792,0.8339757,0.758461,0.046549797,0.6437912,0.99031615,-0.023550868,-0.5125134,0.055129528,-0.7451167,0.27857184,0.33719718,0.15836811,-0.5152643,0.64374185,-0.19041121,-0.7001059,0.8889141,0.3492695,0.70435643,0.970412,0.6217352,0.69519734,-0.34841722,0.80951726,0.97010803,-0.5379786,-0.47540045,-0.866427,-0.8549261,-0.8841026,0.88336277,-0.3453582,-0.019218504,-0.22623008,0.7855866,-0.107017934,-0.42290282,-0.9216816,-0.35338944,-0.044188917,-0.4191227,-0.8580544,-0.2618246,0.83091724,-0.369592,-0.1462006,-0.6519449,0.0009394884,0.56762266,-0.7173392,0.06999588,0.60137665,0.9926814,-0.16246623,-0.717556,-0.8612218,0.10687828,0.23703253,0.67368317,0.5282948,-0.5481504,-0.64608645,-0.08994436,-0.8610141,0.39520907,-0.31744462,-0.8224134,0.7109659,0.85815525,0.91660666,0.7227969,0.81059575,-0.29734105,-0.25145465,0.3895347,0.4797896,-0.04297799,-0.17933446,0.17910933,0.11630857,-0.8860337,0.52366006,-0.43404973,0.86241317,0.045901537,-0.7180139,-0.33803958,-0.8567523,-0.50867414,0.6468084,0.78610384,0.34006464,-0.59536475,0.118315816,-0.4960385,-0.7730363,0.23188996,-0.40081054,-0.56429183,0.9478526,-0.3237872,-0.36291075,0.14278424,0.651016,-0.44013613,0.25940013,-0.1012823,0.24413598,0.44799912,-0.19734567,0.18175626,-0.71378726,-0.94207674,-0.4426254,0.41432846,-0.07181054,0.7879633,0.04764259,0.093084335,0.11322296,-0.97940505,-0.9656611,0.21964002,-0.78865314,-0.86949706,-0.6172677,0.40596044,0.5843431,-0.75541615,0.16257095,-0.7521002,-0.64216745,-0.6150426,0.23125672,-0.5599042,0.47687697,-0.6191242,-0.08506572,0.30254924,0.7865014,0.38326836,0.4178245,-0.3047514,0.68867147,-0.5349479,0.49989104,0.28214133,0.8472607,0.70398736,0.57577205,-0.56099963,-0.8157526,0.50610507,0.3224852,0.92725766,-0.3581261,0.41744924,-0.06856263],[0.52051306,-0.82286847,0.8534397,0.31437457,-0.0004478693,-0.71457183,-0.4452454,-0.1760763,0.90125537,-0.17333347,-0.8827212,0.9374515,-0.45268637,-0.12697095,0.7450932,0.30658293,0.7299546,-0.39722955,0.33909035,0.5309684,0.74629474,-0.36938816,0.100590944,0.55869985,0.8803557,-0.33118814,-0.27642947,-0.9363476,-0.14827257,0.062472224,0.30399907,0.7982218,-0.94057226,0.44943845,0.39442122,0.12541771,0.9330617,-0.9311062,-0.5817276,-0.5901795,0.13391697,0.6411284,0.5986357,-0.54452515,0.7299819,0.766536,0.028458357,0.5659714,-0.5608459,-0.8004778,0.5925306,0.3244872,0.3027836,0.8864808,0.18514264,-0.11009878,0.07654059,-0.70526016,0.43401885,-0.6692598,0.5618576,-0.5088978,0.97219634,-0.16121686,0.5226675,-0.680943,0.8780236,0.09787524,0.4786079,-0.38032442,0.3735212,0.6610608,-0.8155019,-0.07073021,-0.6029484,-0.8948337,0.031976223,-0.3548839,0.82871795,-0.8861802,0.64035356,0.15759921,0.62449825,-0.34779477,0.46994162,0.97951186,-0.5045617,-0.827053,-0.7357042,-0.49548006,-0.95112294,0.6383219,-0.36512512,-0.9124679,-0.15203708,-0.35718524,0.6689321,-0.24014747,-0.06719267,0.4109249,0.88851225,0.93058324,-0.9126365,0.8194785,-0.17399901,0.9314698,0.13998914,-0.6264862,0.48942924,0.07997632,0.85792506,-0.5685755,-0.5339781,0.32019913,-0.3096133,-0.5957416,-0.13339609,0.3199911,0.36884153,0.54315567,0.82361865,0.7050767,-0.16642064,-0.025912046,-0.42920148,0.7351992,0.02618587,-0.90303403,-0.9186931,0.7542368,-0.56376576,-0.72787637,0.71230876,-0.58220696,-0.7746925,0.7097703,0.07023573,0.80501974,0.8262042,0.5384718,-0.16047728,-0.87807554,-0.3164823,0.1843195,-0.35340512,0.6174526,0.1723001,0.3146758,0.3971454,-0.5562955,0.7762109,-0.651059,0.391011,0.38965166,0.58730626,-0.81656444,0.09700382,0.11327553,0.24868,0.090801716,-0.09471607,0.04302311,-0.70779306,0.73519254,-0.35625792,0.58580136,-0.2808842,-0.95177114,0.09489155,-0.01938361,0.33402276,0.061584115,0.4937868,0.8303697,-0.2963671,0.70169425,0.021559,0.6492598,-0.6725069,-0.046654046,-0.43710077,0.71151006,-0.30017942,0.6376023,0.9780259,-0.91270685,-0.118887365,-0.67734295,-0.16951317,-0.9581281,-0.3872335,0.9569601,-0.44366026,-0.26459754,-0.3668121,0.7964996,0.8297175,-0.051674783,-0.45942253,0.06079352,-0.10166323,0.12407124,-0.7802158,-0.58347106,0.109681845,-0.2853732,-0.14484584,0.5606413,-0.31398124,0.885612,0.16187656,0.447744,-0.21421748,-0.7046659,-0.47209746,0.19377387,-0.65679747,-0.34539545,0.7571665,-0.44355112,-0.29531127,-0.60354125,0.21774197,0.053019643,-0.63215005,0.37706256,-0.4947557,-0.2416156,0.19718182,-0.09286672,0.87197673,-0.9267662,0.108682394,0.26669955,-0.9449909,0.438828,0.4917258,-0.7167084,-0.47207946,0.26339912,0.23213899,0.3204714,0.6366383,-0.055125177,-0.12000471,0.16502249,0.17117763,-0.73899436,-0.7925001,0.43941402,0.45329714,0.17511296,0.19115865,0.9841286,-0.64389527,-0.49812198],[0.90632915,0.1667645,-0.95132095,0.73261917,-0.7906176,-0.90323025,-0.63654065,0.7788855,-0.98636466,0.088642836,-0.6609383,0.5190829,-0.759675,0.08907461,0.70204806,-0.9400891,-0.873316,-0.5062326,0.32430995,0.38421738,-0.24017948,-0.7271328,-0.82697564,0.20282745,-0.794115,-0.7557613,-0.4491155,0.7577679,0.4538362,-0.3031363,-0.11792487,0.1245538,-0.08940512,0.5531311,0.53249884,-0.6750387,-0.7653874,-0.20469868,0.05401671,0.13536918,-0.042987943,0.8577528,-0.068760514,0.7913525,-0.17403924,0.6520947,-0.9793193,0.11842537,0.73736596,0.39338624,0.048428893,-0.30260873,-0.3401813,-0.02811265,0.74205756,0.63346195,-0.006259799,-0.1541484,0.52673423,0.9651438,0.5458853,-0.3943085,-0.67495066,0.31677163,-0.7934323,0.21450794,-0.39151198,-0.3128062,0.5565758,0.37708676,0.8252983,0.33138263,0.43975067,-0.81105936,-0.5727947,-0.09793222,0.34162772,-0.6183281,-0.6231333,-0.44620973,-0.77644205,0.43245912,-0.9795981,-0.93955004,0.64843476,-0.81531614,-0.5352649,0.9387075,0.81107354,0.89903677,0.3312211,0.38876104,0.2685671,0.08887291,0.589484,-0.64867944,0.5327034,0.61446786,0.58478475,0.6114528,0.043606758,0.3334869,0.5618496,-0.63972074,0.56808794,0.71704626,0.2576406,-0.529122,-0.4553179,-0.16001022,-0.7081657,-0.3879317,-0.53101516,-0.027056038,0.74158585,-0.8865738,-0.41471046,-0.7354007,0.66833675,-0.97811615,-0.25022715,-0.3302195,-0.12387973,0.657539,-0.9541344,-0.5634627,-0.93718445,-0.64912224,-0.40054327,-0.92411524,0.36936438,0.72715974,-0.2031129,-0.23458612,0.5101836,-0.109928966,0.8706095,0.66012263,-0.5076379,0.9313886,-0.07295674,0.993857,0.39402544,-0.02891624,0.60720253,-0.28084713,-0.08022392,-0.7043768,0.34728706,0.47605777,0.766031,0.26810408,0.9461311,0.5629009,-0.13831997,-0.6261738,-0.5426334,0.9043106,-0.68558633,0.13155055,0.6542307,-0.09323716,0.87142134,-0.5312027,0.4706254,-0.4353255,0.81518126,0.7035711,0.46276045,-0.14848518,-0.7571834,-0.074833095,0.7722373,0.73694825,0.094840646,-0.24408424,0.27575505,0.90503645,-0.9496635,0.32671273,0.5167612,0.76719236,0.003590703,0.1233989,-0.6901462,-0.8987397,0.7810286,0.23398614,0.90373385,0.1363573,-0.56729555,0.96629894,0.34570897,0.3608116,-0.7228421,-0.9797196,-0.87756425,-0.07477188,0.50045836,0.042528033,-0.09602839,0.21620512,-0.16713727,-0.50422776,0.23324108,-0.15913594,0.49586678,-0.7908171,-0.5319397,-0.89423573,0.0980711,-0.44766986,0.8539741,-0.012299061,0.61478937,0.88703823,0.90317225,-0.25197762,-0.84105647,0.36936522,-0.21635413,-0.41880494,0.79983723,-0.673597,-0.58118963,-0.72348225,0.5794579,-0.5885743,0.45979035,0.074560165,-0.36652,-0.6494731,-0.5954218,0.007808566,-0.57725894,-0.6994438,-0.06567037,-0.4921816,0.8901578,0.4689896,-0.39460647,0.57184577,-0.23407412,0.7979696,-0.9617138,0.8803743,-0.88767517,-0.641992,0.7460222,-0.6098803,-0.8828918,0.37441337,-0.23371542,-0.86890686,-0.74111784,-0.6772234],[0.4163679,-0.4935403,-0.9230381,-0.043276608,0.26140618,0.084441066,-0.25060743,0.3935001,0.4722842,-0.25245577,-0.8522481,-0.1538344,-0.43504018,0.31423318,-0.047291398,0.3953538,-0.1421355,-0.31004614,-0.23602837,0.2118001,0.8152691,-0.9981324,-0.7118831,-0.46156394,-0.8358071,0.22144985,-0.33459646,0.06967068,-0.042548,0.25906658,0.58424234,-0.726515,-0.2510736,-0.9000355,-0.115811765,-0.5721301,-0.56914353,-0.06656557,-0.7924165,0.52095246,-0.1775468,0.3724258,-0.6743146,0.29074192,0.7326224,0.26615918,0.79304826,-0.56821096,0.43741107,-0.27824563,-0.48345113,-0.92366934,0.36712158,0.047082067,-0.49249256,0.41450036,-0.78165716,0.5385258,-0.20746952,-0.96004367,-0.58096254,0.67972183,-0.5639519,-0.7867824,0.16330183,0.874267,-0.9027608,-0.5350046,-0.5699551,-0.4751613,-0.035502672,0.92443,-0.5176296,0.2430191,-0.6106531,-0.55715656,0.67618215,-0.0026251078,-0.19418627,-0.10196632,0.4284016,-0.76638556,0.6322597,-0.7643024,-0.2574823,0.5079117,-0.09363651,0.70184433,0.59245706,0.46968794,-0.79047287,-0.107669294,-0.85909605,-0.83237284,0.101915,0.14273131,-0.063622355,-0.8875322,-0.8725599,0.8583554,0.16892004,0.32805288,-0.99825585,-0.087427676,0.757257,-0.40788114,0.5939603,-0.8758976,-0.34226483,-0.935336,0.7383181,0.22096789,-0.2672879,0.8944968,-0.38844526,-0.814577,-0.95253783,-0.79964954,0.4706999,0.65539014,-0.032096505,-0.60460514,-0.12746167,-0.03964305,-0.68468845,-0.9278333,0.78352606,-0.6852567,-0.8588959,0.24661553,0.5064658,0.5637144,-0.13006526,-0.052541673,0.7291137,-0.8996512,-0.7681297,-0.28031266,-0.52155936,-0.84960115,0.9139514,-0.21773893,0.044109225,0.52779305,0.73136985,-0.011440814,-0.8403814,-0.7535928,0.5560725,-0.083508015,0.095269084,-0.26397282,-0.35823202,-0.52795005,-0.10954809,-0.22647482,-0.54448545,0.0413872,-0.40273917,0.6850904,-0.1914072,0.279217,0.9829984,0.41111958,-0.44180173,-0.8253963,-0.6489668,0.78525376,-0.8346169,-0.48879403,0.9535527,0.32777488,0.7219099,0.32030094,0.74143875,-0.8143576,0.3512857,0.34474528,0.2289871,0.3267523,0.91254807,0.5371189,-0.2413292,0.22461212,-0.84865355,-0.22956145,-0.07805359,-0.6021152,-0.9429936,-0.04441148,0.64483416,0.1904831,-0.8775735,-0.20664978,0.34180605,-0.36526555,-0.20073724,0.63298965,-0.030405283,0.55676615,-0.36247396,-0.62563515,-0.9189759,0.044866443,-0.037060738,0.7674943,0.01411736,0.32146704,-0.26938874,-0.2951905,0.42223942,0.11076927,0.8124,0.27050853,0.77254236,0.27147388,-0.47945386,-0.2416138,0.25977314,0.78775966,0.2526573,0.95314837,0.7282473,0.20979464,-0.13362825,-0.23693043,0.20534837,-0.0714404,0.9784949,0.106704235,0.38637972,0.71829605,-0.62484944,0.67222106,-0.31077367,0.5381832,0.45609474,0.71380436,-0.73832715,-0.6161478,0.7563212,0.6004795,0.6672735,0.35219693,0.53334904,-0.46593505,0.3780831,-0.14808196,0.020807862,-0.92966783,-0.88581175,-0.95912343,-0.62678355,0.18183506,-0.6958912,-0.3156224],[-0.3538825,-0.12877053,-0.82150525,-0.8001303,-0.43785405,-0.91444224,0.34297216,0.62390697,0.31842983,0.7039434,-0.26438135,-0.85982096,-0.41871786,-0.76564085,0.81537914,-0.19325817,-0.5032867,-0.12407905,-0.9685615,0.65217793,-0.7141251,-0.62394965,0.6764456,-0.66769326,0.38498652,-0.6465697,0.9077517,0.9081627,-0.007484019,0.3455031,0.34507966,0.1933155,0.3681122,-0.9951513,-0.107934356,-0.41513473,0.5353097,-0.9381968,0.8217063,0.6707634,-0.7424927,-0.9566335,-0.96623284,0.82940567,0.7984463,0.23790407,-0.7293641,-0.21355122,-0.745047,0.30744648,0.5441632,0.4972955,0.15039647,-0.34806907,-0.6014973,-0.72993284,0.19478393,0.84618795,-0.18511683,-0.7912844,-0.822194,0.43480945,-0.368609,0.9729266,-0.6411363,0.5423031,-0.22793317,-0.42356658,0.3422935,0.23051393,0.27143216,-0.56508994,0.054214716,-0.6393249,0.3946706,-0.7574916,-0.6577168,0.84703994,-0.4661395,-0.8529176,-0.9172056,0.12130296,0.6532097,0.68506956,0.80133986,0.84778416,-0.95708096,-0.28381872,0.606346,-0.3780015,0.3900813,0.6891217,0.24691999,0.6129906,0.49295735,-0.17730212,0.4119755,-0.93915945,0.47054195,-0.74385685,-0.53416276,0.6942024,0.44415534,0.024439216,-0.96398574,0.10925317,-0.5569191,-0.21027863,0.25726032,-0.8440057,0.92778397,0.347744,0.3123275,-0.33219922,-0.8740788,0.056503057,0.78159976,-0.053678572,-0.82841325,-0.4889204,0.49938405,-0.9441145,-0.02991265,-0.27970505,0.8404325,0.58231044,0.18799007,0.44122398,-0.13228232,-0.42802727,-0.16946709,-0.71855736,-0.623502,-0.72228265,0.6812451,-0.61140805,0.6771476,-0.37122953,0.64905524,-0.3079133,0.40470326,0.25319767,0.45892096,0.45035172,-0.30578548,-0.9576627,-0.6232058,-0.4208808,0.4870695,-0.5635457,0.041098,-0.534346,0.88925385,-0.040537715,-0.2432409,-0.59004825,-0.27588493,-0.27613962,0.18400657,-0.54629624,0.9212631,0.0018569231,0.9220036,-0.31471235,0.3254614,0.6463413,-0.028753996,0.034610152,-0.0134443045,0.73732924,0.37935543,0.15282929,0.29726613,0.47950006,0.10637641,-0.7538136,-0.4030354,0.5197356,-0.9739196,0.7980952,0.20551622,-0.39112914,0.9541545,-0.5687366,0.5308747,-0.6351211,-0.6078112,0.4170357,0.5209583,0.2712934,0.6644769,-0.046712756,0.4447639,0.19535148,-0.2291764,-0.59715366,0.33119404,-0.2263667,-0.8751096,0.04787314,0.071091294,0.3421842,0.5925635,0.74974024,0.057098866,0.8882687,0.16838789,-0.5902462,0.8530859,-0.48942733,0.8129872,0.20437944,-0.30222005,0.38591135,0.24818754,0.31239223,0.047702312,0.4907403,0.15441298,-0.039417505,0.25415254,0.5542103,0.51365185,0.7152623,-0.92714757,-0.5739318,0.7080655,-0.8980853,-0.29132354,-0.29647,-0.08500761,0.82333124,0.39484525,-0.02179271,-0.27299613,0.86333215,0.016307235,-0.79558563,0.37416458,0.6426059,0.196491,0.982435,0.5639498,0.0103856325,0.4583062,-0.5399026,-0.74449265,-0.94114757,0.94716394,0.45843136,0.35514402,0.84045374,0.6192204,0.16430795,0.7937206,0.516881],[0.82853234,0.8773012,0.67688775,-0.36896932,-0.81979674,0.06647313,0.70107734,0.14955592,0.59558034,0.98965585,0.8095343,0.71957266,-0.34109247,0.3848554,-0.703915,-0.156712,-0.8834242,0.51180696,0.7640915,0.27171755,0.9902605,-0.49673378,-0.7430439,0.61275506,-0.82943916,0.64921296,-0.84524924,0.2502451,0.34838593,0.07453871,-0.795889,-0.7694627,0.18448675,0.21012294,-0.9652002,0.13900602,-0.47247344,-0.25686616,0.4624027,-0.8699821,-0.71864235,-0.5856061,0.4148053,0.46865034,-0.34943694,-0.4640653,0.3999449,-0.43769145,0.16234636,-0.48814398,0.7238779,-0.89258665,0.40021646,-0.47799695,0.5266205,0.32526612,0.6203451,-0.9358673,-0.53953016,-0.46900976,-0.08827764,-0.54916775,0.8011699,-0.47895837,0.7855449,0.578997,-0.46491408,0.4487846,0.35005558,0.15707898,-0.68423855,0.37344193,-0.95059574,0.6340736,-0.009640157,0.5758666,0.08846092,-0.21169418,-0.037808,0.63462615,-0.75073195,0.5924423,-0.9121012,-0.16347003,0.35066068,-0.9033024,-0.16967916,-0.3375163,0.68350244,-0.29046625,0.5186609,-0.5366062,-0.717336,-0.06858754,0.21829545,0.8305254,-0.38677597,-0.10623634,0.68310535,0.071566105,-0.99915123,0.9511603,0.21225297,-0.9947326,-0.80390537,-0.6495639,-0.941991,0.76614285,0.53164315,0.9507539,-0.7631949,-0.1679607,0.10194075,-0.17415631,-0.7182778,0.31928015,-0.63706654,-0.03536004,0.17038095,0.6888473,-0.25132382,0.8726022,0.7652823,-0.35947818,0.6384181,0.85236764,0.090777874,0.117991805,-0.58422184,0.15983438,-0.03735745,-0.8053027,0.10520041,0.89062595,0.6337774,-0.70189226,-0.6198107,-0.9173686,-0.35956466,0.0002245903,-0.9613114,0.06417799,0.13084054,0.7327485,-0.5272714,-0.3133784,0.36145306,0.45682025,-0.35030973,0.8990153,0.467592,0.6485841,0.7233827,0.99425817,-0.6771101,-0.87175345,-0.8141219,-0.4282689,-0.63315064,-0.656273,0.2596581,-0.059982777,0.35036469,-0.62819123,-0.011888623,-0.9578922,0.72683895,0.2113148,0.19206643,0.98361444,-0.060909152,-0.71969795,-0.6757954,-0.8298437,0.65015864,0.6844982,-0.25823826,-0.96746624,-0.8322068,-0.048203588,-0.50908554,0.6339576,-0.53169847,-0.48323715,0.6922424,0.31405842,-0.5286854,0.110942245,0.567736,0.5055307,-0.88777035,0.8084582,0.71578205,-0.70329165,0.7405665,0.09867144,0.7138134,-0.24096829,-0.25536293,-0.56937915,-0.04021728,-0.84986174,-0.73524606,-0.33392423,-0.0400756,0.18728995,0.32437944,0.5532265,-0.65590054,-0.36160827,0.38648486,-0.84665567,-0.59606206,0.4150529,0.8528125,0.6257006,-0.5282844,-0.16639823,-0.32043362,0.67405283,0.57079315,-0.38410342,0.64357877,0.6865356,0.87138486,0.13063276,-0.43547994,-0.9725037,-0.5704102,-0.44851273,0.97068477,0.98273003,0.28789663,0.73717237,0.9920137,-0.6592238,0.3692037,0.8022258,0.5568384,-0.4950475,0.989679,-0.0819118,-0.23315716,-0.0706557,-0.880954,0.9588853,0.40452027,-0.6992709,-0.5561042,-0.88513404,-0.37304425,-0.11978835,-0.9205347,0.07058418,-0.14017236,-0.65611386],[-0.4934405,-0.42178172,-0.2053091,0.8292917,-0.3772301,0.29688323,0.1236366,0.7926122,-0.3322931,0.40375483,-0.13455236,-0.33323443,0.4230392,0.5120363,-0.7435032,-0.33051014,0.27676332,-0.8253861,0.68437386,-0.347295,0.84905374,-0.28576553,0.5674896,0.91249955,0.7261125,-0.73620903,0.5836004,-0.68527615,0.92453146,0.090473175,0.90326464,-0.78268754,-0.12265527,0.64812756,0.8342167,-0.20901453,0.0075348616,0.7275467,0.8821826,-0.3072042,0.7944516,-0.025769353,-0.73836255,-0.28470886,0.09343767,-0.2622453,-0.12231016,-0.06814045,0.8583691,0.9574659,0.6034483,0.90485144,0.38621032,-0.79287744,-0.5051676,0.792325,0.010728598,-0.11780864,-0.8968207,-0.6410211,0.7132827,-0.19108725,0.86808074,0.5772337,0.50049007,-0.35186487,0.78942084,0.77491164,0.6778195,0.46551132,0.661955,0.5492165,-0.7075687,-0.008421898,-0.14174658,-0.1251769,-0.5474029,-0.14780146,-0.18093812,-0.011642218,0.38610113,-0.3482591,-0.54364526,0.9670656,0.4870249,0.9984132,-0.16889781,-0.32977784,0.15329516,-0.95810825,0.78025687,-0.87465656,0.6243675,0.5232036,-0.02048695,-0.01446116,0.10614991,-0.31559634,0.21480107,-0.55469745,-0.05166614,0.1027782,0.25404,-0.6071422,-0.70448905,-0.94576824,0.6124202,-0.6053678,0.3488692,0.6200093,0.33972788,-0.8414699,-0.93687046,0.11482155,-0.02712214,0.061541915,-0.647442,0.90101516,-0.9097911,0.50207686,0.81703293,0.11919868,-0.37838352,0.6359277,0.68525445,0.53661156,0.92484915,-0.23077238,-0.987935,0.87271464,0.7686732,0.76819336,0.6373974,-0.62624073,-0.9599761,-0.71667707,0.3977008,-0.93650305,0.6715547,0.43279314,-0.6140069,-0.5635301,0.32135296,0.533286,-0.29783612,0.62172675,-0.93778604,-0.49045402,-0.4496742,0.91797113,-0.36701918,0.20513487,-0.40580517,0.7127242,-0.3717304,0.8291352,-0.5188383,0.6181123,-0.29239672,-0.24110055,-0.87061733,-0.15680748,-0.61743283,0.47615457,0.8513361,0.5715345,-0.47886735,0.6893703,0.07479763,-0.31044507,0.663841,-0.71093893,-0.7705395,-0.3425842,0.11608374,0.38056302,0.7978457,0.08833051,-0.06623614,-0.93647224,0.47439754,0.4153031,-0.7810982,-0.9059062,0.2397337,-0.4364617,0.1739986,0.9246732,0.7454897,-0.78911126,0.8021612,0.77958846,0.35589373,-0.087344825,0.3034104,0.54280055,-0.94609725,0.8451984,0.68194985,0.1306293,0.10059416,-0.62715626,0.4347484,0.86077094,-0.7458699,-0.6560802,-0.024325669,0.936779,-0.40335947,0.24770665,-0.96871054,0.3928312,-0.31565154,-0.3559245,0.2845019,-0.2859205,-0.3757093,-0.71152663,-0.7635792,0.2877978,-0.6024641,-0.40354055,0.94388056,-0.13609111,-0.11260623,0.88425255,-0.06683266,0.31680524,0.35400534,0.5732831,0.32666028,0.9526473,0.40638065,0.80313456,-0.0370664,0.1015538,0.9805548,-0.64186907,0.8399637,-0.10418606,0.58786404,0.23721957,0.32803273,-0.50221694,-0.8204008,-0.59067005,0.095240116,-0.28818184,0.6281533,-0.4106691,-0.08149016,0.7654294,0.60877764,-0.60584795,-0.26690662,-0.4958653],[-0.5710368,-0.42916054,-0.026622891,-0.6301224,0.41075242,0.658869,-0.41722637,0.023357391,0.9210464,-0.9213578,0.98645055,-0.1187861,0.68114185,-0.817052,-0.26647526,-0.7338402,-0.5514903,0.34060693,0.69993377,0.16031635,0.26842678,0.4460975,-0.31569034,-0.5219362,-0.21098751,-0.7786508,0.6886519,-0.23532557,-0.3452267,0.5612309,-0.6561303,0.012228608,0.07004118,-0.5412011,-0.32740933,0.4097153,0.38475382,0.4700861,0.4850614,0.928995,-0.34555405,-0.69532466,-0.4232633,-0.89904296,-0.57712066,-0.7859738,0.030676246,0.44520533,0.85580623,-0.34764993,0.31691968,-0.7318293,-0.30578172,0.57277703,0.235708,-0.017134368,0.8865298,-0.5046867,0.58086514,0.1894033,0.9702171,0.81809926,-0.6314159,-0.6401845,0.73477256,-0.025777996,0.8111727,0.22234297,0.51035726,0.3238094,-0.11859399,-0.021576405,0.8555454,0.7709389,-0.49412954,-0.036248624,-0.1306392,-0.41664737,-0.9448155,-0.42501372,0.19067287,-0.75655335,-0.09113175,-0.9975768,-0.7556888,-0.9243011,-0.68198967,0.49726415,0.22309089,0.68972504,0.5231855,-0.11055946,0.88922095,-0.7043418,0.9587779,-0.16365325,0.9360912,-0.7830788,-0.6338155,0.4486574,-0.5971465,0.8083333,0.93484807,-0.4680032,0.770944,-0.6615039,-0.5873747,-0.076720536,0.06690657,-0.72804344,-0.8864952,0.30317724,-0.5598712,0.005878806,0.9987304,0.7267704,-0.09076905,-0.63383913,-0.8844957,0.6590737,-0.34378833,-0.68609154,0.9992521,0.8206322,0.8006239,0.99196553,0.08920264,0.5598873,0.81216097,0.6695237,0.027660131,-0.3475604,-0.78283185,-0.3934729,-0.82786715,0.3823396,-0.69140136,-0.62312853,-0.76852083,0.9058151,0.66307354,0.3947308,-0.56964236,-0.048865616,0.57622015,-0.7799917,-0.55068827,-0.11665791,-0.7030722,-0.7679926,0.9271158,0.5699303,-0.8985831,-0.29288918,-0.20755434,-0.911055,0.8090812,-0.88578427,-0.26862717,0.7789786,0.24929333,-0.14726192,0.111118555,0.39738286,0.24429643,0.4610653,0.086009026,0.8336017,-0.16625398,-0.38360924,0.41817188,-0.46764052,-0.8653183,-0.79031086,0.99600005,0.2614808,0.8835509,0.048117638,-0.75558794,0.58061564,0.5426538,-0.7941394,0.26295948,0.5801536,0.7424079,0.45772982,-0.4489773,0.51005733,0.81408143,-0.9168122,0.5732584,-0.8056171,0.64549863,-0.54749936,-0.34347826,-0.18966454,-0.7163876,0.03297484,0.706838,-0.884845,0.13399935,-0.38429004,-0.9504039,0.6805371,-0.18616444,0.39475632,0.4352486,0.8917277,-0.2888893,0.53096485,-0.79460585,-0.23903644,0.86980367,0.15075731,-0.7636753,0.04343283,0.58977866,0.530965,0.65497494,0.7865665,-0.089957476,0.5759516,-0.98047966,-0.2494418,0.043132305,0.22378898,-0.11313915,0.6821811,0.55316746,0.18566465,-0.022131503,-0.14942396,0.34127975,-0.8707429,-0.5533837,-0.07305616,-0.8437355,0.5824224,-0.23368204,-0.6523484,-0.97751874,-0.34070498,-0.20105332,-0.7168834,0.87779367,-0.18770516,-0.6754208,-0.5052586,-0.7838241,0.61308897,0.22055686,-0.24735266,0.3779999,0.9202714,0.20511246,0.55804765],[-0.40381038,0.29903793,-0.36259526,0.59004664,-0.49210453,0.7530675,-0.66143966,0.52544606,-0.4469037,0.3548181,0.4196838,0.7405466,-0.29585904,0.3093809,-0.11283171,-0.9926438,-0.235353,0.30732322,0.7640853,-0.74925244,-0.22299504,0.7364038,-0.12723547,-0.76916254,-0.1007902,-0.60788053,0.4660052,0.9400785,0.9651078,-0.77477884,0.47257614,0.42100823,-0.075855315,-0.11143142,-0.66924584,-0.14277339,-0.054982305,0.17627132,0.83975613,-0.7305863,-0.6792653,0.27350056,0.7300203,-0.47702444,0.39261103,-0.4159674,0.7906004,-0.093205035,-0.27407932,0.21320069,0.9880004,-0.9293234,-0.8438139,-0.045635104,-0.21895725,-0.14021415,-0.57372665,-0.5934328,-0.30916315,-0.884224,-0.7129376,-0.60151815,0.56033826,-0.67212486,0.88224196,0.9986756,-0.1835981,0.8155724,-0.021373272,-0.9700583,0.06233859,0.5883757,0.4675671,0.49467158,0.9300128,0.5035043,-0.99361646,-0.6502111,-0.1617735,-0.68482286,-0.3984809,-0.44078976,0.21415782,-0.24809289,-0.7627792,0.40189958,0.26482213,0.96977985,-0.8924742,0.47096837,-0.5690468,-0.46154958,-0.5145655,0.7239802,0.9823513,0.9222528,0.7131623,0.40214503,-0.35926634,0.39393544,0.7676307,0.9750279,0.9281682,-0.30402106,-0.8491379,-0.60037535,-0.39689052,-0.33848548,0.024352074,0.27753842,-0.14659762,-0.92351556,0.5683408,-0.6243403,0.51425695,0.7278521,0.18432403,-0.19156885,-0.9093456,-0.5196576,-0.26614654,-0.15337789,0.70804656,0.50765836,0.59898853,-0.4761119,0.102941155,0.743587,0.5123203,-0.99223995,0.790342,-0.39576155,0.7090553,0.4442911,-0.4524536,-0.37350887,-0.368958,-0.48182118,-0.39895493,0.8375962,-0.20120996,-0.3966924,-0.054572225,-0.1700126,-0.382434,-0.64553124,-0.029890299,-0.8902252,-0.79027677,-0.7455008,-0.26207125,-0.095268846,0.31149077,-0.83960867,-0.33991802,-0.07899135,-0.7330186,-0.5794902,0.096990466,0.626974,0.29668343,-0.14047748,0.14919424,0.016592026,0.48719645,-0.7508361,-0.6325708,-0.87595034,0.8281133,-0.112234175,0.09681022,-0.3338548,-0.79261386,-0.7469418,0.6815523,-0.86945415,0.90119433,-0.12194085,-0.10990757,0.24451971,0.5537784,-0.006833613,0.5338638,0.25782108,0.2698313,-0.11438918,0.29274774,0.548664,-0.21579087,0.6265378,-0.6404903,-0.7894678,0.42118835,-0.025928974,-0.4590873,0.9392675,0.45411336,0.92883575,0.34279096,-0.63159794,0.98703957,-0.15393996,-0.7183385,0.32195747,0.15768898,-0.92821646,-0.30265492,0.05843258,-0.52116096,-0.47046387,0.019814372,0.3889222,0.53041744,0.85247076,-0.9268044,-0.69648296,0.3256588,0.89137316,0.7467607,-0.39841443,-0.04358381,-0.18123472,0.33984053,-0.7984245,-0.47174388,-0.11372197,0.24495685,0.23331511,0.71214545,0.7422848,-0.3235675,0.9723586,0.5352682,-0.47830963,0.25748014,-0.2922817,-0.28849512,-0.7880937,-0.8998679,0.19804776,-0.8117342,-0.76568484,0.069824934,-0.745327,-0.39327657,-0.029412568,-0.31988525,0.5687176,-0.09912455,-0.76260436,-0.38639128,0.5627402,-0.81792504,-0.2587946,0.41198587,0.16827428],[0.5062195,-0.919914,-0.20629865,-0.72858906,-0.17317331,0.46403003,0.346287,-0.26344573,0.85310364,0.047455788,0.85365415,0.008726954,-0.40500945,0.36547732,0.59201217,0.113752484,0.79124105,-0.45128697,-0.5866802,-0.27789897,0.74894035,0.08516753,0.5948521,0.5576687,-0.7938368,0.67623925,-0.66756034,0.4747498,0.12867606,0.11369228,0.7902837,-0.20593727,0.109704494,-0.9107941,0.20149887,-0.36858112,0.41820502,0.82872117,-0.62877893,-0.27576423,-0.111971855,-0.6667294,-0.5984307,0.55926764,0.116933346,0.6713878,-0.026272953,0.5353981,-0.35461652,0.49985623,0.77149916,0.63336194,-0.67211443,-0.31011516,0.41933393,-0.5789481,-0.51476616,0.2360326,-0.9347523,0.15058744,0.13159037,0.8715372,0.6078782,-0.2605886,0.2571721,0.059591293,0.89902246,-0.4942153,-0.83602154,-0.039406776,0.6955476,0.9625199,-0.82250804,0.68908405,0.8340728,0.4156698,-0.31640172,-0.96441555,-0.55926466,-0.4652245,-0.29748785,-0.20295858,-0.17063361,0.6288198,0.342193,-0.8430783,-0.53382283,-0.5801803,-0.33012795,-0.21955305,-0.85381496,-0.8178277,0.7634734,0.22063363,0.5926454,0.016490936,-0.2746076,0.6621579,-0.69790447,-0.942658,0.77236533,-0.5320576,0.3714198,0.68479025,0.80430865,0.8089793,0.45587003,-0.36119848,-0.14418805,-0.9963359,0.7374537,-0.5503506,-0.20470268,0.5304723,-0.5519247,-0.66545105,0.042170763,0.9790584,0.39721835,0.10025048,-0.4065858,0.47920275,0.8359126,0.38353145,-0.18559182,0.51337516,-0.8009535,-0.043141603,-0.90356135,-0.18241811,-0.3097226,0.021440387,0.7334889,-0.61660665,-0.23758978,-0.7654303,0.42562175,0.14457607,0.8245112,0.53321373,-0.2989483,0.82737565,0.56400776,-0.3337921,0.042993307,0.6965357,0.3868749,-0.7669989,-0.22744173,0.25809646,0.9743202,-0.25366604,-0.73506045,0.20184517,0.46392787,-0.70683753,-0.36797023,0.9878882,-0.12961793,-0.7090665,0.6099328,-0.50098836,-0.45763713,-0.96176994,0.31338668,-0.28398675,-0.28383952,-0.588096,-0.23193794,-0.7864944,-0.09107274,0.8975947,-0.84545267,0.8640046,-0.6008013,-0.23396146,0.915195,0.16970468,-0.6594618,0.11787248,-0.87349975,0.9660454,-0.8156999,-0.16165781,-0.15673828,0.9439435,-0.2434991,-0.46835625,-0.08053446,-0.5307523,0.60254,0.4377334,-0.72580594,0.5335777,0.92328095,-0.7979599,0.28501272,0.5257777,0.35282123,-0.67302,-0.01962477,-0.025029004,0.46493912,-0.44094735,-0.65083075,-0.9232745,-0.40821338,-0.59906507,-0.1973536,-0.30211073,-0.6220325,0.4623251,0.6473501,0.7525096,-0.83556676,0.6438874,-0.6852885,0.70402074,0.19496834,0.3694433,0.95951235,-0.8154833,0.49243844,-0.7011857,-0.3890344,0.4711938,0.62340057,-0.37903035,0.94072366,-0.80284137,0.48102582,-0.6105827,0.81688356,-0.9864418,-0.8625027,0.15152931,-0.49889374,0.6252475,-0.51082706,-0.23346376,0.35215688,-0.644434,0.72899735,-0.7784238,-0.9087197,-0.8597851,0.79038346,-0.47831547,0.36914444,-0.7206065,0.8873286,0.580992,-0.66919065,0.98337793,-0.63253236,-0.2041415],[0.4825325,0.1661247,0.948087,-0.122024596,-0.5466751,0.97081697,-0.5397888,-0.39451224,0.21686351,0.98855007,0.64544153,0.6337918,0.6150123,0.012903929,0.14278114,-0.31053597,0.21484768,-0.5715679,-0.9827136,0.6039463,-0.5444806,0.27086222,-0.7924659,-0.5292493,0.68081045,0.10171616,0.2518252,0.6613302,-0.69016993,0.9000337,-0.94139206,0.8335055,0.6460905,0.3416388,0.6689968,0.33498156,0.6771604,0.6111976,-0.6867887,0.3813399,0.89535475,0.123509526,0.004712701,-0.89726985,-0.5052266,-0.84340847,-0.09332776,-0.6437595,0.1366123,0.19786453,-0.6338557,0.90237725,0.9660915,-0.23647875,-0.6596609,-0.7883298,-0.041409314,0.4773363,0.19716501,0.35160875,-0.2810083,-0.20111895,-0.70434225,0.3168298,0.92994213,0.811936,0.9877013,-0.7266265,0.34390712,0.8077997,0.012303591,0.6036502,-0.8847793,-0.3640535,0.7085916,0.3320098,-0.7338505,-0.8951961,0.9759773,0.5242188,-0.8049561,-0.10441524,-0.47528213,0.11196554,0.5338894,-0.8437693,0.867414,-0.11743075,0.0012997389,0.45732653,-0.6236092,-0.8001759,-0.5859674,-0.03839737,-0.33765185,0.096473694,-0.17214817,0.6878829,-0.827212,-0.31716257,-0.83110976,-0.36670125,0.012333393,0.32881272,-0.8144391,-0.23750585,0.7871566,0.330145,0.054929733,0.008329272,0.94552064,-0.14621317,0.501359,0.6729462,0.15656483,0.82340693,-0.72583675,0.18369222,0.7829404,0.77371156,0.944522,0.1051321,0.27207375,0.8865806,0.43140888,-0.18752044,0.18961763,0.1536181,0.97359836,-0.3878821,-0.49584204,-0.42173338,0.9320159,0.29313993,0.35532856,0.56174517,0.8832514,0.19590521,-0.073595405,-0.22860467,-0.6309259,-0.46273106,0.8276396,0.99297035,0.5118059,0.522604,-0.3015349,-0.25891364,0.80503774,-0.16105878,-0.1776895,0.6441597,0.90494263,-0.60092354,-0.26168466,0.063758135,0.361225,0.1257528,0.89740384,0.37308133,0.57287645,-0.36646158,0.35654664,-0.5571882,-0.49582863,0.36725402,-0.07822907,-0.7917809,-0.68238246,0.5948198,0.9401555,0.07825804,-0.7427124,0.011545062,0.40463734,0.40725315,0.27749252,0.2791034,-0.6252254,0.9088048,-0.88598555,-0.55146873,0.34858036,0.13465714,0.7898073,-0.14000165,-0.32667595,0.53293943,-0.44517547,-0.7084296,-0.7994799,-0.24250138,0.29850137,0.55332327,0.19851887,0.73553574,0.18072224,0.38482773,0.48879898,-0.8554481,-0.39916694,-0.509754,-0.5765312,-0.789782,-0.10121435,0.7440525,0.38687205,-0.10660243,-0.005560875,0.3310622,0.7862656,-0.9178784,-0.24902183,0.98859894,0.25906694,0.1243453,0.284958,-0.7781105,-0.3469956,0.644173,-0.30606997,0.3888315,0.6533946,-0.9739529,0.39429963,0.18265688,0.77975667,-0.29603565,0.8130262,0.6691017,-0.77346915,0.8926647,0.7903043,-0.7697773,0.30797172,0.62376845,-0.97493756,0.13836241,-0.76412845,-0.9542451,0.4731263,0.7799264,-0.46149975,0.22376227,-0.4946952,-0.8816015,-0.99347955,0.3099023,-0.7057437,-0.92582643,-0.5494223,-0.04116726,-0.26817662,0.84462607,0.45062184,0.21200156],[-0.16314852,-0.6025783,-0.18408167,0.7161287,0.96429574,-0.31709236,0.08037138,0.3253374,0.10453141,0.89360094,-0.7081827,-0.47924453,-0.31937277,0.6352985,0.09928274,-0.8534044,0.98601794,-0.39275044,-0.8289533,-0.08599645,-0.1496687,-0.57036775,0.5207423,0.2759012,0.1761365,-0.53014565,-0.590292,0.7388526,0.21852398,0.26769817,0.16084135,0.94567835,-0.2203992,-0.9040298,-0.21308297,0.6276407,-0.6775559,-0.48025715,-0.9185409,-0.20978129,-0.30044496,0.2131629,-0.8807691,-0.38829613,0.82658124,0.48576498,-0.37072492,-0.3410421,-0.025109231,-0.696018,-0.027185202,-0.8754262,0.67357934,-0.46338165,-0.63832974,-0.59278077,-0.12332064,0.5400171,-0.4600078,0.4944415,-0.7268004,0.34151876,-0.8931866,0.83683324,-0.26724046,-0.65386105,0.7411547,-0.415343,-0.1516186,0.47164202,0.8241515,0.4662751,-0.47420955,0.38082802,-0.78555155,0.6371684,-0.6895987,-0.090961516,0.44931996,0.6903715,0.8405793,0.75075006,-0.23603815,-0.08545798,-0.7051167,0.03626752,-0.72790104,-0.75701755,0.7343,-0.6203022,-0.24903858,-0.2175731,0.97975063,-0.41298234,-0.48298097,0.35803628,0.10634947,-0.7176024,0.8789443,0.4804423,0.7446103,-0.95538193,0.81057644,0.5032487,-0.5201695,0.5065397,0.5987834,-0.70724857,-0.6778301,-0.27549815,-0.9031821,0.9676409,-0.90930283,-0.15037936,0.65386224,-0.4775505,-0.4224431,0.19227135,0.54195,0.69649196,-0.92596006,0.49817216,-0.14964294,-0.5313164,-0.2793194,0.04172468,0.48652446,0.9387728,-0.13619107,-0.14358783,-0.46918106,-0.97199637,0.030094147,0.9688777,0.9457612,0.79596114,0.9401736,0.2607131,-0.5652885,-0.21165639,0.43748415,0.9793476,0.9208126,0.009798169,-0.7171201,-0.2166794,-0.30827028,0.13012993,-0.06684458,0.99456954,-0.21952063,0.9140781,-0.2595523,-0.8175477,0.40640235,-0.75356185,0.19426095,0.34189284,-0.21743184,0.43810582,-0.97998476,0.6600106,0.42894244,0.46575773,-0.8063171,-0.9311857,-0.06245333,-0.8781805,-0.09614056,0.857901,-0.41772413,0.31684387,-0.24244016,-0.24639368,-0.7409922,-0.9053076,0.57735956,0.8405589,-0.8141962,0.93736005,-0.65000504,-0.64360553,0.00561738,-0.13076061,-0.9240672,-0.38325918,0.28755593,-0.15235811,-0.43752462,0.69932306,-0.3982998,-0.4017192,-0.5218551,-0.0033943057,-0.23167157,0.7774737,-0.44959491,-0.54494506,-0.18388474,-0.7859344,0.84577394,-0.43008977,-0.77372944,0.07525444,0.41229367,0.46363556,0.15651822,0.9868413,0.9234445,0.31170988,-0.33092147,0.35370207,0.15608907,-0.15479183,0.088110805,0.6636207,-0.34560686,-0.4402969,0.38982487,0.5769421,-0.21874166,-0.91009516,0.5593442,0.20453632,0.2562008,0.9839951,-0.16130108,0.76095414,0.9852779,-0.5184659,0.5442873,0.12230468,0.024443626,0.9717381,-0.9084139,0.7800847,-0.8698761,0.93036294,0.45694578,-0.3877027,0.46022248,0.3007146,-0.075802624,0.25076544,0.03024447,0.24799812,0.44219172,0.6329367,0.90849483,0.10470772,0.12308049,0.99070203,0.06523001,0.23917317,0.4328072,0.75586903],[0.010566115,0.021734238,0.81905365,0.4282986,-0.37506336,0.39556408,-0.99843657,0.44191027,0.7674227,0.5467739,-0.67074156,0.18435097,-0.24637794,0.30802608,0.53349686,-0.2759698,0.102757335,-0.22247243,-0.8832804,0.48054373,0.16570747,-0.69142133,-0.82570815,-0.99179727,-0.45819658,0.20576215,0.8524593,-0.11942977,0.35845363,0.5535853,-0.9429254,0.7852706,-0.4610691,-0.664283,-0.23048139,0.108389735,-0.88869065,-0.9713528,0.9873606,-0.9353416,0.29915106,0.48228705,0.48334277,0.48347068,-0.08126038,-0.74215925,-0.12068528,-0.39953125,0.57121086,-0.60094976,-0.11205542,-0.7122975,0.12245357,0.9522635,-0.40983838,-0.29801255,-0.15255767,0.81085086,-0.11350489,0.41917455,0.5431049,0.12099326,-0.91654336,-0.7861627,0.48969936,-0.45601207,-0.35457993,-0.582095,-0.46149254,-0.57489294,-0.38727915,0.07411027,-0.20983309,-0.94793886,-0.81860733,0.6834204,-0.17476416,-0.30917877,0.089463115,-0.7160373,-0.6735526,0.25199056,0.3093593,-0.040596604,-0.3343593,0.7693721,-0.337183,-0.41333258,0.7455554,-0.9324688,-0.73905265,-0.69954145,0.14215207,-0.43181384,-0.47844642,-0.82184213,0.3988304,0.2695055,0.9937713,-0.6252483,0.6124207,-0.5385903,-0.9380387,0.14610386,0.7863294,0.8138343,0.4975356,0.07039237,0.7708708,-0.0932588,0.87675154,-0.8433789,-0.27861232,-0.39746755,0.092727065,-0.7088857,0.8116338,0.12405324,0.5481967,0.72032726,0.881171,-0.9412473,-0.32765037,-0.52902377,-0.83584034,-0.6877377,0.9319582,-0.7780192,0.53050756,-0.9967652,-0.71541,0.55573034,-0.30295008,-0.28528857,-0.32845795,0.8650377,0.19002926,-0.8367444,0.173074,-0.14819366,-0.7281635,0.59242463,-0.18420339,-0.1611858,-0.8092203,-0.89567375,0.5790708,-0.46038043,0.4754591,-0.7695607,-0.633476,-0.7252228,0.7213088,-0.72655594,-0.5064192,0.5536679,0.7890601,0.59098506,-0.018055916,0.4740671,0.88187623,0.27555478,0.5398848,0.76763594,-0.3778488,-0.67897886,0.45957124,-0.9933237,0.93099034,0.22768939,0.10108495,0.64837825,0.95097923,-0.30360973,0.44849062,-0.71125364,0.24295604,0.83353543,-0.71980345,-0.9401666,-0.26680845,0.39233863,-0.2534783,0.30006826,0.63671076,-0.99018717,0.8344215,-0.5763942,-0.7788694,0.117874146,-0.9240224,0.5990443,0.18131149,0.6990069,-0.030069828,-0.0037181973,-0.94746023,0.048160672,-0.78333706,0.8697585,-0.355245,0.5723945,-0.39137083,-0.7522303,0.12935436,-0.28185427,-0.6762021,0.024918556,-0.17504656,-0.7951656,-0.68928814,0.9555247,0.3107884,-0.07788932,-0.25912446,-0.5104624,-0.470967,-0.76018345,-0.8690748,-0.38766164,-0.51340044,0.035965443,0.7855457,-0.18688369,0.1517117,0.50204074,-0.5329331,-0.74802756,0.7264601,-0.5477911,-0.7637934,-0.8052045,0.61687243,-0.58956194,0.4150784,0.160797,-0.2162906,-0.501248,-0.829286,-0.081434965,0.686015,-0.19049704,0.59865236,-0.9837038,-0.19283772,-0.879547,-0.7117442,-0.7407992,-0.041868687,-0.5196074,-0.5327512,0.8127233,-0.082764566,0.6043246,0.38315892,0.6087897],[0.7868489,0.7955129,0.09605801,0.6273136,-0.74892116,-0.9281745,0.29845846,-0.62725544,0.9686278,-0.8840836,-0.6613478,-0.09964961,0.5070323,0.5800785,0.7058282,-0.969719,-0.9308975,0.21236014,-0.073676586,0.6770966,0.43731296,0.76924944,-0.994046,0.031258702,0.21378493,-0.7921339,0.29384112,0.24606752,0.9849601,-0.5765166,0.2775601,-0.9874521,0.027279139,0.8062887,0.37394822,-0.011803508,0.402694,-0.4565996,-0.3325138,0.6141895,0.5110445,0.2259078,-0.9523316,-0.3087541,0.78180075,0.38790548,-0.24783146,0.37805283,-0.22543561,-0.56303227,0.74362075,0.70487523,-0.32199883,0.7060623,-0.82852334,-0.9824006,0.7895589,-0.93520075,-0.5864713,-0.95678717,-0.22201562,-0.94760907,-0.6122155,0.54514444,-0.16164368,-0.6738957,0.8730713,0.70074356,-0.7938696,-0.2823683,-0.37241298,0.5257021,-0.45512605,0.3121339,-0.83394784,-0.78859484,0.721581,0.3147081,0.24945796,0.82587945,0.45569754,0.9157883,-0.52849686,0.54799235,-0.32013738,0.57268476,0.3345467,0.32121682,0.6348121,0.35634875,0.1986376,0.3378948,-0.8701283,-0.37572664,-0.16379488,0.45865357,-0.16187662,-0.4974761,0.85288954,0.45569646,0.51483417,0.05142498,0.17192245,-0.9430673,0.80938077,-0.7820814,0.16000128,0.36586726,0.5400101,0.96007156,-0.70398164,-0.5251492,-0.18465877,-0.41235077,-0.4124847,-0.13780391,0.5808878,-0.16020787,-0.13471812,0.2656715,-0.008442402,-0.44814557,-0.9340686,-0.15021843,0.5189941,0.28969216,0.3958304,0.92060065,-0.5240712,-0.29260135,0.37328172,0.21905708,0.46181858,0.7937615,-0.6889547,-0.59572744,-0.25613415,-0.58542955,0.7386116,-0.53805596,-0.5873165,0.9686794,0.7812067,0.67474055,0.06033039,-0.27621317,-0.4774465,0.5422225,-0.96324193,0.97400904,0.87776566,0.9983313,0.6372421,-0.4127819,-0.53586113,-0.037020266,-0.0145064,-0.6778592,-0.46206135,-0.48031145,-0.17791182,0.23940063,-0.110061586,-0.16738856,-0.4132102,0.07696128,0.013032198,0.021579742,-0.72339606,-0.81675726,-0.88166976,0.16631746,0.10118055,-0.59666216,-0.147012,0.02287805,-0.2293523,-0.60880923,0.78945124,-0.2047928,-0.23286128,0.8536079,0.8838426,-0.4980802,-0.170367,0.3749504,0.5818151,-0.12539953,0.32962263,0.3480655,0.4187789,-0.57827497,0.87663174,0.21892309,0.63985586,0.17328286,0.07874107,-0.051404715,0.087950826,0.9833691,0.71075463,0.5009738,0.26561856,0.8535154,0.8556788,-0.28855175,-0.102849245,0.23390424,0.73423016,0.4412608,-0.807668,-0.40569717,-0.46731037,0.74273145,0.7525499,-0.03151977,0.35555816,-0.6119814,-0.9970215,0.21183932,0.49514616,-0.8615682,0.6919571,-0.07146162,-0.23553622,0.6966052,0.2896856,0.88225746,-0.23651809,0.67970514,0.9441371,0.82205236,0.30323994,0.8060821,0.08445263,0.2661649,-0.4120106,-0.9696728,-0.35375893,-0.88181525,-0.52220035,-0.6520892,0.14037037,0.8883618,0.15573347,-0.17552388,0.88903546,-0.86609966,0.4663732,-0.32862437,0.8177247,-0.3092776,-0.05438322,0.8761115,-0.5117771,0.57232285],[0.8090166,-0.6629199,0.089051604,-0.84092647,0.4217626,0.014893293,-0.5295777,-0.945475,0.49712372,-0.6297204,0.29106283,-0.2733925,-0.34172112,-0.51361513,-0.61950916,0.32523096,0.74177754,0.88479376,-0.26596034,0.1472354,-0.0019385815,0.8035954,0.77280486,0.93998766,0.80756986,0.15578532,-0.58411574,-0.9078937,0.8619803,0.25341463,-0.12356436,0.42712855,0.3178593,0.51212966,0.4571483,-0.7490907,-0.058724403,-0.51283246,-0.30357784,0.46290636,0.8774885,0.08584535,-0.6087619,-0.21454608,0.5334133,0.1624279,0.47562146,-0.020011663,-0.70911515,-0.50750613,-0.051055133,0.060823083,0.14207184,0.34098756,-0.42573857,-0.9945788,-0.4357248,0.14906394,-0.64849627,-0.73402274,-0.4009909,-0.62168396,-0.80745536,-0.7562909,0.49384403,0.8639343,0.40874827,0.14614916,0.029236555,-0.8704184,-0.61604464,0.25461006,0.18837166,0.2711333,0.2697469,0.91221607,0.41235733,-0.012649,-0.5934257,-0.3548581,0.68016386,0.43589592,0.8012215,0.36948657,-0.69553024,0.81561255,-0.7149433,0.9768717,-0.062131703,0.45172703,0.68663406,0.79221165,-0.86433613,-0.56955516,-0.13610274,0.49917245,-0.10669929,-0.85247105,0.29160988,0.669479,0.75367963,-0.6705277,0.95075166,-0.8386967,-0.8914615,0.69433486,0.8724514,0.8709384,-0.92875934,-0.33795464,-0.40693605,0.5769242,-0.25751036,0.7063618,-0.4141866,0.16311324,-0.4229054,-0.17694193,0.9392394,0.6782315,0.57887757,0.43187654,-0.79171914,0.5775095,-0.55705255,-0.40825635,0.118946195,-0.24207324,-0.5927639,0.77057445,0.018915415,0.26482832,0.6957412,-0.2629047,-0.10853779,0.35069156,0.48514414,0.6399182,0.26094806,-0.3898651,0.94316113,-0.5858817,0.90563107,-0.72417706,-0.14133686,-0.89029014,0.049722075,-0.570698,0.84463143,0.7007841,-0.077922165,-0.92975736,-0.7917104,0.6133784,-0.9093985,-0.67819685,-0.87880856,-0.62675786,0.7183558,0.5167948,-0.42461133,0.1145246,0.46370232,-0.6993337,0.64312994,0.32823563,0.881183,-0.99460566,-0.18510038,0.23512185,0.677969,-0.062823534,0.56211007,0.32910442,0.73507035,0.16475928,0.5262455,0.9324579,-0.28115356,-0.6667624,0.54202163,-0.31035584,-0.08670467,-0.29354793,-0.15150344,-0.05132729,0.0565387,-0.9176373,-0.3535062,-0.43034095,0.22950006,0.111902,0.9215623,0.74415326,-0.96525383,-0.17136353,-0.04958409,0.60496473,-0.36730707,0.5304276,-0.7714732,0.044327736,0.6144024,-0.39049047,-0.97718495,0.9849014,-0.49186736,-0.1208148,0.8783082,-0.074157774,-0.20444238,-0.81126654,0.6543958,0.38511825,0.97477317,0.8857446,-0.79877067,-0.24274969,0.45216966,-0.30554277,-0.7283032,0.7988204,0.35890055,-0.75475943,-0.99437815,-0.43393302,0.015614152,0.8179568,0.29435825,-0.09356618,-0.78565663,0.92128074,0.299765,0.18841887,-0.8952892,-0.50230604,0.075241804,-0.6962142,-0.31636298,-0.13640481,-0.5594599,-0.82264644,-0.7959454,0.7206516,0.7741015,0.040766597,0.4575063,-0.46355593,0.7693801,-0.85099834,-0.37259287,-0.8068344,-0.8472049,0.93823564,0.25873065,-0.5702936],[0.68542707,0.36916184,-0.39611226,0.456748,-0.030712724,-0.30982417,0.58482695,-0.028125703,-0.28850114,-0.12572312,-0.11103153,-0.5340231,0.28040743,0.47707927,-0.18949723,0.89744353,-0.9263867,-0.41142547,-0.74608284,-0.9056567,0.5947658,0.63824904,-0.5288609,-0.035144746,0.10856068,-0.5208299,-0.9514232,0.14535666,-0.7209733,-0.97882223,0.7684858,0.36152935,0.9296882,0.67500436,-0.18773317,0.70607984,0.699898,0.2268889,0.894308,0.7503643,-0.40747333,0.23218024,0.00915277,-0.10017538,-0.84820193,-0.0084706545,0.25603664,-0.7076992,0.33849883,-0.27003646,-0.88044775,0.56422055,0.68431854,0.16438746,-0.16505939,-0.95282185,-0.10197723,0.6390325,-0.6518127,-0.5098828,-0.35840094,-0.5605297,-0.3071524,-0.30967897,0.10579109,0.52743924,-0.46371126,0.60540307,-0.3351876,0.10442293,-0.8024545,-0.15327561,-0.30573344,-0.4964471,0.50181663,-0.63741446,-0.37090373,0.57131445,-0.18694282,-0.88296866,0.22313344,0.7562759,0.8068577,0.5490631,0.9016255,-0.79573476,0.6772108,-0.23469925,-0.15993619,-0.23491132,-0.19194287,-0.93913436,-0.12129843,0.40419078,0.108765244,-0.8469436,-0.4606673,-0.6811683,0.7940335,-0.3756411,-0.5447594,0.6506337,0.6274884,-0.76592404,-0.46758193,0.27282786,-0.13004607,0.18076563,0.66257083,-0.527645,0.41808188,0.32670832,-0.17402476,-0.768844,0.26698387,-0.11467683,-0.36738747,0.14378452,-0.21130443,-0.098474085,0.8502284,0.770988,-0.2346608,0.89972377,-0.7036342,-0.8633201,0.9680228,0.2900759,0.39478767,0.34876025,0.8232529,-0.6897354,0.77728105,-0.8113017,0.6617907,0.57249975,-0.8712125,0.5727818,0.016645074,-0.3712024,0.33431125,-0.5035549,0.10272992,-0.6322912,0.3470068,0.48134887,0.23489034,-0.35245442,-0.8627931,-0.7765579,0.5204438,0.39554822,0.5301361,-0.10749245,-0.22586954,-0.31574738,-0.11470556,0.7277647,0.93771017,-0.6042619,0.30480516,0.5798781,0.78597796,-0.68618953,-0.35089785,0.10781729,0.5494273,-0.36272305,-0.43063474,0.6944841,-0.24346435,0.059830785,-0.8728606,-0.840102,0.5672146,0.35378337,-0.33174193,-0.6023696,-0.4472831,-0.18498307,-0.098210454,0.32047713,0.15286899,0.17134559,0.82831645,-0.5722953,-0.21987158,-0.11522651,0.41456783,-0.022461891,-0.3127947,-0.5989772,0.63507164,-0.37909305,0.32399237,0.75443316,-0.28953284,-0.21108055,0.7186066,-0.76081055,0.9319216,-0.4023866,-0.9218196,-0.55727714,0.46690643,-0.539387,0.26840878,0.37023818,0.32529294,0.4203471,-0.98400545,-0.51233596,0.17504776,0.12269318,0.49394858,0.98432803,-0.57299083,-0.3853677,-0.514506,-0.7786025,-0.67231107,-0.33534622,0.22270906,0.59182715,0.0072788,-0.64448714,0.42475915,0.5062324,-0.16409445,0.81278145,-0.35668385,0.8793386,-0.3209762,-0.68647254,-0.116904676,-0.69582385,0.24229681,-0.28985393,0.7044393,0.36770344,0.1592958,0.4098903,0.55948055,0.99422073,-0.03845644,-0.8004588,0.22597492,-0.4876216,0.12695837,0.33966446,0.32742393,-0.90416515,-0.69657457,0.49720907,0.9115006,0.26726782],[0.37490427,-0.5136468,0.435444,0.11139345,0.035853863,0.7621764,-0.46566737,0.5125114,-0.222969,-0.863344,0.80864024,-0.13847971,-0.7604021,0.18977249,-0.25796884,0.71686304,-0.089806914,0.11779058,0.062101603,-0.08220136,0.10517323,0.22848845,-0.36971647,-0.19226247,0.12953794,-0.087619245,-0.62072587,0.4962411,-0.5146425,-0.4525187,0.5759132,0.18181467,-0.5979731,0.61582744,-0.07072812,-0.2440564,0.27470207,-0.4069543,-0.6681505,0.3971194,-0.12444234,-0.9530308,0.21718979,-0.17511243,-0.60909903,-0.6355454,-0.7272196,0.9371859,-0.40236676,0.6105609,0.18564177,0.18563485,-0.56489253,-0.006298065,-0.8379053,-0.8535841,0.8560697,-0.37229347,0.98185563,-0.87652683,0.38290226,0.03809154,0.02715385,-0.77045035,-0.43925714,-0.37317443,-0.5405066,-0.37622947,-0.7394994,0.98608756,-0.5578389,-0.6828527,-0.21405894,0.6649822,-0.9577591,0.058203936,-0.98870134,0.80539596,-0.5831634,-0.23491675,-0.36039972,-0.55791175,-0.10139215,-0.12520337,0.36183953,-0.6097218,-0.25329274,0.40832496,0.45373273,-0.21714401,-0.10012609,-0.35300446,-0.38880986,-0.79162365,-0.9857828,0.8374661,0.019815326,-0.012359917,-0.7358552,0.7640754,0.9049612,0.64900994,0.6766852,-0.38845432,0.16839981,-0.13150555,-0.60030615,-0.22987473,-0.048539042,0.10389066,-0.86488277,-0.9493263,-0.7891301,0.21677232,0.4838729,-0.05918598,-0.8605163,-0.8476428,-0.13228983,-0.8295354,0.88011837,0.051168323,0.17003775,0.47764456,0.08621371,0.79516554,0.7059572,-0.42243528,0.65076506,-0.79522526,-0.96161133,0.023658633,0.5412512,-0.34723878,-0.13987797,-0.009409666,-0.23459703,-0.71293783,0.7063968,-0.506655,0.9905844,0.97658205,-0.543136,-0.650158,-0.35226125,-0.15079981,-0.56387436,0.39441776,-0.2754966,0.07340312,0.69798255,-0.1325419,-0.8800701,-0.90631986,0.883957,-0.1462071,-0.5210278,-0.80095935,0.525332,0.37323427,0.16253734,0.82212913,0.11936021,-0.25331378,0.06550205,0.11145866,-0.49057752,0.5581087,-0.64334965,-0.5067174,-0.82458895,0.8524215,-0.5540396,-0.62563485,-0.8201198,0.9035363,-0.40569562,-0.1798042,-0.17009413,-0.76298654,0.3590399,-0.6884606,0.8530613,-0.42263812,-0.49320775,0.1709305,-0.09627128,0.44757104,-0.23119581,-0.9936709,-0.48838186,-0.43363768,-0.2382698,-0.66683745,0.3308078,-0.83154476,-0.14277822,0.7101778,0.2843399,0.53628016,-0.6602223,-0.12198305,0.03776741,-0.7687792,-0.102007866,0.845561,-0.5785023,0.7455647,0.9138,0.9804207,-0.7405115,0.6587764,0.36913478,0.2883185,-0.98580563,-0.14900208,0.9690678,-0.45800167,-0.760106,0.89457154,-0.79227006,0.061851382,-0.2106955,-0.64967877,0.9816644,0.6090487,0.09069121,-0.88720214,0.043557405,-0.9885751,0.046314597,-0.115873456,0.53585577,0.2936257,0.89723575,-0.51897705,0.27377188,0.6218405,0.6793697,-0.33876878,-0.2505672,0.15816402,0.53377116,-0.21161652,0.7468406,-0.14715827,0.1972276,0.47341168,-0.6810318,-0.5201901,-0.80061257,-0.68477654,0.47028387,0.38976836,0.32855022,0.27792633],[-0.9112876,-0.31255376,-0.7504437,0.2889434,-0.24513024,-0.69130015,-0.29799265,0.902375,-0.06589389,0.37536192,-0.8770794,-0.92449087,0.39108276,0.5331714,0.57722604,-0.65277267,-0.13737136,0.57866275,0.14513874,0.04956591,0.5280802,-0.999079,-0.39651936,0.12882268,-0.5881789,0.6172795,0.7938297,-0.43625247,0.81203747,-0.26890886,0.4138428,-0.8539126,0.9650755,-0.38069057,-0.6076894,-0.4136743,0.37228417,-0.6095737,0.90636146,-0.55926704,-0.5438434,0.63139606,0.8542774,-0.6285214,-0.27007884,0.12171841,-0.91767097,-0.21420318,-0.0974161,0.8521602,0.45259476,0.891621,-0.7553704,-0.7210157,0.7498461,-0.9122086,-0.9160344,0.12073362,-0.12287766,0.13759029,-0.48512983,-0.8617402,-0.9096624,-0.79698503,0.96151924,0.9768331,-0.8895663,-0.22822666,0.1408608,-0.009099662,-0.025056899,-0.52779764,0.6723014,-0.29559416,-0.40659064,0.89668417,-0.8533563,-0.767998,-0.6010984,0.29010272,0.5349505,0.008032918,0.6611637,0.95987725,0.27849638,0.5222217,0.9014578,0.6860912,-0.13053668,-0.69548076,-0.4976399,-0.7484494,0.513304,-0.23122883,0.9258628,-0.6821033,0.54105854,0.6512624,-0.59004056,-0.246912,0.011284709,0.3105557,0.64493597,0.91168356,-0.122782946,-0.019607544,-0.7806803,0.54022384,0.685575,0.85316193,0.9411477,0.8519635,-0.27816802,0.58701956,0.6026398,0.50683725,-0.5229038,-0.86953974,-0.075481355,-0.56070244,-0.9246247,-0.5756575,0.90231,-0.16365844,-0.51145977,-0.2766075,-0.041101575,-0.09646982,-0.22145694,-0.7244874,-0.6443744,-0.5046187,0.8220426,0.6458136,-0.72118205,-0.7756052,0.36309683,0.7494801,0.0826602,-0.70189613,0.30290198,-0.63876605,-0.9994838,0.016301394,-0.6366285,-0.34960347,0.52971864,0.9262843,0.16613138,-0.5809745,0.8408005,0.41059828,-0.27325624,0.9706619,-0.32228732,-0.41305774,0.40824568,-0.19140553,0.4231434,-0.84617543,-0.97850597,0.31578946,-0.23831922,0.41006243,0.4975363,0.44576645,-0.97007906,0.07601845,0.30820167,0.37824488,-0.8562596,-0.27238387,0.047800064,-0.37358522,0.13639557,0.71414137,-0.5761736,-0.11399144,-0.52703,0.8381437,0.19367385,0.032614112,0.73739874,-0.6404824,-0.56528795,-0.05497265,0.76863754,0.8513807,-0.031899095,0.6918757,-0.18385088,-0.44549757,-0.67366326,-0.07116437,-0.72339016,0.9871125,0.5995532,-0.40954626,0.5187651,-0.08239484,-0.37952447,-0.5462998,-0.38191736,0.7878865,-0.72471493,0.11318445,-0.6372018,-0.899671,-0.16573364,-0.03642875,-0.83688414,-0.47776288,-0.6643756,0.58499956,-0.03984928,-0.011120021,0.5783907,-0.59783685,-0.02464962,-0.4474911,0.6771289,-0.8214598,-0.8920825,0.616326,-0.43790418,0.5892379,-0.59872067,-0.8810356,-0.65019506,0.14928293,-0.88541186,0.8333726,0.3672434,0.55536485,0.21766818,-0.26002634,-0.5854686,0.94951224,-0.9157675,0.3215276,-0.41777086,0.6683085,0.0171144,-0.99547035,0.52875984,-0.70608807,-0.78112197,-0.25866288,0.9686849,0.28772986,-0.5912782,0.19739008,0.61510336,-0.0337438,0.24047625,-0.5580647],[-0.65421724,0.0017566681,0.22579074,-0.31395286,-0.28809488,-0.75616616,0.75052404,0.6849834,-0.15101689,-0.6702568,0.15499365,-0.21974051,-0.63266855,-0.7798229,-0.42565143,0.62887836,-0.6820693,0.6538228,0.9702798,-0.9911797,0.16142583,-0.89661217,-0.9124339,-0.7318162,0.3703599,0.65994227,-0.8497205,0.062075138,-0.25943887,-0.08280182,-0.7817307,-0.5990128,-0.6851114,-0.22426713,-0.6058091,0.41277468,-0.27627838,0.39818537,-0.39037752,-0.6616047,0.91778445,0.33213103,0.15554655,0.19901669,0.13891828,0.43861854,-0.6259943,0.74850774,-0.2866187,-0.22015655,-0.12054062,0.9612806,-0.004023552,0.23165596,0.28050947,-0.75760514,-0.08580935,-0.042393148,0.31568718,0.051962852,-0.9064457,-0.31155103,-0.055577755,0.931785,-0.8885261,-0.2459935,-0.5346291,0.5915985,0.82598615,0.16157389,-0.09484321,-0.08025473,0.0442003,0.63188446,-0.90896416,0.8292949,-0.052158713,-0.11145061,0.12926555,0.93174136,0.28593647,-0.5982283,-0.65130615,0.9607177,-0.9622612,-0.74301124,0.4050107,0.08323264,0.4952234,-0.84820396,-0.50141597,0.7661147,-0.9175018,0.5576596,-0.755159,0.22933555,-0.6122912,0.22376156,0.08754277,-0.6150882,-0.026752353,-0.21759284,0.9225216,0.5518074,0.8746866,0.95971406,-0.082919836,0.364092,0.14062011,0.45121455,0.29455352,-0.9743588,0.82834125,0.38394582,0.7660264,0.6917826,-0.6602448,-0.016295433,0.8940462,0.85448515,0.3489958,0.38213825,-0.90362483,0.67419016,-0.3370102,0.13904202,-0.16275293,0.4865408,0.38704348,-0.13829964,0.44158614,0.7240797,0.8010067,-0.25564617,-0.04150629,-0.49647063,-0.52074987,-0.20311362,-0.913969,-0.9219753,0.3399086,-0.9590812,0.9426125,-0.9559912,-0.14275748,-0.5270572,0.93777347,-0.30144763,0.79163325,-0.4469416,-0.11041969,0.40400422,0.3297155,0.23305762,0.03591597,0.5911094,-0.313968,-0.7516685,-0.11118239,-0.26435542,0.12246704,0.4305395,0.9770484,-0.7210802,-0.9903715,0.5704738,-0.7753655,0.083987474,-0.5745479,0.26249707,0.21253252,0.54286873,-0.10232645,0.81602144,-0.4854234,0.30807698,0.43952572,-0.9476336,-0.18305242,-0.80995303,0.20126855,-0.86130536,0.69490755,-0.16601485,0.97212005,-0.9624181,-0.6056357,-0.43205088,0.7084378,0.3673843,0.8174974,-0.76908135,0.9080688,0.3503865,-0.044442296,0.9093691,-0.9361296,0.6636927,-0.9656197,0.28676867,-0.7516917,-0.14621395,-0.7268997,-0.47086382,0.34052587,0.34671152,-0.49366933,0.51369405,-0.28151906,0.727839,-0.84841627,-0.36633438,0.43138385,-0.30122936,0.534376,-0.016227603,0.7356318,0.1430633,-0.69320023,0.9720465,0.17610955,0.6566855,0.37554955,0.0580678,0.4449997,-0.018386185,0.63479996,0.5472871,-0.13953626,-0.39479256,0.24420655,0.775833,-0.98201394,0.5301789,0.9417386,-0.6525175,0.8655944,0.16577137,0.49345922,-0.37459153,0.5312513,-0.11932969,0.8494681,0.9805988,0.21580064,0.18383169,-0.20046526,0.20929813,0.8160105,0.9717853,-0.8262627,-0.07919294,0.35689294,-0.9376662,-0.8893409,-0.4083771],[0.47823656,0.21503258,0.084136486,-0.6410879,0.71191156,-0.040956378,-0.34676975,-0.8867265,-0.51636755,-0.6242492,-0.38432044,0.90120494,-0.24296796,0.18689346,0.11817801,-0.43013948,0.6496041,0.68139136,-0.55920476,-0.70456076,0.80721736,0.39495075,0.84226716,-0.7388321,-0.8179209,-0.5744982,0.73127663,-0.11132157,-0.5685298,-0.67660046,-0.58105993,0.95565224,0.41951978,0.35011578,-0.130754,-0.34943825,-0.9183652,0.13454723,-0.08650315,-0.4277923,-0.77255994,0.7361946,0.49696636,-0.15995014,-0.4318478,-0.101670206,-0.54773384,-0.37088305,-0.14639276,0.6038767,0.27120304,0.6755016,0.6215385,0.8152199,-0.21559441,-0.91671425,0.37276542,-0.1770314,-0.823167,0.28640974,0.22776699,0.76455176,0.6818032,-0.83976704,0.9568107,-0.33997267,-0.51831484,0.40691626,-0.6823525,-0.53238374,-0.5117743,-0.48494315,-0.23210555,0.8685875,-0.9320008,-0.9289773,0.8979844,0.0022172928,0.6930157,0.28374934,0.9732356,0.10215962,-0.9649288,-0.1724065,0.052196503,-0.25656152,-0.66588634,0.6043,-0.4342898,-0.21403974,0.2777964,0.25866628,-0.0422858,0.6270871,0.3444407,-0.5371117,-0.9456086,0.33673334,-0.11676085,0.9081248,-0.5833553,0.045349956,-0.68853056,-0.614009,0.11565113,-0.2438538,-0.09239286,0.752951,0.74722064,-0.2866171,-0.8146987,-0.629452,0.12995291,-0.10691637,0.31317413,-0.8743927,0.7294806,-0.14579022,0.10803652,0.21337223,-0.67408633,-0.12261486,-0.15879393,0.53168726,0.18981981,0.22955942,0.55734265,0.14080739,-0.4758532,0.6051109,-0.9833687,-0.43874896,-0.88102186,0.7848909,-0.13289535,-0.07211423,-0.20930976,0.64908016,0.71194243,-0.7039497,0.8358313,-0.41883737,0.8570794,0.85232735,-0.39934105,-0.09275162,-0.87128663,-0.93536943,-0.686087,0.21883333,-0.26659226,0.2001816,-0.7713031,0.6698669,0.58221114,0.53925955,-0.7958561,-0.22021782,0.19617116,0.8860916,0.19880354,0.7667998,0.22880423,-0.85789025,-0.3032484,0.62405026,-0.74843013,0.3450619,-0.97402096,-0.61471164,0.33491707,-0.9195996,0.14226735,-0.18801379,0.37754083,0.7447511,0.020305753,-0.011121273,-0.06897169,-0.7174285,0.10084605,0.49271214,-0.17310566,0.30531347,-0.12829679,-0.1835503,-0.6674459,-0.5508888,-0.7973202,0.3278451,-0.2762581,-0.989092,-0.54709095,0.8258507,0.097246766,-0.93096846,0.35235834,0.71496964,0.15557563,-0.023391366,-0.3443215,-0.21634859,-0.9613485,0.92862463,0.88391626,-0.34699267,-0.9420858,0.41671073,-0.7076739,0.83746004,-0.48104626,0.21526515,0.8487539,-0.08640033,-0.21475446,0.7060914,-0.060094535,0.92349076,0.2704066,0.88030183,0.29149616,0.80245864,0.14238214,-0.3018661,0.66154647,0.32400906,0.62749135,0.31641662,0.71473944,0.30850935,-0.60760736,0.30533624,0.8333031,0.95441973,0.62689304,-0.6828053,0.45406055,-0.10173035,0.4213972,-0.7813041,-0.24146444,-0.08415657,-0.84321487,-0.6347803,-0.19110864,0.50847685,-0.83784586,0.5393094,0.040605187,0.39115536,0.12912607,0.42886758,-0.55543697,0.2752738,0.6851125,-0.14678013],[0.6412692,0.34051764,-0.7329217,-0.4400928,0.025516033,-0.25850242,0.7019713,-0.016183257,0.4450674,0.21361756,0.38196206,0.8943342,0.28670657,-0.53194916,-0.74796915,-0.9583642,-0.4979064,0.051710725,0.12176633,-0.62434727,0.6456735,-0.22283757,0.88924253,-0.8469304,0.16185498,-0.911818,-0.7241886,-0.6764159,-0.8206168,-0.036474943,-0.13922685,-0.4419707,-0.73069274,-0.22632682,-0.3240745,-0.886457,-0.36880863,-0.13851005,0.19317985,-0.982962,0.2138722,0.17296839,-0.07984769,0.59527385,-0.8734852,-0.73218006,-0.7473972,-0.4274456,0.13912451,0.08749032,-0.073225975,0.3928523,-0.8464925,0.3094597,0.20754635,-0.13589323,0.4512751,-0.8859914,0.39805222,-0.06266594,-0.5343138,0.3783871,-0.19556648,-0.51845765,-0.64715564,-0.17606723,0.62502694,-0.48696655,0.79212534,-0.8615121,0.41044438,0.64060366,0.8585309,0.10472834,0.16178048,-0.52729493,0.8570101,-0.7060313,-0.9734452,-0.10596502,0.83557916,0.70325696,0.18445957,0.09189296,-0.96324897,0.46792078,-0.5954782,-0.04015255,0.5661268,0.8118187,-0.33773214,-0.48281723,0.46343768,-0.74415416,0.5513518,0.8354851,-0.63146514,-0.56139004,0.2424295,0.30258203,-0.35720706,0.7395693,-0.21957093,0.0006366968,0.6770458,0.28617036,0.53432155,0.04877901,-0.8523208,-0.2651587,0.007096648,0.15730643,-0.9125462,-0.4959827,0.101754904,-0.23757076,-0.8060724,0.7125406,-0.5552087,-0.11507648,-0.58058906,-0.3348205,-0.053093374,0.9803066,0.47622,-0.10673833,-0.8228341,0.602685,0.55337656,0.3262955,-0.8958298,0.41840017,0.051539183,-0.2760272,-0.74875796,-0.90399015,-0.0771721,-0.8161771,0.41484702,-0.24941933,0.93359935,0.3557428,-0.18783176,-0.16871452,-0.19527799,0.5049614,-0.570271,-0.040579557,0.154091,-0.21107745,0.64155746,-0.34400576,0.99381876,-0.642494,-0.11682892,0.97761345,-0.20733732,-0.19987762,0.5244167,-0.21621579,0.10900438,0.93163645,0.49540246,-0.17861623,-0.36932892,0.5886966,-0.89423275,0.36348093,-0.74722475,0.0057450533,0.8396013,-0.9898953,-0.70230645,0.69421065,-0.048675776,0.06366813,0.85301125,-0.88437885,0.17558467,0.97125864,-0.5364673,0.21774554,-0.55140597,-0.23554593,0.6847379,0.4481759,0.4245814,-0.30596685,0.8408017,-0.7263714,0.30334723,-0.8772945,-0.3405937,-0.36893713,0.6415763,-0.99803716,0.86034036,0.9907844,-0.79938555,0.21602547,0.39919412,0.06624806,-0.2933548,-0.85165405,-0.05067879,0.6314528,-0.6416993,-0.7003919,0.4061818,0.81950295,-0.8753978,-0.32295847,0.6245377,0.55315804,-0.6797484,0.89125896,0.48304248,-0.2690516,0.1366458,0.18249512,-0.8358848,0.4117341,0.5226792,0.9791467,0.7023978,0.7168958,0.35069847,0.66663074,-0.94736564,-0.050638616,0.2033279,0.86222684,0.91500676,0.9595592,-0.42793548,0.39728463,-0.4888997,-0.699752,0.81513286,-0.9467148,0.08987522,0.1249733,0.28785133,-0.9787012,-0.8509736,-0.3736943,-0.5018322,0.10624826,-0.6891887,0.75031734,-0.48107964,0.12939191,-0.14586139,0.018119335,0.05191028,0.98746],[0.54356873,-0.27250153,-0.5540519,0.23242545,-0.7192457,-0.30833,-0.75302625,-0.5431796,-0.38382494,-0.73762465,-0.23796523,0.6649785,-0.018906474,-0.0770331,0.38015866,0.18279445,-0.08418447,0.08336067,-0.90738016,0.039141893,-0.8761173,0.50138044,0.8301203,0.076092124,0.21872795,-0.75554985,0.35581946,-0.697683,-0.569559,-0.9260641,0.008088231,-0.10311258,-0.09235102,-0.4153955,0.8537159,0.7836019,0.8542999,-0.4172926,0.7725308,-0.6017947,-0.122000456,-0.16896904,0.4051237,0.88665104,0.8642709,-0.16681069,-0.87484527,0.38784444,-0.6298413,0.33612597,-0.78642356,0.77077806,-0.07450056,-0.9872316,0.86357725,-0.95781165,-0.10262185,0.369856,-0.98630255,-0.96369576,0.3358506,0.9446567,-0.9736206,-0.45776087,0.25428712,0.86514735,-0.24267048,-0.603511,0.06925094,0.5965568,0.32849443,-0.6668919,0.31082976,0.6944146,-0.83885765,0.2928518,-0.9037433,0.9434693,0.2118212,-0.61446136,-0.8807046,0.967975,0.93215835,0.09431505,0.86035955,0.23731017,0.971388,-0.10511947,-0.2789728,0.8115276,-0.113776326,-0.5155561,-0.43099004,0.7362267,0.062354684,-0.066657186,-0.19534844,-0.13711536,-0.36763614,0.9991236,-0.92414016,0.7286657,-0.68140656,-0.22639817,-0.9923685,0.88046825,-0.54005176,0.23108482,0.85162604,-0.4292745,0.9459317,-0.0460912,-0.84196526,0.6281588,0.91700876,0.36787558,-0.9875016,-0.067935646,-0.31812042,-0.98302305,0.89375937,0.86244893,0.6754619,0.25772345,-0.2896669,-0.15594941,0.76409817,0.5746032,-0.36794007,0.22779953,-0.5117998,0.23337197,0.3111055,0.21269774,-0.6903212,-0.6093703,0.6493815,0.15855646,0.08668363,0.9798913,-0.22263807,-0.25969684,0.043254495,-0.8496983,0.86559594,0.9323149,-0.67359084,-0.059148908,0.8192178,0.6944791,-0.079155564,0.8725872,-0.81899494,-0.3846131,-0.8946358,-0.78658915,-0.9467962,0.06087005,-0.9367312,0.1635809,-0.8836299,-0.1146549,-0.40097505,-0.37617344,-0.9174747,-0.2874403,0.64280343,-0.054662943,0.31848,0.5263791,0.71849406,-0.14605814,0.8453808,-0.29801166,0.23961508,0.15345621,-0.1808055,0.5251602,0.3921275,-0.22198176,-0.48235857,-0.17675292,0.7553854,-0.062419176,-0.6930449,-0.38438702,0.052366972,-0.30428147,0.10733342,-0.90373206,-0.6625741,-0.41148853,0.0952878,0.92310274,0.8635211,0.8920169,-0.8587218,-0.5805721,-0.9322237,0.15303624,-0.7104885,0.38107204,0.6223711,-0.7071613,0.97598505,-0.93309736,-0.9727935,0.47901678,0.37577188,-0.048091948,0.39421642,-0.47195637,0.66874254,0.28525054,-0.35406053,0.293123,0.1299597,0.66144407,-0.6831285,0.4669124,0.6601927,-0.052915156,0.83800364,0.22221208,0.18895316,0.12998259,0.7586541,0.92227805,-0.16153282,0.3475982,0.012177944,-0.6002334,0.45738387,-0.7609087,-0.51149327,0.13656938,0.200876,0.4625466,-0.038404167,-0.75994754,-0.4115935,0.5733502,0.31994665,-0.8445746,-0.29794842,0.8093822,-0.08023107,0.81003726,0.27716327,-0.4296019,-0.23794287,-0.5201659,-0.89744365,-0.399136,0.4928435,0.34242666],[0.5430685,-0.599841,0.10388553,-0.1539976,-0.6917515,-0.8950715,-0.35945046,-0.9718263,0.93973017,-0.0055502057,0.07065976,0.42965126,-0.20325619,0.5093701,-0.90775293,0.6674131,-0.3001517,-0.92318094,-0.121494174,-0.91315746,0.62713814,0.6825782,-0.4798395,0.37957096,-0.78978634,0.94861686,-0.35488522,-0.7319309,-0.414459,-0.4676562,-0.7027898,-0.14348012,-0.25375217,0.14608014,0.59350085,-0.19928306,-0.6413389,-0.8844066,0.93180394,-0.51652193,-0.06719935,0.29177296,-0.78430474,0.7076018,-0.26127756,0.49011767,0.013293505,0.7677932,-0.521849,0.09464407,0.7799858,-0.97426265,0.7223582,0.40600097,0.7152885,0.8604903,0.87999856,0.7243146,-0.36421126,-0.64036834,0.4598137,-0.62751955,0.44263268,0.4073863,-0.30276048,-0.78586006,-0.3165965,0.65066373,0.91586924,0.29153013,0.30875194,-0.41574508,-0.8549849,-0.60497224,0.15404189,-0.6646348,0.46688294,-0.18744129,-0.35915148,-0.27990395,-0.06467664,-0.1226784,0.78991807,0.49089706,-0.24764198,-0.72852707,0.13416171,0.34024692,0.43079162,0.73301053,-0.07928163,-0.3656534,0.47980464,0.5721723,0.023664355,-0.4396798,0.8491403,-0.19169104,0.0103622675,-0.47541744,-0.19328582,0.36262977,0.8519238,0.18662083,0.785892,0.19573092,0.88072217,0.32733035,-0.7480409,0.37992334,-0.6063926,0.067439795,0.08346605,0.9156927,0.4243083,-0.4175079,-0.4174376,0.9517356,-0.34497172,-0.5742334,0.07997823,0.34315658,-0.7801279,-0.8171413,-0.62918824,-0.3255946,0.104450226,-0.4271571,0.37136352,-0.40627837,-0.5137751,-0.341426,0.8021965,-0.88373405,0.91338193,0.5726937,0.025397778,-0.39670283,0.70500493,0.55662715,-0.6092493,0.80683136,0.08828783,-0.9491318,0.33940315,0.85327864,0.55088055,0.56411207,-0.8521361,-0.55882776,0.9777578,0.8974047,-0.8467193,-0.41540438,0.44460428,0.4635576,0.14275753,0.6690651,-0.18419087,0.11148667,-0.90871936,0.30787933,0.95596695,0.65823746,-0.10630149,0.7350334,0.2652433,-0.03279996,-0.99768925,0.8516147,0.55709434,0.9792652,-0.7532693,0.09840107,-0.9649841,0.273147,-0.7451312,-0.83099604,-0.1565445,-0.48246688,0.123524785,0.5403383,-0.575021,-0.06980878,-0.38403618,-0.41117978,-0.4947067,0.21760082,-0.32833833,-0.55017567,-0.57006395,0.35633254,0.787488,-0.40648162,0.46534657,0.08287144,0.8508644,0.43005037,0.1571697,0.6043699,-0.41196465,-0.4163195,0.5618013,-0.7037507,-0.11592209,0.9984926,0.650674,0.054879546,-0.45042026,-0.82854265,0.20868874,-0.026246369,-0.17439032,-0.701724,0.98796177,-0.44905764,-0.11709958,0.025775671,0.04227364,-0.6951217,0.22974014,-0.95235753,-0.70446163,0.5524864,0.42167866,-0.7992382,-0.8082228,0.6532123,0.6330546,-0.047855496,0.42228258,-0.17518151,0.011834264,0.23908567,0.92949784,-0.46015567,0.97853696,-0.8712703,-0.9538867,-0.38252872,-0.061853707,0.4504137,-0.33197892,-0.49979568,0.2411356,0.45618236,-0.46927708,0.48921204,-0.3944434,-0.085595846,-0.80002904,-0.17491126,-0.61222327,-0.1477086,-0.62537026,-0.45960712],[-0.7118578,-0.9906851,-0.12542933,-0.3166839,0.80671537,0.99746156,0.42182505,0.59743524,-0.25082517,-0.61612976,0.9619194,0.586524,-0.63122183,0.4481175,-0.4275946,-0.24582928,-0.020337641,-0.5751976,0.366732,0.77932644,0.3796214,0.795334,-0.6886492,0.9654962,0.6700388,-0.2974348,0.0476557,-0.2813496,-0.24782652,-0.40280616,-0.56295824,-0.84045714,-0.13554406,0.38910496,-0.7482978,0.96922207,0.25415897,0.36279726,-0.18924409,-0.059315324,-0.9714113,0.07058585,0.7510295,-0.1427347,0.49426305,-0.055801094,0.12043381,0.15743911,-0.6580012,0.4458003,0.8454263,0.9629743,0.48555934,-0.40469664,0.16077149,-0.5071919,0.6979641,-0.090925515,0.013277292,0.104150176,-0.050194144,-0.2968254,-0.15473825,-0.848019,0.9468285,0.8023765,-0.27793193,-0.020326793,0.1964153,-0.39681673,0.5000117,0.61686516,0.61404645,-0.5739527,0.75073767,-0.69096446,-0.9556955,0.45408547,-0.5287668,-0.27416003,0.5821314,0.8902166,-0.6233484,0.30637324,-0.24823254,-0.52593255,-0.32601655,-0.7308474,-0.7716665,0.75889397,-0.728742,-0.65491545,-0.65048003,0.7066058,0.9908788,0.32541406,-0.77467597,0.5990485,-0.08956319,0.6918864,-0.77786916,-0.85923934,0.9610238,0.73881555,0.9457885,-0.7714388,-0.65107214,0.05951202,-0.15543431,-0.14826405,-0.5514964,-0.7561214,-0.5621587,-0.7125627,0.5220188,0.059589267,-0.67347693,0.53888845,0.40021348,0.47276103,0.12839305,-0.54708445,-0.2486602,0.43752134,-0.6680747,0.15492713,0.2673452,0.90744066,-0.5648315,-0.5746764,-0.9162885,-0.55474406,-0.45635134,-0.22065324,-0.49629086,0.44137073,0.9291928,-0.3621639,0.36058474,-0.47679377,-0.8748604,0.61447144,0.4245869,0.37659752,0.31039035,-0.97262055,0.90724325,-0.93791735,-0.81541306,-0.06871039,-0.0011089444,-0.31356442,-0.801165,0.43767583,-0.43650663,0.76921535,0.38942087,-0.47649747,0.40689027,-0.20913857,-0.038783967,-0.55851287,-0.37565655,-0.5807579,-0.23197556,-0.9967523,0.7002299,0.6584945,0.78372824,-0.9193519,0.13039649,0.68868697,-0.82169616,-0.122992694,0.34762144,0.5139216,0.028328657,0.37474227,-0.8728691,-0.69545424,0.24768388,0.20526254,0.7228538,0.50387895,0.4264325,0.39727592,-0.7535791,0.105972886,-0.7841466,-0.2655062,-0.94805014,0.4056902,0.23094583,-0.4302767,0.56199026,0.6836525,-0.009872019,0.0053448677,-0.39142692,0.30714262,-0.6728505,-0.7512512,-0.72164553,-0.8960612,0.8008932,0.31020415,-0.49186826,0.32182777,-0.9099456,0.049571753,-0.2591133,-0.9853214,-0.6036284,0.10234451,0.5431775,0.75595355,-0.28136665,0.12046456,-0.007190466,0.37074852,0.75682676,-0.40574294,0.44264114,0.04923439,-0.97130173,0.7247062,-0.54225886,0.60858047,0.3150171,0.6639689,-0.47620636,-0.9770162,-0.23383081,-0.18001175,0.97739625,-0.0010648966,-0.073091924,0.61891496,0.70298576,-0.8837716,-0.11085582,-0.07540685,0.015918493,0.1662817,0.99360704,-0.96272874,0.00931859,-0.8713986,0.026545763,0.8060367,-0.034980893,0.8696635,-0.9874647,0.23782456,0.55031586,0.7328925],[-0.1938923,0.22912002,-0.92475945,-0.9238131,-0.147537,-0.10044879,-0.99318933,-0.5739145,-0.47422194,-0.2820971,0.2485094,0.57638335,0.124948144,-0.45575756,-0.17095459,0.09971845,0.4174788,-0.12341887,-0.51839566,-0.16776639,0.5783385,-0.7236406,0.055627346,0.99142694,-0.28461236,-0.6708603,-0.41796523,0.5089804,-0.3010502,-0.34586978,-0.9895515,0.52834463,0.2696724,-0.75549614,-0.80717254,0.697788,0.54367435,0.62679887,0.26376534,0.989593,-0.082217515,-0.41016698,-0.35949636,0.27570415,-0.21123809,0.43293524,0.0036531687,-0.5176966,-0.023008704,0.8653008,-0.5478153,0.13595414,-0.24377972,-0.28191775,-0.8454461,-0.47025174,-0.8265072,-0.91618645,0.3607993,-0.4766767,-0.68248355,-0.5021697,0.72713566,0.87164783,-0.29254568,0.7201648,-0.693289,-0.11955565,-0.648585,0.13125741,0.556044,0.79067993,0.61281574,-0.5079887,0.9144511,-0.011494458,0.6358557,0.7799231,0.20266509,0.28245246,0.32548654,-0.9002686,-0.46801096,-0.16635096,-0.79805446,-0.12550557,-0.22787559,-0.44840986,-0.9100501,0.66307914,0.5242952,0.4598608,-0.7340004,-0.2595579,0.67207646,-0.58004785,-0.13730264,-0.23114413,-0.43175018,0.0685972,0.12622416,-0.8767912,-0.86911166,0.8457339,-0.6907433,-0.3384952,0.5231384,-0.735791,-0.19636887,0.16604841,-0.10610747,-0.6064303,-0.11885154,-0.92165315,0.19783676,-0.78221494,0.9658413,-0.10651338,0.6697023,0.8329599,-0.051959634,0.7551209,-0.20950556,-0.31166416,0.6069622,-0.9038168,0.52468026,-0.12762636,-0.18006521,0.49449897,-0.8741919,-0.13300014,0.21167326,-0.8659321,-0.84377176,0.20227778,0.968843,-0.31374484,-0.47560763,0.5404408,0.35135603,-0.49208456,0.747959,-0.07609844,-0.23081338,0.1307255,-0.42128766,-0.8123472,0.5426054,0.45429146,-0.5458891,0.96921074,0.09915364,-0.26471007,-0.87944317,0.3711033,0.33271444,0.44255257,-0.76122826,-0.7869265,0.13682449,-0.3492353,0.4442742,0.3091321,0.04024017,-0.97310734,0.18189645,-0.25291944,0.92211854,0.995559,-0.751058,0.27958608,-0.63090575,-0.8707385,-0.51839614,-0.5598751,-0.99283814,0.8665929,0.91914916,-0.52376336,0.51747084,0.33702743,0.3297683,0.36564338,0.040387988,-0.8434026,0.7678462,-0.5236167,-0.98648894,-0.21487504,0.86956334,-0.47370952,-0.5525166,-0.6886811,-0.5963838,-0.29940867,0.06364119,-0.5611731,0.88366127,-0.25770605,0.94882905,0.8316318,-0.7344657,0.5470464,0.20534945,0.1745249,0.6001165,-0.030107856,-0.7463139,0.68043196,0.36394143,0.46612155,0.5234033,0.7625351,-0.30439734,0.79979706,0.3209964,-0.9213692,-0.7312559,-0.11635715,-0.74095356,-0.29448688,-0.26643056,0.13699365,-0.87400436,0.7226516,-0.16789734,-0.9422246,0.7256452,0.78101254,0.37648368,0.56833494,0.9829316,0.17685533,-0.47259247,0.68583894,0.07149327,0.7827219,-0.83970606,0.8658632,-0.44351912,-0.20204586,-0.7773027,-0.66692084,0.42118347,-0.5965582,0.0028871298,-0.31505167,0.6157162,-0.39618087,0.3795948,-0.014989555,-0.8299172,1.847744E-05,-0.5167525,0.24331594],[0.098062396,0.12854064,0.42105067,0.48269784,-0.65757775,0.5423411,0.24424696,-0.5273265,-0.6960517,0.7956065,0.48318994,-0.6534519,0.23512757,0.009763718,-0.27169615,0.53827465,0.91833687,-0.5971191,-0.6728381,0.46109223,-0.5171842,-0.5995097,0.71581006,0.72255385,-0.28023553,-0.8528457,-0.55794084,0.12182605,-0.59858227,-0.6085267,0.39825213,-0.017086923,-0.30639225,0.2840916,-0.4122234,0.9429525,-0.63832885,-0.32240385,0.52344096,0.014139771,0.55370724,0.75002384,-0.97086906,0.625577,-0.079748094,-0.34366095,0.44982076,-0.3940475,0.8755152,0.8413203,0.06667352,0.7672019,-0.3271435,0.022155285,-0.2394998,-0.30242795,0.41273057,0.6984968,-0.23706669,-0.8047321,0.100281954,-0.87757915,-0.92874426,0.912475,-0.6026457,-0.49972314,0.6529404,0.951036,-0.57801294,-0.21464866,0.17660344,0.24074078,-0.12056005,0.31302226,0.9073851,-0.26720804,-0.6286406,-0.9097669,-0.197698,-0.9365746,-0.3026665,0.83610666,0.24631083,-0.43990254,0.32479966,0.63105035,-0.68994343,0.6714525,-0.4764086,0.89020455,-0.469778,-0.33682573,0.91466284,0.32817304,0.9138577,0.43128633,0.67876804,-0.8833441,0.22822273,-0.58002496,0.0033986568,0.49878478,-0.81603456,0.090163946,-0.33528316,0.82593274,-0.11223811,0.3598343,0.114770174,-0.9722918,-0.67378736,0.3224975,-0.103805125,-0.3004921,0.49793446,0.2641753,-0.12388998,0.51115835,-0.41232473,-0.23369604,-0.8097797,0.9814879,0.42744458,-0.4682175,-0.74487066,-0.48657084,0.32607794,0.5512669,0.39916444,-0.5239012,0.054023862,-0.7452965,-0.13798964,-0.61767304,0.060026765,0.19854867,0.6521412,-0.8438532,0.8953806,0.49886692,-0.2567116,-0.049777746,-0.44331765,-0.5041168,0.5639919,0.20772457,0.76697946,0.21515489,0.8302386,-0.35031754,-0.44482368,-0.83239025,0.5289806,-0.5380813,-0.77024525,0.021910787,-0.9286598,0.65218294,-0.16496533,-0.8487123,-0.50014514,0.33649492,0.9606699,-0.3613286,-0.02631569,-0.9284908,-0.5395129,-0.48613203,0.6394812,-0.7006143,0.6120341,-0.2800368,0.61577773,0.08880842,-0.97698444,0.23999798,0.42480552,-0.06843859,-0.032209337,0.047404766,-0.25355023,-0.88907695,0.7210283,-0.25051796,0.9209224,-0.11358583,-0.27427715,-0.5999084,-0.84742785,-0.9618841,0.12720847,0.9999583,0.32111216,0.74409294,-0.000987947,0.40679348,-0.010447621,0.91801095,0.5221989,0.49248266,-0.25276262,0.25311148,0.5756737,0.5308529,0.03764832,0.83521307,-0.44816798,-0.55982774,-0.5610968,-0.010243297,0.59710526,0.13977873,-0.31560773,0.78762996,0.40483797,-0.6110682,0.6154666,0.21118784,-0.282251,-0.91272986,0.34578633,-0.93960446,-0.6387042,0.6013653,0.1721772,0.6120758,0.39885104,0.8716848,-0.9102037,-0.38377792,-0.74955434,0.5067947,0.40936244,0.47530794,-0.6998327,0.49333823,-0.46475065,-0.8098245,0.7118337,-0.9142907,-0.6654179,-0.7144494,0.96118844,0.16281545,-0.5589894,0.98742974,0.31556606,0.5334823,-0.660745,-0.38991976,0.7913269,0.77836454,0.20026183,0.43492877,-0.8533037,-0.3131581],[-0.10818434,0.9743084,-0.6413243,0.4255725,-0.5636379,-0.31985277,-0.6496241,0.82268107,-0.26068896,-0.90968937,0.7304163,0.20908427,0.48746252,0.9114996,0.8536825,0.42529106,0.49935424,-0.36796027,0.75268805,0.06023574,-0.9007929,0.19848037,0.16035461,0.18474746,-0.70349026,0.8653687,0.5324298,0.47971606,-0.1751048,-0.5279189,-0.69346726,0.9744338,0.3286116,0.6133255,-0.39847738,-0.43905908,0.8314998,-0.7137389,0.6493472,0.6544349,0.9351747,-0.8614927,-0.57649565,-0.6493,-0.74298656,-0.89351827,-0.9539803,-0.5722447,-0.24360222,-0.6339642,-0.72098964,-0.43177783,0.6822407,0.08646071,-0.41236526,0.6933353,-0.18604624,0.17392826,0.12906277,-0.4290067,0.14771736,-0.12934017,-0.0022140741,-0.7327701,0.78377783,0.7559825,0.88047266,0.87413704,0.30997705,0.29274154,0.59379125,0.21309304,-0.01730746,-0.90174687,0.12506104,0.9606998,-0.22502404,-0.19034535,-0.07226598,-0.809972,0.81934905,0.10467458,-0.27668166,-0.54114056,-0.80692923,0.7383106,-0.70780694,-0.75784904,0.025690675,-0.09181273,0.7469871,-0.3424284,0.15719831,0.07835388,-0.49328244,0.064514875,0.14072144,-0.84372556,-0.4330778,-0.49896914,-0.7739909,-0.8281174,0.1177783,0.4636562,-0.22775549,0.06591725,0.58552957,0.5839876,0.9613997,-0.37306505,-0.0816406,-0.99570084,-0.75380576,-0.06096518,-0.24835575,-0.95695716,-0.8526585,-0.46107352,-0.9258408,-0.9545328,0.46378958,0.63832176,-0.15155357,-0.5982102,0.54575443,-0.06378031,-0.94410515,0.9043386,0.59153557,-0.9394539,-0.18002158,-0.38129848,-0.75726753,-0.5732969,0.96401894,0.64746654,0.9868963,0.25966203,0.6866149,0.12715352,-0.847219,-0.2917946,-0.7192488,-0.6012442,0.9898279,0.74268806,-0.5886226,-0.78183657,-0.6732904,-0.5363252,-0.082826614,-0.3982051,-0.91788477,-0.47854507,0.03724134,-0.4123127,0.32343614,-0.28401154,0.9179019,0.8360249,0.010022402,0.68119097,0.992452,0.90085363,0.8069565,-0.7003421,0.76156664,0.81949115,-0.024984121,0.10417771,-0.9438535,-0.1123206,-0.14768839,-0.05299431,0.8926861,-0.24441588,0.3575704,-0.55030936,-0.5880381,0.8030664,-0.47515768,0.83773136,0.57762897,0.12786078,0.14337265,-0.7818165,-0.46341372,0.7212775,0.38946176,0.37633157,-0.6759697,0.27090776,0.34176028,0.8505901,-0.8828689,-0.52840996,-0.28424662,-0.6201023,-0.4082008,0.69017005,0.9811213,-0.40811378,0.24314749,0.22253191,-0.5924718,-0.97050595,0.7494832,0.13510954,-0.3712312,-0.7183428,0.23011684,-0.12625444,-0.6959734,-0.8851645,0.3111825,0.17229104,-0.89643806,-0.13540876,-0.24251908,0.588773,0.76307166,-0.95971084,-0.56997067,0.5986843,-0.2198525,-0.21476132,0.5459192,0.0017215014,-0.17012542,0.4210961,-0.96016926,-0.022327185,0.85789144,-0.27820808,0.8219451,0.9329561,-0.40541613,-0.64490294,-0.27966738,0.11387861,-0.5312997,0.40147674,0.09250879,0.107804656,-0.8537853,0.45028472,-0.033118725,0.22692478,-0.46059245,-0.055159867,-0.63197184,0.8511622,0.62241673,0.003026247,0.9270984,0.94083214],[-0.83814305,0.6444633,-0.5576155,0.62228954,-0.51642513,-0.25223827,-0.694765,0.20767272,-0.7581736,-0.7475559,0.01585412,0.5822346,-0.7071096,0.3782264,-0.4222929,0.7484648,-0.8557414,0.64360225,0.12007272,-0.6384051,-0.05221957,0.32222474,0.4524696,0.3298627,0.81835747,-0.6810056,-0.53768605,0.88503444,0.05306804,-0.8113314,0.35525608,-0.1451348,-0.20530647,0.8811128,0.7710991,-0.049879372,0.9127127,0.098043084,-0.3696962,0.72093856,0.09624171,0.8848361,-0.13402182,0.8937707,-0.5655694,0.38464665,-0.06596571,0.16118121,-0.632867,-0.38043672,0.7069036,0.9788145,0.8829535,0.5655035,-0.0069482327,-0.16036779,-0.8080063,0.11252177,0.8039321,-0.83541954,-0.7145522,-0.5797995,-0.8453953,-0.9468422,-0.10281199,-0.8390111,-0.21245885,-0.5882224,0.6071273,0.6275865,0.83575225,0.046215534,0.0132985115,0.39913416,0.2653532,0.06294429,-0.5437535,0.5586989,-0.104567885,-0.5662891,0.38496006,0.3011328,0.5179014,-0.5664953,-0.51823497,0.3764416,-0.028088331,0.22918999,-0.11193895,-0.06853306,-0.24187309,-0.19980907,0.294111,-0.53427666,0.43549073,-0.3239588,0.7302314,-0.18717963,-0.0034173727,-0.7265583,-0.40289456,-0.47774333,0.5540539,-0.26045352,-0.21618897,-0.33931196,-0.03448403,-0.51618063,-0.6998497,0.9301075,-0.61661434,-0.36670518,-0.7829104,0.37022114,-0.22037965,-0.015685022,-0.09770095,0.7211,0.5713928,0.52074635,0.18907726,0.55835116,0.52371657,-0.3243397,-0.13054043,0.035561204,0.7521044,-0.45242482,0.96364343,-0.41068792,0.332713,0.6434262,-0.43788373,-0.37800956,0.8366054,-0.13729656,0.7470789,-0.221645,0.6496936,0.821077,-0.5890743,-0.51190764,-0.07096022,-0.042046368,-0.45191872,-0.8751679,-0.41689867,0.9238899,0.686103,-0.5488242,0.7737421,-0.99086857,0.24142766,0.47583628,0.084364414,0.038754344,-0.0014598966,-0.12160641,0.8700869,0.74824977,-0.09141636,-0.58205926,-0.47982413,0.7108382,-0.40260553,-0.26004046,-0.92882144,0.5950992,0.5336158,0.91691697,0.23723614,-0.87605596,-0.9285937,0.7503158,0.10982072,-0.2990151,-0.37068868,-0.43423706,-0.8724209,-0.25537252,-0.54754007,0.8282145,-0.13852781,0.5124676,-0.18443006,0.32358158,-0.5980014,0.08627999,0.5376259,-0.20214891,0.8641634,-0.1313147,-0.091731966,0.90144384,-0.08750665,0.9929849,0.9679165,0.21820164,-0.63944083,0.8081217,-0.94634646,-0.011997819,-0.6097259,0.769186,0.21393967,0.64979804,0.93772507,0.49111187,-0.63398445,-0.6166204,-0.590557,-0.56722283,-0.2491855,0.12545943,0.29578984,0.080368996,0.5564686,0.007708311,-0.10473174,0.2738129,-0.66203904,-0.015101433,-0.94252676,-0.26423532,-0.94724643,-0.6314492,0.21567607,-0.83003753,-0.16217762,0.11683583,-0.2669316,0.4111098,-0.7947962,-0.6805427,-0.30902606,0.46445775,0.43794048,0.09228611,-0.70147204,0.16577196,0.3858564,-0.089113235,-0.27973557,0.15424645,-0.6115919,0.43138623,-0.88212925,0.78280854,-0.39434606,0.83212435,-0.5634837,-0.039791822,-0.6770667,0.086746216,0.47016084,0.06875491],[-0.06947106,0.6545094,0.71643245,-0.15461111,-0.56587803,0.76776266,-0.34671056,0.24917972,0.6503111,-0.0016667843,-0.77242666,-0.5686428,-0.56551445,0.8313321,0.6424285,-0.53581756,-0.2908197,0.72949636,0.8879565,0.4270742,-0.73536587,-0.09677315,-0.65264344,-0.3786326,-0.7493199,0.43286753,0.5643085,0.005698085,-0.3196805,0.77286017,0.08817637,0.118457556,-0.15070349,0.62221897,-0.4660712,0.78343105,0.37585366,0.45313907,-0.26835006,0.61809385,-0.7424027,0.4710847,0.5039352,0.39007485,0.20381284,0.68651354,0.348323,-0.22567815,-0.8103042,0.9723339,-0.7489721,-0.40656298,0.19878972,-0.9569134,-0.19587916,-0.9726979,0.30715287,0.09506512,-0.4052912,0.0012545586,-0.79654586,0.64759135,-0.43113977,0.87745094,0.91015685,0.10911572,0.5820607,-0.18773347,0.29740334,0.85899746,0.08832872,0.25604117,-0.0021535754,-0.73013735,0.16947687,-0.20645064,0.39929152,-0.04271829,0.4175545,-0.4358335,-0.9154555,-0.21001333,-0.18399769,-0.29201436,0.52183235,-0.5052606,0.91966784,-0.19379008,-0.18190181,-0.49337327,-0.5237218,-0.7192114,-0.14156973,0.73039544,0.4146397,-0.38999403,-0.09777546,0.6264844,0.479918,-0.9053029,-0.8955471,-0.46394354,0.47691846,-0.66930175,-0.11599487,-0.0050133467,0.5955906,-0.07107288,-0.12639034,-0.9894286,-0.37198943,-0.65012884,0.6775106,-0.9694577,-0.08328998,0.41346753,-0.16841096,0.86087453,-0.6443814,0.41541743,0.189448,-0.22414929,0.9941684,-0.20922339,0.38271928,-0.19245982,-0.60238904,0.26745105,-0.144777,-0.44052905,0.8913249,0.77280724,0.4773636,0.32285738,-0.5402864,0.548488,0.31306815,-0.51469594,0.82398045,-0.47315437,-0.10085124,-0.009259343,0.93260026,-0.19247323,0.8786161,-0.873593,-0.39672196,-0.17211205,-0.18631464,-0.9988278,0.778417,0.041350007,0.2708658,-0.9354994,-0.09475082,0.3286022,-0.45811188,-0.3138581,-0.052021027,-0.92353505,-0.40262425,-0.67186046,-0.9262959,-0.68586123,-0.8807534,-0.14479667,-0.12749249,-0.64534676,0.5708287,0.368222,-0.8996007,-0.653715,-0.9631059,0.8287729,-0.48373133,-0.8012927,-0.15674955,0.18664157,-0.087839544,0.25631225,-0.79573786,0.569723,-0.54623437,-0.14594918,-0.21894598,-0.15002513,-0.49805856,0.41286302,