,0
0,-0.00013289472174919344
1,0.00017584631522526287
2,-0.0002800088945281703
3,-8.579622455867777e-05
4,-9.997072608208192e-05
5,0.0003189942240276451
6,-0.00013371061293134212
7,-0.00020830684559695013
8,-6.041749512512143e-05
9,0.00012176856955570694
10,0.00037038312842499135
11,-0.0001036510294584777
12,-0.0003257062278450467
13,-3.6486382981543576e-05
14,-0.00045242683391216016
15,0.0001918098895622448
16,-0.00040032755687049055
17,0.0004884439784173968
18,0.00042588206898619955
19,0.00030637179363623344
20,-0.0003670290000450091
21,-0.0005900522875610575
22,-9.95761063962512e-05
23,0.00012445677608761545
24,-0.000420142624283813
25,-9.040800904442308e-05
26,2.7220801474059392e-05
27,-0.0005268495826663204
28,0.0004773443206385478
29,0.00032786508263907646
30,0.0002776915703470055
31,0.000251613408348952
32,-0.00011846910853182656
33,0.00022706034037814194
34,-0.00013214559870194375
35,-0.00019232805872384934
36,0.00039810277360330897
37,0.00017942253766880034
38,0.0002670968730758996
39,0.0005838477860282615
40,-0.000281608916171525
41,0.0004543899981033182
42,0.0003501307521550261
43,0.00037931381916592253
44,0.0001839635579739102
45,0.0007278506503659798
46,-0.00020974756455641543
47,-0.0002706205360652623
48,0.000218354581935239
49,-0.0006070858236425163
50,7.871731775089528e-05
51,9.66946533509987e-05
52,6.258383102093737e-05
53,-2.359788739607339e-05
54,-0.0008034372756278313
55,4.4309858820333316e-05
56,0.00013616628110825108
57,-4.2537472419866386e-06
58,0.00012219530084823496
59,-0.0001023388736710421
60,0.00019249727697787854
61,-0.000343985806245405
62,-0.0006915237560278292
63,0.00034721252102723433
64,3.172808205395385e-05
65,0.00017922230152747065
66,0.0003372559216932739
67,0.0002924810196682001
68,0.0002753610014846074
69,-0.00015012970889888345
70,0.0005028348782335759
71,-0.0001458255192636267
72,9.83278895386416e-05
73,0.00017450950367053976
74,0.00022385635360582163
75,3.1997354167159705e-06
76,-0.0006523809565023394
77,-8.482814545529015e-05
78,-0.00046641528879482136
79,0.00030647458948264596
80,-9.821515674681947e-05
81,0.00011935259096925486
82,-6.468135762718745e-05
83,-0.000470225751424244
84,0.00022008320268452944
85,0.00033085615639652424
86,0.000576895722293693
87,-0.00016095930297163738
88,4.433435165870945e-05
89,3.149256690516477e-06
90,-0.0001307833997840135
91,-9.451803928669841e-05
92,-7.722003047296246e-05
93,-7.207639139090652e-05
94,0.000735687270628883
95,-0.00014142584900923608
96,0.0001245849864404936
97,0.00012308612101785135
98,-5.590904934903059e-05
99,0.0004056902505598343
100,6.305800818849484e-05
101,-0.00017659328024929172
102,0.0006108669904726819
103,8.8559252840116e-05
104,0.0009596400473713564
105,-0.00018131760298997754
106,5.584844462429147e-05
107,-9.759857134277417e-05
108,-4.685688381658646e-05
109,-0.00029547448837444575
110,-0.0003416244312815821
111,0.00016512632553391529
112,0.00017894266520644925
113,9.768377034446893e-05
114,3.20782556919934e-05
115,-0.0002742653352657154
116,-0.00011059417562652488
117,0.00010669505695252133
118,-0.0005700593224534235
119,-0.0002595107828280119
120,-0.00020912211838976873
121,-0.00019728756936096596
122,-0.00019135784770392858
123,-4.522164769635636e-06
124,-0.00045107737747550125
125,8.065182267480312e-05
126,-3.937303773148223e-05
127,-7.379433599626025e-05
128,0.00014474317104834773
129,6.632749371347486e-05
130,-0.00024209991761252
131,0.00012308014009066964
132,0.0002683719529165386
133,-0.00012486728594593096
134,5.619210552927762e-05
135,-0.0003505778458194721
136,-0.0002373067163799786
137,0.0003089940015755683
138,0.0003618864061214596
139,0.00020187586421289996
140,-0.0001711555705823363
141,0.0008595112768555861
142,-0.00019465867609216243
143,8.361141134689365e-05
144,-0.00030534409545336714
145,0.0002378522919275483
146,-0.00045691094869610013
147,-0.0010608641924287452
148,-0.00011970446530361789
149,-4.4652280673827095e-05
150,0.00016391234002158237
151,-0.0004433951431458053
152,0.0003855933516638908
153,-2.781774459174764e-05
154,0.0003268482577119302
155,-0.0004713531537665703
156,-0.0006762670076820656
157,4.885207784317745e-05
158,0.0005962368028134743
159,-0.000354779673108175
160,0.00012134848852713036
161,-0.0002634251777406195
162,-0.000480782008229139
163,0.00020511998657068525
164,0.0006286213605301387
165,-0.0003912902496103006
166,-0.00011582414481787413
167,0.00037735542641192737
168,0.00014550569859431432
169,0.0002291700523344609
170,0.00020131350888494783
171,0.00013636512702737397
172,6.236362099620856e-05
173,9.247714351752235e-05
174,0.00046858388136061324
175,-0.00015406885843523594
176,0.0001240381803829894
177,0.00019497333385650614
178,-1.7902766258296088e-05
179,-8.706082454591052e-05
180,0.0005753546225796563
181,-0.0001780570712741059
182,-0.00015785256854158669
183,1.643098959368623e-05
184,0.00027327239230050384
185,3.1022196602111444e-05
186,-0.0005419297730904629
187,-2.0552510453159887e-05
188,-2.2314352260537177e-05
189,5.370621460005811e-05
190,-0.00010548297902920179
191,-0.00027469491568264453
192,0.00039783001669329156
193,0.00012105490598221852
194,0.0001594460973571242
195,0.00013044534645629063
196,0.00020771481270859826
197,0.0003945404885181796
198,0.00019092079407549746
199,4.225156487826053e-05
200,0.00033160747305447996
201,7.246719668511467e-05
202,0.0005102073683391989
203,-1.3369624720947316e-05
204,0.00032529821032830427
205,0.00039835962559576474
206,-3.372035209388406e-05
207,0.0004725028078122151
208,0.0005990927782699913
209,-2.7897384809042144e-06
210,-0.0006029980643921791
211,-2.0560637999770005e-05
212,8.977031604656216e-05
213,0.0011134811646599345
214,-0.00020282010761261902
215,0.00026314256896374885
216,-8.691846838527825e-05
217,-0.00021657267017084823
218,-0.00031616353439682904
219,-0.0005331919418079149
220,0.0001238132407698085
221,0.00037162863171721656
222,0.00045713600431989413
223,-0.0002637569340654624
224,-0.00043535805944904497
225,-0.0002216238852045693
226,-0.0004949867385774616
227,0.0006213610111941666
228,-0.00034669415867005034
229,-0.0007541132812748679
230,7.297238896423618e-05
231,-0.00012886451818458548
232,-0.00010465655008202225
233,-0.0007105950374677905
234,-0.0001578446697689826
235,0.0003201680300093057
236,0.0002731356933280572
237,-0.00018091021752765537
238,0.0002750554138406255
239,0.0002623851297389182
240,0.0004283534755338374
241,0.0004543728754084791
242,0.0004101206163757123
243,-0.0005352558841658639
244,0.0003504103608663452
245,-0.00014625887644661764
246,0.0004715090167909029
247,-2.3078277014166483e-05
248,-0.0004515400279512722
249,0.0002958575750305487
250,0.0004300713476298114
251,8.715153128082998e-05
252,-0.00027796749870272295
253,2.1655411394068397e-05
254,-0.00036207831460685885
255,8.302017671393785e-06
256,0.00041954480790714043
257,0.0006128919031320225
258,-0.0005063010837089963
259,-0.00043772844424975246
260,-0.00011392927475859326
261,0.00029550487319054524
262,-0.00032793194627833374
263,0.0006168130840623788
264,-0.0003699046690972358
265,0.0005158513829246673
266,0.0003157500712617756
267,-0.00041253019610306395
268,0.00027646572164200493
269,0.00020320262494703345
270,-1.6185386817924715e-05
271,0.00023333236982946807
272,0.0001776265737698231
273,-0.0004570432336824822
274,-0.000764930537427174
275,-8.856607751901683e-05
276,0.0004258663051485618
277,-0.00012388174411889817
278,-0.00015182710830668488
279,-0.0004718983729541354
280,-0.000159742389305241
281,-1.7032228360771244e-09
282,-0.00015325585284750581
283,0.00034272806451377967
284,-0.0006931560353457945
285,0.000116780217645871
286,8.033108674781943e-05
287,9.157215261206773e-05
288,-0.00024249623010567277
289,-0.00019057902938749772
290,-0.00010764258167816229
291,0.00012218224514663864
292,0.00018302939337177236
293,-0.0004674923103556324
294,6.943188031420138e-05
295,0.00021058099414185752
296,-0.0004505141840478395
297,0.000564737485119458
298,8.554995105648273e-05
299,-1.5836526598018864e-06
300,0.00045958190986601904
301,-5.063548922928712e-05
302,-0.0006932115993245308
303,-3.732309036592834e-05
304,9.270089196521358e-05
305,-0.0002997097159164426
306,-0.00014144812107696634
307,0.000256080318126984
308,-0.00021575730264225432
309,0.0005613642851137996
310,-6.843683335811406e-05
311,0.000569238937556439
312,0.0004752564039903472
313,-0.00041953730787942166
314,0.0003636236462229756
315,-0.00011601922708412573
316,-0.0005175572971234646
317,-0.0003367424280220806
318,-0.0007714176235436579
319,4.350385995881654e-05
320,0.00026391787937836485
321,-0.000522926847295419
322,0.0002498196399785987
323,-0.00029032030215751705
324,0.0003179463619126325
325,8.295441810181006e-05
326,-0.0004549107739593331
327,7.21409931759598e-05
328,-0.0002147446754161838
329,-0.0001391204342611655
330,-3.509855949853864e-05
331,-3.208447933566833e-06
332,-1.0180479205708785e-05
333,-3.320789053088411e-06
334,-4.545151277766612e-06
335,-9.325364222475434e-05
336,-0.0002404004789286563
337,0.0001312927541497346
338,8.459005368483577e-05
339,0.00013222899154206506
340,-0.00020556756702832122
341,0.0002434675095727896
342,-1.359553835132463e-05
343,0.0005063484049653124
344,0.00020185675384011995
345,-5.443291003207827e-05
346,0.00020400032855262076
347,-0.00025857240686913576
348,0.0001695162933681538
349,-0.00046327531371193775
350,9.181493516853858e-05
351,0.0002758523034764688
352,-9.598726295420912e-05
353,0.0006409199344576761
354,1.9818631543267188e-05
355,-0.0002124673265470506
356,-0.00010267546661859755
357,0.0002008749761715211
358,0.00016520159861386095
359,-0.00010314853823568398
360,0.00013531692328322393
361,-0.0004221849338630236
362,-0.00019138017270401705
363,-0.0003301124237744151
364,9.91471533977503e-05
365,-0.000876417993855833
366,-0.00028845350541197826
367,-0.0002449061584652294
368,-0.00019813639307808003
369,0.0001014467180757137
370,-6.603039557267377e-05
371,0.00016495728382147926
372,-0.00015953733631808914
373,-9.902690408739628e-05
374,-8.542088945979112e-05
375,-0.0006472315851088263
376,-0.0009501995205496005
377,-8.21692638508596e-05
378,2.7421440878131614e-05
379,-0.00011142302821634741
380,0.00018499278503053258
381,-0.0004257908808020083
382,-0.0003921571895243984
383,-2.327047741606426e-05
384,9.313029990255634e-06
385,-0.00016494062335205504
386,0.00022762690448879786
387,-0.00024150712518721112
388,-0.00029550365834942046
389,-0.00014819158705521126
390,-0.0004792761480887025
391,0.0006236216512849128
392,-0.00012595979019804443
393,0.0001735303882680598
394,0.00045902293110844925
395,-0.00012198703345488057
396,3.762387640188764e-05
397,-1.6359344260736675e-05
398,0.0004585078733742302
399,7.760376596977086e-05
400,-0.00024314419194131068
401,-0.0001404844777892781
402,0.0006312937140490097
403,0.00019190612372039088
404,-0.0006137367811369535
405,0.00015476368019233703
406,0.00015359715460506408
407,-0.0003859229939183808
408,-0.0002518774389349077
409,-2.3884928165722236e-05
410,0.0001775137053451323
411,0.00010382600227737605
412,-0.0003127544697361096
413,-0.00018484599536168
414,0.0003554410934672998
415,-0.0004958052771299192
416,-0.00031923337748453905
417,0.00047011204580107643
418,0.0001541079152763991
419,0.0004921284475865105
420,0.0006532835892201656
421,0.00021256328933349735
422,-5.094126690358136e-05
423,0.00020852097168862815
424,-0.00022238831230537415
425,0.0001779244608317334
426,0.0004961788199879109
427,-0.00014388279282618886
428,0.00024195130185070647
429,-6.580941202866128e-05
430,-0.0002766695684104667
431,-5.874561544711729e-05
432,-0.00012936437143471185
433,7.578556081342866e-05
434,-0.00045167664734282716
435,-0.0003507812408173333
436,-0.0001444447129927051
437,0.00029299924705807
438,0.00018734842117469166
439,-0.00043139122268351945
440,-0.00013831442850170813
441,0.0001518712056012891
442,-8.836584731184138e-05
443,0.0003399669654169778
444,-0.0002260409693693025
445,0.0005906790155903603
446,-1.139416849522357e-05
447,0.00035065148072101893
448,0.00026078001046565076
449,0.0004136297916578037
450,-0.00034976772750611667
451,0.00012177836815114873
452,0.00021695676320951694
453,-0.0001611721065024708
454,-0.0003045494094667946
455,-7.789256678100254e-05
456,-0.0006834406401207747
457,0.00015836674668054057
458,7.221433880405836e-05
459,0.00025464774331365264
460,0.00021265215586559303
461,7.683101370539898e-05
462,8.479212809227218e-05
463,-9.327365623216676e-05
464,-3.078818243719546e-05
465,2.6330976913610344e-05
466,-0.00024299498329219
467,0.0004248518114434976
468,-0.00010030378785516242
469,-0.00014001288332315286
470,-0.00010394318087014937
471,0.0001628320343753667
472,-0.00010371758866718994
473,-0.0003526100745279639
474,-0.0004660775656484586
475,0.00018228557554540424
476,0.00033945067081699373
477,0.0004424298560815217
478,-0.0002989719053097414
479,0.0002633514458643101
480,0.0002838206835167558
481,0.0006423536554363184
482,0.00023865607693114962
483,-0.00036753779126774184
484,-0.00037918812064384206
485,-0.00025128757145801057
486,-0.0003998070846959224
487,-3.3044259351601547e-06
488,-0.00026390164433535214
489,-0.00022266516003847592
490,-0.0003634790785314088
491,0.0002899028839593419
492,0.00071160007123818
493,1.0827544451820391e-05
494,-0.000510521863873448
495,0.0002617655127930868
496,-0.00042080712588181456
497,2.7164074869455826e-05
498,-0.0005276388985403542
499,-0.00018829835699405172
500,0.0006891547562102171
501,4.6236242551680125e-05
502,0.0007778765988590171
503,0.00010609522614035032
504,-4.976841064648887e-06
505,0.0001537110936353727
506,-0.00018483432890022217
507,0.00027034576950989375
508,-0.0002462652269077907
509,-0.0001280449143238902
510,-0.00011669406737725372
511,1.104543762134112e-05
512,-1.0060861567007469e-05
513,0.00015432163491512882
514,0.0002244974818278416
515,0.00024410063954763737
516,-0.0003095235866199422
517,-8.418773029885263e-05
518,-0.000352428353350819
519,-3.923814057284545e-05
520,5.559652290637215e-05
521,8.400372394653937e-05
522,-6.096420952851328e-05
523,-0.00016642484591569335
524,-0.0006940994251146254
525,-0.00025691007293751763
526,-0.00020776696275809974
527,-0.00032664105276869487
528,0.00037937785876259995
529,0.00019543779175322428
530,-7.471540946974879e-05
531,-5.16776676352676e-07
532,0.0005578849644571454
533,0.0004921380587608876
534,0.00015999689951308647
535,-2.608524052467717e-05
536,-2.2839472998454402e-05
537,0.0002582705154629258
538,-3.928454041456993e-05
539,6.58138010182198e-05
540,1.380669629966677e-05
541,0.00017639636612944504
542,0.0003353396212651882
543,-0.000315630449025633
544,-0.00022423740489841573
545,-7.538330734130885e-05
546,-0.0002661222515333437
547,0.00013309959326835067
548,0.00012249131104053089
549,-0.00011879695058075867
550,0.0002689863690179507
551,0.00018505784294164804
552,0.0001182185400553094
553,-0.00027861454127262443
554,0.00017853292278684983
555,-0.00043825173685065267
556,0.0007485458358869462
557,-0.0001408883004101256
558,-0.0001345621705531726
559,-0.00011519749146305199
560,8.260807222873503e-05
561,0.00038978386498813395
562,-4.7792968398553505e-05
563,-9.408867842413093e-05
564,0.00010189057862327641
565,-0.0002331579354608921
566,0.00034056018638923576
567,-0.00025600131518179847
568,0.00022557310141891305
569,-0.0001271596709804803
570,-0.0002870734817052748
571,-0.0011423337093783852
572,3.8544368062032996e-05
573,0.00013026081111537044
574,-0.00032851817311962397
575,-0.000721721251956617
576,-1.635610154043588e-05
577,0.00027122545956033287
578,0.0002834559165557041
579,0.0007815699777469976
580,-0.0006911503944266779
581,0.00045910623353792503
582,-7.485767298520098e-05
583,-0.00046282484453440365
584,-0.0008246499372801216
585,-0.0006948623926759573
586,-5.084787926102066e-05
587,-0.00015365506472878585
588,0.00024908862829677123
589,0.00020223034183339668
590,4.7885409292745305e-05
591,-0.00014971568722787197
592,-0.0002884537402155624
593,-5.291497293324169e-07
594,-5.194590206000124e-05
595,-0.00012849570514937914
596,-7.94587786738464e-05
597,4.046870655098405e-05
598,-0.0001319573343036315
599,-0.0002054510218454225
600,-0.00036338228535843885
601,0.000171687662756799
602,0.00041202932347042455
603,0.00012139988658483736
604,-0.00013646246491432718
605,-0.00020350990447194801
606,-0.0002388121823297404
607,0.00042530997215809574
608,0.00020715377648858782
609,-0.000290317201919149
610,0.00025808902246144755
611,3.4062573568182174e-05
612,0.0002694623387748857
613,-0.00016895302636572664
614,7.201930374429305e-05
615,0.00010670888473705419
616,-0.00018867726474975215
617,-0.0002305765877197734
618,-0.00022656444713431295
619,2.109467822440367e-05
620,0.00027550284349376426
621,-0.00046985699070773974
622,-5.775208862800433e-05
623,-0.00014027686525737098
624,0.0003296272579252163
625,-0.0005693264575302551
626,0.00015258404873084647
627,-0.00017484739530348252
628,-0.00016526008975029015
629,-0.0001925968900537959
630,-0.00016079149703871357
631,-9.299021369877179e-05
632,-0.0007265934169159749
633,0.00011893896383229207
634,-0.00014646444792470813
635,-0.00026462540536421495
636,-5.6920087157742655e-06
637,-0.000133338038895563
638,-0.00027645356365999153
639,6.608244343882855e-05
640,0.0005775370022902561
641,0.0001516015210776133
642,-0.00023977564198631327
643,0.00012660129975867015
644,0.0003607065457724239
645,0.00019225414236124605
646,0.00013244090137540953
647,0.00012809540255761864
648,5.885319635857072e-05
649,3.89590421970123e-05
650,0.00022320297045423627
651,-0.0005778060180029945
652,-0.0004540564657757359
653,0.00027560464176517175
654,-0.0004517217328499591
655,-0.0006756520446439014
656,-0.00041037386270362686
657,0.00046823410903999935
658,-0.0001964650893171466
659,-0.00019260084631732863
660,0.0004806069037518313
661,1.462147326250224e-05
662,0.00033408441669359484
663,8.214262075904872e-05
664,0.00023748897132642316
665,-0.0002417121453667494
666,-4.0883626619410326e-05
667,0.000264226730255339
668,0.00016134467418182515
669,8.165522080381942e-05
670,9.474973771344592e-05
671,-2.4156825814169957e-05
672,-3.579541209423779e-05
673,-0.00026999042788233444
674,-0.0005139159070027463
675,0.000483073123323588
676,5.8683655177934035e-05
677,-7.954744955848779e-06
678,0.00025303527643368213
679,0.00015734627578022976
680,-9.776107831885866e-05
681,0.00022032242434704942
682,5.901408607245972e-05
683,-3.539829363736064e-05
684,-0.00035376636468426476
685,-0.00021378763907195828
686,0.00024259237234177723
687,-0.0005948026403826698
688,0.0003981961020143288
689,-0.0005053797494665662
690,-0.0002455373602136533
691,-0.0002142539263842394
692,-0.0002755343780005733
693,0.0002645799513547576
694,-0.0004776771141223204
695,-6.489439044028429e-05
696,-0.0001111379340838456
697,1.3408230474297439e-05
698,0.00034758503218810274
699,9.266645235558112e-05
700,-0.00016204301169974342
701,-0.00022416870716289995
702,-0.0002027430114417039
703,-0.0004879553417611577
704,-0.00030074002344462826
705,1.5575448226418173e-05
706,0.00017590759805064836
707,-0.00023855975170939314
708,0.00040027065646347856
709,6.429517659227059e-05
710,0.00023950180119025575
711,-0.0002491411773653956
712,9.083603657454836e-05
713,-0.00021572026409071187
714,0.0004767727732434235
715,-2.1546029910038357e-05
716,-7.050467362671942e-05
717,-0.00022581535944409182
718,-3.463292033849909e-05
719,0.00034904537177776724
720,-0.00013288500307511618
721,2.123439768399737e-05
722,-0.0002762146651088823
723,0.00017685521741233197
724,-0.000191881779544808
725,-0.0005621822852374871
726,-0.0006683697540577903
727,-0.0004881656491500693
728,-0.0001777055600523786
729,0.00027570695761748435
730,7.08748685634234e-05
731,-0.0002817304828093419
732,0.0001188353419280813
733,-0.0006203203769627834
734,7.886543234373031e-05
735,-0.0001599298149350835
736,-0.0003353976287506258
737,-8.332431503899277e-06
738,-0.00013893824599036763
739,-0.0002730548404132844
740,-3.9823593750634496e-05
741,-1.7810929192982063e-05
742,-0.00012811500303069512
743,-0.000498056426401171
744,0.00017216839109689502
745,-8.486952711543143e-06
746,4.257836733073905e-05
747,8.719276045399615e-07
748,0.0003291310115104471
749,-0.00023811577869145342
750,0.0006328121999317628
751,-0.000370869208345327
752,-7.225122510769557e-05
753,0.00021672530468792064
754,-1.6867964499142506e-05
755,0.00012042471385166739
756,0.00027482156626988836
757,-0.0004954080531254056
758,-0.00023303601795664566
759,-0.00015138355701303574
760,-0.000248999411209662
761,-0.00043060707221262987
762,0.0003080879877362092
763,0.0007537253120253311
764,0.0002727719327832555
765,0.00034124435520385124
766,-0.0004538718482344867
767,-0.00025517600440342356
768,-0.0007222592423232927
769,-0.0005665842618319795
770,-0.0001576588122315744
771,0.0001909822619735151
772,-0.00042935894016921247
773,-0.00018842151907667604
774,8.733945157399026e-06
775,0.00022533307286650673
776,-0.0005479497683622249
777,5.5103031608389006e-05
778,-0.0001652077754771371
779,0.00025657926375492377
780,-0.00034274614734626453
781,0.0004696113854846732
782,-0.0005105682632636837
783,-0.00052346663813545
784,0.00020322856269684155
785,0.0005052594333462641
786,0.00025564447002857576
787,7.798172287503057e-05
788,6.823558879812946e-05
789,0.00016116217622784196
790,0.00016320453508515643
791,0.00028488195470978807
792,-0.0002696972836556296
793,8.912222049748372e-05
794,-6.740593016161892e-05
795,-0.000255301493884553
796,0.000184226850301653
797,0.00034490424966901673
798,0.00035641428047113893
799,0.00010213429055412218
800,0.0004371937704871734
801,-5.387174719858345e-05
802,0.00016626015174418842
803,-0.0001156328753909053
804,0.00027870989397045336
805,0.0005888793637865661
806,1.1314829593371916e-05
807,0.00013034688284072323
808,0.00037753140087913367
809,-0.00015513629845535356
810,-0.00038162213047450693
811,-0.0009205094837391814
812,0.00022520568512380466
813,0.00038349405806584717
814,-0.0007186218306790274
815,0.00043581332489581106
816,0.00020840353005465535
817,0.00017851108728218906
818,-0.0007097516251185408
819,0.00017658077000791506
820,-0.0002567880780157443
821,-0.00013974506567077764
822,0.00040816267871780516
823,-0.00020158216215948341
824,-0.00013097215385356862
825,-8.168458704195968e-05
826,-0.00025030281684684027
827,9.304184655523243e-05
828,0.00015770838467067373
829,9.913338098871082e-05
830,-0.0004625238311748531
831,0.00046097114838816695
832,-0.0003076279966357228
833,0.00010181358594969071
834,-5.207286696122017e-05
835,5.47581915799772e-05
836,5.047929349872507e-05
837,5.103187428854675e-05
838,0.00029953810304539054
839,0.00012578319944909163
840,-0.00022965303958531234
841,4.806509268747317e-05
842,0.00021351587946118007
843,0.00014523855183444493
844,-0.00037730063925775395
845,-0.000626465079622119
846,-0.0003433299430535309
847,0.0003794716928260195
848,0.000389931624776169
849,0.00014730305105921103
850,0.00027990212468385466
851,0.00013496069319078195
852,9.500371980879801e-06
853,-0.00025983618483194375
854,-0.0002430561992833641
855,-0.0005728948378353629
856,-1.2288326721998338e-05
857,-0.00047257113670336746
858,0.0002441742016281276
859,-5.472646160463862e-05
860,0.00024258650503174593
861,0.0006090616963741633
862,-0.00012009179041357434
863,-0.00017722736375498977
864,-0.00033843452245548554
865,-8.747982203063305e-05
866,-0.0002276123952735452
867,0.00013989314538232823
868,0.00017718938017265395
869,0.0004336785083634042
870,0.0001271122645476484
871,6.69146078194408e-05
872,0.0003798567006654988
873,0.00035459899082128593
874,0.00023002552535743604
875,0.0005853162624857493
876,-5.23138463158894e-05
877,3.7495216810660144e-06
878,-0.00010496439339558567
879,6.266513997847132e-05
880,-0.0009974883325399358
881,0.00013657220479201086
882,-2.6475116557001243e-05
883,0.00015233605732028802
884,0.0005473024558383273
885,-9.707391839333993e-05
886,0.00020824971808883325
887,0.0005481375715464894
888,0.0003062151935963934
889,-0.0005306694178117944
890,-4.424961545703155e-05
891,-0.0006921748304472481
892,-0.00015896439102025086
893,-0.0005656280738779256
894,-0.00018205241929665521
895,-0.00013883977781125757
896,-0.00010060915629331789
897,0.00040550561345942753
898,2.6629779025824713e-05
899,0.0004982474501809727
900,-1.2891407293107043e-05
901,-0.00026446377562420423
902,-5.889368156709374e-05
903,-0.0002965141606839645
904,0.00044057062179753235
905,-0.0007358158446038086
906,-0.00035661162570338445
907,0.00019035742147863383
908,-0.00010784374849684795
909,-0.00022725457606622527
910,0.00033908153517789454
911,0.0007591410265956393
912,-6.447194060929499e-05
913,0.00015898804660896546
914,-2.1301755020278992e-05
915,0.00019615366758867042
916,0.00028715221905098904
917,0.00033871894772595664
918,0.0001335667613822415
919,0.00022875196280852984
920,-0.00014490181117242384
921,-0.00017653459163528428
922,-0.0003624078894870031
923,-0.00022050393818830562
924,-0.00034397569207420827
925,0.00031093740157300646
926,7.929515167279258e-05
927,-0.00041332470528549235
928,0.0009062095857655846
929,-0.00036433932813868233
930,0.0001393842255426821
931,0.0003994168173664334
932,0.0002442981190968092
933,-0.0002179720545839615
934,-0.00018721151723680287
935,0.00048174920476778423
936,-0.00023973808172435596
937,0.00037862595479121235
938,0.0005008032563699455
939,-7.671483390490993e-05
940,-0.00018863522128510446
941,0.00015453615961749623
942,-0.00012710928052114438
943,9.659837606562516e-05
944,0.00030511834711720884
945,0.00010541166274182714
946,0.0001870531400252672
947,-0.00027843735126517036
948,-0.0004140186533907786
949,5.957611101240049e-06
950,4.739784303467771e-05
951,0.00026082900049167925
952,7.601755269650113e-05
953,-0.0007785865913752296
954,7.208273400848223e-05
955,-0.00038562460480389397
956,-5.5999933463377996e-05
957,-0.00019380230267278486
958,-0.0003589953627595168
959,-0.0008276229565723934
960,6.0061390047527086e-05
961,0.00036806659152503805
962,-0.00013594569039853066
963,-0.0005343981248284323
964,0.00011908133057885365
965,-2.6127814409535116e-05
966,-0.0003046719289526758
967,-8.214195606962946e-05
968,-0.00012457244812156092
969,-0.00010820966637653911
970,5.3378517344661335e-05
971,0.00016830681991308294
972,0.00019420026074604843
973,-0.0002124701368365634
974,-0.000646248485538071
975,-6.270816817403802e-05
976,-0.0002785708108602565
977,0.00010324965613434056
978,-0.00030111122412608906
979,-0.0005744768521739309
980,-0.00030764313968151204
981,0.00042399761477245805
982,3.2957574638812774e-05
983,-0.00013636919023343437
984,-0.00042106476450302086
985,0.00012974309522425763
986,-0.00036131939001905175
987,0.00036037081520138203
988,-0.0002260996888147551
989,-0.0001315045516231624
990,-0.0002926672478117311
991,-1.5342388325249147e-05
992,0.0002906990862827222
993,0.0005029466298768277
994,2.627616573928022e-05
995,-0.00021409603271055472
996,-1.1689132288504527e-05
997,-5.0751411249449495e-05
998,-0.0003991075983485181
999,0.0001262495267943087
1000,-0.0002577100151643642
1001,8.03370749291782e-05
1002,0.0002971126897587122
1003,9.227489960106852e-05
1004,-0.0005575110628410061
1005,0.00014694494869731364
1006,-0.0003848795193365245
1007,-0.000367415004939057
1008,-0.00039935734868580953
1009,-0.00023144856986260918
1010,-3.7403349879517646e-05
1011,-0.0003274540680627282
1012,-2.5945583622374786e-05
1013,0.000473372296548382
1014,0.00020203091642775163
1015,0.00026084824510813593
1016,-0.0001613849619977234
1017,0.0001622896839303041
1018,-0.00011183054483884278
1019,0.00038143781621464843
1020,-0.0001678075579462832
1021,-0.00022462874082183545
1022,0.00016453588727414253
1023,-0.00014102946321315808
1024,-3.233573442532361e-06
1025,-0.0002609757830686093
1026,1.4377068243255568e-05
1027,0.00036505126813180097
1028,0.00016325859774858265
1029,-0.00013926057688417242
1030,-0.0003321401766191307
1031,0.0003446529920041723
1032,-0.00033680374012065546
1033,0.00022910689383538095
1034,-8.359336488687692e-05
1035,0.0002532612405553051
1036,-0.0007203777091953151
1037,-0.0004685002544930185
1038,-0.00021067577295120986
1039,-0.00034759353611372323
1040,0.00016976334099142446
1041,0.00037851569525913987
1042,-0.0002745927994567254
1043,-0.00032555789924896807
1044,9.60573756586719e-05
1045,0.0002066421357429988
1046,5.215533377392695e-05
1047,0.00030696246323208825
1048,-0.0005580397477603778
1049,-0.00019512276212557916
1050,-0.0003704756937081095
1051,6.616660501098026e-05
1052,1.7959373801593227e-05
1053,0.0001956629890691214
1054,0.00044982262005913913
1055,-0.0003754325715318723
1056,0.0003286038507153791
1057,0.000186168367172769
1058,0.0007096461127171504
1059,0.00013312979635182382
1060,-0.0001573293421923265
1061,-0.0002676119037375518
1062,5.998022297991054e-05
1063,-0.00045706741581372874
1064,-9.042268541976937e-05
1065,0.00035947235797672937
1066,0.0004940332425737042
1067,-0.00016811784339911554
1068,-0.0006098441615647891
1069,-0.00036620619790823716
1070,0.0003135528815224997
1071,9.146720208941517e-05
1072,0.0008086026776848684
1073,-8.651655789080782e-06
1074,1.547703929818274e-05
1075,-0.00021010479631259927
1076,-0.00024080348894485435
1077,-0.00024418294335609833
1078,-4.140843029559417e-05
1079,0.00013007267293271602
1080,0.0002896381443005295
1081,-0.0001611199661772993
1082,-0.00039016170703735865
1083,-0.0002875401364204321
1084,0.0001921719133644127
1085,8.877671051364734e-06
1086,0.00015120514170800385
1087,0.0005946007352001476
1088,0.00040657019638482147
1089,0.00012026515111170223
1090,-0.0003174708623137795
1091,0.000746880665319233
1092,-0.0006755815576025007
1093,3.1086125205055044e-05
1094,-0.0003664965030994828
1095,-2.7540703213348674e-05
1096,0.0003567452792434245
1097,0.00011990328861249491
1098,0.00031834502138940277
1099,-0.0002813145325002913
1100,-7.321470508865941e-05
1101,-0.00039378190617508663
1102,-2.168854812639465e-05
1103,0.0002735107631482929
1104,-0.0006714795026365753
1105,-0.00030535894754469916
1106,-0.0006139676200342173
1107,-0.00033700948543026536
1108,-0.0002339459433401405
1109,-0.00015609796072448858
1110,0.00048152882409874107
1111,0.0004475536461066411
1112,-0.00014312376002086595
1113,-5.084771497384606e-05
1114,-0.00036013501760626777
1115,4.025212759312715e-05
1116,0.0004975795152327506
1117,-0.0003930240113895496
1118,-5.178816254766548e-05
1119,0.00021759183349086915
1120,-3.87796647839632e-05
1121,-4.7136153332799844e-05
1122,0.0004458401538445106
1123,-0.00043466723854291683
1124,0.0002190545817897458
1125,-0.000432532531739543
1126,0.00037628629491776613
1127,0.00010800055928432111
1128,-0.00016085338306403367
1129,0.00026250704060484315
1130,0.00019127558461405102
1131,-3.8379432946408894e-05
1132,-0.00027936865721674196
1133,0.00029969781162445067
1134,0.0003228448985537468
1135,1.4164930602684472e-05
1136,0.0005923438162460701
1137,-0.0002749886101217495
1138,1.0504633542884939e-05
1139,-9.293902264468315e-05
1140,8.197492377295375e-05
1141,-7.388263151629883e-06
1142,0.00017026761568949715
1143,-0.0005218865250305825
1144,-9.109840495064935e-05
1145,-0.0004501983716247995
1146,-0.00042024066971972163
1147,2.9193703485759832e-05
1148,0.00014238761263813822
1149,-0.0002830777502931632
1150,-0.0003376556522683216
1151,4.373491530719339e-05
1152,0.00020853266391752606
1153,-0.0002668964037326031
1154,0.00015818047825058625
1155,-0.00011673298768592378
1156,-0.0004430071612358332
1157,-0.00014265331320392397
1158,-0.00045099922034269667
1159,-0.0005690037994463378
1160,1.8862984255178516e-05
1161,0.00020259460933102905
1162,-0.00030009800764633
1163,0.00011065234253691043
1164,0.00023248380859023968
1165,-0.0002928804980009045
1166,-4.457292937978042e-06
1167,-0.0003669039056046015
1168,-3.888472209411144e-05
1169,-0.00038194960041475494
1170,0.00012787489873627254
1171,7.352224408621715e-05
1172,-1.480705105219032e-05
1173,-0.0002205113974614294
1174,0.00017885019717970262
1175,-0.0005653796991932543
1176,0.0003343927361863474
1177,0.00015304474893995294
1178,-0.00032346123647227474
1179,0.00022364487037798673
1180,-0.0003168396067393832
1181,-0.0002714040422752659
1182,-4.936107934582415e-05
1183,-8.27700728683613e-05
1184,0.00028671545051096
1185,6.5681766749794e-05
1186,-0.0006406028513337172
1187,-2.7712253769582915e-05
1188,0.000473527539423792
1189,-0.0006785257417772773
1190,-0.0004165682799236681
1191,-0.00040964969708697917
1192,-3.470074895155073e-05
1193,-0.0009041209363867268
1194,0.00010769240195263156
1195,0.00017202908941731226
1196,0.0005364782055310496
1197,0.00041532025136028095
1198,-0.00022837907234818416
1199,0.00016175735206245854
1200,-0.00018068988802035117
1201,0.0006559137650470494
1202,-9.762783624960094e-05
1203,0.0002981127925532683
1204,-3.735271622154761e-05
1205,6.587299326511861e-05
1206,0.00012710575671465185
1207,-0.00030995547461247947
1208,0.00014974612835271162
1209,-0.0002995173645043063
1210,0.00043221086424181053
1211,0.00035961215052246205
1212,0.0002504044118497192
1213,-0.000315248119974798
1214,0.00028986423718642006
1215,-0.00039530851609265156
1216,7.101865712074835e-05
1217,0.00021537509227742346
1218,-0.00019490302848962333
1219,0.000261660860650059
1220,-0.0003466219448153757
1221,0.0003088551148797123
1222,0.0004320656633125549
1223,0.0001096160591298288
1224,-3.0985159208258585e-05
1225,0.00017837387663366102
1226,0.0001959192690425764
1227,0.000764335206352695
1228,0.00011522326787615799
1229,-0.0006837543908213768
1230,-0.00018528764291455053
1231,0.00016475753709767186
1232,0.000409453255946308
1233,0.00040366265342748405
1234,-6.825968190673705e-05
1235,0.00014634257219495265
1236,0.00026564833596792964
1237,0.00022201892880392175
1238,0.00013805314655971926
1239,-0.00011214586274705174
1240,0.00019094200023948735
1241,-3.628185174844334e-05
1242,-0.0001686531437279682
1243,-0.0005531601429072616
1244,-4.070139771985869e-05
1245,-0.0004545166271352571
1246,3.6292187128946023e-05
1247,0.0008391807915002228
1248,-0.00031870337857747627
1249,-0.0001370155147335782
1250,-0.0004242179683951471
1251,-0.0003148514119347368
1252,-4.0119059610417696e-05
1253,-0.00015455766730232266
1254,-0.0004464175846808371
1255,-7.566082214559924e-05
1256,-0.00016721803274269778
1257,-0.00045906258465601717
1258,0.0002450903399039866
1259,-0.00041439835292433663
1260,0.00016264885849171448
1261,0.00030796758570467695
1262,-0.0002483649368606267
1263,-0.0004980774671573372
1264,0.0003035065301917218
1265,0.0002676879138837278
1266,0.000176304875741234
1267,-0.0002179482686735846
1268,0.00041887911726380325
1269,-0.0006022425210967169
1270,-0.00027088462110385963
1271,-0.00022520401155048407
1272,-0.00027470016688333447
1273,0.0006496021063751338
1274,-0.0005051246196792888
1275,0.00013299400227954788
1276,-0.00036088259731486644
1277,6.37310796750608e-05
1278,-0.00011847327947474528
1279,4.207095257594982e-05
1280,-5.810566676928293e-05
1281,-6.421111193770475e-05
1282,3.330181113092241e-05
1283,-0.00015514016190762252
1284,0.00030106360410560214
1285,-0.00036753599298731824
1286,4.585865409417911e-05
1287,0.00023574641344169847
1288,0.00021023367169219575
1289,0.00039209607662226575
1290,4.5051684119336694e-05
1291,-0.00033707668296136065
1292,0.0002874747808839627
1293,-0.0004571694327035085
1294,-0.00044158759696176606
1295,-0.00034525169077629763
1296,-9.296230584245501e-05
1297,-0.0005467388192415183
1298,-5.304489694205242e-05
1299,-0.0001680271354222889
1300,-8.594549634715905e-08
1301,-0.00031183476206601043
1302,0.00011660021685683304
1303,0.0003491221339962435
1304,9.223364500525717e-05
1305,-0.00010267452672779807
1306,6.969263250030197e-05
1307,-0.0008568352669110217
1308,0.000478413588506573
1309,-0.0002544699215071537
1310,-0.0007205619416312736
1311,0.00015272657031378814
1312,-0.0007133630938351048
1313,-0.0002383225920234662
1314,0.0007482248077210957
1315,2.0419971960801747e-06
1316,-0.00043773977379620135
1317,-0.00023455778837689958
1318,-0.00011578288441307938
1319,0.0004111576484698334
1320,0.000114299928110297
1321,-7.636815820673509e-05
1322,9.654918640016035e-05
1323,0.00022197729635018912
1324,0.0001127311470563306
1325,0.00027418713858166005
1326,-2.7746276579203467e-05
1327,2.6268072673940714e-05
1328,-0.00028003550501940925
1329,-7.856104237917501e-05
1330,-0.00023933302382063204
1331,0.0002186337566706712
1332,0.00011045934059536427
1333,-0.0007232058631967218
1334,0.0007731550960473937
1335,0.00025242883315116033
1336,7.168701242923069e-05
1337,0.0007669941733530861
1338,0.0001327912946186542
1339,0.00019349773693099428
1340,0.0006452055609997934
1341,-0.0003252104733122119
1342,0.0005037282211142631
1343,8.463395327760955e-05
1344,-0.0004164325142754371
1345,-3.870619495892845e-05
1346,0.0005789398872275741
1347,-0.00010459322085141067
1348,0.0001547175279693213
1349,0.000314546987280926
1350,0.0001516608020759826
1351,9.040646783703035e-05
1352,0.00036666585037817387
1353,0.00044227982615198445
1354,-0.0003464012312786153
1355,-0.0006326893808874672
1356,-0.00039965183280758255
1357,-1.9375222412311055e-05
1358,-0.000392424728763827
1359,-0.00010108940192521768
1360,0.0001525966683051873
1361,0.0002108229041447218
1362,0.00016639194355369706
1363,-3.4333032742504296e-05
1364,0.00028204346909999257
1365,0.00031062284611249255
1366,-0.00014527928946058262
1367,-0.0002686772408595139
1368,0.00017275188862047886
1369,-6.5729828741017514e-06
1370,-0.0005782957971255531
1371,0.0003965917858607988
1372,-0.00046671843248362343
1373,-4.9449460964962226e-05
1374,7.11603137362137e-05
1375,2.8450844550567803e-05
1376,-0.0005025278875593538
1377,0.00029273386734434385
1378,-0.0003702209256477811
1379,0.00043611610941847966
1380,-0.0001509047494825616
1381,-0.00033589731438971276
1382,-0.0004613201574203582
1383,-0.0003654173339165813
1384,0.0006436262479489663
1385,-0.00023406876398459294
1386,-0.0005144276682632974
1387,0.00031177754600065816
1388,8.123328319094232e-05
1389,0.00019715781398772517
1390,-9.346136541509761e-05
1391,-0.0003149847076570306
1392,-0.0003008296349050795
1393,-8.453650080915919e-05
1394,-0.00020246233147797537
1395,0.0006124587275539763
1396,0.00031656745649415294
1397,0.0007281570799311576
1398,0.000467340224357123
1399,0.0002053323391350579
1400,-0.0006215592821561239
1401,-0.0003038555570178593
1402,0.00019242501419744368
1403,7.451665726993068e-05
1404,0.0003841749393425955
1405,-0.00017670740848213932
1406,0.0004358039126069021
1407,5.210718328938116e-05
1408,2.8076109269071246e-05
1409,0.00040410997582297417
1410,9.268463708618282e-05
1411,0.0001273726206943877
1412,-0.0002503328755775344
1413,0.0003564972148818149
1414,0.0006078482621255167
1415,-0.0004979474614506479
1416,0.0005091411731066624
1417,0.00045819825836938187
1418,0.0001206790453177969
1419,-0.00016971500149612885
1420,-0.0006784300327931228
1421,0.00042973094702831034
1422,-0.0001848159776586401
1423,0.0002893679779335097
1424,7.85902779923975e-05
1425,-0.0005319777528202111
1426,0.00037710741896464705
1427,0.0009464904339379289
1428,-0.0004398924131262825
1429,0.00012178860539783505
1430,-7.802003288582445e-05
1431,-0.0003203290453119887
1432,-0.00026857180905707893
1433,-0.00022848724579019374
1434,-0.000336557313806622
1435,-0.00038345353251583234
1436,0.0004899098072853116
1437,-0.00014997837066707892
1438,-7.951986346792857e-07
1439,0.0004830595752348297
1440,7.991980277292187e-05
1441,-0.00014042766768928135
1442,0.00013998419445808267
1443,-0.0001391223484156509
1444,-0.00010261693251069034
1445,-4.193844800028641e-06
1446,0.0001432639582817568
1447,0.0005852294146597085
1448,0.00022415153059171942
1449,0.00012622576242419777
1450,-0.00036595356472871927
1451,0.0002863614355859105
1452,0.00017414519182257633
1453,-3.701012628433392e-05
1454,-0.0005277095000378331
1455,-0.0002107958162593594
1456,-0.00028855734444018985
1457,0.00025125636901234997
1458,-0.00041259090327478115
1459,0.0002470827305425397
1460,-6.077672422394962e-05
1461,0.0006132728854900005
1462,-6.94953478034333e-05
1463,-0.0005134394289500181
1464,-0.00016784764517547258
1465,-0.00019197373722504513
1466,7.555811047843247e-05
1467,-0.0006196929123003172
1468,0.00018535363571359602
1469,0.0005180144298832811
1470,0.0003172250332040998
1471,4.527767490746822e-05
1472,0.0006028830799962605
1473,6.627797882699242e-05
1474,-0.00034867047825168265
1475,-0.0003635747036540973
1476,-0.00014486711828795863
1477,0.00039234938310170976
1478,9.111112948503545e-06
1479,-4.5183778805663525e-05
1480,-0.0006672005353398023
1481,-0.00012772361643443686
1482,0.00030963656034149826
1483,0.00019564988980301932
1484,-0.0003645653881311428
1485,0.00010969932363174528
1486,0.00024731467980088843
1487,0.00043749938344396115
1488,0.0001092918729326262
1489,0.0003060650162387052
1490,0.00036560321109477457
1491,0.00022917722613860858
1492,-0.00014061730589845124
1493,-0.0001907667903748153
1494,7.592423388183824e-05
1495,-0.0005021830140785607
1496,-0.0007066203091388251
1497,-0.00030160850224183344
1498,-0.00026825517797183504
1499,-6.831866270882996e-05
1500,7.290873566504085e-05
1501,3.451511924141429e-05
1502,-0.0007253376477594997
1503,0.0004330131324654394
1504,0.00016790191809839077
1505,-6.353446624446526e-05
1506,0.0007538320107368982
1507,-0.0005766963994070402
1508,0.0005793941548044977
1509,0.00013144453724883836
1510,-4.602433699670648e-06
1511,0.0003749394625580282
1512,0.00026100043819688904
1513,-0.0001242006378234149
1514,4.686836987244395e-05
1515,5.2023494712353e-05
1516,-5.563617270679197e-07
1517,9.255094552439963e-05
1518,0.0001527785664838765
1519,-0.00020338827391363115
1520,-0.00024758727355754897
1521,0.00011418448011014606
1522,0.00029258050339357316
1523,-0.00014849208407420413
1524,-0.0001495301613959154
1525,-0.00026220640368086577
1526,-0.00010178164659060297
1527,0.00019537524429442135
1528,0.0001465526124857937
1529,-4.050979562829176e-06
1530,-0.00011800260273217889
1531,0.0007992201883677644
1532,0.0006974078809047971
1533,0.00030662667236187847
1534,0.00022383176031115455
1535,-0.00027140002057181247
1536,0.0002412627696122606
1537,0.0004280993131296588
1538,0.00013863135495350562
1539,-0.0004320970493979717
1540,-0.00027886448571346487
1541,4.4983657399839724e-05
1542,0.00037189437775609274
1543,1.7461116312271346e-05
1544,0.00019491561232814862
1545,0.00048471755478442376
1546,0.00012065516813753615
1547,-0.0003200064746375124
1548,0.00037213958087434776
1549,0.0005440633148054612
1550,0.000143758009332479
1551,4.994454671259353e-05
1552,-0.00012691684599143346
1553,-0.00018222825982359045
1554,9.350258409372136e-05
1555,-2.778118813209843e-05
1556,6.461011791964342e-05
1557,-0.0005428841455720163
1558,-0.00021620213674220786
1559,-0.0002502071582561874
1560,0.000710860223006894
1561,-8.261718110550471e-05
1562,-0.0001523143510370059
1563,-0.00024740539041756706
1564,-0.0002880483983287875
1565,5.973639215923404e-05
1566,-0.0001603872660243846
1567,0.00014946869059420824
1568,-0.00011861155103199352
1569,-0.0002265603076125991
1570,-0.0003036042998167061
1571,-0.00011571610278456501
1572,0.0004445260078205175
1573,-8.456625927842199e-05
1574,-0.00018113485049438515
1575,-0.00010499708244672418
1576,0.00036251444094559897
1577,0.00030587306974296473
1578,0.00016104637314529166
1579,2.0985633929756907e-05
1580,0.0001566194181037793
1581,-0.00020070273615954747
1582,0.0003292184167311791
1583,0.00036818246317776876
1584,-0.0005869491535930773
1585,0.0001913549651845732
1586,0.0001892237017864869
1587,0.0002836452158570687
1588,0.0003998422776360718
1589,0.00020161074292468148
1590,-0.00033738368068327506
1591,0.000346169114419211
1592,-0.00013556138386298168
1593,0.000384742333862118
1594,0.0005699733594970376
1595,-0.0006477424742177758
1596,-0.0007228992418174273
1597,-0.0005351004207380252
1598,1.7154334032002954e-05
1599,-0.00025593388911248667
1600,-0.00027461227731284606
1601,-0.00010432279383097575
1602,-0.00035385268672475566
1603,-7.138672510269319e-05
1604,-4.825219898589944e-05
1605,9.479927305996357e-05
1606,0.0005597741793106781
1607,0.0002896652170251648
1608,0.00015425090133926127
1609,-0.0004982358192359131
1610,-0.00016577030692707618
1611,0.0002675216516971451
1612,7.207088482628793e-05
1613,-0.0005189291250207227
1614,0.00027635075086878975
1615,0.00016899667072700018
1616,-5.370498666005366e-05
1617,-0.0001652965410938737
1618,-0.0001063093105775778
1619,0.000359159822611395
1620,0.0004476841796311746
1621,-4.932950406771686e-05
1622,-0.00024031094527284192
1623,3.6153128463691507e-06
1624,-0.0003769641344711717
1625,-5.0163009684961885e-05
1626,-8.584770280334865e-05
1627,-0.00011981474959341
1628,-0.00010987860193345388
1629,0.0007307646512299069
1630,-4.0672273589021426e-05
1631,9.179352929099248e-05
1632,6.0239057261675745e-05
1633,2.5771162216432254e-05
1634,-0.0004157066021553015
1635,-1.1081473655374423e-05
1636,-0.0006212335433258274
1637,-2.8907483632683715e-05
1638,-0.00041787286320345496
1639,0.0005744270946030721
1640,3.1407579770656544e-06
1641,0.00034533709658992505
1642,0.0003081889124355212
1643,-0.0003615459195282287
1644,0.00041217127490751393
1645,-3.760609476114417e-05
1646,0.0003904374651009387
1647,-0.00027792996257092206
1648,-3.592377782119585e-05
1649,0.00019141683822335582
1650,-0.0003630554044851667
1651,-0.00015166117231469562
1652,4.788562516818787e-05
1653,0.000569940300066983
1654,5.129552767209331e-05
1655,-0.00034587845038062254
1656,0.0008697852268087234
1657,4.949013623565825e-05
1658,0.00016291925056059425
1659,-0.0003654100125594336
1660,-0.0004325921933252611
1661,0.00042385029719942217
1662,-0.00011886680818160912
1663,3.1905890552185754e-05
1664,0.0002823830192842162
1665,-3.367424288601872e-05
1666,0.00021894418854802552
1667,-0.0002089155835573761
1668,-0.0003354294069298181
1669,0.0003853418066151683
1670,-0.00028659563870555476
1671,-0.0004436754862419622
1672,-1.1755379034255608e-05
1673,1.5540829876785285e-06
1674,0.000457648331128334
1675,0.00043233111200508554
1676,7.054239411396559e-05
1677,0.00037222897732932495
1678,-0.00021626773663702977
1679,3.4212922345759384e-05
1680,0.00018491579521951357
1681,-0.0003951179601531832
1682,-7.51726446665388e-05
1683,-1.2501924255276342e-05
1684,3.0208469595976003e-05
1685,-0.00012582969336747437
1686,0.0008288833672591773
1687,0.000826821977848541
1688,-0.0007258580354598832
1689,-0.000147351222289359
1690,-6.562007594735345e-05
1691,0.0003487047775300174
1692,-8.652341916068983e-05
1693,-0.0006286058509530088
1694,0.0006677519241211617
1695,0.00030332165680271953
1696,-0.00016907380615977506
1697,1.1322363264867568e-06
1698,0.000205254916658328
1699,0.000314731528069706
1700,-0.0004222184455592486
1701,-0.0003096095616521837
1702,0.0001397324792695414
1703,-0.00029734410773031567
1704,-0.0002886199283485403
1705,0.00036498892528676535
1706,5.97622175359835e-05
1707,0.00023090167947123
1708,-0.0002299696964689205
1709,-3.947724321184376e-05
1710,0.00012677278402541692
1711,0.0004593204345671026
1712,0.00018020437853822602
1713,0.0002661956103108379
1714,-0.00010523730937022214
1715,9.679318600474482e-06
1716,5.850355842338268e-05
1717,0.00012535112648474412
1718,-0.00019818554076348388
1719,0.00019624711186138068
1720,-0.00031568166258031955
1721,0.000460099032682299
1722,0.0002513480919317717
1723,0.0004130181234129553
1724,0.0002895482502970004
1725,-0.0006471178998279921
1726,-0.00025793338147951953
1727,0.0006033290690360669
1728,-0.0006605999921043914
1729,0.00010490340521312062
1730,-1.1874419750613116e-06
1731,-8.188121263152946e-05
1732,-0.00017247843827763085
1733,0.0004569191665512491
1734,2.010740696306564e-05
1735,2.596136541893465e-05
1736,0.0005852164578045633
1737,0.00037732394029661443
1738,0.0007860057874302147
1739,0.0001730187620223089
1740,-0.00017412410093075578
1741,0.00027034867423306956
1742,0.0002621286080264656
1743,-0.00023173105717059554
1744,-0.00010118161306701208
1745,0.0003257867507129762
1746,0.0001420325923095883
1747,0.000111303140749152
1748,5.507228949804212e-05
1749,-0.00034249671562505983
1750,0.00018406613029709078
1751,0.00017255066018267604
1752,0.0003457634633925568
1753,-0.0002271721444469932
1754,-0.0004473635078884623
1755,0.00017216863145835088
1756,-0.0004424498411538936
1757,-0.00013442828000270407
1758,0.00010389556687179265
1759,-0.00014215255093974713
1760,-0.0001486616221500931
1761,5.11552552485857e-05
1762,0.0002949968694706347
1763,0.00033195156434705827
1764,0.0004196082097734844
1765,-0.0007746272156189956
1766,0.0007583800239983455
1767,0.000493608158751152
1768,-0.00021014459258437895
1769,-0.00024309780093503412
1770,0.00048439229920169163
1771,-6.38962675504793e-05
1772,-4.842745907367305e-05
1773,1.3135718766978653e-05
1774,-0.00020281694277998231
1775,-7.161789100011489e-05
1776,0.0005682595783130166
1777,-9.709796111968724e-05
1778,-0.0001371946479991149
1779,0.00013830199910608412
1780,0.0002128013756599389
1781,-0.00021094680755537717
1782,0.00023681779281284503
1783,0.00041595126157967005
1784,0.0005266894995216919
1785,-0.00020803069832141992
1786,0.00015200197336837394
1787,-9.74619458763304e-05
1788,-0.00028818288855137413
1789,-0.000157258034286909
1790,0.0001903965220055169
1791,0.0002290091352188563
1792,-0.00040994243194800324
1793,-0.00021384098064223565
1794,-6.029830036245479e-06
1795,1.2589429030355954e-05
1796,-0.0002248938413731635
1797,-0.00022854401018641588
1798,0.00010074599949712875
1799,-0.00028061170413280003
1800,-0.00030587127932150433
1801,0.0003315675067495226
1802,6.8737748301725e-05
1803,0.00015158629305164702
1804,-0.00015686798814426708
1805,0.00029441093609416583
1806,-9.879111823961997e-05
1807,-3.4978814556738035e-05
1808,-0.00019969154017700553
1809,0.00020103413018691051
1810,-0.0007067345795918842
1811,0.0005173778219496451
1812,-9.701178489591409e-05
1813,-0.0005234755053951334
1814,-9.376708285702216e-05
1815,0.00041109172462518655
1816,-0.0004183640111889384
1817,0.0003957902547439979
1818,-8.329987139451009e-05
1819,-5.3454420548877e-05
1820,-0.000179159260076433
1821,5.63380150711513e-05
1822,-0.00046869766248317706
1823,0.0007682209217864167
1824,0.0002974896552912416
1825,-0.00015713624511742727
1826,-0.00029037639321888515
1827,-0.00019868837397210543
1828,-2.22531717934177e-05
1829,-0.00035057474943871436
1830,-8.879407070766956e-06
1831,-0.00037284005096039117
1832,-2.825169577886231e-05
1833,6.841558824036054e-05
1834,0.00014802816570926944
1835,-0.00022409042192101354
1836,-0.0004571269210607009
1837,-0.0001578476266920439
1838,0.00048103674944166433
1839,5.608839028380035e-05
1840,-0.00023412155805559005
1841,-0.0007223718650061135
1842,-0.0005735768715004902
1843,7.783373758229149e-05
1844,0.00010177952623502088
1845,8.105504748993149e-05
1846,7.085896484441723e-05
1847,0.00038581146223885864
1848,-7.903169134195124e-05
1849,-0.00033599488791076417
1850,0.0006064553215903943
1851,-0.00022507014341857133
1852,0.00015200363084787828
1853,0.0002928819393298406
1854,-0.00017966275320191244
1855,0.0006503220032904091
1856,6.639030793308144e-05
1857,-0.0001351897836889259
1858,7.888020582633038e-05
1859,-0.0005172869246897707
1860,0.0002686382385008647
1861,9.55741892190021e-06
1862,-0.0003360777653171427
1863,-0.0008220615625045781
1864,0.00012566775269627896
1865,0.00014985042584251046
1866,-0.000518213790864712
1867,0.00023757007090531866
1868,-4.659336977510485e-05
1869,0.00044960753421043634
1870,-0.00014892903802409647
1871,0.0002583063205845371
1872,8.226629491306196e-05
1873,-0.0005012327476410628
1874,0.00018325615759063352
1875,-0.00037424709748055967
1876,0.000322155848413447
1877,-0.000351341118819244
1878,0.00011302926699606505
1879,0.0005255304772324755
1880,-8.543274977027097e-05
1881,-0.00012388884006255362
1882,-0.0003893628611241654
1883,-0.0001550556373330639
1884,-0.0003446066052499858
1885,6.002629313739074e-05
1886,-0.0003050707785567258
1887,-0.0005479782682701968
1888,0.0004046045548944583
1889,0.0001311068172134983
1890,0.0003293643545536393
1891,-0.0007183099324308703
1892,-0.00014789736146281364
1893,0.0001172353715226838
1894,3.309831368906755e-05
1895,-0.00026810935954608674
1896,-0.00021348190749356983
1897,3.768060993659752e-05
1898,-0.00023991045795603504
1899,0.00022179516967950685
1900,4.432081932090311e-05
1901,-4.241530603557584e-05
1902,-9.37269163764788e-05
1903,-0.0003672377203786959
1904,0.000635447350839897
1905,-0.00011522112675188365
1906,-0.00020141759000690527
1907,-0.00026904612618509487
1908,5.194113753756071e-05
1909,0.00014668673616269183
1910,0.0005502812101909144
1911,0.0003956526062459045
1912,-0.0006430385410370258
1913,-5.603227370489913e-05
1914,0.0005317882470123029
1915,-6.682969230852396e-05
1916,-0.0003526682240842317
1917,-0.00042090622480435745
1918,-1.4365455403781448e-05
1919,8.754153458706196e-05
1920,0.00021874040667886654
1921,0.0002581813256399239
1922,-0.00018415362629374324
1923,-0.0006089947355274068
1924,-0.00023459071017007147
1925,0.0002478548639279886
1926,-0.00011675126395490552
1927,-0.0005827406753243419
1928,-0.00023942375856329752
1929,4.305297377426832e-05
1930,0.00022326378395900437
1931,3.106266706198231e-05
1932,-0.0005278954461651446
1933,-0.0006481641433355042
1934,3.982896663392149e-05
1935,0.00038901458282890013
1936,-2.5460443603070303e-05
1937,-0.0003031455340268895
1938,0.0008154801635176064
1939,0.0004908690302040116
1940,-7.748165307070766e-05
1941,0.0002951835039734007
1942,0.00046524478063830483
1943,0.00011512223762689567
1944,-0.00019922969798612063
1945,0.00013712838722860653
1946,-0.0002779211758378917
1947,0.00038713692600925897
1948,0.0004542420823395514
1949,0.00017796980422783286
1950,2.0894274096344787e-05
1951,-6.382351285174946e-05
1952,0.0004926544935906634
1953,-0.00037905208514623783
1954,0.0001734716456131255
1955,0.00026670448092436797
1956,0.000147999828407155
1957,0.00014187138184741448
1958,0.0006322602810552543
1959,0.000634384421593825
1960,0.00019729046901557174
1961,-0.00036495024661479223
1962,-9.761091931525278e-05
1963,-0.00010334197366058284
1964,6.698380917598879e-05
1965,-0.00031398514686218644
1966,6.748949083941762e-05
1967,0.0004336032584132334
1968,0.000587708706727174
1969,0.000477763847940933
1970,-1.718225458087553e-05
1971,0.00034690996066318166
1972,-0.00040207394905497217
1973,0.00011756234386921554
1974,0.00022010289148357111
1975,0.00021436545581138532
1976,0.00019489741325394265
1977,0.00035392878067150535
1978,0.00019649905430870764
1979,-2.44853104491407e-06
1980,0.0003966729802797765
1981,-0.00026095467346338
1982,-2.8765241237363893e-05
1983,0.0005871067402107504
1984,0.00012396988449421748
1985,-0.0007314551126945861
1986,-0.00010982385116645074
1987,0.00043682586140748284
1988,-0.00019007445615032773
1989,-0.00015985663727611127
1990,-0.00028601232222109284
1991,-0.00028120997398423645
1992,0.00029816264657168436
1993,-0.0006372298409531102
1994,0.00029556486343180045
1995,0.0006273477706086863
1996,-9.962178263737304e-05
1997,0.00026087501296452213
1998,0.00010051937583330995
1999,-0.00032076015553057725
2000,-6.029807089837475e-06
2001,0.00019129974963847266
2002,0.00021374690329694
2003,0.00024228846625605724
2004,4.90059863019476e-05
2005,-0.0003818598220806594
2006,-0.00013341360739793878
2007,0.00010958960945995663
2008,0.0006728551994248697
2009,0.0002202120826784181
2010,7.34606207949639e-05
2011,0.00028966759284385914
2012,-1.7997535024315519e-06
2013,8.075503138153056e-06
2014,0.0002863347089260073
2015,0.00044403037417240073
2016,-0.0003753840555589367
2017,0.0006029816022410645
2018,-0.0005601404187557743
2019,0.000297552361569914
2020,7.35694001416707e-06
2021,7.39144004483188e-05
2022,0.00019673514826379007
2023,1.208388675371424e-05
2024,0.00023221788694119324
2025,0.0003339175104713477
2026,0.00020210527949863726
2027,-0.00023043630419822524
2028,7.000345714281709e-05
2029,0.00012054599138737136
2030,0.0006137542695038824
2031,-0.0004402635529173895
2032,0.0003427344060611052
2033,0.0002273999854866866
2034,-0.00015390669275452577
2035,-8.396407522099867e-06
2036,0.00021585890894063362
2037,0.00014434472569877768
2038,-0.0001391986419639903
2039,7.163432875652189e-06
2040,0.00037395880299525116
2041,0.0003136974270186964
2042,-0.00016981886837769909
2043,-0.00021450359313029401
2044,-0.00027922504987444813
2045,-0.0002748922231109043
2046,-3.714228899222311e-05
2047,0.00015245487640306386
2048,0.0002819607274365848
2049,0.00014139104339315112
2050,-0.0003623328652283186
2051,-0.0003826879682254839
2052,0.00031665176910468845
2053,-0.00033149147871824625
2054,0.00029981622168595936
2055,-8.551861507861149e-05
2056,0.0003559909953761414
2057,0.00037724286952635187
2058,8.013809902202705e-05
2059,-3.0941069404360326e-06
2060,-0.00035410339198224276
2061,-0.00033073493466682073
2062,0.0003255419834411982
2063,-8.276569828131173e-05
2064,0.0004983741067215748
2065,-5.3233054794776975e-05
2066,-0.0004860372858006023
2067,3.970653730667844e-05
2068,4.153051663995403e-05
2069,0.0002307480316339743
2070,-0.00020261887306045683
2071,0.0002365134765102292
2072,9.251929571991416e-05
2073,0.00020986480003472495
2074,0.00043992279559436684
2075,0.00012407804812149498
2076,-0.0003302303445156479
2077,0.00013348193947532996
2078,0.00013042719736641308
2079,-0.000139864543067257
2080,9.860470305178074e-05
2081,-0.0005451928132479758
2082,-0.0004845305843165294
2083,0.0004851278015012749
2084,0.00022629315711239912
2085,-0.0001901386833162945
2086,0.00030162747120571567
2087,0.00011661503149901274
2088,0.00018995146770731938
2089,6.033957790413516e-05
2090,0.00022262937801894922
2091,0.0005817775938667933
2092,-0.00013098578476809043
2093,0.00027320769950121636
2094,3.426547485317173e-05
2095,-5.6607247590649204e-05
2096,0.00020235708300990533
2097,0.0002520520624688158
2098,0.0005372483903472432
2099,-0.0006131147911750343
2100,-5.3681680703557096e-05
2101,0.00018326563889619024
2102,-0.00031752377087243213
2103,-7.660779876144557e-05
2104,7.456299415137279e-05
2105,0.0001570782549806322
2106,0.00023894132448588394
2107,-0.0001849138070896416
2108,-0.0007688356661938381
2109,-6.280987499982821e-05
2110,0.0006514116421383507
2111,-0.0004327733019580291
2112,-0.00028974982596736976
2113,-0.00016407876076396716
2114,0.00028588027147892844
2115,-6.925667122312176e-05
2116,4.925336950603877e-05
2117,0.00044422782244251687
2118,0.0004047679019378684
2119,0.0003233212407075351
2120,7.990689833606003e-05
2121,0.0002957324030845243
2122,0.00020655679514284595
2123,7.107047477558274e-05
2124,-5.075856297147282e-06
2125,-0.000380592553357334
2126,-0.00021080205897560525
2127,-0.0002185206710414195
2128,-0.000759854805435831
2129,-0.0001389783880736013
2130,0.0005282345308004499
2131,0.000155047781504788
2132,-2.9604493205552265e-05
2133,-1.4831376709470317e-05
2134,-2.708434973641783e-05
2135,-0.00014500948896163375
2136,-0.000122218470201343
2137,0.00017504645004060446
2138,0.00028658271900431216
2139,-0.0002445713035113379
2140,0.00036674695216621023
2141,0.0001574282298109696
2142,-3.23797161494311e-05
2143,-0.00021314833311600708
2144,-0.00030095604994078546
2145,0.0002847583812255792
2146,-0.00025564721002252553
2147,-0.0007718775287355025
2148,0.00024065662263705686
2149,0.00031178621803567625
2150,0.0004047826039819207
2151,0.000279056496475937
2152,0.00047929570249820953
2153,0.0002821703844495078
2154,0.00033809298956095365
2155,4.5164789047778304e-05
2156,-0.00013663082966226922
2157,-5.8148940910896044e-05
2158,-5.103271853400362e-06
2159,0.0001396868314684121
2160,-0.0002479560999400287
2161,0.00014341236172482643
2162,4.9248884746459784e-05
2163,-0.0006405390662617921
2164,0.00039368303149176376
2165,0.0003911863146901224
2166,0.0006052355592249505
2167,-0.0004398001803967287
2168,0.00020272227572864772
2169,-0.0002979801559865958
2170,-5.583191339172591e-05
2171,-0.0004665257327794161
2172,-0.0005850028127448519
2173,0.00024884648905095636
2174,0.000629939017933841
2175,0.00019901345592074267
2176,-0.00019915756089543163
2177,-0.00017544775930386475
2178,0.0001953647438022488
2179,9.516290869588583e-05
2180,-0.000272862159563564
2181,-0.0005253602557091813
2182,-6.017115982382062e-06
2183,0.0002148658213031266
2184,-0.0002939524608192121
2185,-0.00039699541879845726
2186,-5.07884537363196e-05
2187,0.00014405316144121448
2188,-0.00019398332166100445
2189,0.00012021553515201342
2190,9.09308236655976e-05
2191,-0.0005862560780877286
2192,-0.00033851627835533024
2193,0.0002339381266444352
2194,-0.0005674562526206829
2195,9.257895785187478e-05
2196,-0.0002242540760604472
2197,-0.00030730055238104286
2198,-2.9106060753414305e-05
2199,-0.0004608763267774447
2200,3.3536160724265574e-05
2201,-0.00027211706911444593
2202,0.00011505326246285508
2203,-9.450674472064364e-05
2204,-0.00040123236861355207
2205,6.956695281680002e-05
2206,0.00014105228394396688
2207,0.00019234458884213605
2208,0.0006151883308434964
2209,-0.0003617323998859343
2210,-0.0004705194847927438
2211,4.979122824364893e-05
2212,-0.0002549494223022674
2213,3.824745571676511e-05
2214,-0.00010944730125669434
2215,-0.0002670011889101308
2216,0.00028618551517639926
2217,-5.1016949701980124e-05
2218,0.0001063882704275763
2219,-0.000526822778280353
2220,-0.0004993337007925965
2221,-8.234333698686359e-05
2222,0.00010980606135653065
2223,-0.0004749059841847577
2224,0.00010120119536343007
2225,-0.0004705300356810482
2226,-0.000473411570474488
2227,-3.4803797589907096e-05
2228,-0.0001983247393868375
2229,9.925232430289977e-05
2230,0.0008819395771491796
2231,-0.0004914176365819949
2232,0.0003504942011716321
2233,-0.00020059834550116792
2234,0.0004061062700108285
2235,-0.00037959298339096815
2236,0.0004085742231671023
2237,-0.0003191999520348904
2238,-0.00043226545630205976
2239,0.00038497114379814815
2240,0.00022599518378406112
2241,-9.743699866574691e-05
2242,0.00012200399368035513
2243,0.00010506706493365199
2244,-5.3702591028608936e-05
2245,-0.0003703737050047231
2246,0.0005463278257210127
2247,-0.0003604251318823845
2248,-6.495597637369341e-06
2249,0.0002676916040414645
2250,2.5835588982209534e-05
2251,-0.0008500407220621888
2252,0.0002256232114582595
2253,0.000710783702137921
2254,0.00020657698589171482
2255,0.00021540653813437735
2256,-0.00011621241698142209
2257,4.402397389336825e-05
2258,0.000646723455364622
2259,-0.0004398216011128472
2260,-0.00034772252025033843
2261,6.72155352143241e-05
2262,0.0002657621169925001
2263,-0.00031257793068463995
2264,0.00040512196445664984
2265,0.00040152821879035135
2266,-0.0004117264481696162
2267,-0.0001233828041838425
2268,-0.00016961108614442987
2269,0.00023801403063161163
2270,0.000270843416458072
2271,-0.0002310879004504373
2272,0.0002214872496006419
2273,-0.00033050160935965684
2274,-2.6472094890563143e-05
2275,0.0008299629987163866
2276,-7.831404410301354e-05
2277,-0.0003622731276639403
2278,0.00025056869931606106
2279,0.00029254666597047584
2280,0.0003888353329695842
2281,-0.0006371674129293501
2282,-0.0001300800421969474
2283,0.00022016531583304077
2284,0.0005570569542092032
2285,-0.000531935424624899
2286,0.0007534194533588034
2287,-0.0005950499522363857
2288,-0.000133005502970857
2289,-0.00014456727678475594
2290,0.00046788001496238664
2291,0.00044659543630427807
2292,-0.0003022540178812085
2293,-0.00040876018571864314
2294,2.9588249750251837e-05
2295,8.866035626208207e-05
2296,1.536060976967554e-05
2297,5.875460980797057e-05
2298,-8.39519598069309e-05
2299,0.000275299434957068
2300,0.0002475752346865875
2301,9.230888582095841e-05
2302,0.0001394211101511325
2303,-0.0006752262619506814
2304,-0.0005906348849422146
2305,-1.4443536541782002e-05
2306,-1.771536953963677e-05
2307,1.8739424694704315e-05
2308,0.00045979236228676205
2309,-0.00016001614826432198
2310,0.00024783452356644264
2311,-4.550749669964916e-05
2312,0.0003468102912259316
2313,-0.00022467734001292982
2314,0.00018207592004416853
2315,0.00014123643280493153
2316,0.0004425676681213097
2317,0.0003170481396536735
2318,0.00010249021653955341
2319,-0.0002604986937713829
2320,2.4744914064929743e-05
2321,-0.00034974428119094626
2322,-0.0002555016835327318
2323,-0.0005481283735266562
2324,-0.00014929897093168937
2325,0.00012897720157788146
2326,4.4752829947679356e-05
2327,-0.00020054589604717445
2328,-7.664444592322762e-05
2329,-0.0003012552859847012
2330,0.00014388435594771845
2331,-1.8689399163007494e-05
2332,0.00022807937390806622
2333,-0.00018245700811176171
2334,-0.00010246496381184846
2335,0.0004685196345719164
2336,-0.00014736170985222994
2337,0.0001980541161914044
2338,-0.00016140379433320453
2339,1.1138411983442916e-05
2340,-0.00036073697513525787
2341,-6.09187896311141e-05
2342,0.00019410255597130315
2343,-0.00041648468081273654
2344,0.0005106845734560847
2345,-0.0002418552615315375
2346,-0.00025294798532191553
2347,-2.5153231757777663e-05
2348,0.0005992352295629329
2349,-0.00020775604174524167
2350,0.00068092553010562
2351,-0.00020506533471867822
2352,-0.0001635458159495148
2353,0.00024774541397919116
2354,-0.000298445817778259
2355,-0.0001947936954152761
2356,-0.0005150664265474449
2357,-0.0005558276671767553
2358,-0.00018835877910784634
2359,-2.110750782269861e-05
2360,0.00046642363324590443
2361,-0.00045847130247393604
2362,-0.00020669257280540878
2363,0.0004855059248929491
2364,-0.0001391614358038066
2365,0.00034518328993902466
2366,5.089990901755633e-05
2367,-0.0004719662110955744
2368,0.00038421533394612664
2369,-0.00028419941544868474
2370,0.0003874693966755452
2371,-1.4930088848770859e-05
2372,-1.3529894055996085e-05
2373,-0.00013317147010101027
2374,0.0001925011381691329
2375,-0.0003863904922922541
2376,0.00019020234836240814
2377,-0.0002644589731130709
2378,-0.0005833574472128718
2379,0.0003464612576197447
2380,0.0007987906078158925
2381,0.0003793473046885992
2382,-5.779543174987767e-05
2383,0.00035590928998797955
2384,-0.0007030070138544212
2385,0.0002529125009597812
2386,0.00024282593974397825
2387,-0.00040771869316112035
2388,-6.298927143135338e-05
2389,8.1602711958987e-06
2390,-0.0005242530293242681
2391,-0.0004442582161202397
2392,0.0004507551100167235
2393,2.096160594566713e-05
2394,-1.0860112901283738e-05
2395,0.00039404989216357803
2396,-0.00018606774896446992
2397,5.203441035278578e-05
2398,-0.000222112732903505
2399,0.0005681102734900766
2400,6.635178937483979e-05
2401,2.533965889737928e-05
2402,0.00027700105783167844
2403,-8.51305076296046e-05
2404,0.0003206510480245643
2405,0.00023760150279523849
2406,-0.0007372929986238692
2407,-0.00037063377685626084
2408,0.0006842164124258292
2409,-0.00023127836333604334
2410,0.0002873316080535276
2411,-0.000707881880945815
2412,0.00010788891336156835
2413,0.0002590681771691207
2414,-0.00012737655757917143
2415,0.0004368271334847072
2416,0.00018104832220483535
2417,0.0002122564134849892
2418,7.578192616629733e-05
2419,-0.0005760929099840547
2420,0.0005380640856432018
2421,0.00036242716975751167
2422,-3.342975228631048e-05
2423,-0.0005724145007507562
2424,0.00012498800638052312
2425,2.732234676052335e-05
2426,-0.00031029297616584866
2427,-0.0003978150059710212
2428,-0.00041085763117295666
2429,-0.00045736468133693493
2430,-0.00012946211287199235
2431,-0.00027367533172152587
2432,6.700010654176803e-05
2433,0.0006222590900676684
2434,-0.0006658392859243129
2435,-0.00022383839990691284
2436,0.0007076635901719668
2437,-0.00011944316271784087
2438,-4.9359894172146516e-05
2439,-0.0003562494399877743
2440,-0.0005033857267790421
2441,-0.00025803016384124783
2442,1.2695925567477946e-05
2443,-1.9981530579166578e-05
2444,8.744444984808692e-05
2445,0.00022887232712007585
2446,0.00026909785755305855
2447,0.0004361933662224806
2448,6.133677551491347e-05
2449,-0.00024826379947202887
2450,0.00046869035600496787
2451,8.978300639626529e-05
2452,-8.186964053232354e-05
2453,-0.0001367661094604125
2454,-0.0006371593716220864
2455,1.976987823349498e-05
2456,-8.803662916776271e-05
2457,0.00024308500032486024
2458,0.0004564853565069715
2459,8.599800028568001e-05
2460,6.37437012612888e-05
2461,0.0003677547136629015
2462,0.00026812622632635364
2463,0.0007769347294582041
2464,-6.230993588806938e-05
2465,-9.500260461945743e-05
2466,0.0001886419887833422
2467,4.345052862515297e-05
2468,0.00019690192837518714
2469,0.00041047884269139055
2470,0.00024968492398993764
2471,-0.00022707139131465727
2472,0.00013268758459829242
2473,-0.0002256753508228129
2474,0.00015722908972859908
2475,-0.0001701729107346606
2476,-0.0005651839068509524
2477,3.711850272233841e-05
2478,0.00011042718446221226
2479,-2.587897816786042e-05
2480,-5.046177930879248e-05
2481,-0.00031285772363852073
2482,-0.00014787031353959753
2483,0.00024014179342788514
2484,0.00015173131572035465
2485,4.978802731032591e-05
2486,0.0001350220635568892
2487,-0.00023042141876546582
2488,0.00016292272355158605
2489,0.0003904240865818293
2490,-0.00031581365242790236
2491,0.00026970466230733886
2492,-1.7707346255050895e-05
2493,-5.747388561406276e-05
2494,-0.0003434350735974381
2495,4.9229216034403385e-05
2496,0.0005536851714076817
2497,0.00015598056326539256
2498,-0.00043054358335170573
2499,0.00017499334936336712
2500,-0.0006032952971394113
2501,0.00018157643714733273
2502,-0.00031762762689269565
2503,-0.00011455448827940552
2504,0.0005827168371882184
2505,0.0005737904114287188
2506,0.0004746138630944203
2507,2.0075347290618017e-05
2508,0.0004346530676864006
2509,-0.0005718767891353242
2510,-0.0003604526519830169
2511,-0.00023554408178546349
2512,0.00042198296745314255
2513,7.73578780963894e-05
2514,0.00029975297378985623
2515,0.0002891503265379976
2516,0.0002734934465653983
2517,5.9087507512175174e-05
2518,-0.00028033169216686206
2519,-0.0005723012098896505
2520,0.0005734458673055537
2521,0.00010135210591380739
2522,1.105909772328266e-05
2523,7.660673939087023e-05
2524,0.00012745911442954967
2525,3.7929050294808427e-07
2526,8.14754640773453e-05
2527,0.00016187165412181437
2528,-0.00011390226537194322
2529,-0.0006201183420948669
2530,0.00019908885150984025
2531,0.0001438026634626433
2532,-2.0963260072245914e-06
2533,-0.00043583611397950416
2534,-0.0001499408131856777
2535,0.00016048018228735444
2536,-1.066650565750705e-05
2537,-0.0006943833096025198
2538,-0.000148565015560978
2539,0.0003321947736263986
2540,-8.750960113807945e-05
2541,-0.00030082662692355145
2542,3.680224935244927e-06
2543,-0.00014497118336957634
2544,0.00033543535840925256
2545,-0.00022531009639581318
2546,-0.0010104507649975464
2547,-0.0002823157277425947
2548,0.00021483406561285148
2549,5.495178355505926e-05
2550,0.00017262431344711174
2551,-1.2413035623192579e-05
2552,6.438534476162504e-05
2553,0.00037231801198191775
2554,0.0005655094612320215
2555,5.668712576078383e-05
2556,0.000117431976934115
2557,-6.758206384734747e-05
2558,0.00017943241837698926
2559,0.0001745494177282689
2560,-0.0004412268124914839
2561,1.5918152010817842e-05
2562,-0.00035101297919883616
2563,-3.3205202466287697e-07
2564,1.1445923813680862e-06
2565,-9.025606725776499e-05
2566,-0.00024606347511623583
2567,-0.0005034469642079539
2568,0.0001389786178774677
2569,3.249296920602569e-06
2570,0.00036131339630635784
2571,0.0007140346011608776
2572,0.0004237408235948321
2573,4.626054388808055e-05
2574,-0.00023066401069962806
2575,0.00010404290870699158
2576,1.7119389929844862e-05
2577,0.00010122048618683338
2578,-0.0006802886276713448
2579,0.0001245047972870932
2580,0.00021078326703802635
2581,-4.997849734464617e-05
2582,0.0003124910967857978
2583,-0.00015240777287075483
2584,7.162993064226272e-05
2585,9.887625982405558e-06
2586,-1.5830131765570022e-05
2587,-7.393982926331195e-05
2588,0.0001242875478045077
2589,-0.0001853965640615438
2590,4.834048590578183e-05
2591,-0.000384822631535209
2592,-0.0005455263283301415
2593,-0.00010756356438489689
2594,2.3948655867284723e-05
2595,-0.0004965155630624513
2596,-9.01959042941369e-05
2597,0.00010704739441441777
2598,0.00018821435815367517
2599,-0.00027941679177874565
2600,-0.0008350210681222393
2601,-0.0004828498136994226
2602,0.00027666670378647274
2603,5.5073804947149266e-05
2604,-9.801927204961794e-05
2605,-0.00014769495653664866
2606,-7.317668470937902e-05
2607,-0.0006338599672011495
2608,0.00036891083302559633
2609,6.178231712699648e-05
2610,-0.00020115549983413386
2611,0.000313993022414561
2612,-6.734400247759549e-05
2613,0.0001903405187809526
2614,0.00039802365265106986
2615,6.600825994764943e-05
2616,0.00020982958476544532
2617,0.0002618482518272067
2618,8.400002539800363e-06
2619,1.718748570935201e-05
2620,-0.0003697213722969093
2621,-0.00034777270215354477
2622,-0.0002476822692673958
2623,0.0002099944756453221
2624,0.0001659703015291519
2625,-0.00022546487950027074
2626,-7.679451944606072e-05
2627,-0.00021744951612349833
2628,-0.00037659849869651184
2629,-0.00046950720419520147
2630,-5.246360878588799e-05
2631,0.00010688338856991718
2632,-0.00047906234477294705
2633,-0.0003663150764263995
2634,-0.00013741507479657242
2635,0.0003146474687141914
2636,-0.00026614069523946436
2637,0.00017248741928064352
2638,0.0001024369913836276
2639,0.00010244044963741823
2640,-4.231490800611506e-05
2641,0.00014709540191091728
2642,-0.00014097130636152248
2643,2.001689256708227e-06
2644,0.00031356103228332853
2645,0.00018817896133768928
2646,0.00047913211545086887
2647,0.00019272187588579976
2648,-0.00024375744667242
2649,0.00014862619214987453
2650,0.0006108012832124285
2651,-0.00025971806907984545
2652,-0.00023865076134183002
2653,0.00037949682970362156
2654,-0.00015551432925823926
2655,-0.0004800925572131361
2656,-0.0001063162951989963
2657,0.00014072534730305108
2658,0.00020813302269949996
2659,0.00017528719618346852
2660,-0.0002659025576571806
2661,-0.00015586290131732302
2662,-4.959649216128844e-05
2663,0.00021649021923499567
2664,-0.00025261898831313015
2665,-0.00039543792017906966
2666,-0.00047870505240978095
2667,0.000351619152007708
2668,0.00038173279443960863
2669,-0.0004450503585800641
2670,0.0002539111932166147
2671,-0.00010322429948768624
2672,0.00026106189482445367
2673,-0.000449594998078734
2674,-0.00033318357303878225
2675,-0.0005326312835069188
2676,0.00017188420164422578
2677,0.0005886253601574392
2678,0.0005238907608298088
2679,0.0003913340151872543
2680,0.00012370709980583883
2681,0.0001064399274190282
2682,-1.4674627919191529e-05
2683,0.00023709824045907725
2684,0.0002390583004827201
2685,-0.0001515675269399063
2686,0.0003361663911907781
2687,-9.072054704446902e-05
2688,-0.00013836354974383944
2689,-3.578816155728646e-05
2690,8.706074260541941e-05
2691,-8.345526621635446e-05
2692,4.274571195489657e-05
2693,-1.2361919316448603e-05
2694,0.0001920555813194768
2695,-0.00015054599251556873
2696,0.00012774106514400015
2697,-0.0003982237867999826
2698,0.00038252859519369027
2699,-1.110332821771462e-05
2700,0.00015845114411404778
2701,9.477808710177617e-05
2702,0.000295631285468621
2703,-0.00024983986814086526
2704,7.182859866201965e-05
2705,-0.0003491869944651868
2706,-3.5541319541755277e-05
2707,-0.00021174817600141997
2708,-1.1159346262472211e-05
2709,0.00016857796518579595
2710,-0.0002693545200745682
2711,-0.0003653795260652045
2712,-0.00011524714214170355
2713,3.839952941324902e-05
2714,-0.00010708222619488777
2715,-0.0004303367304481366
2716,-0.0003906175088065312
2717,-0.000162705610533342
2718,0.0006736278138168387
2719,-1.8881744424397828e-05
2720,0.0001220918041092768
2721,0.00024504443483831204
2722,0.00040451750573853104
2723,0.00012202309277373328
2724,-0.00047051057064674854
2725,-0.00012194242216647007
2726,0.0002495574628704625
2727,-0.00023440140696849782
2728,-0.000223466529817223
2729,-9.920783201119265e-05
2730,0.00045411964483414323
2731,-0.00024386717556737096
2732,-0.00023771238703782657
2733,-0.0006112814397302404
2734,-4.041363715199228e-05
2735,-0.0005672895872329841
2736,0.0006023149192999486
2737,0.0006663651475892369
2738,0.00024150685214934217
2739,0.0003731859529895212
2740,-3.292553149823233e-05
2741,0.0004540890064096025
2742,-3.0304928701039946e-05
2743,-1.0351639982055612e-05
2744,-0.0006143506070290521
2745,-0.000178360308862008
2746,-0.0004977638534384352
2747,0.0006426563779433102
2748,0.00042526403915005913
2749,5.7384991694495814e-05
2750,0.0003712819066880345
2751,-2.0148899383557962e-05
2752,-0.00016917301027967444
2753,-2.2017608789533125e-05
2754,-0.00013012458681634277
2755,-0.0005413388973060509
2756,-0.0001806846554239423
2757,0.000314432152908876
2758,1.0753622337652947e-05
2759,-0.00031520540286494164
2760,0.00010205040466587331
2761,0.00024390811574855466
2762,-6.643390462169105e-05
2763,0.0007805841055099067
2764,0.00030872754299962136
2765,-0.00030094104893709525
2766,-0.00018707313741181338
2767,-0.00011764173290518566
2768,0.00018124015928994117
2769,0.0005534148387297553
2770,-0.0002647183030052909
2771,8.74318807570245e-05
2772,-0.00020191703598352687
2773,-0.00036814797688577977
2774,0.0004012261759948281
2775,0.00024437319249807904
2776,-0.00016900642447359028
2777,0.00015134588802643838
2778,0.00033888316501077376
2779,-0.00023645679762741566
2780,0.00038324011214727505
2781,-0.00014414059844616693
2782,-0.0001713206764407072
2783,0.00034361455375349483
2784,-0.0009114192541686542
2785,-0.0004611757919751331
2786,-0.0004138795472184375
2787,-0.00015744359087124007
2788,-0.00018537656954140886
2789,-0.00041787755599788205
2790,-0.00029347222314453526
2791,-0.00042222983566486466
2792,-3.162019990619813e-05
2793,8.838503256484478e-05
2794,-4.9681304301087625e-05
2795,0.00019881195591643056
2796,0.00016422080223871214
2797,4.793223848295345e-05
2798,-6.940534913361757e-05
2799,-4.67527913253567e-05
2800,0.0004990030369525436
2801,0.00032987997891245006
2802,0.00019798345352866633
2803,-0.0006162377793369624
2804,0.0012026153589821309
2805,1.2358342561137208e-05
2806,0.0006751948164017254
2807,0.00028095476465746585
2808,-3.70326563885096e-05
2809,0.00021738715989050354
2810,-0.0005938067860995626
2811,0.0002797183236327338
2812,6.642159073219983e-06
2813,-0.000170310803093465
2814,8.91607163341728e-05
2815,0.00020172535291404836
2816,0.0005978240396730069
2817,0.00011703221133548796
2818,-2.5340034238500996e-05
2819,1.6533511630391254e-05
2820,0.00027715732561914557
2821,-0.0002432135593488336
2822,4.5677932899933705e-05
2823,0.0003659336541630277
2824,-0.00012061630476559504
2825,-0.00018189939231963505
2826,2.0031184499054728e-05
2827,-0.0008732999161783805
2828,0.0003603523417279814
2829,-0.00023023913559304135
2830,0.00041354794193849455
2831,-2.5088420618779365e-06
2832,-7.054302273200373e-05
2833,2.1979341626978948e-05
2834,0.0002008043479507657
2835,-0.00012744054239783705
2836,0.0002896025496566787
2837,0.0001882535836845742
2838,0.0006181810767508559
2839,0.0001542398138794593
2840,-0.00024900817331402285
2841,-1.2006308977843727e-05
2842,-0.0001806672097745774
2843,0.00033080852167213044
2844,-0.0002348705691905117
2845,8.567453099536063e-05
2846,-2.1380511311706515e-05
2847,0.0004115797565333742
2848,-9.014739990552732e-05
2849,0.00019599775026340994
2850,0.00020775482664735594
2851,0.0003091798696292591
2852,-0.000361974942611342
2853,-0.00013601564638582314
2854,6.068005731414667e-05
2855,1.2112955087578449e-05
2856,0.0002693817215488622
2857,-0.00019364866437168642
2858,-6.240989382578803e-05
2859,-0.0009121441008358548
2860,0.00041515695940397827
2861,-0.00015840163390893385
2862,-0.00038912313527455204
2863,0.00010845643086264922
2864,-0.00035102222252187586
2865,-1.9212857237651186e-05
2866,-0.0003076960042675334
2867,4.419991289418028e-05
2868,-0.0006221948319542107
2869,-0.0003070469036109861
2870,-8.493315259567361e-05
2871,-0.00020922030644475554
2872,0.00021054372892756067
2873,-0.000244400126075192
2874,0.0006484324445058248
2875,0.0003524604114694822
2876,-0.0002505341836782125
2877,0.00036699268000647806
2878,-0.00037404340706289984
2879,0.0003398818326979272
2880,-0.0005778583428788173
2881,1.923749437075278e-06
2882,0.00045377769456117495
2883,-0.00030211528824990213
2884,-0.00045225857207003997
2885,-0.0005034612800943071
2886,-0.0002584245672346807
2887,-0.00011390872788664294
2888,-1.0374511482213811e-05
2889,7.48479386188604e-05
2890,-0.00020733391037755478
2891,0.00012122445993937412
2892,-1.757277292348163e-05
2893,0.0005315574041721163
2894,0.00020117952408966525
2895,0.00016512577096213651
2896,0.0001746165650435063
2897,6.653308171175023e-06
2898,-0.0006916920111001807
2899,0.0006907215692443276
2900,7.878512296599361e-05
2901,2.830681142525149e-05
2902,0.00024390074822242702
2903,-3.942465950419262e-05
2904,-0.00026449520835528
2905,-0.00019122998803584125
2906,-0.0002392288840910967
2907,6.4217823807085e-05
2908,8.399258287297653e-05
2909,-5.020164608789092e-05
2910,-0.0009259192964616016
2911,8.247475871082736e-05
2912,0.0006125344953026956
2913,-7.89848999446583e-05
2914,-0.00017942534594308035
2915,-0.0007133194021851097
2916,-8.436003436826082e-06
2917,-0.0001260137097755374
2918,0.0002422510288758742
2919,-0.00013321592069383338
2920,0.0003371391592427483
2921,-0.0005743061132782056
2922,-0.00038536900419305583
2923,-9.242298407874803e-05
2924,-0.00014143605795966787
2925,0.00015918674695882565
2926,-0.000328734366893435
2927,0.0001671492329345438
2928,-0.00014779394043458046
2929,0.00018088562000375628
2930,4.562739842371065e-05
2931,0.00012716247745089889
2932,-0.00023843445462381867
2933,0.00022408911638137328
2934,0.00012056437694152115
2935,0.0004646702683767998
2936,0.0003662629233509528
2937,-0.00024216341343796764
2938,5.353114155226492e-06
2939,-0.0003370956496649387
2940,1.2667372108780633e-05
2941,-0.0003025804129099593
2942,0.00014979641367872853
2943,-0.00024244457211074666
2944,0.0005882694723024427
2945,0.00027139164216173064
2946,0.0003271883747541634
2947,-0.00036957448465124346
2948,-0.00019585301359441946
2949,0.00019812045586186733
2950,-0.00016940601867130046
2951,-0.00041386945579529737
2952,-0.0004938144825226913
2953,0.0002602897750088961
2954,-4.2476420118479947e-05
2955,-0.00037982139698746565
2956,-0.00030616049907432287
2957,-0.00010760989778669365
2958,-0.00033207267936944415
2959,-0.00019045341544827638
2960,-0.0002964997630842757
2961,-0.0004152917779785409
2962,0.00018848195240894473
2963,-0.0001370030076528504
2964,-0.0003746925143308919
2965,-0.00031854366526996804
2966,-0.00023432833879249139
2967,0.00010949541121151763
2968,0.0003403002088019092
2969,-2.908246961914897e-05
2970,-0.0003341166035788283
2971,-0.00010854290529447847
2972,-0.00011532947701437615
2973,-2.7376283093479512e-05
2974,-5.831306940044262e-05
2975,-0.0002991675094817436
2976,-0.00011703568996582526
2977,5.4629584139785094e-05
2978,0.00042890320906479587
2979,-0.0003974831525954659
2980,-0.00014983334056935523
2981,-0.0002352297061486393
2982,-5.3120189936924024e-05
2983,-0.0007028273811574121
2984,-0.00031284274879872986
2985,7.42111663367078e-06
2986,-1.3983386219477593e-05
2987,6.120714793361174e-05
2988,0.0007377715981554234
2989,0.00023017982093218896
2990,3.455719751397648e-05
2991,0.00031404432540134273
2992,0.00020148856721084686
2993,-0.00010103856618165369
2994,0.00013355726180413409
2995,-0.00016717476559534075
2996,1.4910810918133225e-05
2997,9.599010801031296e-06
2998,-0.000319874667455237
2999,-0.00012305905799024218
3000,-4.802866138664981e-05
3001,0.00017511376137896426
3002,0.00020419147439248027
3003,-0.000396243311950615
3004,0.00023246555940258386
3005,-0.0003036543631104271
3006,0.0002913141380546139
3007,0.0001862815232924835
3008,-0.0008016464085049007
3009,-0.00011576026928859148
3010,1.5425596146660932e-05
3011,0.00021333705983268318
3012,0.00021674795524439884
3013,0.00037742738773841435
3014,-8.076553019259607e-05
3015,6.992084423030142e-05
3016,0.0002525285373844155
3017,0.0003093042018938243
3018,-0.0002980666417578738
3019,0.0001214221582653715
3020,-3.130579851671892e-05
3021,0.0005313075283792068
3022,-1.9866726893884303e-05
3023,0.0004325805551259841
3024,-0.0001884833022926862
3025,-8.009981512579228e-05
3026,5.124149715176583e-05
3027,3.791200078547829e-05
3028,-0.00010212920436852897
3029,3.540529243944135e-05
3030,0.0003404716872323161
3031,-0.00019478646071767981
3032,-0.00019680585640872742
3033,-0.0002239534132035844
3034,-0.00025207473783026826
3035,0.00020666243724758718
3036,-0.0004204417941057882
3037,-0.0002889414229349499
3038,-0.0002907958938791343
3039,-1.8586500758836938e-05
3040,-0.00017416324470445745
3041,0.0003727942891040721
3042,-0.00016535751216618664
3043,0.00026731513388287745
3044,-0.0002827150677402301
3045,0.00013114118394577155
3046,-0.0004654437197024878
3047,2.766411170116391e-05
3048,-0.00029733174252512674
3049,5.153834388794637e-05
3050,0.00010165491437460016
3051,-1.4398209192797682e-05
3052,-8.800188057462636e-05
3053,-6.796752252212089e-06
3054,0.00011189164026789678
3055,0.0006015361139368946
3056,0.0003199072217358873
3057,-0.00026682988212016717
3058,0.00011167710287739127
3059,0.0004228544227598727
3060,-0.00013282573985187653
3061,0.000644350830236338
3062,-0.00024357543355942675
3063,-0.0002533412102571284
3064,4.301814307441223e-05
3065,-0.0005102625599927778
3066,0.0007397250922087122
3067,-0.00034044863137381497
3068,-0.0005217994537967514
3069,-9.902505629159656e-05
3070,0.0005786920425338945
3071,0.00028202003944429203
3072,9.105708646182947e-05
3073,0.0002904222783424066
3074,-0.0001566291391857411
3075,-0.000133577867605536
3076,0.000389629734823285
3077,0.00046523944969038974
3078,0.00010702202832069661
3079,-0.0002639037091680505
3080,9.617465421416084e-05
3081,-4.359643436001265e-05
3082,-0.0004624803776532513
3083,0.00026298118363566014
3084,-0.0004556223754425517
3085,0.00018471878871338692
3086,0.00048754490585956316
3087,7.542170780316495e-05
3088,-0.0001959613801183813
3089,0.0001033301613102516
3090,0.00044039430486226086
3091,0.00035823444325062904
3092,-0.00011023392807231828
3093,0.00036872266106034035
3094,9.344218953445241e-05
3095,-0.0003964609673221923
3096,0.00019440062591149116
3097,-6.621527224915324e-05
3098,0.0003837186468229575
3099,6.75405588171925e-05
3100,-0.0006534450384294985
3101,0.00025916010437132547
3102,-0.000347299053992206
3103,0.00024154557042900608
3104,-0.00041870545690635727
3105,-0.0003245735300880354
3106,3.480881902698506e-05
3107,-0.0005856470635341004
3108,1.668699546440062e-05
3109,3.504008041753567e-05
3110,-0.0005687646588490703
3111,2.148205910739278e-05
3112,-0.00014689090454158527
3113,0.00029226800682311677
3114,0.00040733706028628537
3115,-0.00032056373845739804
3116,0.00020025208386886324
3117,0.00010952726673565636
3118,-0.000330578402973305
3119,0.00012405512603216707
3120,0.00010105429994756831
3121,-9.921721034003145e-05
3122,-0.0002519678602764411
3123,5.5288062376301684e-05
3124,0.00039603465977942014
3125,0.0003254974990755728
3126,-0.00010517924164318916
3127,0.00023470381811286758
3128,-6.326977777716196e-05
3129,8.805572450099008e-05
3130,-0.0002887406404477643
3131,0.0004826946181610594
3132,0.00015691120292649112
3133,0.0001765962071122183
3134,-0.00033615483240841766
3135,-0.00045285339311865197
3136,-1.7942228069620368e-05
3137,0.00073093367755579
3138,-4.988334514815805e-05
3139,0.0007115327770684326
3140,0.00024585833484356233
3141,-0.00012152184869749679
3142,-4.219671506273704e-05
3143,0.00026864039590922836
3144,-2.462329890081542e-05
3145,0.00018057252597017095
3146,0.0001231116223225748
3147,-0.0001786462073462363
3148,0.00013788128220012955
3149,-0.00015885656693933627
3150,-8.028511427609185e-05
3151,1.1669294370119177e-06
3152,0.00029915933395221437
3153,-0.0006332416370512261
3154,9.650170158740402e-05
3155,0.00024182727907103623
3156,-0.00013600844096150179
3157,0.00010538522448945159
3158,0.0006838896967828563
3159,0.0003110680523688026
3160,-0.0006459163239268453
3161,0.00017169141032864128
3162,0.00021216016515377125
3163,-0.00021545337659465254
3164,-0.000488236960329222
3165,-0.00023019123919320895
3166,0.00018903277958581783
3167,-0.0005171153708486386
3168,0.0010079610872276415
3169,-0.00057420792116898
3170,2.1464736081639587e-05
3171,1.3379346044959608e-05
3172,-0.00039723423247906584
3173,-5.246015857571925e-05
3174,-4.199056226142987e-05
3175,0.000299801018092388
3176,0.0004927891666045436
3177,-0.0001424929517763852
3178,-0.000324578459924093
3179,6.760697658520434e-06
3180,0.0002288921221703528
3181,-0.00015809274496635667
3182,-0.0003990588030339056
3183,0.00010572055105449308
3184,-0.0005444958707114455
3185,-0.00038206006961641516
3186,-0.000468359629874771
3187,-0.00026462845813469553
3188,-0.00027930368941803303
3189,-0.0003145715446347707
3190,0.0004436104679270987
3191,3.808997597737652e-05
3192,0.00012977925673217456
3193,-0.000245001036222361
3194,-0.00013297007298320265
3195,7.956426968568128e-05
3196,-2.5386942609055016e-05
3197,-2.864040005382153e-06
3198,-0.00021211102234826838
3199,0.0004258009412727408
3200,-0.0007666537158248481
3201,-0.00010079528948800854
3202,0.00026861267378798796
3203,0.00040683255765905986
3204,-0.000288546517888065
3205,-3.060250979120992e-05
3206,-0.00044856491865867803
3207,-0.00023457924835570943
3208,-0.0002303214461302278
3209,-8.492278966435944e-05
3210,-0.00011356375339173753
3211,0.00015268004111854792
3212,0.00015768299291098696
3213,-0.0003121590085134242
3214,-0.00019669785406088155
3215,0.00035603188464374295
3216,-0.0004237612062521482
3217,0.0001439521539867869
3218,0.00021401363618506352
3219,0.00033064981525553834
3220,0.00028242713742697277
3221,-6.439202349747125e-06
3222,-6.219321081863542e-05
3223,-0.0003028344644514431
3224,-0.0003604604879905342
3225,0.0002593857378429712
3226,-7.013461942179454e-05
3227,0.00018665819474042938
3228,-0.00035379719415841833
3229,0.00015535721937765166
3230,-0.00020234092797241797
3231,-0.0005086525506564807
3232,-1.1964380820569163e-05
3233,-6.44096761412912e-05
3234,-7.96213620442928e-05
3235,-0.0004470194920772888
3236,0.00010740948221664707
3237,-5.233706094773455e-05
3238,-0.0005294658293310112
3239,-0.0003446030848884739
3240,4.835685340040986e-05
3241,-0.000524088906693117
3242,0.00020610660853363262
3243,-0.0001782950213737272
3244,0.000490884371033551
3245,0.00019142550832398453
3246,0.00017816094397319013
3247,-0.0002312867835060592
3248,-0.0003224090402054071
3249,0.00019386270311779207
3250,0.00012568910884739264
3251,0.00043728331377264183
3252,-0.00033986488845914566
3253,-0.00034890514886345866
3254,0.00026159790698052765
3255,-9.001795296209642e-05
3256,0.00020269384197933734
3257,-0.00014494180581186048
3258,4.8519385629728204e-05
3259,0.0003183541201851998
3260,-0.00014618245718802853
3261,-0.00018453010753931979
3262,-0.0003442550786041919
3263,-4.0250154380120384e-05
3264,0.0006596654595491442
3265,6.848198962784336e-05
3266,0.00019465489835933082
3267,8.415793932311738e-05
3268,0.0001416726921171182
3269,-4.2880424974763926e-05
3270,0.000155477617783197
3271,-1.9670451356301706e-05
3272,0.0002790212542968908
3273,-0.00010226121718564207
3274,-0.00016228461006447735
3275,-5.0741889408799045e-05
3276,-0.0003930290635151628
3277,0.00028630091900181325
3278,-0.0005647041246505181
3279,-0.00037254714800078023
3280,-3.299631408652039e-05
3281,-0.0003825950720856055
3282,-0.00018115932114352707
3283,-0.00023025086108459196
3284,-0.0002943673144131731
3285,-0.00043133849554917084
3286,-3.91008554046736e-06
3287,7.526097299561306e-05
3288,-0.0003009329983497124
3289,-0.00022259787613636327
3290,-0.000371256437059692
3291,-6.732015072856422e-07
3292,-0.00042143241130902553
3293,-0.0005528282276347363
3294,-0.00023258374882191
3295,0.00028617983848271594
3296,-0.0005109420418799818
3297,2.53266349663274e-05
3298,-0.0003539327090554975
3299,0.0001002690479016186
3300,0.00043329783396274773
3301,0.00047454738293646907
3302,-3.8532613402105486e-05
3303,0.00011950145742026498
3304,-0.0009418863358798122
3305,0.00021045934743669646
3306,-0.00013102965035818702
3307,0.00023760861665509495
3308,-5.8115696410415765e-06
3309,0.0001990675002071883
3310,-0.0002563736511096997
3311,9.93565153082478e-06
3312,-0.000199912955162035
3313,0.0004436084683248656
3314,-0.00015347450299641084
3315,0.0003158455752376197
3316,3.073862071069307e-05
3317,8.676335424528722e-05
3318,0.00010762586521637316
3319,-1.3688430349029304e-05
3320,0.0005990024600356943
3321,0.0006947539892706279
3322,-0.0005909722146327347
3323,-2.9864250834373834e-05
3324,-0.00033617335261012675
3325,-9.414503308348288e-05
3326,0.0003513523691934225
3327,-0.00031252492590887307
3328,0.0005059956062436013
3329,-0.00029303580532752746
3330,0.0005701206156570545
3331,-0.00010931527559417359
3332,-0.00046496739434389456
3333,-1.8867178166602532e-05
3334,-7.513824392536866e-05
3335,-0.00011032921595500971
3336,0.00047220951825544964
3337,0.00020824152226436274
3338,0.00021452873834905395
3339,3.2700032211794466e-05
3340,-0.0002480573038546599
3341,0.00038482496001058034
3342,0.00022575976532633406
3343,-0.00035998707299625957
3344,0.0002759896617493726
3345,-0.0003544850468747728
3346,0.0005872710014627683
3347,0.00016864044962660397
3348,4.4878899774131436e-05
3349,-0.00019420905747692918
3350,0.00024275003773062317
3351,0.0006483850265683636
3352,0.0007608918926025324
3353,0.00043530910263313126
3354,-0.00015791142631549105
3355,-0.00017520466009935374
3356,-5.54732840334221e-06
3357,6.442195950825273e-05
3358,-0.0004013603458589648
3359,0.0003828317496779115
3360,-0.0005330186502907131
3361,-0.0002551985056077018
3362,0.0001366185032609319
3363,0.00011405342298800328
3364,0.000420381124980586
3365,-0.0004243795428681585
3366,0.000554703554608446
3367,0.0002742230494521606
3368,-0.00013782760900211144
3369,-0.0004329745787311897
3370,-8.511577444522533e-05
3371,1.7405348920657158e-05
3372,-0.0003526220734758017
3373,-0.00011682076095825235
3374,-3.95112887109581e-05
3375,0.0002247358979987996
3376,8.183582489904629e-05
3377,0.0003195093118552902
3378,-0.0003095663745219019
3379,-0.0003722353375466572
3380,4.242661146624397e-05
3381,-0.00013923110763178589
3382,-5.753186137760052e-05
3383,4.792572409409368e-05
3384,7.532666979960759e-05
3385,0.0003730011537496948
3386,2.1244006734357523e-05
3387,-4.942618066333167e-05
3388,-0.00036467002785953016
3389,-0.00015602460882182184
3390,-0.0003146717633142532
3391,0.00020491822153737718
3392,0.0003124466775744421
3393,0.00016515907560407092
3394,-0.00012819614219619752
3395,-0.0005697102444441193
3396,0.00018486042903825332
3397,-0.00022674364348619378
3398,-0.0005044984910941576
3399,0.00018979242051777397
3400,1.4665725391665403e-05
3401,0.00012579575558351123
3402,-0.00047719027304632747
3403,-1.0511903587853937e-05
3404,-0.0003619773721325797
3405,-0.00016891216027867007
3406,-0.0002884135963625804
3407,1.42568523869244e-05
3408,0.000985283802297496
3409,0.0001917839319095207
3410,0.0002910673895994556
3411,-0.0007207361958309321
3412,-9.054872495898106e-05
3413,-0.0003169559376777148
3414,0.0004224205102843737
3415,-0.0004158583476283952
3416,-0.00018674663639645913
3417,-7.066631969065865e-05
3418,0.0003511093343902631
3419,0.00011402970463996475
3420,0.0001411329226247228
3421,-0.0004289055797667746
3422,-0.000602323806608416
3423,5.409287773365752e-05
3424,0.00043090157009352076
3425,8.129908842794947e-06
3426,0.000533695950216417
3427,-0.00011793628230196069
3428,5.7515449138514806e-05
3429,-0.0002845136576359887
3430,0.00020033929901245453
3431,-1.6951140205632265e-05
3432,0.00016370809651204614
3433,-0.0002008041458310258
3434,0.00014498030066283297
3435,-0.0005775925254189496
3436,-0.0002348948826672566
3437,0.00014127532730127317
3438,0.00013191530486657822
3439,7.675899462842946e-05
3440,4.158319979444917e-05
3441,1.749863276861334e-05
3442,-0.0004551759438758536
3443,-0.0006578656742052283
3444,0.0002045743604878038
3445,-0.00011219475295136181
3446,0.00024131368855605944
3447,-0.00016607072297478802
3448,0.0004023964364323051
3449,-0.0004180652783099137
3450,-0.0002769625978558782
3451,-0.0004040289806544125
3452,-5.409622515169184e-05
3453,0.00010612347081708587
3454,-0.0002221353214446618
3455,0.0005283129144584401
3456,-0.0002588022502480227
3457,-0.0001429586333564139
3458,6.196847359615634e-05
3459,-0.00012133209629558221
3460,0.00023270183240023132
3461,0.0005762110107368701
3462,-0.00010444138269236972
3463,-0.0002580268568095208
3464,-0.0002691363139672228
3465,0.00018832833914562093
3466,-0.0002989777448884844
3467,-0.00020117589036607397
3468,-7.442323333680845e-05
3469,-5.3799984896101406e-05
3470,0.00022312958110912544
3471,0.00016096770480211267
3472,0.00016433073961829607
3473,0.0003189766749420078
3474,0.0004050710784945918
3475,-0.0002637892599859915
3476,-0.0001935017824183632
3477,-0.0005570254057504663
3478,0.0004345017699140236
3479,-5.4977748626161536e-05
3480,2.5208544817913345e-05
3481,0.0002974342660565962
3482,-1.3912937030713045e-05
3483,-4.138239795173091e-05
3484,-0.00023166364960350085
3485,-0.0004815378109404001
3486,0.00012880773218671272
3487,-0.0003585412290868042
3488,-0.00025893795475207936
3489,-2.969978921172963e-06
3490,0.00010942259042780206
3491,0.00029461441464319696
3492,-0.0001351034910674148
3493,-0.0004648365161060126
3494,0.0005841267970262598
3495,-0.00033337952186416914
3496,-0.000300970446527271
3497,5.234500066074441e-05
3498,0.0005415017816053864
3499,1.53648557558756e-05
3500,0.0001484654587452746
3501,-0.00048106903037177355
3502,-5.866268221970869e-05
3503,0.0003582794786300505
3504,-0.0002159970758279354
3505,0.00048133637140025366
3506,-6.990800444216331e-05
3507,0.00013814991961923805
3508,0.0005781012390245672
3509,-0.0007387107590340863
3510,6.795208895387255e-05
3511,-0.0002663455637304174
3512,-4.4773854061028015e-05
3513,-0.0002911854327209496
3514,-0.0001914950541659606
3515,-4.918064819010774e-05
3516,0.0003335756229505604
3517,-6.31156168498466e-05
3518,2.9616115242414874e-06
3519,3.906430885623674e-05
3520,-0.00017504677831477108
3521,0.00021761311348914613
3522,-0.00015308773192421416
3523,0.0004284580674442033
3524,-0.00012981966347250563
3525,-0.0004320183223582578
3526,0.00037884443167429015
3527,-0.0003084863703843547
3528,-0.00011090427726708277
3529,-0.00037372716538672913
3530,-0.00041157338693222724
3531,0.00021476605080528633
3532,0.0001395117271345418
3533,-4.555992164238621e-05
3534,0.00028260089843762685
3535,-0.00012792009002199974
3536,0.00039664989772268303
3537,0.0003494601913249841
3538,-3.276585013283034e-05
3539,-0.00043322740430085755
3540,-0.0007835871519604089
3541,-0.00042153479965470806
3542,5.019046679948591e-05
3543,-0.0001365481246858901
3544,-0.00020010599193862248
3545,0.0002952512832700707
3546,-0.0002608075269437686
3547,-0.0002404539261118942
3548,-0.00013805613165150763
3549,-3.2602951846448114e-05
3550,-0.0005213831043674697
3551,-6.531235335239856e-05
3552,-0.00010234386367581074
3553,8.36135560562546e-05
3554,-0.00026990965303919654
3555,-7.389233383065767e-06
3556,-0.0002064207260354285
3557,-0.00021876810532496619
3558,0.00043927765556457795
3559,4.0854255545244456e-05
3560,-0.00012225012267537224
3561,-0.00018408512494394436
3562,9.298918723490618e-05
3563,0.0003683784569714718
3564,-3.9750179078849816e-05
3565,0.0006091613123537321
3566,0.00021221370953667572
3567,4.410515185693811e-05
3568,0.0002546526149529204
3569,0.00029322188736262373
3570,0.00031216375782488164
3571,0.0006187776479739836
3572,2.7560612991584935e-05
3573,-0.0001042024145488147
3574,-5.191911013824199e-05
3575,5.144361276566356e-06
3576,-3.057432796011273e-05
3577,-0.0004904635777090825
3578,7.255475331150935e-05
3579,0.0007077049546439787
3580,-0.00011640428665796563
3581,-0.00037923977948295525
3582,-0.0004497254331583677
3583,0.0001242222155870723
3584,-0.0006949362949681579
3585,0.00010682925656101334
3586,-8.29217674623855e-05
3587,0.00018006751466995407
3588,-0.0001984659080265662
3589,0.00023383236600342983
3590,1.0305799316238835e-05
3591,0.00035349114729013814
3592,-0.0005930805729428849
3593,-5.875064925098443e-05
3594,0.00016729975465994086
3595,0.00047927885085618697
3596,-0.00024772693212137296
3597,0.0002814041613215124
3598,-0.0001992312960463044
3599,0.0004200876485049999
3600,8.314042128122459e-05
3601,-0.0007085325938511045
3602,8.117967373250978e-05
3603,-0.0008688570281377849
3604,-0.000490591623487356
3605,-0.00017179163025986166
3606,0.00031750228234790677
3607,0.00033841944652996986
3608,-0.0006111065943953892
3609,0.00023903031130981473
3610,0.00025379019954224833
3611,-0.000723329558699158
3612,0.00015143166379954942
3613,0.0005524871041556577
3614,-0.0001442393723790667
3615,-0.00010207459210327961
3616,-0.0005328925622135302
3617,-0.0005373843886610106
3618,-7.187544894067021e-05
3619,-0.00015249394308926417
3620,-0.0001780726410087225
3621,-0.0004703508447056176
3622,-0.0002465612093793049
3623,-4.03204194235326e-05
3624,-0.0009957750353480788
